time,lam_star_Fx,lam_star_Fy,lam_star_Fz,lam_star_Tx,lam_star_Ty,lam_star_Tz,meas_Fx,meas_Fy,meas_Fz,meas_Tx,meas_Ty,men_tas_Tz,v_final_Fx,v_final_Fy,v_final_Fz,v_final_Tx,v_final_Ty,v_final_Tz,v_object_x
1757930732.5709705,0.0,-4.0,0.0,0.0,0.0,0.0,0.0,0.0,0.0,0.0,0.0,0.0,0.0,-0.04,0.0,0.0,0.0,0.0,-1.5376389576933227
1757930732.6305928,0.0,-13.290043568682975,0.0,0.0,0.0,0.0,-3.33477806017411,0.041630408831947144,-4.139963354738793,0.5401985736533648,0.16601397487242445,-1.8956335818977954,0.0,-0.13331673977514924,0.0,0.0,0.0,0.0,-0.7425808856991692
1757930732.6806593,0.0,-13.261575905505026,0.0,0.0,0.0,0.0,-3.3136749403228984,0.050129856459086436,-4.142301494274828,0.5403284159952354,0.17772166705492257,-1.8833183673571396,0.0,-0.13311705761964113,0.0,0.0,0.0,0.0,-1.3586106262992224
1757930732.7405858,0.0,-13.295638053019575,0.0,0.0,0.0,0.0,-3.3441118991517382,0.07337654227041633,-4.135305817452453,0.5293379866988793,0.1613121437641471,-1.8929866922286285,0.0,-0.1336901459528999,0.0,0.0,0.0,0.0,-0.9711442501038846
1757930732.7909195,0.0,-13.247143899704104,0.0,0.0,0.0,0.0,-3.2930898209925514,0.11455389059864755,-4.151319172358357,0.5154371191131683,0.18710827152463302,-1.847169238429685,0.0,-0.13361697790302754,0.0,0.0,0.0,0.0,-1.2710638063310675
1757930732.8506482,0.0,-13.30184212544924,0.0,0.0,0.0,0.0,-3.2768398254375013,0.04923569861909237,-4.1919639057710025,0.5678736516674188,0.20852152965957876,-1.8594703828165073,0.0,-0.13351077824068333,0.0,0.0,0.0,0.0,-0.9362724066173918
1757930732.900865,0.0,-11.090691554869538,0.0,0.0,0.0,0.0,-2.665864662496363,0.22838748820009525,-3.545943579316212,0.328319862819269,0.2594221065773498,-1.6023966859123555,0.0,-0.11319079043069634,0.0,0.0,0.0,0.0,-1.2871033762559545
1757930732.9608476,0.0,-13.805613619105848,0.0,0.0,0.0,0.0,0.034339846301719545,-14.52608554762129,-5.5221386761799565,9.663905169445634,2.2688857744667668,-6.139471360401415,0.0,0.007204719285154422,0.0,0.0,0.0,0.0,-0.32567454330178225
1757930733.0206423,0.0,-12.900919111383956,0.0,0.0,0.0,0.0,1.4887110671590449,-18.798845300454477,-4.94096484357799,11.374837825411623,2.6653903133963555,-6.93289505101114,0.0,0.05897926189070521,0.0,0.0,0.0,0.0,-0.8228982877996885
1757930733.071297,0.0,-8.88445920084756,0.0,0.0,0.0,0.0,1.4718037410187406,-19.164032544530805,-3.2346827038470436,9.824990573102491,1.9559066783278731,-6.959169930227203,0.0,0.10279573343683245,0.0,0.0,0.0,0.0,-1.4712009329725986
1757930733.1308374,0.0,-5.896149314420428,0.0,0.0,0.0,0.0,-0.21460350383053098,-15.79536051720158,-2.3486757149964608,6.856590752950632,0.8589704708229224,-6.447052070846176,0.0,0.09899211202781154,0.0,0.0,0.0,0.0,-1.4783804432873673
1757930733.1907337,0.0,-5.097228454749138,0.0,0.0,0.0,0.0,-1.763383353644823,-13.630342452834213,-1.023502425631236,4.89936551139977,-0.3091573363045869,-6.464046609988767,0.0,0.08533113998085075,0.0,0.0,0.0,0.0,-4.211734140666046
1757930733.2505286,0.0,-5.126652692965779,0.0,0.0,0.0,0.0,-1.8058034890324643,-13.104864333681027,-0.9717430794634474,4.562720690245711,-0.3476591519279957,-6.233259991548942,0.0,0.07978211640715248,0.0,0.0,0.0,0.0,-3.5030919918847063
1757930733.3009362,0.0,-5.569161136085723,0.0,0.0,0.0,0.0,-1.866882381197168,-12.59596404460942,-1.215417251945032,4.3971704202655975,-0.2843599084667082,-6.024779231266568,0.0,0.07026802908523698,0.0,0.0,0.0,0.0,-4.0115422525859
1757930733.3608768,0.0,-7.931006668180475,0.0,0.0,0.0,0.0,-3.1334539239086157,-11.021438049889026,-0.495585704048661,3.219761458250922,-1.1334302242038883,-5.98079189884597,0.0,0.030904313817085506,0.0,0.0,0.0,0.0,-4.203179929250815
1757930733.4206328,0.0,-7.501304069624613,0.0,0.0,0.0,0.0,-2.9452979787190725,-10.590057485690856,-0.5730181984440209,3.008916624718836,-1.0117652769006957,-5.681761591619588,0.0,0.030887534160662432,0.0,0.0,0.0,0.0,-4.862017844400531
1757930733.4712586,0.0,-6.09056685594487,0.0,0.0,0.0,0.0,-2.370089941147089,-10.645716409279753,-0.5638035217616673,3.0023922875416518,-0.76756321024877,-5.371179384984722,0.0,0.04555149553334884,0.0,0.0,0.0,0.0,-5.261571955206508
1757930733.5307791,0.0,-8.383787912389959,0.0,0.0,0.0,0.0,-3.322573429487075,-10.644311413099834,-0.4544994689284642,2.961522806057524,-1.2377867905167652,-5.893143568827989,0.0,0.022605235007098747,0.0,0.0,0.0,0.0,-4.808412276107769
1757930733.5907006,0.0,-7.121543516325426,0.0,0.0,0.0,0.0,-2.5098181081327495,-12.267305357325856,-1.3473804929846733,4.219242988836557,-0.5720588149324974,-5.986722445996753,0.0,0.051457618410004305,0.0,0.0,0.0,0.0,-3.7844901478147315
1757930733.650572,0.0,-6.261364545137902,0.0,0.0,0.0,0.0,-2.455804160390558,-10.216260706378371,0.491706905123391,2.172024109580791,-1.2758107081619372,-5.1829139235783686,0.0,0.03954896161240469,0.0,0.0,0.0,0.0,-5.022474827282466
1757930733.7011852,0.0,-7.27163359569405,0.0,0.0,0.0,0.0,-2.817344530241518,-9.18278216983908,0.7230730405169461,1.538745883791956,-1.5186677852107,-5.005479802098466,0.0,0.01911148574145029,0.0,0.0,0.0,0.0,-6.330030090005981
1757930733.7607124,0.0,-6.0877355716591035,0.0,0.0,0.0,0.0,-2.387314266050182,-9.050241059894082,0.4800151014127128,1.6158950069279268,-1.2416945729429603,-4.692567234679702,0.0,0.02962505488234979,0.0,0.0,0.0,0.0,-5.886784330419839
1757930733.810765,0.0,-7.592497511425653,0.0,0.0,0.0,0.0,-2.249304564470025,-8.478418348104277,2.0405861731412056,0.5252367983229906,-1.77477722997868,-4.458392806805897,0.0,0.008859208366786246,0.0,0.0,0.0,0.0,-4.635635717589371
1757930733.870791,0.0,-8.90916291674529,0.0,0.0,0.0,0.0,-3.118893572892195,-9.142988817068035,1.7240105281897993,0.9465415374949147,-2.0659955533610987,-5.178723940687171,0.0,0.0023382590032274566,0.0,0.0,0.0,0.0,-7.225972904680425
1757930733.9308317,0.0,-8.859139953482234,0.0,0.0,0.0,0.0,-3.1739275543909606,-10.689199438137507,1.575970048554049,1.7797115821065292,-2.0460522055413066,-5.750588140678713,0.0,0.018300594846552727,0.0,0.0,0.0,0.0,-5.878490244993507
1757930733.9909697,0.0,-10.778788793716826,0.0,0.0,0.0,0.0,-3.5958549553311503,-10.958232938436897,2.3788638459880977,1.3823780810419746,-2.5578077918358932,-6.093563560211836,0.0,0.0017944414472007076,0.0,0.0,0.0,0.0,-6.620175985206064
1757930734.0505862,0.0,-8.30829206850557,0.0,0.0,0.0,0.0,-2.950773490567283,-12.238992990091123,1.52884614747861,2.4304514289697017,-1.9543833297679296,-6.172028532387592,0.0,0.039307009215855525,0.0,0.0,0.0,0.0,-7.892835710374281
1757930734.1009266,0.0,-14.461420855646463,0.0,0.0,0.0,0.0,-3.8047824971719786,-7.8738468167782845,4.35716204145244,-1.1977713018331562,-3.4276383528570813,-5.071417337590076,0.0,-0.06587574038868178,0.0,0.0,0.0,0.0,-8.356447311090626
1757930734.160714,0.0,-10.744255110525815,0.0,0.0,0.0,0.0,-3.022959981055662,-11.10718005178467,3.054825005421025,1.2626358162543518,-2.5328549600153782,-5.92988382406091,0.0,0.0036292494125885534,0.0,0.0,0.0,0.0,-8.88877478768702
1757930734.2112327,0.0,-9.867016038256965,0.0,0.0,0.0,0.0,-1.886678027806178,-13.95740891994872,3.466659328412386,2.8611886115581253,-2.12643559752956,-6.62028402854111,0.0,0.04090392881691756,0.0,0.0,0.0,0.0,-7.933438776073387
1757930734.2709584,0.0,-17.524366944509147,0.0,0.0,0.0,0.0,-0.8656136716308984,-11.714361064893382,6.9560953745915866,0.07857535186011716,-3.0003291858099526,-5.408936967788779,0.0,-0.05810005879615766,0.0,0.0,0.0,0.0,-12.103821436217949
1757930734.330711,0.0,-17.383709209881694,0.0,0.0,0.0,0.0,-4.069141999741097,-13.241003902071817,5.638529837549779,1.5347532051495927,-3.9414739730924624,-7.648774269029263,0.0,-0.04142705307809877,0.0,0.0,0.0,0.0,-11.61701223037232
1757930734.3907719,0.0,-20.0,0.0,0.0,0.0,0.0,-1.2688428438975705,-16.062526508556665,8.115742509177254,1.776514717847599,-3.614935966686272,-7.377319371523956,0.0,-0.03937473491443335,0.0,0.0,0.0,0.0,-13.090309549803687
1757930734.4413726,0.0,-20.0,0.0,0.0,0.0,0.0,-0.03239629061634247,-17.876694288045353,8.419061365349657,2.4811213602089697,-3.1726326806203415,-7.453219593493969,0.0,-0.021233057119546466,0.0,0.0,0.0,0.0,-13.489611918182433
1757930734.5008807,0.0,-20.0,0.0,0.0,0.0,0.0,0.02576518206230411,-17.883367067513618,10.071974514674235,1.8209896461282673,-3.776534867997958,-7.313858705930414,0.0,-0.021166329324863824,0.0,0.0,0.0,0.0,-16.014868416469064
1757930734.560846,0.0,-19.975416109733796,0.0,0.0,0.0,0.0,1.6175298866433818,-23.09054114382779,7.824727271089865,5.769462736051775,-2.206059434620413,-8.121624685028975,0.0,0.031151250340939924,0.0,0.0,0.0,0.0,-13.51312481522023
1757930734.6207259,0.0,-20.0,0.0,0.0,0.0,0.0,1.4380710666111303,-20.591252405452185,9.437593633545713,3.489362785747389,-2.9233609088298524,-7.218952437006278,0.0,0.005912524054521846,0.0,0.0,0.0,0.0,-15.228145260467002
1757930734.6707487,0.0,-17.140267914819756,0.0,0.0,0.0,0.0,0.2142077860131435,-16.927437285431807,6.852760064025245,2.684721314321276,-2.4897580237713113,-6.386756990742041,0.0,-0.0021283062938794828,0.0,0.0,0.0,0.0,-12.903706807543776
1757930734.7308073,0.0,-18.42229295438611,0.0,0.0,0.0,0.0,-1.0375953008851053,-13.87703673463,7.2955011084323065,0.9903389410571996,-3.207674132797793,-5.944333642752613,0.0,-0.04545256219756109,0.0,0.0,0.0,0.0,-12.804458636709121
1757930734.7905784,0.0,-17.445812225096166,0.0,0.0,0.0,0.0,0.2570883567388732,-15.605375831041279,6.97358758801807,2.337751734614227,-2.488646109877915,-5.942237930462227,0.0,-0.018404363940548868,0.0,0.0,0.0,0.0,-12.881129319678688
1757930734.8406236,0.0,-20.0,0.0,0.0,0.0,0.0,0.6048047000954637,-16.791117036265824,8.551784125829338,2.3292493170144666,-2.9534255906691866,-6.133812873121563,0.0,-0.03208882963734176,0.0,0.0,0.0,0.0,-13.634667971930618
1757930734.9009628,0.0,-20.0,0.0,0.0,0.0,0.0,1.2886511566035632,-17.70845729531641,8.944426806949112,2.6932203486297612,-2.7933440800189637,-6.046818606411729,0.0,-0.022915427046835895,0.0,0.0,0.0,0.0,-13.23935063962456
1757930734.9605713,0.0,-20.0,0.0,0.0,0.0,0.0,2.562139665637083,-17.877564590899272,8.189413606524228,3.4307267270973085,-1.9401667442215114,-5.347068572245747,0.0,-0.02122435409100728,0.0,0.0,0.0,0.0,-12.578825408068276
1757930735.0107367,0.0,-19.40964666608423,0.0,0.0,0.0,0.0,2.3999527790945896,-18.73683254743993,7.383612127575074,4.206823542416131,-1.707800560437554,-5.7142342271045194,0.0,-0.006728141186443004,0.0,0.0,0.0,0.0,-13.338162691324051
1757930735.0706825,0.0,-17.862401714949524,0.0,0.0,0.0,0.0,2.805838562652529,-19.598168911079643,6.570976576166519,5.16225201469325,-1.2233943029789456,-5.710034325833412,0.0,0.017357671961301193,0.0,0.0,0.0,0.0,-11.609044671389396
1757930735.120719,0.0,-15.627814600856137,0.0,0.0,0.0,0.0,1.441730574357679,-17.469180336430803,6.082597078778065,4.174830617916816,-1.6609083312574127,-5.6012012102039375,0.0,0.018413657355746658,0.0,0.0,0.0,0.0,-10.61217092850424
1757930735.1806335,0.0,-15.114058238542704,0.0,0.0,0.0,0.0,-0.27724029662735894,-13.913658773231502,6.039263104718628,2.2955838802118693,-2.405524444729381,-5.218208153330446,0.0,-0.01200399465311202,0.0,0.0,0.0,0.0,-10.47529785736631
1757930735.2319553,0.0,-14.407952345829697,0.0,0.0,0.0,0.0,-1.2126407323897703,-9.290684846377012,5.634159829300294,0.039056474030926824,-2.6519337277287804,-4.004579399188843,0.0,-0.05117267499452686,0.0,0.0,0.0,0.0,-10.82329067566523
1757930735.2907014,0.0,-10.694748142367333,0.0,0.0,0.0,0.0,0.3801846359293384,-14.915347892034967,4.260971919080247,3.8583020194421698,-1.4397272373653822,-5.167664852148379,0.0,0.04220599749667635,0.0,0.0,0.0,0.0,-9.48775244255068
1757930735.3408735,0.0,-14.699324927869611,0.0,0.0,0.0,0.0,1.1953572342841938,-14.717084521635089,5.756938910224659,3.1908926636109345,-1.6445669060268027,-4.694741100673704,0.0,0.00017759593765477534,0.0,0.0,0.0,0.0,-10.945687756768656
1757930735.40059,0.0,-13.577580444315107,0.0,0.0,0.0,0.0,0.5181612800771584,-14.171467700220239,5.4062574303601645,2.84232405562778,-1.8282731037268003,-4.757374091803194,0.0,0.005938872559051323,0.0,0.0,0.0,0.0,-10.140202371449071
1757930735.4607697,0.0,-15.78507244963814,0.0,0.0,0.0,0.0,1.6617008647524774,-14.752007819153752,6.0914458213574285,3.1630964744453554,-1.5653916897735907,-4.441453102971118,0.0,-0.010330646304843878,0.0,0.0,0.0,0.0,-10.70306169153487
1757930735.5205817,0.0,-13.057518242500153,0.0,0.0,0.0,0.0,1.106958988701113,-17.231662359177104,5.104355691157279,4.737191474926219,-1.4623530275753924,-5.527404536931399,0.0,0.04174144116676951,0.0,0.0,0.0,0.0,-10.195879126080158
1757930735.5708396,0.0,-14.496979272794785,0.0,0.0,0.0,0.0,0.7811502738861831,-16.28843006344025,5.745936784836934,3.9944097881088725,-1.857456786070941,-5.389353336518738,0.0,0.01791450790645463,0.0,0.0,0.0,0.0,-10.482652228949746
1757930735.6306353,0.0,-12.935375473333423,0.0,0.0,0.0,0.0,0.3857234779420111,-12.101555303211764,5.159752666586148,1.8228544482272389,-1.8011412346010156,-4.006704990697656,0.0,-0.008338201701216583,0.0,0.0,0.0,0.0,-12.99083185992678
1757930735.6905646,0.0,-12.801926303126338,0.0,0.0,0.0,0.0,0.6232407158565265,-13.96018574501148,5.082702208609818,3.0991624705641345,-1.6528713513651643,-4.68137645969768,0.0,0.011582594418851412,0.0,0.0,0.0,0.0,-10.4655247034025
1757930735.740811,0.0,-17.79842286527125,0.0,0.0,0.0,0.0,0.7780921961265874,-13.176471025625741,7.0767216684626355,1.7692751240755809,-2.3470071963241237,-4.328244369617745,0.0,-0.04621951839645508,0.0,0.0,0.0,0.0,-10.771595897379331
1757930735.8006794,0.0,-16.30576142837496,0.0,0.0,0.0,0.0,0.36222538700528556,-14.421414097319484,6.512238454668394,2.6806693065323364,-2.330874736292789,-4.995959796811196,0.0,-0.018843473310554765,0.0,0.0,0.0,0.0,-11.941350200761542
1757930735.860903,0.0,-15.413326068848733,0.0,0.0,0.0,0.0,1.8025396643906184,-15.998725509849669,5.895943524071687,3.919059149488134,-1.4463371804154934,-4.8027557618495145,0.0,0.00585399441000936,0.0,0.0,0.0,0.0,-10.988988302263524
1757930735.9205046,0.0,-20.0,0.0,0.0,0.0,0.0,1.2320868477068285,-15.645724691069518,8.22259131040446,2.2730334600904616,-2.6103754444415364,-5.053531666441302,0.0,-0.043542753089304824,0.0,0.0,0.0,0.0,-13.180994592501898
1757930735.9707923,0.0,-20.0,0.0,0.0,0.0,0.0,1.7946961102603753,-15.725462247723673,8.076660295017485,2.303357958823109,-2.2875367458743607,-4.979670763973029,0.0,-0.04274537752276327,0.0,0.0,0.0,0.0,-12.84505783914785
1757930736.0307734,0.0,-20.0,0.0,0.0,0.0,0.0,0.3031401100132444,-15.477399010731538,10.71367834390606,0.6274821714777421,-3.9098832976638698,-5.884785217127383,0.0,-0.04522600989268462,0.0,0.0,0.0,0.0,-15.06949699768039
1757930736.0810032,0.0,-20.0,0.0,0.0,0.0,0.0,0.5288156374135413,-15.374526155461297,11.24237214168609,0.20746160195561347,-4.003188263516553,-5.78887047685428,0.0,-0.046254738445387036,0.0,0.0,0.0,0.0,-15.802075888036425
1757930736.1410549,0.0,-20.0,0.0,0.0,0.0,0.0,0.6711869211864652,-16.099444371302432,12.02222869038645,-0.01274259781328764,-4.217104157407345,-6.09369834267047,0.0,-0.039005556286975676,0.0,0.0,0.0,0.0,-16.477119638252276
1757930736.2010465,0.0,-20.0,0.0,0.0,0.0,0.0,0.22214171980176012,-16.728114256197212,13.257171851529781,-0.5188431338309332,-4.873080305190637,-6.616712388677402,0.0,-0.032718857438027875,0.0,0.0,0.0,0.0,-18.480060538776222
1757930736.2609103,0.0,-20.0,0.0,0.0,0.0,0.0,0.13052238543906733,-16.85018617043426,13.828292763833918,-0.8464475047459424,-5.12621564215933,-6.716652386933463,0.0,-0.0314981382956574,0.0,0.0,0.0,0.0,-18.515252728622617
1757930736.3205764,0.0,-20.0,0.0,0.0,0.0,0.0,0.43861101510119693,-18.62212142102644,13.53813686271873,0.0454329992635507,-4.916323741213385,-7.137432469148136,0.0,-0.013778785789735615,0.0,0.0,0.0,0.0,-18.604420731975804
1757930736.3705924,0.0,-20.0,0.0,0.0,0.0,0.0,0.2843053748030997,-18.600730171542253,15.417167255656082,-1.1825988553654316,-5.677792756241018,-7.277518489494645,0.0,-0.013992698284577472,0.0,0.0,0.0,0.0,-20.420695222859436
1757930736.4210975,0.0,-20.0,0.0,0.0,0.0,0.0,0.3201482040679026,-19.460943331071807,16.04174617016615,-1.2138541298329963,-5.8926087104001414,-7.597068013118658,0.0,-0.005390566689281933,0.0,0.0,0.0,0.0,-21.11881113641955
1757930736.4806328,0.0,-20.0,0.0,0.0,0.0,0.0,-0.08806140806413708,-19.196201658654797,17.388981026250917,-2.2296786938732405,-6.5598721642027,-7.776442321758936,0.0,-0.008037983413452032,0.0,0.0,0.0,0.0,-22.84059689642836
1757930736.5306728,0.0,-20.0,0.0,0.0,0.0,0.0,-0.26825022629531325,-19.793430443252262,17.748093425119563,-2.192493002105305,-6.776982898485448,-8.08651629805499,0.0,-0.002065695567477377,0.0,0.0,0.0,0.0,-22.990463303157316
1757930736.5905955,0.0,-20.0,0.0,0.0,0.0,0.0,-0.26674279566418835,-19.746072488708876,18.112343700307022,-2.4589484363325034,-6.912774757661595,-8.09296323347743,0.0,-0.0025392751129112412,0.0,0.0,0.0,0.0,-22.86318933228451
1757930736.6409566,0.0,-20.0,0.0,0.0,0.0,0.0,-0.5316362092543854,-20.213575837837176,18.892332513854686,-2.794690696615897,-7.319680778971338,-8.419089229498852,0.0,0.0021357583783717616,0.0,0.0,0.0,0.0,-23.983178145832174
1757930736.7009313,0.0,-20.0,0.0,0.0,0.0,0.0,-0.9860556775533219,-19.61976029047517,19.485777566057966,-3.542833833472321,-7.746628532089103,-8.464252722541149,0.0,-0.0038023970952482957,0.0,0.0,0.0,0.0,-24.93273476900359
1757930736.760669,0.0,-20.0,0.0,0.0,0.0,0.0,-0.9916906287182488,-20.040726849679135,20.241350191251808,-3.8306650695767277,-8.033521705722181,-8.656378060195527,0.0,0.00040726849679135314,0.0,0.0,0.0,0.0,-25.688159772912663
1757930736.8204713,0.0,-20.0,0.0,0.0,0.0,0.0,-1.259571132887395,-19.370997328733306,20.82450125175161,-4.520488771792567,-8.361509943461181,-8.58142981194217,0.0,-0.0062900267126669365,0.0,0.0,0.0,0.0,-25.79270637448571
1757930736.870627,0.0,-20.0,0.0,0.0,0.0,0.0,-1.5184013716462654,-20.286729948837916,21.351574104407327,-4.490822538553854,-8.681037856844098,-9.074637207029628,0.0,0.0028672994883791603,0.0,0.0,0.0,0.0,-26.74318997458477
1757930736.9306123,0.0,-20.0,0.0,0.0,0.0,0.0,-2.0066036137490038,-20.141033758339674,22.633388540188054,-5.367483589643848,-9.377899466935434,-9.346418941308936,0.0,0.0014103375833967391,0.0,0.0,0.0,0.0,-28.11868623485032
1757930736.9806545,0.0,-20.0,0.0,0.0,0.0,0.0,-2.3860271535838993,-19.388559985945044,22.642204340908826,-5.878981635583471,-9.568873092822995,-9.277378009281135,0.0,-0.006114400140549563,0.0,0.0,0.0,0.0,-28.05382021108627
1757930737.0306656,0.0,-20.0,0.0,0.0,0.0,0.0,-2.703739601393997,-19.660488852536666,23.36446750659305,-6.215540275055769,-9.991016767409159,-9.580973001541405,0.0,-0.003395111474633339,0.0,0.0,0.0,0.0,-27.090640226583385
1757930737.0904875,0.0,-20.0,0.0,0.0,0.0,0.0,-2.519435762474633,-20.876669729790184,25.225256410236128,-6.554002786204993,-10.583123994003587,-10.021478211578462,0.0,0.008766697297901836,0.0,0.0,0.0,0.0,-30.579853672493467
1757930737.140849,0.0,-20.0,0.0,0.0,0.0,0.0,-3.5135846230127825,-20.496492437752227,25.15093346934767,-7.029071172542375,-11.044291470817551,-10.397324048850146,0.0,0.004964924377522273,0.0,0.0,0.0,0.0,-31.064976321479843
1757930737.2008202,0.0,-20.0,0.0,0.0,0.0,0.0,-4.395318525652968,-18.979148816343205,24.993415633168723,-7.930602341717183,-11.391317722663747,-10.308579228018834,0.0,-0.01020851183656795,0.0,0.0,0.0,0.0,-30.5852135564905
1757930737.2607086,0.0,-20.0,0.0,0.0,0.0,0.0,-5.617335448640953,-17.3230480309074,25.72892501314404,-9.300381218933664,-12.198118560421882,-10.377872875801673,0.0,-0.02676951969092599,0.0,0.0,0.0,0.0,-30.98054088332148
1757930737.320751,0.0,-20.0,0.0,0.0,0.0,0.0,-3.250541865840972,-21.717894805884598,25.71780207554013,-6.748106960132754,-11.1284174624875,-10.75034393384377,0.0,0.017178948058845976,0.0,0.0,0.0,0.0,-29.622412020196506
1757930737.3709168,0.0,-20.0,0.0,0.0,0.0,0.0,-3.2733590601875524,-22.555296930147005,26.041259991515147,-6.437090854767955,-11.249844284492232,-11.04364839671206,0.0,0.025552969301470052,0.0,0.0,0.0,0.0,-31.75394210575841
1757930737.4209652,0.0,-20.0,0.0,0.0,0.0,0.0,-4.227960247008868,-18.009052651336585,25.60075528153815,-8.85521554025522,-11.533188237247549,-9.819072261540068,0.0,-0.01990947348663415,0.0,0.0,0.0,0.0,-31.77561506832532
1757930737.4812841,0.0,-20.0,0.0,0.0,0.0,0.0,-4.227960247008868,-18.009052651336585,25.60075528153815,-8.85521554025522,-11.533188237247549,-9.819072261540068,0.0,-0.01990947348663415,0.0,0.0,0.0,0.0,-31.15237115171559
1757930737.5406883,0.0,-20.0,0.0,0.0,0.0,0.0,-4.227960247008868,-18.009052651336585,25.60075528153815,-8.85521554025522,-11.533188237247549,-9.819072261540068,0.0,-0.01990947348663415,0.0,0.0,0.0,0.0,-30.62950394936342
1757930737.6009002,0.0,-20.0,0.0,0.0,0.0,0.0,-4.227960247008868,-18.009052651336585,25.60075528153815,-8.85521554025522,-11.533188237247549,-9.819072261540068,0.0,-0.01990947348663415,0.0,0.0,0.0,0.0,-30.169712809814964
1757930737.661597,0.0,-20.0,0.0,0.0,0.0,0.0,-4.227960247008868,-18.009052651336585,25.60075528153815,-8.85521554025522,-11.533188237247549,-9.819072261540068,0.0,-0.01990947348663415,0.0,0.0,0.0,0.0,-30.612540068544924
1757930737.7205307,0.0,-20.0,0.0,0.0,0.0,0.0,-4.227960247008868,-18.009052651336585,25.60075528153815,-8.85521554025522,-11.533188237247549,-9.819072261540068,0.0,-0.01990947348663415,0.0,0.0,0.0,0.0,-30.752371151715593
1757930737.7707884,0.0,-20.0,0.0,0.0,0.0,0.0,-4.227960247008868,-18.009052651336585,25.60075528153815,-8.85521554025522,-11.533188237247549,-9.819072261540068,0.0,-0.01990947348663415,0.0,0.0,0.0,0.0,-30.272566337603152
1757930737.8310344,0.0,-20.0,0.0,0.0,0.0,0.0,-4.227960247008868,-18.009052651336585,25.60075528153815,-8.85521554025522,-11.533188237247549,-9.819072261540068,0.0,-0.01990947348663415,0.0,0.0,0.0,0.0,-30.231301692465994
1757930737.8905828,0.0,-20.0,0.0,0.0,0.0,0.0,-4.227960247008868,-18.009052651336585,25.60075528153815,-8.85521554025522,-11.533188237247549,-9.819072261540068,0.0,-0.01990947348663415,0.0,0.0,0.0,0.0,-30.603660601925075
1757930737.9439223,0.0,-20.0,0.0,0.0,0.0,0.0,-4.227960247008868,-18.009052651336585,25.60075528153815,-8.85521554025522,-11.533188237247549,-9.819072261540068,0.0,-0.01990947348663415,0.0,0.0,0.0,0.0,-30.955488240538596
1757930738.0007162,0.0,-20.0,0.0,0.0,0.0,0.0,-4.227960247008868,-18.009052651336585,25.60075528153815,-8.85521554025522,-11.533188237247549,-9.819072261540068,0.0,-0.01990947348663415,0.0,0.0,0.0,0.0,-31.031302766139518
1757930738.052117,0.0,-20.0,0.0,0.0,0.0,0.0,-4.227960247008868,-18.009052651336585,25.60075528153815,-8.85521554025522,-11.533188237247549,-9.819072261540068,0.0,-0.01990947348663415,0.0,0.0,0.0,0.0,-30.227528812797708
1757930738.1143107,0.0,-20.0,0.0,0.0,0.0,0.0,-4.227960247008868,-18.009052651336585,25.60075528153815,-8.85521554025522,-11.533188237247549,-9.819072261540068,0.0,-0.01990947348663415,0.0,0.0,0.0,0.0,-30.628482666712472
1757930738.1712716,0.0,-20.0,0.0,0.0,0.0,0.0,-4.227960247008868,-18.009052651336585,25.60075528153815,-8.85521554025522,-11.533188237247549,-9.819072261540068,0.0,-0.01990947348663415,0.0,0.0,0.0,0.0,-30.412576036552853
1757930738.2305431,0.0,-20.0,0.0,0.0,0.0,0.0,-4.227960247008868,-18.009052651336585,25.60075528153815,-8.85521554025522,-11.533188237247549,-9.819072261540068,0.0,-0.01990947348663415,0.0,0.0,0.0,0.0,-31.71237115171559
1757930738.2905185,0.0,-20.0,0.0,0.0,0.0,0.0,-4.227960247008868,-18.009052651336585,25.60075528153815,-8.85521554025522,-11.533188237247549,-9.819072261540068,0.0,-0.01990947348663415,0.0,0.0,0.0,0.0,-31.029867027631298
1757930738.3413486,0.0,-20.0,0.0,0.0,0.0,0.0,-4.227960247008868,-18.009052651336585,25.60075528153815,-8.85521554025522,-11.533188237247549,-9.819072261540068,0.0,-0.01990947348663415,0.0,0.0,0.0,0.0,-30.527535805008583
1757930738.401026,0.0,-20.0,0.0,0.0,0.0,0.0,-4.227960247008868,-18.009052651336585,25.60075528153815,-8.85521554025522,-11.533188237247549,-9.819072261540068,0.0,-0.01990947348663415,0.0,0.0,0.0,0.0,-30.628991593926546
1757930738.4611776,0.0,-20.0,0.0,0.0,0.0,0.0,-4.227960247008868,-18.009052651336585,25.60075528153815,-8.85521554025522,-11.533188237247549,-9.819072261540068,0.0,-0.01990947348663415,0.0,0.0,0.0,0.0,-30.068991593926544
1757930738.5204754,0.0,-20.0,0.0,0.0,0.0,0.0,-4.227960247008868,-18.009052651336585,25.60075528153815,-8.85521554025522,-11.533188237247549,-9.819072261540068,0.0,-0.01990947348663415,0.0,0.0,0.0,0.0,-30.808991593926546
1757930738.5709522,0.0,-20.0,0.0,0.0,0.0,0.0,-4.227960247008868,-18.009052651336585,25.60075528153815,-8.85521554025522,-11.533188237247549,-9.819072261540068,0.0,-0.01990947348663415,0.0,0.0,0.0,0.0,-31.228991593926544
1757930738.6306446,0.0,-20.0,0.0,0.0,0.0,0.0,-4.227960247008868,-18.009052651336585,25.60075528153815,-8.85521554025522,-11.533188237247549,-9.819072261540068,0.0,-0.01990947348663415,0.0,0.0,0.0,0.0,-30.428991593926547
1757930738.680685,0.0,-20.0,0.0,0.0,0.0,0.0,-4.227960247008868,-18.009052651336585,25.60075528153815,-8.85521554025522,-11.533188237247549,-9.819072261540068,0.0,-0.01990947348663415,0.0,0.0,0.0,0.0,-31.128991593926546
1757930738.7314763,0.0,-20.0,0.0,0.0,0.0,0.0,-4.227960247008868,-18.009052651336585,25.60075528153815,-8.85521554025522,-11.533188237247549,-9.819072261540068,0.0,-0.01990947348663415,0.0,0.0,0.0,0.0,-30.648991593926546
1757930738.7818775,0.0,-20.0,0.0,0.0,0.0,0.0,-4.227960247008868,-18.009052651336585,25.60075528153815,-8.85521554025522,-11.533188237247549,-9.819072261540068,0.0,-0.01990947348663415,0.0,0.0,0.0,0.0,-27.728991593926544
1757930738.840833,0.0,-20.0,0.0,0.0,0.0,0.0,-4.227960247008868,-18.009052651336585,25.60075528153815,-8.85521554025522,-11.533188237247549,-9.819072261540068,0.0,-0.01990947348663415,0.0,0.0,0.0,0.0,-25.028991593926545
1757930738.891459,0.0,-20.0,0.0,0.0,0.0,0.0,-4.227960247008868,-18.009052651336585,25.60075528153815,-8.85521554025522,-11.533188237247549,-9.819072261540068,0.0,-0.01990947348663415,0.0,0.0,0.0,0.0,-25.508991593926545
1757930738.9528873,0.0,-20.0,0.0,0.0,0.0,0.0,-4.227960247008868,-18.009052651336585,25.60075528153815,-8.85521554025522,-11.533188237247549,-9.819072261540068,0.0,-0.01990947348663415,0.0,0.0,0.0,0.0,-25.008991593926545
1757930739.0106843,0.0,-20.0,0.0,0.0,0.0,0.0,-4.227960247008868,-18.009052651336585,25.60075528153815,-8.85521554025522,-11.533188237247549,-9.819072261540068,0.0,-0.01990947348663415,0.0,0.0,0.0,0.0,-27.328991593926546
1757930739.0623982,0.0,-20.0,0.0,0.0,0.0,0.0,-4.227960247008868,-18.009052651336585,25.60075528153815,-8.85521554025522,-11.533188237247549,-9.819072261540068,0.0,-0.01990947348663415,0.0,0.0,0.0,0.0,-25.548991593926544
1757930739.120621,0.0,-20.0,0.0,0.0,0.0,0.0,-4.227960247008868,-18.009052651336585,25.60075528153815,-8.85521554025522,-11.533188237247549,-9.819072261540068,0.0,-0.01990947348663415,0.0,0.0,0.0,0.0,-26.628991593926546
1757930739.171427,0.0,-20.0,0.0,0.0,0.0,0.0,-4.227960247008868,-18.009052651336585,25.60075528153815,-8.85521554025522,-11.533188237247549,-9.819072261540068,0.0,-0.01990947348663415,0.0,0.0,0.0,0.0,-26.508991593926545
1757930739.2306457,0.0,-20.0,0.0,0.0,0.0,0.0,-4.227960247008868,-18.009052651336585,25.60075528153815,-8.85521554025522,-11.533188237247549,-9.819072261540068,0.0,-0.01990947348663415,0.0,0.0,0.0,0.0,-26.448991593926547
1757930739.2810912,0.0,-20.0,0.0,0.0,0.0,0.0,-4.227960247008868,-18.009052651336585,25.60075528153815,-8.85521554025522,-11.533188237247549,-9.819072261540068,0.0,-0.01990947348663415,0.0,0.0,0.0,0.0,-26.768991593926547
1757930739.340848,0.0,-20.0,0.0,0.0,0.0,0.0,-4.227960247008868,-18.009052651336585,25.60075528153815,-8.85521554025522,-11.533188237247549,-9.819072261540068,0.0,-0.01990947348663415,0.0,0.0,0.0,0.0,-27.428991593926547
1757930739.4006073,0.0,-20.0,0.0,0.0,0.0,0.0,-4.227960247008868,-18.009052651336585,25.60075528153815,-8.85521554025522,-11.533188237247549,-9.819072261540068,0.0,-0.01990947348663415,0.0,0.0,0.0,0.0,-26.568991593926548
1757930739.4506521,0.0,-20.0,0.0,0.0,0.0,0.0,-4.227960247008868,-18.009052651336585,25.60075528153815,-8.85521554025522,-11.533188237247549,-9.819072261540068,0.0,-0.01990947348663415,0.0,0.0,0.0,0.0,-27.968991593926546
1757930739.5011616,0.0,-20.0,0.0,0.0,0.0,0.0,-4.227960247008868,-18.009052651336585,25.60075528153815,-8.85521554025522,-11.533188237247549,-9.819072261540068,0.0,-0.01990947348663415,0.0,0.0,0.0,0.0,-28.248991593926547
1757930739.5613759,0.0,-20.0,0.0,0.0,0.0,0.0,-4.227960247008868,-18.009052651336585,25.60075528153815,-8.85521554025522,-11.533188237247549,-9.819072261540068,0.0,-0.01990947348663415,0.0,0.0,0.0,0.0,-29.288991593926546
1757930739.6205494,0.0,-20.0,0.0,0.0,0.0,0.0,-4.227960247008868,-18.009052651336585,25.60075528153815,-8.85521554025522,-11.533188237247549,-9.819072261540068,0.0,-0.01990947348663415,0.0,0.0,0.0,0.0,-28.808991593926546
1757930739.671069,0.0,-20.0,0.0,0.0,0.0,0.0,-4.227960247008868,-18.009052651336585,25.60075528153815,-8.85521554025522,-11.533188237247549,-9.819072261540068,0.0,-0.01990947348663415,0.0,0.0,0.0,0.0,-28.368991593926545
1757930739.7391489,0.0,-20.0,0.0,0.0,0.0,0.0,-4.227960247008868,-18.009052651336585,25.60075528153815,-8.85521554025522,-11.533188237247549,-9.819072261540068,0.0,-0.01990947348663415,0.0,0.0,0.0,0.0,-30.588991593926547
1757930739.7911465,0.0,-20.0,0.0,0.0,0.0,0.0,-4.227960247008868,-18.009052651336585,25.60075528153815,-8.85521554025522,-11.533188237247549,-9.819072261540068,0.0,-0.01990947348663415,0.0,0.0,0.0,0.0,-30.208991593926545
1757930739.8507755,0.0,-20.0,0.0,0.0,0.0,0.0,-4.227960247008868,-18.009052651336585,25.60075528153815,-8.85521554025522,-11.533188237247549,-9.819072261540068,0.0,-0.01990947348663415,0.0,0.0,0.0,0.0,-30.328991593926546
1757930739.9110985,0.0,-20.0,0.0,0.0,0.0,0.0,-4.227960247008868,-18.009052651336585,25.60075528153815,-8.85521554025522,-11.533188237247549,-9.819072261540068,0.0,-0.01990947348663415,0.0,0.0,0.0,0.0,-31.708991593926545
1757930739.970638,0.0,-20.0,0.0,0.0,0.0,0.0,-4.227960247008868,-18.009052651336585,25.60075528153815,-8.85521554025522,-11.533188237247549,-9.819072261540068,0.0,-0.01990947348663415,0.0,0.0,0.0,0.0,-31.568991593926548
1757930740.0309737,0.0,-20.0,0.0,0.0,0.0,0.0,-4.227960247008868,-18.009052651336585,25.60075528153815,-8.85521554025522,-11.533188237247549,-9.819072261540068,0.0,-0.01990947348663415,0.0,0.0,0.0,0.0,-30.748991593926547
1757930740.09052,0.0,-20.0,0.0,0.0,0.0,0.0,-4.227960247008868,-18.009052651336585,25.60075528153815,-8.85521554025522,-11.533188237247549,-9.819072261540068,0.0,-0.01990947348663415,0.0,0.0,0.0,0.0,-32.80899159392654
1757930740.1411917,0.0,-20.0,0.0,0.0,0.0,0.0,-4.227960247008868,-18.009052651336585,25.60075528153815,-8.85521554025522,-11.533188237247549,-9.819072261540068,0.0,-0.01990947348663415,0.0,0.0,0.0,0.0,-33.188991593926545
1757930740.200672,0.0,-20.0,0.0,0.0,0.0,0.0,-4.227960247008868,-18.009052651336585,25.60075528153815,-8.85521554025522,-11.533188237247549,-9.819072261540068,0.0,-0.01990947348663415,0.0,0.0,0.0,0.0,-32.92899159392655
1757930740.2604558,0.0,-20.0,0.0,0.0,0.0,0.0,-4.227960247008868,-18.009052651336585,25.60075528153815,-8.85521554025522,-11.533188237247549,-9.819072261540068,0.0,-0.01990947348663415,0.0,0.0,0.0,0.0,-36.228991593926544
1757930740.3107817,0.0,-20.0,0.0,0.0,0.0,0.0,-4.227960247008868,-18.009052651336585,25.60075528153815,-8.85521554025522,-11.533188237247549,-9.819072261540068,0.0,-0.01990947348663415,0.0,0.0,0.0,0.0,-36.02899159392654
1757930740.3706307,0.0,-20.0,0.0,0.0,0.0,0.0,-4.227960247008868,-18.009052651336585,25.60075528153815,-8.85521554025522,-11.533188237247549,-9.819072261540068,0.0,-0.01990947348663415,0.0,0.0,0.0,0.0,-34.20899159392655
1757930740.430585,0.0,-20.0,0.0,0.0,0.0,0.0,-4.227960247008868,-18.009052651336585,25.60075528153815,-8.85521554025522,-11.533188237247549,-9.819072261540068,0.0,-0.01990947348663415,0.0,0.0,0.0,0.0,-34.328991593926546
1757930740.4905334,0.0,-20.0,0.0,0.0,0.0,0.0,-4.227960247008868,-18.009052651336585,25.60075528153815,-8.85521554025522,-11.533188237247549,-9.819072261540068,0.0,-0.01990947348663415,0.0,0.0,0.0,0.0,-34.70899159392655
1757930740.5405746,0.0,-20.0,0.0,0.0,0.0,0.0,-4.227960247008868,-18.009052651336585,25.60075528153815,-8.85521554025522,-11.533188237247549,-9.819072261540068,0.0,-0.01990947348663415,0.0,0.0,0.0,0.0,-34.52899159392654
1757930740.5906184,0.0,-20.0,0.0,0.0,0.0,0.0,-4.227960247008868,-18.009052651336585,25.60075528153815,-8.85521554025522,-11.533188237247549,-9.819072261540068,0.0,-0.01990947348663415,0.0,0.0,0.0,0.0,-34.408991593926544
1757930740.6506727,0.0,-20.0,0.0,0.0,0.0,0.0,-4.227960247008868,-18.009052651336585,25.60075528153815,-8.85521554025522,-11.533188237247549,-9.819072261540068,0.0,-0.01990947348663415,0.0,0.0,0.0,0.0,-33.20899159392654
1757930740.7108195,0.0,-20.0,0.0,0.0,0.0,0.0,-4.227960247008868,-18.009052651336585,25.60075528153815,-8.85521554025522,-11.533188237247549,-9.819072261540068,0.0,-0.01990947348663415,0.0,0.0,0.0,0.0,-32.648991593926546
1757930740.770643,0.0,-20.0,0.0,0.0,0.0,0.0,-4.227960247008868,-18.009052651336585,25.60075528153815,-8.85521554025522,-11.533188237247549,-9.819072261540068,0.0,-0.01990947348663415,0.0,0.0,0.0,0.0,-33.38899159392654
1757930740.830989,0.0,-20.0,0.0,0.0,0.0,0.0,-4.227960247008868,-18.009052651336585,25.60075528153815,-8.85521554025522,-11.533188237247549,-9.819072261540068,0.0,-0.01990947348663415,0.0,0.0,0.0,0.0,-34.88899159392655
1757930740.8905234,0.0,-20.0,0.0,0.0,0.0,0.0,-4.227960247008868,-18.009052651336585,25.60075528153815,-8.85521554025522,-11.533188237247549,-9.819072261540068,0.0,-0.01990947348663415,0.0,0.0,0.0,0.0,-34.42899159392655
1757930740.9406013,0.0,-20.0,0.0,0.0,0.0,0.0,-4.227960247008868,-18.009052651336585,25.60075528153815,-8.85521554025522,-11.533188237247549,-9.819072261540068,0.0,-0.01990947348663415,0.0,0.0,0.0,0.0,-32.828991593926546
1757930741.0005202,0.0,-20.0,0.0,0.0,0.0,0.0,-4.227960247008868,-18.009052651336585,25.60075528153815,-8.85521554025522,-11.533188237247549,-9.819072261540068,0.0,-0.01990947348663415,0.0,0.0,0.0,0.0,-34.12899159392654
1757930741.0505588,0.0,-20.0,0.0,0.0,0.0,0.0,-4.227960247008868,-18.009052651336585,25.60075528153815,-8.85521554025522,-11.533188237247549,-9.819072261540068,0.0,-0.01990947348663415,0.0,0.0,0.0,0.0,-35.62899159392654
1757930741.1007483,0.0,-20.0,0.0,0.0,0.0,0.0,-4.227960247008868,-18.009052651336585,25.60075528153815,-8.85521554025522,-11.533188237247549,-9.819072261540068,0.0,-0.01990947348663415,0.0,0.0,0.0,0.0,-36.048991593926544
1757930741.160536,0.0,-20.0,0.0,0.0,0.0,0.0,-4.227960247008868,-18.009052651336585,25.60075528153815,-8.85521554025522,-11.533188237247549,-9.819072261540068,0.0,-0.01990947348663415,0.0,0.0,0.0,0.0,-36.408991593926544
1757930741.2107315,0.0,-20.0,0.0,0.0,0.0,0.0,-4.227960247008868,-18.009052651336585,25.60075528153815,-8.85521554025522,-11.533188237247549,-9.819072261540068,0.0,-0.01990947348663415,0.0,0.0,0.0,0.0,-39.56899159392655
1757930741.2707598,0.0,-20.0,0.0,0.0,0.0,0.0,-4.227960247008868,-18.009052651336585,25.60075528153815,-8.85521554025522,-11.533188237247549,-9.819072261540068,0.0,-0.01990947348663415,0.0,0.0,0.0,0.0,-34.10899159392655
1757930741.3306246,0.0,-20.0,0.0,0.0,0.0,0.0,-4.227960247008868,-18.009052651336585,25.60075528153815,-8.85521554025522,-11.533188237247549,-9.819072261540068,0.0,-0.01990947348663415,0.0,0.0,0.0,0.0,-32.688991593926545
1757930741.3806796,0.0,-20.0,0.0,0.0,0.0,0.0,-4.227960247008868,-18.009052651336585,25.60075528153815,-8.85521554025522,-11.533188237247549,-9.819072261540068,0.0,-0.01990947348663415,0.0,0.0,0.0,0.0,-34.08899159392654
1757930741.4407043,0.0,-20.0,0.0,0.0,0.0,0.0,-4.227960247008868,-18.009052651336585,25.60075528153815,-8.85521554025522,-11.533188237247549,-9.819072261540068,0.0,-0.01990947348663415,0.0,0.0,0.0,0.0,-33.048991593926544
1757930741.5006437,0.0,-20.0,0.0,0.0,0.0,0.0,-4.227960247008868,-18.009052651336585,25.60075528153815,-8.85521554025522,-11.533188237247549,-9.819072261540068,0.0,-0.01990947348663415,0.0,0.0,0.0,0.0,-33.688991593926545
1757930741.560713,0.0,-20.0,0.0,0.0,0.0,0.0,-4.227960247008868,-18.009052651336585,25.60075528153815,-8.85521554025522,-11.533188237247549,-9.819072261540068,0.0,-0.01990947348663415,0.0,0.0,0.0,0.0,-37.368991593926545
1757930741.6108468,0.0,-20.0,0.0,0.0,0.0,0.0,-4.227960247008868,-18.009052651336585,25.60075528153815,-8.85521554025522,-11.533188237247549,-9.819072261540068,0.0,-0.01990947348663415,0.0,0.0,0.0,0.0,-36.08899159392654
1757930741.6707478,0.0,-20.0,0.0,0.0,0.0,0.0,-4.227960247008868,-18.009052651336585,25.60075528153815,-8.85521554025522,-11.533188237247549,-9.819072261540068,0.0,-0.01990947348663415,0.0,0.0,0.0,0.0,-34.80899159392654
1757930741.730669,0.0,-20.0,0.0,0.0,0.0,0.0,-4.227960247008868,-18.009052651336585,25.60075528153815,-8.85521554025522,-11.533188237247549,-9.819072261540068,0.0,-0.01990947348663415,0.0,0.0,0.0,0.0,-34.48899159392654
1757930741.7807472,0.0,-20.0,0.0,0.0,0.0,0.0,-4.227960247008868,-18.009052651336585,25.60075528153815,-8.85521554025522,-11.533188237247549,-9.819072261540068,0.0,-0.01990947348663415,0.0,0.0,0.0,0.0,-34.26899159392654
1757930741.8406692,0.0,-20.0,0.0,0.0,0.0,0.0,-4.227960247008868,-18.009052651336585,25.60075528153815,-8.85521554025522,-11.533188237247549,-9.819072261540068,0.0,-0.01990947348663415,0.0,0.0,0.0,0.0,-33.368991593926545
1757930741.8906803,0.0,-20.0,0.0,0.0,0.0,0.0,-4.227960247008868,-18.009052651336585,25.60075528153815,-8.85521554025522,-11.533188237247549,-9.819072261540068,0.0,-0.01990947348663415,0.0,0.0,0.0,0.0,-33.508991593926545
1757930741.950591,0.0,-20.0,0.0,0.0,0.0,0.0,-4.227960247008868,-18.009052651336585,25.60075528153815,-8.85521554025522,-11.533188237247549,-9.819072261540068,0.0,-0.01990947348663415,0.0,0.0,0.0,0.0,-34.188991593926545
1757930742.0007942,0.0,-20.0,0.0,0.0,0.0,0.0,-4.227960247008868,-18.009052651336585,25.60075528153815,-8.85521554025522,-11.533188237247549,-9.819072261540068,0.0,-0.01990947348663415,0.0,0.0,0.0,0.0,-31.968991593926546
1757930742.0606306,0.0,-20.0,0.0,0.0,0.0,0.0,-4.227960247008868,-18.009052651336585,25.60075528153815,-8.85521554025522,-11.533188237247549,-9.819072261540068,0.0,-0.01990947348663415,0.0,0.0,0.0,0.0,-33.38899159392654
1757930742.1108484,0.0,-20.0,0.0,0.0,0.0,0.0,-4.227960247008868,-18.009052651336585,25.60075528153815,-8.85521554025522,-11.533188237247549,-9.819072261540068,0.0,-0.01990947348663415,0.0,0.0,0.0,0.0,-33.80899159392654
1757930742.1706352,0.0,-20.0,0.0,0.0,0.0,0.0,-4.227960247008868,-18.009052651336585,25.60075528153815,-8.85521554025522,-11.533188237247549,-9.819072261540068,0.0,-0.01990947348663415,0.0,0.0,0.0,0.0,-33.02899159392654
1757930742.2308133,0.0,-20.0,0.0,0.0,0.0,0.0,-4.227960247008868,-18.009052651336585,25.60075528153815,-8.85521554025522,-11.533188237247549,-9.819072261540068,0.0,-0.01990947348663415,0.0,0.0,0.0,0.0,-33.34899159392654
1757930742.2904723,0.0,-20.0,0.0,0.0,0.0,0.0,-4.227960247008868,-18.009052651336585,25.60075528153815,-8.85521554025522,-11.533188237247549,-9.819072261540068,0.0,-0.01990947348663415,0.0,0.0,0.0,0.0,-32.80899159392654
1757930742.3406425,0.0,-20.0,0.0,0.0,0.0,0.0,-4.227960247008868,-18.009052651336585,25.60075528153815,-8.85521554025522,-11.533188237247549,-9.819072261540068,0.0,-0.01990947348663415,0.0,0.0,0.0,0.0,-32.98899159392654
1757930742.4006073,0.0,-20.0,0.0,0.0,0.0,0.0,-4.227960247008868,-18.009052651336585,25.60075528153815,-8.85521554025522,-11.533188237247549,-9.819072261540068,0.0,-0.01990947348663415,0.0,0.0,0.0,0.0,-33.12899159392654
1757930742.4604158,0.0,-20.0,0.0,0.0,0.0,0.0,-4.227960247008868,-18.009052651336585,25.60075528153815,-8.85521554025522,-11.533188237247549,-9.819072261540068,0.0,-0.01990947348663415,0.0,0.0,0.0,0.0,-33.548991593926544
1757930742.5106893,0.0,-20.0,0.0,0.0,0.0,0.0,-4.227960247008868,-18.009052651336585,25.60075528153815,-8.85521554025522,-11.533188237247549,-9.819072261540068,0.0,-0.01990947348663415,0.0,0.0,0.0,0.0,-33.52899159392654
1757930742.5707989,0.0,-20.0,0.0,0.0,0.0,0.0,-4.227960247008868,-18.009052651336585,25.60075528153815,-8.85521554025522,-11.533188237247549,-9.819072261540068,0.0,-0.01990947348663415,0.0,0.0,0.0,0.0,-33.228991593926544
1757930742.6306183,0.0,-20.0,0.0,0.0,0.0,0.0,-4.227960247008868,-18.009052651336585,25.60075528153815,-8.85521554025522,-11.533188237247549,-9.819072261540068,0.0,-0.01990947348663415,0.0,0.0,0.0,0.0,-33.788991593926546
1757930742.6904342,0.0,-20.0,0.0,0.0,0.0,0.0,-4.227960247008868,-18.009052651336585,25.60075528153815,-8.85521554025522,-11.533188237247549,-9.819072261540068,0.0,-0.01990947348663415,0.0,0.0,0.0,0.0,-33.508991593926545
1757930742.740542,0.0,-20.0,0.0,0.0,0.0,0.0,-4.227960247008868,-18.009052651336585,25.60075528153815,-8.85521554025522,-11.533188237247549,-9.819072261540068,0.0,-0.01990947348663415,0.0,0.0,0.0,0.0,-33.648991593926546
1757930742.800989,0.0,-20.0,0.0,0.0,0.0,0.0,-4.227960247008868,-18.009052651336585,25.60075528153815,-8.85521554025522,-11.533188237247549,-9.819072261540068,0.0,-0.01990947348663415,0.0,0.0,0.0,0.0,-34.44899159392654
1757930742.860458,0.0,-20.0,0.0,0.0,0.0,0.0,-4.227960247008868,-18.009052651336585,25.60075528153815,-8.85521554025522,-11.533188237247549,-9.819072261540068,0.0,-0.01990947348663415,0.0,0.0,0.0,0.0,-33.048991593926544
1757930742.9109516,0.0,-20.0,0.0,0.0,0.0,0.0,-4.227960247008868,-18.009052651336585,25.60075528153815,-8.85521554025522,-11.533188237247549,-9.819072261540068,0.0,-0.01990947348663415,0.0,0.0,0.0,0.0,-33.228991593926544
1757930742.9706101,0.0,-20.0,0.0,0.0,0.0,0.0,-4.227960247008868,-18.009052651336585,25.60075528153815,-8.85521554025522,-11.533188237247549,-9.819072261540068,0.0,-0.01990947348663415,0.0,0.0,0.0,0.0,-32.92899159392655
1757930743.0304472,0.0,-20.0,0.0,0.0,0.0,0.0,-4.227960247008868,-18.009052651336585,25.60075528153815,-8.85521554025522,-11.533188237247549,-9.819072261540068,0.0,-0.01990947348663415,0.0,0.0,0.0,0.0,-32.76899159392654
1757930743.080603,0.0,-20.0,0.0,0.0,0.0,0.0,-4.227960247008868,-18.009052651336585,25.60075528153815,-8.85521554025522,-11.533188237247549,-9.819072261540068,0.0,-0.01990947348663415,0.0,0.0,0.0,0.0,-32.788991593926546
1757930743.140739,0.0,-20.0,0.0,0.0,0.0,0.0,-4.227960247008868,-18.009052651336585,25.60075528153815,-8.85521554025522,-11.533188237247549,-9.819072261540068,0.0,-0.01990947348663415,0.0,0.0,0.0,0.0,-33.06899159392654
1757930743.2005227,0.0,-20.0,0.0,0.0,0.0,0.0,-4.227960247008868,-18.009052651336585,25.60075528153815,-8.85521554025522,-11.533188237247549,-9.819072261540068,0.0,-0.01990947348663415,0.0,0.0,0.0,0.0,-33.408991593926544
1757930743.2604136,0.0,-20.0,0.0,0.0,0.0,0.0,-4.227960247008868,-18.009052651336585,25.60075528153815,-8.85521554025522,-11.533188237247549,-9.819072261540068,0.0,-0.01990947348663415,0.0,0.0,0.0,0.0,-33.188991593926545
1757930743.3107798,0.0,-20.0,0.0,0.0,0.0,0.0,-4.227960247008868,-18.009052651336585,25.60075528153815,-8.85521554025522,-11.533188237247549,-9.819072261540068,0.0,-0.01990947348663415,0.0,0.0,0.0,0.0,-33.34899159392654
1757930743.3707368,0.0,-20.0,0.0,0.0,0.0,0.0,-4.227960247008868,-18.009052651336585,25.60075528153815,-8.85521554025522,-11.533188237247549,-9.819072261540068,0.0,-0.01990947348663415,0.0,0.0,0.0,0.0,-33.26899159392654
1757930743.4304242,0.0,-20.0,0.0,0.0,0.0,0.0,-4.227960247008868,-18.009052651336585,25.60075528153815,-8.85521554025522,-11.533188237247549,-9.819072261540068,0.0,-0.01990947348663415,0.0,0.0,0.0,0.0,-33.288991593926546
1757930743.480539,0.0,-20.0,0.0,0.0,0.0,0.0,-4.227960247008868,-18.009052651336585,25.60075528153815,-8.85521554025522,-11.533188237247549,-9.819072261540068,0.0,-0.01990947348663415,0.0,0.0,0.0,0.0,-33.468991593926546
1757930743.5408833,0.0,-20.0,0.0,0.0,0.0,0.0,-4.227960247008868,-18.009052651336585,25.60075528153815,-8.85521554025522,-11.533188237247549,-9.819072261540068,0.0,-0.01990947348663415,0.0,0.0,0.0,0.0,-33.08899159392654
1757930743.6008506,0.0,-20.0,0.0,0.0,0.0,0.0,-4.227960247008868,-18.009052651336585,25.60075528153815,-8.85521554025522,-11.533188237247549,-9.819072261540068,0.0,-0.01990947348663415,0.0,0.0,0.0,0.0,-32.84899159392654
1757930743.6604764,0.0,-20.0,0.0,0.0,0.0,0.0,-4.227960247008868,-18.009052651336585,25.60075528153815,-8.85521554025522,-11.533188237247549,-9.819072261540068,0.0,-0.01990947348663415,0.0,0.0,0.0,0.0,-32.92899159392655
1757930743.7105517,0.0,-20.0,0.0,0.0,0.0,0.0,-4.227960247008868,-18.009052651336585,25.60075528153815,-8.85521554025522,-11.533188237247549,-9.819072261540068,0.0,-0.01990947348663415,0.0,0.0,0.0,0.0,-33.368991593926545
1757930743.7707772,0.0,-20.0,0.0,0.0,0.0,0.0,-4.227960247008868,-18.009052651336585,25.60075528153815,-8.85521554025522,-11.533188237247549,-9.819072261540068,0.0,-0.01990947348663415,0.0,0.0,0.0,0.0,-33.12899159392654
1757930743.8304737,0.0,-20.0,0.0,0.0,0.0,0.0,-4.227960247008868,-18.009052651336585,25.60075528153815,-8.85521554025522,-11.533188237247549,-9.819072261540068,0.0,-0.01990947348663415,0.0,0.0,0.0,0.0,-33.26899159392654
1757930743.8808072,0.0,-20.0,0.0,0.0,0.0,0.0,-4.227960247008868,-18.009052651336585,25.60075528153815,-8.85521554025522,-11.533188237247549,-9.819072261540068,0.0,-0.01990947348663415,0.0,0.0,0.0,0.0,-33.548991593926544
1757930743.9407272,0.0,-20.0,0.0,0.0,0.0,0.0,-4.227960247008868,-18.009052651336585,25.60075528153815,-8.85521554025522,-11.533188237247549,-9.819072261540068,0.0,-0.01990947348663415,0.0,0.0,0.0,0.0,-33.188991593926545
1757930744.0004797,0.0,-20.0,0.0,0.0,0.0,0.0,-4.227960247008868,-18.009052651336585,25.60075528153815,-8.85521554025522,-11.533188237247549,-9.819072261540068,0.0,-0.01990947348663415,0.0,0.0,0.0,0.0,-33.38899159392654
1757930744.0505688,0.0,-20.0,0.0,0.0,0.0,0.0,-4.227960247008868,-18.009052651336585,25.60075528153815,-8.85521554025522,-11.533188237247549,-9.819072261540068,0.0,-0.01990947348663415,0.0,0.0,0.0,0.0,-33.468991593926546
1757930744.1105483,0.0,-20.0,0.0,0.0,0.0,0.0,-4.227960247008868,-18.009052651336585,25.60075528153815,-8.85521554025522,-11.533188237247549,-9.819072261540068,0.0,-0.01990947348663415,0.0,0.0,0.0,0.0,-33.34899159392654
1757930744.1605785,0.0,-20.0,0.0,0.0,0.0,0.0,-4.227960247008868,-18.009052651336585,25.60075528153815,-8.85521554025522,-11.533188237247549,-9.819072261540068,0.0,-0.01990947348663415,0.0,0.0,0.0,0.0,-33.508991593926545
1757930744.210835,0.0,-20.0,0.0,0.0,0.0,0.0,-4.227960247008868,-18.009052651336585,25.60075528153815,-8.85521554025522,-11.533188237247549,-9.819072261540068,0.0,-0.01990947348663415,0.0,0.0,0.0,0.0,-32.968991593926546
1757930744.2706902,0.0,-20.0,0.0,0.0,0.0,0.0,-4.227960247008868,-18.009052651336585,25.60075528153815,-8.85521554025522,-11.533188237247549,-9.819072261540068,0.0,-0.01990947348663415,0.0,0.0,0.0,0.0,-32.84899159392654
1757930744.330484,0.0,-20.0,0.0,0.0,0.0,0.0,-4.227960247008868,-18.009052651336585,25.60075528153815,-8.85521554025522,-11.533188237247549,-9.819072261540068,0.0,-0.01990947348663415,0.0,0.0,0.0,0.0,-32.788991593926546
1757930744.3805895,0.0,-20.0,0.0,0.0,0.0,0.0,-4.227960247008868,-18.009052651336585,25.60075528153815,-8.85521554025522,-11.533188237247549,-9.819072261540068,0.0,-0.01990947348663415,0.0,0.0,0.0,0.0,-33.408991593926544
1757930744.4405713,0.0,-20.0,0.0,0.0,0.0,0.0,-4.227960247008868,-18.009052651336585,25.60075528153815,-8.85521554025522,-11.533188237247549,-9.819072261540068,0.0,-0.01990947348663415,0.0,0.0,0.0,0.0,-34.02899159392654
1757930744.5004697,0.0,-20.0,0.0,0.0,0.0,0.0,-4.227960247008868,-18.009052651336585,25.60075528153815,-8.85521554025522,-11.533188237247549,-9.819072261540068,0.0,-0.01990947348663415,0.0,0.0,0.0,0.0,-32.48899159392654
1757930744.550494,0.0,-20.0,0.0,0.0,0.0,0.0,-4.227960247008868,-18.009052651336585,25.60075528153815,-8.85521554025522,-11.533188237247549,-9.819072261540068,0.0,-0.01990947348663415,0.0,0.0,0.0,0.0,-33.468991593926546
1757930744.6005185,0.0,-20.0,0.0,0.0,0.0,0.0,-4.227960247008868,-18.009052651336585,25.60075528153815,-8.85521554025522,-11.533188237247549,-9.819072261540068,0.0,-0.01990947348663415,0.0,0.0,0.0,0.0,-33.24899159392655
1757930744.6505494,0.0,-20.0,0.0,0.0,0.0,0.0,-4.227960247008868,-18.009052651336585,25.60075528153815,-8.85521554025522,-11.533188237247549,-9.819072261540068,0.0,-0.01990947348663415,0.0,0.0,0.0,0.0,-32.88899159392654
1757930744.7005806,0.0,-20.0,0.0,0.0,0.0,0.0,-4.227960247008868,-18.009052651336585,25.60075528153815,-8.85521554025522,-11.533188237247549,-9.819072261540068,0.0,-0.01990947348663415,0.0,0.0,0.0,0.0,-33.368991593926545
1757930744.7604082,0.0,-20.0,0.0,0.0,0.0,0.0,-4.227960247008868,-18.009052651336585,25.60075528153815,-8.85521554025522,-11.533188237247549,-9.819072261540068,0.0,-0.01990947348663415,0.0,0.0,0.0,0.0,-33.34899159392654
1757930744.810746,0.0,-20.0,0.0,0.0,0.0,0.0,-4.227960247008868,-18.009052651336585,25.60075528153815,-8.85521554025522,-11.533188237247549,-9.819072261540068,0.0,-0.01990947348663415,0.0,0.0,0.0,0.0,-32.60899159392655
1757930744.870553,0.0,-20.0,0.0,0.0,0.0,0.0,-4.227960247008868,-18.009052651336585,25.60075528153815,-8.85521554025522,-11.533188237247549,-9.819072261540068,0.0,-0.01990947348663415,0.0,0.0,0.0,0.0,-33.44899159392654
1757930744.9304602,0.0,-20.0,0.0,0.0,0.0,0.0,-4.227960247008868,-18.009052651336585,25.60075528153815,-8.85521554025522,-11.533188237247549,-9.819072261540068,0.0,-0.01990947348663415,0.0,0.0,0.0,0.0,-33.48899159392654
1757930744.9805143,0.0,-20.0,0.0,0.0,0.0,0.0,-4.227960247008868,-18.009052651336585,25.60075528153815,-8.85521554025522,-11.533188237247549,-9.819072261540068,0.0,-0.01990947348663415,0.0,0.0,0.0,0.0,-33.52899159392654
1757930745.0408077,0.0,-20.0,0.0,0.0,0.0,0.0,-4.227960247008868,-18.009052651336585,25.60075528153815,-8.85521554025522,-11.533188237247549,-9.819072261540068,0.0,-0.01990947348663415,0.0,0.0,0.0,0.0,-32.908991593926544
1757930745.1005447,0.0,-20.0,0.0,0.0,0.0,0.0,-4.227960247008868,-18.009052651336585,25.60075528153815,-8.85521554025522,-11.533188237247549,-9.819072261540068,0.0,-0.01990947348663415,0.0,0.0,0.0,0.0,-33.02899159392654
1757930745.1604247,0.0,-20.0,0.0,0.0,0.0,0.0,-4.227960247008868,-18.009052651336585,25.60075528153815,-8.85521554025522,-11.533188237247549,-9.819072261540068,0.0,-0.01990947348663415,0.0,0.0,0.0,0.0,-33.468991593926546
1757930745.2105737,0.0,-20.0,0.0,0.0,0.0,0.0,-4.227960247008868,-18.009052651336585,25.60075528153815,-8.85521554025522,-11.533188237247549,-9.819072261540068,0.0,-0.01990947348663415,0.0,0.0,0.0,0.0,-33.66899159392654
1757930745.2705524,0.0,-20.0,0.0,0.0,0.0,0.0,-4.227960247008868,-18.009052651336585,25.60075528153815,-8.85521554025522,-11.533188237247549,-9.819072261540068,0.0,-0.01990947348663415,0.0,0.0,0.0,0.0,-33.44899159392654
1757930745.3304935,0.0,-20.0,0.0,0.0,0.0,0.0,-4.227960247008868,-18.009052651336585,25.60075528153815,-8.85521554025522,-11.533188237247549,-9.819072261540068,0.0,-0.01990947348663415,0.0,0.0,0.0,0.0,-32.62899159392654
1757930745.3809347,0.0,-20.0,0.0,0.0,0.0,0.0,-4.227960247008868,-18.009052651336585,25.60075528153815,-8.85521554025522,-11.533188237247549,-9.819072261540068,0.0,-0.01990947348663415,0.0,0.0,0.0,0.0,-33.008991593926545
1757930745.4405913,0.0,-20.0,0.0,0.0,0.0,0.0,-4.227960247008868,-18.009052651336585,25.60075528153815,-8.85521554025522,-11.533188237247549,-9.819072261540068,0.0,-0.01990947348663415,0.0,0.0,0.0,0.0,-33.288991593926546
1757930745.50068,0.0,-20.0,0.0,0.0,0.0,0.0,-4.227960247008868,-18.009052651336585,25.60075528153815,-8.85521554025522,-11.533188237247549,-9.819072261540068,0.0,-0.01990947348663415,0.0,0.0,0.0,0.0,-32.788991593926546
1757930745.5605266,0.0,-20.0,0.0,0.0,0.0,0.0,-4.227960247008868,-18.009052651336585,25.60075528153815,-8.85521554025522,-11.533188237247549,-9.819072261540068,0.0,-0.01990947348663415,0.0,0.0,0.0,0.0,-33.508991593926545
1757930745.6106,0.0,-20.0,0.0,0.0,0.0,0.0,-4.227960247008868,-18.009052651336585,25.60075528153815,-8.85521554025522,-11.533188237247549,-9.819072261540068,0.0,-0.01990947348663415,0.0,0.0,0.0,0.0,-33.08899159392654
1757930745.6705074,0.0,-20.0,0.0,0.0,0.0,0.0,-4.227960247008868,-18.009052651336585,25.60075528153815,-8.85521554025522,-11.533188237247549,-9.819072261540068,0.0,-0.01990947348663415,0.0,0.0,0.0,0.0,-32.34899159392654
1757930745.720812,0.0,-20.0,0.0,0.0,0.0,0.0,-4.227960247008868,-18.009052651336585,25.60075528153815,-8.85521554025522,-11.533188237247549,-9.819072261540068,0.0,-0.01990947348663415,0.0,0.0,0.0,0.0,-33.328991593926546
1757930745.780557,0.0,-20.0,0.0,0.0,0.0,0.0,-4.227960247008868,-18.009052651336585,25.60075528153815,-8.85521554025522,-11.533188237247549,-9.819072261540068,0.0,-0.01990947348663415,0.0,0.0,0.0,0.0,-33.76899159392654
1757930745.8404856,0.0,-20.0,0.0,0.0,0.0,0.0,-4.227960247008868,-18.009052651336585,25.60075528153815,-8.85521554025522,-11.533188237247549,-9.819072261540068,0.0,-0.01990947348663415,0.0,0.0,0.0,0.0,-33.10899159392655
1757930745.900665,0.0,-20.0,0.0,0.0,0.0,0.0,-4.227960247008868,-18.009052651336585,25.60075528153815,-8.85521554025522,-11.533188237247549,-9.819072261540068,0.0,-0.01990947348663415,0.0,0.0,0.0,0.0,-33.52899159392654
1757930745.9605103,0.0,-20.0,0.0,0.0,0.0,0.0,-4.227960247008868,-18.009052651336585,25.60075528153815,-8.85521554025522,-11.533188237247549,-9.819072261540068,0.0,-0.01990947348663415,0.0,0.0,0.0,0.0,-33.30899159392654
1757930746.0107436,0.0,-20.0,0.0,0.0,0.0,0.0,-4.227960247008868,-18.009052651336585,25.60075528153815,-8.85521554025522,-11.533188237247549,-9.819072261540068,0.0,-0.01990947348663415,0.0,0.0,0.0,0.0,-33.728991593926544
1757930746.0705974,0.0,-20.0,0.0,0.0,0.0,0.0,-4.227960247008868,-18.009052651336585,25.60075528153815,-8.85521554025522,-11.533188237247549,-9.819072261540068,0.0,-0.01990947348663415,0.0,0.0,0.0,0.0,-32.80899159392654
1757930746.1305373,0.0,-20.0,0.0,0.0,0.0,0.0,-4.227960247008868,-18.009052651336585,25.60075528153815,-8.85521554025522,-11.533188237247549,-9.819072261540068,0.0,-0.01990947348663415,0.0,0.0,0.0,0.0,-33.008991593926545
1757930746.1806674,0.0,-20.0,0.0,0.0,0.0,0.0,-4.227960247008868,-18.009052651336585,25.60075528153815,-8.85521554025522,-11.533188237247549,-9.819072261540068,0.0,-0.01990947348663415,0.0,0.0,0.0,0.0,-32.94899159392654
1757930746.2408574,0.0,-20.0,0.0,0.0,0.0,0.0,-4.227960247008868,-18.009052651336585,25.60075528153815,-8.85521554025522,-11.533188237247549,-9.819072261540068,0.0,-0.01990947348663415,0.0,0.0,0.0,0.0,-33.288991593926546
1757930746.3005145,0.0,-20.0,0.0,0.0,0.0,0.0,-4.227960247008868,-18.009052651336585,25.60075528153815,-8.85521554025522,-11.533188237247549,-9.819072261540068,0.0,-0.01990947348663415,0.0,0.0,0.0,0.0,-32.548991593926544
1757930746.3506904,0.0,-20.0,0.0,0.0,0.0,0.0,-4.227960247008868,-18.009052651336585,25.60075528153815,-8.85521554025522,-11.533188237247549,-9.819072261540068,0.0,-0.01990947348663415,0.0,0.0,0.0,0.0,-32.98899159392654
1757930746.4105673,0.0,-20.0,0.0,0.0,0.0,0.0,-4.227960247008868,-18.009052651336585,25.60075528153815,-8.85521554025522,-11.533188237247549,-9.819072261540068,0.0,-0.01990947348663415,0.0,0.0,0.0,0.0,-32.368991593926545
1757930746.4606006,0.0,-20.0,0.0,0.0,0.0,0.0,-4.227960247008868,-18.009052651336585,25.60075528153815,-8.85521554025522,-11.533188237247549,-9.819072261540068,0.0,-0.01990947348663415,0.0,0.0,0.0,0.0,-33.10899159392655
1757930746.5206435,0.0,-20.0,0.0,0.0,0.0,0.0,-4.227960247008868,-18.009052651336585,25.60075528153815,-8.85521554025522,-11.533188237247549,-9.819072261540068,0.0,-0.01990947348663415,0.0,0.0,0.0,0.0,-34.08899159392654
1757930746.5806472,0.0,-20.0,0.0,0.0,0.0,0.0,-4.227960247008868,-18.009052651336585,25.60075528153815,-8.85521554025522,-11.533188237247549,-9.819072261540068,0.0,-0.01990947348663415,0.0,0.0,0.0,0.0,-33.328991593926546
1757930746.6405663,0.0,-20.0,0.0,0.0,0.0,0.0,-4.227960247008868,-18.009052651336585,25.60075528153815,-8.85521554025522,-11.533188237247549,-9.819072261540068,0.0,-0.01990947348663415,0.0,0.0,0.0,0.0,-33.148991593926546
1757930746.6905897,0.0,-20.0,0.0,0.0,0.0,0.0,-4.227960247008868,-18.009052651336585,25.60075528153815,-8.85521554025522,-11.533188237247549,-9.819072261540068,0.0,-0.01990947348663415,0.0,0.0,0.0,0.0,-33.408991593926544
1757930746.7407804,0.0,-20.0,0.0,0.0,0.0,0.0,-4.227960247008868,-18.009052651336585,25.60075528153815,-8.85521554025522,-11.533188237247549,-9.819072261540068,0.0,-0.01990947348663415,0.0,0.0,0.0,0.0,-33.688991593926545
1757930746.8006353,0.0,-20.0,0.0,0.0,0.0,0.0,-4.227960247008868,-18.009052651336585,25.60075528153815,-8.85521554025522,-11.533188237247549,-9.819072261540068,0.0,-0.01990947348663415,0.0,0.0,0.0,0.0,-33.08899159392654
1757930746.850866,0.0,-20.0,0.0,0.0,0.0,0.0,-4.227960247008868,-18.009052651336585,25.60075528153815,-8.85521554025522,-11.533188237247549,-9.819072261540068,0.0,-0.01990947348663415,0.0,0.0,0.0,0.0,-33.508991593926545
1757930746.9107294,0.0,-20.0,0.0,0.0,0.0,0.0,-4.227960247008868,-18.009052651336585,25.60075528153815,-8.85521554025522,-11.533188237247549,-9.819072261540068,0.0,-0.01990947348663415,0.0,0.0,0.0,0.0,-32.94899159392654
1757930746.970552,0.0,-20.0,0.0,0.0,0.0,0.0,-4.227960247008868,-18.009052651336585,25.60075528153815,-8.85521554025522,-11.533188237247549,-9.819072261540068,0.0,-0.01990947348663415,0.0,0.0,0.0,0.0,-33.288991593926546
1757930747.0205922,0.0,-20.0,0.0,0.0,0.0,0.0,-4.227960247008868,-18.009052651336585,25.60075528153815,-8.85521554025522,-11.533188237247549,-9.819072261540068,0.0,-0.01990947348663415,0.0,0.0,0.0,0.0,-33.008991593926545
1757930747.07063,0.0,-20.0,0.0,0.0,0.0,0.0,-4.227960247008868,-18.009052651336585,25.60075528153815,-8.85521554025522,-11.533188237247549,-9.819072261540068,0.0,-0.01990947348663415,0.0,0.0,0.0,0.0,-33.048991593926544
1757930747.1206384,0.0,-20.0,0.0,0.0,0.0,0.0,-4.227960247008868,-18.009052651336585,25.60075528153815,-8.85521554025522,-11.533188237247549,-9.819072261540068,0.0,-0.01990947348663415,0.0,0.0,0.0,0.0,-33.788991593926546
1757930747.180656,0.0,-20.0,0.0,0.0,0.0,0.0,-4.227960247008868,-18.009052651336585,25.60075528153815,-8.85521554025522,-11.533188237247549,-9.819072261540068,0.0,-0.01990947348663415,0.0,0.0,0.0,0.0,-33.92899159392655
1757930747.240785,0.0,-20.0,0.0,0.0,0.0,0.0,-4.227960247008868,-18.009052651336585,25.60075528153815,-8.85521554025522,-11.533188237247549,-9.819072261540068,0.0,-0.01990947348663415,0.0,0.0,0.0,0.0,-32.74899159392655
1757930747.3005686,0.0,-20.0,0.0,0.0,0.0,0.0,-4.227960247008868,-18.009052651336585,25.60075528153815,-8.85521554025522,-11.533188237247549,-9.819072261540068,0.0,-0.01990947348663415,0.0,0.0,0.0,0.0,-33.42899159392655
1757930747.3505707,0.0,-20.0,0.0,0.0,0.0,0.0,-4.227960247008868,-18.009052651336585,25.60075528153815,-8.85521554025522,-11.533188237247549,-9.819072261540068,0.0,-0.01990947348663415,0.0,0.0,0.0,0.0,-33.08899159392654
1757930747.4108608,0.0,-20.0,0.0,0.0,0.0,0.0,-4.227960247008868,-18.009052651336585,25.60075528153815,-8.85521554025522,-11.533188237247549,-9.819072261540068,0.0,-0.01990947348663415,0.0,0.0,0.0,0.0,-33.368991593926545
1757930747.4705858,0.0,-20.0,0.0,0.0,0.0,0.0,-4.227960247008868,-18.009052651336585,25.60075528153815,-8.85521554025522,-11.533188237247549,-9.819072261540068,0.0,-0.01990947348663415,0.0,0.0,0.0,0.0,-33.08899159392654
1757930747.5304935,0.0,-20.0,0.0,0.0,0.0,0.0,-4.227960247008868,-18.009052651336585,25.60075528153815,-8.85521554025522,-11.533188237247549,-9.819072261540068,0.0,-0.01990947348663415,0.0,0.0,0.0,0.0,-33.16899159392654
1757930747.5808957,0.0,-20.0,0.0,0.0,0.0,0.0,-4.227960247008868,-18.009052651336585,25.60075528153815,-8.85521554025522,-11.533188237247549,-9.819072261540068,0.0,-0.01990947348663415,0.0,0.0,0.0,0.0,-32.408991593926544
1757930747.6406376,0.0,-20.0,0.0,0.0,0.0,0.0,-4.227960247008868,-18.009052651336585,25.60075528153815,-8.85521554025522,-11.533188237247549,-9.819072261540068,0.0,-0.01990947348663415,0.0,0.0,0.0,0.0,-33.42899159392655
1757930747.7005398,0.0,-20.0,0.0,0.0,0.0,0.0,-4.227960247008868,-18.009052651336585,25.60075528153815,-8.85521554025522,-11.533188237247549,-9.819072261540068,0.0,-0.01990947348663415,0.0,0.0,0.0,0.0,-33.20899159392654
1757930747.7506194,0.0,-20.0,0.0,0.0,0.0,0.0,-4.227960247008868,-18.009052651336585,25.60075528153815,-8.85521554025522,-11.533188237247549,-9.819072261540068,0.0,-0.01990947348663415,0.0,0.0,0.0,0.0,-33.80899159392654
1757930747.8110862,0.0,-20.0,0.0,0.0,0.0,0.0,-4.227960247008868,-18.009052651336585,25.60075528153815,-8.85521554025522,-11.533188237247549,-9.819072261540068,0.0,-0.01990947348663415,0.0,0.0,0.0,0.0,-34.188991593926545
1757930747.8706298,0.0,-20.0,0.0,0.0,0.0,0.0,-4.227960247008868,-18.009052651336585,25.60075528153815,-8.85521554025522,-11.533188237247549,-9.819072261540068,0.0,-0.01990947348663415,0.0,0.0,0.0,0.0,-33.10899159392655
1757930747.9304953,0.0,-20.0,0.0,0.0,0.0,0.0,-4.227960247008868,-18.009052651336585,25.60075528153815,-8.85521554025522,-11.533188237247549,-9.819072261540068,0.0,-0.01990947348663415,0.0,0.0,0.0,0.0,-33.288991593926546
1757930747.9806788,0.0,-20.0,0.0,0.0,0.0,0.0,-4.227960247008868,-18.009052651336585,25.60075528153815,-8.85521554025522,-11.533188237247549,-9.819072261540068,0.0,-0.01990947348663415,0.0,0.0,0.0,0.0,-33.24899159392655
1757930748.040651,0.0,-20.0,0.0,0.0,0.0,0.0,-4.227960247008868,-18.009052651336585,25.60075528153815,-8.85521554025522,-11.533188237247549,-9.819072261540068,0.0,-0.01990947348663415,0.0,0.0,0.0,0.0,-33.328991593926546
1757930748.1005976,0.0,-20.0,0.0,0.0,0.0,0.0,-4.227960247008868,-18.009052651336585,25.60075528153815,-8.85521554025522,-11.533188237247549,-9.819072261540068,0.0,-0.01990947348663415,0.0,0.0,0.0,0.0,-32.788991593926546
1757930748.1507227,0.0,-20.0,0.0,0.0,0.0,0.0,-4.227960247008868,-18.009052651336585,25.60075528153815,-8.85521554025522,-11.533188237247549,-9.819072261540068,0.0,-0.01990947348663415,0.0,0.0,0.0,0.0,-32.80899159392654
1757930748.2108643,0.0,-20.0,0.0,0.0,0.0,0.0,-4.227960247008868,-18.009052651336585,25.60075528153815,-8.85521554025522,-11.533188237247549,-9.819072261540068,0.0,-0.01990947348663415,0.0,0.0,0.0,0.0,-32.828991593926546
1757930748.2705219,0.0,-20.0,0.0,0.0,0.0,0.0,-4.227960247008868,-18.009052651336585,25.60075528153815,-8.85521554025522,-11.533188237247549,-9.819072261540068,0.0,-0.01990947348663415,0.0,0.0,0.0,0.0,-33.408991593926544
1757930748.330417,0.0,-20.0,0.0,0.0,0.0,0.0,-4.227960247008868,-18.009052651336585,25.60075528153815,-8.85521554025522,-11.533188237247549,-9.819072261540068,0.0,-0.01990947348663415,0.0,0.0,0.0,0.0,-33.70899159392655
1757930748.3808007,0.0,-20.0,0.0,0.0,0.0,0.0,-4.227960247008868,-18.009052651336585,25.60075528153815,-8.85521554025522,-11.533188237247549,-9.819072261540068,0.0,-0.01990947348663415,0.0,0.0,0.0,0.0,-33.008991593926545
1757930748.4405568,0.0,-20.0,0.0,0.0,0.0,0.0,-4.227960247008868,-18.009052651336585,25.60075528153815,-8.85521554025522,-11.533188237247549,-9.819072261540068,0.0,-0.01990947348663415,0.0,0.0,0.0,0.0,-33.548991593926544
1757930748.5005097,0.0,-20.0,0.0,0.0,0.0,0.0,-4.227960247008868,-18.009052651336585,25.60075528153815,-8.85521554025522,-11.533188237247549,-9.819072261540068,0.0,-0.01990947348663415,0.0,0.0,0.0,0.0,-33.508991593926545
1757930748.550565,0.0,-20.0,0.0,0.0,0.0,0.0,-4.227960247008868,-18.009052651336585,25.60075528153815,-8.85521554025522,-11.533188237247549,-9.819072261540068,0.0,-0.01990947348663415,0.0,0.0,0.0,0.0,-32.66899159392654
1757930748.6005666,0.0,-20.0,0.0,0.0,0.0,0.0,-4.227960247008868,-18.009052651336585,25.60075528153815,-8.85521554025522,-11.533188237247549,-9.819072261540068,0.0,-0.01990947348663415,0.0,0.0,0.0,0.0,-33.468991593926546
1757930748.6605408,0.0,-20.0,0.0,0.0,0.0,0.0,-4.227960247008868,-18.009052651336585,25.60075528153815,-8.85521554025522,-11.533188237247549,-9.819072261540068,0.0,-0.01990947348663415,0.0,0.0,0.0,0.0,-33.30899159392654
1757930748.7106097,0.0,-20.0,0.0,0.0,0.0,0.0,-4.227960247008868,-18.009052651336585,25.60075528153815,-8.85521554025522,-11.533188237247549,-9.819072261540068,0.0,-0.01990947348663415,0.0,0.0,0.0,0.0,-33.76899159392654
1757930748.7705615,0.0,-20.0,0.0,0.0,0.0,0.0,-4.227960247008868,-18.009052651336585,25.60075528153815,-8.85521554025522,-11.533188237247549,-9.819072261540068,0.0,-0.01990947348663415,0.0,0.0,0.0,0.0,-33.188991593926545
1757930748.8206449,0.0,-20.0,0.0,0.0,0.0,0.0,-4.227960247008868,-18.009052651336585,25.60075528153815,-8.85521554025522,-11.533188237247549,-9.819072261540068,0.0,-0.01990947348663415,0.0,0.0,0.0,0.0,-32.66899159392654
1757930748.8706896,0.0,-20.0,0.0,0.0,0.0,0.0,-4.227960247008868,-18.009052651336585,25.60075528153815,-8.85521554025522,-11.533188237247549,-9.819072261540068,0.0,-0.01990947348663415,0.0,0.0,0.0,0.0,-33.16899159392654
1757930748.9304993,0.0,-20.0,0.0,0.0,0.0,0.0,-4.227960247008868,-18.009052651336585,25.60075528153815,-8.85521554025522,-11.533188237247549,-9.819072261540068,0.0,-0.01990947348663415,0.0,0.0,0.0,0.0,-32.88899159392654
1757930748.981239,0.0,-20.0,0.0,0.0,0.0,0.0,-4.227960247008868,-18.009052651336585,25.60075528153815,-8.85521554025522,-11.533188237247549,-9.819072261540068,0.0,-0.01990947348663415,0.0,0.0,0.0,0.0,-33.908991593926544
1757930749.0408008,0.0,-20.0,0.0,0.0,0.0,0.0,-4.227960247008868,-18.009052651336585,25.60075528153815,-8.85521554025522,-11.533188237247549,-9.819072261540068,0.0,-0.01990947348663415,0.0,0.0,0.0,0.0,-33.48899159392654
1757930749.100576,0.0,-20.0,0.0,0.0,0.0,0.0,-4.227960247008868,-18.009052651336585,25.60075528153815,-8.85521554025522,-11.533188237247549,-9.819072261540068,0.0,-0.01990947348663415,0.0,0.0,0.0,0.0,-33.38899159392654
1757930749.1508307,0.0,-20.0,0.0,0.0,0.0,0.0,-4.227960247008868,-18.009052651336585,25.60075528153815,-8.85521554025522,-11.533188237247549,-9.819072261540068,0.0,-0.01990947348663415,0.0,0.0,0.0,0.0,-34.188991593926545
1757930749.21065,0.0,-20.0,0.0,0.0,0.0,0.0,-4.227960247008868,-18.009052651336585,25.60075528153815,-8.85521554025522,-11.533188237247549,-9.819072261540068,0.0,-0.01990947348663415,0.0,0.0,0.0,0.0,-33.16899159392654
1757930749.2705271,0.0,-20.0,0.0,0.0,0.0,0.0,-4.227960247008868,-18.009052651336585,25.60075528153815,-8.85521554025522,-11.533188237247549,-9.819072261540068,0.0,-0.01990947348663415,0.0,0.0,0.0,0.0,-33.70899159392655
1757930749.3205833,0.0,-20.0,0.0,0.0,0.0,0.0,-4.227960247008868,-18.009052651336585,25.60075528153815,-8.85521554025522,-11.533188237247549,-9.819072261540068,0.0,-0.01990947348663415,0.0,0.0,0.0,0.0,-33.548991593926544
1757930749.3727546,0.0,-20.0,0.0,0.0,0.0,0.0,-4.227960247008868,-18.009052651336585,25.60075528153815,-8.85521554025522,-11.533188237247549,-9.819072261540068,0.0,-0.01990947348663415,0.0,0.0,0.0,0.0,-33.88899159392655
1757930749.4304795,0.0,-20.0,0.0,0.0,0.0,0.0,-4.227960247008868,-18.009052651336585,25.60075528153815,-8.85521554025522,-11.533188237247549,-9.819072261540068,0.0,-0.01990947348663415,0.0,0.0,0.0,0.0,-33.648991593926546
1757930749.4808774,0.0,-20.0,0.0,0.0,0.0,0.0,-4.227960247008868,-18.009052651336585,25.60075528153815,-8.85521554025522,-11.533188237247549,-9.819072261540068,0.0,-0.01990947348663415,0.0,0.0,0.0,0.0,-33.688991593926545
1757930749.5406587,0.0,-20.0,0.0,0.0,0.0,0.0,-4.227960247008868,-18.009052651336585,25.60075528153815,-8.85521554025522,-11.533188237247549,-9.819072261540068,0.0,-0.01990947348663415,0.0,0.0,0.0,0.0,-33.84899159392654
1757930749.6005692,0.0,-20.0,0.0,0.0,0.0,0.0,-4.227960247008868,-18.009052651336585,25.60075528153815,-8.85521554025522,-11.533188237247549,-9.819072261540068,0.0,-0.01990947348663415,0.0,0.0,0.0,0.0,-32.88899159392654
1757930749.650575,0.0,-20.0,0.0,0.0,0.0,0.0,-4.227960247008868,-18.009052651336585,25.60075528153815,-8.85521554025522,-11.533188237247549,-9.819072261540068,0.0,-0.01990947348663415,0.0,0.0,0.0,0.0,-31.028991593926545
1757930749.7105958,0.0,-20.0,0.0,0.0,0.0,0.0,-4.227960247008868,-18.009052651336585,25.60075528153815,-8.85521554025522,-11.533188237247549,-9.819072261540068,0.0,-0.01990947348663415,0.0,0.0,0.0,0.0,-29.068991593926544
1757930749.770497,0.0,-20.0,0.0,0.0,0.0,0.0,-4.227960247008868,-18.009052651336585,25.60075528153815,-8.85521554025522,-11.533188237247549,-9.819072261540068,0.0,-0.01990947348663415,0.0,0.0,0.0,0.0,-29.568991593926544
1757930749.8205614,0.0,-20.0,0.0,0.0,0.0,0.0,-4.227960247008868,-18.009052651336585,25.60075528153815,-8.85521554025522,-11.533188237247549,-9.819072261540068,0.0,-0.01990947348663415,0.0,0.0,0.0,0.0,-28.448991593926547
1757930749.8731918,0.0,-20.0,0.0,0.0,0.0,0.0,-4.227960247008868,-18.009052651336585,25.60075528153815,-8.85521554025522,-11.533188237247549,-9.819072261540068,0.0,-0.01990947348663415,0.0,0.0,0.0,0.0,-32.148991593926546
1757930749.9305177,0.0,-20.0,0.0,0.0,0.0,0.0,-4.227960247008868,-18.009052651336585,25.60075528153815,-8.85521554025522,-11.533188237247549,-9.819072261540068,0.0,-0.01990947348663415,0.0,0.0,0.0,0.0,-34.24899159392655
1757930749.9809492,0.0,-20.0,0.0,0.0,0.0,0.0,-4.227960247008868,-18.009052651336585,25.60075528153815,-8.85521554025522,-11.533188237247549,-9.819072261540068,0.0,-0.01990947348663415,0.0,0.0,0.0,0.0,-35.60899159392655
1757930750.040622,0.0,-20.0,0.0,0.0,0.0,0.0,-4.227960247008868,-18.009052651336585,25.60075528153815,-8.85521554025522,-11.533188237247549,-9.819072261540068,0.0,-0.01990947348663415,0.0,0.0,0.0,0.0,-34.56899159392655
1757930750.1005843,0.0,-20.0,0.0,0.0,0.0,0.0,-4.227960247008868,-18.009052651336585,25.60075528153815,-8.85521554025522,-11.533188237247549,-9.819072261540068,0.0,-0.01990947348663415,0.0,0.0,0.0,0.0,-33.70899159392655
1757930750.160543,0.0,-20.0,0.0,0.0,0.0,0.0,-4.227960247008868,-18.009052651336585,25.60075528153815,-8.85521554025522,-11.533188237247549,-9.819072261540068,0.0,-0.01990947348663415,0.0,0.0,0.0,0.0,-32.908991593926544
1757930750.210618,0.0,-20.0,0.0,0.0,0.0,0.0,-4.227960247008868,-18.009052651336585,25.60075528153815,-8.85521554025522,-11.533188237247549,-9.819072261540068,0.0,-0.01990947348663415,0.0,0.0,0.0,0.0,-32.70899159392654
1757930750.2706444,0.0,-20.0,0.0,0.0,0.0,0.0,-4.227960247008868,-18.009052651336585,25.60075528153815,-8.85521554025522,-11.533188237247549,-9.819072261540068,0.0,-0.01990947348663415,0.0,0.0,0.0,0.0,-32.908991593926544
1757930750.3304725,0.0,-20.0,0.0,0.0,0.0,0.0,-4.227960247008868,-18.009052651336585,25.60075528153815,-8.85521554025522,-11.533188237247549,-9.819072261540068,0.0,-0.01990947348663415,0.0,0.0,0.0,0.0,-33.12899159392654
1757930750.3806233,0.0,-20.0,0.0,0.0,0.0,0.0,-4.227960247008868,-18.009052651336585,25.60075528153815,-8.85521554025522,-11.533188237247549,-9.819072261540068,0.0,-0.01990947348663415,0.0,0.0,0.0,0.0,-33.48899159392654
1757930750.4405553,0.0,-20.0,0.0,0.0,0.0,0.0,-4.227960247008868,-18.009052651336585,25.60075528153815,-8.85521554025522,-11.533188237247549,-9.819072261540068,0.0,-0.01990947348663415,0.0,0.0,0.0,0.0,-32.828991593926546
1757930750.4907691,0.0,-20.0,0.0,0.0,0.0,0.0,-4.227960247008868,-18.009052651336585,25.60075528153815,-8.85521554025522,-11.533188237247549,-9.819072261540068,0.0,-0.01990947348663415,0.0,0.0,0.0,0.0,-31.948991593926547
1757930750.550618,0.0,-20.0,0.0,0.0,0.0,0.0,-4.227960247008868,-18.009052651336585,25.60075528153815,-8.85521554025522,-11.533188237247549,-9.819072261540068,0.0,-0.01990947348663415,0.0,0.0,0.0,0.0,-31.908991593926544
1757930750.6107347,0.0,-20.0,0.0,0.0,0.0,0.0,-4.227960247008868,-18.009052651336585,25.60075528153815,-8.85521554025522,-11.533188237247549,-9.819072261540068,0.0,-0.01990947348663415,0.0,0.0,0.0,0.0,-32.10899159392655
1757930750.670478,0.0,-20.0,0.0,0.0,0.0,0.0,-4.227960247008868,-18.009052651336585,25.60075528153815,-8.85521554025522,-11.533188237247549,-9.819072261540068,0.0,-0.01990947348663415,0.0,0.0,0.0,0.0,-32.30899159392654
1757930750.720574,0.0,-20.0,0.0,0.0,0.0,0.0,-4.227960247008868,-18.009052651336585,25.60075528153815,-8.85521554025522,-11.533188237247549,-9.819072261540068,0.0,-0.01990947348663415,0.0,0.0,0.0,0.0,-30.908991593926544
1757930750.7808182,0.0,-20.0,0.0,0.0,0.0,0.0,-4.227960247008868,-18.009052651336585,25.60075528153815,-8.85521554025522,-11.533188237247549,-9.819072261540068,0.0,-0.01990947348663415,0.0,0.0,0.0,0.0,-29.208991593926545
1757930750.8406537,0.0,-20.0,0.0,0.0,0.0,0.0,-4.227960247008868,-18.009052651336585,25.60075528153815,-8.85521554025522,-11.533188237247549,-9.819072261540068,0.0,-0.01990947348663415,0.0,0.0,0.0,0.0,-29.568991593926544
1757930750.9004552,0.0,-20.0,0.0,0.0,0.0,0.0,-4.227960247008868,-18.009052651336585,25.60075528153815,-8.85521554025522,-11.533188237247549,-9.819072261540068,0.0,-0.01990947348663415,0.0,0.0,0.0,0.0,-29.308991593926546
1757930750.9507856,0.0,-20.0,0.0,0.0,0.0,0.0,-4.227960247008868,-18.009052651336585,25.60075528153815,-8.85521554025522,-11.533188237247549,-9.819072261540068,0.0,-0.01990947348663415,0.0,0.0,0.0,0.0,-28.728991593926544
1757930751.010611,0.0,-20.0,0.0,0.0,0.0,0.0,-4.227960247008868,-18.009052651336585,25.60075528153815,-8.85521554025522,-11.533188237247549,-9.819072261540068,0.0,-0.01990947348663415,0.0,0.0,0.0,0.0,-29.388991593926544
1757930751.0705504,0.0,-20.0,0.0,0.0,0.0,0.0,-4.227960247008868,-18.009052651336585,25.60075528153815,-8.85521554025522,-11.533188237247549,-9.819072261540068,0.0,-0.01990947348663415,0.0,0.0,0.0,0.0,-29.568991593926544
1757930751.1205802,0.0,-20.0,0.0,0.0,0.0,0.0,-4.227960247008868,-18.009052651336585,25.60075528153815,-8.85521554025522,-11.533188237247549,-9.819072261540068,0.0,-0.01990947348663415,0.0,0.0,0.0,0.0,-27.848991593926545
1757930751.1708653,0.0,-20.0,0.0,0.0,0.0,0.0,-4.227960247008868,-18.009052651336585,25.60075528153815,-8.85521554025522,-11.533188237247549,-9.819072261540068,0.0,-0.01990947348663415,0.0,0.0,0.0,0.0,-28.728991593926544
1757930751.2305717,0.0,-20.0,0.0,0.0,0.0,0.0,-4.227960247008868,-18.009052651336585,25.60075528153815,-8.85521554025522,-11.533188237247549,-9.819072261540068,0.0,-0.01990947348663415,0.0,0.0,0.0,0.0,-29.108991593926547
1757930751.280653,0.0,-20.0,0.0,0.0,0.0,0.0,-4.227960247008868,-18.009052651336585,25.60075528153815,-8.85521554025522,-11.533188237247549,-9.819072261540068,0.0,-0.01990947348663415,0.0,0.0,0.0,0.0,-29.128991593926546
1757930751.340575,0.0,-20.0,0.0,0.0,0.0,0.0,-4.227960247008868,-18.009052651336585,25.60075528153815,-8.85521554025522,-11.533188237247549,-9.819072261540068,0.0,-0.01990947348663415,0.0,0.0,0.0,0.0,-28.648991593926546
1757930751.3906245,0.0,-20.0,0.0,0.0,0.0,0.0,-4.227960247008868,-18.009052651336585,25.60075528153815,-8.85521554025522,-11.533188237247549,-9.819072261540068,0.0,-0.01990947348663415,0.0,0.0,0.0,0.0,-28.908991593926544
1757930751.4406445,0.0,-20.0,0.0,0.0,0.0,0.0,-4.227960247008868,-18.009052651336585,25.60075528153815,-8.85521554025522,-11.533188237247549,-9.819072261540068,0.0,-0.01990947348663415,0.0,0.0,0.0,0.0,-28.888991593926544
1757930751.5005887,0.0,-20.0,0.0,0.0,0.0,0.0,-4.227960247008868,-18.009052651336585,25.60075528153815,-8.85521554025522,-11.533188237247549,-9.819072261540068,0.0,-0.01990947348663415,0.0,0.0,0.0,0.0,-29.048991593926544
1757930751.5605102,0.0,-20.0,0.0,0.0,0.0,0.0,-4.227960247008868,-18.009052651336585,25.60075528153815,-8.85521554025522,-11.533188237247549,-9.819072261540068,0.0,-0.01990947348663415,0.0,0.0,0.0,0.0,-29.128991593926546
1757930751.610767,0.0,-20.0,0.0,0.0,0.0,0.0,-4.227960247008868,-18.009052651336585,25.60075528153815,-8.85521554025522,-11.533188237247549,-9.819072261540068,0.0,-0.01990947348663415,0.0,0.0,0.0,0.0,-28.848991593926545
1757930751.670668,0.0,-20.0,0.0,0.0,0.0,0.0,-4.227960247008868,-18.009052651336585,25.60075528153815,-8.85521554025522,-11.533188237247549,-9.819072261540068,0.0,-0.01990947348663415,0.0,0.0,0.0,0.0,-29.408991593926544
1757930751.7306814,0.0,-20.0,0.0,0.0,0.0,0.0,-4.227960247008868,-18.009052651336585,25.60075528153815,-8.85521554025522,-11.533188237247549,-9.819072261540068,0.0,-0.01990947348663415,0.0,0.0,0.0,0.0,-28.848991593926545
1757930751.7905529,0.0,-20.0,0.0,0.0,0.0,0.0,-4.227960247008868,-18.009052651336585,25.60075528153815,-8.85521554025522,-11.533188237247549,-9.819072261540068,0.0,-0.01990947348663415,0.0,0.0,0.0,0.0,-29.008991593926545
1757930751.840618,0.0,-20.0,0.0,0.0,0.0,0.0,-4.227960247008868,-18.009052651336585,25.60075528153815,-8.85521554025522,-11.533188237247549,-9.819072261540068,0.0,-0.01990947348663415,0.0,0.0,0.0,0.0,-29.128991593926546
1757930751.8906696,0.0,-20.0,0.0,0.0,0.0,0.0,-4.227960247008868,-18.009052651336585,25.60075528153815,-8.85521554025522,-11.533188237247549,-9.819072261540068,0.0,-0.01990947348663415,0.0,0.0,0.0,0.0,-29.348991593926545
1757930751.950887,0.0,-20.0,0.0,0.0,0.0,0.0,-4.227960247008868,-18.009052651336585,25.60075528153815,-8.85521554025522,-11.533188237247549,-9.819072261540068,0.0,-0.01990947348663415,0.0,0.0,0.0,0.0,-28.388991593926544
1757930752.011183,0.0,-20.0,0.0,0.0,0.0,0.0,-4.227960247008868,-18.009052651336585,25.60075528153815,-8.85521554025522,-11.533188237247549,-9.819072261540068,0.0,-0.01990947348663415,0.0,0.0,0.0,0.0,-29.348991593926545
1757930752.0708754,0.0,-20.0,0.0,0.0,0.0,0.0,-4.227960247008868,-18.009052651336585,25.60075528153815,-8.85521554025522,-11.533188237247549,-9.819072261540068,0.0,-0.01990947348663415,0.0,0.0,0.0,0.0,-29.628991593926546
1757930752.130539,0.0,-20.0,0.0,0.0,0.0,0.0,-4.227960247008868,-18.009052651336585,25.60075528153815,-8.85521554025522,-11.533188237247549,-9.819072261540068,0.0,-0.01990947348663415,0.0,0.0,0.0,0.0,-28.928991593926547
1757930752.1807141,0.0,-20.0,0.0,0.0,0.0,0.0,-4.227960247008868,-18.009052651336585,25.60075528153815,-8.85521554025522,-11.533188237247549,-9.819072261540068,0.0,-0.01990947348663415,0.0,0.0,0.0,0.0,-29.048991593926544
1757930752.2406223,0.0,-20.0,0.0,0.0,0.0,0.0,-4.227960247008868,-18.009052651336585,25.60075528153815,-8.85521554025522,-11.533188237247549,-9.819072261540068,0.0,-0.01990947348663415,0.0,0.0,0.0,0.0,-28.688991593926545
1757930752.300538,0.0,-20.0,0.0,0.0,0.0,0.0,-4.227960247008868,-18.009052651336585,25.60075528153815,-8.85521554025522,-11.533188237247549,-9.819072261540068,0.0,-0.01990947348663415,0.0,0.0,0.0,0.0,-28.328991593926546
1757930752.3508203,0.0,-20.0,0.0,0.0,0.0,0.0,-4.227960247008868,-18.009052651336585,25.60075528153815,-8.85521554025522,-11.533188237247549,-9.819072261540068,0.0,-0.01990947348663415,0.0,0.0,0.0,0.0,-28.488991593926546
1757930752.4106872,0.0,-20.0,0.0,0.0,0.0,0.0,-4.227960247008868,-18.009052651336585,25.60075528153815,-8.85521554025522,-11.533188237247549,-9.819072261540068,0.0,-0.01990947348663415,0.0,0.0,0.0,0.0,-28.908991593926544
1757930752.4704027,0.0,-20.0,0.0,0.0,0.0,0.0,-4.227960247008868,-18.009052651336585,25.60075528153815,-8.85521554025522,-11.533188237247549,-9.819072261540068,0.0,-0.01990947348663415,0.0,0.0,0.0,0.0,-29.568991593926544
1757930752.5205178,0.0,-20.0,0.0,0.0,0.0,0.0,-4.227960247008868,-18.009052651336585,25.60075528153815,-8.85521554025522,-11.533188237247549,-9.819072261540068,0.0,-0.01990947348663415,0.0,0.0,0.0,0.0,-28.608991593926547
1757930752.5705552,0.0,-20.0,0.0,0.0,0.0,0.0,-4.227960247008868,-18.009052651336585,25.60075528153815,-8.85521554025522,-11.533188237247549,-9.819072261540068,0.0,-0.01990947348663415,0.0,0.0,0.0,0.0,-28.488991593926546
1757930752.6205878,0.0,-20.0,0.0,0.0,0.0,0.0,-4.227960247008868,-18.009052651336585,25.60075528153815,-8.85521554025522,-11.533188237247549,-9.819072261540068,0.0,-0.01990947348663415,0.0,0.0,0.0,0.0,-29.368991593926545
1757930752.6706705,0.0,-20.0,0.0,0.0,0.0,0.0,-4.227960247008868,-18.009052651336585,25.60075528153815,-8.85521554025522,-11.533188237247549,-9.819072261540068,0.0,-0.01990947348663415,0.0,0.0,0.0,0.0,-30.308991593926546
1757930752.7305186,0.0,-20.0,0.0,0.0,0.0,0.0,-4.227960247008868,-18.009052651336585,25.60075528153815,-8.85521554025522,-11.533188237247549,-9.819072261540068,0.0,-0.01990947348663415,0.0,0.0,0.0,0.0,-29.328991593926546
1757930752.781056,0.0,-20.0,0.0,0.0,0.0,0.0,-4.227960247008868,-18.009052651336585,25.60075528153815,-8.85521554025522,-11.533188237247549,-9.819072261540068,0.0,-0.01990947348663415,0.0,0.0,0.0,0.0,-29.268991593926547
1757930752.840631,0.0,-20.0,0.0,0.0,0.0,0.0,-4.227960247008868,-18.009052651336585,25.60075528153815,-8.85521554025522,-11.533188237247549,-9.819072261540068,0.0,-0.01990947348663415,0.0,0.0,0.0,0.0,-28.808991593926546
1757930752.9005854,0.0,-20.0,0.0,0.0,0.0,0.0,-4.227960247008868,-18.009052651336585,25.60075528153815,-8.85521554025522,-11.533188237247549,-9.819072261540068,0.0,-0.01990947348663415,0.0,0.0,0.0,0.0,-28.768991593926547
1757930752.9509177,0.0,-20.0,0.0,0.0,0.0,0.0,-4.227960247008868,-18.009052651336585,25.60075528153815,-8.85521554025522,-11.533188237247549,-9.819072261540068,0.0,-0.01990947348663415,0.0,0.0,0.0,0.0,-28.868991593926545
1757930753.0109808,0.0,-20.0,0.0,0.0,0.0,0.0,-4.227960247008868,-18.009052651336585,25.60075528153815,-8.85521554025522,-11.533188237247549,-9.819072261540068,0.0,-0.01990947348663415,0.0,0.0,0.0,0.0,-28.648991593926546
1757930753.0704918,0.0,-20.0,0.0,0.0,0.0,0.0,-4.227960247008868,-18.009052651336585,25.60075528153815,-8.85521554025522,-11.533188237247549,-9.819072261540068,0.0,-0.01990947348663415,0.0,0.0,0.0,0.0,-28.588991593926547
1757930753.1206028,0.0,-20.0,0.0,0.0,0.0,0.0,-4.227960247008868,-18.009052651336585,25.60075528153815,-8.85521554025522,-11.533188237247549,-9.819072261540068,0.0,-0.01990947348663415,0.0,0.0,0.0,0.0,-29.108991593926547
1757930753.180875,0.0,-20.0,0.0,0.0,0.0,0.0,-4.227960247008868,-18.009052651336585,25.60075528153815,-8.85521554025522,-11.533188237247549,-9.819072261540068,0.0,-0.01990947348663415,0.0,0.0,0.0,0.0,-29.028991593926545
1757930753.2309694,0.0,-20.0,0.0,0.0,0.0,0.0,-4.227960247008868,-18.009052651336585,25.60075528153815,-8.85521554025522,-11.533188237247549,-9.819072261540068,0.0,-0.01990947348663415,0.0,0.0,0.0,0.0,-28.928991593926547
1757930753.281175,0.0,-20.0,0.0,0.0,0.0,0.0,-4.227960247008868,-18.009052651336585,25.60075528153815,-8.85521554025522,-11.533188237247549,-9.819072261540068,0.0,-0.01990947348663415,0.0,0.0,0.0,0.0,-28.928991593926547
1757930753.3406584,0.0,-20.0,0.0,0.0,0.0,0.0,-4.227960247008868,-18.009052651336585,25.60075528153815,-8.85521554025522,-11.533188237247549,-9.819072261540068,0.0,-0.01990947348663415,0.0,0.0,0.0,0.0,-29.248991593926547
1757930753.4005773,0.0,-20.0,0.0,0.0,0.0,0.0,-4.227960247008868,-18.009052651336585,25.60075528153815,-8.85521554025522,-11.533188237247549,-9.819072261540068,0.0,-0.01990947348663415,0.0,0.0,0.0,0.0,-28.628991593926546
1757930753.4506836,0.0,-20.0,0.0,0.0,0.0,0.0,-4.227960247008868,-18.009052651336585,25.60075528153815,-8.85521554025522,-11.533188237247549,-9.819072261540068,0.0,-0.01990947348663415,0.0,0.0,0.0,0.0,-29.328991593926546
1757930753.5105488,0.0,-20.0,0.0,0.0,0.0,0.0,-4.227960247008868,-18.009052651336585,25.60075528153815,-8.85521554025522,-11.533188237247549,-9.819072261540068,0.0,-0.01990947348663415,0.0,0.0,0.0,0.0,-29.068991593926544
1757930753.5704446,0.0,-20.0,0.0,0.0,0.0,0.0,-4.227960247008868,-18.009052651336585,25.60075528153815,-8.85521554025522,-11.533188237247549,-9.819072261540068,0.0,-0.01990947348663415,0.0,0.0,0.0,0.0,-28.508991593926545
1757930753.6205719,0.0,-20.0,0.0,0.0,0.0,0.0,-4.227960247008868,-18.009052651336585,25.60075528153815,-8.85521554025522,-11.533188237247549,-9.819072261540068,0.0,-0.01990947348663415,0.0,0.0,0.0,0.0,-29.068991593926544
1757930753.6805265,0.0,-20.0,0.0,0.0,0.0,0.0,-4.227960247008868,-18.009052651336585,25.60075528153815,-8.85521554025522,-11.533188237247549,-9.819072261540068,0.0,-0.01990947348663415,0.0,0.0,0.0,0.0,-28.568991593926544
1757930753.7404678,0.0,-20.0,0.0,0.0,0.0,0.0,-4.227960247008868,-18.009052651336585,25.60075528153815,-8.85521554025522,-11.533188237247549,-9.819072261540068,0.0,-0.01990947348663415,0.0,0.0,0.0,0.0,-29.408991593926544
1757930753.7906017,0.0,-20.0,0.0,0.0,0.0,0.0,-4.227960247008868,-18.009052651336585,25.60075528153815,-8.85521554025522,-11.533188237247549,-9.819072261540068,0.0,-0.01990947348663415,0.0,0.0,0.0,0.0,-29.288991593926546
1757930753.850604,0.0,-20.0,0.0,0.0,0.0,0.0,-4.227960247008868,-18.009052651336585,25.60075528153815,-8.85521554025522,-11.533188237247549,-9.819072261540068,0.0,-0.01990947348663415,0.0,0.0,0.0,0.0,-29.468991593926546
1757930753.9105835,0.0,-20.0,0.0,0.0,0.0,0.0,-4.227960247008868,-18.009052651336585,25.60075528153815,-8.85521554025522,-11.533188237247549,-9.819072261540068,0.0,-0.01990947348663415,0.0,0.0,0.0,0.0,-28.608991593926547
1757930753.9705684,0.0,-20.0,0.0,0.0,0.0,0.0,-4.227960247008868,-18.009052651336585,25.60075528153815,-8.85521554025522,-11.533188237247549,-9.819072261540068,0.0,-0.01990947348663415,0.0,0.0,0.0,0.0,-29.388991593926544
1757930754.020617,0.0,-20.0,0.0,0.0,0.0,0.0,-4.227960247008868,-18.009052651336585,25.60075528153815,-8.85521554025522,-11.533188237247549,-9.819072261540068,0.0,-0.01990947348663415,0.0,0.0,0.0,0.0,-28.628991593926546
1757930754.080684,0.0,-20.0,0.0,0.0,0.0,0.0,-4.227960247008868,-18.009052651336585,25.60075528153815,-8.85521554025522,-11.533188237247549,-9.819072261540068,0.0,-0.01990947348663415,0.0,0.0,0.0,0.0,-29.208991593926545
1757930754.1405296,0.0,-20.0,0.0,0.0,0.0,0.0,-4.227960247008868,-18.009052651336585,25.60075528153815,-8.85521554025522,-11.533188237247549,-9.819072261540068,0.0,-0.01990947348663415,0.0,0.0,0.0,0.0,-29.828991593926546
1757930754.1905835,0.0,-20.0,0.0,0.0,0.0,0.0,-4.227960247008868,-18.009052651336585,25.60075528153815,-8.85521554025522,-11.533188237247549,-9.819072261540068,0.0,-0.01990947348663415,0.0,0.0,0.0,0.0,-28.608991593926547
1757930754.2406547,0.0,-20.0,0.0,0.0,0.0,0.0,-4.227960247008868,-18.009052651336585,25.60075528153815,-8.85521554025522,-11.533188237247549,-9.819072261540068,0.0,-0.01990947348663415,0.0,0.0,0.0,0.0,-29.528991593926545
1757930754.3005004,0.0,-20.0,0.0,0.0,0.0,0.0,-4.227960247008868,-18.009052651336585,25.60075528153815,-8.85521554025522,-11.533188237247549,-9.819072261540068,0.0,-0.01990947348663415,0.0,0.0,0.0,0.0,-29.528991593926545
1757930754.3506827,0.0,-20.0,0.0,0.0,0.0,0.0,-4.227960247008868,-18.009052651336585,25.60075528153815,-8.85521554025522,-11.533188237247549,-9.819072261540068,0.0,-0.01990947348663415,0.0,0.0,0.0,0.0,-29.028991593926545
1757930754.4106317,0.0,-20.0,0.0,0.0,0.0,0.0,-4.227960247008868,-18.009052651336585,25.60075528153815,-8.85521554025522,-11.533188237247549,-9.819072261540068,0.0,-0.01990947348663415,0.0,0.0,0.0,0.0,-29.688991593926545
1757930754.4704983,0.0,-20.0,0.0,0.0,0.0,0.0,-4.227960247008868,-18.009052651336585,25.60075528153815,-8.85521554025522,-11.533188237247549,-9.819072261540068,0.0,-0.01990947348663415,0.0,0.0,0.0,0.0,-29.208991593926545
1757930754.520832,0.0,-20.0,0.0,0.0,0.0,0.0,-4.227960247008868,-18.009052651336585,25.60075528153815,-8.85521554025522,-11.533188237247549,-9.819072261540068,0.0,-0.01990947348663415,0.0,0.0,0.0,0.0,-28.768991593926547
1757930754.580693,0.0,-20.0,0.0,0.0,0.0,0.0,-4.227960247008868,-18.009052651336585,25.60075528153815,-8.85521554025522,-11.533188237247549,-9.819072261540068,0.0,-0.01990947348663415,0.0,0.0,0.0,0.0,-28.688991593926545
1757930754.6406033,0.0,-20.0,0.0,0.0,0.0,0.0,-4.227960247008868,-18.009052651336585,25.60075528153815,-8.85521554025522,-11.533188237247549,-9.819072261540068,0.0,-0.01990947348663415,0.0,0.0,0.0,0.0,-28.728991593926544
1757930754.7005112,0.0,-20.0,0.0,0.0,0.0,0.0,-4.227960247008868,-18.009052651336585,25.60075528153815,-8.85521554025522,-11.533188237247549,-9.819072261540068,0.0,-0.01990947348663415,0.0,0.0,0.0,0.0,-29.328991593926546
1757930754.750714,0.0,-20.0,0.0,0.0,0.0,0.0,-4.227960247008868,-18.009052651336585,25.60075528153815,-8.85521554025522,-11.533188237247549,-9.819072261540068,0.0,-0.01990947348663415,0.0,0.0,0.0,0.0,-28.948991593926547
1757930754.8105907,0.0,-20.0,0.0,0.0,0.0,0.0,-4.227960247008868,-18.009052651336585,25.60075528153815,-8.85521554025522,-11.533188237247549,-9.819072261540068,0.0,-0.01990947348663415,0.0,0.0,0.0,0.0,-28.848991593926545
1757930754.8606186,0.0,-20.0,0.0,0.0,0.0,0.0,-4.227960247008868,-18.009052651336585,25.60075528153815,-8.85521554025522,-11.533188237247549,-9.819072261540068,0.0,-0.01990947348663415,0.0,0.0,0.0,0.0,-29.848991593926545
1757930754.920646,0.0,-20.0,0.0,0.0,0.0,0.0,-4.227960247008868,-18.009052651336585,25.60075528153815,-8.85521554025522,-11.533188237247549,-9.819072261540068,0.0,-0.01990947348663415,0.0,0.0,0.0,0.0,-29.148991593926546
1757930754.9806395,0.0,-20.0,0.0,0.0,0.0,0.0,-4.227960247008868,-18.009052651336585,25.60075528153815,-8.85521554025522,-11.533188237247549,-9.819072261540068,0.0,-0.01990947348663415,0.0,0.0,0.0,0.0,-29.388991593926544
1757930755.0405617,0.0,-20.0,0.0,0.0,0.0,0.0,-4.227960247008868,-18.009052651336585,25.60075528153815,-8.85521554025522,-11.533188237247549,-9.819072261540068,0.0,-0.01990947348663415,0.0,0.0,0.0,0.0,-28.968991593926546
1757930755.09063,0.0,-20.0,0.0,0.0,0.0,0.0,-4.227960247008868,-18.009052651336585,25.60075528153815,-8.85521554025522,-11.533188237247549,-9.819072261540068,0.0,-0.01990947348663415,0.0,0.0,0.0,0.0,-28.908991593926544
1757930755.150551,0.0,-20.0,0.0,0.0,0.0,0.0,-4.227960247008868,-18.009052651336585,25.60075528153815,-8.85521554025522,-11.533188237247549,-9.819072261540068,0.0,-0.01990947348663415,0.0,0.0,0.0,0.0,-29.128991593926546
1757930755.2108166,0.0,-20.0,0.0,0.0,0.0,0.0,-4.227960247008868,-18.009052651336585,25.60075528153815,-8.85521554025522,-11.533188237247549,-9.819072261540068,0.0,-0.01990947348663415,0.0,0.0,0.0,0.0,-28.908991593926544
1757930755.270417,0.0,-20.0,0.0,0.0,0.0,0.0,-4.227960247008868,-18.009052651336585,25.60075528153815,-8.85521554025522,-11.533188237247549,-9.819072261540068,0.0,-0.01990947348663415,0.0,0.0,0.0,0.0,-29.728991593926544
1757930755.3208787,0.0,-20.0,0.0,0.0,0.0,0.0,-4.227960247008868,-18.009052651336585,25.60075528153815,-8.85521554025522,-11.533188237247549,-9.819072261540068,0.0,-0.01990947348663415,0.0,0.0,0.0,0.0,-28.708991593926545
1757930755.38098,0.0,-20.0,0.0,0.0,0.0,0.0,-4.227960247008868,-18.009052651336585,25.60075528153815,-8.85521554025522,-11.533188237247549,-9.819072261540068,0.0,-0.01990947348663415,0.0,0.0,0.0,0.0,-29.528991593926545
1757930755.4405255,0.0,-20.0,0.0,0.0,0.0,0.0,-4.227960247008868,-18.009052651336585,25.60075528153815,-8.85521554025522,-11.533188237247549,-9.819072261540068,0.0,-0.01990947348663415,0.0,0.0,0.0,0.0,-29.308991593926546
1757930755.4905288,0.0,-20.0,0.0,0.0,0.0,0.0,-4.227960247008868,-18.009052651336585,25.60075528153815,-8.85521554025522,-11.533188237247549,-9.819072261540068,0.0,-0.01990947348663415,0.0,0.0,0.0,0.0,-29.408991593926544
1757930755.540547,0.0,-20.0,0.0,0.0,0.0,0.0,-4.227960247008868,-18.009052651336585,25.60075528153815,-8.85521554025522,-11.533188237247549,-9.819072261540068,0.0,-0.01990947348663415,0.0,0.0,0.0,0.0,-29.768991593926547
1757930755.590623,0.0,-20.0,0.0,0.0,0.0,0.0,-4.227960247008868,-18.009052651336585,25.60075528153815,-8.85521554025522,-11.533188237247549,-9.819072261540068,0.0,-0.01990947348663415,0.0,0.0,0.0,0.0,-28.388991593926544
1757930755.6506653,0.0,-20.0,0.0,0.0,0.0,0.0,-4.227960247008868,-18.009052651336585,25.60075528153815,-8.85521554025522,-11.533188237247549,-9.819072261540068,0.0,-0.01990947348663415,0.0,0.0,0.0,0.0,-28.428991593926547
1757930755.7105443,0.0,-20.0,0.0,0.0,0.0,0.0,-4.227960247008868,-18.009052651336585,25.60075528153815,-8.85521554025522,-11.533188237247549,-9.819072261540068,0.0,-0.01990947348663415,0.0,0.0,0.0,0.0,-29.828991593926546
1757930755.7607174,0.0,-20.0,0.0,0.0,0.0,0.0,-4.227960247008868,-18.009052651336585,25.60075528153815,-8.85521554025522,-11.533188237247549,-9.819072261540068,0.0,-0.01990947348663415,0.0,0.0,0.0,0.0,-28.888991593926544
1757930755.8107297,0.0,-20.0,0.0,0.0,0.0,0.0,-4.227960247008868,-18.009052651336585,25.60075528153815,-8.85521554025522,-11.533188237247549,-9.819072261540068,0.0,-0.01990947348663415,0.0,0.0,0.0,0.0,-29.228991593926544
1757930755.8705168,0.0,-20.0,0.0,0.0,0.0,0.0,-4.227960247008868,-18.009052651336585,25.60075528153815,-8.85521554025522,-11.533188237247549,-9.819072261540068,0.0,-0.01990947348663415,0.0,0.0,0.0,0.0,-29.248991593926547
1757930755.9208918,0.0,-20.0,0.0,0.0,0.0,0.0,-4.227960247008868,-18.009052651336585,25.60075528153815,-8.85521554025522,-11.533188237247549,-9.819072261540068,0.0,-0.01990947348663415,0.0,0.0,0.0,0.0,-28.608991593926547
1757930755.9808822,0.0,-20.0,0.0,0.0,0.0,0.0,-4.227960247008868,-18.009052651336585,25.60075528153815,-8.85521554025522,-11.533188237247549,-9.819072261540068,0.0,-0.01990947348663415,0.0,0.0,0.0,0.0,-28.808991593926546
1757930756.041006,0.0,-20.0,0.0,0.0,0.0,0.0,-4.227960247008868,-18.009052651336585,25.60075528153815,-8.85521554025522,-11.533188237247549,-9.819072261540068,0.0,-0.01990947348663415,0.0,0.0,0.0,0.0,-28.788991593926546
1757930756.1004934,0.0,-20.0,0.0,0.0,0.0,0.0,-4.227960247008868,-18.009052651336585,25.60075528153815,-8.85521554025522,-11.533188237247549,-9.819072261540068,0.0,-0.01990947348663415,0.0,0.0,0.0,0.0,-28.588991593926547
1757930756.150555,0.0,-20.0,0.0,0.0,0.0,0.0,-4.227960247008868,-18.009052651336585,25.60075528153815,-8.85521554025522,-11.533188237247549,-9.819072261540068,0.0,-0.01990947348663415,0.0,0.0,0.0,0.0,-29.588991593926547
1757930756.2104948,0.0,-20.0,0.0,0.0,0.0,0.0,-4.227960247008868,-18.009052651336585,25.60075528153815,-8.85521554025522,-11.533188237247549,-9.819072261540068,0.0,-0.01990947348663415,0.0,0.0,0.0,0.0,-29.608991593926547
1757930756.2605634,0.0,-20.0,0.0,0.0,0.0,0.0,-4.227960247008868,-18.009052651336585,25.60075528153815,-8.85521554025522,-11.533188237247549,-9.819072261540068,0.0,-0.01990947348663415,0.0,0.0,0.0,0.0,-29.448991593926547
1757930756.3105767,0.0,-20.0,0.0,0.0,0.0,0.0,-4.227960247008868,-18.009052651336585,25.60075528153815,-8.85521554025522,-11.533188237247549,-9.819072261540068,0.0,-0.01990947348663415,0.0,0.0,0.0,0.0,-29.168991593926545
1757930756.360616,0.0,-20.0,0.0,0.0,0.0,0.0,-4.227960247008868,-18.009052651336585,25.60075528153815,-8.85521554025522,-11.533188237247549,-9.819072261540068,0.0,-0.01990947348663415,0.0,0.0,0.0,0.0,-28.968991593926546
1757930756.421142,0.0,-20.0,0.0,0.0,0.0,0.0,-4.227960247008868,-18.009052651336585,25.60075528153815,-8.85521554025522,-11.533188237247549,-9.819072261540068,0.0,-0.01990947348663415,0.0,0.0,0.0,0.0,-28.708991593926545
1757930756.4807048,0.0,-20.0,0.0,0.0,0.0,0.0,-4.227960247008868,-18.009052651336585,25.60075528153815,-8.85521554025522,-11.533188237247549,-9.819072261540068,0.0,-0.01990947348663415,0.0,0.0,0.0,0.0,-28.928991593926547
1757930756.5405715,0.0,-20.0,0.0,0.0,0.0,0.0,-4.227960247008868,-18.009052651336585,25.60075528153815,-8.85521554025522,-11.533188237247549,-9.819072261540068,0.0,-0.01990947348663415,0.0,0.0,0.0,0.0,-29.168991593926545
1757930756.5907745,0.0,-20.0,0.0,0.0,0.0,0.0,-4.227960247008868,-18.009052651336585,25.60075528153815,-8.85521554025522,-11.533188237247549,-9.819072261540068,0.0,-0.01990947348663415,0.0,0.0,0.0,0.0,-30.248991593926547
1757930756.6508868,0.0,-20.0,0.0,0.0,0.0,0.0,-4.227960247008868,-18.009052651336585,25.60075528153815,-8.85521554025522,-11.533188237247549,-9.819072261540068,0.0,-0.01990947348663415,0.0,0.0,0.0,0.0,-29.328991593926546
1757930756.7107236,0.0,-20.0,0.0,0.0,0.0,0.0,-4.227960247008868,-18.009052651336585,25.60075528153815,-8.85521554025522,-11.533188237247549,-9.819072261540068,0.0,-0.01990947348663415,0.0,0.0,0.0,0.0,-28.468991593926546
1757930756.7705355,0.0,-20.0,0.0,0.0,0.0,0.0,-4.227960247008868,-18.009052651336585,25.60075528153815,-8.85521554025522,-11.533188237247549,-9.819072261540068,0.0,-0.01990947348663415,0.0,0.0,0.0,0.0,-29.508991593926545
1757930756.8206491,0.0,-20.0,0.0,0.0,0.0,0.0,-4.227960247008868,-18.009052651336585,25.60075528153815,-8.85521554025522,-11.533188237247549,-9.819072261540068,0.0,-0.01990947348663415,0.0,0.0,0.0,0.0,-28.828991593926546
1757930756.881178,0.0,-20.0,0.0,0.0,0.0,0.0,-4.227960247008868,-18.009052651336585,25.60075528153815,-8.85521554025522,-11.533188237247549,-9.819072261540068,0.0,-0.01990947348663415,0.0,0.0,0.0,0.0,-29.468991593926546
1757930756.940533,0.0,-20.0,0.0,0.0,0.0,0.0,-4.227960247008868,-18.009052651336585,25.60075528153815,-8.85521554025522,-11.533188237247549,-9.819072261540068,0.0,-0.01990947348663415,0.0,0.0,0.0,0.0,-29.708991593926545
1757930756.9908326,0.0,-20.0,0.0,0.0,0.0,0.0,-4.227960247008868,-18.009052651336585,25.60075528153815,-8.85521554025522,-11.533188237247549,-9.819072261540068,0.0,-0.01990947348663415,0.0,0.0,0.0,0.0,-28.888991593926544
1757930757.0508199,0.0,-20.0,0.0,0.0,0.0,0.0,-4.227960247008868,-18.009052651336585,25.60075528153815,-8.85521554025522,-11.533188237247549,-9.819072261540068,0.0,-0.01990947348663415,0.0,0.0,0.0,0.0,-29.328991593926546
1757930757.1105764,0.0,-20.0,0.0,0.0,0.0,0.0,-4.227960247008868,-18.009052651336585,25.60075528153815,-8.85521554025522,-11.533188237247549,-9.819072261540068,0.0,-0.01990947348663415,0.0,0.0,0.0,0.0,-29.288991593926546
1757930757.1606739,0.0,-20.0,0.0,0.0,0.0,0.0,-4.227960247008868,-18.009052651336585,25.60075528153815,-8.85521554025522,-11.533188237247549,-9.819072261540068,0.0,-0.01990947348663415,0.0,0.0,0.0,0.0,-29.508991593926545
1757930757.2206306,0.0,-20.0,0.0,0.0,0.0,0.0,-4.227960247008868,-18.009052651336585,25.60075528153815,-8.85521554025522,-11.533188237247549,-9.819072261540068,0.0,-0.01990947348663415,0.0,0.0,0.0,0.0,-28.688991593926545
1757930757.2808235,0.0,-20.0,0.0,0.0,0.0,0.0,-4.227960247008868,-18.009052651336585,25.60075528153815,-8.85521554025522,-11.533188237247549,-9.819072261540068,0.0,-0.01990947348663415,0.0,0.0,0.0,0.0,-28.988991593926546
1757930757.3405137,0.0,-20.0,0.0,0.0,0.0,0.0,-4.227960247008868,-18.009052651336585,25.60075528153815,-8.85521554025522,-11.533188237247549,-9.819072261540068,0.0,-0.01990947348663415,0.0,0.0,0.0,0.0,-29.108991593926547
1757930757.3906386,0.0,-20.0,0.0,0.0,0.0,0.0,-4.227960247008868,-18.009052651336585,25.60075528153815,-8.85521554025522,-11.533188237247549,-9.819072261540068,0.0,-0.01990947348663415,0.0,0.0,0.0,0.0,-28.308991593926546
1757930757.4513874,0.0,-20.0,0.0,0.0,0.0,0.0,-4.227960247008868,-18.009052651336585,25.60075528153815,-8.85521554025522,-11.533188237247549,-9.819072261540068,0.0,-0.01990947348663415,0.0,0.0,0.0,0.0,-29.828991593926546
1757930757.510729,0.0,-20.0,0.0,0.0,0.0,0.0,-4.227960247008868,-18.009052651336585,25.60075528153815,-8.85521554025522,-11.533188237247549,-9.819072261540068,0.0,-0.01990947348663415,0.0,0.0,0.0,0.0,-28.808991593926546
1757930757.5705462,0.0,-20.0,0.0,0.0,0.0,0.0,-4.227960247008868,-18.009052651336585,25.60075528153815,-8.85521554025522,-11.533188237247549,-9.819072261540068,0.0,-0.01990947348663415,0.0,0.0,0.0,0.0,-28.708991593926545
1757930757.620855,0.0,-20.0,0.0,0.0,0.0,0.0,-4.227960247008868,-18.009052651336585,25.60075528153815,-8.85521554025522,-11.533188237247549,-9.819072261540068,0.0,-0.01990947348663415,0.0,0.0,0.0,0.0,-28.968991593926546
1757930757.6806092,0.0,-20.0,0.0,0.0,0.0,0.0,-4.227960247008868,-18.009052651336585,25.60075528153815,-8.85521554025522,-11.533188237247549,-9.819072261540068,0.0,-0.01990947348663415,0.0,0.0,0.0,0.0,-29.048991593926544
1757930757.7404723,0.0,-20.0,0.0,0.0,0.0,0.0,-4.227960247008868,-18.009052651336585,25.60075528153815,-8.85521554025522,-11.533188237247549,-9.819072261540068,0.0,-0.01990947348663415,0.0,0.0,0.0,0.0,-29.928991593926547
1757930757.790634,0.0,-20.0,0.0,0.0,0.0,0.0,-4.227960247008868,-18.009052651336585,25.60075528153815,-8.85521554025522,-11.533188237247549,-9.819072261540068,0.0,-0.01990947348663415,0.0,0.0,0.0,0.0,-28.468991593926546
