time,lam_star_Fx,lam_star_Fy,lam_star_Fz,lam_star_Tx,lam_star_Ty,lam_star_Tz,meas_Fx,meas_Fy,meas_Fz,meas_Tx,meas_Ty,meas_Tz,v_final_Fx,v_final_Fy,v_final_Fz,v_final_Tx,v_final_Ty,v_final_Tz
1757931007.0535927,-4.1876305949785015,0.0,0.0,0.0,0.0,0.0,-4.41,0.13000000000000078,-1.67,0.22,0.764,-0.056,0.0022236940502149863,0.0,0.0,0.0,0.0,0.0
1757931007.103784,-4.0,0.0,0.0,0.0,0.0,0.0,-5.489999999999998,0.7699999999999996,0.18999999999999995,0.243,0.754,-0.027999999999999997,0.014899999999999984,0.0,0.0,0.0,0.0,0.0
1757931007.1636407,-4.0,0.0,0.0,0.0,0.0,0.0,-5.849999999999998,0.13000000000000078,-0.2699999999999999,0.241,0.724,-0.051000000000000004,0.01849999999999998,0.0,0.0,0.0,0.0,0.0
1757931007.2240999,-4.0,0.0,0.0,0.0,0.0,0.0,-4.949999999999999,0.3100000000000005,-0.75,0.217,0.763,-0.043000000000000003,0.009499999999999993,0.0,0.0,0.0,0.0,0.0
1757931007.2743576,-4.0,0.0,0.0,0.0,0.0,0.0,-5.469999999999999,0.030000000000001137,-0.97,0.241,0.763,-0.05,0.014699999999999989,0.0,0.0,0.0,0.0,0.0
1757931007.3336573,-4.0,0.0,0.0,0.0,0.0,0.0,-4.449999999999999,0.7900000000000009,-0.37,0.23,0.746,-0.058,0.004499999999999993,0.0,0.0,0.0,0.0,0.0
1757931007.3935995,-4.333733955839929,0.0,0.0,0.0,0.0,0.0,-2.7300000000000004,0.11000000000000121,-1.73,0.219,0.777,-0.052,-0.016037339558399283,0.0,0.0,0.0,0.0,0.0
1757931007.4436207,-4.0,0.0,0.0,0.0,0.0,0.0,-3.59,-0.02999999999999936,-1.27,0.244,0.768,-0.057,-0.004100000000000001,0.0,0.0,0.0,0.0,0.0
1757931007.493678,-4.148041706637001,0.0,0.0,0.0,0.0,0.0,-4.869999999999997,0.3100000000000005,-1.63,0.213,0.784,-0.056,0.007219582933629969,0.0,0.0,0.0,0.0,0.0
1757931007.5537746,-4.0,0.0,0.0,0.0,0.0,0.0,-6.209999999999997,-0.4499999999999993,-0.22999999999999998,0.223,0.743,-0.044,0.022099999999999974,0.0,0.0,0.0,0.0,0.0
1757931007.614027,-4.0,0.0,0.0,0.0,0.0,0.0,-4.349999999999998,0.45000000000000107,0.07000000000000006,0.196,0.794,-0.054,0.003499999999999979,0.0,0.0,0.0,0.0,0.0
1757931007.6737247,-6.546086617208787,0.0,0.0,0.0,0.0,0.0,-1.9899999999999984,-0.20999999999999908,-2.61,0.224,0.788,-0.054,-0.045560866172087884,0.0,0.0,0.0,0.0,0.0
1757931007.7336206,-5.102082907989637,0.0,0.0,0.0,0.0,0.0,-4.09,-0.20999999999999908,-2.03,0.223,0.783,-0.026999999999999996,-0.010120829079896367,0.0,0.0,0.0,0.0,0.0
1757931007.7838151,-4.0,0.0,0.0,0.0,0.0,0.0,-10.89,-1.1899999999999995,0.9700000000000002,0.191,0.769,-0.07100000000000001,0.0689,0.0,0.0,0.0,0.0,0.0
1757931007.8435647,-4.0,0.0,0.0,0.0,0.0,0.0,-6.189999999999998,0.19000000000000128,-1.5699999999999998,0.228,0.787,-0.059,0.02189999999999998,0.0,0.0,0.0,0.0,0.0
1757931007.893643,-7.992887463238799,0.0,0.0,0.0,0.0,0.0,-2.4499999999999993,-2.0299999999999994,-2.4699999999999998,0.242,0.742,-0.059,-0.055428874632388,0.0,0.0,0.0,0.0,0.0
1757931007.9536378,-4.0,0.0,0.0,0.0,0.0,0.0,-2.7099999999999973,0.6500000000000004,-0.47,0.252,0.7370000000000001,-0.049,-0.012900000000000028,0.0,0.0,0.0,0.0,0.0
1757931008.003774,-4.0,0.0,0.0,0.0,0.0,0.0,-4.75,-0.3699999999999992,-1.1099999999999999,0.231,0.768,-0.034,0.0075,0.0,0.0,0.0,0.0,0.0
1757931008.0541627,-4.0,0.0,0.0,0.0,0.0,0.0,-8.209999999999997,-1.3499999999999996,0.49,0.198,0.776,-0.045,0.04209999999999997,0.0,0.0,0.0,0.0,0.0
1757931008.113626,-4.376785350002899,0.0,0.0,0.0,0.0,0.0,-7.469999999999999,-1.0099999999999998,-1.43,0.203,0.788,-0.048,0.030932146499971003,0.0,0.0,0.0,0.0,0.0
1757931008.1636357,-5.065199897338702,0.0,0.0,0.0,0.0,0.0,-3.5500000000000007,-0.7300000000000004,-1.89,0.199,0.773,-0.044,-0.015151998973387011,0.0,0.0,0.0,0.0,0.0
1757931008.2137146,-4.348131782731522,0.0,0.0,0.0,0.0,0.0,-2.4499999999999993,0.5500000000000007,-1.65,0.211,0.773,-0.037,-0.018981317827315224,0.0,0.0,0.0,0.0,0.0
1757931008.2639499,-4.6964082020199225,0.0,0.0,0.0,0.0,0.0,-2.629999999999999,-0.5700000000000003,-1.79,0.243,0.745,-0.041,-0.020664082020199235,0.0,0.0,0.0,0.0,0.0
1757931008.3235917,-4.0,0.0,0.0,0.0,0.0,0.0,-7.59,0.030000000000001137,0.75,0.224,0.7290000000000001,-0.033,0.0359,0.0,0.0,0.0,0.0,0.0
1757931008.374153,-5.215002396931376,0.0,0.0,0.0,0.0,0.0,-9.189999999999998,-1.67,-1.25,0.211,0.743,-0.039,0.03974997603068622,0.0,0.0,0.0,0.0,0.0
1757931008.433863,-4.0,0.0,0.0,0.0,0.0,0.0,-9.93,1.0899999999999999,-1.0699999999999998,0.243,0.751,-0.023999999999999994,0.0593,0.0,0.0,0.0,0.0,0.0
1757931008.4936097,-6.924323071607794,0.0,0.0,0.0,0.0,0.0,-4.469999999999999,0.33000000000000007,-2.75,0.251,0.763,-0.039,-0.02454323071607795,0.0,0.0,0.0,0.0,0.0
1757931008.5538182,-4.0,0.0,0.0,0.0,0.0,0.0,-4.949999999999999,-0.34999999999999964,-1.21,0.23,0.732,-0.051000000000000004,0.009499999999999993,0.0,0.0,0.0,0.0,0.0
1757931008.613574,-6.575047528345328,0.0,0.0,0.0,0.0,0.0,-8.009999999999998,-1.5700000000000003,-2.11,0.242,0.752,-0.018000000000000002,0.0143495247165467,0.0,0.0,0.0,0.0,0.0
1757931008.6636033,-4.359615808761134,0.0,0.0,0.0,0.0,0.0,-7.25,-0.6699999999999999,-1.6099999999999999,0.232,0.758,-0.033,0.028903841912388657,0.0,0.0,0.0,0.0,0.0
1757931008.713642,-4.481768624103657,0.0,0.0,0.0,0.0,0.0,-7.709999999999997,-0.46999999999999886,-1.73,0.216,0.7370000000000001,-0.04,0.0322823137589634,0.0,0.0,0.0,0.0,0.0
1757931008.76375,-6.645769330935282,0.0,0.0,0.0,0.0,0.0,-4.09,-0.20999999999999908,-2.65,0.218,0.779,-0.036,-0.025557693309352824,0.0,0.0,0.0,0.0,0.0
1757931008.8235886,-7.689034399714961,0.0,0.0,0.0,0.0,0.0,-3.0700000000000003,0.870000000000001,-2.95,0.265,0.772,-0.043000000000000003,-0.04619034399714961,0.0,0.0,0.0,0.0,0.0
1757931008.873748,-4.0,0.0,0.0,0.0,0.0,0.0,-2.6499999999999986,0.05000000000000071,-1.41,0.266,0.7290000000000001,-0.04,-0.013500000000000014,0.0,0.0,0.0,0.0,0.0
1757931008.9340496,-4.0,0.0,0.0,0.0,0.0,0.0,-5.029999999999998,-0.6699999999999999,-1.01,0.26,0.7050000000000001,-0.047,0.010299999999999976,0.0,0.0,0.0,0.0,0.0
1757931008.9935632,-6.688890042450988,0.0,0.0,0.0,0.0,0.0,-7.709999999999997,-1.3499999999999996,-2.31,0.243,0.728,-0.05,0.010211099575490091,0.0,0.0,0.0,0.0,0.0
1757931009.0442736,-7.351615468725223,0.0,0.0,0.0,0.0,0.0,-6.969999999999999,-0.25,-2.9299999999999997,0.261,0.751,-0.033,-0.0038161546872522403,0.0,0.0,0.0,0.0,0.0
1757931009.1036308,-7.966884585582998,0.0,0.0,0.0,0.0,0.0,-6.789999999999999,-1.7699999999999996,-2.65,0.23500000000000001,0.724,-0.028999999999999998,-0.011768845855829992,0.0,0.0,0.0,0.0,0.0
1757931009.1637614,-4.0,0.0,0.0,0.0,0.0,0.0,-6.969999999999999,0.25,-1.0499999999999998,0.274,0.7,-0.034,0.02969999999999999,0.0,0.0,0.0,0.0,0.0
1757931009.2236254,-7.506746965230678,0.0,0.0,0.0,0.0,0.0,-7.029999999999998,-1.1099999999999994,-2.79,0.252,0.7090000000000001,-0.04,-0.0047674696523068065,0.0,0.0,0.0,0.0,0.0
1757931009.2835567,-7.800400630736859,0.0,0.0,0.0,0.0,0.0,-9.809999999999999,-1.2699999999999996,-2.8499999999999996,0.29200000000000004,0.722,-0.045,0.0200959936926314,0.0,0.0,0.0,0.0,0.0
1757931009.3348136,-8.269900241236286,0.0,0.0,0.0,0.0,0.0,-11.129999999999999,-1.0099999999999998,-3.15,0.258,0.6779999999999999,-0.028999999999999998,0.028600997587637133,0.0,0.0,0.0,0.0,0.0
1757931009.3936255,-5.0031240240473736,0.0,0.0,0.0,0.0,0.0,-11.09,-0.8099999999999987,-1.83,0.274,0.6950000000000001,-0.045,0.06086875975952626,0.0,0.0,0.0,0.0,0.0
1757931009.453568,-7.60665826759688,0.0,0.0,0.0,0.0,0.0,-3.09,-1.5299999999999994,-2.63,0.316,0.7,-0.048,-0.045166582675968805,0.0,0.0,0.0,0.0,0.0
1757931009.5135667,-4.0,0.0,0.0,0.0,0.0,0.0,-8.529999999999998,-0.8099999999999987,-0.030000000000000027,0.29400000000000004,0.69,-0.051000000000000004,0.04529999999999998,0.0,0.0,0.0,0.0,0.0
1757931009.5637772,-8.42503709190648,0.0,0.0,0.0,0.0,0.0,-8.91,0.009999999999999787,-3.37,0.31,0.716,-0.051000000000000004,0.004849629080935198,0.0,0.0,0.0,0.0,0.0
1757931009.6235545,-9.40272566865587,0.0,0.0,0.0,0.0,0.0,-6.649999999999999,-1.67,-3.37,0.311,0.6930000000000001,-0.052,-0.02752725668655872,0.0,0.0,0.0,0.0,0.0
1757931009.67422,-8.371155834172482,0.0,0.0,0.0,0.0,0.0,-15.77,-1.2899999999999991,-3.09,0.325,0.658,-0.048,0.07398844165827517,0.0,0.0,0.0,0.0,0.0
1757931009.733641,-12.98041794396467,0.0,0.0,0.0,0.0,0.0,-11.61,0.15000000000000036,-5.1899999999999995,0.31,0.704,-0.038,-0.013704179439646698,0.0,0.0,0.0,0.0,0.0
1757931009.7935777,-9.724003805017766,0.0,0.0,0.0,0.0,0.0,-8.189999999999998,-2.01,-3.33,0.334,0.653,-0.044,-0.015340038050177683,0.0,0.0,0.0,0.0,0.0
1757931009.8436542,-9.251824144459295,0.0,0.0,0.0,0.0,0.0,-12.25,-3.25,-1.77,0.305,0.643,-0.012999999999999998,0.029981758555407047,0.0,0.0,0.0,0.0,0.0
1757931009.8942919,-6.44253443917842,0.0,0.0,0.0,0.0,0.0,-11.529999999999998,-0.4900000000000002,-2.5300000000000002,0.301,0.654,-0.010999999999999996,0.050874655608215774,0.0,0.0,0.0,0.0,0.0
1757931009.953565,-11.172790609333013,0.0,0.0,0.0,0.0,0.0,-10.329999999999998,0.5899999999999999,-4.43,0.362,0.668,-0.064,-0.008427906093330152,0.0,0.0,0.0,0.0,0.0
1757931010.0036054,-7.180268100844145,0.0,0.0,0.0,0.0,0.0,-17.929999999999996,0.4900000000000002,-2.83,0.383,0.642,-0.074,0.10749731899155851,0.0,0.0,0.0,0.0,0.0
1757931010.0542758,-4.471716672599015,0.0,0.0,0.0,0.0,0.0,-16.470000000000002,1.370000000000001,-1.15,0.363,0.6080000000000001,-0.006000000000000005,0.11998283327400987,0.0,0.0,0.0,0.0,0.0
1757931010.11408,-10.599823111731629,0.0,0.0,0.0,0.0,0.0,-7.369999999999997,0.2900000000000009,-4.23,0.365,0.667,-0.051000000000000004,-0.03229823111731632,0.0,0.0,0.0,0.0,0.0
1757931010.1740549,-4.680411306712265,0.0,0.0,0.0,0.0,0.0,-11.989999999999998,0.6100000000000012,-1.77,0.336,0.627,-0.033,0.07309588693287734,0.0,0.0,0.0,0.0,0.0
1757931010.2337847,-4.0,0.0,0.0,0.0,0.0,0.0,-16.31,1.0700000000000003,0.13000000000000012,0.32,0.5820000000000001,-0.047,0.12309999999999999,0.0,0.0,0.0,0.0,0.0
1757931010.2935705,-7.132408429135279,0.0,0.0,0.0,0.0,0.0,-6.609999999999999,0.13000000000000078,-2.8499999999999996,0.335,0.659,-0.033,-0.005224084291352797,0.0,0.0,0.0,0.0,0.0
1757931010.343677,-10.388274640189291,0.0,0.0,0.0,0.0,0.0,-6.309999999999999,-1.7899999999999991,-3.75,0.3,0.635,-0.021000000000000005,-0.04078274640189292,0.0,0.0,0.0,0.0,0.0
1757931010.403894,-7.755723692860649,0.0,0.0,0.0,0.0,0.0,-7.91,2.710000000000001,-1.51,0.342,0.633,-0.062,0.001542763071393507,0.0,0.0,0.0,0.0,0.0
1757931010.4636693,-5.495111463837652,0.0,0.0,0.0,0.0,0.0,-15.330000000000002,-0.34999999999999964,-2.17,0.4,0.537,-0.044,0.09834888536162349,0.0,0.0,0.0,0.0,0.0
1757931010.5236058,-7.115563927054551,0.0,0.0,0.0,0.0,0.0,-12.79,-0.9299999999999997,-2.69,0.361,0.599,-0.010999999999999996,0.056744360729454484,0.0,0.0,0.0,0.0,0.0
1757931010.5835805,-5.333971316008364,0.0,0.0,0.0,0.0,0.0,-2.6499999999999986,-0.9900000000000002,-1.89,0.302,0.675,-0.042,-0.02683971316008366,0.0,0.0,0.0,0.0,0.0
1757931010.6337523,-6.501249879830802,0.0,0.0,0.0,0.0,0.0,-4.550000000000001,0.75,-2.49,0.29700000000000004,0.646,-0.078,-0.01951249879830801,0.0,0.0,0.0,0.0,0.0
1757931010.6936483,-4.60990780818879,0.0,0.0,0.0,0.0,0.0,-10.129999999999999,-1.709999999999999,-0.69,0.352,0.601,-0.0040000000000000036,0.055200921918112086,0.0,0.0,0.0,0.0,0.0
1757931010.7535505,-7.166676356582596,0.0,0.0,0.0,0.0,0.0,-12.09,-1.67,-2.33,0.34400000000000003,0.607,-0.042,0.04923323643417404,0.0,0.0,0.0,0.0,0.0
1757931010.8039577,-9.283924278019505,0.0,0.0,0.0,0.0,0.0,-6.469999999999999,0.9500000000000011,-3.59,0.33,0.71,-0.081,-0.028139242780195063,0.0,0.0,0.0,0.0,0.0
1757931010.8636093,-7.495415265347212,0.0,0.0,0.0,0.0,0.0,-9.43,2.110000000000001,-2.13,0.34600000000000003,0.624,-0.07100000000000001,0.019345847346527875,0.0,0.0,0.0,0.0,0.0
1757931010.9238393,-4.119010803578936,0.0,0.0,0.0,0.0,0.0,-17.429999999999996,0.34999999999999964,-1.6099999999999999,0.401,0.55,-0.03,0.1331098919642106,0.0,0.0,0.0,0.0,0.0
1757931010.9835758,-4.0,0.0,0.0,0.0,0.0,0.0,-14.190000000000001,-0.23000000000000043,-0.9099999999999999,0.373,0.587,-0.016,0.10190000000000002,0.0,0.0,0.0,0.0,0.0
1757931011.0336196,-8.647615278213987,0.0,0.0,0.0,0.0,0.0,-5.829999999999998,0.25,-3.4499999999999997,0.323,0.654,-0.04,-0.028176152782139887,0.0,0.0,0.0,0.0,0.0
1757931011.0936387,-9.332001393056046,0.0,0.0,0.0,0.0,0.0,-3.009999999999998,-0.8699999999999992,-3.63,0.302,0.69,-0.057,-0.06322001393056048,0.0,0.0,0.0,0.0,0.0
1757931011.153554,-4.0,0.0,0.0,0.0,0.0,0.0,-10.349999999999998,0.8900000000000006,-0.6499999999999999,0.337,0.654,-0.039,0.06349999999999997,0.0,0.0,0.0,0.0,0.0
1757931011.2038453,-7.646649593122468,0.0,0.0,0.0,0.0,0.0,-9.59,0.23000000000000043,-3.05,0.327,0.636,-0.073,0.019433504068775323,0.0,0.0,0.0,0.0,0.0
1757931011.263551,-9.051588258421832,0.0,0.0,0.0,0.0,0.0,-6.609999999999999,0.47000000000000064,-3.59,0.335,0.635,-0.099,-0.024415882584218326,0.0,0.0,0.0,0.0,0.0
1757931011.3136115,-7.40346202799744,0.0,0.0,0.0,0.0,0.0,-7.09,-0.4299999999999997,-2.9299999999999997,0.336,0.597,-0.053,-0.003134620279974403,0.0,0.0,0.0,0.0,0.0
1757931011.3640256,-4.77558896891263,0.0,0.0,0.0,0.0,0.0,-10.029999999999998,-0.3899999999999988,-1.87,0.34600000000000003,0.605,-0.053,0.05254411031087368,0.0,0.0,0.0,0.0,0.0
1757931011.4235609,-5.044427618669932,0.0,0.0,0.0,0.0,0.0,-5.59,-0.8499999999999996,-1.83,0.312,0.636,-0.06,0.005455723813300679,0.0,0.0,0.0,0.0,0.0
1757931011.4736447,-6.887397912129079,0.0,0.0,0.0,0.0,0.0,-4.169999999999998,0.370000000000001,-2.73,0.304,0.637,-0.075,-0.027173979121290808,0.0,0.0,0.0,0.0,0.0
1757931011.533674,-6.168974793269949,0.0,0.0,0.0,0.0,0.0,-6.57,0.5300000000000011,-2.41,0.322,0.641,-0.079,0.004010252067300515,0.0,0.0,0.0,0.0,0.0
1757931011.593683,-5.805708397775416,0.0,0.0,0.0,0.0,0.0,-6.369999999999997,0.4900000000000002,-2.27,0.321,0.641,-0.066,0.005642916022245812,0.0,0.0,0.0,0.0,0.0
1757931011.653576,-7.276073803913756,0.0,0.0,0.0,0.0,0.0,-7.189999999999998,0.5899999999999999,-2.8499999999999996,0.337,0.655,-0.068,-0.0008607380391375852,0.0,0.0,0.0,0.0,0.0
1757931011.7037423,-4.376785350002899,0.0,0.0,0.0,0.0,0.0,-8.989999999999998,0.05000000000000071,-1.75,0.331,0.615,-0.09,0.046132146499971,0.0,0.0,0.0,0.0,0.0
1757931011.7635906,-4.0,0.0,0.0,0.0,0.0,0.0,-4.93,-0.3699999999999992,-0.75,0.303,0.632,-0.061,0.009299999999999998,0.0,0.0,0.0,0.0,0.0
1757931011.8138332,-8.13364924249872,0.0,0.0,0.0,0.0,0.0,-4.669999999999998,0.5300000000000011,-3.21,0.29800000000000004,0.664,-0.09,-0.03463649242498722,0.0,0.0,0.0,0.0,0.0
1757931011.8736994,-7.765709883841914,0.0,0.0,0.0,0.0,0.0,-5.529999999999998,0.9100000000000001,-2.9699999999999998,0.28300000000000003,0.65,-0.083,-0.02235709883841916,0.0,0.0,0.0,0.0,0.0
1757931011.9336195,-7.330160298383657,0.0,0.0,0.0,0.0,0.0,-9.989999999999998,-0.10999999999999943,-2.9299999999999997,0.373,0.625,-0.028999999999999998,0.026598397016163417,0.0,0.0,0.0,0.0,0.0
1757931011.9935722,-4.626688880830437,0.0,0.0,0.0,0.0,0.0,-13.389999999999997,1.0700000000000003,-1.51,0.404,0.593,-0.058,0.08763311119169562,0.0,0.0,0.0,0.0,0.0
1757931012.043708,-9.212016608756196,0.0,0.0,0.0,0.0,0.0,-7.890000000000001,-0.33000000000000007,-3.67,0.34,0.627,-0.043000000000000003,-0.013220166087561953,0.0,0.0,0.0,0.0,0.0
1757931012.1039581,-6.366415789123422,0.0,0.0,0.0,0.0,0.0,-3.8299999999999983,0.2900000000000009,-2.5300000000000002,0.304,0.673,-0.035,-0.025364157891234234,0.0,0.0,0.0,0.0,0.0
1757931012.1635864,-7.3539955126448096,0.0,0.0,0.0,0.0,0.0,-10.309999999999999,0.4299999999999997,-2.91,0.36,0.6100000000000001,-0.032,0.02956004487355189,0.0,0.0,0.0,0.0,0.0
1757931012.2136905,-4.0,0.0,0.0,0.0,0.0,0.0,-11.89,0.16999999999999993,-0.8499999999999999,0.38,0.554,-0.0010000000000000009,0.07890000000000001,0.0,0.0,0.0,0.0,0.0
1757931012.274217,-4.0,0.0,0.0,0.0,0.0,0.0,-7.77,0.9700000000000006,-1.1099999999999999,0.321,0.587,-0.036,0.0377,0.0,0.0,0.0,0.0,0.0
1757931012.3335893,-4.928615424234274,0.0,0.0,0.0,0.0,0.0,-3.789999999999999,-0.28999999999999915,-1.95,0.281,0.672,-0.04,-0.01138615424234275,0.0,0.0,0.0,0.0,0.0
1757931012.3935413,-5.376453291901641,0.0,0.0,0.0,0.0,0.0,-2.349999999999998,0.05000000000000071,-2.15,0.277,0.7030000000000001,-0.067,-0.030264532919016433,0.0,0.0,0.0,0.0,0.0
1757931012.4439087,-4.0,0.0,0.0,0.0,0.0,0.0,-6.689999999999998,0.39000000000000057,-0.44999999999999996,0.34400000000000003,0.616,-0.052,0.02689999999999998,0.0,0.0,0.0,0.0,0.0
1757931012.5036004,-5.589387265166013,0.0,0.0,0.0,0.0,0.0,-9.009999999999998,0.45000000000000107,-2.19,0.352,0.5840000000000001,-0.081,0.03420612734833985,0.0,0.0,0.0,0.0,0.0
1757931012.5635788,-6.689637508863989,0.0,0.0,0.0,0.0,0.0,-6.809999999999999,0.5899999999999999,-2.61,0.317,0.622,-0.099,0.0012036249113601017,0.0,0.0,0.0,0.0,0.0
1757931012.6136067,-5.833630944789017,0.0,0.0,0.0,0.0,0.0,-4.029999999999998,-0.33000000000000007,-2.31,0.28400000000000003,0.624,-0.052,-0.018036309447890194,0.0,0.0,0.0,0.0,0.0
1757931012.6737661,-7.649591492360882,0.0,0.0,0.0,0.0,0.0,-3.7699999999999996,-0.5499999999999989,-3.01,0.261,0.656,-0.053,-0.03879591492360882,0.0,0.0,0.0,0.0,0.0
1757931012.7336903,-7.673411887811055,0.0,0.0,0.0,0.0,0.0,-3.9499999999999993,0.4900000000000002,-3.0300000000000002,0.273,0.688,-0.067,-0.03723411887811055,0.0,0.0,0.0,0.0,0.0
1757931012.793563,-4.0,0.0,0.0,0.0,0.0,0.0,-7.23,-0.009999999999999787,-1.47,0.303,0.575,-0.045,0.0323,0.0,0.0,0.0,0.0,0.0
1757931012.8446512,-5.056307941571598,0.0,0.0,0.0,0.0,0.0,-10.43,1.450000000000001,-1.41,0.362,0.56,-0.076,0.05373692058428402,0.0,0.0,0.0,0.0,0.0
1757931012.9036396,-6.4595859000403415,0.0,0.0,0.0,0.0,0.0,-4.489999999999998,-0.6899999999999995,-2.49,0.28300000000000003,0.662,-0.049,-0.01969585900040343,0.0,0.0,0.0,0.0,0.0
1757931012.9635909,-7.485736436717499,0.0,0.0,0.0,0.0,0.0,-4.27,2.7300000000000004,-1.23,0.28900000000000003,0.658,-0.078,-0.03215736436717499,0.0,0.0,0.0,0.0,0.0
1757931013.0235443,-7.316846998537006,0.0,0.0,0.0,0.0,0.0,-3.1499999999999986,-1.5700000000000003,-2.4699999999999998,0.27,0.671,-0.04,-0.04166846998537008,0.0,0.0,0.0,0.0,0.0
1757931013.0836859,-5.709312568076825,0.0,0.0,0.0,0.0,0.0,-9.669999999999998,-0.7699999999999996,-2.15,0.341,0.555,-0.055,0.03960687431923173,0.0,0.0,0.0,0.0,0.0
1757931013.1441677,-4.0,0.0,0.0,0.0,0.0,0.0,-8.79,0.6500000000000004,-1.25,0.321,0.523,-0.078,0.04789999999999999,0.0,0.0,0.0,0.0,0.0
1757931013.203904,-4.087939578809843,0.0,0.0,0.0,0.0,0.0,-3.3099999999999987,-0.129999999999999,-1.63,0.255,0.641,-0.046,-0.007779395788098445,0.0,0.0,0.0,0.0,0.0
1757931013.2635624,-4.003279905277671,0.0,0.0,0.0,0.0,0.0,-1.4499999999999993,0.19000000000000128,-1.5899999999999999,0.243,0.708,-0.052,-0.025532799052776715,0.0,0.0,0.0,0.0,0.0
1757931013.3139732,-5.32975140133196,0.0,0.0,0.0,0.0,0.0,-1.7699999999999996,0.08999999999999986,-2.13,0.256,0.718,-0.065,-0.0355975140133196,0.0,0.0,0.0,0.0,0.0
1757931013.3735745,-4.0,0.0,0.0,0.0,0.0,0.0,-4.289999999999999,0.47000000000000064,-0.47,0.311,0.7310000000000001,-0.07200000000000001,0.0028999999999999916,0.0,0.0,0.0,0.0,0.0
1757931013.4337163,-4.0,0.0,0.0,0.0,0.0,0.0,-9.129999999999999,-0.46999999999999886,-1.27,0.332,0.634,-0.073,0.05129999999999999,0.0,0.0,0.0,0.0,0.0
1757931013.4935265,-4.875064102142657,0.0,0.0,0.0,0.0,0.0,-7.969999999999999,-0.009999999999999787,-1.95,0.313,0.638,-0.051000000000000004,0.03094935897857342,0.0,0.0,0.0,0.0,0.0
1757931013.5443547,-5.685178097474168,0.0,0.0,0.0,0.0,0.0,-5.169999999999998,-0.33000000000000007,-2.25,0.28200000000000003,0.6859999999999999,-0.091,-0.005151780974741698,0.0,0.0,0.0,0.0,0.0
1757931013.6037054,-5.1518200667336975,0.0,0.0,0.0,0.0,0.0,-4.869999999999997,0.21000000000000085,-2.05,0.303,0.677,-0.067,-0.002818200667337001,0.0,0.0,0.0,0.0,0.0
1757931013.6540883,-5.334908621522958,0.0,0.0,0.0,0.0,0.0,-5.890000000000001,-0.129999999999999,-2.13,0.317,0.687,-0.076,0.005550913784770426,0.0,0.0,0.0,0.0,0.0
1757931013.7135723,-7.035001776829911,0.0,0.0,0.0,0.0,0.0,-5.73,0.15000000000000036,-2.81,0.35,0.664,-0.063,-0.013050017768299105,0.0,0.0,0.0,0.0,0.0
1757931013.7658143,-4.0,0.0,0.0,0.0,0.0,0.0,-3.849999999999998,-0.9299999999999997,-0.47,0.304,0.665,-0.057,-0.0015000000000000213,0.0,0.0,0.0,0.0,0.0
1757931013.823542,-5.287839823595264,0.0,0.0,0.0,0.0,0.0,-3.09,-0.7699999999999996,-1.97,0.278,0.714,-0.049,-0.021978398235952643,0.0,0.0,0.0,0.0,0.0
1757931013.8736932,-4.0,0.0,0.0,0.0,0.0,0.0,-7.489999999999998,1.0700000000000003,-1.15,0.352,0.645,-0.051000000000000004,0.03489999999999999,0.0,0.0,0.0,0.0,0.0
1757931013.9335737,-4.117796740976901,0.0,0.0,0.0,0.0,0.0,-6.050000000000001,0.4299999999999997,-1.5899999999999999,0.301,0.663,-0.078,0.019322032590230992,0.0,0.0,0.0,0.0,0.0
1757931013.9935355,-4.0,0.0,0.0,0.0,0.0,0.0,-4.949999999999999,0.23000000000000043,-0.42999999999999994,0.29200000000000004,0.67,-0.078,0.009499999999999993,0.0,0.0,0.0,0.0,0.0
1757931014.0437796,-8.443710677184527,0.0,0.0,0.0,0.0,0.0,-4.649999999999999,-0.4299999999999997,-3.35,0.315,0.6970000000000001,-0.079,-0.03793710677184528,0.0,0.0,0.0,0.0,0.0
1757931014.1036026,-4.0,0.0,0.0,0.0,0.0,0.0,-5.709999999999997,-0.9299999999999997,-0.1299999999999999,0.323,0.662,-0.048,0.017099999999999973,0.0,0.0,0.0,0.0,0.0
1757931014.1536858,-4.0,0.0,0.0,0.0,0.0,0.0,-6.93,1.4100000000000001,-0.59,0.324,0.633,-0.094,0.029299999999999996,0.0,0.0,0.0,0.0,0.0
1757931014.204658,-4.952903189039738,0.0,0.0,0.0,0.0,0.0,-7.829999999999998,0.8900000000000006,-1.77,0.337,0.628,-0.067,0.028770968109602606,0.0,0.0,0.0,0.0,0.0
1757931014.2638986,-5.020582635511539,0.0,0.0,0.0,0.0,0.0,-5.050000000000001,-0.3899999999999988,-1.97,0.336,0.642,-0.07100000000000001,0.0002941736448846211,0.0,0.0,0.0,0.0,0.0
1757931014.3235803,-4.982594705572589,0.0,0.0,0.0,0.0,0.0,-4.949999999999999,-0.10999999999999943,-1.99,0.326,0.65,-0.076,-0.0003259470557259014,0.0,0.0,0.0,0.0,0.0
1757931014.3735871,-5.464087297984906,0.0,0.0,0.0,0.0,0.0,-6.07,0.4900000000000002,-2.13,0.339,0.633,-0.076,0.006059127020150941,0.0,0.0,0.0,0.0,0.0
1757931014.4335573,-5.417679392507459,0.0,0.0,0.0,0.0,0.0,-6.529999999999998,0.8100000000000005,-2.01,0.326,0.649,-0.084,0.011123206074925385,0.0,0.0,0.0,0.0,0.0
1757931014.48367,-6.268273286958697,0.0,0.0,0.0,0.0,0.0,-3.3900000000000006,-1.2899999999999991,-2.15,0.259,0.664,-0.053,-0.02878273286958696,0.0,0.0,0.0,0.0,0.0
1757931014.5339096,-4.0,0.0,0.0,0.0,0.0,0.0,-2.4499999999999993,0.6699999999999999,-1.29,0.262,0.734,-0.056,-0.015500000000000007,0.0,0.0,0.0,0.0,0.0
1757931014.5935552,-4.0,0.0,0.0,0.0,0.0,0.0,-3.289999999999999,0.030000000000001137,-0.1499999999999999,0.313,0.664,-0.059,-0.007100000000000009,0.0,0.0,0.0,0.0,0.0
1757931014.6442118,-4.0,0.0,0.0,0.0,0.0,0.0,-5.309999999999999,0.25,-1.23,0.311,0.654,-0.077,0.013099999999999987,0.0,0.0,0.0,0.0,0.0
1757931014.7036216,-4.0,0.0,0.0,0.0,0.0,0.0,-8.41,-0.20999999999999908,-0.37,0.311,0.595,-0.074,0.0441,0.0,0.0,0.0,0.0,0.0
1757931014.7538388,-5.645019929105653,0.0,0.0,0.0,0.0,0.0,-4.57,-0.6899999999999995,-2.15,0.28200000000000003,0.6910000000000001,-0.077,-0.01075019929105653,0.0,0.0,0.0,0.0,0.0
1757931014.8136566,-6.881951031502622,0.0,0.0,0.0,0.0,0.0,-4.109999999999999,0.6699999999999999,-2.67,0.29700000000000004,0.6970000000000001,-0.058,-0.027719510315026223,0.0,0.0,0.0,0.0,0.0
1757931014.8736513,-5.460883628131989,0.0,0.0,0.0,0.0,0.0,-5.890000000000001,0.25,-2.17,0.323,0.62,-0.062,0.004291163718680115,0.0,0.0,0.0,0.0,0.0
1757931014.9335794,-4.576707331696008,0.0,0.0,0.0,0.0,0.0,-4.07,-0.75,-1.67,0.269,0.634,-0.057,-0.005067073316960081,0.0,0.0,0.0,0.0,0.0
1757931014.9935439,-4.0,0.0,0.0,0.0,0.0,0.0,-4.949999999999999,-0.7300000000000004,-0.8699999999999999,0.29800000000000004,0.625,-0.05,0.009499999999999993,0.0,0.0,0.0,0.0,0.0
1757931015.0437376,-4.709166592933403,0.0,0.0,0.0,0.0,0.0,-6.289999999999999,1.5899999999999999,-1.01,0.328,0.6020000000000001,-0.079,0.015808334070665966,0.0,0.0,0.0,0.0,0.0
1757931015.1037848,-4.0,0.0,0.0,0.0,0.0,0.0,-4.969999999999999,0.08999999999999986,-1.19,0.28800000000000003,0.6080000000000001,-0.069,0.009699999999999988,0.0,0.0,0.0,0.0,0.0
1757931015.1638625,-5.791480812365693,0.0,0.0,0.0,0.0,0.0,-5.93,-0.34999999999999964,-2.29,0.309,0.6100000000000001,-0.064,0.0013851918763430682,0.0,0.0,0.0,0.0,0.0
1757931015.2235863,-4.000781173720951,0.0,0.0,0.0,0.0,0.0,-5.849999999999998,0.3100000000000005,-1.5699999999999998,0.321,0.627,-0.062,0.018492188262790466,0.0,0.0,0.0,0.0,0.0
1757931015.2736652,-4.0,0.0,0.0,0.0,0.0,0.0,-5.789999999999999,0.9100000000000001,-0.9299999999999999,0.317,0.618,-0.066,0.017899999999999992,0.0,0.0,0.0,0.0,0.0
1757931015.3335655,-4.0,0.0,0.0,0.0,0.0,0.0,-4.869999999999997,-0.6500000000000004,-0.57,0.301,0.65,-0.063,0.008699999999999975,0.0,0.0,0.0,0.0,0.0
1757931015.3935385,-4.275657844121768,0.0,0.0,0.0,0.0,0.0,-5.489999999999998,1.0500000000000007,-1.3499999999999999,0.314,0.668,-0.067,0.012143421558782307,0.0,0.0,0.0,0.0,0.0
1757931015.4436624,-4.0,0.0,0.0,0.0,0.0,0.0,-5.629999999999999,0.13000000000000078,-1.3499999999999999,0.304,0.619,-0.066,0.01629999999999999,0.0,0.0,0.0,0.0,0.0
1757931015.503747,-5.388529484005817,0.0,0.0,0.0,0.0,0.0,-5.050000000000001,0.33000000000000007,-2.13,0.303,0.623,-0.075,-0.003385294840058162,0.0,0.0,0.0,0.0,0.0
1757931015.5636127,-4.7440752523542455,0.0,0.0,0.0,0.0,0.0,-5.969999999999999,-0.16999999999999993,-1.89,0.29100000000000004,0.62,-0.061,0.012259247476457534,0.0,0.0,0.0,0.0,0.0
1757931015.6140723,-5.446214281498662,0.0,0.0,0.0,0.0,0.0,-4.75,1.2699999999999996,-1.77,0.279,0.66,-0.076,-0.006962142814986621,0.0,0.0,0.0,0.0,0.0
1757931015.6736953,-4.0,0.0,0.0,0.0,0.0,0.0,-3.4899999999999984,0.33000000000000007,-0.8899999999999999,0.277,0.683,-0.064,-0.005100000000000016,0.0,0.0,0.0,0.0,0.0
1757931015.7335858,-4.795961843050882,0.0,0.0,0.0,0.0,0.0,-4.609999999999999,0.6900000000000013,-1.79,0.29800000000000004,0.664,-0.075,-0.0018596184305088225,0.0,0.0,0.0,0.0,0.0
1757931015.7935534,-5.183266344690383,0.0,0.0,0.0,0.0,0.0,-6.77,0.3100000000000005,-2.05,0.29300000000000004,0.603,-0.069,0.01586733655309617,0.0,0.0,0.0,0.0,0.0
1757931015.843859,-4.0,0.0,0.0,0.0,0.0,0.0,-5.91,0.7300000000000004,-0.83,0.309,0.599,-0.077,0.019100000000000002,0.0,0.0,0.0,0.0,0.0
1757931015.9041548,-4.255143945861293,0.0,0.0,0.0,0.0,0.0,-3.7099999999999973,1.370000000000001,-1.01,0.281,0.623,-0.074,-0.005451439458612955,0.0,0.0,0.0,0.0,0.0
1757931015.9635732,-5.607249771501177,0.0,0.0,0.0,0.0,0.0,-3.9899999999999984,-0.9100000000000001,-2.05,0.279,0.647,-0.07200000000000001,-0.016172497715011787,0.0,0.0,0.0,0.0,0.0
1757931016.0139854,-7.24370416292659,0.0,0.0,0.0,0.0,0.0,-3.7300000000000004,-0.8499999999999996,-2.77,0.28900000000000003,0.635,-0.052,-0.03513704162926589,0.0,0.0,0.0,0.0,0.0
1757931016.0736425,-4.0,0.0,0.0,0.0,0.0,0.0,-6.609999999999999,1.370000000000001,-0.4099999999999999,0.316,0.6060000000000001,-0.089,0.026099999999999995,0.0,0.0,0.0,0.0,0.0
1757931016.1335776,-4.0,0.0,0.0,0.0,0.0,0.0,-6.169999999999998,0.07000000000000028,-0.77,0.305,0.613,-0.094,0.021699999999999983,0.0,0.0,0.0,0.0,0.0
1757931016.183905,-5.445755227697989,0.0,0.0,0.0,0.0,0.0,-7.109999999999999,-0.7899999999999991,-2.03,0.303,0.607,-0.08,0.01664244772302011,0.0,0.0,0.0,0.0,0.0
1757931016.2438002,-4.0,0.0,0.0,0.0,0.0,0.0,-4.149999999999999,0.870000000000001,-0.050000000000000044,0.28200000000000003,0.627,-0.07,0.0014999999999999857,0.0,0.0,0.0,0.0,0.0
1757931016.3037186,-5.6926487683678495,0.0,0.0,0.0,0.0,0.0,-6.289999999999999,0.75,-2.15,0.29600000000000004,0.621,-0.079,0.005973512316321497,0.0,0.0,0.0,0.0,0.0
1757931016.3635807,-4.0,0.0,0.0,0.0,0.0,0.0,-3.91,1.1100000000000012,-0.99,0.28600000000000003,0.65,-0.076,-0.0008999999999999986,0.0,0.0,0.0,0.0,0.0
1757931016.4235387,-4.788136380680901,0.0,0.0,0.0,0.0,0.0,-5.009999999999998,-0.3099999999999987,-1.89,0.29300000000000004,0.648,-0.048,0.0022186361931909727,0.0,0.0,0.0,0.0,0.0
1757931016.473742,-6.645769330935282,0.0,0.0,0.0,0.0,0.0,-4.329999999999998,-0.20999999999999908,-2.65,0.259,0.655,-0.07200000000000001,-0.023157693309352842,0.0,0.0,0.0,0.0,0.0
1757931016.5335705,-4.0,0.0,0.0,0.0,0.0,0.0,-5.77,0.8100000000000005,-0.61,0.304,0.622,-0.067,0.017699999999999997,0.0,0.0,0.0,0.0,0.0
1757931016.593596,-5.126524163602469,0.0,0.0,0.0,0.0,0.0,-4.109999999999999,0.05000000000000071,-2.05,0.306,0.629,-0.05,-0.010165241636024698,0.0,0.0,0.0,0.0,0.0
1757931016.6455235,-6.015916389046643,0.0,0.0,0.0,0.0,0.0,-4.23,1.4100000000000001,-1.95,0.29800000000000004,0.679,-0.08,-0.017859163890466424,0.0,0.0,0.0,0.0,0.0
1757931016.7035735,-4.0,0.0,0.0,0.0,0.0,0.0,-5.529999999999998,0.19000000000000128,-1.33,0.28300000000000003,0.635,-0.067,0.015299999999999977,0.0,0.0,0.0,0.0,0.0
1757931016.7535877,-4.0,0.0,0.0,0.0,0.0,0.0,-4.529999999999998,0.25,-1.15,0.28600000000000003,0.657,-0.066,0.005299999999999976,0.0,0.0,0.0,0.0,0.0
1757931016.8144472,-4.015127644297253,0.0,0.0,0.0,0.0,0.0,-4.75,0.870000000000001,-1.3499999999999999,0.309,0.613,-0.061,0.0073487235570274655,0.0,0.0,0.0,0.0,0.0
1757931016.8735888,-4.0,0.0,0.0,0.0,0.0,0.0,-6.009999999999998,1.2699999999999996,-0.5099999999999999,0.29200000000000004,0.595,-0.094,0.02009999999999998,0.0,0.0,0.0,0.0,0.0
1757931016.9335392,-4.0,0.0,0.0,0.0,0.0,0.0,-3.849999999999998,1.0099999999999998,-0.2699999999999999,0.26,0.67,-0.061,-0.0015000000000000213,0.0,0.0,0.0,0.0,0.0
1757931016.9835782,-4.278580372039305,0.0,0.0,0.0,0.0,0.0,-2.8299999999999983,-0.07000000000000028,-1.71,0.28200000000000003,0.71,-0.065,-0.014485803720393067,0.0,0.0,0.0,0.0,0.0
1757931017.0336053,-4.675066844441906,0.0,0.0,0.0,0.0,0.0,-3.8900000000000006,0.47000000000000064,-1.81,0.278,0.649,-0.081,-0.007850668444419054,0.0,0.0,0.0,0.0,0.0
1757931017.0849118,-4.0,0.0,0.0,0.0,0.0,0.0,-2.3900000000000006,0.2900000000000009,-1.31,0.26,0.643,-0.069,-0.016099999999999996,0.0,0.0,0.0,0.0,0.0
1757931017.1451666,-4.0,0.0,0.0,0.0,0.0,0.0,-5.369999999999997,-0.20999999999999908,-1.51,0.269,0.619,-0.058,0.013699999999999974,0.0,0.0,0.0,0.0,0.0
1757931017.203591,-5.185195271154211,0.0,0.0,0.0,0.0,0.0,-5.529999999999998,1.67,-1.23,0.28600000000000003,0.637,-0.091,0.0034480472884578627,0.0,0.0,0.0,0.0,0.0
1757931017.2536993,-4.158876050088532,0.0,0.0,0.0,0.0,0.0,-5.57,0.8499999999999996,-1.43,0.277,0.624,-0.075,0.014111239499114685,0.0,0.0,0.0,0.0,0.0
1757931017.3145237,-4.0,0.0,0.0,0.0,0.0,0.0,-2.1099999999999994,-0.10999999999999943,-1.5899999999999999,0.246,0.6779999999999999,-0.067,-0.018900000000000007,0.0,0.0,0.0,0.0,0.0
1757931017.3739002,-4.532245580283574,0.0,0.0,0.0,0.0,0.0,-3.1899999999999977,1.3499999999999996,-1.21,0.241,0.66,-0.075,-0.01342245580283576,0.0,0.0,0.0,0.0,0.0
1757931017.4336064,-5.769857017292544,0.0,0.0,0.0,0.0,0.0,-6.609999999999999,1.7100000000000009,-1.5499999999999998,0.306,0.627,-0.094,0.008401429827074551,0.0,0.0,0.0,0.0,0.0
1757931017.4935472,-5.119692373570898,0.0,0.0,0.0,0.0,0.0,-5.489999999999998,1.0300000000000011,-1.77,0.29100000000000004,0.628,-0.079,0.003703076264291001,0.0,0.0,0.0,0.0,0.0
1757931017.5438526,-4.0,0.0,0.0,0.0,0.0,0.0,-5.109999999999999,0.45000000000000107,-1.19,0.278,0.6000000000000001,-0.063,0.011099999999999995,0.0,0.0,0.0,0.0,0.0
1757931017.6035647,-4.791789853488987,0.0,0.0,0.0,0.0,0.0,-2.509999999999998,0.5700000000000003,-1.83,0.252,0.659,-0.096,-0.022817898534889886,0.0,0.0,0.0,0.0,0.0
1757931017.6545408,-4.422810192626403,0.0,0.0,0.0,0.0,0.0,-2.6899999999999977,0.370000000000001,-1.73,0.274,0.673,-0.07,-0.017328101926264054,0.0,0.0,0.0,0.0,0.0
1757931017.7137487,-4.071394110129845,0.0,0.0,0.0,0.0,0.0,-4.149999999999999,1.0899999999999999,-1.21,0.28600000000000003,0.6890000000000001,-0.068,0.0007860588987015316,0.0,0.0,0.0,0.0,0.0
1757931017.773887,-4.8348991716477405,0.0,0.0,0.0,0.0,0.0,-5.529999999999998,1.8900000000000006,-0.4099999999999999,0.309,0.5940000000000001,-0.056,0.006951008283522571,0.0,0.0,0.0,0.0,0.0
1757931017.8336174,-4.925063451367913,0.0,0.0,0.0,0.0,0.0,-7.27,1.9700000000000006,0.010000000000000009,0.318,0.585,-0.066,0.023449365486320872,0.0,0.0,0.0,0.0,0.0
1757931017.8839974,-4.569600639005557,0.0,0.0,0.0,0.0,0.0,-6.789999999999999,0.5899999999999999,-1.73,0.312,0.5820000000000001,-0.084,0.02220399360994442,0.0,0.0,0.0,0.0,0.0
1757931017.9436648,-4.070165844286937,0.0,0.0,0.0,0.0,0.0,-5.43,1.3499999999999996,-0.9099999999999999,0.29200000000000004,0.633,-0.075,0.013598341557130631,0.0,0.0,0.0,0.0,0.0
1757931018.0035818,-4.98309642692172,0.0,0.0,0.0,0.0,0.0,-5.509999999999998,1.7300000000000004,-0.99,0.28300000000000003,0.6080000000000001,-0.088,0.005269035730782781,0.0,0.0,0.0,0.0,0.0
1757931018.063519,-4.0,0.0,0.0,0.0,0.0,0.0,-4.25,0.6900000000000013,0.3700000000000001,0.276,0.65,-0.064,0.0025,0.0,0.0,0.0,0.0,0.0
1757931018.113614,-4.0,0.0,0.0,0.0,0.0,0.0,-5.669999999999998,0.9500000000000011,-1.21,0.28800000000000003,0.6040000000000001,-0.074,0.016699999999999982,0.0,0.0,0.0,0.0,0.0
1757931018.1645534,-4.0,0.0,0.0,0.0,0.0,0.0,-6.149999999999999,1.1500000000000004,-0.71,0.277,0.585,-0.064,0.021499999999999988,0.0,0.0,0.0,0.0,0.0
1757931018.2235942,-4.0,0.0,0.0,0.0,0.0,0.0,-5.57,0.2900000000000009,-0.18999999999999995,0.28700000000000003,0.599,-0.062,0.015700000000000002,0.0,0.0,0.0,0.0,0.0
1757931018.273623,-4.0,0.0,0.0,0.0,0.0,0.0,-3.4499999999999993,0.9299999999999997,-0.6699999999999999,0.257,0.65,-0.075,-0.0055000000000000075,0.0,0.0,0.0,0.0,0.0
1757931018.3336208,-4.0,0.0,0.0,0.0,0.0,0.0,-5.41,0.39000000000000057,-0.73,0.275,0.613,-0.063,0.014100000000000001,0.0,0.0,0.0,0.0,0.0
1757931018.383662,-4.0,0.0,0.0,0.0,0.0,0.0,-5.23,0.47000000000000064,-0.35,0.269,0.6020000000000001,-0.054,0.012300000000000005,0.0,0.0,0.0,0.0,0.0
1757931018.4343228,-4.0,0.0,0.0,0.0,0.0,0.0,-5.93,0.9100000000000001,-0.9299999999999999,0.29400000000000004,0.595,-0.065,0.019299999999999998,0.0,0.0,0.0,0.0,0.0
1757931018.4935591,-4.0,0.0,0.0,0.0,0.0,0.0,-6.129999999999999,1.2100000000000009,0.31000000000000005,0.308,0.556,-0.069,0.02129999999999999,0.0,0.0,0.0,0.0,0.0
1757931018.5437756,-4.959964717616447,0.0,0.0,0.0,0.0,0.0,-4.629999999999999,1.3100000000000005,-1.49,0.28300000000000003,0.617,-0.086,-0.003299647176164484,0.0,0.0,0.0,0.0,0.0
1757931018.5938637,-4.285002917151868,0.0,0.0,0.0,0.0,0.0,-3.7099999999999973,1.370000000000001,-1.03,0.3,0.674,-0.081,-0.005750029171518705,0.0,0.0,0.0,0.0,0.0
1757931018.653656,-4.0,0.0,0.0,0.0,0.0,0.0,-6.41,-0.3899999999999988,-0.6499999999999999,0.261,0.5860000000000001,-0.081,0.024100000000000003,0.0,0.0,0.0,0.0,0.0
1757931018.7036989,-4.0,0.0,0.0,0.0,0.0,0.0,-6.969999999999999,0.21000000000000085,-0.16999999999999993,0.309,0.5740000000000001,-0.049,0.02969999999999999,0.0,0.0,0.0,0.0,0.0
1757931018.7635458,-4.0,0.0,0.0,0.0,0.0,0.0,-8.07,0.870000000000001,-0.6699999999999999,0.302,0.5630000000000001,-0.074,0.04070000000000001,0.0,0.0,0.0,0.0,0.0
1757931179.2298698,-4.0,0.0,0.0,0.0,0.0,0.0,0.0,0.0,0.0,0.0,0.0,0.0,-0.04,0.0,0.0,0.0,0.0,0.0
1757931179.28981,-4.0,0.0,0.0,0.0,0.0,0.0,-6.369999999999997,0.8900000000000006,-0.42999999999999994,0.172,0.948,-0.031,0.023699999999999975,0.0,0.0,0.0,0.0,0.0
1757931179.339833,-4.0,0.0,0.0,0.0,0.0,0.0,-6.489999999999998,1.0899999999999999,0.55,0.172,0.9159999999999999,0.006000000000000005,0.024899999999999985,0.0,0.0,0.0,0.0,0.0
1757931179.399953,-4.0,0.0,0.0,0.0,0.0,0.0,-6.009999999999998,1.17,-0.2899999999999999,0.165,0.964,-0.017,0.02009999999999998,0.0,0.0,0.0,0.0,0.0
1757931179.4599888,-4.0,0.0,0.0,0.0,0.0,0.0,-6.009999999999998,0.2900000000000009,0.22999999999999998,0.15000000000000002,0.9279999999999999,-0.0040000000000000036,0.02009999999999998,0.0,0.0,0.0,0.0,0.0
1757931179.5203824,-4.304793839430642,0.0,0.0,0.0,0.0,0.0,-5.169999999999998,0.7900000000000009,-1.53,0.161,1.0070000000000001,-0.025999999999999995,0.008652061605693557,0.0,0.0,0.0,0.0,0.0
1757931179.5797832,-4.0,0.0,0.0,0.0,0.0,0.0,-5.91,0.7699999999999996,-0.47,0.14800000000000002,0.948,-0.034,0.019100000000000002,0.0,0.0,0.0,0.0,0.0
1757931179.629949,-4.0,0.0,0.0,0.0,0.0,0.0,-5.029999999999998,1.1500000000000004,0.13000000000000012,0.164,0.925,-0.016,0.010299999999999976,0.0,0.0,0.0,0.0,0.0
1757931179.689786,-4.0,0.0,0.0,0.0,0.0,0.0,-0.129999999999999,0.45000000000000107,-0.47,0.19,0.8320000000000001,-0.026999999999999996,-0.03870000000000001,0.0,0.0,0.0,0.0,0.0
1757931179.739888,-4.0,0.0,0.0,0.0,0.0,0.0,-3.25,-0.129999999999999,-0.4099999999999999,0.207,0.8700000000000001,-0.051000000000000004,-0.0075,0.0,0.0,0.0,0.0,0.0
1757931179.7998543,-4.0,0.0,0.0,0.0,0.0,0.0,-9.149999999999999,0.23000000000000043,0.6100000000000001,0.03,0.956,-0.054,0.05149999999999999,0.0,0.0,0.0,0.0,0.0
1757931179.859868,-4.0,0.0,0.0,0.0,0.0,0.0,-5.789999999999999,0.34999999999999964,-0.9099999999999999,0.14200000000000002,0.9750000000000001,-0.019000000000000003,0.017899999999999992,0.0,0.0,0.0,0.0,0.0
1757931179.9199097,-4.0,0.0,0.0,0.0,0.0,0.0,0.08999999999999986,0.3100000000000005,0.18999999999999995,0.202,0.79,-0.041,-0.0409,0.0,0.0,0.0,0.0,0.0
1757931179.9798667,-4.0,0.0,0.0,0.0,0.0,0.0,-1.629999999999999,0.7100000000000009,-0.44999999999999996,0.214,0.8360000000000001,-0.042,-0.02370000000000001,0.0,0.0,0.0,0.0,0.0
1757931180.039888,-5.172161057043758,0.0,0.0,0.0,0.0,0.0,-8.329999999999998,0.4900000000000002,2.0100000000000002,0.07200000000000001,0.9490000000000001,-0.062,0.031578389429562405,0.0,0.0,0.0,0.0,0.0
1757931180.0900657,-4.8457455566713366,0.0,0.0,0.0,0.0,0.0,-9.169999999999998,0.4299999999999997,-1.89,0.089,0.9730000000000001,0.0020000000000000018,0.043242544433286616,0.0,0.0,0.0,0.0,0.0
1757931180.1499925,-4.0,0.0,0.0,0.0,0.0,0.0,-2.3299999999999983,0.33000000000000007,-0.61,0.20400000000000001,0.8580000000000001,-0.038,-0.016700000000000017,0.0,0.0,0.0,0.0,0.0
1757931180.20979,-4.0,0.0,0.0,0.0,0.0,0.0,-1.25,-0.20999999999999908,-0.59,0.226,0.8220000000000001,-0.039,-0.0275,0.0,0.0,0.0,0.0,0.0
1757931180.2609775,-4.0,0.0,0.0,0.0,0.0,0.0,-3.0700000000000003,0.4299999999999997,1.5100000000000002,0.189,0.8880000000000001,-0.022000000000000006,-0.009299999999999998,0.0,0.0,0.0,0.0,0.0
1757931180.319901,-4.0,0.0,0.0,0.0,0.0,0.0,-7.57,1.0500000000000007,0.55,0.14300000000000002,0.933,-0.024999999999999994,0.0357,0.0,0.0,0.0,0.0,0.0
1757931180.3798287,-5.337251165159833,0.0,0.0,0.0,0.0,0.0,-6.390000000000001,1.33,-1.67,0.192,0.9530000000000001,-0.038,0.010527488348401679,0.0,0.0,0.0,0.0,0.0
1757931180.429892,-4.0,0.0,0.0,0.0,0.0,0.0,-3.75,0.21000000000000085,-0.59,0.207,0.9359999999999999,-0.046,-0.0025,0.0,0.0,0.0,0.0,0.0
1757931180.4898858,-4.0,0.0,0.0,0.0,0.0,0.0,-1.8499999999999979,1.0899999999999999,-1.0699999999999998,0.209,0.897,-0.031,-0.021500000000000023,0.0,0.0,0.0,0.0,0.0
1757931180.5497973,-4.0,0.0,0.0,0.0,0.0,0.0,-2.509999999999998,-0.15000000000000036,-1.3499999999999999,0.206,0.925,-0.063,-0.01490000000000002,0.0,0.0,0.0,0.0,0.0
1757931180.5998032,-4.0,0.0,0.0,0.0,0.0,0.0,-3.969999999999999,0.8300000000000001,-0.73,0.195,0.9410000000000001,-0.0050000000000000044,-0.00030000000000001136,0.0,0.0,0.0,0.0,0.0
1757931180.6498563,-4.0,0.0,0.0,0.0,0.0,0.0,-6.969999999999999,1.2100000000000009,-0.61,0.246,0.9450000000000001,0.0030000000000000027,0.02969999999999999,0.0,0.0,0.0,0.0,0.0
1757931180.7099845,-7.333570071936317,0.0,0.0,0.0,0.0,0.0,-5.07,2.6900000000000013,1.17,0.195,0.9450000000000001,-0.010999999999999996,-0.02263570071936317,0.0,0.0,0.0,0.0,0.0
1757931180.7698154,-4.0,0.0,0.0,0.0,0.0,0.0,-2.1099999999999994,0.23000000000000043,-0.2699999999999999,0.186,0.8680000000000001,-0.023999999999999994,-0.018900000000000007,0.0,0.0,0.0,0.0,0.0
1757931180.819931,-4.0,0.0,0.0,0.0,0.0,0.0,-2.7300000000000004,1.0300000000000011,-0.1499999999999999,0.211,0.9079999999999999,-0.023000000000000007,-0.012699999999999996,0.0,0.0,0.0,0.0,0.0
1757931180.8798282,-4.696408202019924,0.0,0.0,0.0,0.0,0.0,-5.23,1.5300000000000011,1.0899999999999999,0.217,0.8940000000000001,0.008999999999999994,0.005335917979800762,0.0,0.0,0.0,0.0,0.0
1757931180.9298723,-4.0,0.0,0.0,0.0,0.0,0.0,-9.209999999999997,1.3900000000000006,0.5900000000000001,0.253,0.8660000000000001,-0.018000000000000002,0.05209999999999997,0.0,0.0,0.0,0.0,0.0
1757931180.989886,-4.0,0.0,0.0,0.0,0.0,0.0,-2.25,0.8100000000000005,0.13000000000000012,0.226,0.9019999999999999,-0.019000000000000003,-0.0175,0.0,0.0,0.0,0.0,0.0
1757931181.0497887,-4.0,0.0,0.0,0.0,0.0,0.0,-0.029999999999997584,0.05000000000000071,-0.73,0.234,0.78,-0.034,-0.03970000000000003,0.0,0.0,0.0,0.0,0.0
1757931181.0999916,-4.0,0.0,0.0,0.0,0.0,0.0,0.4700000000000024,1.0300000000000011,-0.99,0.259,0.8300000000000001,-0.021000000000000005,-0.044700000000000024,0.0,0.0,0.0,0.0,0.0
1757931181.1599975,-7.387235612866291,0.0,0.0,0.0,0.0,0.0,-6.029999999999998,0.16999999999999993,-2.95,0.249,1.024,-0.049,-0.01357235612866293,0.0,0.0,0.0,0.0,0.0
1757931181.2200563,-9.000347215524519,0.0,0.0,0.0,0.0,0.0,-10.869999999999997,-1.629999999999999,-3.21,0.156,1.0170000000000001,-0.073,0.018696527844754788,0.0,0.0,0.0,0.0,0.0
1757931181.2798085,-4.265706272119541,0.0,0.0,0.0,0.0,0.0,-7.91,0.34999999999999964,-1.67,0.14800000000000002,1.041,-0.023000000000000007,0.03644293727880459,0.0,0.0,0.0,0.0,0.0
1757931181.3298972,-5.63438106627516,0.0,0.0,0.0,0.0,0.0,-5.309999999999999,1.1300000000000008,-1.95,0.18,1.029,0.010999999999999996,-0.0032438106627516116,0.0,0.0,0.0,0.0,0.0
1757931181.3801854,-4.105027405511441,0.0,0.0,0.0,0.0,0.0,-0.46999999999999886,0.41000000000000014,-1.5899999999999999,0.25,0.835,-0.028999999999999998,-0.03635027405511442,0.0,0.0,0.0,0.0,0.0
1757931181.4397998,-5.207806640035707,0.0,0.0,0.0,0.0,0.0,-4.869999999999997,0.370000000000001,-2.05,0.228,0.915,-0.035,-0.0033780664003570937,0.0,0.0,0.0,0.0,0.0
1757931181.4898665,-6.895741439468274,0.0,0.0,0.0,0.0,0.0,-5.329999999999998,-0.6099999999999994,-2.69,0.184,1.008,-0.034,-0.01565741439468276,0.0,0.0,0.0,0.0,0.0
1757931181.5400136,-12.430657665626542,0.0,0.0,0.0,0.0,0.0,-7.59,-0.46999999999999886,-4.949999999999999,0.242,0.7110000000000001,-0.07100000000000001,-0.048406576656265424,0.0,0.0,0.0,0.0,0.0
1757931181.5998223,-5.17119425278146,0.0,0.0,0.0,0.0,0.0,-6.91,0.6900000000000013,-1.95,0.201,1.03,-0.025999999999999995,0.017388057472185407,0.0,0.0,0.0,0.0,0.0
1757931181.659798,-6.525431020246861,0.0,0.0,0.0,0.0,0.0,-11.23,0.030000000000001137,-2.61,0.232,1.0050000000000001,-0.068,0.04704568979753139,0.0,0.0,0.0,0.0,0.0
1757931181.7198575,-7.319238348352921,0.0,0.0,0.0,0.0,0.0,-6.77,-0.6699999999999999,-2.8499999999999996,0.184,0.994,-0.051000000000000004,-0.005492383483529215,0.0,0.0,0.0,0.0,0.0
1757931181.7799535,-4.142010381445222,0.0,0.0,0.0,0.0,0.0,-3.3900000000000006,-0.15000000000000036,-1.65,0.224,0.9239999999999999,-0.049,-0.007520103814452215,0.0,0.0,0.0,0.0,0.0
1757931181.8398356,-5.415371640063129,0.0,0.0,0.0,0.0,0.0,-6.689999999999998,1.1900000000000013,-1.81,0.259,0.5700000000000001,-0.096,0.012746283599368687,0.0,0.0,0.0,0.0,0.0
1757931181.8902035,-9.932081856287732,0.0,0.0,0.0,0.0,0.0,-6.93,-0.15000000000000036,-3.9699999999999998,0.203,0.636,-0.073,-0.03002081856287733,0.0,0.0,0.0,0.0,0.0
1757931181.950308,-10.810469462516417,0.0,0.0,0.0,0.0,0.0,-12.629999999999999,0.34999999999999964,-4.3100000000000005,0.353,0.6120000000000001,-0.081,0.018195305374835817,0.0,0.0,0.0,0.0,0.0
1757931182.0098028,-8.648482525853884,0.0,0.0,0.0,0.0,0.0,-11.89,-0.4499999999999993,-3.43,0.302,0.8400000000000001,-0.04,0.03241517474146116,0.0,0.0,0.0,0.0,0.0
1757931182.059865,-7.290490381311807,0.0,0.0,0.0,0.0,0.0,-9.27,-0.3899999999999988,-2.8899999999999997,0.238,0.946,-0.047,0.019795096186881925,0.0,0.0,0.0,0.0,0.0
1757931182.1201487,-4.880189545499231,0.0,0.0,0.0,0.0,0.0,-5.969999999999999,-0.08999999999999986,-1.95,0.182,0.962,-0.032,0.010898104545007677,0.0,0.0,0.0,0.0,0.0
1757931182.179841,-4.77558896891263,0.0,0.0,0.0,0.0,0.0,-3.7099999999999973,0.39000000000000057,-1.87,0.189,0.9259999999999999,-0.035,-0.010655889689126327,0.0,0.0,0.0,0.0,0.0
1757931182.2298543,-9.68484641075944,0.0,0.0,0.0,0.0,0.0,-6.489999999999998,-0.4299999999999997,-3.85,0.279,0.784,-0.068,-0.03194846410759441,0.0,0.0,0.0,0.0,0.0
1757931182.2800725,-8.43749074073566,0.0,0.0,0.0,0.0,0.0,-8.309999999999999,-0.41000000000000014,-3.35,0.334,0.621,-0.082,-0.0012749074073566114,0.0,0.0,0.0,0.0,0.0
1757931182.3398325,-12.505648723676831,0.0,0.0,0.0,0.0,0.0,-7.169999999999998,0.34999999999999964,-4.99,0.251,0.815,-0.08,-0.053356487236768335,0.0,0.0,0.0,0.0,0.0
1757931182.3898797,-4.6900159914439525,0.0,0.0,0.0,0.0,0.0,-6.57,0.15000000000000036,-1.87,0.20400000000000001,0.833,-0.03,0.018799840085560477,0.0,0.0,0.0,0.0,0.0
1757931182.4498298,-5.1774752534415835,0.0,0.0,0.0,0.0,0.0,-4.649999999999999,0.41000000000000014,-2.03,0.174,0.8940000000000001,-0.019000000000000003,-0.00527475253441585,0.0,0.0,0.0,0.0,0.0
1757931182.500233,-4.084268600373878,0.0,0.0,0.0,0.0,0.0,-4.75,0.11000000000000121,-1.63,0.14700000000000002,0.929,-0.034,0.0066573139962612165,0.0,0.0,0.0,0.0,0.0
1757931182.5598216,-4.88223821622829,0.0,0.0,0.0,0.0,0.0,-5.809999999999999,-1.33,-1.43,0.052000000000000005,0.9279999999999999,-0.074,0.009277617837717092,0.0,0.0,0.0,0.0,0.0
1757931182.6198993,-13.429864109513542,0.0,0.0,0.0,0.0,0.0,-7.029999999999998,0.6699999999999999,-5.33,0.20400000000000001,0.631,-0.113,-0.06399864109513544,0.0,0.0,0.0,0.0,0.0
1757931182.6797862,-15.641331465063965,0.0,0.0,0.0,0.0,0.0,-5.149999999999999,2.110000000000001,-5.890000000000001,0.19,0.741,-0.03,-0.10491331465063967,0.0,0.0,0.0,0.0,0.0
1757931182.7303898,-11.94178587984226,0.0,0.0,0.0,0.0,0.0,-9.29,1.3900000000000006,-4.57,0.08,0.776,0.012999999999999998,-0.026517858798422615,0.0,0.0,0.0,0.0,0.0
1757931182.7901926,-11.179501330560319,0.0,0.0,0.0,0.0,0.0,-7.43,-0.6099999999999994,-4.43,-0.044,0.875,-0.047,-0.03749501330560319,0.0,0.0,0.0,0.0,0.0
1757931182.8498845,-4.0,0.0,0.0,0.0,0.0,0.0,-10.309999999999999,0.45000000000000107,-1.41,0.006999999999999999,0.784,-0.09,0.06309999999999999,0.0,0.0,0.0,0.0,0.0
1757931182.9097822,-8.278058347221286,0.0,0.0,0.0,0.0,0.0,-11.169999999999998,0.08999999999999986,-3.31,-0.033,0.808,-0.010999999999999996,0.028919416527787123,0.0,0.0,0.0,0.0,0.0
1757931182.9598732,-10.859615554889592,0.0,0.0,0.0,0.0,0.0,-13.190000000000001,1.0700000000000003,-4.21,-0.057999999999999996,0.799,-0.055,0.023303844451104096,0.0,0.0,0.0,0.0,0.0
1757931183.0198476,-12.287442777079368,0.0,0.0,0.0,0.0,0.0,-10.93,1.4700000000000006,-4.6899999999999995,-0.03899999999999999,0.875,-0.024999999999999994,-0.013574427770793688,0.0,0.0,0.0,0.0,0.0
1757931183.0699818,-6.58074843767789,0.0,0.0,0.0,0.0,0.0,-8.849999999999998,1.4299999999999997,-2.21,-0.07,0.8500000000000001,-0.010999999999999996,0.02269251562322108,0.0,0.0,0.0,0.0,0.0
1757931183.120088,-6.263485451408027,0.0,0.0,0.0,0.0,0.0,-6.469999999999999,2.3100000000000005,-0.97,0.059000000000000004,0.8600000000000001,-0.023000000000000007,0.0020651454859197216,0.0,0.0,0.0,0.0,0.0
1757931183.1799393,-6.227459353540577,0.0,0.0,0.0,0.0,0.0,-5.890000000000001,1.6900000000000013,-1.83,0.03,0.8740000000000001,-0.035,-0.0033745935354057635,0.0,0.0,0.0,0.0,0.0
1757931183.2398536,-4.0,0.0,0.0,0.0,0.0,0.0,-8.189999999999998,0.47000000000000064,-1.33,-0.027999999999999997,0.859,-0.024999999999999994,0.04189999999999998,0.0,0.0,0.0,0.0,0.0
1757931183.2901278,-5.43794538405821,0.0,0.0,0.0,0.0,0.0,-8.07,0.33000000000000007,-2.15,-0.023999999999999994,0.8400000000000001,-0.006000000000000005,0.026320546159417903,0.0,0.0,0.0,0.0,0.0
1757931183.3498032,-8.301280021779773,0.0,0.0,0.0,0.0,0.0,-6.91,1.67,-2.87,-0.013999999999999999,0.881,-0.044,-0.013912800217797727,0.0,0.0,0.0,0.0,0.0
1757931183.4098122,-9.672447983835323,0.0,0.0,0.0,0.0,0.0,-7.09,1.790000000000001,-3.43,0.006000000000000005,0.8720000000000001,-0.025999999999999995,-0.025824479838353228,0.0,0.0,0.0,0.0,0.0
1757931183.4598327,-10.566752102704028,0.0,0.0,0.0,0.0,0.0,-8.27,0.6900000000000013,-4.17,-0.041999999999999996,0.9279999999999999,-0.05,-0.02296752102704028,0.0,0.0,0.0,0.0,0.0
1757931183.5098329,-4.930136914934515,0.0,0.0,0.0,0.0,0.0,-7.469999999999999,1.1100000000000012,-1.63,0.0050000000000000044,0.8760000000000001,-0.047,0.02539863085065484,0.0,0.0,0.0,0.0,0.0
1757931183.569788,-7.6508986400291565,0.0,0.0,0.0,0.0,0.0,-8.55,0.4299999999999997,-3.0300000000000002,-0.0010000000000000009,0.8959999999999999,0.008999999999999994,0.008991013599708442,0.0,0.0,0.0,0.0,0.0
1757931183.620051,-4.625067567074019,0.0,0.0,0.0,0.0,0.0,-8.59,1.8499999999999996,-0.010000000000000009,0.038000000000000006,0.8680000000000001,-0.032,0.03964932432925981,0.0,0.0,0.0,0.0,0.0
1757931183.679754,-7.9599780150450155,0.0,0.0,0.0,0.0,0.0,-6.949999999999999,2.17,-2.33,0.041,0.901,-0.009999999999999995,-0.010099780150450162,0.0,0.0,0.0,0.0,0.0
1757931183.730689,-4.0,0.0,0.0,0.0,0.0,0.0,-6.25,0.5099999999999998,0.25,0.044,0.841,-0.015,0.0225,0.0,0.0,0.0,0.0,0.0
1757931183.7898233,-6.906971116198475,0.0,0.0,0.0,0.0,0.0,-6.349999999999998,1.1100000000000012,-2.5300000000000002,0.037000000000000005,0.9019999999999999,-0.018000000000000002,-0.005569711161984774,0.0,0.0,0.0,0.0,0.0
1757931183.849803,-9.041086770958456,0.0,0.0,0.0,0.0,0.0,-4.289999999999999,0.6900000000000013,-3.55,0.077,0.8560000000000001,-0.051000000000000004,-0.04751086770958457,0.0,0.0,0.0,0.0,0.0
1757931183.9097779,-7.571740222696498,0.0,0.0,0.0,0.0,0.0,-5.550000000000001,1.1300000000000008,-2.81,0.091,0.903,-0.024999999999999994,-0.02021740222696497,0.0,0.0,0.0,0.0,0.0
1757931183.9598641,-8.707826939024455,0.0,0.0,0.0,0.0,0.0,-5.869999999999997,0.7100000000000009,-3.41,0.056,0.9179999999999999,-0.037,-0.02837826939024458,0.0,0.0,0.0,0.0,0.0
1757931184.019794,-4.034383472105743,0.0,0.0,0.0,0.0,0.0,-6.349999999999998,-1.0899999999999999,-1.19,-0.0050000000000000044,0.863,-0.043000000000000003,0.02315616527894255,0.0,0.0,0.0,0.0,0.0
1757931184.0798635,-5.388529484005818,0.0,0.0,0.0,0.0,0.0,-8.209999999999997,1.2300000000000004,-1.77,0.018000000000000002,0.9079999999999999,-0.035,0.028214705159941796,0.0,0.0,0.0,0.0,0.0
1757931184.1397855,-7.195918982312129,0.0,0.0,0.0,0.0,0.0,-8.469999999999999,1.6900000000000013,-2.33,0.029000000000000005,0.935,-0.074,0.012740810176878697,0.0,0.0,0.0,0.0,0.0
1757931184.1899402,-7.476379471375166,0.0,0.0,0.0,0.0,0.0,-7.709999999999997,1.9700000000000006,-2.25,0.018000000000000002,0.946,-0.009999999999999995,0.002336205286248312,0.0,0.0,0.0,0.0,0.0
1757931184.2498016,-9.482945217599857,0.0,0.0,0.0,0.0,0.0,-4.969999999999999,0.7900000000000009,-3.71,0.092,0.889,-0.013999999999999999,-0.045129452175998584,0.0,0.0,0.0,0.0,0.0
1757931184.2998629,-7.306247326774534,0.0,0.0,0.0,0.0,0.0,-5.809999999999999,1.7100000000000009,-2.37,0.042,0.94,-0.025999999999999995,-0.014962473267745349,0.0,0.0,0.0,0.0,0.0
1757931184.3498676,-7.37504237275963,0.0,0.0,0.0,0.0,0.0,-9.89,-0.009999999999999787,-2.95,-0.034,0.9670000000000001,0.007999999999999993,0.025149576272403707,0.0,0.0,0.0,0.0,0.0
1757931184.3998682,-5.865257880093593,0.0,0.0,0.0,0.0,0.0,-11.45,0.5099999999999998,-2.29,-0.052000000000000005,0.9339999999999999,-0.031,0.05584742119906406,0.0,0.0,0.0,0.0,0.0
1757931184.4600596,-7.882337851170805,0.0,0.0,0.0,0.0,0.0,-7.550000000000001,1.4299999999999997,-2.81,0.029000000000000005,0.8920000000000001,-0.010999999999999996,-0.0033233785117080393,0.0,0.0,0.0,0.0,0.0
1757931184.5197997,-10.252865453130653,0.0,0.0,0.0,0.0,0.0,-5.469999999999999,2.6500000000000004,-3.13,0.112,0.9039999999999999,-0.032,-0.04782865453130654,0.0,0.0,0.0,0.0,0.0
1757931184.5798087,-4.314655258534567,0.0,0.0,0.0,0.0,0.0,-7.550000000000001,0.34999999999999964,-1.69,0.079,0.8940000000000001,0.010999999999999996,0.03235344741465433,0.0,0.0,0.0,0.0,0.0
1757931184.6299653,-9.470282466748285,0.0,0.0,0.0,0.0,0.0,-6.209999999999997,-0.3699999999999992,-3.77,0.0,0.913,-0.07100000000000001,-0.032602824667482884,0.0,0.0,0.0,0.0,0.0
1757931184.6904562,-6.455327257389823,0.0,0.0,0.0,0.0,0.0,-6.050000000000001,2.0500000000000007,-1.5699999999999998,0.075,0.9139999999999999,-0.0050000000000000044,-0.004053272573898222,0.0,0.0,0.0,0.0,0.0
1757931184.749798,-4.0,0.0,0.0,0.0,0.0,0.0,-6.890000000000001,-0.41000000000000014,-0.57,0.042,0.887,-0.046,0.028900000000000006,0.0,0.0,0.0,0.0,0.0
1757931184.8000388,-4.0,0.0,0.0,0.0,0.0,0.0,-8.39,-0.9299999999999997,-0.8099999999999999,0.0,0.891,-0.041,0.04390000000000001,0.0,0.0,0.0,0.0,0.0
1757931184.860564,-8.561906913766348,0.0,0.0,0.0,0.0,0.0,-6.390000000000001,0.6100000000000012,-3.37,0.077,0.879,-0.010999999999999996,-0.02171906913766348,0.0,0.0,0.0,0.0,0.0
1757931184.9199076,-5.425057603380816,0.0,0.0,0.0,0.0,0.0,-4.989999999999998,1.3100000000000005,-1.73,0.10300000000000001,0.8740000000000001,-0.061,-0.004350576033808178,0.0,0.0,0.0,0.0,0.0
1757931184.979821,-7.098327267744141,0.0,0.0,0.0,0.0,0.0,-5.43,0.23000000000000043,-2.83,0.076,0.891,-0.025999999999999995,-0.01668327267744141,0.0,0.0,0.0,0.0,0.0
1757931185.0302186,-4.0,0.0,0.0,0.0,0.0,0.0,-7.209999999999997,-0.3099999999999987,-0.61,0.098,0.8840000000000001,-0.025999999999999995,0.032099999999999976,0.0,0.0,0.0,0.0,0.0
1757931185.0898757,-4.0,0.0,0.0,0.0,0.0,0.0,-5.550000000000001,0.6500000000000004,-0.75,0.14100000000000001,0.931,-0.025999999999999995,0.015500000000000007,0.0,0.0,0.0,0.0,0.0
1757931185.1497884,-7.4753762447117,0.0,0.0,0.0,0.0,0.0,-6.59,-0.02999999999999936,-2.99,0.078,0.933,-0.057,-0.008853762447116997,0.0,0.0,0.0,0.0,0.0
1757931185.1998994,-4.0,0.0,0.0,0.0,0.0,0.0,-10.75,0.7100000000000009,-0.61,0.10300000000000001,0.901,-0.036,0.0675,0.0,0.0,0.0,0.0,0.0
1757931185.2598796,-6.752129293785774,0.0,0.0,0.0,0.0,0.0,-8.369999999999997,-0.8899999999999988,-2.55,0.019000000000000003,0.9019999999999999,-0.046,0.01617870706214223,0.0,0.0,0.0,0.0,0.0
1757931185.319856,-7.202169811938622,0.0,0.0,0.0,0.0,0.0,-8.009999999999998,1.1300000000000008,-2.65,0.14200000000000002,0.8620000000000001,-0.042,0.008078301880613764,0.0,0.0,0.0,0.0,0.0
1757931185.3797855,-10.859615554889592,0.0,0.0,0.0,0.0,0.0,-4.329999999999998,1.0700000000000003,-4.21,0.156,0.8700000000000001,-0.016,-0.06529615554889594,0.0,0.0,0.0,0.0,0.0
1757931185.4298337,-4.580529445380741,0.0,0.0,0.0,0.0,0.0,-4.969999999999999,0.08999999999999986,-1.83,0.082,0.9470000000000001,-0.048,0.003894705546192583,0.0,0.0,0.0,0.0,0.0
1757931185.4900103,-5.1152956903780264,0.0,0.0,0.0,0.0,0.0,-6.329999999999998,1.2100000000000009,-1.65,0.10400000000000001,0.877,-0.021000000000000005,0.01214704309621972,0.0,0.0,0.0,0.0,0.0
1757931185.5498335,-12.228092655847844,0.0,0.0,0.0,0.0,0.0,-8.05,-0.9900000000000002,-4.79,0.028000000000000004,0.8880000000000001,-0.033,-0.04178092655847843,0.0,0.0,0.0,0.0,0.0
1757931185.600066,-4.052931038150044,0.0,0.0,0.0,0.0,0.0,-4.609999999999999,0.5899999999999999,-1.51,0.042,0.893,-0.033,0.005570689618499554,0.0,0.0,0.0,0.0,0.0
1757931185.6598659,-8.669270442199851,0.0,0.0,0.0,0.0,0.0,-3.1899999999999977,-0.7300000000000004,-3.39,0.14500000000000002,0.861,-0.026999999999999996,-0.05479270442199853,0.0,0.0,0.0,0.0,0.0
1757931185.7201114,-4.0,0.0,0.0,0.0,0.0,0.0,-5.91,-0.7899999999999991,0.44999999999999996,0.063,0.8780000000000001,-0.058,0.019100000000000002,0.0,0.0,0.0,0.0,0.0
1757931185.7804732,-4.0,0.0,0.0,0.0,0.0,0.0,-9.27,1.1300000000000008,0.9100000000000001,0.164,0.889,-0.023999999999999994,0.0527,0.0,0.0,0.0,0.0,0.0
1757931185.830577,-10.044961423519753,0.0,0.0,0.0,0.0,0.0,-6.349999999999998,-1.5899999999999999,-3.69,0.017,0.907,-0.094,-0.036949614235197555,0.0,0.0,0.0,0.0,0.0
1757931185.889909,-8.147162082590478,0.0,0.0,0.0,0.0,0.0,-7.509999999999998,2.710000000000001,-1.81,0.14300000000000002,0.9139999999999999,-0.024999999999999994,-0.006371620825904803,0.0,0.0,0.0,0.0,0.0
1757931185.9497857,-6.022976838740126,0.0,0.0,0.0,0.0,0.0,-8.189999999999998,1.5899999999999999,-1.81,0.095,0.8979999999999999,-0.016,0.021670231612598716,0.0,0.0,0.0,0.0,0.0
1757931186.000061,-4.0,0.0,0.0,0.0,0.0,0.0,-8.349999999999998,-0.25,-1.51,-0.0010000000000000009,0.913,-0.082,0.043499999999999976,0.0,0.0,0.0,0.0,0.0
1757931186.0599399,-7.2271190664053675,0.0,0.0,0.0,0.0,0.0,-8.529999999999998,0.07000000000000028,-2.8899999999999997,0.07300000000000001,0.8860000000000001,-0.053,0.0130288093359463,0.0,0.0,0.0,0.0,0.0
1757931186.119795,-6.8360258922856625,0.0,0.0,0.0,0.0,0.0,-5.529999999999998,0.5899999999999999,-2.67,0.035,0.938,-0.043000000000000003,-0.013060258922856649,0.0,0.0,0.0,0.0,0.0
1757931186.1698685,-5.390384958423656,0.0,0.0,0.0,0.0,0.0,-4.449999999999999,0.5300000000000011,-2.09,0.119,0.8660000000000001,-0.012999999999999998,-0.009403849584236568,0.0,0.0,0.0,0.0,0.0
1757931186.229915,-5.554840231725842,0.0,0.0,0.0,0.0,0.0,-4.390000000000001,0.23000000000000043,-2.21,0.094,0.899,-0.0040000000000000036,-0.011648402317258411,0.0,0.0,0.0,0.0,0.0
1757931186.2808247,-7.869005655100267,0.0,0.0,0.0,0.0,0.0,-7.329999999999998,1.1500000000000004,-2.9299999999999997,0.127,0.8860000000000001,-0.010999999999999996,-0.005390056551002687,0.0,0.0,0.0,0.0,0.0
1757931186.3404803,-6.620517351385766,0.0,0.0,0.0,0.0,0.0,-7.349999999999998,0.3100000000000005,-2.63,0.09,0.877,-0.059,0.007294826486142316,0.0,0.0,0.0,0.0,0.0
1757931186.3998582,-5.246546483163948,0.0,0.0,0.0,0.0,0.0,-5.27,0.19000000000000128,-2.09,0.067,0.8920000000000001,-0.058,0.00023453516836051237,0.0,0.0,0.0,0.0,0.0
1757931186.4498901,-4.0732358144354945,0.0,0.0,0.0,0.0,0.0,-6.509999999999998,0.8499999999999996,-1.39,0.096,0.927,-0.047,0.024367641855645036,0.0,0.0,0.0,0.0,0.0
1757931186.5098207,-6.864127766876138,0.0,0.0,0.0,0.0,0.0,-5.649999999999999,0.5500000000000007,-2.69,0.069,0.901,-0.073,-0.01214127766876139,0.0,0.0,0.0,0.0,0.0
1757931186.5608432,-7.033935598226642,0.0,0.0,0.0,0.0,0.0,-8.309999999999999,2.49,-1.31,0.083,0.9770000000000001,-0.026999999999999996,0.012760644017733566,0.0,0.0,0.0,0.0,0.0
1757931186.6204257,-6.79531088324883,0.0,0.0,0.0,0.0,0.0,-7.25,-1.0899999999999999,-2.49,-0.0010000000000000009,0.917,-0.068,0.004546891167511697,0.0,0.0,0.0,0.0,0.0
1757931186.6704462,-6.439041077676084,0.0,0.0,0.0,0.0,0.0,-5.169999999999998,-0.16999999999999993,-2.57,0.07300000000000001,0.893,-0.039,-0.012690410776760856,0.0,0.0,0.0,0.0,0.0
1757931186.7300556,-5.784137792272933,0.0,0.0,0.0,0.0,0.0,-6.43,-0.33000000000000007,-2.29,0.089,0.883,-0.053,0.006458622077270668,0.0,0.0,0.0,0.0,0.0
1757931186.7908995,-5.505111261364297,0.0,0.0,0.0,0.0,0.0,-4.509999999999998,0.6300000000000008,-2.11,0.081,0.889,-0.056,-0.009951112613642987,0.0,0.0,0.0,0.0,0.0
1757931186.8497787,-6.782790723588632,0.0,0.0,0.0,0.0,0.0,-4.029999999999998,0.13000000000000078,-2.71,0.082,0.8640000000000001,-0.015,-0.027527907235886346,0.0,0.0,0.0,0.0,0.0
1757931186.9002523,-9.031680353068303,0.0,0.0,0.0,0.0,0.0,-4.149999999999999,0.6699999999999999,-3.55,0.133,0.8860000000000001,-0.013999999999999999,-0.048816803530683045,0.0,0.0,0.0,0.0,0.0
1757931186.9599655,-4.0,0.0,0.0,0.0,0.0,0.0,-6.550000000000001,-1.0299999999999994,0.27,0.015,0.877,-0.062,0.02550000000000001,0.0,0.0,0.0,0.0,0.0
1757931187.0198212,-6.990797522457648,0.0,0.0,0.0,0.0,0.0,-6.789999999999999,0.9500000000000011,-2.63,0.048,0.919,-0.045,-0.0020079752245764928,0.0,0.0,0.0,0.0,0.0
1757931187.0698798,-5.529579550020054,0.0,0.0,0.0,0.0,0.0,-6.289999999999999,0.08999999999999986,-2.21,0.075,0.9319999999999999,-0.047,0.007604204499799447,0.0,0.0,0.0,0.0,0.0
1757931187.1301224,-6.64087720109324,0.0,0.0,0.0,0.0,0.0,-6.009999999999998,0.5899999999999999,-2.59,0.025,0.905,-0.013999999999999999,-0.006308772010932424,0.0,0.0,0.0,0.0,0.0
1757931187.190028,-4.0,0.0,0.0,0.0,0.0,0.0,-5.189999999999998,0.8100000000000005,-0.8099999999999999,0.097,0.927,-0.039,0.011899999999999978,0.0,0.0,0.0,0.0,0.0
1757931187.2499893,-4.628849749127746,0.0,0.0,0.0,0.0,0.0,-4.529999999999998,0.39000000000000057,-1.81,0.07200000000000001,0.8940000000000001,-0.067,-0.0009884974912774869,0.0,0.0,0.0,0.0,0.0
1757931187.3097806,-4.0,0.0,0.0,0.0,0.0,0.0,-8.809999999999999,1.1100000000000012,0.55,0.019000000000000003,0.942,-0.025999999999999995,0.04809999999999999,0.0,0.0,0.0,0.0,0.0
1757931187.3599584,-12.525623736964159,0.0,0.0,0.0,0.0,0.0,-5.75,0.05000000000000071,-5.01,0.078,0.9390000000000001,-0.058,-0.06775623736964159,0.0,0.0,0.0,0.0,0.0
1757931187.4199042,-10.173802140792791,0.0,0.0,0.0,0.0,0.0,-4.029999999999998,1.4299999999999997,-3.81,0.1,0.9059999999999999,-0.027999999999999997,-0.06143802140792794,0.0,0.0,0.0,0.0,0.0
1757931187.4798028,-13.257309304681698,0.0,0.0,0.0,0.0,0.0,-7.609999999999999,-0.3699999999999992,-5.289999999999999,0.0010000000000000009,0.9610000000000001,-0.008999999999999994,-0.05647309304681698,0.0,0.0,0.0,0.0,0.0
1757931187.529872,-8.018494247675182,0.0,0.0,0.0,0.0,0.0,-8.73,-2.4499999999999993,-2.07,-0.034,0.9530000000000001,-0.022000000000000006,0.007115057523248183,0.0,0.0,0.0,0.0,0.0
1757931187.589834,-6.867768924476128,0.0,0.0,0.0,0.0,0.0,-9.79,-0.4499999999999993,-2.71,-0.065,0.98,-0.0030000000000000027,0.029222310755238706,0.0,0.0,0.0,0.0,0.0
1757931187.6497622,-4.798567494575858,0.0,0.0,0.0,0.0,0.0,-7.709999999999997,1.6900000000000013,-0.9099999999999999,0.028000000000000004,0.9299999999999999,-0.032,0.029114325054241396,0.0,0.0,0.0,0.0,0.0
1757931187.6998158,-8.70265764005456,0.0,0.0,0.0,0.0,0.0,-10.509999999999998,2.870000000000001,-1.97,0.051000000000000004,0.998,0.0020000000000000018,0.018073423599454373,0.0,0.0,0.0,0.0,0.0
1757931187.759947,-4.908793130699235,0.0,0.0,0.0,0.0,0.0,-6.869999999999997,0.8499999999999996,-1.77,0.07300000000000001,0.9390000000000001,-0.04,0.019612068693007627,0.0,0.0,0.0,0.0,0.0
1757931187.8198397,-6.414534277716505,0.0,0.0,0.0,0.0,0.0,-6.390000000000001,1.0300000000000011,-2.3499999999999996,0.046,0.96,-0.025999999999999995,-0.0002453427771650407,0.0,0.0,0.0,0.0,0.0
1757931187.879821,-4.0,0.0,0.0,0.0,0.0,0.0,-3.8699999999999974,0.7699999999999996,0.3700000000000001,0.09,0.895,-0.044,-0.0013000000000000255,0.0,0.0,0.0,0.0,0.0
1757931187.9300334,-6.9437921915909895,0.0,0.0,0.0,0.0,0.0,-5.369999999999997,-0.3899999999999988,-2.75,0.075,0.893,-0.006000000000000005,-0.01573792191590992,0.0,0.0,0.0,0.0,0.0
1757931187.9898813,-8.643277734748548,0.0,0.0,0.0,0.0,0.0,-4.59,0.5700000000000003,-3.41,0.11,0.867,-0.018000000000000002,-0.04053277734748548,0.0,0.0,0.0,0.0,0.0
1757931188.0498047,-4.0,0.0,0.0,0.0,0.0,0.0,-9.29,-0.41000000000000014,-0.47,-0.07100000000000001,0.9430000000000001,-0.074,0.052899999999999996,0.0,0.0,0.0,0.0,0.0
1757931188.1000886,-4.0,0.0,0.0,0.0,0.0,0.0,-9.469999999999999,0.16999999999999993,-1.15,-0.03699999999999999,0.956,-0.084,0.05469999999999999,0.0,0.0,0.0,0.0,0.0
1757931188.1599488,-4.585984081961036,0.0,0.0,0.0,0.0,0.0,-5.609999999999999,0.6100000000000012,-1.73,0.067,0.891,-0.053,0.010240159180389634,0.0,0.0,0.0,0.0,0.0
1757931188.2198906,-4.7782057301878496,0.0,0.0,0.0,0.0,0.0,-4.489999999999998,0.6699999999999999,-1.79,0.089,0.895,-0.033,-0.0028820573018785113,0.0,0.0,0.0,0.0,0.0
1757931188.2798269,-4.0,0.0,0.0,0.0,0.0,0.0,-4.390000000000001,-0.3099999999999987,-1.31,0.133,0.8440000000000001,-0.036,0.003900000000000006,0.0,0.0,0.0,0.0,0.0
1757931188.330087,-4.0,0.0,0.0,0.0,0.0,0.0,-5.629999999999999,-0.5299999999999994,-1.49,0.063,0.901,-0.035,0.01629999999999999,0.0,0.0,0.0,0.0,0.0
1757931188.3898373,-9.12914289514629,0.0,0.0,0.0,0.0,0.0,-6.329999999999998,-0.10999999999999943,-3.65,0.043000000000000003,0.899,-0.021000000000000005,-0.02799142895146291,0.0,0.0,0.0,0.0,0.0
1757931188.4497721,-6.207757243965004,0.0,0.0,0.0,0.0,0.0,-7.109999999999999,1.4299999999999997,-2.03,0.028000000000000004,0.944,-0.052,0.009022427560349957,0.0,0.0,0.0,0.0,0.0
1757931188.4998484,-4.0,0.0,0.0,0.0,0.0,0.0,-6.27,0.9100000000000001,-0.75,0.05,0.8920000000000001,-0.075,0.022699999999999994,0.0,0.0,0.0,0.0,0.0
1757931188.559954,-5.281216715871447,0.0,0.0,0.0,0.0,0.0,-6.349999999999998,0.6500000000000004,-2.01,0.058,0.901,-0.015,0.010687832841285508,0.0,0.0,0.0,0.0,0.0
1757931188.619899,-5.621943614089347,0.0,0.0,0.0,0.0,0.0,-2.9899999999999984,-0.5899999999999999,-2.17,0.139,0.889,-0.037,-0.02631943614089349,0.0,0.0,0.0,0.0,0.0
1757931188.6798365,-6.325049406921655,0.0,0.0,0.0,0.0,0.0,-4.469999999999999,-0.8300000000000001,-2.3899999999999997,0.094,0.8700000000000001,-0.038,-0.018550494069216567,0.0,0.0,0.0,0.0,0.0
1757931188.7300346,-9.005068017511029,0.0,0.0,0.0,0.0,0.0,-6.449999999999999,0.6100000000000012,-3.55,0.032,0.8999999999999999,-0.018000000000000002,-0.025550680175110294,0.0,0.0,0.0,0.0,0.0
1757931188.7801156,-9.679424053113905,0.0,0.0,0.0,0.0,0.0,-3.9899999999999984,0.41000000000000014,-3.85,0.089,0.8900000000000001,-0.024999999999999994,-0.05689424053113907,0.0,0.0,0.0,0.0,0.0
1757931188.830466,-4.21678194835825,0.0,0.0,0.0,0.0,0.0,-4.809999999999999,-0.34999999999999964,-1.65,0.076,0.9099999999999999,-0.065,0.005932180516417489,0.0,0.0,0.0,0.0,0.0
1757931188.8898702,-9.143098490118106,0.0,0.0,0.0,0.0,0.0,-5.75,-0.23000000000000043,-3.65,0.009000000000000001,0.968,-0.078,-0.033930984901181065,0.0,0.0,0.0,0.0,0.0
1757931188.9398842,-4.0,0.0,0.0,0.0,0.0,0.0,-5.789999999999999,-0.2699999999999996,-1.33,0.038000000000000006,0.923,-0.041,0.017899999999999992,0.0,0.0,0.0,0.0,0.0
1757931188.9903018,-4.9765701039973305,0.0,0.0,0.0,0.0,0.0,-8.869999999999997,0.05000000000000071,-1.99,-0.0020000000000000018,0.9279999999999999,-0.078,0.03893429896002667,0.0,0.0,0.0,0.0,0.0
1757931189.0497868,-4.4750698318573745,0.0,0.0,0.0,0.0,0.0,-6.09,0.5899999999999999,-1.69,0.084,0.901,-0.044,0.016149301681426254,0.0,0.0,0.0,0.0,0.0
1757931189.10029,-5.4732303075971505,0.0,0.0,0.0,0.0,0.0,-4.41,0.2900000000000009,-2.17,0.11699999999999999,0.863,-0.011999999999999997,-0.010632303075971503,0.0,0.0,0.0,0.0,0.0
1757931189.1598234,-4.985604276313955,0.0,0.0,0.0,0.0,0.0,-6.149999999999999,0.13000000000000078,-1.99,0.054000000000000006,0.9159999999999999,-0.023000000000000007,0.011643957236860434,0.0,0.0,0.0,0.0,0.0
1757931189.2226777,-4.7546030328514295,0.0,0.0,0.0,0.0,0.0,-7.989999999999998,1.7300000000000004,-0.7899999999999999,0.038000000000000006,0.929,-0.04,0.03235396967148569,0.0,0.0,0.0,0.0,0.0
1757931189.2798367,-4.0,0.0,0.0,0.0,0.0,0.0,-5.109999999999999,0.15000000000000036,-1.5699999999999998,0.053000000000000005,0.919,-0.043000000000000003,0.011099999999999995,0.0,0.0,0.0,0.0,0.0
1757931189.3299735,-8.428003915518786,0.0,0.0,0.0,0.0,0.0,-2.2099999999999973,0.08999999999999986,-3.37,0.166,0.853,-0.023999999999999994,-0.06218003915518789,0.0,0.0,0.0,0.0,0.0
1757931189.389944,-9.575815892131594,0.0,0.0,0.0,0.0,0.0,-4.73,-0.049999999999998934,-3.83,0.089,0.905,-0.028999999999999998,-0.048458158921315934,0.0,0.0,0.0,0.0,0.0
1757931189.449944,-5.713252138668483,0.0,0.0,0.0,0.0,0.0,-6.449999999999999,1.0099999999999998,-2.05,0.061,0.95,-0.044,0.007367478613315166,0.0,0.0,0.0,0.0,0.0
1757931189.4999623,-16.172700763941684,0.0,0.0,0.0,0.0,0.0,-6.77,0.7100000000000009,-6.43,0.053000000000000005,0.9770000000000001,0.013999999999999999,-0.09402700763941685,0.0,0.0,0.0,0.0,0.0
1757931189.559835,-8.019117781900949,0.0,0.0,0.0,0.0,0.0,-4.509999999999998,0.4900000000000002,-3.17,0.108,0.913,-0.053,-0.03509117781900951,0.0,0.0,0.0,0.0,0.0
1757931189.6199405,-9.079991740084349,0.0,0.0,0.0,0.0,0.0,-3.6099999999999994,1.450000000000001,-3.33,0.14,0.917,-0.0050000000000000044,-0.0546999174008435,0.0,0.0,0.0,0.0,0.0
1757931189.6797729,-4.0,0.0,0.0,0.0,0.0,0.0,-9.07,0.4900000000000002,0.77,-0.0040000000000000036,0.954,-0.03,0.0507,0.0,0.0,0.0,0.0,0.0
1757931189.7298958,-7.935127598217938,0.0,0.0,0.0,0.0,0.0,-9.61,-0.3899999999999988,-3.15,-0.023999999999999994,1.014,-0.019000000000000003,0.016748724017820616,0.0,0.0,0.0,0.0,0.0
1757931189.790417,-5.985503320523682,0.0,0.0,0.0,0.0,0.0,-7.629999999999999,1.790000000000001,-1.5899999999999999,0.054000000000000006,0.9830000000000001,-0.035,0.01644496679476317,0.0,0.0,0.0,0.0,0.0
1757931189.84979,-4.0,0.0,0.0,0.0,0.0,0.0,-5.129999999999999,0.370000000000001,1.37,0.101,0.873,-0.031,0.01129999999999999,0.0,0.0,0.0,0.0,0.0
1757931189.8998733,-7.3614706411151305,0.0,0.0,0.0,0.0,0.0,-3.129999999999999,0.45000000000000107,-2.91,0.124,0.8800000000000001,-0.056,-0.042314706411151315,0.0,0.0,0.0,0.0,0.0
1757931189.9500375,-5.575056053529865,0.0,0.0,0.0,0.0,0.0,-4.309999999999999,1.33,-1.79,0.139,0.893,-0.031,-0.012650560535298663,0.0,0.0,0.0,0.0,0.0
1757931190.0097814,-7.0849311923264295,0.0,0.0,0.0,0.0,0.0,-4.709999999999997,0.9500000000000011,-2.67,0.095,0.958,-0.025999999999999995,-0.02374931192326432,0.0,0.0,0.0,0.0,0.0
1757931190.0598392,-4.0,0.0,0.0,0.0,0.0,0.0,-7.989999999999998,0.8300000000000001,-0.77,-0.0040000000000000036,0.994,-0.021000000000000005,0.039899999999999984,0.0,0.0,0.0,0.0,0.0
1757931190.119901,-5.413524729785577,0.0,0.0,0.0,0.0,0.0,-8.43,0.39000000000000057,-2.13,0.0040000000000000036,0.942,-0.028999999999999998,0.03016475270214423,0.0,0.0,0.0,0.0,0.0
1757931190.1700363,-5.673292694723232,0.0,0.0,0.0,0.0,0.0,-11.169999999999998,0.9299999999999997,-2.07,-0.026999999999999996,0.9770000000000001,-0.044,0.054967073052767663,0.0,0.0,0.0,0.0,0.0
1757931190.2307463,-4.61370241779853,0.0,0.0,0.0,0.0,0.0,-6.73,0.9700000000000006,-1.5699999999999998,0.027000000000000003,0.938,0.007000000000000006,0.021162975822014703,0.0,0.0,0.0,0.0,0.0
1757931190.2898505,-4.0,0.0,0.0,0.0,0.0,0.0,-4.869999999999997,-0.049999999999998934,-1.23,0.1,0.9139999999999999,-0.062,0.008699999999999975,0.0,0.0,0.0,0.0,0.0
1757931190.3400393,-4.0,0.0,0.0,0.0,0.0,0.0,-6.149999999999999,0.6100000000000012,-0.49,0.10500000000000001,0.8940000000000001,-0.038,0.021499999999999988,0.0,0.0,0.0,0.0,0.0
1757931190.3998063,-8.17503822621032,0.0,0.0,0.0,0.0,0.0,-4.489999999999998,-0.009999999999999787,-3.27,0.108,0.893,-0.028999999999999998,-0.03685038226210322,0.0,0.0,0.0,0.0,0.0
1757931190.4508276,-4.0,0.0,0.0,0.0,0.0,0.0,-3.349999999999998,0.39000000000000057,-1.5499999999999998,0.136,0.9139999999999999,-0.023000000000000007,-0.006500000000000021,0.0,0.0,0.0,0.0,0.0
1757931190.510094,-4.650940765049582,0.0,0.0,0.0,0.0,0.0,-6.349999999999998,-0.4299999999999997,-1.81,0.09,0.923,-0.065,0.016990592349504157,0.0,0.0,0.0,0.0,0.0
1757931190.569913,-11.116710394716595,0.0,0.0,0.0,0.0,0.0,-6.149999999999999,0.5700000000000003,-4.41,0.059000000000000004,0.9590000000000001,-0.052,-0.04966710394716596,0.0,0.0,0.0,0.0,0.0
1757931190.6301694,-5.8151741160518995,0.0,0.0,0.0,0.0,0.0,-5.349999999999998,0.5899999999999999,-2.25,0.08,0.915,-0.037,-0.0046517411605190165,0.0,0.0,0.0,0.0,0.0
1757931190.6902823,-7.232305994632693,0.0,0.0,0.0,0.0,0.0,-6.890000000000001,-0.129999999999999,-2.8899999999999997,0.026000000000000002,0.972,-0.028999999999999998,-0.003423059946326923,0.0,0.0,0.0,0.0,0.0
1757931190.749797,-9.10775768232774,0.0,0.0,0.0,0.0,0.0,-7.169999999999998,-0.4900000000000002,-3.61,0.024,0.9690000000000001,-0.057,-0.019377576823277422,0.0,0.0,0.0,0.0,0.0
1757931190.7999742,-7.348894474681209,0.0,0.0,0.0,0.0,0.0,-6.289999999999999,1.0899999999999999,-2.73,0.07300000000000001,0.921,-0.034,-0.010588944746812094,0.0,0.0,0.0,0.0,0.0
1757931190.8600008,-4.0,0.0,0.0,0.0,0.0,0.0,-4.809999999999999,-0.7099999999999991,0.13000000000000012,0.058,0.921,-0.065,0.008099999999999987,0.0,0.0,0.0,0.0,0.0
1757931190.9101455,-8.900632000032356,0.0,0.0,0.0,0.0,0.0,-3.4899999999999984,-0.2699999999999996,-3.55,0.122,0.867,-0.043000000000000003,-0.05410632000032358,0.0,0.0,0.0,0.0,0.0
1757931190.9704437,-6.075462945323589,0.0,0.0,0.0,0.0,0.0,-5.789999999999999,-0.02999999999999936,-2.4299999999999997,0.11,0.9239999999999999,-0.041,-0.0028546294532359,0.0,0.0,0.0,0.0,0.0
1757931191.0301602,-5.2255382497882445,0.0,0.0,0.0,0.0,0.0,-7.449999999999999,0.030000000000001137,-2.09,0.047,0.966,-0.032,0.022244617502117547,0.0,0.0,0.0,0.0,0.0
1757931191.090002,-4.0,0.0,0.0,0.0,0.0,0.0,-5.75,0.25,-1.47,0.10500000000000001,0.897,-0.042,0.0175,0.0,0.0,0.0,0.0,0.0
1757931191.1501276,-4.0,0.0,0.0,0.0,0.0,0.0,-6.669999999999998,-0.10999999999999943,-1.1099999999999999,0.049,0.9550000000000001,-0.058,0.02669999999999998,0.0,0.0,0.0,0.0,0.0
1757931191.2101822,-4.0,0.0,0.0,0.0,0.0,0.0,-6.43,-0.08999999999999986,-0.30999999999999994,0.020000000000000004,0.927,-0.056,0.0243,0.0,0.0,0.0,0.0,0.0
1757931191.2700772,-10.918619418223164,0.0,0.0,0.0,0.0,0.0,-4.649999999999999,0.39000000000000057,-4.35,0.11,0.911,-0.012999999999999998,-0.06268619418223166,0.0,0.0,0.0,0.0,0.0
1757931191.3211966,-4.0,0.0,0.0,0.0,0.0,0.0,-4.829999999999998,0.2900000000000009,0.5700000000000001,0.067,0.9019999999999999,-0.062,0.008299999999999983,0.0,0.0,0.0,0.0,0.0
1757931191.3798265,-11.729503399547653,0.0,0.0,0.0,0.0,0.0,-6.25,0.13000000000000078,-4.6899999999999995,0.057,0.944,-0.006000000000000005,-0.05479503399547653,0.0,0.0,0.0,0.0,0.0
1757931191.4300046,-5.7211231414819235,0.0,0.0,0.0,0.0,0.0,-7.449999999999999,-0.28999999999999915,-2.27,0.0040000000000000036,0.9990000000000001,-0.039,0.017288768585180758,0.0,0.0,0.0,0.0,0.0
1757931191.4898136,-18.33047326175732,0.0,0.0,0.0,0.0,0.0,-8.45,0.5700000000000003,-7.3100000000000005,0.032,0.9670000000000001,0.0040000000000000036,-0.09880473261757321,0.0,0.0,0.0,0.0,0.0
1757931191.539987,-8.068534563351637,0.0,0.0,0.0,0.0,0.0,-3.75,0.4900000000000002,-3.19,0.07100000000000001,0.9390000000000001,-0.028999999999999998,-0.04318534563351637,0.0,0.0,0.0,0.0,0.0
1757931191.6004295,-4.0,0.0,0.0,0.0,0.0,0.0,-4.109999999999999,0.07000000000000028,-1.29,0.108,0.8820000000000001,-0.028999999999999998,0.0010999999999999944,0.0,0.0,0.0,0.0,0.0
1757931191.660077,-7.335274364330213,0.0,0.0,0.0,0.0,0.0,-1.9299999999999997,0.6100000000000012,-2.87,0.16999999999999998,0.853,-0.043000000000000003,-0.054052743643302134,0.0,0.0,0.0,0.0,0.0
1757931191.7201204,-4.0,0.0,0.0,0.0,0.0,0.0,-1.9100000000000001,0.3100000000000005,-0.99,0.177,0.857,-0.045,-0.0209,0.0,0.0,0.0,0.0,0.0
1757931191.779804,-6.439041077676084,0.0,0.0,0.0,0.0,0.0,-3.2300000000000004,0.7300000000000004,-2.4699999999999998,0.151,0.8700000000000001,-0.017,-0.032090410776760836,0.0,0.0,0.0,0.0,0.0
1757931191.8314195,-4.943303551270142,0.0,0.0,0.0,0.0,0.0,-4.469999999999999,0.4299999999999997,-1.93,0.14500000000000002,0.8680000000000001,-0.046,-0.004733035512701429,0.0,0.0,0.0,0.0,0.0
1757931191.889863,-5.285002365183955,0.0,0.0,0.0,0.0,0.0,-4.349999999999998,0.13000000000000078,-2.11,0.129,0.8979999999999999,-0.046,-0.009350023651839567,0.0,0.0,0.0,0.0,0.0
1757931191.939945,-6.286195192642366,0.0,0.0,0.0,0.0,0.0,-6.469999999999999,-0.34999999999999964,-2.49,0.065,0.895,0.0,0.0018380480735763261,0.0,0.0,0.0,0.0,0.0
1757931191.9903154,-7.156203602469678,0.0,0.0,0.0,0.0,0.0,-7.529999999999998,-0.4299999999999997,-2.83,0.011000000000000003,0.9550000000000001,-0.0010000000000000009,0.0037379639753031936,0.0,0.0,0.0,0.0,0.0
1757931192.049795,-5.512825954081989,0.0,0.0,0.0,0.0,0.0,-7.07,0.4900000000000002,-2.15,0.03900000000000001,0.9239999999999999,-0.066,0.015571740459180115,0.0,0.0,0.0,0.0,0.0
1757931192.1003096,-6.068463561726312,0.0,0.0,0.0,0.0,0.0,-7.469999999999999,-0.28999999999999915,-2.41,0.006999999999999999,0.907,-0.016,0.014015364382736869,0.0,0.0,0.0,0.0,0.0
1757931192.159887,-6.8360258922856625,0.0,0.0,0.0,0.0,0.0,-8.969999999999999,-0.5899999999999999,-2.67,-0.0059999999999999915,0.96,-0.031,0.021339741077143363,0.0,0.0,0.0,0.0,0.0
1757931192.2197688,-6.478908087015897,0.0,0.0,0.0,0.0,0.0,-9.05,0.08999999999999986,-2.59,-0.027999999999999997,0.9670000000000001,-0.056,0.025710919129841036,0.0,0.0,0.0,0.0,0.0
1757931192.2698772,-4.462202371027114,0.0,0.0,0.0,0.0,0.0,-9.39,0.23000000000000043,-1.77,-0.03699999999999999,0.978,-0.047,0.04927797628972886,0.0,0.0,0.0,0.0,0.0
1757931192.3200948,-6.83566017294599,0.0,0.0,0.0,0.0,0.0,-8.669999999999998,-0.4900000000000002,-2.69,-0.0010000000000000009,0.9319999999999999,-0.034,0.018343398270540084,0.0,0.0,0.0,0.0,0.0
1757931192.370324,-6.388759660528794,0.0,0.0,0.0,0.0,0.0,-8.73,-0.8499999999999996,-2.41,-0.051000000000000004,0.9510000000000001,-0.023999999999999994,0.023412403394712067,0.0,0.0,0.0,0.0,0.0
1757931192.4301243,-5.526413846247854,0.0,0.0,0.0,0.0,0.0,-8.77,-0.049999999999998934,-2.21,0.0020000000000000018,0.937,-0.06,0.03243586153752146,0.0,0.0,0.0,0.0,0.0
1757931192.4898434,-7.290490381311807,0.0,0.0,0.0,0.0,0.0,-8.689999999999998,-0.3899999999999988,-2.8899999999999997,-0.046,0.937,-0.031,0.013995096186881906,0.0,0.0,0.0,0.0,0.0
1757931192.5407217,-6.471572451885244,0.0,0.0,0.0,0.0,0.0,-8.07,0.3100000000000005,-2.57,-0.0040000000000000036,0.962,-0.058,0.015984275481147562,0.0,0.0,0.0,0.0,0.0
1757931192.600097,-6.819182502323867,0.0,0.0,0.0,0.0,0.0,-8.25,-0.3099999999999987,-2.71,-0.022999999999999993,0.9410000000000001,-0.046,0.014308174976761335,0.0,0.0,0.0,0.0,0.0
1757931192.6597993,-6.136468854316789,0.0,0.0,0.0,0.0,0.0,-8.73,-0.15000000000000036,-2.45,-0.015,0.9750000000000001,-0.062,0.025935311456832116,0.0,0.0,0.0,0.0,0.0
1757931192.7101352,-5.361552946675057,0.0,0.0,0.0,0.0,0.0,-8.79,-0.25,-2.13,-0.011999999999999997,0.9099999999999999,-0.049,0.03428447053324942,0.0,0.0,0.0,0.0,0.0
1757931192.7702076,-6.605017032529135,0.0,0.0,0.0,0.0,0.0,-8.329999999999998,0.41000000000000014,-2.61,-0.010999999999999996,0.9470000000000001,-0.045,0.017249829674708634,0.0,0.0,0.0,0.0,0.0
1757931192.8316748,-5.897986944712577,0.0,0.0,0.0,0.0,0.0,-7.949999999999999,-0.3699999999999992,-2.33,-0.028999999999999998,0.9590000000000001,-0.022000000000000006,0.020520130552874223,0.0,0.0,0.0,0.0,0.0
1757931192.8898914,-6.58074843767789,0.0,0.0,0.0,0.0,0.0,-9.23,-0.10999999999999943,-2.63,0.0010000000000000009,0.9410000000000001,-0.038,0.026492515623221104,0.0,0.0,0.0,0.0,0.0
1757931192.9498456,-7.321628917119469,0.0,0.0,0.0,0.0,0.0,-8.11,-0.33000000000000007,-2.91,-0.011999999999999997,0.9470000000000001,-0.036,0.007883710828805306,0.0,0.0,0.0,0.0,0.0
1757931192.9998596,-7.032513775315339,0.0,0.0,0.0,0.0,0.0,-8.329999999999998,-0.129999999999999,-2.81,-0.013999999999999999,0.954,-0.036,0.012974862246846595,0.0,0.0,0.0,0.0,0.0
1757931193.0599422,-6.350295268725699,0.0,0.0,0.0,0.0,0.0,-8.689999999999998,0.39000000000000057,-2.51,0.0050000000000000044,0.9550000000000001,-0.054,0.023397047312742992,0.0,0.0,0.0,0.0,0.0
1757931193.1200068,-6.027126180859331,0.0,0.0,0.0,0.0,0.0,-8.169999999999998,-0.6899999999999995,-2.31,-0.026999999999999996,0.937,-0.042,0.02142873819140667,0.0,0.0,0.0,0.0,0.0
1757931193.1797817,-6.570863717959763,0.0,0.0,0.0,0.0,0.0,-9.05,0.3100000000000005,-2.61,-0.017,0.9570000000000001,-0.037,0.02479136282040238,0.0,0.0,0.0,0.0,0.0
1757931193.2300534,-7.201128383802082,0.0,0.0,0.0,0.0,0.0,-7.829999999999998,-0.7899999999999991,-2.77,-0.03699999999999999,0.972,-0.03,0.00628871616197916,0.0,0.0,0.0,0.0,0.0
1757931193.2902706,-5.676376485047481,0.0,0.0,0.0,0.0,0.0,-7.789999999999999,-0.049999999999998934,-2.27,-0.015,0.9690000000000001,-0.033,0.021136235149525184,0.0,0.0,0.0,0.0,0.0
1757931193.3434205,-6.819182502323867,0.0,0.0,0.0,0.0,0.0,-8.809999999999999,-0.3099999999999987,-2.71,-0.013999999999999999,0.938,-0.018000000000000002,0.019908174976761322,0.0,0.0,0.0,0.0,0.0
1757931193.3999436,-6.194453163920121,0.0,0.0,0.0,0.0,0.0,-8.07,0.370000000000001,-2.45,-0.008999999999999994,0.9610000000000001,-0.034,0.01875546836079879,0.0,0.0,0.0,0.0,0.0
1757931193.450222,-7.030380501793625,0.0,0.0,0.0,0.0,0.0,-8.77,0.11000000000000121,-2.81,0.015,0.9650000000000001,-0.047,0.017396194982063743,0.0,0.0,0.0,0.0,0.0
1757931193.510348,-5.775486992453536,0.0,0.0,0.0,0.0,0.0,-8.41,0.030000000000001137,-2.31,0.006000000000000005,0.9359999999999999,-0.043000000000000003,0.02634513007546464,0.0,0.0,0.0,0.0,0.0
1757931193.5697916,-7.198003195331328,0.0,0.0,0.0,0.0,0.0,-8.25,-0.23000000000000043,-2.87,0.0010000000000000009,0.9530000000000001,-0.049,0.010519968046686722,0.0,0.0,0.0,0.0,0.0
1757931193.6198015,-10.18092579287365,0.0,0.0,0.0,0.0,0.0,-7.869999999999997,-0.7099999999999991,-4.01,-0.026999999999999996,0.996,-0.036,-0.023109257928736523,0.0,0.0,0.0,0.0,0.0
1757931193.6698072,-5.282163382554537,0.0,0.0,0.0,0.0,0.0,-8.809999999999999,-0.10999999999999943,-2.11,-0.012999999999999998,0.95,-0.025999999999999995,0.035278366174454616,0.0,0.0,0.0,0.0,0.0
1757931193.729796,-4.0,0.0,0.0,0.0,0.0,0.0,-9.309999999999999,-0.41000000000000014,-1.45,-0.011999999999999997,0.893,-0.047,0.05309999999999999,0.0,0.0,0.0,0.0,0.0
1757931193.779848,-8.136107791812988,0.0,0.0,0.0,0.0,0.0,-8.669999999999998,0.16999999999999993,-3.25,0.0,0.964,-0.046,0.005338922081870106,0.0,0.0,0.0,0.0,0.0
1757931193.8398795,-6.138505518446651,0.0,0.0,0.0,0.0,0.0,-8.11,-0.46999999999999886,-2.41,-0.03699999999999999,0.964,-0.035,0.019714944815533483,0.0,0.0,0.0,0.0,0.0
1757931193.8899937,-7.057354320140091,0.0,0.0,0.0,0.0,0.0,-7.77,-0.2699999999999996,-2.81,-0.036000000000000004,0.9430000000000001,-0.039,0.00712645679859909,0.0,0.0,0.0,0.0,0.0
1757931193.949788,-6.738415985971777,0.0,0.0,0.0,0.0,0.0,-8.349999999999998,-0.16999999999999993,-2.69,-0.006999999999999992,0.9390000000000001,-0.034,0.01611584014028221,0.0,0.0,0.0,0.0,0.0
1757931193.9998844,-4.0,0.0,0.0,0.0,0.0,0.0,-8.95,0.2900000000000009,-1.51,-0.015,0.9219999999999999,-0.035,0.049499999999999995,0.0,0.0,0.0,0.0,0.0
1757931194.059885,-5.890352281485378,0.0,0.0,0.0,0.0,0.0,-9.309999999999999,0.34999999999999964,-2.33,0.006000000000000005,0.937,-0.037,0.03419647718514621,0.0,0.0,0.0,0.0,0.0
1757931194.1101508,-6.279032568795928,0.0,0.0,0.0,0.0,0.0,-7.890000000000001,-0.08999999999999986,-2.51,-0.010999999999999996,0.9339999999999999,-0.041,0.01610967431204073,0.0,0.0,0.0,0.0,0.0
1757931194.170115,-5.491470659122199,0.0,0.0,0.0,0.0,0.0,-8.39,0.45000000000000107,-2.15,-0.006999999999999992,0.9279999999999999,-0.05,0.028985293408778014,0.0,0.0,0.0,0.0,0.0
1757931194.229964,-5.99134792847152,0.0,0.0,0.0,0.0,0.0,-9.209999999999997,0.47000000000000064,-2.3499999999999996,0.010000000000000002,0.929,-0.027999999999999997,0.03218652071528477,0.0,0.0,0.0,0.0,0.0
1757931194.2899656,-8.278058347221284,0.0,0.0,0.0,0.0,0.0,-8.349999999999998,-1.1899999999999995,-3.09,-0.040999999999999995,0.962,-0.058,0.0007194165277871356,0.0,0.0,0.0,0.0,0.0
1757931194.3399706,-9.365161504213368,0.0,0.0,0.0,0.0,0.0,-8.75,-1.0700000000000003,-3.59,-0.032,0.978,-0.051000000000000004,-0.006151615042133685,0.0,0.0,0.0,0.0,0.0
1757931194.3903444,-4.835933208802619,0.0,0.0,0.0,0.0,0.0,-8.709999999999997,-0.129999999999999,-1.93,-0.0010000000000000009,0.9199999999999999,-0.046,0.03874066791197379,0.0,0.0,0.0,0.0,0.0
1757931194.449805,-6.55028625328695,0.0,0.0,0.0,0.0,0.0,-8.489999999999998,0.23000000000000043,-2.61,-0.0040000000000000036,0.929,-0.032,0.019397137467130482,0.0,0.0,0.0,0.0,0.0
1757931194.509817,-6.292952407256866,0.0,0.0,0.0,0.0,0.0,-8.129999999999999,0.19000000000000128,-2.51,-0.03,0.9770000000000001,-0.04,0.01837047592743133,0.0,0.0,0.0,0.0,0.0
1757931194.570005,-6.168974793269948,0.0,0.0,0.0,0.0,0.0,-8.869999999999997,-0.5299999999999994,-2.41,-0.023999999999999994,0.925,-0.037,0.027010252067300497,0.0,0.0,0.0,0.0,0.0
1757931194.6298037,-5.19242236340612,0.0,0.0,0.0,0.0,0.0,-8.75,-0.16999999999999993,-2.07,0.0020000000000000018,0.927,-0.028999999999999998,0.035575776365938803,0.0,0.0,0.0,0.0,0.0
1757931194.6798398,-7.9505502954198075,0.0,0.0,0.0,0.0,0.0,-7.91,-0.8300000000000001,-3.07,-0.035,0.964,-0.035,-0.0004055029541980737,0.0,0.0,0.0,0.0,0.0
1757931194.7304459,-5.475057077328052,0.0,0.0,0.0,0.0,0.0,-8.169999999999998,-0.009999999999999787,-2.19,-0.0020000000000000018,0.919,-0.023000000000000007,0.026949429226719463,0.0,0.0,0.0,0.0,0.0
1757931194.789787,-5.650331848661632,0.0,0.0,0.0,0.0,0.0,-8.25,-0.8099999999999987,-2.11,-0.026999999999999996,0.933,-0.027999999999999997,0.02599668151338368,0.0,0.0,0.0,0.0,0.0
1757931194.839893,-6.60917922286875,0.0,0.0,0.0,0.0,0.0,-8.41,-0.5299999999999994,-2.59,-0.011999999999999997,0.9450000000000001,-0.023999999999999994,0.0180082077713125,0.0,0.0,0.0,0.0,0.0
1757931194.9004235,-6.326235057283281,0.0,0.0,0.0,0.0,0.0,-8.189999999999998,0.05000000000000071,-2.5300000000000002,-0.007999999999999993,0.942,-0.051000000000000004,0.01863764942716717,0.0,0.0,0.0,0.0,0.0
1757931194.95981,-4.520647077576395,0.0,0.0,0.0,0.0,0.0,-8.709999999999997,0.370000000000001,-1.77,0.011000000000000003,0.9159999999999999,-0.021000000000000005,0.04189352922423602,0.0,0.0,0.0,0.0,0.0
1757931195.0197845,-5.993851015832808,0.0,0.0,0.0,0.0,0.0,-8.59,0.19000000000000128,-2.3899999999999997,0.009000000000000001,0.905,-0.032,0.025961489841671917,0.0,0.0,0.0,0.0,0.0
1757931195.0698123,-7.999453106306705,0.0,0.0,0.0,0.0,0.0,-8.509999999999998,-0.25,-3.19,-0.015,0.964,-0.061,0.005105468936932933,0.0,0.0,0.0,0.0,0.0
1757931195.1302779,-5.391776145204843,0.0,0.0,0.0,0.0,0.0,-7.989999999999998,-0.16999999999999993,-2.15,-0.020000000000000004,0.958,-0.043000000000000003,0.025982238547951557,0.0,0.0,0.0,0.0,0.0
1757931195.1898375,-5.572364848069444,0.0,0.0,0.0,0.0,0.0,-7.890000000000001,-0.28999999999999915,-2.21,-0.011999999999999997,0.919,-0.047,0.02317635151930556,0.0,0.0,0.0,0.0,0.0
1757931195.2398787,-6.884856570764564,0.0,0.0,0.0,0.0,0.0,-7.989999999999998,0.5899999999999999,-2.69,-0.009999999999999995,0.944,-0.038,0.011051434292354348,0.0,0.0,0.0,0.0,0.0
1757931195.2998269,-6.031687160322557,0.0,0.0,0.0,0.0,0.0,-8.39,0.33000000000000007,-2.3899999999999997,-0.010999999999999996,0.9470000000000001,-0.041,0.023583128396774438,0.0,0.0,0.0,0.0,0.0
1757931195.3498843,-6.713884866453995,0.0,0.0,0.0,0.0,0.0,-7.969999999999999,-0.7099999999999991,-2.59,-0.009999999999999995,0.9019999999999999,-0.038,0.01256115133546004,0.0,0.0,0.0,0.0,0.0
1757931195.4000773,-5.220751861561703,0.0,0.0,0.0,0.0,0.0,-8.05,-0.4900000000000002,-2.03,-0.03,0.917,-0.025999999999999995,0.028292481384382978,0.0,0.0,0.0,0.0,0.0
1757931195.4599211,-6.46964063917,0.0,0.0,0.0,0.0,0.0,-8.189999999999998,0.8900000000000006,-2.4299999999999997,0.026000000000000002,0.938,-0.047,0.01720359360829998,0.0,0.0,0.0,0.0,0.0
1757931195.5198536,-7.676994854759249,0.0,0.0,0.0,0.0,0.0,-8.349999999999998,0.07000000000000028,-3.07,-0.028999999999999998,0.9690000000000001,-0.03,0.006730051452407491,0.0,0.0,0.0,0.0,0.0
1757931195.5839293,-7.763778075138418,0.0,0.0,0.0,0.0,0.0,-8.189999999999998,0.3100000000000005,-3.09,0.0040000000000000036,0.9510000000000001,-0.046,0.004262219248615802,0.0,0.0,0.0,0.0,0.0
1757931195.639955,-6.828707784054022,0.0,0.0,0.0,0.0,0.0,-8.029999999999998,0.08999999999999986,-2.73,-0.010999999999999996,0.94,-0.048,0.012012922159459753,0.0,0.0,0.0,0.0,0.0
1757931195.6999218,-5.694844159412968,0.0,0.0,0.0,0.0,0.0,-8.55,-0.1899999999999995,-2.27,-0.006999999999999992,0.923,-0.027999999999999997,0.028551558405870328,0.0,0.0,0.0,0.0,0.0
1757931195.7618759,-6.788317169961934,0.0,0.0,0.0,0.0,0.0,-8.43,-0.16999999999999993,-2.71,0.0040000000000000036,0.915,-0.041,0.016416828300380663,0.0,0.0,0.0,0.0,0.0
1757931195.8197803,-7.0732771753975525,0.0,0.0,0.0,0.0,0.0,-8.27,-0.46999999999999886,-2.79,-0.0040000000000000036,0.9470000000000001,-0.048,0.011967228246024472,0.0,0.0,0.0,0.0,0.0
1757931195.8706868,-4.059710580817307,0.0,0.0,0.0,0.0,0.0,-8.95,0.33000000000000007,-1.5899999999999999,0.015,0.909,-0.046,0.048902894191826925,0.0,0.0,0.0,0.0,0.0
1757931195.9298193,-6.90153968328807,0.0,0.0,0.0,0.0,0.0,-8.129999999999999,0.41000000000000014,-2.73,0.0040000000000000036,0.9450000000000001,-0.045,0.012284603167119289,0.0,0.0,0.0,0.0,0.0
1757931195.9898953,-5.97756221213966,0.0,0.0,0.0,0.0,0.0,-8.07,-0.07000000000000028,-2.3899999999999997,-0.0010000000000000009,0.925,-0.046,0.0209243778786034,0.0,0.0,0.0,0.0,0.0
1757931196.0402062,-6.229064937853835,0.0,0.0,0.0,0.0,0.0,-8.55,0.08999999999999986,-2.49,-0.0010000000000000009,0.9450000000000001,-0.045,0.02320935062146166,0.0,0.0,0.0,0.0,0.0
1757931196.100191,-7.290490381311807,0.0,0.0,0.0,0.0,0.0,-7.77,-0.3899999999999988,-2.8899999999999997,0.0040000000000000036,0.9750000000000001,-0.036,0.004795096186881924,0.0,0.0,0.0,0.0,0.0
1757931196.1598759,-6.393453683260713,0.0,0.0,0.0,0.0,0.0,-7.469999999999999,-0.4900000000000002,-2.51,-0.017,0.96,-0.027999999999999997,0.01076546316739286,0.0,0.0,0.0,0.0,0.0
1757931196.2198553,-6.835294434038667,0.0,0.0,0.0,0.0,0.0,-7.969999999999999,0.15000000000000036,-2.73,0.0020000000000000018,0.9530000000000001,-0.049,0.011347055659613315,0.0,0.0,0.0,0.0,0.0
1757931196.2699826,-6.639747736171909,0.0,0.0,0.0,0.0,0.0,-7.77,-0.3699999999999992,-2.63,0.0020000000000000018,0.9510000000000001,-0.031,0.011302522638280906,0.0,0.0,0.0,0.0,0.0
1757931196.329786,-4.694278432304586,0.0,0.0,0.0,0.0,0.0,-8.07,0.16999999999999993,-1.87,-0.027999999999999997,0.919,-0.03,0.033757215676954146,0.0,0.0,0.0,0.0,0.0
1757931196.3802276,-6.179097830589833,0.0,0.0,0.0,0.0,0.0,-8.189999999999998,-0.08999999999999986,-2.4699999999999998,-0.0040000000000000036,0.9410000000000001,-0.035,0.02010902169410165,0.0,0.0,0.0,0.0,0.0
1757931196.4399686,-7.532015002640395,0.0,0.0,0.0,0.0,0.0,-7.73,-0.129999999999999,-3.01,-0.025999999999999995,0.9490000000000001,-0.044,0.001979849973596055,0.0,0.0,0.0,0.0,0.0
1757931196.4998705,-6.777259770733301,0.0,0.0,0.0,0.0,0.0,-8.809999999999999,-0.07000000000000028,-2.71,0.012000000000000004,0.946,-0.043000000000000003,0.020327402292666975,0.0,0.0,0.0,0.0,0.0
1757931196.560333,-5.242256193663182,0.0,0.0,0.0,0.0,0.0,-8.189999999999998,0.16999999999999993,-2.09,-0.010999999999999996,0.9299999999999999,-0.041,0.02947743806336816,0.0,0.0,0.0,0.0,0.0
1757931196.6197662,-5.237007733429461,0.0,0.0,0.0,0.0,0.0,-8.149999999999999,-0.5899999999999999,-2.01,-0.02099999999999999,0.911,-0.052,0.029129922665705372,0.0,0.0,0.0,0.0,0.0
1757931196.669825,-4.2639477013678295,0.0,0.0,0.0,0.0,0.0,-8.029999999999998,0.23000000000000043,-1.69,-0.015,0.919,-0.03,0.03766052298632168,0.0,0.0,0.0,0.0,0.0
1757931196.7298849,-6.206548960573822,0.0,0.0,0.0,0.0,0.0,-7.989999999999998,0.25,-2.4699999999999998,0.0020000000000000018,0.9390000000000001,-0.041,0.017834510394261763,0.0,0.0,0.0,0.0,0.0
1757931196.7897573,-4.626688880830437,0.0,0.0,0.0,0.0,0.0,-7.689999999999998,-0.049999999999998934,-1.85,-0.008999999999999994,0.915,-0.028999999999999998,0.030633111191695612,0.0,0.0,0.0,0.0,0.0
1757931196.8397868,-5.833630944789017,0.0,0.0,0.0,0.0,0.0,-8.849999999999998,-0.33000000000000007,-2.31,-0.006999999999999992,0.909,-0.039,0.03016369055210981,0.0,0.0,0.0,0.0,0.0
1757931196.9002612,-5.826341047346954,0.0,0.0,0.0,0.0,0.0,-8.91,0.05000000000000071,-2.33,-0.0020000000000000018,0.938,-0.035,0.03083658952653046,0.0,0.0,0.0,0.0,0.0
1757931196.961661,-4.49513626044862,0.0,0.0,0.0,0.0,0.0,-8.209999999999997,0.4900000000000002,-1.73,0.006000000000000005,0.8900000000000001,-0.034,0.03714863739551378,0.0,0.0,0.0,0.0,0.0
1757931197.0197706,-6.758790572284363,0.0,0.0,0.0,0.0,0.0,-8.829999999999998,-0.2699999999999996,-2.69,0.0040000000000000036,0.933,-0.022000000000000006,0.02071209427715635,0.0,0.0,0.0,0.0,0.0
1757931197.0697944,-4.347556785138061,0.0,0.0,0.0,0.0,0.0,-8.029999999999998,-0.41000000000000014,-1.69,-0.012999999999999998,0.9410000000000001,-0.03,0.036824432148619364,0.0,0.0,0.0,0.0,0.0
1757931197.1198244,-5.952415476090358,0.0,0.0,0.0,0.0,0.0,-8.309999999999999,0.4900000000000002,-2.33,-0.010999999999999996,0.933,-0.046,0.02357584523909641,0.0,0.0,0.0,0.0,0.0
1757931197.1698499,-6.279430706680344,0.0,0.0,0.0,0.0,0.0,-8.009999999999998,0.33000000000000007,-2.49,0.0040000000000000036,0.9319999999999999,-0.052,0.01730569293319654,0.0,0.0,0.0,0.0,0.0
1757931197.2297776,-4.689482913925585,0.0,0.0,0.0,0.0,0.0,-8.29,-0.3099999999999987,-1.85,-0.0059999999999999915,0.915,-0.049,0.036005170860744146,0.0,0.0,0.0,0.0,0.0
1757931197.279782,-6.251499820043187,0.0,0.0,0.0,0.0,0.0,-8.529999999999998,0.23000000000000043,-2.49,0.009000000000000001,0.935,-0.055,0.022785001799568105,0.0,0.0,0.0,0.0,0.0
1757931197.3399518,-6.775415116433826,0.0,0.0,0.0,0.0,0.0,-8.09,0.030000000000001137,-2.71,-0.0020000000000000018,0.9590000000000001,-0.041,0.01314584883566174,0.0,0.0,0.0,0.0,0.0
1757931197.3901324,-6.546086617208788,0.0,0.0,0.0,0.0,0.0,-8.689999999999998,0.21000000000000085,-2.61,-0.017,0.94,-0.023000000000000007,0.0214391338279121,0.0,0.0,0.0,0.0,0.0
1757931197.4497597,-6.029199781065477,0.0,0.0,0.0,0.0,0.0,-8.39,0.08999999999999986,-2.41,0.0030000000000000027,0.938,-0.035,0.023608002189345233,0.0,0.0,0.0,0.0,0.0
1757931197.499941,-6.3510825848826755,0.0,0.0,0.0,0.0,0.0,-8.41,-0.23000000000000043,-2.5300000000000002,-0.013999999999999999,0.9510000000000001,-0.039,0.020589174151173246,0.0,0.0,0.0,0.0,0.0
1757931197.559816,-6.526197208175676,0.0,0.0,0.0,0.0,0.0,-8.05,-0.049999999999998934,-2.61,-0.016,0.948,-0.026999999999999996,0.015238027918243252,0.0,0.0,0.0,0.0,0.0
1757931197.6197798,-5.986756216850657,0.0,0.0,0.0,0.0,0.0,-8.309999999999999,0.15000000000000036,-2.3899999999999997,-0.0050000000000000044,0.954,-0.032,0.023232437831493417,0.0,0.0,0.0,0.0,0.0
1757931197.6698298,-7.117320422743379,0.0,0.0,0.0,0.0,0.0,-7.449999999999999,-0.3099999999999987,-2.83,-0.03,0.9790000000000001,-0.031,0.0033267957725662003,0.0,0.0,0.0,0.0,0.0
1757931197.729781,-5.402892743706836,0.0,0.0,0.0,0.0,0.0,-8.349999999999998,-0.5499999999999989,-2.09,-0.024999999999999994,0.923,-0.03,0.02947107256293162,0.0,0.0,0.0,0.0,0.0
1757931197.7797973,-6.322677439186661,0.0,0.0,0.0,0.0,0.0,-8.489999999999998,0.3100000000000005,-2.51,-0.0020000000000000018,0.956,-0.037,0.021673225608133374,0.0,0.0,0.0,0.0,0.0
1757931197.8300653,-7.514070135419284,0.0,0.0,0.0,0.0,0.0,-8.169999999999998,0.6699999999999999,-2.9299999999999997,0.006000000000000005,0.974,-0.047,0.006559298645807141,0.0,0.0,0.0,0.0,0.0
1757931197.8901634,-5.076539175461959,0.0,0.0,0.0,0.0,0.0,-8.369999999999997,-0.049999999999998934,-2.03,-0.0050000000000000044,0.9039999999999999,-0.016,0.03293460824538039,0.0,0.0,0.0,0.0,0.0
1757931197.9497645,-6.389150960808486,0.0,0.0,0.0,0.0,0.0,-8.689999999999998,-0.16999999999999993,-2.55,0.0020000000000000018,0.9299999999999999,-0.0050000000000000044,0.023008490391915118,0.0,0.0,0.0,0.0,0.0
1757931197.9997928,-6.455327257389821,0.0,0.0,0.0,0.0,0.0,-8.45,-1.0700000000000003,-2.3499999999999996,-0.025999999999999995,0.938,-0.020000000000000004,0.019946727426101783,0.0,0.0,0.0,0.0,0.0
1757931198.0597594,-6.143390757554008,0.0,0.0,0.0,0.0,0.0,-7.689999999999998,-0.1899999999999995,-2.45,0.0020000000000000018,0.927,-0.037,0.015466092424459897,0.0,0.0,0.0,0.0,0.0
1757931198.1097748,-6.013006735402846,0.0,0.0,0.0,0.0,0.0,-8.11,0.2699999999999996,-2.3899999999999997,-0.0040000000000000036,0.942,-0.039,0.020969932645971533,0.0,0.0,0.0,0.0,0.0
1757931198.1700907,-5.487371866385582,0.0,0.0,0.0,0.0,0.0,-8.55,0.33000000000000007,-2.17,0.018000000000000002,0.935,-0.023999999999999994,0.030626281336144184,0.0,0.0,0.0,0.0,0.0
1757931198.230072,-6.621272536302972,0.0,0.0,0.0,0.0,0.0,-8.369999999999997,-0.4499999999999993,-2.61,-0.011999999999999997,0.9219999999999999,-0.049,0.017487274636970255,0.0,0.0,0.0,0.0,0.0
1757931198.2897632,-7.343789893508663,0.0,0.0,0.0,0.0,0.0,-7.869999999999997,0.21000000000000085,-2.9299999999999997,-0.021999999999999992,0.9830000000000001,-0.042,0.005262101064913347,0.0,0.0,0.0,0.0,0.0
1757931198.3398871,-5.925052742381285,0.0,0.0,0.0,0.0,0.0,-8.07,-0.009999999999999787,-2.37,-0.0040000000000000036,0.9359999999999999,-0.037,0.02144947257618715,0.0,0.0,0.0,0.0,0.0
1757931198.3903642,-5.704055574764327,0.0,0.0,0.0,0.0,0.0,-7.829999999999998,-0.23000000000000043,-2.27,0.016,0.948,-0.020000000000000004,0.02125944425235671,0.0,0.0,0.0,0.0,0.0
1757931198.4498298,-6.670176159592788,0.0,0.0,0.0,0.0,0.0,-8.59,0.3100000000000005,-2.65,0.011000000000000003,0.9510000000000001,-0.03,0.019198238404072115,0.0,0.0,0.0,0.0,0.0
1757931198.4998379,-6.425437728279684,0.0,0.0,0.0,0.0,0.0,-8.629999999999999,0.030000000000001137,-2.57,0.0030000000000000027,0.933,-0.041,0.02204562271720315,0.0,0.0,0.0,0.0,0.0
1757931198.5597608,-7.017923482056497,0.0,0.0,0.0,0.0,0.0,-7.629999999999999,-0.3099999999999987,-2.79,-0.011999999999999997,0.976,-0.053,0.0061207651794350235,0.0,0.0,0.0,0.0,0.0
1757931198.6097717,-4.930136914934513,0.0,0.0,0.0,0.0,0.0,-7.57,0.08999999999999986,-1.97,-0.0050000000000000044,0.9179999999999999,-0.036,0.026398630850654872,0.0,0.0,0.0,0.0,0.0
1757931198.6597989,-8.136107791812988,0.0,0.0,0.0,0.0,0.0,-8.029999999999998,0.16999999999999993,-3.25,0.006000000000000005,0.966,-0.036,-0.0010610779181299001,0.0,0.0,0.0,0.0,0.0
1757931198.7197514,-6.088205811238644,0.0,0.0,0.0,0.0,0.0,-7.309999999999999,-0.34999999999999964,-2.41,-0.010999999999999996,0.935,-0.024999999999999994,0.01221794188761355,0.0,0.0,0.0,0.0,0.0
1757931198.7698624,-5.932642750073527,0.0,0.0,0.0,0.0,0.0,-8.11,0.33000000000000007,-2.3499999999999996,-0.0050000000000000044,0.9510000000000001,-0.032,0.02177357249926472,0.0,0.0,0.0,0.0,0.0
1757931198.8298342,-4.586529188831136,0.0,0.0,0.0,0.0,0.0,-7.669999999999998,-0.129999999999999,-1.83,-0.021999999999999992,0.9179999999999999,-0.034,0.030834708111688622,0.0,0.0,0.0,0.0,0.0
1757931198.8897493,-5.151820066733697,0.0,0.0,0.0,0.0,0.0,-7.869999999999997,-0.20999999999999908,-2.05,-0.015,0.917,-0.035,0.027181799332663008,0.0,0.0,0.0,0.0,0.0
1757931198.9400363,-7.59317127424372,0.0,0.0,0.0,0.0,0.0,-8.55,0.21000000000000085,-3.0300000000000002,0.0010000000000000009,0.9410000000000001,-0.03,0.009568287257562806,0.0,0.0,0.0,0.0,0.0
1757931198.999831,-5.076539175461959,0.0,0.0,0.0,0.0,0.0,-8.809999999999999,-0.049999999999998934,-2.03,-0.012999999999999998,0.9139999999999999,-0.041,0.037334608245380395,0.0,0.0,0.0,0.0,0.0
1757931199.0597658,-6.07134663810262,0.0,0.0,0.0,0.0,0.0,-7.649999999999999,-0.5299999999999994,-2.37,-0.017,0.933,-0.046,0.015786533618973787,0.0,0.0,0.0,0.0,0.0
1757931199.1097853,-5.554840231725842,0.0,0.0,0.0,0.0,0.0,-8.29,0.23000000000000043,-2.21,-0.010999999999999996,0.96,-0.047,0.027351597682741577,0.0,0.0,0.0,0.0,0.0
1757931199.1698065,-7.478385520953036,0.0,0.0,0.0,0.0,0.0,-8.39,0.08999999999999986,-2.99,0.0010000000000000009,0.9690000000000001,-0.038,0.00911614479046965,0.0,0.0,0.0,0.0,0.0
1757931199.229745,-5.675055065812137,0.0,0.0,0.0,0.0,0.0,-7.93,0.009999999999999787,-2.27,0.0020000000000000018,0.966,-0.027999999999999997,0.022549449341878632,0.0,0.0,0.0,0.0,0.0
1757931199.2797823,-4.982594705572589,0.0,0.0,0.0,0.0,0.0,-8.29,-0.10999999999999943,-1.99,-0.0050000000000000044,0.9099999999999999,-0.024999999999999994,0.033074052944274096,0.0,0.0,0.0,0.0,0.0
1757931199.340138,-6.385236878926262,0.0,0.0,0.0,0.0,0.0,-8.43,0.34999999999999964,-2.5300000000000002,0.0020000000000000018,0.927,-0.015,0.020447631210737373,0.0,0.0,0.0,0.0,0.0
1757931199.4005454,-7.800080127793559,0.0,0.0,0.0,0.0,0.0,-7.829999999999998,-0.25,-3.11,0.006000000000000005,0.966,-0.013999999999999999,0.000299198722064391,0.0,0.0,0.0,0.0,0.0
1757931199.4598215,-6.3112003612625065,0.0,0.0,0.0,0.0,0.0,-8.689999999999998,-0.2699999999999996,-2.51,0.006000000000000005,0.938,-0.008999999999999994,0.023787996387374912,0.0,0.0,0.0,0.0,0.0
1757931199.5100384,-6.90153968328807,0.0,0.0,0.0,0.0,0.0,-8.509999999999998,-0.41000000000000014,-2.73,-0.033,0.921,0.010999999999999996,0.01608460316711928,0.0,0.0,0.0,0.0,0.0
1757931199.5698783,-7.407175575075833,0.0,0.0,0.0,0.0,0.0,-8.649999999999999,0.8100000000000005,-2.8499999999999996,-0.0030000000000000027,0.9470000000000001,-0.044,0.012428244249241658,0.0,0.0,0.0,0.0,0.0
1757931199.6298745,-5.295871033172919,0.0,0.0,0.0,0.0,0.0,-7.25,-0.4499999999999993,-2.07,-0.027999999999999997,0.905,-0.051000000000000004,0.019541289668270814,0.0,0.0,0.0,0.0,0.0
1757931199.6799817,-6.1754554487908,0.0,0.0,0.0,0.0,0.0,-4.57,0.030000000000001137,-2.4699999999999998,0.062,0.843,-0.023999999999999994,-0.016054554487908,0.0,0.0,0.0,0.0,0.0
1757931199.7404335,-7.178527007680615,0.0,0.0,0.0,0.0,0.0,-3.0500000000000007,1.4299999999999997,-2.49,0.10300000000000001,0.839,-0.012999999999999998,-0.041285270076806144,0.0,0.0,0.0,0.0,0.0
1757931199.799833,-4.587619208260425,0.0,0.0,0.0,0.0,0.0,-0.3099999999999987,0.9500000000000011,-1.5699999999999998,0.178,0.758,-0.048,-0.04277619208260426,0.0,0.0,0.0,0.0,0.0
