time,lam_star_Fx,lam_star_Fy,lam_star_Fz,lam_star_Tx,lam_star_Ty,lam_star_Tz,meas_Fx,meas_Fy,meas_Fz,meas_Tx,meas_Ty,men_tas_Tz,v_final_Fx,v_final_Fy,v_final_Fz,v_final_Tx,v_final_Ty,v_final_Tz,v_object_x
1757904944.903352,0.0,-4.0,0.0,0.0,0.0,0.0,-1.1744734249268216,-5.877752626412078,0.1307406937845638,0.8998628419136567,-0.5878458947319332,-2.5992446810093273,0.0,0.001877752626412078,2.3259182457091394,0.0,0.0,0.0,-3.367750642200668
1757904944.9629545,0.0,-4.0,0.0,0.0,0.0,0.0,-1.2193080825180957,-5.9101115564132645,0.14084499328875197,0.9110583669252528,-0.6104447696133084,-2.633567809539522,0.0,0.0019101115564132646,2.4847267937769777,0.0,0.0,0.0,-3.642655367427398
1757904945.0229278,0.0,-4.0,0.0,0.0,0.0,0.0,-1.146587068260093,-5.9168218252887606,0.11816181921154384,0.926055707530252,-0.5654207222254769,-2.5991435080667045,0.0,0.0019168218252887605,2.3155063947665884,0.0,0.0,0.0,-2.249997782918118
1757904945.0828722,0.0,-4.0,0.0,0.0,0.0,0.0,-1.1554182087360447,-5.874361950528526,0.09804856087063768,0.9178220560302269,-0.5648897882201642,-2.586526941306965,0.0,0.0018743619505285256,2.3349414582936165,0.0,0.0,0.0,-3.5872498783862254
1757904945.133505,0.0,-4.0,0.0,0.0,0.0,0.0,-1.163449460413594,-6.007013370454342,0.024952703618794,1.021103138126282,-0.5393362340055404,-2.6372402203142937,0.0,0.0020070133704543414,2.416402695392545,0.0,0.0,0.0,-3.794918976893208
1757904945.1931276,0.0,-10.829913913329003,0.0,0.0,0.0,0.0,-2.5188934913382983,-5.479084541936364,3.5243582732906567,-0.691140413327349,-2.505149483268185,-3.367255110935335,0.0,-0.005350829371392639,2.299468036607119,0.0,0.0,0.0,-5.915288884608481
1757904945.2529297,0.0,-6.220649740581014,0.0,0.0,0.0,0.0,0.8540328938859328,-6.946379789181344,2.3371061437939273,1.1536419821007025,-0.4944552780492919,-2.441126255349609,0.0,0.0007257300486003295,2.6637831305762187,0.0,0.0,0.0,-5.486222434456509
1757904945.3040223,0.0,-7.550838898944587,0.0,0.0,0.0,0.0,1.3839293983822074,-6.7764218046789635,2.6846166044230255,1.2180868336098694,-0.3557834827855418,-2.3437476225093095,0.0,-0.0007744170942656234,2.504751613805622,0.0,0.0,0.0,-5.25259883624625
1757904945.3549786,0.0,-9.965112774870525,0.0,0.0,0.0,0.0,1.569734442633677,-7.979824216476452,3.663944513519764,1.5052696348981278,-0.6474844037019964,-2.816884520711809,0.0,-0.001985288558394073,2.9040116002237015,0.0,0.0,0.0,-6.830223517660887
1757904945.4150276,0.0,-10.148650736223933,0.0,0.0,0.0,0.0,1.3880401547087136,-8.556586828743322,3.814782092263408,1.917592096973735,-0.7729195077457378,-3.240242834570136,0.0,-0.0015920639074806112,3.1064554554844652,0.0,0.0,0.0,-7.563025721438058
1757904945.4729614,0.0,-10.993190617456504,0.0,0.0,0.0,0.0,1.552972246161415,-9.391902378318033,4.113917305310083,2.192367197599289,-0.8077971644713471,-3.4612602763354188,0.0,-0.0016012882391384712,3.0600973634801067,0.0,0.0,0.0,-6.483637759815208
1757904945.5230515,0.0,-11.43498582285421,0.0,0.0,0.0,0.0,1.7395161768649743,-8.898734142577421,4.230308214946678,1.9172608618498264,-0.7536161431100977,-3.1762578436296534,0.0,-0.0025362516802767895,2.968996330286964,0.0,0.0,0.0,-7.05685341723962
1757904945.5833046,0.0,-11.724552527054756,0.0,0.0,0.0,0.0,1.286655355873937,-9.01872223419526,4.509871296250869,1.9075691395730119,-1.0706977807115197,-3.4151991086763935,0.0,-0.0027058302928594955,3.0541559833163445,0.0,0.0,0.0,-7.944050162997387
1757904945.633712,0.0,-11.715722244331609,0.0,0.0,0.0,0.0,1.6618871417476333,-7.538759943463141,4.381715960797337,1.3392980163527537,-0.8082998930518908,-2.6570742833845444,0.0,-0.0041769623008684675,2.737929767031318,0.0,0.0,0.0,-7.763692495782693
1757904945.6930637,0.0,-11.257800504624415,0.0,0.0,0.0,0.0,1.2630681515677722,-7.114333132289582,4.322354728247399,1.2389351513070739,-0.9775016437625319,-2.6787605173401308,0.0,-0.004143467372334833,0.0,0.0,0.0,0.0,0.0
1757904945.753061,0.0,-10.800297738301433,0.0,0.0,0.0,0.0,1.5353007724961414,-6.964353844899636,4.0381035815994375,1.3891038566449454,-0.7314454311983151,-2.4908049274113555,0.0,-0.0038359438934017975,0.0,0.0,0.0,0.0,0.0
1757904945.8032916,0.0,-12.824961956155917,0.0,0.0,0.0,0.0,0.600796601313898,-6.767112730750796,5.094682258212491,0.5851270462972895,-1.5877100526455612,-2.9525640284560684,0.0,-0.006057849225405121,0.0,0.0,0.0,0.0,0.0
1757904945.8635917,0.0,-11.959083057245788,0.0,0.0,0.0,0.0,2.128557281174513,-9.002551445646544,4.28396903723352,2.185733492916173,-0.5243551117800536,-2.9379133800834802,0.0,-0.0029565316115992444,0.0,0.0,0.0,0.0,0.0
1757904945.9229805,0.0,-12.072315630768967,0.0,0.0,0.0,0.0,1.9612210179045446,-8.526863729290916,4.412724880292773,1.8744427815549567,-0.6527045330453343,-2.874416389405339,0.0,-0.0035454519014780513,0.0,0.0,0.0,0.0,0.0
1757904945.9732065,0.0,-12.334677521825016,0.0,0.0,0.0,0.0,2.52327866757962,-9.039702544845523,4.239828757924555,2.215150145064158,-0.2963221892795228,-2.751411617074363,0.0,-0.003294974976979493,0.0,0.0,0.0,0.0,0.0
1757904946.023797,0.0,-12.064699015392373,0.0,0.0,0.0,0.0,1.9026630066381913,-9.631178890178585,4.434973219343276,2.4413084732657224,-0.6908793520600003,-3.3003269937812005,0.0,-0.0024335201252137875,0.0,0.0,0.0,0.0,0.0
1757904946.0830238,0.0,-12.18181541284791,0.0,0.0,0.0,0.0,2.273565791548375,-10.137875064801047,4.309798008251993,2.772549082792233,-0.45204601744580486,-3.292127341503254,0.0,-0.0020439403480468636,0.0,0.0,0.0,0.0,0.0
1757904946.1339848,0.0,-12.329706805635263,0.0,0.0,0.0,0.0,2.2951230694666784,-10.515007234544228,4.365303801806974,2.928636338405466,-0.4632263090036388,-3.4198896590117105,0.0,-0.001814699571091035,0.0,0.0,0.0,0.0,0.0
1757904946.194209,0.0,-12.268835228950742,0.0,0.0,0.0,0.0,2.232238139598272,-10.367323081910872,4.370469511179056,2.8633285032310987,-0.501479357241287,-3.3987494962252627,0.0,-0.0019015121470398705,0.0,0.0,0.0,0.0,0.0
1757904946.2533255,0.0,-12.419494141965057,0.0,0.0,0.0,0.0,2.379668694792689,-9.904758566230779,4.360755721407972,2.645586211329356,-0.41946439974406463,-3.1272073559001954,0.0,-0.002514735575734278,0.0,0.0,0.0,0.0,0.0
1757904946.3129528,0.0,-12.190737672140516,0.0,0.0,0.0,0.0,2.3236149474841703,-9.198215804142047,4.287081428475496,2.3584043242542503,-0.41758678348855305,-2.87327067086054,0.0,-0.0029925218679984697,0.0,0.0,0.0,0.0,0.0
1757904946.3643067,0.0,-12.26927166820703,0.0,0.0,0.0,0.0,2.5027647180948263,-9.160835860306168,4.221584196576277,2.3847380037038253,-0.3014024047945725,-2.76546040156292,0.0,-0.0031084358079008626,0.0,0.0,0.0,0.0,0.0
1757904946.4268594,0.0,-12.3316376264818,0.0,0.0,0.0,0.0,2.3146068968045985,-9.104427768318631,4.355878873591696,2.312636469030229,-0.4446505142198036,-2.844464672985038,0.0,-0.0032272098581631694,0.0,0.0,0.0,0.0,0.0
1757904946.4829226,0.0,-12.523738006735426,0.0,0.0,0.0,0.0,2.3909650556004576,-9.469017534806078,4.402082267372273,2.475105442262214,-0.4244076051919853,-2.948585983567959,0.0,-0.003054720471929349,0.0,0.0,0.0,0.0,0.0
1757904946.5332675,0.0,-12.377202571670615,0.0,0.0,0.0,0.0,2.369008632684466,-9.574421208504003,4.347300433406188,2.561791446374474,-0.41758391922890814,-2.999910351492156,0.0,-0.002802781363166613,0.0,0.0,0.0,0.0,0.0
1757904946.594597,0.0,-12.511793449556073,0.0,0.0,0.0,0.0,2.50365282227378,-9.945428033266078,4.3334649643694165,2.7520838465455695,-0.34516679708978015,-3.0684497099916617,0.0,-0.0025663654162899957,0.0,0.0,0.0,0.0,0.0
1757904946.6529264,0.0,-12.505518458244007,0.0,0.0,0.0,0.0,2.315249490476936,-10.108023300996212,4.4341513846917024,2.7780991179749357,-0.4811378232165237,-3.2366038767230947,0.0,-0.0023974951572477946,0.0,0.0,0.0,0.0,0.0
1757904946.7030687,0.0,-12.50335878161231,0.0,0.0,0.0,0.0,2.323493619944022,-10.204164127957828,4.428861516186174,2.819981541379011,-0.48170941176240967,-3.26552575534906,0.0,-0.0022991946536544817,0.0,0.0,0.0,0.0,0.0
1757904946.7630446,0.0,-12.492789327521287,0.0,0.0,0.0,0.0,2.441416503476376,-10.100242281830653,4.3601205356785675,2.811031147999213,-0.39369570018646455,-3.1585521242008925,0.0,-0.002392547045690634,0.0,0.0,0.0,0.0,0.0
1757904946.8230598,0.0,-12.318461485499421,0.0,0.0,0.0,0.0,2.5080609805370035,-9.323482134631782,4.2413145435189055,2.5091792790485496,-0.30860777967471326,-2.80805140484886,0.0,-0.0029949793508676397,0.0,0.0,0.0,0.0,0.0
1757904946.8743765,0.0,-12.371663999503161,0.0,0.0,0.0,0.0,2.3704952191060844,-9.023486956435569,4.3439663482641775,2.3089217310344106,-0.4190828831359083,-2.7651780099074963,0.0,-0.003348177043067592,0.0,0.0,0.0,0.0,0.0
1757904946.9335885,0.0,-12.53562973341307,0.0,0.0,0.0,0.0,2.416235283698921,-8.978924662778752,4.393691967346502,2.261630382336972,-0.4117848985397218,-2.732736237642227,0.0,-0.003556705070634319,0.0,0.0,0.0,0.0,0.0
1757904946.9930732,0.0,-12.61418299616721,0.0,0.0,0.0,0.0,2.5196166486201816,-9.491669780751746,4.371538627271072,2.5457261808413008,-0.3537968145011638,-2.8714003660651715,0.0,-0.003122513215415465,0.0,0.0,0.0,0.0,0.0
1757904947.0528898,0.0,-12.627328222442937,0.0,0.0,0.0,0.0,2.5368136379117012,-9.819994976756195,4.367663385893403,2.701070608478171,-0.3449638331023765,-2.987688086289085,0.0,-0.002807333245686742,0.0,0.0,0.0,0.0,0.0
1757904947.1030498,0.0,-12.531983101417273,0.0,0.0,0.0,0.0,2.465159233475625,-9.86394329553049,4.364754978951645,2.725575603163401,-0.3813539734098235,-3.042208695095982,0.0,-0.0026680398058867836,0.0,0.0,0.0,0.0,0.0
1757904947.1632,0.0,-12.4992816470533,0.0,0.0,0.0,0.0,2.513992520878413,-10.146444738339436,4.32168581409449,2.8785377491198307,-0.3451382152684004,-3.114381109794614,0.0,-0.0023528369087138633,0.0,0.0,0.0,0.0,0.0
1757904947.2230098,0.0,-12.62941463040641,0.0,0.0,0.0,0.0,2.5574841654006106,-9.639937452695506,4.356559763024134,2.6022739944043987,-0.3315577158662586,-2.896896682766733,0.0,-0.0029894771777109045,0.0,0.0,0.0,0.0,0.0
1757904947.2730644,0.0,-12.434132071583086,0.0,0.0,0.0,0.0,2.4314239525278887,-9.475307536020395,4.338824728292794,2.5382002234134764,-0.3913283980996307,-2.8949135725867854,0.0,-0.002958824535562691,0.0,0.0,0.0,0.0,0.0
1757904947.323171,0.0,-12.604778386773798,0.0,0.0,0.0,0.0,2.453002778071915,-9.228324697843945,4.404957148431781,2.3817748133027212,-0.40625538933203714,-2.786622582469526,0.0,-0.0033764536889298534,0.0,0.0,0.0,0.0,0.0
1757904947.3829052,0.0,-12.50644066971366,0.0,0.0,0.0,0.0,2.5071875276963165,-9.656639116628462,4.328946756079924,2.6376033760490682,-0.35096831643465415,-2.923354132747579,0.0,-0.002849801553085198,0.0,0.0,0.0,0.0,0.0
1757904947.4332037,0.0,-12.708951820509244,0.0,0.0,0.0,0.0,2.5005724537509875,-9.93625853028745,4.4260513354123905,2.7176926873237166,-0.3908650052694263,-3.041245464678183,0.0,-0.0027726932902217938,0.0,0.0,0.0,0.0,0.0
1757904947.4934392,0.0,-12.647348618693531,0.0,0.0,0.0,0.0,2.5764530563844557,-10.281748704131227,4.353706235093299,2.9225486283635225,-0.3286554254603416,-3.1239078818142634,0.0,-0.0023655999145623047,0.0,0.0,0.0,0.0,0.0
1757904947.553333,0.0,-12.62279846391623,0.0,0.0,0.0,0.0,2.4178930782539307,-9.90946319761576,4.43253873438632,2.693087909587918,-0.4368770029739375,-3.0668111904636723,0.0,-0.0027133352663004685,0.0,0.0,0.0,0.0,0.0
1757904947.6038187,0.0,-12.591651738399234,0.0,0.0,0.0,0.0,2.6175837759665552,-9.883522756810557,4.30304614615947,2.740338814556072,-0.28197862823451547,-2.949184953763863,0.0,-0.0027081289815886773,0.0,0.0,0.0,0.0,0.0
1757904947.6633735,0.0,-12.562670014239664,0.0,0.0,0.0,0.0,2.4293829160769955,-9.867960659660266,4.398796097677348,2.69710801133965,-0.4146929678185056,-3.0366587749464453,0.0,-0.0026947093545793984,0.0,0.0,0.0,0.0,0.0
1757904947.7231846,0.0,-12.405782274598428,0.0,0.0,0.0,0.0,2.519304238102313,-9.71197895280106,4.275237487092175,2.693633877165686,-0.31911539483222906,-2.930181296928289,0.0,-0.0026938033217973685,0.0,0.0,0.0,0.0,0.0
1757904947.782933,0.0,-12.636583506680147,0.0,0.0,0.0,0.0,2.556884204938935,-9.745776360478464,4.360236461241742,2.6539924234110894,-0.3327100492548554,-2.933345593127871,0.0,-0.0028908071462016827,0.0,0.0,0.0,0.0,0.0
1757904947.8332164,0.0,-12.640648787581691,0.0,0.0,0.0,0.0,2.5955423299725706,-10.028750520264193,4.339230380687229,2.806013690421041,-0.3090167386542351,-3.018802253159427,0.0,-0.002611898267317498,0.0,0.0,0.0,0.0,0.0
1757904947.8930066,0.0,-12.682078953203725,0.0,0.0,0.0,0.0,2.6587927619610423,-10.189460995351427,4.320236255228462,2.9008951041906066,-0.26878092609779847,-3.0451034797071657,0.0,-0.0024926179578522983,0.0,0.0,0.0,0.0,0.0
1757904947.9431038,0.0,-12.443798828479324,0.0,0.0,0.0,0.0,2.5237955634234988,-9.577180910430805,4.290239694869042,2.607363846046315,-0.32953218093358383,-2.864423604861552,0.0,-0.002866617918048519,0.0,0.0,0.0,0.0,0.0
1757904948.0031972,0.0,-12.360298503840419,0.0,0.0,0.0,0.0,2.5664756627491805,-9.225172392099106,4.225815818177894,2.468351422275482,-0.2830384586594765,-2.7047272995480753,0.0,-0.0031351261117413126,0.0,0.0,0.0,0.0,0.0
1757904948.0632339,0.0,-12.517499366922248,0.0,0.0,0.0,0.0,2.5378651154156193,-9.298462586899277,4.3161657892277825,2.46554024974382,-0.3297148030508898,-2.7463054544462135,0.0,-0.0032190367800229718,0.0,0.0,0.0,0.0,0.0
1757904948.123271,0.0,-12.558687833175336,0.0,0.0,0.0,0.0,2.5777669150482496,-9.709504228796382,4.311660949827344,2.687241999305587,-0.30548779392589737,-2.890561428843731,0.0,-0.002849183604378954,0.0,0.0,0.0,0.0,0.0
1757904948.1829379,0.0,-12.596844922932403,0.0,0.0,0.0,0.0,2.6227916611554587,-10.618060993988804,4.302306849140197,3.120871393713525,-0.2830311594459426,-3.2240026080604984,0.0,-0.0019787839289435996,0.0,0.0,0.0,0.0,0.0
1757904948.2332585,0.0,-12.584511465952497,0.0,0.0,0.0,0.0,2.5334621981552727,-10.811961557511424,4.349799754516136,3.1801041519544353,-0.34817047780826327,-3.3569037430104194,0.0,-0.0017725499084410732,0.0,0.0,0.0,0.0,0.0
1757904948.2929146,0.0,-12.581414675229187,0.0,0.0,0.0,0.0,2.4884087898406313,-10.508352779763653,4.374304622617801,3.0019326330490195,-0.3831712615744288,-3.2468689307062495,0.0,-0.002073061895465534,0.0,0.0,0.0,0.0,0.0
1757904948.342997,0.0,-12.551112330792385,0.0,0.0,0.0,0.0,2.5592239987539376,-9.94197919175232,4.319171198578369,2.755333624822274,-0.3210098656906854,-2.996923821540887,0.0,-0.0026091331390400646,0.0,0.0,0.0,0.0,0.0
1757904948.3934004,0.0,-12.474690154487408,0.0,0.0,0.0,0.0,2.6398439659336432,-10.157266672786974,4.234393338791066,2.9218105677296657,-0.2478296419152009,-3.0228265019304295,0.0,-0.002317423481700434,0.0,0.0,0.0,0.0,0.0
1757904948.4531324,0.0,-12.509614174040301,0.0,0.0,0.0,0.0,2.648878486457193,-9.60668488079523,4.245222520589499,2.653113856230146,-0.24799770425159037,-2.805592779771951,0.0,-0.0029029292932450713,0.0,0.0,0.0,0.0,0.0
1757904948.5032766,0.0,-12.51269127503988,0.0,0.0,0.0,0.0,2.677713684064587,-9.64400048367881,4.228550614251499,2.685184055360698,-0.22489764947612484,-2.8096803353908184,0.0,-0.002868690791361072,0.0,0.0,0.0,0.0,0.0
1757904948.5635376,0.0,-12.700062927996338,0.0,0.0,0.0,0.0,2.609263666287638,-9.50687431310962,4.35871527629437,2.547355130121139,-0.3115115339759187,-2.7925917622117837,0.0,-0.003193188614886719,0.0,0.0,0.0,0.0,0.0
1757904948.6230774,0.0,-12.629574141602232,0.0,0.0,0.0,0.0,2.5851653010645914,-9.468668139100663,4.340265342797381,2.5475935166176735,-0.3131058078537943,-2.785616282751566,0.0,-0.0031609060025015695,0.0,0.0,0.0,0.0,0.0
1757904948.6731935,0.0,-12.749361525880984,0.0,0.0,0.0,0.0,2.706142726267448,-9.413033898021226,4.322520865870756,2.5276133782272323,-0.24424795037346267,-2.6991553460045026,0.0,-0.0033363276278597577,0.0,0.0,0.0,0.0,0.0
1757904948.7330034,0.0,-12.714039478752053,0.0,0.0,0.0,0.0,2.7054868771400913,-9.446418457820748,4.306254606544448,2.543770591594999,-0.24347971748997407,-2.7121627405363973,0.0,-0.003267621020931305,0.0,0.0,0.0,0.0,0.0
1757904948.7932034,0.0,-12.682294729592757,0.0,0.0,0.0,0.0,2.7146254721857375,-10.053959094188022,4.285475992591881,2.857267269349045,-0.23336987234142456,-2.9406905086378297,0.0,-0.0026283356354047348,0.0,0.0,0.0,0.0,0.0
1757904948.8432763,0.0,-12.720815171717359,0.0,0.0,0.0,0.0,2.7275859094383614,-10.431920387089088,4.295501983227622,3.0262375060823867,-0.23290424638281348,-3.078972587514803,0.0,-0.002288894784628271,0.0,0.0,0.0,0.0,0.0
1757904948.9035525,0.0,-12.786650465315953,0.0,0.0,0.0,0.0,2.778481230490576,-10.59023620050095,4.294157760417976,3.099481312441905,-0.20708726984653314,-3.118534776417733,0.0,-0.0021964142648150027,0.0,0.0,0.0,0.0,0.0
1757904948.9634943,0.0,-12.683410453510694,0.0,0.0,0.0,0.0,2.701287226983087,-10.640048655310624,4.294423294750288,3.1180715332534983,-0.2438049328486978,-3.1817382233261595,0.0,-0.0020433617982000703,0.0,0.0,0.0,0.0,0.0
1757904949.0229862,0.0,-12.58331387427926,0.0,0.0,0.0,0.0,2.634966111210355,-10.289011939968344,4.288510193779841,2.9301211453410874,-0.2796134545647511,-3.0735215062129746,0.0,-0.002294301934310916,0.0,0.0,0.0,0.0,0.0
1757904949.0730503,0.0,-12.702545891229557,0.0,0.0,0.0,0.0,2.725016870488704,-10.140830562292699,4.288476488749684,2.8593870669791928,-0.22910266728882356,-2.960695895282402,0.0,-0.002561715328936858,0.0,0.0,0.0,0.0,0.0
1757904949.1330113,0.0,-12.794069658848205,0.0,0.0,0.0,0.0,2.763936122049886,-10.039081931450008,4.307060721989124,2.817461426900749,-0.21233204042956952,-2.9024585859746685,0.0,-0.0027549877273981968,0.0,0.0,0.0,0.0,0.0
1757904949.1931243,0.0,-12.73349545589189,0.0,0.0,0.0,0.0,2.6886157500838914,-9.79061406402377,4.325973924151178,2.6906499090846703,-0.2587983326035818,-2.850994743789853,0.0,-0.0029428813918681183,0.0,0.0,0.0,0.0,0.0
1757904949.2528841,0.0,-12.762480570502467,0.0,0.0,0.0,0.0,2.8095815889861644,-9.805824015187211,4.262299490277807,2.743619589495384,-0.1685678767752013,-2.785711023680212,0.0,-0.002956656555315256,0.0,0.0,0.0,0.0,0.0
1757904949.3037167,0.0,-12.75920088360997,0.0,0.0,0.0,0.0,2.7202079012193057,-9.259062890846112,4.318335573374795,2.440516828615872,-0.23435894189005346,-2.6293223855477343,0.0,-0.0035001379927638594,0.0,0.0,0.0,0.0,0.0
1757904949.3637269,0.0,-12.843875657255891,0.0,0.0,0.0,0.0,2.695411718144097,-9.931076116324114,4.3736916184774115,2.747063020604824,-0.2698018652354517,-2.9019924597121016,0.0,-0.0029127995409317774,0.0,0.0,0.0,0.0,0.0
1757904949.4241092,0.0,-12.806392716232306,0.0,0.0,0.0,0.0,2.745132942580187,-10.267024658719134,4.324908811979728,2.9384305665118937,-0.22677803782380462,-3.0116629398037023,0.0,-0.0025393680575131724,0.0,0.0,0.0,0.0,0.0
1757904949.483129,0.0,-12.731669320450981,0.0,0.0,0.0,0.0,2.8222560237877508,-10.6247016328954,4.2391196640156075,3.15005642849795,-0.15790126413682753,-3.1083111394701803,0.0,-0.0021069676875555814,0.0,0.0,0.0,0.0,0.0
1757904949.533507,0.0,-12.887629980409969,0.0,0.0,0.0,0.0,2.693400224806242,-10.660196748393098,4.3954699715647685,3.077468877979168,-0.285747177903692,-3.1813509003051954,0.0,-0.002227433232016871,0.0,0.0,0.0,0.0,0.0
1757904949.5933192,0.0,-12.753229452536816,0.0,0.0,0.0,0.0,2.7657375626314997,-10.170287007239985,4.286475658358224,2.8858170300593833,-0.19596174958417117,-2.958364812751197,0.0,-0.0025829424452968315,0.0,0.0,0.0,0.0,0.0
1757904949.644403,0.0,-12.820510945493435,0.0,0.0,0.0,0.0,2.698766988373819,-10.125859722549295,4.3606349178790955,2.8337455316251994,-0.2610552767574001,-2.9736606010396947,0.0,-0.00269465122294414,0.0,0.0,0.0,0.0,0.0
1757904949.703914,0.0,-12.943482498687441,0.0,0.0,0.0,0.0,2.7691486965099243,-9.981153908464787,4.374610127500493,2.7555059062760536,-0.2294619519257173,-2.8761921617638393,0.0,-0.0029623285902226544,0.0,0.0,0.0,0.0,0.0
1757904949.7631412,0.0,-12.913762476843281,0.0,0.0,0.0,0.0,2.807866488311596,-9.794260809263518,4.335703817507463,2.6975638581141332,-0.1944046920772065,-2.781272905028091,0.0,-0.003119501667579764,0.0,0.0,0.0,0.0,0.0
1757904949.813176,0.0,-12.85495295912436,0.0,0.0,0.0,0.0,2.764899024991453,-9.560692680014988,4.335355103634457,2.593581791764783,-0.21284998202908292,-2.7108287517511744,0.0,-0.0032942602791093717,0.0,0.0,0.0,0.0,0.0
1757904949.8648758,0.0,-12.921294576330137,0.0,0.0,0.0,0.0,2.7540723163255043,-9.746911502424783,4.37363261385513,2.6602722829140455,-0.23569362978906855,-2.7858112627996094,0.0,-0.0031743830739053534,0.0,0.0,0.0,0.0,0.0
1757904949.9238005,0.0,-12.742762592455943,0.0,0.0,0.0,0.0,2.607888983595921,-9.716106331221784,4.379428593694634,2.6435335321240445,-0.312838868481627,-2.8644660119964724,0.0,-0.003026656261234159,0.0,0.0,0.0,0.0,0.0
1757904949.9830472,0.0,-12.899731497855083,0.0,0.0,0.0,0.0,2.7529967062366922,-10.34557931007728,4.364115118799074,2.954494396646177,-0.2303077140942942,-3.0324548704857337,0.0,-0.0025541521877778025,0.0,0.0,0.0,0.0,0.0
1757904950.0429816,0.0,-12.967370827570615,0.0,0.0,0.0,0.0,2.8073157757023877,-10.561632195398424,4.361583556949152,3.0527720974593167,-0.20664191346468702,-3.078550673662495,0.0,-0.0024057386321721915,0.0,0.0,0.0,0.0,0.0
1757904950.0932848,0.0,-12.950407798727746,0.0,0.0,0.0,0.0,2.864574241257412,-10.606863875749772,4.316051941399717,3.1026258691487434,-0.15922084173266957,-3.0629401288125804,0.0,-0.0023435439229779736,0.0,0.0,0.0,0.0,0.0
1757904950.153087,0.0,-12.877696852039229,0.0,0.0,0.0,0.0,2.744227609264955,-10.30069717654786,4.359223213214864,2.93525176198746,-0.23666373175807956,-3.0016308322181464,0.0,-0.0025769996754913685,0.0,0.0,0.0,0.0,0.0
1757904950.2038267,0.0,-12.859781210987506,0.0,0.0,0.0,0.0,2.7927914854747353,-10.469750053011195,4.319739733568978,3.0338495735312305,-0.1954738709068207,-3.0406890609877424,0.0,-0.0023900311579763116,0.0,0.0,0.0,0.0,0.0
1757904950.263207,0.0,-12.990528129534512,0.0,0.0,0.0,0.0,2.8871932642741482,-10.341872652592865,4.320269254132939,2.9618410723558712,-0.15396556113184784,-2.9423127604769954,0.0,-0.002648655476941647,0.0,0.0,0.0,0.0,0.0
1757904950.3230753,0.0,-12.992555931185748,0.0,0.0,0.0,0.0,2.743459247873166,-9.600574547954569,4.413895433203828,2.559124910222379,-0.2598447363422452,-2.7369666459869424,0.0,-0.0033919813832311795,0.0,0.0,0.0,0.0,0.0
1757904950.3829465,0.0,-13.004691401395183,0.0,0.0,0.0,0.0,2.8255048313433675,-9.818327749679103,4.367612871963217,2.6919781475008033,-0.19820131839362076,-2.776730224985469,0.0,-0.00318636365171608,0.0,0.0,0.0,0.0,0.0
1757904950.4347167,0.0,-13.083788778722498,0.0,0.0,0.0,0.0,2.8754779829716455,-9.987160886443753,4.372792126141063,2.7923309212809255,-0.1744175056544977,-2.8125999945635876,0.0,-0.003096627892278745,0.0,0.0,0.0,0.0,0.0
1757904950.4930987,0.0,-12.983583932264848,0.0,0.0,0.0,0.0,2.8040203124243996,-9.738748615816593,4.371409654070175,2.6719299931773177,-0.21261080076037692,-2.7542733467935747,0.0,-0.0032448353164482545,0.0,0.0,0.0,0.0,0.0
1757904950.553034,0.0,-12.991675329940243,0.0,0.0,0.0,0.0,2.844691507956905,-9.809292467219864,4.348920634494305,2.722676348756972,-0.18078907349599438,-2.75982118308747,0.0,-0.003182382862720379,0.0,0.0,0.0,0.0,0.0
1757904950.6130025,0.0,-13.076665861517878,0.0,0.0,0.0,0.0,2.969503400823054,-10.2107689600937,4.30603297259859,2.951052738195064,-0.09999596530984692,-2.8426660110494035,0.0,-0.002865896901424177,0.0,0.0,0.0,0.0,0.0
1757904950.6631296,0.0,-13.108086151898164,0.0,0.0,0.0,0.0,2.9377881508960115,-10.042969605939838,4.342914734478274,2.8364874558320015,-0.13381870611878588,-2.7985349792785605,0.0,-0.0030651165459583255,0.0,0.0,0.0,0.0,0.0
1757904950.7265007,0.0,-13.101438489837482,0.0,0.0,0.0,0.0,2.8743576519136282,-9.766363942391695,4.381974277579089,2.685142745257257,-0.17917026858180948,-2.718152925106606,0.0,-0.003335074547445787,0.0,0.0,0.0,0.0,0.0
1757904950.7828884,0.0,-13.145493744786453,0.0,0.0,0.0,0.0,2.937712810804024,-9.53673216379216,4.361018730562057,2.5923321852358785,-0.1354595380029766,-2.597393741916575,0.0,-0.003608761580994294,0.0,0.0,0.0,0.0,0.0
1757904950.8332295,0.0,-13.118357347697444,0.0,0.0,0.0,0.0,2.869021618730677,-9.576441975390278,4.393554696547889,2.6010153108777763,-0.18310121279778183,-2.645026615430606,0.0,-0.003541915372307166,0.0,0.0,0.0,0.0,0.0
1757904950.8931763,0.0,-13.244260003520928,0.0,0.0,0.0,0.0,3.018696493087653,-9.857431717218178,4.35352031913928,2.776360278005435,-0.09448979692745514,-2.674856164528375,0.0,-0.00338682828630275,0.0,0.0,0.0,0.0,0.0
1757904950.9529638,0.0,-13.338111071444851,0.0,0.0,0.0,0.0,2.998809002154281,-10.378178986946024,4.4127063896514125,2.9916583239895433,-0.12700943461898873,-2.895929244811235,0.0,-0.002959932084498828,0.0,0.0,0.0,0.0,0.0
1757904951.0031085,0.0,-13.6598273766401,0.0,0.0,0.0,0.0,2.997695823388344,-10.699937786501046,4.568190143150469,3.0495647909773593,-0.18998522699067077,-3.0207393938821347,0.0,-0.0029598895901390546,0.0,0.0,0.0,0.0,0.0
1757904951.063141,0.0,-14.010530745207117,0.0,0.0,0.0,0.0,3.062176300082273,-10.896629419613804,4.693641634083014,3.061567544890768,-0.21109680947432502,-3.057068162444992,0.0,-0.003113901325593313,0.0,0.0,0.0,0.0,0.0
1757904951.1230514,0.0,-14.82564929302104,0.0,0.0,0.0,0.0,3.125771616366694,-11.73854695629453,5.0395964239074935,3.2541865901726807,-0.35006682368906394,-3.347107361084543,0.0,-0.0030871023367265112,0.0,0.0,0.0,0.0,0.0
1757904951.173448,0.0,-15.209494090702723,0.0,0.0,0.0,0.0,3.056909690234332,-11.841895430897528,5.260028215225733,3.1638228650146965,-0.46574902352705927,-3.43049641608266,0.0,-0.0033675986598051947,0.0,0.0,0.0,0.0,0.0
1757904951.233058,0.0,-15.43481698366902,0.0,0.0,0.0,0.0,3.099054660457386,-12.336143207622442,5.339778297138803,3.3552580304495887,-0.4696538197639628,-3.5964714407370124,0.0,-0.003098673776046578,0.0,0.0,0.0,0.0,0.0
1757904951.2930946,0.0,-15.653660801051975,0.0,0.0,0.0,0.0,2.9323734786280626,-12.388190339244673,5.532370307358443,3.2566096822085715,-0.6144756462069372,-3.7169902219108253,0.0,-0.0032654704618073024,0.0,0.0,0.0,0.0,0.0
1757904951.3532014,0.0,-15.68668010871984,0.0,0.0,0.0,0.0,2.9612558411265257,-12.451015346226908,5.531950207361152,3.2813174331791455,-0.5953237626408083,-3.7267451893256993,0.0,-0.003235664762492931,0.0,0.0,0.0,0.0,0.0
1757904951.403841,0.0,-16.181154592108086,0.0,0.0,0.0,0.0,3.1341834042702947,-12.673726193981608,5.663007735981717,3.2982677561382787,-0.5912660625610433,-3.704263398162935,0.0,-0.0035074283981264783,0.0,0.0,0.0,0.0,0.0
1757904951.4630065,0.0,-16.201351310420616,0.0,0.0,0.0,0.0,3.0385070442868987,-12.8078819119503,5.724061532444052,3.3265131704736297,-0.6555121553623439,-3.8101342839867582,0.0,-0.003393469398470316,0.0,0.0,0.0,0.0,0.0
1757904951.513087,0.0,-16.237539643408834,0.0,0.0,0.0,0.0,3.0394302542840186,-12.709391557719092,5.739955985610582,3.26904295981918,-0.6697642820854934,-3.7597728995327904,0.0,-0.0035281480856897414,0.0,0.0,0.0,0.0,0.0
1757904951.5636575,0.0,-16.229302697207427,0.0,0.0,0.0,0.0,3.1589582150937656,-12.846294266886432,5.671280769041953,3.3613845967158253,-0.5850726494739517,-3.7452968476560957,0.0,-0.0033830084303209953,0.0,0.0,0.0,0.0,0.0
1757904951.6230292,0.0,-16.033997694694325,0.0,0.0,0.0,0.0,3.157969581864296,-12.711442351175068,5.58224697158536,3.3513083392501426,-0.5452809689050552,-3.6853633392571816,0.0,-0.003322555343519257,0.0,0.0,0.0,0.0,0.0
1757904951.674059,0.0,-16.122762194567073,0.0,0.0,0.0,0.0,3.1118965356099046,-12.67766030996997,5.648632903355367,3.281413789704946,-0.5987888869914856,-3.6963134803917908,0.0,-0.0034451018845971042,0.0,0.0,0.0,0.0,0.0
1757904951.7330287,0.0,-16.184157673424913,0.0,0.0,0.0,0.0,3.0654904864579686,-12.631303686858654,5.701848964429018,3.227967377333344,-0.645319136088796,-3.699095486179356,0.0,-0.0035528539865662587,0.0,0.0,0.0,0.0,0.0
1757904951.7833388,0.0,-16.188734001508124,0.0,0.0,0.0,0.0,3.030540775039241,-12.664243323324415,5.722572846393325,3.235629036372885,-0.665465377288217,-3.7279355424022533,0.0,-0.0035244906781837083,0.0,0.0,0.0,0.0,0.0
1757904951.8429537,0.0,-16.20688218454279,0.0,0.0,0.0,0.0,3.313833702278015,-13.43744147515705,5.571767315370453,3.6912182256067085,-0.4686772280590049,-3.867478910605413,0.0,-0.002769440709385739,0.0,0.0,0.0,0.0,0.0
1757904951.8932164,0.0,-15.957476391029763,0.0,0.0,0.0,0.0,3.0967643202919595,-13.318149174940778,5.581453143027383,3.6212991064349422,-0.5824023197775473,-3.9321305806329527,0.0,-0.0026393272160889847,0.0,0.0,0.0,0.0,0.0
1757904951.9436133,0.0,-16.134525161725595,0.0,0.0,0.0,0.0,3.128387409039825,-13.348979638962899,5.644896506585228,3.58189488939218,-0.5861257834055266,-3.9311850494071283,0.0,-0.0027855455227626964,0.0,0.0,0.0,0.0,0.0
1757904952.0038815,0.0,-15.993518854445252,0.0,0.0,0.0,0.0,3.0510751352840346,-13.329466560764237,5.62296752386592,3.593650091703599,-0.6180403294482067,-3.966513428861491,0.0,-0.0026640522936810154,0.0,0.0,0.0,0.0,0.0
1757904952.0636244,0.0,-16.071222173095716,0.0,0.0,0.0,0.0,3.048913037854827,-13.455523565423766,5.65946980109616,3.6315713045294173,-0.6303135315129091,-4.022152926536387,0.0,-0.00261569860767195,0.0,0.0,0.0,0.0,0.0
1757904952.1232438,0.0,-15.95517822578483,0.0,0.0,0.0,0.0,2.944580542255465,-12.760575742465942,5.662179737947202,3.289749991443893,-0.6860231491458143,-3.7948945082965126,0.0,-0.003194602483318887,0.0,0.0,0.0,0.0,0.0
1757904952.1828554,0.0,-16.108604334684244,0.0,0.0,0.0,0.0,3.139675955530184,-13.19693178001502,5.626755394727134,3.5279862451599,-0.5675333864532229,-3.8561596453019633,0.0,-0.002911672554669224,0.0,0.0,0.0,0.0,0.0
1757904952.2333,0.0,-16.037591170964564,0.0,0.0,0.0,0.0,3.0441569758932783,-13.477294748651293,5.646751384366093,3.663434027917643,-0.6285891542502856,-4.0335233100998575,0.0,-0.0025602964223132717,0.0,0.0,0.0,0.0,0.0
1757904952.2930603,0.0,-16.201034347313776,0.0,0.0,0.0,0.0,3.193524856639647,-13.917113882410005,5.6388971632473694,3.865825364515829,-0.550740389509229,-4.132438935324085,0.0,-0.002283920464903771,0.0,0.0,0.0,0.0,0.0
1757904952.352869,0.0,-15.997252539318112,0.0,0.0,0.0,0.0,2.90330538025559,-13.958361182831055,5.702346190652941,3.846696936666389,-0.7261218850098634,-4.287639812826853,0.0,-0.002038891356487056,0.0,0.0,0.0,0.0,0.0
1757904952.4031084,0.0,-16.006437231192457,0.0,0.0,0.0,0.0,3.079862669988006,-13.157588297328681,5.6131462824151495,3.478662696649783,-0.598686919316699,-3.8796480446340254,0.0,-0.002848848933863776,0.0,0.0,0.0,0.0,0.0
1757904952.453659,0.0,-16.115156263401907,0.0,0.0,0.0,0.0,3.0479391774194964,-13.219010933346869,5.67994617877399,3.480848134386708,-0.6372218308352191,-3.9171081976819266,0.0,-0.002896145330055038,0.0,0.0,0.0,0.0,0.0
1757904952.5129745,0.0,-15.847767775382046,0.0,0.0,0.0,0.0,2.9650755287165174,-12.416510790637634,5.602910499284857,3.1530447024029007,-0.6496480902963241,-3.644033844389117,0.0,-0.0034312569847444116,0.0,0.0,0.0,0.0,0.0
1757904952.573335,0.0,-16.097418205755403,0.0,0.0,0.0,0.0,3.1932654150218247,-12.413909374586321,5.591364381953941,3.149681838182096,-0.5262318947568216,-3.5306621091122565,0.0,-0.0036835088311690817,0.0,0.0,0.0,0.0,0.0
1757904952.6236553,0.0,-16.13751125183748,0.0,0.0,0.0,0.0,3.1161359496948395,-13.543645918865428,5.653032800853756,3.6912129505311984,-0.5945485656834976,-4.011956439118041,0.0,-0.0025938653329720526,0.0,0.0,0.0,0.0,0.0
1757904952.6829133,0.0,-15.877060179066968,0.0,0.0,0.0,0.0,3.1135197982311604,-13.752372900622404,5.5352471358356565,3.8575624914975477,-0.5543341090756367,-4.093372385392435,0.0,-0.002124687278444563,0.0,0.0,0.0,0.0,0.0
1757904952.733112,0.0,-16.107222189505503,0.0,0.0,0.0,0.0,3.063126879301779,-13.660538163819245,5.668162911141025,3.7281858327608433,-0.635186029867549,-4.065383143492185,0.0,-0.002446684025686258,0.0,0.0,0.0,0.0,0.0
1757904952.7929673,0.0,-16.00769184715891,0.0,0.0,0.0,0.0,2.9852733376460048,-13.122387286661727,5.6645860240017125,3.4498042169629546,-0.6685210041939005,-3.9070978124487152,0.0,-0.0028853045604971825,0.0,0.0,0.0,0.0,0.0
1757904952.8528795,0.0,-15.983184979642827,0.0,0.0,0.0,0.0,3.0797394144417702,-12.25440793195953,5.602602741056221,3.0672944883084883,-0.5941668922235604,-3.517461900612358,0.0,-0.0037287770476832965,0.0,0.0,0.0,0.0,0.0
1757904952.9033065,0.0,-16.08098298680135,0.0,0.0,0.0,0.0,3.249051440808594,-12.631195767287045,5.551517535455213,3.2900145360499495,-0.49294397588518124,-3.563397847781431,0.0,-0.0034497872195143045,0.0,0.0,0.0,0.0,0.0
1757904952.9637365,0.0,-16.160356052755688,0.0,0.0,0.0,0.0,3.0822738616257745,-12.577676079268292,5.681964896251341,3.1892589975862657,-0.6306641174786162,-3.6463915672848897,0.0,-0.0035826799734873962,0.0,0.0,0.0,0.0,0.0
1757904953.023003,0.0,-16.1956466510697,0.0,0.0,0.0,0.0,3.2236746071629607,-13.08507314302829,5.619231023773766,3.4724116868201644,-0.5375835072330066,-3.75792801035745,0.0,-0.003110573508041412,0.0,0.0,0.0,0.0,0.0
1757904953.0828667,0.0,-16.219863997417026,0.0,0.0,0.0,0.0,3.1455447165906962,-13.569338329416947,5.674415082727132,3.6790630477875927,-0.6013385870636714,-3.983722969809113,0.0,-0.0026505256680000784,0.0,0.0,0.0,0.0,0.0
1757904953.1335888,0.0,-16.10657937748364,0.0,0.0,0.0,0.0,3.014756928855652,-13.45908870867035,5.693746090126065,3.6121868161145088,-0.6749574862036762,-4.008759152278947,0.0,-0.0026474906688132905,0.0,0.0,0.0,0.0,0.0
1757904953.193001,0.0,-15.996979311730911,0.0,0.0,0.0,0.0,2.9120137961186523,-12.964045456826023,5.697781251259662,3.359970526324414,-0.7272109585531982,-3.872806357737953,0.0,-0.003032933854904888,0.0,0.0,0.0,0.0,0.0
1757904953.2433217,0.0,-16.08417179327713,0.0,0.0,0.0,0.0,3.1043134371073045,-12.903000457676434,5.635186886723393,3.366536920779412,-0.6066413324190636,-3.7391198561045864,0.0,-0.003181171335600695,0.0,0.0,0.0,0.0,0.0
1757904953.30348,0.0,-16.008414090290373,0.0,0.0,0.0,0.0,3.0675147438330463,-12.466086859455158,5.620804636896755,3.165578310832283,-0.62207388449729,-3.5854602640086206,0.0,-0.0035423272308352143,0.0,0.0,0.0,0.0,0.0
1757904953.3634133,0.0,-16.233564234831036,0.0,0.0,0.0,0.0,3.214531227256507,-13.252332152595322,5.6419293004799735,3.547529595790132,-0.5568245435954396,-3.824044045308653,0.0,-0.002981232082235714,0.0,0.0,0.0,0.0,0.0
1757904953.4228861,0.0,-16.194988877715552,0.0,0.0,0.0,0.0,3.084697280190687,-13.769581531782233,5.696408434222133,3.7612334944256984,-0.6475365764142264,-4.097464375138602,0.0,-0.0024254073459333194,0.0,0.0,0.0,0.0,0.0
1757904953.4746172,0.0,-16.244605170977476,0.0,0.0,0.0,0.0,3.1763728329926626,-14.249664067719085,5.668563060562869,4.002659096680775,-0.5924069297795498,-4.230144627960564,0.0,-0.001994941103258391,0.0,0.0,0.0,0.0,0.0
1757904953.5333552,0.0,-16.109088148826654,0.0,0.0,0.0,0.0,2.828053564595961,-13.473875618745701,5.789866008263305,3.548448367025848,-0.8191836265176131,-4.103174448628624,0.0,-0.0026352125300809527,0.0,0.0,0.0,0.0,0.0
1757904953.5932302,0.0,-16.174275022304727,0.0,0.0,0.0,0.0,3.054052379837537,-13.430372495890374,5.7034999483433655,3.565074330548635,-0.6667914278945573,-3.955466534896267,0.0,-0.0027439025264143525,0.0,0.0,0.0,0.0,0.0
1757904953.6528664,0.0,-16.083995648735502,0.0,0.0,0.0,0.0,3.174451146728243,-13.568757316241422,5.595895503098907,3.7106769320119355,-0.5635768591440771,-3.948217069331859,0.0,-0.0025152383324940804,0.0,0.0,0.0,0.0,0.0
1757904953.7032237,0.0,-16.11475715517275,0.0,0.0,0.0,0.0,3.097371522762023,-13.625532618694933,5.652959698884602,3.718575043496737,-0.6271081109208536,-4.009813138631333,0.0,-0.002489224536477817,0.0,0.0,0.0,0.0,0.0
1757904953.7628686,0.0,-16.228986255181404,0.0,0.0,0.0,0.0,3.135912366606896,-13.184423137294294,5.683911752332248,3.483568405573372,-0.6196691964836206,-3.8231883539258416,0.0,-0.00304456311788711,0.0,0.0,0.0,0.0,0.0
1757904953.8133495,0.0,-16.44644407073336,0.0,0.0,0.0,0.0,3.223946041743566,-13.23075694314339,5.734444657628817,3.4856247335032373,-0.5987372464299238,-3.7834260038664436,0.0,-0.00321568712758997,0.0,0.0,0.0,0.0,0.0
1757904953.8730578,0.0,-16.53463947035756,0.0,0.0,0.0,0.0,3.2397603828571087,-13.17263574723087,5.766024717951056,3.4447394446712973,-0.5987600632933178,-3.76510621764322,0.0,-0.0033620037231266906,0.0,0.0,0.0,0.0,0.0
1757904953.9232857,0.0,-16.973361975096964,0.0,0.0,0.0,0.0,3.286035704220221,-13.550215279648315,5.941142316812208,3.5180120244852033,-0.6508650926029876,-3.8799902716048678,0.0,-0.003423146695448649,0.0,0.0,0.0,0.0,0.0
1757904953.974286,0.0,-18.187402515083264,0.0,0.0,0.0,0.0,3.4116197880362575,-13.995651702607184,6.425411120012833,3.424198055835972,-0.8222048497144216,-3.97496819065148,0.0,-0.0041917508124760805,0.0,0.0,0.0,0.0,0.0
1757904954.033208,0.0,-17.752858202681832,0.0,0.0,0.0,0.0,3.6015444291640284,-15.604705109223712,6.120058302261668,4.409513851096954,-0.5966403771313933,-4.497025658036952,0.0,-0.00214815309345812,0.0,0.0,0.0,0.0,0.0
1757904954.092972,0.0,-16.08456827306304,0.0,0.0,0.0,0.0,3.403219372231251,-16.11020221206749,5.460057852202861,5.070314775951982,-0.41912998170301874,-4.819809318705651,0.0,2.563393900445021e-05,0.0,0.0,0.0,0.0,0.0
1757904954.1528418,0.0,-13.21554254189674,0.0,0.0,0.0,0.0,2.836053894866003,-14.851270245088884,4.461041207351103,4.9909453846716705,-0.28025248111787837,-4.678971810880274,0.0,0.0016357277031921439,0.0,0.0,0.0,0.0,0.0
1757904954.2031033,0.0,-9.939141888664027,0.0,0.0,0.0,0.0,2.120229725058126,-10.568062861967293,3.3631045999580937,3.132830417505509,-0.24878860592552854,-3.426498711768496,0.0,0.0006289209733032664,0.0,0.0,0.0,0.0,0.0
1757904954.263266,0.0,-7.292675263755335,0.0,0.0,0.0,0.0,1.270319819193387,-6.922427660221831,2.625944698080809,1.3850159147292356,-0.4397973300108488,-2.4347551020373874,0.0,-0.0003702476035335041,0.0,0.0,0.0,0.0,0.0
1757904954.3229454,0.0,-6.5373901105490635,0.0,0.0,0.0,0.0,1.225196514240817,-6.834546803821139,2.310170689514717,1.4459632679040875,-0.35514118436757947,-2.3884391992775553,0.0,0.0002971566932720755,0.0,0.0,0.0,0.0,0.0
1757904954.3733118,0.0,-6.705520954919184,0.0,0.0,0.0,0.0,1.213958877952018,-7.16405060655554,2.3917662191232494,1.5517383125196507,-0.3974743901566837,-2.486494515649137,0.0,0.000458529651636356,0.0,0.0,0.0,0.0,0.0
1757904954.4331396,0.0,-6.1195158514333885,0.0,0.0,0.0,0.0,0.9407728116064514,-7.138430364149292,2.2598014067375956,1.5400370840517092,-0.48959670412026834,-2.6283651983525127,0.0,0.0010189145127159033,0.0,0.0,0.0,0.0,0.0
1757904954.4834332,0.0,-5.859486533139984,0.0,0.0,0.0,0.0,0.8300390723105024,-6.901282027744986,2.1918960576555024,1.399291073587394,-0.5177564972166722,-2.614972888834522,0.0,0.0010417954946050018,0.0,0.0,0.0,0.0,0.0
1757904954.5433905,0.0,-4.99338182769143,0.0,0.0,0.0,0.0,0.47204095160477355,-6.134952909735214,1.9407718238750022,1.0046084152230266,-0.5946873373497535,-2.5112884984955253,0.0,0.0011415710820437833,0.0,0.0,0.0,0.0,0.0
1757904954.6032696,0.0,-4.458590036426643,0.0,0.0,0.0,0.0,0.5299524244084648,-6.1322249743724555,1.702878282770457,1.0406242806237358,-0.46538820945973236,-2.447392923512119,0.0,0.0016736349379458124,0.0,0.0,0.0,0.0,0.0
1757904954.6629999,0.0,-4.0,0.0,0.0,0.0,0.0,0.11819510396172904,-5.044902058515877,1.4368882442282915,0.4689350760343818,-0.5488356005899173,-2.2255277216728913,0.0,0.0010449020585158772,0.0,0.0,0.0,0.0,0.0
1757904954.7228823,0.0,-4.0,0.0,0.0,0.0,0.0,-0.08558813808401543,-4.973087004186674,1.159964645387115,0.44074866817278824,-0.5283360167436327,-2.3002825387647596,0.0,0.0009730870041866738,0.0,0.0,0.0,0.0,0.0
1757904954.7733505,0.0,-4.0,0.0,0.0,0.0,0.0,-0.21345400406820048,-5.272406252668853,1.1722034593272288,0.5492742352613735,-0.5996123716668111,-2.4779796642777088,0.0,0.001272406252668853,0.0,0.0,0.0,0.0,0.0
1757904954.8331542,0.0,-4.0,0.0,0.0,0.0,0.0,-0.3692601193448716,-4.827562282328979,1.0888201481742559,0.32556110773222224,-0.6411047535038774,-2.3918157124728436,0.0,0.0008275622823289792,0.0,0.0,0.0,0.0,0.0
1757904954.892875,0.0,-4.0,0.0,0.0,0.0,0.0,-0.5239173799441774,-4.320523729964075,1.0335699724694916,0.08171303513768191,-0.6936884006582102,-2.275906661109325,0.0,0.0003205237299640746,0.0,0.0,0.0,0.0,0.0
1757904954.9429305,0.0,-4.0,0.0,0.0,0.0,0.0,-0.6203722120215803,-4.103977790710516,0.982791787226323,0.0027542760159046005,-0.7201941827637967,-2.246837904307921,0.0,0.00010397779071051616,0.0,0.0,0.0,0.0,0.0
1757904955.0039089,0.0,-4.0,0.0,0.0,0.0,0.0,-0.5895669079871838,-4.07847444768016,1.0544996348439688,-0.03736217476631083,-0.7328194015480558,-2.2187378861224896,0.0,7.847444768016043e-05,0.0,0.0,0.0,0.0,0.0
1757904955.0630236,0.0,-4.0,0.0,0.0,0.0,0.0,-0.5513534910039354,-3.8372243554855876,1.0428041863518869,-0.10958939898051523,-0.710423097793002,-2.0975065561998263,0.0,-0.0001627756445144124,0.0,0.0,0.0,0.0,0.0
1757904955.12286,0.0,-4.0,0.0,0.0,0.0,0.0,-0.5388152534374726,-3.5292719778185915,1.1681240469521166,-0.2980019028684101,-0.7483462860971206,-1.974034898248131,0.0,-0.0004707280221814085,0.0,0.0,0.0,0.0,0.0
1757904955.173274,0.0,-4.0,0.0,0.0,0.0,0.0,-0.35334291666055384,-3.7271309171889504,1.2308585735502267,-0.16170669643234795,-0.66704925044982,-1.9467286405582247,0.0,-0.0002728690828110496,0.0,0.0,0.0,0.0,0.0
1757904955.2329657,0.0,-4.0,0.0,0.0,0.0,0.0,-0.28500942129884554,-3.8483449013969966,1.292988863724117,-0.08108146423670315,-0.6442163399659142,-1.960539442707384,0.0,-0.00015165509860300342,0.0,0.0,0.0,0.0,0.0
1757904955.2928662,0.0,-4.0,0.0,0.0,0.0,0.0,-0.24761503279201572,-4.043649727534331,1.4514394534317727,-0.03420722669741423,-0.6819241318780896,-2.0152581293384024,0.0,4.364972753433083e-05,0.0,0.0,0.0,0.0,0.0
1757904955.342932,0.0,-4.166646098217923,0.0,0.0,0.0,0.0,-0.19847732720771702,-4.745775665754113,1.6547982063779327,0.24470245422439757,-0.7276514922030197,-2.2809534637487556,0.0,0.0005791295675361905,0.0,0.0,0.0,0.0,0.0
1757904955.4033697,0.0,-4.0,0.0,0.0,0.0,0.0,-0.25789905287610315,-4.261832666302534,1.4180054931501305,0.06047766819913799,-0.6798102948462,-2.1259465604004673,0.0,0.0002618326663025341,0.0,0.0,0.0,0.0,0.0
1757904955.4628756,0.0,-4.0,0.0,0.0,0.0,0.0,-0.33172507037567966,-4.090154485317564,1.306039157443716,-0.02144028065196816,-0.6901090214575301,-2.090818637222702,0.0,9.015448531756399e-05,0.0,0.0,0.0,0.0,0.0
1757904955.5130746,0.0,-4.0,0.0,0.0,0.0,0.0,-0.3691829950717425,-3.890716771773303,1.1418263177881436,-0.0770127125684855,-0.6490256478266117,-2.0354239863778876,0.0,-0.00010928322822669712,0.0,0.0,0.0,0.0,0.0
1757904955.5730448,0.0,-4.0,0.0,0.0,0.0,0.0,-0.44237764880156166,-4.306636454907269,1.0486410721708108,0.15449480950911956,-0.6576397721068973,-2.217068005352713,0.0,0.00030663645490726935,0.0,0.0,0.0,0.0,0.0
1757904955.6330192,0.0,-4.0,0.0,0.0,0.0,0.0,-0.4334086466820227,-3.9799688589970756,1.1263527787387335,-0.06436113028619307,-0.6859851369509007,-2.092988963613496,0.0,-2.003114100292436e-05,0.0,0.0,0.0,0.0,0.0
1757904955.6931448,0.0,-4.0,0.0,0.0,0.0,0.0,-0.37298260927823246,-3.9743943972658338,1.1787824897613841,-0.07080520838286541,-0.6665924115580657,-2.0655071578751283,0.0,-2.5605602734166234e-05,0.0,0.0,0.0,0.0,0.0
1757904955.7531059,0.0,-4.0,0.0,0.0,0.0,0.0,-0.410390605924829,-4.43244570594307,1.177164403503788,0.16662878269563747,-0.6886749375584917,-2.2555992246650747,0.0,0.00043244570594306973,0.0,0.0,0.0,0.0,0.0
1757904955.8033433,0.0,-4.0,0.0,0.0,0.0,0.0,-0.3827604351280004,-4.850619054744783,1.199807364857403,0.36982525028281205,-0.6832132537632523,-2.3970520065261067,0.0,0.000850619054744783,0.0,0.0,0.0,0.0,0.0
1757904955.8632376,0.0,-4.0,0.0,0.0,0.0,0.0,-0.4780246504798368,-4.597386963935147,1.1256381719819593,0.23134209754574236,-0.7026258581862947,-2.362407834898945,0.0,0.000597386963935147,0.0,0.0,0.0,0.0,0.0
1757904955.9229414,0.0,-4.0,0.0,0.0,0.0,0.0,-0.722611044246812,-4.365025673161504,0.9160250403493971,0.09405542762355161,-0.7401174513503795,-2.4056680640178607,0.0,0.0003650256731615036,0.0,0.0,0.0,0.0,0.0
1757904955.973903,0.0,-4.0,0.0,0.0,0.0,0.0,-0.758042275232645,-4.2803942279887695,0.9038289937325532,0.0461833711239281,-0.7557265226899801,-2.3889707148579538,0.0,0.00028039422798876946,0.0,0.0,0.0,0.0,0.0
1757904956.0340285,0.0,-4.0,0.0,0.0,0.0,0.0,-0.6722763917678346,-4.230241465766105,0.9190582384724099,0.011024217260952726,-0.7159522637747426,-2.3220458789554854,0.0,0.00023024146576610516,0.0,0.0,0.0,0.0,0.0
1757904956.0930943,0.0,-4.0,0.0,0.0,0.0,0.0,-0.7389471233331022,-3.868302942715964,0.9225115741179466,-0.15261522262902222,-0.7545979508179688,-2.2105655395886696,0.0,-0.00013169705728403614,0.0,0.0,0.0,0.0,0.0
1757904956.1431246,0.0,-4.0,0.0,0.0,0.0,0.0,-0.6338784075388955,-4.395793768776305,0.8822537394603799,0.1496883910810517,-0.6825602359239427,-2.3458365631305167,0.0,0.0003957937687763051,0.0,0.0,0.0,0.0,0.0
1757904956.1947434,0.0,-4.0,0.0,0.0,0.0,0.0,-0.7144171135307159,-4.279106769034975,0.9993840754965072,0.04181576599011799,-0.7661984507627404,-2.357292336237633,0.0,0.0002791067690349749,0.0,0.0,0.0,0.0,0.0
1757904956.252961,0.0,-4.0,0.0,0.0,0.0,0.0,-0.7562560950761198,-4.0898123373631545,0.9103099274955522,-0.012590972738235064,-0.7541664908295451,-2.3068212981317773,0.0,8.981233736315453e-05,0.0,0.0,0.0,0.0,0.0
1757904956.3034995,0.0,-4.0,0.0,0.0,0.0,0.0,-0.733349005043542,-3.864160496940658,0.9095257692649825,-0.14538750584473842,-0.7382369791143261,-2.2141009060598256,0.0,-0.000135839503059342,0.0,0.0,0.0,0.0,0.0
1757904956.3632815,0.0,-4.0,0.0,0.0,0.0,0.0,-0.7247414541206953,-3.97195139138904,0.9103163394447469,-0.07449760214110826,-0.7414615837780278,-2.2387378729420835,0.0,-2.8048608610959925e-05,0.0,0.0,0.0,0.0,0.0
1757904956.4228754,0.0,-4.0,0.0,0.0,0.0,0.0,-0.7579716248816111,-3.757255003636675,1.000714683294097,-0.2163018552420044,-0.790256365228906,-2.1879781945244883,0.0,-0.0002427449963633248,0.0,0.0,0.0,0.0,0.0
1757904956.4736674,0.0,-4.0,0.0,0.0,0.0,0.0,-0.6926294198991969,-3.8938477707654693,1.0437731471953524,-0.1604846668460136,-0.7691594384828353,-2.198349034935559,0.0,-0.00010615222923453071,0.0,0.0,0.0,0.0,0.0
1757904956.5343814,0.0,-4.0,0.0,0.0,0.0,0.0,-0.6717476625821208,-4.135445263398287,1.2280772717755153,-0.07799424282767237,-0.81686347404816,-2.285254033613548,0.0,0.000135445263398287,0.0,0.0,0.0,0.0,0.0
1757904956.5929768,0.0,-4.0,0.0,0.0,0.0,0.0,-0.5460844077600511,-4.395487243565845,1.1407236574929664,0.10615899788227899,-0.7201782758187858,-2.3082517518039576,0.0,0.000395487243565845,0.0,0.0,0.0,0.0,0.0
1757904956.6434822,0.0,-4.0,0.0,0.0,0.0,0.0,-0.6170125891380612,-4.307753655997259,1.1580113025272254,0.02675351200692328,-0.7668420159019994,-2.3153246044694624,0.0,0.00030775365599725914,0.0,0.0,0.0,0.0,0.0
1757904956.7033064,0.0,-4.0,0.0,0.0,0.0,0.0,-0.643599442920411,-4.236437149173459,1.0563184244039021,0.012119939793922951,-0.745983071593269,-2.3049139000024312,0.0,0.00023643714917345894,0.0,0.0,0.0,0.0,0.0
1757904956.763103,0.0,-4.0,0.0,0.0,0.0,0.0,-0.732683930653752,-4.092835861303067,0.9452877467244898,-0.027171056690626777,-0.752202355015182,-2.3008825989237,0.0,9.283586130306709e-05,0.0,0.0,0.0,0.0,0.0
1757904956.8228679,0.0,-4.0,0.0,0.0,0.0,0.0,-0.7579437742737987,-3.7659020992174925,0.9405880991883878,-0.22703015796045115,-0.7683135303625094,-2.1849499830907657,0.0,-0.00023409790078250748,0.0,0.0,0.0,0.0,0.0
1757904956.8731036,0.0,-4.0,0.0,0.0,0.0,0.0,-0.7721764179675541,-3.672001758165595,0.9979168164814666,-0.28548214536352645,-0.7927908738990047,-2.163781723250598,0.0,-0.00032799824183440496,0.0,0.0,0.0,0.0,0.0
1757904956.9331193,0.0,-4.0,0.0,0.0,0.0,0.0,-0.5852167666184191,-3.841138960343757,1.0325278081385254,-0.14472184601280483,-0.6996963601174535,-2.1167496542173936,0.0,-0.0001588610396562431,0.0,0.0,0.0,0.0,0.0
1757904956.9930844,0.0,-4.0,0.0,0.0,0.0,0.0,-0.5347867218539575,-3.916230424327681,1.1075039399844275,-0.11428199441208922,-0.6944883186592427,-2.1239170397728393,0.0,-8.376957567231891e-05,0.0,0.0,0.0,0.0,0.0
1757904957.0437,0.0,-4.0,0.0,0.0,0.0,0.0,-0.4458956447330379,-4.244348530974378,1.320488287721804,-0.021671772445597932,-0.721606123209939,-2.208684326616228,0.0,0.00024434853097437783,0.0,0.0,0.0,0.0,0.0
1757904957.103777,0.0,-4.0,0.0,0.0,0.0,0.0,-0.47667778384613174,-4.306041558867162,1.3193145835771372,0.03125772725486459,-0.7360660182674266,-2.2516020049699246,0.0,0.0003060415588671619,0.0,0.0,0.0,0.0,0.0
1757904957.163153,0.0,-4.0,0.0,0.0,0.0,0.0,-0.6308617295100094,-4.01451139344944,1.224492145691476,-0.12085362819430509,-0.7911611770013061,-2.225622243543413,0.0,1.4511393449439858e-05,0.0,0.0,0.0,0.0,0.0
1757904957.2228253,0.0,-4.0,0.0,0.0,0.0,0.0,-0.5035778912250186,-4.15030400400702,1.1032807664302462,-0.018054209811737647,-0.6916777758008189,-2.191103237889268,0.0,0.00015030400400701982,0.0,0.0,0.0,0.0,0.0
1757904957.2730117,0.0,-4.0,0.0,0.0,0.0,0.0,-0.6391577566733345,-3.9248229028402366,1.033034209259437,-0.11860410414569861,-0.7406245820149617,-2.1774058007032506,0.0,-7.517709715976339e-05,0.0,0.0,0.0,0.0,0.0
1757904957.333214,0.0,-4.0,0.0,0.0,0.0,0.0,-0.6402439100862266,-3.869421161952873,0.9849956722480538,-0.13557418919173508,-0.7170668347444868,-2.160299927401536,0.0,-0.00013057883804712712,0.0,0.0,0.0,0.0,0.0
1757904957.392967,0.0,-4.0,0.0,0.0,0.0,0.0,-0.6600824578191985,-3.9319382997565686,1.0293097442145447,-0.12768288460328747,-0.7442333077833726,-2.196939128476622,0.0,-6.80617002434314e-05,0.0,0.0,0.0,0.0,0.0
1757904957.453133,0.0,-4.0,0.0,0.0,0.0,0.0,-0.5510454683021464,-4.172886249977045,1.0354982113707187,0.017063415448087687,-0.6880161364241445,-2.2274308463877635,0.0,0.00017288624997704538,0.0,0.0,0.0,0.0,0.0
1757904957.5033052,0.0,-4.0,0.0,0.0,0.0,0.0,-0.5052041744191711,-4.309550039454282,1.0434796000840905,0.08155022950036811,-0.6652141473802985,-2.256891753793722,0.0,0.0003095500394542823,0.0,0.0,0.0,0.0,0.0
1757904957.5628657,0.0,-4.0,0.0,0.0,0.0,0.0,-0.5664451096844945,-4.356738856975245,1.0618206372836572,0.06439239466161008,-0.7108049053728744,-2.311667575776584,0.0,0.00035673885697524543,0.0,0.0,0.0,0.0,0.0
1757904957.6129918,0.0,-4.0,0.0,0.0,0.0,0.0,-0.5733641798032538,-4.350899244858319,0.9794343556124325,0.07134884769032675,-0.6860830993506701,-2.3091457987434163,0.0,0.0003508992448583186,0.0,0.0,0.0,0.0,0.0
1757904957.672914,0.0,-4.0,0.0,0.0,0.0,0.0,-0.8081110297428707,-4.1132287199242095,0.9574860134031056,-0.06636321917144102,-0.7953018310477324,-2.3498989615101733,0.0,0.00011322871992420946,0.0,0.0,0.0,0.0,0.0
1757904957.732994,0.0,-4.0,0.0,0.0,0.0,0.0,-0.774059265531168,-4.079657232498572,0.7670012317600303,-0.016511910751513238,-0.7000406441791552,-2.3024171718208137,0.0,7.96572324985716e-05,0.0,0.0,0.0,0.0,0.0
1757904957.7831514,0.0,-4.0,0.0,0.0,0.0,0.0,-0.8800611485284011,-4.141587670389272,0.860308661868002,-0.031057835538789796,-0.7907615443791778,-2.392666066853603,0.0,0.00014158767038927156,0.0,0.0,0.0,0.0,0.0
1757904957.8433251,0.0,-4.0,0.0,0.0,0.0,0.0,-0.7762255723118193,-4.3245226977876134,0.8420491036693791,0.0751796915122534,-0.731635848115404,-2.401031632154532,0.0,0.00032452269778761344,0.0,0.0,0.0,0.0,0.0
1757904957.9037166,0.0,-4.0,0.0,0.0,0.0,0.0,-0.9123234527928963,-4.223841775794874,0.8789247565283652,0.0015527379413919004,-0.818881481624244,-2.4394407805469025,0.0,0.00022384177579487386,0.0,0.0,0.0,0.0,0.0
1757904957.9652112,0.0,-4.0,0.0,0.0,0.0,0.0,-0.8185627358896292,-4.2201563668460675,0.8655310871211752,-0.010213871864618328,-0.7670622331357713,-2.393194376791458,0.0,0.00022015636684606755,0.0,0.0,0.0,0.0,0.0
1757904958.0228534,0.0,-4.0,0.0,0.0,0.0,0.0,-0.9434853876340334,-4.252213856201784,1.0782762656647418,-0.1321506690302359,-0.9137235769017792,-2.474660998090647,0.0,0.0002522138562017844,0.0,0.0,0.0,0.0,0.0
1757904958.0732071,0.0,-4.0,0.0,0.0,0.0,0.0,-0.7432369346548187,-4.538628013895387,1.1277202868124627,-0.02807470934485031,-0.8440500363777523,-2.4620070352104078,0.0,0.0005386280138953872,0.0,0.0,0.0,0.0,0.0
1757904958.132903,0.0,-4.0,0.0,0.0,0.0,0.0,-0.87168926782032,-4.536445251539859,1.2862035242157561,-0.12535637480369835,-0.9820488588155961,-2.5245674491158283,0.0,0.0005364452515398588,0.0,0.0,0.0,0.0,0.0
1757904958.1830332,0.0,-4.0,0.0,0.0,0.0,0.0,-0.8623184242809989,-4.005177344999836,1.3296142665218396,-0.4419921508835022,-1.0002238823367842,-2.331545879880462,0.0,5.177344999835576e-06,0.0,0.0,0.0,0.0,0.0
1757904958.2430308,0.0,-5.441869352219742,0.0,0.0,0.0,0.0,-0.9241921379601001,-4.989467043384379,1.9708119188784359,-0.37316123147477276,-1.2932671891016785,-2.7411902768580045,0.0,-0.0004524023088353628,0.0,0.0,0.0,0.0,0.0
1757904958.3037596,0.0,-8.409794706332953,0.0,0.0,0.0,0.0,-1.0012710319203968,-6.02815029273067,3.2114482466737004,-0.5642518180645391,-1.8124014100720374,-3.196110180717056,0.0,-0.0023816444136022827,0.0,0.0,0.0,0.0,0.0
1757904958.3629258,0.0,-9.893564901217129,0.0,0.0,0.0,0.0,-0.4603113702521122,-6.4016875277197975,3.930564040332113,-0.6473550354915114,-1.8186106691495323,-3.092138316078203,0.0,-0.0034918773734973316,0.0,0.0,0.0,0.0,0.0
1757904958.413054,0.0,-11.331075790363535,0.0,0.0,0.0,0.0,0.18388317827853898,-9.268556171989506,4.528698659378896,0.6326308163655995,-1.7287770135981746,-3.8493451279726383,0.0,-0.002062519618374029,0.0,0.0,0.0,0.0,0.0
1757904958.4631917,0.0,-13.260836959360164,0.0,0.0,0.0,0.0,1.2757061070614786,-13.266968324199718,5.148644620329049,2.6776175846618333,-1.4201607868656931,-4.951056144091432,0.0,6.13136483955401e-06,0.0,0.0,0.0,0.0,0.0
1757904958.5138607,0.0,-15.16584623812522,0.0,0.0,0.0,0.0,1.8402949761304523,-14.64865734365165,5.780465131784995,3.1753681427898077,-1.3846828133280142,-5.21416670082515,0.0,-0.0005171888944735699,0.0,0.0,0.0,0.0,0.0
1757904958.5730202,0.0,-15.137593993576,0.0,0.0,0.0,0.0,1.5916559005466375,-14.412235845816834,5.8420982361263665,3.0288124373760468,-1.5287192490126498,-5.282305105823818,0.0,-0.0007253581477591666,0.0,0.0,0.0,0.0,0.0
1757904958.6332989,0.0,-15.029978552487947,0.0,0.0,0.0,0.0,1.9573754612309076,-15.525469718713985,5.684428040699498,3.712386519038674,-1.2816916069719093,-5.503635344698999,0.0,0.0004954911662260386,0.0,0.0,0.0,0.0,0.0
1757904958.6928017,0.0,-14.403768784285504,0.0,0.0,0.0,0.0,1.6658135931930809,-14.026945848174233,5.515435966749896,3.0319570482811624,-1.388728747389351,-5.02345950247178,0.0,-0.00037682293611127093,0.0,0.0,0.0,0.0,0.0
1757904958.743226,0.0,-13.899937367140721,0.0,0.0,0.0,0.0,1.4469786292096274,-13.189920680559414,5.368386559878137,2.590104600242678,-1.4519357870354779,-4.789531588747403,0.0,-0.0007100166865813069,0.0,0.0,0.0,0.0,0.0
1757904958.7932386,0.0,-14.184544228120643,0.0,0.0,0.0,0.0,1.4992368803622913,-13.118235311046169,5.472156427779021,2.5667503146436177,-1.459227269338137,-4.751873850124703,0.0,-0.0010663089170744745,0.0,0.0,0.0,0.0,0.0
1757904958.8433897,0.0,-14.790279337466524,0.0,0.0,0.0,0.0,1.731140788250986,-13.367809457517279,5.657166219239102,2.659401951898753,-1.4000705283564274,-4.745719900432446,0.0,-0.0014224698799492454,0.0,0.0,0.0,0.0,0.0
1757904958.9030876,0.0,-15.11385461504458,0.0,0.0,0.0,0.0,2.0477915163873024,-14.556363357994854,5.6881566537292985,3.305291354754874,-1.2435874232778297,-5.046739329315521,0.0,-0.0005574912570497261,0.0,0.0,0.0,0.0,0.0
1757904958.9630015,0.0,-15.832072031763662,0.0,0.0,0.0,0.0,2.4337800636755302,-14.834105422966,5.846489149283357,3.481095483688815,-1.1122361457512873,-4.93647317616425,0.0,-0.000997966608797663,0.0,0.0,0.0,0.0,0.0
1757904959.023555,0.0,-16.107390901106317,0.0,0.0,0.0,0.0,2.4149765159132377,-14.759892584878713,5.973238241536527,3.433927829880678,-1.174457467682235,-4.895521521109994,0.0,-0.001347498316227604,0.0,0.0,0.0,0.0,0.0
1757904959.0828884,0.0,-16.08465761512331,0.0,0.0,0.0,0.0,2.390379867718455,-14.409153047601553,5.9733305436184745,3.2968359891024472,-1.183657953930388,-4.758586716196572,0.0,-0.001675504567521756,0.0,0.0,0.0,0.0,0.0
1757904959.1330652,0.0,-16.528722822212426,0.0,0.0,0.0,0.0,2.6203220615276304,-14.514681425058086,6.070065963005323,3.3438229467277214,-1.0999875938689692,-4.659435677907505,0.0,-0.0020140413971543405,0.0,0.0,0.0,0.0,0.0
1757904959.192824,0.0,-17.104681362318956,0.0,0.0,0.0,0.0,2.7084876333764933,-14.214253901576527,6.282938377931176,3.1409428504567596,-1.1389372458464608,-4.492112226562953,0.0,-0.00289042746074243,0.0,0.0,0.0,0.0,0.0
1757904959.2430503,0.0,-17.005110015213106,0.0,0.0,0.0,0.0,2.581751491012696,-14.667759003353066,6.293040751447101,3.405865259147867,-1.199903215805057,-4.744410680710356,0.0,-0.00233735101186004,0.0,0.0,0.0,0.0,0.0
1757904959.3029785,0.0,-17.363628159408783,0.0,0.0,0.0,0.0,2.8154243688491687,-14.936228186411014,6.349226636418363,3.548711534523456,-1.105866233246633,-4.700290454670278,0.0,-0.002427399972997769,0.0,0.0,0.0,0.0,0.0
1757904959.3530347,0.0,-17.5366092297551,0.0,0.0,0.0,0.0,2.6544685305063487,-14.247348124081132,6.492997993599918,3.155325587803764,-1.2375879819567077,-4.531920213384362,0.0,-0.003289261105673969,0.0,0.0,0.0,0.0,0.0
1757904959.4032478,0.0,-17.726741511856368,0.0,0.0,0.0,0.0,3.0796379322736462,-15.7127441209124,6.387003095866542,3.988461918631379,-0.9741035880873545,-4.876873755736735,0.0,-0.002013997390943967,0.0,0.0,0.0,0.0,0.0
1757904959.4631774,0.0,-17.95248792546436,0.0,0.0,0.0,0.0,2.9032025440497558,-15.414436852676296,6.567960613649721,3.7407130335012155,-1.1315692102700876,-4.843925468735385,0.0,-0.002538051072788065,0.0,0.0,0.0,0.0,0.0
1757904959.523031,0.0,-18.173498399249134,0.0,0.0,0.0,0.0,3.090825270614637,-15.485635369783939,6.579587084105787,3.7620381940091168,-1.041153501709283,-4.769689107497877,0.0,-0.002687863029465195,0.0,0.0,0.0,0.0,0.0
1757904959.573078,0.0,-17.9221812574088,0.0,0.0,0.0,0.0,2.978286499656249,-15.787012264906892,6.520931106039364,3.969500596293875,-1.0813645992323346,-4.940961434119224,0.0,-0.002135168992501907,0.0,0.0,0.0,0.0,0.0
1757904959.6330285,0.0,-18.19624392706802,0.0,0.0,0.0,0.0,3.1027784371217564,-15.813131183526881,6.584017987419982,3.9779814423568003,-1.0361302111522714,-4.879555014670037,0.0,-0.0023831127435411403,0.0,0.0,0.0,0.0,0.0
1757904959.692868,0.0,-18.467202445189482,0.0,0.0,0.0,0.0,3.085626627819965,-15.336406294732226,6.711551154386472,3.669154330815612,-1.0940749496171729,-4.7035038800627085,0.0,-0.003130796150457256,0.0,0.0,0.0,0.0,0.0
1757904959.7442718,0.0,-18.416206337019975,0.0,0.0,0.0,0.0,2.9889217063105122,-15.355772914457512,6.732860608179633,3.714239817942378,-1.1547799700174903,-4.764929033704675,0.0,-0.003060433422562463,0.0,0.0,0.0,0.0,0.0
1757904959.803297,0.0,-18.708569063153693,0.0,0.0,0.0,0.0,3.2125812175731756,-15.838377921895301,6.758772887368142,3.928713404339894,-1.0493297969799795,-4.814527995359974,0.0,-0.002870191141258392,0.0,0.0,0.0,0.0,0.0
1757904959.8628442,0.0,-18.76001305086059,0.0,0.0,0.0,0.0,3.205025668702503,-16.26623219232937,6.785123787368335,4.133405215786399,-1.0679558748700928,-4.993830267752332,0.0,-0.0024937808585312206,0.0,0.0,0.0,0.0,0.0
1757904959.912905,0.0,-18.760156851278385,0.0,0.0,0.0,0.0,3.2249167917155113,-17.33082574211109,6.775755994724287,4.659236433263882,-1.0543697115029786,-5.406648379973844,0.0,-0.0014293311091672933,0.0,0.0,0.0,0.0,0.0
1757904959.9665751,0.0,-18.680553273180653,0.0,0.0,0.0,0.0,3.21207901802179,-17.853951552593077,6.746602083769773,4.920986831058622,-1.0486247234371604,-5.610564892490582,0.0,-0.0008266017205875756,0.0,0.0,0.0,0.0,0.0
1757904960.0229387,0.0,-18.41551971907288,0.0,0.0,0.0,0.0,3.1971461717927188,-17.088147989842,6.636209384879376,4.572035992038716,-1.0144762356786297,-5.317389768098028,0.0,-0.0013273717292308796,0.0,0.0,0.0,0.0,0.0
1757904960.0732641,0.0,-18.282893377833325,0.0,0.0,0.0,0.0,3.18212841304309,-16.849169772443975,6.584552316242869,4.472080316122644,-0.9966916952674345,-5.219210003284784,0.0,-0.0014337236053893498,0.0,0.0,0.0,0.0,0.0
1757904960.132969,0.0,-18.752607641836587,0.0,0.0,0.0,0.0,3.1445470428773907,-15.573909487093653,6.810100647869892,3.74181278947575,-1.0995277502346386,-4.756100939099623,0.0,-0.003178698154742934,0.0,0.0,0.0,0.0,0.0
1757904960.1832123,0.0,-18.617330792547904,0.0,0.0,0.0,0.0,3.1202065433062387,-15.864839596189594,6.7617388341589555,3.9616228439830543,-1.094085068674325,-4.874770399390528,0.0,-0.00275249119635831,0.0,0.0,0.0,0.0,0.0
1757904960.2433362,0.0,-18.963099778354135,0.0,0.0,0.0,0.0,3.2192066377214887,-15.802991946941562,6.868229257695193,3.8845949236257145,-1.0906860860634913,-4.80773472087432,0.0,-0.0031601078314125726,0.0,0.0,0.0,0.0,0.0
1757904960.303442,0.0,-19.042890683439975,0.0,0.0,0.0,0.0,3.139267490206573,-17.056660558904156,6.940177902472193,4.494400456987067,-1.1606879627006441,-5.341227610621718,0.0,-0.001986230124535819,0.0,0.0,0.0,0.0,0.0
1757904960.3629482,0.0,-18.89979125340878,0.0,0.0,0.0,0.0,3.20057324211468,-16.525823744932733,6.848990321897662,4.28182610464443,-1.0911994200483695,-5.115247971305743,0.0,-0.002373967508476046,0.0,0.0,0.0,0.0,0.0
1757904960.4129791,0.0,-19.09108186098396,0.0,0.0,0.0,0.0,3.284228475090542,-16.419478466859218,6.8941241926042345,4.192448428879396,-1.0646791146942347,-5.012139308808282,0.0,-0.002671603394124741,0.0,0.0,0.0,0.0,0.0
1757904960.4730995,0.0,-19.024539958512577,0.0,0.0,0.0,0.0,3.221083536032734,-16.094682466694287,6.894484763576285,4.0517991478327025,-1.090915084452158,-4.93087410434913,0.0,-0.0029298574918182893,0.0,0.0,0.0,0.0,0.0
1757904960.532993,0.0,-19.12374198194801,0.0,0.0,0.0,0.0,3.4451175869051247,-16.750264670500023,6.829785208565227,4.405247927807532,-0.9552969892862669,-5.064666897879623,0.0,-0.0023734773114479886,0.0,0.0,0.0,0.0,0.0
1757904960.5832229,0.0,-19.217276134554986,0.0,0.0,0.0,0.0,3.2849438532008266,-16.158877470134797,6.949657272585172,4.0648834687785715,-1.0874184016718664,-4.923182851498728,0.0,-0.0030583986644201885,0.0,0.0,0.0,0.0,0.0
1757904960.633447,0.0,-19.07846298169217,0.0,0.0,0.0,0.0,3.22510435480625,-16.241732473111718,6.916411053401722,4.142564484223828,-1.1048131353920387,-4.977259399622117,0.0,-0.0028367305085804516,0.0,0.0,0.0,0.0,0.0
1757904960.6930845,0.0,-19.16041220986306,0.0,0.0,0.0,0.0,3.396939815256448,-15.824697923636691,6.870241863269779,3.9817595173815774,-0.9890884920613898,-4.718739633090596,0.0,-0.00333571428622637,0.0,0.0,0.0,0.0,0.0
1757904960.743939,0.0,-19.098420180308572,0.0,0.0,0.0,0.0,3.2741818157537135,-15.494522495212298,6.902150243131959,3.8157838059592555,-1.065364781331594,-4.654436302298073,0.0,-0.003603897685096275,0.0,0.0,0.0,0.0,0.0
1757904960.8033905,0.0,-19.408217091636015,0.0,0.0,0.0,0.0,3.3869494953459096,-15.459581239774007,6.985498953127662,3.767598869482226,-1.0380116790379632,-4.568206770694381,0.0,-0.003948635851862008,0.0,0.0,0.0,0.0,0.0
1757904960.8635895,0.0,-19.474922187187627,0.0,0.0,0.0,0.0,3.415452272197396,-15.95091767321834,7.001307081385853,4.013643273357602,-1.0348378082752956,-4.745351390079748,0.0,-0.0035240045139692863,0.0,0.0,0.0,0.0,0.0
1757904960.92296,0.0,-19.539309200642105,0.0,0.0,0.0,0.0,3.455566607402255,-16.145685917771853,7.0103206822465705,4.093873881772619,-1.0221555660456694,-4.8128691270566275,0.0,-0.0033936232828702517,0.0,0.0,0.0,0.0,0.0
1757904960.9731846,0.0,-19.41257233993097,0.0,0.0,0.0,0.0,3.5804113500884185,-17.16310762230804,6.890306882907793,4.6584786442044726,-0.9154492375521043,-5.126590061993311,0.0,-0.0022494647176229316,0.0,0.0,0.0,0.0,0.0
1757904961.0340202,0.0,-19.243211761435603,0.0,0.0,0.0,0.0,3.4393826935796823,-17.568805958218178,6.886133785396355,4.831564139115166,-0.9751941407621685,-5.367960311815953,0.0,-0.0016744058032174252,0.0,0.0,0.0,0.0,0.0
1757904961.0928903,0.0,-19.380700030947015,0.0,0.0,0.0,0.0,3.3932032411853847,-16.78125777991253,6.970223608632433,4.372767963559095,-1.0283055307523934,-5.094847919300906,0.0,-0.0025994422510344857,0.0,0.0,0.0,0.0,0.0
1757904961.143283,0.0,-19.237447285238105,0.0,0.0,0.0,0.0,3.5022982602549804,-17.50600493442484,6.851759437150822,4.806190178342307,-0.926783917095259,-5.299609291780439,0.0,-0.0017314423508132642,0.0,0.0,0.0,0.0,0.0
1757904961.2033987,0.0,-19.246491020820656,0.0,0.0,0.0,0.0,3.297017545678298,-16.991312354597827,6.956871564274727,4.511830591729263,-1.071290843664769,-5.230736149889633,0.0,-0.0022551786662228287,0.0,0.0,0.0,0.0,0.0
1757904961.2632177,0.0,-19.436940566625303,0.0,0.0,0.0,0.0,3.535084796949606,-17.640573201017624,6.9246170184970985,4.833436650416396,-0.9395304713200412,-5.352755243994395,0.0,-0.0017963673656076794,0.0,0.0,0.0,0.0,0.0
1757904961.322952,0.0,-19.618734245864662,0.0,0.0,0.0,0.0,3.316923240653858,-17.351492314067908,7.112044541563866,4.58838745210863,-1.1178500793412272,-5.369073331593661,0.0,-0.002267241931796754,0.0,0.0,0.0,0.0,0.0
1757904961.3757968,0.0,-19.675945740359747,0.0,0.0,0.0,0.0,3.381383103110546,-17.415144784545966,7.10697564611076,4.608587408653578,-1.0831557056967072,-5.343362709621871,0.0,-0.0022608009558137817,0.0,0.0,0.0,0.0,0.0
1757904961.433588,0.0,-19.80446103616564,0.0,0.0,0.0,0.0,3.2658547873823864,-17.26434689081919,7.217261310013103,4.480835700552893,-1.1820656064962092,-5.357949219898682,0.0,-0.0025401141453464506,0.0,0.0,0.0,0.0,0.0
1757904961.4928727,0.0,-19.978026974747443,0.0,0.0,0.0,0.0,3.299782678028195,-17.436134456827272,7.278109930908087,4.529821728254882,-1.1771187572466482,-5.430951663563154,0.0,-0.0025418925179201716,0.0,0.0,0.0,0.0,0.0
1757904961.5431483,0.0,-20.0,0.0,0.0,0.0,0.0,3.3782284501127586,-18.150742494615503,7.319183499414605,4.858093722485375,-1.161138467599709,-5.646496424602949,0.0,-0.0018492575053844966,0.0,0.0,0.0,0.0,0.0
1757904961.6033497,0.0,-20.0,0.0,0.0,0.0,0.0,3.4341712800306405,-17.63648801976314,7.607194165261661,4.401987969936013,-1.2691057537980563,-5.38935431172064,0.0,-0.0023635119802368613,0.0,0.0,0.0,0.0,0.0
1757904961.6631563,0.0,-20.0,0.0,0.0,0.0,0.0,3.2760181510870376,-16.882602268431878,7.927043947931786,3.8258434310721627,-1.4805067892127215,-5.189249257831125,0.0,-0.003117397731568122,0.0,0.0,0.0,0.0,0.0
1757904961.713229,0.0,-20.0,0.0,0.0,0.0,0.0,3.4934812289045407,-16.844390880306186,7.439397473967546,4.114951730433616,-1.1708435601498435,-5.06514122179939,0.0,-0.003155609119693814,0.0,0.0,0.0,0.0,0.0
1757904961.7734625,0.0,-16.640134474733753,0.0,0.0,0.0,0.0,3.4616540161264093,-18.353770279315476,5.685068471583394,6.042606953231757,-0.4485164896154262,-5.675215353978347,0.0,0.001713635804581724,0.0,0.0,0.0,0.0,0.0
1757904961.8330638,0.0,-13.278910222148472,0.0,0.0,0.0,0.0,3.143568870914866,-15.80889397770187,4.28143525279499,5.523060715829739,-0.07009057277504671,-4.870410582747163,0.0,0.002529983755553399,0.0,0.0,0.0,0.0,0.0
1757904961.8928812,0.0,-8.480891476122988,0.0,0.0,0.0,0.0,1.3923125692319471,-9.36867560780143,3.0934687563191625,2.4247657278355628,-0.5510655538493984,-3.327500727605292,0.0,0.0008877841316784423,0.0,0.0,0.0,0.0,0.0
1757904961.9430625,0.0,-5.00051688399648,0.0,0.0,0.0,0.0,0.3561217305902091,-6.862621805097359,1.9682490620200617,1.3866279034621574,-0.6598291469999893,-2.8010017966109153,0.0,0.0018621049211008797,0.0,0.0,0.0,0.0,0.0
1757904962.0029712,0.0,-4.0,0.0,0.0,0.0,0.0,-0.009768700915439701,-5.5922186458577325,1.5152028262271189,0.7620111093025518,-0.6478187265100253,-2.486377801431375,0.0,0.0015922186458577326,0.0,0.0,0.0,0.0,0.0
1757904962.0538907,0.0,-4.0,0.0,0.0,0.0,0.0,-0.20215483475180765,-5.487598384982171,1.4321629812663192,0.6444283330091746,-0.7086595751023632,-2.526066982960276,0.0,0.0014875983849821708,0.0,0.0,0.0,0.0,0.0
1757904962.1131747,0.0,-4.0,0.0,0.0,0.0,0.0,-0.38400366066977837,-5.229893962774778,1.2701664643903348,0.5353169112316917,-0.7252445190566761,-2.527732315890912,0.0,0.0012298939627747778,0.0,0.0,0.0,0.0,0.0
1757904962.1731868,0.0,-4.0,0.0,0.0,0.0,0.0,-0.5380085472423262,-4.612328705221589,1.2203168718623179,0.20222476783095522,-0.7746066897245193,-2.395313062896483,0.0,0.0006123287052215893,0.0,0.0,0.0,0.0,0.0
1757904962.2331443,0.0,-4.0,0.0,0.0,0.0,0.0,-0.3983784622153874,-4.7000706795248695,1.0275853329945845,0.2779234155690821,-0.6225225117442257,-2.349858544767149,0.0,0.0007000706795248694,0.0,0.0,0.0,0.0,0.0
1757904962.2928972,0.0,-4.0,0.0,0.0,0.0,0.0,-0.5822827456040004,-4.430932820262324,1.0495889250133115,0.12022019994935727,-0.7192378894132279,-2.3591388098300414,0.0,0.0004309328202623242,0.0,0.0,0.0,0.0,0.0
1757904962.343032,0.0,-4.0,0.0,0.0,0.0,0.0,-0.5757323648921533,-4.734316730572615,0.9486809066591388,0.31923018721843643,-0.6752747587884839,-2.4710094119644417,0.0,0.0007343167305726146,0.0,0.0,0.0,0.0,0.0
1757904962.4036,0.0,-4.0,0.0,0.0,0.0,0.0,-0.662085993715609,-4.696425416000886,0.98413454474162,0.27697927347000695,-0.7301147178123617,-2.5117629374591153,0.0,0.0006964254160008858,0.0,0.0,0.0,0.0,0.0
1757904962.4629347,0.0,-4.0,0.0,0.0,0.0,0.0,-0.7643175198689303,-4.443318438919335,0.9256157277045949,0.13428375735957954,-0.7618587156973036,-2.4470605085489976,0.0,0.00044331843891933523,0.0,0.0,0.0,0.0,0.0
1757904962.514111,0.0,-4.0,0.0,0.0,0.0,0.0,-0.8732599405700872,-3.798556427977033,0.9662953721488626,-0.21057802003669476,-0.8354763109665394,-2.2577562778396905,0.0,-0.00020144357202296704,0.0,0.0,0.0,0.0,0.0
1757904962.5734632,0.0,-4.0,0.0,0.0,0.0,0.0,-0.9121235763023214,-3.828353975115957,1.0159337444126875,-0.18311224469351553,-0.8696318747713851,-2.27830667656223,0.0,-0.0001716460248840428,0.0,0.0,0.0,0.0,0.0
1757904962.6328886,0.0,-4.0,0.0,0.0,0.0,0.0,-0.7734733245242379,-3.768341549926434,1.015168420740728,-0.16055460545952563,-0.7938284026858524,-2.185006260899664,0.0,-0.00023165845007356588,0.0,0.0,0.0,0.0,0.0
1757904962.6928616,0.0,-4.0,0.0,0.0,0.0,0.0,-0.6124324303081816,-3.7890397679306584,1.2175344497934955,-0.19960366109495636,-0.7763115676794488,-2.114308645894603,0.0,-0.00021096023206934155,0.0,0.0,0.0,0.0,0.0
1757904962.742964,0.0,-4.0,0.0,0.0,0.0,0.0,-0.4950151060320144,-4.089936114422608,1.384079961179527,-0.06395652616438566,-0.7697141757926489,-2.1721997389610603,0.0,8.993611442260807e-05,0.0,0.0,0.0,0.0,0.0
1757904962.8029668,0.0,-4.0,0.0,0.0,0.0,0.0,-0.4396235420069494,-4.2235110571236785,1.4503548312794785,0.00020898348715365188,-0.7672426142337128,-2.192410844262407,0.0,0.00022351105712367848,0.0,0.0,0.0,0.0,0.0
1757904962.8529918,0.0,-4.0,0.0,0.0,0.0,0.0,-0.4599040776421507,-4.142860122485934,1.3791559822382538,-0.006101845238164245,-0.7478727340043494,-2.179616693411582,0.0,0.00014286012248593404,0.0,0.0,0.0,0.0,0.0
1757904962.9035723,0.0,-4.0,0.0,0.0,0.0,0.0,-0.4999609554551784,-4.223133884033823,1.3115129052808172,0.017184893215877396,-0.7501466188251263,-2.2207860624140414,0.0,0.00022313388403382285,0.0,0.0,0.0,0.0,0.0
1757904962.9628549,0.0,-4.0,0.0,0.0,0.0,0.0,-0.5941982279736626,-4.137301843465475,1.24905542003898,-0.03825072731513469,-0.7834934307458854,-2.2359980496477023,0.0,0.00013730184346547514,0.0,0.0,0.0,0.0,0.0
1757904963.0134275,0.0,-4.0,0.0,0.0,0.0,0.0,-0.6052427840567404,-4.10329964322137,1.194664004912526,-0.04689162215535876,-0.7782740193112515,-2.2212131836642466,0.0,0.0001032996432213702,0.0,0.0,0.0,0.0,0.0
1757904963.063737,0.0,-4.0,0.0,0.0,0.0,0.0,-0.6992778385936856,-3.985047992743572,1.120899922507305,-0.08758935965574599,-0.803564665948352,-2.229240253465425,0.0,-1.4952007256427979e-05,0.0,0.0,0.0,0.0,0.0
1757904963.123038,0.0,-4.0,0.0,0.0,0.0,0.0,-0.7688091623852107,-3.810397567820166,1.073336751863876,-0.15991560874247124,-0.8207368617564074,-2.2085296576850473,0.0,-0.00018960243217983397,0.0,0.0,0.0,0.0,0.0
1757904963.1829975,0.0,-4.0,0.0,0.0,0.0,0.0,-0.6446763696700766,-3.7818850656438228,1.0824517435940963,-0.17158001438016965,-0.7660775319471349,-2.1221555959394105,0.0,-0.00021811493435617725,0.0,0.0,0.0,0.0,0.0
1757904963.2330947,0.0,-4.0,0.0,0.0,0.0,0.0,-0.6257247022068765,-3.833574223129001,1.1672836308038326,-0.13704719453805053,-0.7723298645210281,-2.1338266158121186,0.0,-0.00016642577687099892,0.0,0.0,0.0,0.0,0.0
1757904963.2928758,0.0,-4.0,0.0,0.0,0.0,0.0,-0.435717542306466,-3.996374525496178,1.2488031789385148,-0.0937407956983845,-0.6967123334061822,-2.1029466248457136,0.0,-3.6254745038220016e-06,0.0,0.0,0.0,0.0,0.0
1757904963.3432107,0.0,-4.0,0.0,0.0,0.0,0.0,-0.35110107901035686,-4.5845643132226925,1.2480072251887133,0.21831080778198847,-0.650723265315679,-2.280740635067078,0.0,0.0005845643132226926,0.0,0.0,0.0,0.0,0.0
1757904963.4030762,0.0,-4.0,0.0,0.0,0.0,0.0,-0.2502840071243581,-4.748015362784985,1.3145979097592664,0.2844029870920132,-0.6225718142137809,-2.303461713030677,0.0,0.0007480153627849849,0.0,0.0,0.0,0.0,0.0
1757904963.462965,0.0,-4.0,0.0,0.0,0.0,0.0,-0.6173444962434947,-4.303349869953802,1.1429468436145922,0.047779052220147986,-0.759796217352325,-2.3287340134738757,0.0,0.0003033498699538022,0.0,0.0,0.0,0.0,0.0
1757904963.5134711,0.0,-4.0,0.0,0.0,0.0,0.0,-0.8698901233644387,-3.8620593661282965,1.0059142202045979,-0.155870785909656,-0.8419325471749542,-2.281245628234404,0.0,-0.00013794063387170352,0.0,0.0,0.0,0.0,0.0
1757904963.574198,0.0,-4.0,0.0,0.0,0.0,0.0,-0.8911806000396133,-3.7380575153372027,0.8624748860536132,-0.1816680155805816,-0.7955452646429461,-2.2288854288228546,0.0,-0.00026194248466279734,0.0,0.0,0.0,0.0,0.0
1757904963.6330605,0.0,-4.0,0.0,0.0,0.0,0.0,-0.7555835280456519,-3.971767147669532,1.0613308339921042,-0.12481010743007098,-0.7985424863501884,-2.2529576527637363,0.0,-2.8232852330468018e-05,0.0,0.0,0.0,0.0,0.0
1757904963.6929185,0.0,-4.0,0.0,0.0,0.0,0.0,-0.5639729624599998,-4.207331263714452,1.1689069851552396,0.004607158851341849,-0.7328961523278956,-2.2372230085183693,0.0,0.000207331263714452,0.0,0.0,0.0,0.0,0.0
1757904963.7431948,0.0,-4.0,0.0,0.0,0.0,0.0,-0.6090257069203425,-4.05575363555511,1.1628388798254357,-0.06495861276597827,-0.7502207229530891,-2.2130024670545376,0.0,5.575363555511004e-05,0.0,0.0,0.0,0.0,0.0
1757904963.8033667,0.0,-4.0,0.0,0.0,0.0,0.0,-0.6335019550965563,-4.094882451493826,1.0588744159321173,-0.003263561568502254,-0.7298489212187116,-2.2280655241774703,0.0,9.488245149382557e-05,0.0,0.0,0.0,0.0,0.0
1757904963.8629277,0.0,-4.0,0.0,0.0,0.0,0.0,-0.6851928575952165,-3.8071528161249137,1.1240702146719264,-0.17845225781632937,-0.7851933879770006,-2.1499402406363064,0.0,-0.00019284718387508625,0.0,0.0,0.0,0.0,0.0
1757904963.9135678,0.0,-4.0,0.0,0.0,0.0,0.0,-0.625160918148816,-3.7987426756912734,1.078068198562053,-0.14259191117458295,-0.7355117951430101,-2.1093310564742813,0.0,-0.00020125732430872656,0.0,0.0,0.0,0.0,0.0
1757904963.973203,0.0,-4.0,0.0,0.0,0.0,0.0,-0.6265302262531611,-3.897363005906303,1.1785744757056975,-0.13111896795360445,-0.7646541423750313,-2.155470799179317,0.0,-0.00010263699409369709,0.0,0.0,0.0,0.0,0.0
1757904964.0330672,0.0,-4.0,0.0,0.0,0.0,0.0,-0.5083763694568288,-4.3601028659704175,1.299255907580877,0.04501949978525373,-0.739458285253571,-2.2766307251711098,0.0,0.0003601028659704175,0.0,0.0,0.0,0.0,0.0
1757904964.083776,0.0,-4.0,0.0,0.0,0.0,0.0,-0.438612040022755,-4.779088730473553,1.375702778622675,0.2579495068415523,-0.734226903731422,-2.405158878401899,0.0,0.0007790887304735534,0.0,0.0,0.0,0.0,0.0
1757904964.143011,0.0,-4.0,0.0,0.0,0.0,0.0,-0.6567060649465878,-4.217346798311839,1.1899264670264513,-0.02401821373366709,-0.7851575032904401,-2.3141425397389055,0.0,0.0002173467983118389,0.0,0.0,0.0,0.0,0.0
1757904964.203207,0.0,-4.0,0.0,0.0,0.0,0.0,-0.8841782306868103,-3.7281383126430665,0.9202796498672305,-0.23164289976972266,-0.8122567994074164,-2.228515417638157,0.0,-0.0002718616873569335,0.0,0.0,0.0,0.0,0.0
1757904964.2629237,0.0,-4.0,0.0,0.0,0.0,0.0,-0.9411680792619022,-3.412760099468758,0.8503965407469174,-0.3491556500798989,-0.8157093935034779,-2.1311326131674244,0.0,-0.0005872399005312418,0.0,0.0,0.0,0.0,0.0
1757904964.313135,0.0,-4.0,0.0,0.0,0.0,0.0,-0.781805102122511,-3.563822709360753,1.0290902326402354,-0.2958634319753636,-0.788798011699963,-2.1044382095561254,0.0,-0.00043617729063924715,0.0,0.0,0.0,0.0,0.0
1757904964.3729534,0.0,-4.0,0.0,0.0,0.0,0.0,-0.6239351844295958,-3.6696716093657065,1.2368921843543035,-0.2850724320203232,-0.7758027949871296,-2.0670684868533584,0.0,-0.00033032839063429353,0.0,0.0,0.0,0.0,0.0
1757904964.4328437,0.0,-4.0,0.0,0.0,0.0,0.0,-0.4828343841991628,-3.8792857172014155,1.3115118782403625,-0.15343928286275765,-0.7260895492055618,-2.0769153927093686,0.0,-0.00012071428279858454,0.0,0.0,0.0,0.0,0.0
1757904964.4830923,0.0,-4.0,0.0,0.0,0.0,0.0,-0.22246912434558153,-4.199001912177549,1.3992231705013798,-0.0021760323613971323,-0.6234931224457525,-2.0749204350775896,0.0,0.00019900191217754858,0.0,0.0,0.0,0.0,0.0
1757904964.542969,0.0,-4.0,0.0,0.0,0.0,0.0,-0.17222594760782228,-4.86999098780799,1.5638706582682846,0.3066229799349086,-0.6666736126281543,-2.325250912277215,0.0,0.0008699909878079897,0.0,0.0,0.0,0.0,0.0
1757904964.6037672,0.0,-4.0,0.0,0.0,0.0,0.0,-0.40546352480495496,-4.336402954855867,1.3178568843020124,0.06558549866031244,-0.7161531354741999,-2.226205029932542,0.0,0.0003364029548558669,0.0,0.0,0.0,0.0,0.0
1757904964.6628437,0.0,-4.0,0.0,0.0,0.0,0.0,-0.5276454233389836,-3.777140263696907,1.1354056468170524,-0.18624386265931567,-0.7150082008075398,-2.060535526487611,0.0,-0.00022285973630309285,0.0,0.0,0.0,0.0,0.0
1757904964.7134926,0.0,-4.0,0.0,0.0,0.0,0.0,-0.8180297921084757,-3.3415460950058664,1.0055318309570616,-0.3942411458942787,-0.8173775562106391,-2.05093419846802,0.0,-0.0006584539049941336,0.0,0.0,0.0,0.0,0.0
1757904964.7730484,0.0,-4.0,0.0,0.0,0.0,0.0,-0.6024905200024158,-4.404170728253319,1.0916097222956207,0.08998925762166156,-0.721307462119412,-2.347757842007579,0.0,0.0004041707282533187,0.0,0.0,0.0,0.0,0.0
1757904964.8232584,0.0,-4.0,0.0,0.0,0.0,0.0,-0.5134789817507351,-4.6006070655861695,1.043152094952246,0.24501617016884344,-0.6536721393692501,-2.3776555629768676,0.0,0.0006006070655861695,0.0,0.0,0.0,0.0,0.0
1757904964.8829281,0.0,-4.0,0.0,0.0,0.0,0.0,-0.663746197807497,-4.293665349180859,0.9806696679965787,0.07037363122940564,-0.7146264657151339,-2.3382689835522976,0.0,0.00029366534918085917,0.0,0.0,0.0,0.0,0.0
1757904964.9430835,0.0,-4.0,0.0,0.0,0.0,0.0,-0.9846473973159091,-3.6947907400970443,0.9147433546044473,-0.243220759508544,-0.8590782755827372,-2.2829381473602277,0.0,-0.0003052092599029557,0.0,0.0,0.0,0.0,0.0
1757904965.003134,0.0,-4.0,0.0,0.0,0.0,0.0,-1.0623920684267434,-3.563644663952846,0.8481447153111703,-0.3325653088657584,-0.8750677110273117,-2.2648574037418423,0.0,-0.00043635533604715395,0.0,0.0,0.0,0.0,0.0
1757904965.0628514,0.0,-4.0,0.0,0.0,0.0,0.0,-0.8499261820973631,-4.09289846217916,0.9232728898796435,-0.036274763811778854,-0.7857892305261629,-2.345898536443721,0.0,9.289846217915976e-05,0.0,0.0,0.0,0.0,0.0
1757904965.1132267,0.0,-4.0,0.0,0.0,0.0,0.0,-0.7211435829511105,-4.153513097570628,1.1277692309277156,-0.06230298609463808,-0.7843298058692814,-2.304751240714324,0.0,0.00015351309757062826,0.0,0.0,0.0,0.0,0.0
1757904965.1738815,0.0,-4.0,0.0,0.0,0.0,0.0,-0.8049228354260644,-3.9654541359603908,1.0930355462039767,-0.12620245284248438,-0.8123804251765556,-2.276851396891663,0.0,-3.4545864039609245e-05,0.0,0.0,0.0,0.0,0.0
1757904965.2328446,0.0,-4.0,0.0,0.0,0.0,0.0,-0.7404929047673702,-3.7900006044856163,1.0482903083151833,-0.22034537619055422,-0.7695534877284642,-2.178281273944986,0.0,-0.00020999939551438374,0.0,0.0,0.0,0.0,0.0
1757904965.2830367,0.0,-4.0,0.0,0.0,0.0,0.0,-0.7339609493044952,-4.034070524557437,1.0500742688435212,-0.0927076517455778,-0.7780360054723535,-2.2548709820206994,0.0,3.407052455743731e-05,0.0,0.0,0.0,0.0,0.0
1757904965.333136,0.0,-4.0,0.0,0.0,0.0,0.0,-0.5944115319361858,-4.117770771515217,1.0243531769845529,-0.03348429424977496,-0.6924070365875818,-2.2154074173662175,0.0,0.0001177707715152172,0.0,0.0,0.0,0.0,0.0
1757904965.3928778,0.0,-4.0,0.0,0.0,0.0,0.0,-0.6939317843762975,-4.144523588699984,1.054219779399475,-0.03098097634826471,-0.7505763654457138,-2.288003182266387,0.0,0.00014452358869998427,0.0,0.0,0.0,0.0,0.0
1757904965.4429648,0.0,-4.0,0.0,0.0,0.0,0.0,-0.7027301428964673,-4.1365932181414955,1.0140259235218718,0.0017042142087190255,-0.7397283052733015,-2.285490617383049,0.0,0.0001365932181414955,0.0,0.0,0.0,0.0,0.0
1757904965.5030048,0.0,-4.0,0.0,0.0,0.0,0.0,-0.834219492220289,-3.590449110066749,0.9866117390300683,-0.2878200788164046,-0.816448993207857,-2.130150952865092,0.0,-0.00040955088993325096,0.0,0.0,0.0,0.0,0.0
1757904965.5629196,0.0,-4.0,0.0,0.0,0.0,0.0,-0.6913657295278615,-3.383917477748321,1.0769104470639483,-0.40853686400905215,-0.7685855474956973,-1.9845092020862956,0.0,-0.0006160825222516789,0.0,0.0,0.0,0.0,0.0
1757904965.6130264,0.0,-4.0,0.0,0.0,0.0,0.0,-0.6610330914632717,-3.840311117845118,1.1521352483718206,-0.1726686387726577,-0.7677253162575213,-2.143788632726016,0.0,-0.00015968888215488208,0.0,0.0,0.0,0.0,0.0
1757904965.673265,0.0,-4.0,0.0,0.0,0.0,0.0,-0.31795688204254924,-4.5210182241506764,1.4363916181519216,0.12678295729100986,-0.6893837192842542,-2.247455613883366,0.0,0.0005210182241506765,0.0,0.0,0.0,0.0,0.0
1757904965.7329934,0.0,-4.0,0.0,0.0,0.0,0.0,-0.23705196247889468,-4.453959775629772,1.4652922491534563,0.10383310323120942,-0.6697738914104214,-2.1919483387386074,0.0,0.0004539597756297722,0.0,0.0,0.0,0.0,0.0
1757904965.7830985,0.0,-4.0,0.0,0.0,0.0,0.0,-0.26281827725675744,-4.2376374953804685,1.3358042414680922,-0.01124085719821339,-0.6501995043137864,-2.106517174921898,0.0,0.0002376374953804685,0.0,0.0,0.0,0.0,0.0
1757904965.8431692,0.0,-4.0,0.0,0.0,0.0,0.0,-0.6864293125584375,-3.856429842694499,1.0633397907641238,-0.18322585728142315,-0.7716492611006748,-2.1733623924038743,0.0,-0.00014357015730550105,0.0,0.0,0.0,0.0,0.0
1757904965.9030569,0.0,-4.0,0.0,0.0,0.0,0.0,-0.9120581237037684,-3.7270340511090927,1.0741335724414511,-0.27660958867429736,-0.8926214464442942,-2.233625691314339,0.0,-0.0002729659488909073,0.0,0.0,0.0,0.0,0.0
1757904965.9629297,0.0,-4.0,0.0,0.0,0.0,0.0,-0.7967283052116959,-3.9284202896089475,1.001362373072335,-0.10550626654552897,-0.7947869175611938,-2.2548993275214055,0.0,-7.157971039105249e-05,0.0,0.0,0.0,0.0,0.0
1757904966.012942,0.0,-4.0,0.0,0.0,0.0,0.0,-0.5825514685983222,-4.333050418994189,1.0703874446165633,0.08715856610104461,-0.7071126680857164,-2.299144619092467,0.0,0.00033305041899418873,0.0,0.0,0.0,0.0,0.0
1757904966.063004,0.0,-4.0,0.0,0.0,0.0,0.0,-0.5314033608320847,-4.394522936805075,1.1421369008149713,0.10830514309001366,-0.7021171619893589,-2.3051628281898284,0.0,0.00039452293680507466,0.0,0.0,0.0,0.0,0.0
1757904966.1141093,0.0,-4.0,0.0,0.0,0.0,0.0,-0.6706465896432208,-4.284158527438488,1.1780482756411494,0.03979708321854637,-0.7901776943049617,-2.3362302755199136,0.0,0.00028415852743848813,0.0,0.0,0.0,0.0,0.0
1757904966.1733742,0.0,-4.0,0.0,0.0,0.0,0.0,-0.763381410210382,-3.85268678283516,1.1974815623741955,-0.3295490820579806,-0.8639974314014108,-2.1975760671232316,0.0,-0.00014731321716483992,0.0,0.0,0.0,0.0,0.0
1757904966.233063,0.0,-5.04839497011664,0.0,0.0,0.0,0.0,-0.9109254336510676,-3.450638417439117,1.8022268276261606,-0.8820229570820979,-1.160935733024235,-2.1329303158603965,0.0,-0.0015977565526775232,0.0,0.0,0.0,0.0,0.0
1757904966.2834795,0.0,-4.887908851505598,0.0,0.0,0.0,0.0,-0.6058033981971782,-3.8973225676544136,1.8589423641503884,-0.6199732356492765,-1.012861773630916,-2.1601247284043947,0.0,-0.0009905862838511844,0.0,0.0,0.0,0.0,0.0
1757904966.3430743,0.0,-4.70347248478495,0.0,0.0,0.0,0.0,-0.04113887924518053,-5.924812724817032,1.8809391640973154,0.508884457016919,-0.7329756654196783,-2.631781990141163,0.0,0.0012213402400320828,0.0,0.0,0.0,0.0,0.0
1757904966.4030054,0.0,-7.232357703135502,0.0,0.0,0.0,0.0,0.05076765300447737,-6.897049795848726,2.892497591491645,0.6234157224734728,-1.0656138065961287,-3.0630312447784593,0.0,-0.0003353079072867766,0.0,0.0,0.0,0.0,0.0
1757904966.4628148,0.0,-8.036618896185912,0.0,0.0,0.0,0.0,-0.22278198129675927,-7.514734867713264,3.206918632272214,0.6194055437138267,-1.3268401410586235,-3.489918734407476,0.0,-0.0005218840284726483,0.0,0.0,0.0,0.0,0.0
1757904966.512949,0.0,-8.416764139019422,0.0,0.0,0.0,0.0,-0.20928115662108235,-8.374786682857208,3.3601946921249493,0.9455562760316106,-1.379085924516929,-3.812276951906077,0.0,-4.197745616221482e-05,0.0,0.0,0.0,0.0,0.0
1757904966.5729494,0.0,-9.422956812073478,0.0,0.0,0.0,0.0,0.0943604901015318,-9.580963990379656,3.768001394779481,1.3115819887117044,-1.3977547161705797,-4.093227292479132,0.0,0.00015800717830617827,0.0,0.0,0.0,0.0,0.0
1757904966.6328604,0.0,-11.75291414597453,0.0,0.0,0.0,0.0,0.13502283596836953,-10.724952365513804,4.699226253479479,1.2825086166429198,-1.7681917630826884,-4.534399067199725,0.0,-0.0010279617804607266,0.0,0.0,0.0,0.0,0.0
1757904966.6829298,0.0,-11.298106667995729,0.0,0.0,0.0,0.0,0.28197145120759887,-13.294020319768649,4.510437493828,2.7342366629402757,-1.6213956696927256,-5.4659531216661605,0.0,0.00199591365177292,0.0,0.0,0.0,0.0,0.0
1757904966.7432966,0.0,-12.787334121901752,0.0,0.0,0.0,0.0,0.2345412979903995,-12.728391688963933,5.1095534649087915,2.1014830859323888,-1.8851134793871656,-5.306214099799973,0.0,-5.8942432937818976e-05,0.0,0.0,0.0,0.0,0.0
1757904966.8029327,0.0,-13.280321107698501,0.0,0.0,0.0,0.0,-0.01805042557761454,-12.303321841475528,5.312097775635314,1.4645395595151596,-2.1635818822684785,-5.172475950921274,0.0,-0.0009769992662229737,0.0,0.0,0.0,0.0,0.0
1757904966.8628876,0.0,-12.66957618858419,0.0,0.0,0.0,0.0,0.12211091306823746,-13.073681515209138,5.066359112088676,1.9741138012272905,-2.010017025241624,-5.378491505281989,0.0,0.0004041053266249488,0.0,0.0,0.0,0.0,0.0
1757904966.9132876,0.0,-13.566918733954145,0.0,0.0,0.0,0.0,0.3949389760100224,-14.30462594850188,5.412377355157593,2.523290650540978,-1.9787257776464056,-5.74832292527453,0.0,0.0007377072145477346,0.0,0.0,0.0,0.0,0.0
1757904966.9730134,0.0,-13.318515097798226,0.0,0.0,0.0,0.0,0.5312492582188192,-14.453968482673282,5.300851755264114,2.6423611090784895,-1.8703490200522097,-5.735241120975928,0.0,0.0011354533848750563,0.0,0.0,0.0,0.0,0.0
1757904967.0329602,0.0,-12.434830705660405,0.0,0.0,0.0,0.0,0.0050271563622982796,-14.026885340286116,4.973929741788527,2.4342468455826767,-2.0300176619436323,-5.825016582306508,0.0,0.0015920546346257112,4.025674664971633,0.0,0.0,0.0,-6.933421050559498
1757904967.083873,0.0,-18.862784458018147,0.0,0.0,0.0,0.0,-1.0222995547652365,-12.86735165308144,7.475536477194862,0.6780989633133867,-3.528839731933279,-6.086224161156492,0.0,-0.005995432804936707,0.0,0.0,0.0,0.0,0.0
1757904967.146095,0.0,-16.289658867217167,0.0,0.0,0.0,0.0,2.1514839643537966,-16.501433115181356,6.150414174084341,4.237288451326588,-1.3709787327531955,-5.823209268411297,0.0,0.00021177424796418976,0.0,0.0,0.0,0.0,0.0
1757904967.2032056,0.0,-17.54097926953559,0.0,0.0,0.0,0.0,2.0277974926096314,-16.74539806784809,6.716977737528277,4.037029454230257,-1.6176577529440443,-5.9462459608461975,0.0,-0.0007955812016875009,0.0,0.0,0.0,0.0,0.0
1757904967.2629168,0.0,-19.806123258560646,0.0,0.0,0.0,0.0,0.7290692991678513,-16.839616536283646,7.888831404101524,3.2365196562682144,-2.711087266273976,-6.788934436671379,0.0,-0.0029665067222769998,0.0,0.0,0.0,0.0,0.0
1757904967.3135712,0.0,-20.0,0.0,0.0,0.0,0.0,2.342122585378153,-18.449547515056327,7.703350164000968,4.310907912727782,-1.8359045703033317,-6.468182091038953,0.0,-0.0015504524849436728,0.0,0.0,0.0,0.0,0.0
1757904967.3730829,0.0,-18.797117051223506,0.0,0.0,0.0,0.0,2.1949213796885045,-18.290352747451816,7.191340462456906,4.622951301266196,-1.7106990984257953,-6.463069477894257,0.0,-0.0005067643037716892,0.0,0.0,0.0,0.0,0.0
1757904967.4328558,0.0,-19.676332464508487,0.0,0.0,0.0,0.0,2.3656653812803583,-18.16521408317671,7.506591555721609,4.344634706325209,-1.7372864850376115,-6.347924227478273,0.0,-0.0015111183813317766,0.0,0.0,0.0,0.0,0.0
1757904967.483225,0.0,-19.695083851590873,0.0,0.0,0.0,0.0,2.570092607119497,-19.353327948644562,7.447015271786476,4.948970383062269,-1.6149064605338277,-6.673351876902833,0.0,-0.00034175590294631067,0.0,0.0,0.0,0.0,0.0
1757904967.5434098,0.0,-19.382562013905815,0.0,0.0,0.0,0.0,2.074992424856837,-19.796928479825443,7.470194112099865,5.226450904748335,-1.877106484036108,-7.1233212605467,0.0,0.0004143664659196276,0.0,0.0,0.0,0.0,0.0
1757904967.6032588,0.0,-18.976302651673684,0.0,0.0,0.0,0.0,2.386835864434582,-18.008801772366475,7.205485724690297,4.414387456139392,-1.6104335967889478,-6.25324684045337,0.0,-0.0009675008793072096,0.0,0.0,0.0,0.0,0.0
1757904967.6629303,0.0,-19.52227814506589,0.0,0.0,0.0,0.0,2.5622432840760045,-15.379432346760623,7.376584873024791,3.0412655478318773,-1.57679296586902,-5.17057103758558,0.0,-0.0041428457983052665,0.0,0.0,0.0,0.0,0.0
1757904967.7130704,0.0,-19.63956061248625,0.0,0.0,0.0,0.0,2.480246404056232,-15.940585671602438,7.45401585344501,3.3843270587270973,-1.65206458960713,-5.407413441241142,0.0,-0.0036989749408838117,0.0,0.0,0.0,0.0,0.0
1757904967.7729764,0.0,-20.0,0.0,0.0,0.0,0.0,2.6734654770785107,-16.98799741638821,7.803022023468296,3.783010043565131,-1.6971302659798102,-5.66033807180369,0.0,-0.003012002583611789,0.0,0.0,0.0,0.0,0.0
1757904967.823012,0.0,-20.0,0.0,0.0,0.0,0.0,2.901491367906643,-18.166716100046475,7.781448218410279,4.418491247316773,-1.5789984675299296,-5.971897556136815,0.0,-0.001833283899953525,0.0,0.0,0.0,0.0,0.0
1757904967.8732693,0.0,-20.0,0.0,0.0,0.0,0.0,3.1266734248060644,-19.940423336619133,7.6764251291577015,5.344296702209229,-1.4226293723569459,-6.526146398540148,0.0,-5.9576663380866536e-05,0.0,0.0,0.0,0.0,0.0
1757904967.9329336,0.0,-20.0,0.0,0.0,0.0,0.0,2.815317537771819,-19.996665405215396,7.502848526181292,5.448095408535922,-1.5129201965519607,-6.744417548825021,0.0,-3.3345947846044054e-06,0.0,0.0,0.0,0.0,0.0
1757904967.983673,0.0,-19.682404992870868,0.0,0.0,0.0,0.0,2.739252153147797,-18.610009554452617,7.38105874858189,4.7187494636504,-1.5051403541898327,-6.267693921900554,0.0,-0.0010723954384182512,0.0,0.0,0.0,0.0,0.0
1757904968.0441916,0.0,-19.688909896653268,0.0,0.0,0.0,0.0,2.846173295103137,-18.558230139136885,7.343283001574073,4.705169558470346,-1.432180726366028,-6.174394869797489,0.0,-0.0011306797575163828,0.0,0.0,0.0,0.0,0.0
1757904968.1032295,0.0,-20.0,0.0,0.0,0.0,0.0,3.0417614015301093,-18.982528878418115,7.569742032963366,4.895399522497827,-1.4190077892636141,-6.1959070820871744,0.0,-0.0010174711215818846,0.0,0.0,0.0,0.0,0.0
1757904968.1544642,0.0,-20.0,0.0,0.0,0.0,0.0,2.945585411400195,-19.57297325778254,7.59921864984869,5.1985994914918034,-1.4797122539723662,-6.4891292602596895,0.0,-0.0004270267422174605,0.0,0.0,0.0,0.0,0.0
1757904968.2131207,0.0,-20.0,0.0,0.0,0.0,0.0,3.0121136929422327,-19.699733902404546,7.561008135748356,5.280455364200066,-1.435480563654287,-6.499050294843836,0.0,-0.0003002660975954541,0.0,0.0,0.0,0.0,0.0
1757904968.2734213,0.0,-20.0,0.0,0.0,0.0,0.0,2.9877098412770113,-19.1060126311816,7.4321910650428515,4.992013311703304,-1.395507698289988,-6.281127634964545,0.0,-0.0008939873688184008,0.0,0.0,0.0,0.0,0.0
1757904968.3329203,0.0,-20.0,0.0,0.0,0.0,0.0,2.9921574653145937,-19.408005465407783,7.583990836894724,5.1035195288349495,-1.4515482338585803,-6.376624878632828,0.0,-0.0005919945345922173,0.0,0.0,0.0,0.0,0.0
1757904968.3831053,0.0,-20.0,0.0,0.0,0.0,0.0,3.0247885377331767,-19.293299473880484,7.577698105616988,5.066695662230769,-1.43379151507266,-6.328684517731109,0.0,-0.0007067005261195157,0.0,0.0,0.0,0.0,0.0
1757904968.4432392,0.0,-20.0,0.0,0.0,0.0,0.0,3.0510367231491102,-18.89620527197525,7.531627317266945,4.912241615190472,-1.4036874311589622,-6.155115322444866,0.0,-0.0011037947280247487,0.0,0.0,0.0,0.0,0.0
1757904968.5034466,0.0,-20.0,0.0,0.0,0.0,0.0,2.9723924301391462,-18.729319448411307,7.6815968084810855,4.763238251701419,-1.5027926655873025,-6.129792370673382,0.0,-0.0012706805515886935,0.0,0.0,0.0,0.0,0.0
1757904968.5629735,0.0,-20.0,0.0,0.0,0.0,0.0,3.1028124396899335,-18.933801963467598,7.742531826811602,4.870020821096993,-1.4552947898153663,-6.143122817254584,0.0,-0.001066198036532402,0.0,0.0,0.0,0.0,0.0
1757904968.6132352,0.0,-20.0,0.0,0.0,0.0,0.0,3.208075880019356,-19.311236054346708,7.7603823708002375,5.03707973730506,-1.4165684857855914,-6.212034699974563,0.0,-0.0006887639456532923,0.0,0.0,0.0,0.0,0.0
1757904968.6737695,0.0,-20.0,0.0,0.0,0.0,0.0,2.9901074910069734,-19.034785729130128,7.798955950738852,4.882711953271712,-1.542647002359641,-6.230281812620648,0.0,-0.0009652142708698719,0.0,0.0,0.0,0.0,0.0
1757904968.732962,0.0,-20.0,0.0,0.0,0.0,0.0,3.13699916471108,-19.453839224763136,7.733591841066344,5.1098013848773505,-1.4473377168210044,-6.288042446855739,0.0,-0.0005461607752368636,0.0,0.0,0.0,0.0,0.0
1757904968.783401,0.0,-20.0,0.0,0.0,0.0,0.0,2.96711523621145,-18.841108829701742,7.696431316378249,4.821210673494441,-1.5137061309154245,-6.168794896693722,0.0,-0.001158891170298258,0.0,0.0,0.0,0.0,0.0
1757904968.8431928,0.0,-20.0,0.0,0.0,0.0,0.0,3.0814377175912324,-19.292445661690856,7.745549997325482,5.044694424189719,-1.4761135814566593,-6.2805475836562525,0.0,-0.0007075543383091443,0.0,0.0,0.0,0.0,0.0
1757904968.903093,0.0,-20.0,0.0,0.0,0.0,0.0,3.2536199104847685,-19.837508904651436,7.7869544612710895,5.270388530532338,-1.4075686058931018,-6.391195191978366,0.0,-0.00016249109534856388,0.0,0.0,0.0,0.0,0.0
1757904968.962907,0.0,-20.0,0.0,0.0,0.0,0.0,3.1245167489033863,-20.238667657364676,7.699289047896753,5.521031967306024,-1.4338982472367512,-6.633388354880542,0.0,0.00023866765736467598,0.0,0.0,0.0,0.0,0.0
1757904969.0133488,0.0,-20.0,0.0,0.0,0.0,0.0,3.083306928138383,-19.54049595030076,7.489643796470507,5.237186327423582,-1.3703001940717026,-6.405033535082021,0.0,-0.0004595040496992411,0.0,0.0,0.0,0.0,0.0
1757904969.0730581,0.0,-19.824211620940336,0.0,0.0,0.0,0.0,2.7511416732494087,-18.86208722641067,7.437144486723556,4.87045655040548,-1.527833335523055,-6.334211031094266,0.0,-0.0009621243945296669,0.0,0.0,0.0,0.0,0.0
1757904969.1338809,0.0,-20.0,0.0,0.0,0.0,0.0,3.0486666220846397,-19.38139709471189,7.506936339554015,5.16015036519662,-1.390376232284505,-6.34771751590604,0.0,-0.0006186029052881103,0.0,0.0,0.0,0.0,0.0
1757904969.1929545,0.0,-20.0,0.0,0.0,0.0,0.0,3.1956121494001755,-19.131322749939944,7.5646094225880125,5.0579757608601685,-1.3418752303124988,-6.167577560432401,0.0,-0.0008686772500600562,0.0,0.0,0.0,0.0,0.0
1757904969.2431502,0.0,-20.0,0.0,0.0,0.0,0.0,3.1376881327811956,-18.460297715015315,7.703494628519859,4.65250953091703,-1.427458059325567,-5.943444786683283,0.0,-0.001539702284984685,0.0,0.0,0.0,0.0,0.0
1757904969.3032284,0.0,-20.0,0.0,0.0,0.0,0.0,3.1215156348185618,-19.050259606509336,7.820632931392626,4.890609647912765,-1.4753123381195596,-6.172421312707451,0.0,-0.0009497403934906643,0.0,0.0,0.0,0.0,0.0
1757904969.362959,0.0,-20.0,0.0,0.0,0.0,0.0,3.365186612463698,-20.57073585342745,7.790628775446821,5.64312124296454,-1.3449831547178053,-6.650213800506258,0.0,0.0005707358534274505,0.0,0.0,0.0,0.0,0.0
1757904969.4131174,0.0,-20.0,0.0,0.0,0.0,0.0,3.081181386721048,-20.335902591277506,7.638874362593979,5.5589394278665,-1.4336731732606192,-6.715868133468922,0.0,0.00033590259127750597,0.0,0.0,0.0,0.0,0.0
1757904969.4730322,0.0,-19.720974811913795,0.0,0.0,0.0,0.0,2.585598073871648,-20.149042363244206,7.4526088187649675,5.356253022224894,-1.6395048401164403,-6.91776568155009,0.0,0.0004280675513304111,0.0,0.0,0.0,0.0,0.0
1757904969.5329237,0.0,-18.820800365554522,0.0,0.0,0.0,0.0,2.332296130839432,-19.12166420904367,7.157932591333937,4.835071111520023,-1.6881585578089298,-6.645214058481811,0.0,0.00030086384348914665,0.0,0.0,0.0,0.0,0.0
1757904969.584042,0.0,-17.767971668341023,0.0,0.0,0.0,0.0,2.1317377212383595,-19.811170551641503,6.779957598758607,5.373697964929422,-1.6419487584336347,-7.023436326626213,0.0,0.00204319888330048,0.0,0.0,0.0,0.0,0.0
1757904969.6439836,0.0,-16.78965420768661,0.0,0.0,0.0,0.0,2.281891986628187,-19.707875931086175,6.3163096114386486,5.59651124002082,-1.3924263741745737,-6.895525622866003,0.0,0.002918221723399565,0.0,0.0,0.0,0.0,0.0
1757904969.703626,0.0,-9.704127335972947,0.0,0.0,0.0,0.0,0.6880704072583886,-16.51146641227556,3.8201797197382823,4.925032985811784,-1.1872289474512014,-6.51524881848986,0.0,0.0068073390763026135,0.0,0.0,0.0,0.0,0.0
1757904969.762909,0.0,-6.260837961468688,0.0,0.0,0.0,0.0,-0.1587063592775118,-12.574041499641158,2.4993013040223184,3.3090910745816644,-1.0661722706239398,-5.3500934220021525,0.0,0.00631320353817247,0.0,0.0,0.0,0.0,0.0
1757904969.812993,0.0,-4.748633997207945,0.0,0.0,0.0,0.0,-0.617252095237119,-10.309958500140075,1.796364056987237,2.4915080689446163,-1.0128554284450693,-4.7269069616874315,0.0,0.005561324502932129,0.0,0.0,0.0,0.0,0.0
1757904969.872899,0.0,-4.0,0.0,0.0,0.0,0.0,-0.8767274905892799,-8.525076270123883,1.1972438467911541,1.8867282667479284,-0.9121032412183478,-4.168562813035773,0.0,0.004525076270123883,0.0,0.0,0.0,0.0,0.0
1757904969.9229128,0.0,-4.0,0.0,0.0,0.0,0.0,-1.2630829399326324,-6.618360469490151,0.94136751415235,1.0583419231398503,-1.0082212135867463,-3.636695476381515,0.0,0.002618360469490151,0.0,0.0,0.0,0.0,0.0
1757904969.9729614,0.0,-4.0,0.0,0.0,0.0,0.0,-1.4138310491413466,-3.8032362242348245,0.6628209344776761,-0.23314241254297816,-0.9694870587162281,-2.616562352800653,0.0,-0.00019676377576517546,0.0,0.0,0.0,0.0,0.0
1757904970.0230002,0.0,-4.0,0.0,0.0,0.0,0.0,-1.3165830815763342,-2.872344143240881,0.5653427158023534,-0.6382991975418018,-0.8834290179483342,-2.2038059568178197,0.0,-0.0011276558567591191,0.0,0.0,0.0,0.0,0.0
1757904970.073089,0.0,-4.0,0.0,0.0,0.0,0.0,-1.276311145579918,-3.040576120975513,0.7193007081462981,-0.5673000917589008,-0.9176358016266991,-2.231284893633414,0.0,-0.0009594238790244871,0.0,0.0,0.0,0.0,0.0
1757904970.1330028,0.0,-4.0,0.0,0.0,0.0,0.0,-0.3764683045186611,-4.288043099976499,1.458626985913816,-0.009181650006359302,-0.7285835486150408,-2.265229730541541,0.0,0.0002880430999764991,0.0,0.0,0.0,0.0,0.0
1757904970.1830406,0.0,-4.076688556022485,0.0,0.0,0.0,0.0,-0.2745143839889384,-4.465858244965585,1.6074029321336716,0.07133074021369187,-0.7306550182201743,-2.3004203134279892,0.0,0.0003891696889430998,0.0,0.0,0.0,0.0,0.0
1757904970.24312,0.0,-4.007901574610322,0.0,0.0,0.0,0.0,-0.3162713674558798,-4.591957926723574,1.5716540418329388,0.1422811239936444,-0.7511902764115312,-2.3629089913509946,0.0,0.0005840563521132518,0.0,0.0,0.0,0.0,0.0
1757904970.2932472,0.0,-4.0,0.0,0.0,0.0,0.0,-0.647212659727848,-3.8492291124927447,1.440740292488115,-0.22410006921618303,-0.8847477633917189,-2.254246099005396,0.0,-0.00015077088750725532,0.0,0.0,0.0,0.0,0.0
1757904970.3529637,0.0,-4.0,0.0,0.0,0.0,0.0,-0.6070593465468526,-3.607602978108685,1.2026088439722078,-0.2982604884170427,-0.7848604721479497,-2.10366797053338,0.0,-0.0003923970218913149,0.0,0.0,0.0,0.0,0.0
1757904970.403046,0.0,-4.0,0.0,0.0,0.0,0.0,-0.8532489348347381,-3.0264131278771287,1.1716599899082765,-0.6352726827224805,-0.896255812583979,-2.0086844526122483,0.0,-0.0009735868721228713,0.0,0.0,0.0,0.0,0.0
1757904970.4532514,0.0,-4.0,0.0,0.0,0.0,0.0,-0.642987940023843,-3.6278479714165215,1.3928398019331154,-0.3253195083429439,-0.8543226352452863,-2.1287266974353845,0.0,-0.0003721520285834785,0.0,0.0,0.0,0.0,0.0
1757904970.513266,0.0,-4.0,0.0,0.0,0.0,0.0,-0.2958536964982497,-3.911845923008838,1.5136484964512371,-0.16682062474021414,-0.7161157720297624,-2.0743296310354413,0.0,-8.815407699116218e-05,0.0,0.0,0.0,0.0,0.0
1757904970.5729759,0.0,-4.225377028750801,0.0,0.0,0.0,0.0,-0.03582469611766509,-4.153935546646814,1.6897710959663348,-0.02944035237997634,-0.653511854657077,-2.0398184729822324,0.0,-7.144148210398704e-05,0.0,0.0,0.0,0.0,0.0
1757904970.6331198,0.0,-4.552740860597657,0.0,0.0,0.0,0.0,-0.010456517508612262,-4.127274347761029,1.8210663239548612,-0.06810908461896047,-0.6879184503099666,-2.0228427219904725,0.0,-0.0004254665128366284,0.0,0.0,0.0,0.0,0.0
1757904970.6832976,0.0,-4.538941735385221,0.0,0.0,0.0,0.0,0.2575907472335056,-4.464497608573621,1.797210543952815,0.14232964639535498,-0.5451996305820835,-2.003126295446858,0.0,-7.444412681159918e-05,0.0,0.0,0.0,0.0,0.0
1757904970.7433722,0.0,-4.8782772998380715,0.0,0.0,0.0,0.0,0.10528089165470084,-4.532383805010995,1.948468691077909,0.10700711524578822,-0.6812903291671467,-2.127094099903418,0.0,-0.00034589349482707645,0.0,0.0,0.0,0.0,0.0
1757904970.8031824,0.0,-4.966474554597087,0.0,0.0,0.0,0.0,0.42174602409626616,-5.278515621477132,1.9413061096572704,0.5197928826975243,-0.51845997762541,-2.2478595159661694,0.0,0.0003120410668800444,0.0,0.0,0.0,0.0,0.0
1757904970.8628292,0.0,-5.098131512104893,0.0,0.0,0.0,0.0,0.2927741857559869,-5.40767348954287,2.0181264733682145,0.548412445145107,-0.619794742141077,-2.3747493718465327,0.0,0.00030954197743797706,0.0,0.0,0.0,0.0,0.0
