time,lam_star_Fx,lam_star_Fy,lam_star_Fz,lam_star_Tx,lam_star_Ty,lam_star_Tz,meas_Fx,meas_Fy,meas_Fz,meas_Tx,meas_Ty,meas_Tz,v_final_Fx,v_final_Fy,v_final_Fz,v_final_Tx,v_final_Ty,v_final_Tz
1757905664.227301,-4.0,0.0,0.0,0.0,0.0,0.0,-6.390000000000001,-0.1899999999999995,-0.3899999999999999,0.174,0.766,-0.037,0.011950000000000002,0.0,16.85583392948055,0.0,0.0,0.0
1757905664.2866657,-4.0,0.0,0.0,0.0,0.0,0.0,-6.23,0.11000000000000121,-1.0699999999999998,0.178,0.784,-0.04,0.011150000000000002,0.0,-28.823783460177857,0.0,0.0,0.0
1757905664.3367214,-4.0,0.0,0.0,0.0,0.0,0.0,-5.649999999999999,0.23000000000000043,-0.6299999999999999,0.192,0.773,-0.035,0.008249999999999993,0.0,47.495303217824585,0.0,0.0,0.0
1757905664.3966417,-4.0,0.0,0.0,0.0,0.0,0.0,-6.169999999999998,0.19000000000000128,-1.19,0.179,0.802,-0.046,0.010849999999999992,0.0,8.31594732692872,0.0,0.0,0.0
1757905664.4467485,-4.0,0.0,0.0,0.0,0.0,0.0,-6.59,-0.75,-1.0899999999999999,0.164,0.754,-0.038,0.01295,0.0,8.442285518195618,0.0,0.0,0.0
1757905664.4968865,-11.955176703001925,0.0,0.0,0.0,0.0,0.0,-6.07,-1.5899999999999999,-4.51,0.22,0.779,-0.043000000000000003,-0.029425883515009625,0.0,9.063670036791583,0.0,0.0,0.0
1757905664.5468905,-4.0,0.0,0.0,0.0,0.0,0.0,-5.27,-0.9299999999999997,-0.59,0.199,0.808,-0.076,0.006349999999999998,0.0,11.858409182801198,0.0,0.0,0.0
1757905664.6066597,-7.689684648930668,0.0,0.0,0.0,0.0,0.0,-6.59,-1.6899999999999995,-2.57,0.225,0.8640000000000001,-0.065,-0.005498423244653341,0.0,14.938682747813738,0.0,0.0,0.0
1757905664.6566646,-4.0,0.0,0.0,0.0,0.0,0.0,-6.41,0.23000000000000043,-1.03,0.244,0.877,-0.064,0.012050000000000002,0.0,-19.13637712326056,0.0,0.0,0.0
1757905664.716838,-5.872925165537186,0.0,0.0,0.0,0.0,0.0,-7.129999999999999,-1.3099999999999987,-1.95,0.242,0.8440000000000001,-0.069,0.006285374172314065,0.0,10.141627494083142,0.0,0.0,0.0
1757905664.766908,-4.957443897816695,0.0,0.0,0.0,0.0,0.0,-6.689999999999998,-0.8099999999999987,-1.81,0.252,0.847,-0.069,0.008662780510916512,0.0,19.035462188845454,0.0,0.0,0.0
1757905664.826642,-6.521598730372789,0.0,0.0,0.0,0.0,0.0,-6.75,-0.5499999999999989,-2.55,0.266,0.853,-0.066,0.0011420063481360555,0.0,-17.048519873084043,0.0,0.0,0.0
1757905664.8768308,-5.944009589494282,0.0,0.0,0.0,0.0,0.0,-6.550000000000001,-1.2699999999999996,-2.01,0.244,0.839,-0.068,0.003029952052528593,0.0,13.298675668228974,0.0,0.0,0.0
1757905664.9366815,-7.471361990962558,0.0,0.0,0.0,0.0,0.0,-5.949999999999999,-2.75,-1.17,0.303,0.8760000000000001,-0.1,-0.007606809954812795,0.0,9.661059878138602,0.0,0.0,0.0
1757905664.9867954,-14.188771969412995,0.0,0.0,0.0,0.0,0.0,-6.349999999999998,3.8499999999999996,-4.17,0.202,0.796,0.0020000000000000018,-0.039193859847064985,0.0,0.0,0.0,0.0,0.0
1757905665.047068,-11.334956991537288,0.0,0.0,0.0,0.0,0.0,-6.509999999999998,0.6300000000000008,-4.49,0.237,0.877,-0.07,-0.02412478495768645,0.0,0.0,0.0,0.0,0.0
1757905665.1067212,-4.0,0.0,0.0,0.0,0.0,0.0,-7.75,-0.4499999999999993,-0.18999999999999995,0.28,1.033,-0.087,0.01875,0.0,0.0,0.0,0.0,0.0
1757905665.1570985,-6.469640639169998,0.0,0.0,0.0,0.0,0.0,-10.489999999999998,-0.8899999999999988,-2.4299999999999997,0.273,0.925,-0.06,0.02010179680415,0.0,0.0,0.0,0.0,0.0
1757905665.2086024,-7.543291721788306,0.0,0.0,0.0,0.0,0.0,-9.629999999999999,0.21000000000000085,-3.01,0.269,0.956,-0.055,0.010433541391058463,0.0,0.0,0.0,0.0,0.0
1757905665.2680569,-4.375642809919475,0.0,0.0,0.0,0.0,0.0,-8.829999999999998,0.030000000000001137,-1.75,0.267,0.901,-0.062,0.02227178595040262,0.0,0.0,0.0,0.0,0.0
1757905665.3274167,-4.0,0.0,0.0,0.0,0.0,0.0,-6.329999999999998,-0.1899999999999995,-1.03,0.269,0.899,-0.066,0.011649999999999992,0.0,0.0,0.0,0.0,0.0
1757905665.3866706,-4.193000119246361,0.0,0.0,0.0,0.0,0.0,-6.489999999999998,-0.5899999999999999,-1.5699999999999998,0.245,0.8860000000000001,-0.056,0.011484999403768188,0.0,0.0,0.0,0.0,0.0
1757905665.4467497,-4.430716646322579,0.0,0.0,0.0,0.0,0.0,-5.849999999999998,-0.08999999999999986,-1.77,0.227,0.865,-0.07200000000000001,0.007096416768387095,0.0,0.0,0.0,0.0,0.0
1757905665.506701,-4.0,0.0,0.0,0.0,0.0,0.0,-5.149999999999999,-0.129999999999999,-1.27,0.247,0.8460000000000001,-0.054,0.005749999999999993,0.0,0.0,0.0,0.0,0.0
1757905665.56664,-5.704055574764327,0.0,0.0,0.0,0.0,0.0,-4.289999999999999,0.23000000000000043,-2.27,0.243,0.871,-0.068,-0.00707027787382164,0.0,0.0,0.0,0.0,0.0
1757905665.6167097,-5.111873433487961,0.0,0.0,0.0,0.0,0.0,-5.629999999999999,-0.46999999999999886,-1.99,0.273,0.859,-0.082,0.002590632832560189,0.0,0.0,0.0,0.0,0.0
1757905665.677019,-4.345831335889601,0.0,0.0,0.0,0.0,0.0,-5.449999999999999,-0.16999999999999993,-1.73,0.262,0.873,-0.062,0.005520843320551991,0.0,0.0,0.0,0.0,0.0
1757905665.7271025,-4.430716646322579,0.0,0.0,0.0,0.0,0.0,-5.41,-0.08999999999999986,-1.77,0.243,0.869,-0.06,0.004896416768387106,0.0,0.0,0.0,0.0,0.0
1757905665.7871847,-5.707998773650883,0.0,0.0,0.0,0.0,0.0,-4.989999999999998,-0.7099999999999991,-2.17,0.26,0.8660000000000001,-0.053,-0.003589993868254422,0.0,0.0,0.0,0.0,0.0
1757905665.84728,-5.275533148412584,0.0,0.0,0.0,0.0,0.0,-5.629999999999999,-0.02999999999999936,-2.11,0.265,0.8540000000000001,-0.065,0.001772334257937076,0.0,0.0,0.0,0.0,0.0
1757905665.9067347,-4.117796740976901,0.0,0.0,0.0,0.0,0.0,-6.07,-0.4299999999999997,-1.5899999999999999,0.247,0.879,-0.058,0.009761016295115495,0.0,0.0,0.0,0.0,0.0
1757905665.9666731,-4.385344912318756,0.0,0.0,0.0,0.0,0.0,-5.59,-0.46999999999999886,-1.69,0.276,0.863,-0.064,0.006023275438406222,0.0,0.0,0.0,0.0,0.0
1757905666.016762,-5.031028721842084,0.0,0.0,0.0,0.0,0.0,-5.149999999999999,-0.5700000000000003,-1.93,0.261,0.8620000000000001,-0.059,0.0005948563907895732,0.0,0.0,0.0,0.0,0.0
1757905666.0766692,-6.2366858186059035,0.0,0.0,0.0,0.0,0.0,-5.189999999999998,-0.34999999999999964,-2.4699999999999998,0.226,0.915,-0.037,-0.005233429093029529,0.0,0.0,0.0,0.0,0.0
1757905666.1267285,-4.275073098790242,0.0,0.0,0.0,0.0,0.0,-6.25,0.009999999999999787,-1.71,0.269,0.875,-0.063,0.009874634506048792,0.0,0.0,0.0,0.0,0.0
1757905666.1784494,-4.49513626044862,0.0,0.0,0.0,0.0,0.0,-5.509999999999998,-0.4900000000000002,-1.73,0.264,0.881,-0.06,0.005074318697756893,0.0,0.0,0.0,0.0,0.0
1757905666.2367866,-6.186376160564437,0.0,0.0,0.0,0.0,0.0,-5.23,-0.15000000000000036,-2.4699999999999998,0.251,0.887,-0.06,-0.004781880802822185,0.0,0.0,0.0,0.0,0.0
1757905666.2966907,-4.0,0.0,0.0,0.0,0.0,0.0,-4.77,-0.75,-1.3499999999999999,0.237,0.8400000000000001,-0.058,0.003849999999999998,0.0,0.0,0.0,0.0,0.0
1757905666.3471584,-4.379069535871746,0.0,0.0,0.0,0.0,0.0,-5.149999999999999,-0.6899999999999995,-1.6099999999999999,0.244,0.8740000000000001,-0.056,0.003854652320641261,0.0,0.0,0.0,0.0,0.0
1757905666.4066694,-6.2430961869892725,0.0,0.0,0.0,0.0,0.0,-5.309999999999999,-0.1899999999999995,-2.49,0.252,0.8860000000000001,-0.07,-0.004665480934946369,0.0,0.0,0.0,0.0,0.0
1757905666.4567337,-5.043931997955564,0.0,0.0,0.0,0.0,0.0,-5.989999999999998,-0.6500000000000004,-1.91,0.26,0.877,-0.07,0.004730340010222172,0.0,0.0,0.0,0.0,0.0
1757905666.5166733,-4.287336002694446,0.0,0.0,0.0,0.0,0.0,-6.509999999999998,-0.129999999999999,-1.71,0.256,0.885,-0.047,0.011113319986527759,0.0,0.0,0.0,0.0,0.0
1757905666.5766625,-5.848610946199105,0.0,0.0,0.0,0.0,0.0,-5.849999999999998,-0.20999999999999908,-2.33,0.234,0.869,-0.07,6.945269004465793e-06,0.0,0.0,0.0,0.0,0.0
1757905666.6366425,-4.0,0.0,0.0,0.0,0.0,0.0,-5.169999999999998,-0.629999999999999,-0.95,0.244,0.8280000000000001,-0.054,0.005849999999999991,0.0,0.0,0.0,0.0,0.0
1757905666.686688,-4.069551572347989,0.0,0.0,0.0,0.0,0.0,-5.550000000000001,-0.4299999999999997,-1.5699999999999998,0.24,0.843,-0.054,0.007402242138260058,0.0,0.0,0.0,0.0,0.0
1757905666.736696,-4.456596234796237,0.0,0.0,0.0,0.0,0.0,-5.91,-0.4299999999999997,-1.73,0.249,0.8780000000000001,-0.067,0.007267018826018816,0.0,0.0,0.0,0.0,0.0
1757905666.796633,-5.269843451185244,0.0,0.0,0.0,0.0,0.0,-5.43,-0.75,-1.97,0.23500000000000001,0.8979999999999999,-0.053,0.0008007827440737802,0.0,0.0,0.0,0.0,0.0
1757905666.8467658,-4.8053355762110925,0.0,0.0,0.0,0.0,0.0,-5.57,-0.34999999999999964,-1.89,0.243,0.8979999999999999,-0.087,0.0038233221189445388,0.0,0.0,0.0,0.0,0.0
1757905666.8968003,-5.8306303261311285,0.0,0.0,0.0,0.0,0.0,-5.91,-0.9499999999999993,-2.13,0.252,0.8660000000000001,-0.052,0.0003968483693443581,0.0,0.0,0.0,0.0,0.0
1757905666.9470994,-4.456035233253885,0.0,0.0,0.0,0.0,0.0,-5.609999999999999,0.21000000000000085,-1.77,0.262,0.8820000000000001,-0.065,0.0057698238337305745,0.0,0.0,0.0,0.0,0.0
1757905667.0068684,-4.730882581506329,0.0,0.0,0.0,0.0,0.0,-5.57,-0.8899999999999988,-1.67,0.241,0.8600000000000001,-0.075,0.004195587092468358,0.0,0.0,0.0,0.0,0.0
1757905667.0666513,-6.388759660528794,0.0,0.0,0.0,0.0,0.0,-4.629999999999999,-0.8499999999999996,-2.41,0.255,0.893,-0.068,-0.008793798302643974,0.0,0.0,0.0,0.0,0.0
1757905667.1166556,-4.052931038150044,0.0,0.0,0.0,0.0,0.0,-5.91,-0.1899999999999995,-1.6099999999999999,0.241,0.841,-0.058,0.009285344809249781,0.0,0.0,0.0,0.0,0.0
1757905667.176787,-5.773322267117955,0.0,0.0,0.0,0.0,0.0,-4.469999999999999,-0.6699999999999999,-2.21,0.24,0.855,-0.061,-0.006516611335589779,0.0,0.0,0.0,0.0,0.0
1757905667.2276356,-5.179888994949602,0.0,0.0,0.0,0.0,0.0,-5.550000000000001,-0.08999999999999986,-2.07,0.246,0.885,-0.07200000000000001,0.0018505550252519943,0.0,0.0,0.0,0.0,0.0
1757905667.286922,-4.0,0.0,0.0,0.0,0.0,0.0,-5.07,-0.2699999999999996,-1.19,0.242,0.8640000000000001,-0.066,0.0053500000000000015,0.0,0.0,0.0,0.0,0.0
1757905667.3467245,-5.275059241373503,0.0,0.0,0.0,0.0,0.0,-3.75,-0.009999999999999787,-2.11,0.246,0.8940000000000001,-0.08,-0.0076252962068675155,0.0,0.0,0.0,0.0,0.0
1757905667.4066887,-4.0,0.0,0.0,0.0,0.0,0.0,-5.149999999999999,-0.23000000000000043,-0.9299999999999999,0.25,0.8660000000000001,-0.057,0.005749999999999993,0.0,0.0,0.0,0.0,0.0
1757905667.4666517,-4.419417382415922,0.0,0.0,0.0,0.0,0.0,-5.209999999999997,-0.7300000000000004,-1.6099999999999999,0.265,0.8380000000000001,-0.065,0.003952913087920376,0.0,0.0,0.0,0.0,0.0
1757905667.5168862,-4.400710169961207,0.0,0.0,0.0,0.0,0.0,-5.489999999999998,-0.1899999999999995,-1.75,0.24,0.8620000000000001,-0.051000000000000004,0.005446449150193957,0.0,0.0,0.0,0.0,0.0
1757905667.5766647,-5.126524163602469,0.0,0.0,0.0,0.0,0.0,-5.449999999999999,0.05000000000000071,-2.05,0.263,0.8820000000000001,-0.045,0.0016173791819876504,0.0,0.0,0.0,0.0,0.0
1757905667.6366687,-6.230670108423329,0.0,0.0,0.0,0.0,0.0,-5.529999999999998,-0.8300000000000001,-2.3499999999999996,0.23600000000000002,0.865,-0.054,-0.003503350542116657,0.0,0.0,0.0,0.0,0.0
1757905667.686897,-5.038973109672247,0.0,0.0,0.0,0.0,0.0,-5.289999999999999,-0.15000000000000036,-2.01,0.244,0.8880000000000001,-0.062,0.001255134451638762,0.0,0.0,0.0,0.0,0.0
1757905667.737272,-5.376918262350655,0.0,0.0,0.0,0.0,0.0,-5.169999999999998,-1.129999999999999,-1.83,0.227,0.851,-0.061,-0.0010345913117532834,0.0,0.0,0.0,0.0,0.0
1757905667.796633,-5.430584683070506,0.0,0.0,0.0,0.0,0.0,-4.91,-0.3099999999999987,-2.15,0.257,0.873,-0.058,-0.002602923415352527,0.0,0.0,0.0,0.0,0.0
1757905667.8470016,-4.3836343369400685,0.0,0.0,0.0,0.0,0.0,-5.390000000000001,-0.10999999999999943,-1.75,0.256,0.871,-0.065,0.00503182831529966,0.0,0.0,0.0,0.0,0.0
1757905667.9066317,-6.853557470394481,0.0,0.0,0.0,0.0,0.0,-4.369999999999997,-0.25,-2.73,0.255,0.897,-0.058,-0.012417787351972418,0.0,0.0,0.0,0.0,0.0
1757905667.9567006,-4.0,0.0,0.0,0.0,0.0,0.0,-5.629999999999999,-0.009999999999999787,-1.51,0.262,0.8700000000000001,-0.065,0.008149999999999996,0.0,0.0,0.0,0.0,0.0
1757905668.0166817,-5.814314232994292,0.0,0.0,0.0,0.0,0.0,-6.109999999999999,-0.2699999999999996,-2.31,0.226,0.8580000000000001,-0.058,0.001478428835028538,0.0,0.0,0.0,0.0,0.0
1757905668.0766454,-5.61571455827306,0.0,0.0,0.0,0.0,0.0,-6.23,-0.2699999999999996,-2.23,0.226,0.887,-0.076,0.0030714272086347005,0.0,0.0,0.0,0.0,0.0
1757905668.1266723,-5.972541335143691,0.0,0.0,0.0,0.0,0.0,-5.43,-0.4299999999999997,-2.3499999999999996,0.251,0.909,-0.052,-0.002712706675718457,0.0,0.0,0.0,0.0,0.0
1757905668.1768613,-4.0,0.0,0.0,0.0,0.0,0.0,-6.289999999999999,-0.5899999999999999,-1.47,0.239,0.8780000000000001,-0.066,0.011449999999999997,0.0,0.0,0.0,0.0,0.0
1757905668.2372344,-6.634097527169764,0.0,0.0,0.0,0.0,0.0,-6.91,-0.9699999999999989,-2.4699999999999998,0.247,0.8959999999999999,-0.061,0.0013795123641511787,0.0,0.0,0.0,0.0,0.0
1757905668.2966492,-6.062693295887563,0.0,0.0,0.0,0.0,0.0,-6.109999999999999,0.2699999999999996,-2.41,0.258,0.909,-0.07,0.00023653352056218324,0.0,0.0,0.0,0.0,0.0
1757905668.346758,-6.885219676960205,0.0,0.0,0.0,0.0,0.0,-4.969999999999999,-0.9900000000000002,-2.57,0.227,0.917,-0.052,-0.009576098384801033,0.0,0.0,0.0,0.0,0.0
1757905668.4066725,-4.925571032885426,0.0,0.0,0.0,0.0,0.0,-6.550000000000001,-0.02999999999999936,-1.97,0.253,0.881,-0.058,0.008122144835572876,0.0,0.0,0.0,0.0,0.0
1757905668.466636,-8.239918082117077,0.0,0.0,0.0,0.0,0.0,-6.509999999999998,-0.9699999999999989,-3.15,0.253,0.903,-0.088,-0.008649590410585396,0.0,0.0,0.0,0.0,0.0
1757905668.5166633,-5.503294467861954,0.0,0.0,0.0,0.0,0.0,-5.829999999999998,-0.3699999999999992,-2.17,0.234,0.8959999999999999,-0.064,0.0016335276606902216,0.0,0.0,0.0,0.0,0.0
1757905668.5766156,-4.380781893680624,0.0,0.0,0.0,0.0,0.0,-5.27,-0.08999999999999986,-1.75,0.251,0.8660000000000001,-0.053,0.004446090531596876,0.0,0.0,0.0,0.0,0.0
1757905668.6266544,-4.0,0.0,0.0,0.0,0.0,0.0,-5.550000000000001,-0.7099999999999991,-1.1099999999999999,0.256,0.839,-0.033,0.007750000000000003,0.0,0.0,0.0,0.0,0.0
1757905668.6877337,-5.44254076695802,0.0,0.0,0.0,0.0,0.0,-5.25,-0.4499999999999993,-2.13,0.23,0.8880000000000001,-0.061,-0.0009627038347900997,0.0,0.0,0.0,0.0,0.0
1757905668.7466877,-4.653090370925542,0.0,0.0,0.0,0.0,0.0,-5.809999999999999,-0.5099999999999998,-1.79,0.242,0.877,-0.064,0.005784548145372286,0.0,0.0,0.0,0.0,0.0
1757905668.8066728,-7.600740095543328,0.0,0.0,0.0,0.0,0.0,-5.449999999999999,-0.6500000000000004,-2.9699999999999998,0.244,0.897,-0.061,-0.010753700477716644,0.0,0.0,0.0,0.0,0.0
1757905668.8666437,-8.491245491681418,0.0,0.0,0.0,0.0,0.0,-5.25,0.21000000000000085,-3.39,0.237,0.847,-0.059,-0.016206227458407094,0.0,0.0,0.0,0.0,0.0
1757905668.9167068,-5.425057603380814,0.0,0.0,0.0,0.0,0.0,-5.57,-0.009999999999999787,-2.17,0.257,0.837,-0.051000000000000004,0.0007247119830959293,0.0,0.0,0.0,0.0,0.0
1757905668.976649,-7.0923374144212845,0.0,0.0,0.0,0.0,0.0,-6.529999999999998,-0.3899999999999988,-2.81,0.263,0.829,-0.041,-0.0028116870721064348,0.0,0.0,0.0,0.0,0.0
1757905669.0266752,-10.739704372095163,0.0,0.0,0.0,0.0,0.0,-6.489999999999998,-1.25,-4.109999999999999,0.242,0.8029999999999999,-0.034,-0.021248521860475825,0.0,0.0,0.0,0.0,0.0
1757905669.0876281,-7.494748161212621,0.0,0.0,0.0,0.0,0.0,-7.93,-0.9299999999999997,-2.8499999999999996,0.26,0.806,-0.044,0.0021762591939368916,0.0,12.460739454687094,0.0,0.0,0.0
1757905669.1466732,-11.733978438705263,0.0,0.0,0.0,0.0,0.0,-7.809999999999999,-1.0700000000000003,-4.57,0.262,0.796,-0.022000000000000006,-0.01961989219352632,0.0,0.0,0.0,0.0,0.0
1757905669.2066977,-13.070051644886487,0.0,0.0,0.0,0.0,0.0,-10.79,-2.3099999999999996,-4.6899999999999995,0.321,0.775,-0.006000000000000005,-0.011400258224432438,0.0,0.0,0.0,0.0,0.0
1757905669.256768,-12.687641624825316,0.0,0.0,0.0,0.0,0.0,-11.509999999999998,-1.8899999999999997,-4.71,0.29300000000000004,0.8280000000000001,-0.042,-0.005888208124126591,0.0,0.0,0.0,0.0,0.0
1757905669.3167086,-6.987936032906998,0.0,0.0,0.0,0.0,0.0,-11.73,-1.2699999999999996,-2.49,0.29100000000000004,0.8940000000000001,-0.082,0.02371031983546501,0.0,0.0,0.0,0.0,0.0
1757905669.3766456,-9.078064220966935,0.0,0.0,0.0,0.0,0.0,-12.009999999999998,-1.0700000000000003,-3.4699999999999998,0.26,0.8840000000000001,-0.053,0.014659678895165316,0.0,0.0,0.0,0.0,0.0
1757905669.42678,-10.07503101732198,0.0,0.0,0.0,0.0,0.0,-9.91,-1.3699999999999992,-3.79,0.29300000000000004,0.8500000000000001,-0.024999999999999994,-0.0008251550866098967,0.0,0.0,0.0,0.0,0.0
1757905669.4867694,-11.147028752093536,0.0,0.0,0.0,0.0,0.0,-10.43,-1.4100000000000001,-4.23,0.281,0.8480000000000001,-0.032,-0.003585143760467684,0.0,0.0,0.0,0.0,0.0
1757905669.5467079,-8.329240661668983,0.0,0.0,0.0,0.0,0.0,-11.489999999999998,-1.7899999999999991,-2.81,0.273,0.8800000000000001,-0.065,0.015803796691655075,0.0,0.0,0.0,0.0,0.0
1757905669.6066506,-7.384527743870965,0.0,0.0,0.0,0.0,0.0,-11.77,-0.15000000000000036,-2.95,0.269,0.915,-0.04,0.021927361280645173,0.0,0.0,0.0,0.0,0.0
1757905669.6566706,-8.069464046639032,0.0,0.0,0.0,0.0,0.0,-9.07,-1.3099999999999987,-2.95,0.267,0.8740000000000001,-0.084,0.0050026797668048404,0.0,0.0,0.0,0.0,0.0
1757905669.7166793,-6.045349452264938,0.0,0.0,0.0,0.0,0.0,-8.669999999999998,-0.5700000000000003,-2.3499999999999996,0.255,0.8500000000000001,-0.065,0.0131232527386753,0.0,0.0,0.0,0.0,0.0
1757905669.7767007,-4.396163099795093,0.0,0.0,0.0,0.0,0.0,-6.809999999999999,-0.41000000000000014,-1.71,0.26,0.797,-0.07,0.012069184501024531,0.0,0.0,0.0,0.0,0.0
1757905669.8366268,-6.566677241954258,0.0,0.0,0.0,0.0,0.0,-5.77,-0.629999999999999,-2.55,0.254,0.8300000000000001,-0.07100000000000001,-0.003983386209771292,0.0,0.0,0.0,0.0,0.0
1757905669.8870327,-7.864238678982218,0.0,0.0,0.0,0.0,0.0,-5.689999999999998,-0.7699999999999996,-3.05,0.247,0.867,-0.051000000000000004,-0.010871193394911103,0.0,0.0,0.0,0.0,0.0
1757905669.9390311,-4.0,0.0,0.0,0.0,0.0,0.0,-5.989999999999998,-0.7899999999999991,-1.39,0.266,0.8300000000000001,-0.032,0.009949999999999992,0.0,0.0,0.0,0.0,0.0
1757905669.996958,-5.75814640314051,0.0,0.0,0.0,0.0,0.0,-5.869999999999997,-0.3899999999999988,-2.27,0.237,0.8580000000000001,-0.051000000000000004,0.0005592679842974358,0.0,0.0,0.0,0.0,0.0
1757905670.0566685,-5.288312585314904,0.0,0.0,0.0,0.0,0.0,-6.109999999999999,-0.15000000000000036,-2.11,0.276,0.849,-0.063,0.00410843707342548,0.0,0.0,0.0,0.0,0.0
1757905670.1066852,-6.55028625328695,0.0,0.0,0.0,0.0,0.0,-5.25,-0.23000000000000043,-2.61,0.259,0.843,-0.062,-0.006501431266434752,0.0,0.0,0.0,0.0,0.0
1757905670.1568873,-8.609079509448149,0.0,0.0,0.0,0.0,0.0,-5.869999999999997,-0.9499999999999993,-3.31,0.269,0.77,-0.057,-0.013695397547240758,0.0,0.0,0.0,0.0,0.0
1757905670.216864,-10.677839200887043,0.0,0.0,0.0,0.0,0.0,-5.890000000000001,-1.0099999999999998,-4.15,0.259,0.783,-0.063,-0.023939196004435212,0.0,0.0,0.0,0.0,0.0
1757905670.2767518,-13.630159573533977,0.0,0.0,0.0,0.0,0.0,-8.489999999999998,-1.049999999999999,-5.35,0.276,0.743,-0.07100000000000001,-0.02570079786766989,0.0,0.0,0.0,0.0,0.0
1757905670.336776,-15.571648917182786,0.0,0.0,0.0,0.0,0.0,-9.09,-1.209999999999999,-6.109999999999999,0.267,0.774,-0.057,-0.03240824458591393,0.0,0.0,0.0,0.0,0.0
1757905670.3870578,-16.493369880045737,0.0,0.0,0.0,0.0,0.0,-13.889999999999997,-1.0700000000000003,-6.51,0.274,0.771,-0.04,-0.013016849400228701,0.0,0.0,0.0,0.0,0.0
1757905670.4466739,-19.915603179416888,0.0,0.0,0.0,0.0,0.0,-15.069999999999997,-1.5700000000000003,-7.8100000000000005,0.274,0.8200000000000001,-0.04,-0.024228015897084454,0.0,0.0,0.0,0.0,0.0
1757905670.5091572,-20.0,0.0,0.0,0.0,0.0,0.0,-19.09,-1.4299999999999997,-8.25,0.271,0.774,-0.036,-0.004550000000000001,0.0,0.0,0.0,0.0,0.0
1757905670.5666082,-20.0,0.0,0.0,0.0,0.0,0.0,-17.59,-1.7300000000000004,-8.29,0.266,0.827,-0.035,-0.012050000000000002,0.0,0.0,0.0,0.0,0.0
1757905670.6167676,-20.0,0.0,0.0,0.0,0.0,0.0,-18.789999999999996,-2.3099999999999996,-8.11,0.267,0.784,-0.028999999999999998,-0.006050000000000022,0.0,0.0,0.0,0.0,0.0
1757905670.6766112,-20.0,0.0,0.0,0.0,0.0,0.0,-19.27,-1.8699999999999992,-8.17,0.26,0.794,-0.034,-0.003650000000000002,0.0,0.0,0.0,0.0,0.0
1757905670.7266839,-20.0,0.0,0.0,0.0,0.0,0.0,-19.01,-1.8699999999999992,-7.789999999999999,0.29200000000000004,0.756,-0.011999999999999997,-0.004949999999999993,0.0,0.0,0.0,0.0,0.0
1757905670.787074,-20.0,0.0,0.0,0.0,0.0,0.0,-18.95,-2.21,-9.57,0.277,0.8,-0.015,-0.005250000000000004,0.0,0.0,0.0,0.0,0.0
1757905670.8467464,-20.0,0.0,0.0,0.0,0.0,0.0,-19.51,-2.25,-9.629999999999999,0.28800000000000003,0.772,-0.012999999999999998,-0.002449999999999992,0.0,0.0,0.0,0.0,0.0
1757905670.9066653,-20.0,0.0,0.0,0.0,0.0,0.0,-19.889999999999997,-1.8699999999999992,-10.389999999999999,0.29100000000000004,0.742,-0.023000000000000007,-0.0005500000000000149,0.0,0.0,0.0,0.0,0.0
1757905670.9570682,-20.0,0.0,0.0,0.0,0.0,0.0,-18.650000000000002,-2.75,-10.61,0.29100000000000004,0.7190000000000001,-0.038,-0.0067499999999999895,0.0,0.0,0.0,0.0,0.0
1757905671.0071535,-20.0,0.0,0.0,0.0,0.0,0.0,-19.429999999999996,-2.4899999999999993,-11.469999999999999,0.28800000000000003,0.6859999999999999,-0.041,-0.002850000000000019,0.0,0.0,0.0,0.0,0.0
1757905671.0666506,-20.0,0.0,0.0,0.0,0.0,0.0,-18.91,-2.8499999999999996,-12.209999999999999,0.28900000000000003,0.7170000000000001,-0.044,-0.005449999999999999,0.0,0.0,0.0,0.0,0.0
1757905671.1167827,-20.0,0.0,0.0,0.0,0.0,0.0,-20.23,-2.59,-12.309999999999999,0.3,0.668,-0.042,0.0011500000000000021,0.0,0.0,0.0,0.0,0.0
1757905671.1766517,-20.0,0.0,0.0,0.0,0.0,0.0,-19.01,-2.9899999999999993,-13.03,0.27,0.692,-0.048,-0.004949999999999993,0.0,0.0,0.0,0.0,0.0
1757905671.2266798,-20.0,0.0,0.0,0.0,0.0,0.0,-19.55,-3.13,-12.91,0.275,0.655,-0.017,-0.0022499999999999964,0.0,0.0,0.0,0.0,0.0
1757905671.276683,-20.0,0.0,0.0,0.0,0.0,0.0,-19.669999999999998,-1.9099999999999993,-13.59,0.314,0.649,-0.028999999999999998,-0.0016500000000000093,0.0,0.0,0.0,0.0,0.0
1757905671.3267064,-20.0,0.0,0.0,0.0,0.0,0.0,-18.99,-2.51,-13.27,0.313,0.656,-0.016,-0.005050000000000008,0.0,0.0,0.0,0.0,0.0
1757905671.3767421,-20.0,0.0,0.0,0.0,0.0,0.0,-16.709999999999997,-3.71,-14.15,0.28700000000000003,0.654,-0.022000000000000006,-0.016450000000000013,0.0,31.927163556875282,0.0,0.0,0.0
1757905671.4366453,-20.0,0.0,0.0,0.0,0.0,0.0,-20.029999999999998,-2.4699999999999998,-17.03,0.309,0.5740000000000001,-0.059,0.00014999999999998793,0.0,-6.976304206845453,0.0,0.0,0.0
1757905671.4867191,-17.236045080006026,0.0,0.0,0.0,0.0,0.0,-14.929999999999996,-2.2699999999999996,-6.51,0.277,0.789,-0.018000000000000002,-0.011530225400030148,0.0,0.0,0.0,0.0,0.0
1757905671.5466616,-12.326039509915582,0.0,0.0,0.0,0.0,0.0,-14.09,-2.4299999999999997,-4.29,0.263,0.887,-0.027999999999999997,0.008819802450422092,0.0,0.0,0.0,0.0,0.0
1757905671.6066551,-9.046062679420256,0.0,0.0,0.0,0.0,0.0,-18.150000000000002,-0.5899999999999999,-3.57,0.23500000000000001,0.9119999999999999,0.0040000000000000036,0.04551968660289873,0.0,0.0,0.0,0.0,0.0
1757905671.6566572,-11.044512211953954,0.0,0.0,0.0,0.0,0.0,-15.870000000000001,-0.9699999999999989,-4.3100000000000005,0.238,0.917,-0.054,0.024127438940230235,0.0,0.0,0.0,0.0,0.0
1757905671.7066793,-5.777650906726712,0.0,0.0,0.0,0.0,0.0,-12.809999999999999,0.07000000000000028,-2.31,0.257,0.901,-0.086,0.03516174546636643,0.0,0.0,0.0,0.0,0.0
1757905671.767536,-8.095446250825212,0.0,0.0,0.0,0.0,0.0,-10.369999999999997,-0.23000000000000043,-3.23,0.244,0.8959999999999999,-0.082,0.011372768745873927,0.0,0.0,0.0,0.0,0.0
1757905671.8266604,-5.715002187226178,0.0,0.0,0.0,0.0,0.0,-7.869999999999997,-0.2699999999999996,-2.27,0.26,0.883,-0.07100000000000001,0.010774989063869098,0.0,0.0,0.0,0.0,0.0
1757905671.8766735,-5.887805193788258,0.0,0.0,0.0,0.0,0.0,-6.789999999999999,-0.5499999999999989,-2.29,0.267,0.8600000000000001,-0.075,0.004510974031058708,0.0,0.0,0.0,0.0,0.0
1757905671.9366426,-5.1235973690367205,0.0,0.0,0.0,0.0,0.0,-6.189999999999998,-0.4900000000000002,-1.99,0.269,0.869,-0.079,0.005332013154816386,0.0,0.0,0.0,0.0,0.0
1757905671.9868813,-4.0,0.0,0.0,0.0,0.0,0.0,-6.390000000000001,-0.3099999999999987,-1.53,0.242,0.8240000000000001,-0.058,0.011950000000000002,0.0,0.0,0.0,0.0,0.0
1757905672.046695,-9.08879805034747,0.0,0.0,0.0,0.0,0.0,-6.869999999999997,-0.4299999999999997,-3.61,0.255,0.865,-0.066,-0.011093990251737367,0.0,0.0,0.0,0.0,0.0
1757905672.0967076,-6.678791058267955,0.0,0.0,0.0,0.0,0.0,-5.849999999999998,-0.5700000000000003,-2.61,0.23600000000000002,0.853,-0.048,-0.004143955291339787,0.0,0.0,0.0,0.0,0.0
1757905672.1467433,-7.144315922465914,0.0,0.0,0.0,0.0,0.0,-6.829999999999998,-0.20999999999999908,-2.8499999999999996,0.244,0.8860000000000001,-0.065,-0.001571579612329579,0.0,0.0,0.0,0.0,0.0
1757905672.2066462,-7.771180733968294,0.0,0.0,0.0,0.0,0.0,-6.969999999999999,-0.8499999999999996,-2.99,0.255,0.8720000000000001,-0.054,-0.004005903669841477,0.0,0.0,0.0,0.0,0.0
1757905672.2675498,-6.559820881700962,0.0,0.0,0.0,0.0,0.0,-6.849999999999998,-0.2699999999999996,-2.61,0.246,0.8520000000000001,-0.064,0.0014508955914951781,0.0,0.0,0.0,0.0,0.0
1757905672.3266623,-8.046505452679442,0.0,0.0,0.0,0.0,0.0,-6.890000000000001,-0.75,-3.13,0.229,0.831,-0.041,-0.0057825272633972085,0.0,0.0,0.0,0.0,0.0
1757905672.3769522,-9.405118287400748,0.0,0.0,0.0,0.0,0.0,-6.27,-0.4900000000000002,-3.73,0.266,0.8089999999999999,-0.041,-0.015675591437003745,0.0,0.0,0.0,0.0,0.0
1757905672.4366944,-12.607785293222596,0.0,0.0,0.0,0.0,0.0,-8.009999999999998,-0.7300000000000004,-4.99,0.256,0.779,-0.053,-0.022988926466112992,0.0,0.0,0.0,0.0,0.0
1757905672.496656,-14.12466813769442,0.0,0.0,0.0,0.0,0.0,-8.169999999999998,-0.6699999999999999,-5.609999999999999,0.262,0.759,-0.043000000000000003,-0.029773340688472105,0.0,0.0,0.0,0.0,0.0
1757905672.556652,-19.806091234769166,0.0,0.0,0.0,0.0,0.0,-11.79,-1.33,-7.8100000000000005,0.28300000000000003,0.787,-0.037,-0.040080456173845834,0.0,0.0,0.0,0.0,0.0
1757905672.6167421,-19.641569438311183,0.0,0.0,0.0,0.0,0.0,-13.289999999999996,-1.7899999999999991,-7.65,0.268,0.756,-0.047,-0.03175784719155594,0.0,0.0,0.0,0.0,0.0
1757905672.6766605,-20.0,0.0,0.0,0.0,0.0,0.0,-18.31,-2.329999999999999,-10.33,0.279,0.759,-0.062,-0.008450000000000006,0.0,0.0,0.0,0.0,0.0
1757905672.7266827,-20.0,0.0,0.0,0.0,0.0,0.0,-19.01,-2.1899999999999995,-10.209999999999999,0.29700000000000004,0.773,-0.044,-0.004949999999999993,0.0,0.0,0.0,0.0,0.0
1757905672.7868242,-20.0,0.0,0.0,0.0,0.0,0.0,-19.05,-2.25,-10.15,0.281,0.789,-0.008000000000000007,-0.004749999999999996,0.0,0.0,0.0,0.0,0.0
1757905672.8466759,-20.0,0.0,0.0,0.0,0.0,0.0,-18.929999999999996,-2.5699999999999994,-10.75,0.267,0.784,-0.006000000000000005,-0.00535000000000002,0.0,0.0,0.0,0.0,0.0
1757905672.9066424,-20.0,0.0,0.0,0.0,0.0,0.0,-18.95,-3.1099999999999994,-9.95,0.29700000000000004,0.747,0.0010000000000000009,-0.005250000000000004,0.0,0.0,0.0,0.0,0.0
1757905672.9566977,-20.0,0.0,0.0,0.0,0.0,0.0,-19.529999999999998,-3.05,-11.549999999999999,0.31,0.738,-0.025999999999999995,-0.0023500000000000122,0.0,0.0,0.0,0.0,0.0
1757905673.006723,-20.0,0.0,0.0,0.0,0.0,0.0,-19.45,-2.5299999999999994,-11.549999999999999,0.312,0.763,-0.017,-0.0027500000000000037,0.0,0.0,0.0,0.0,0.0
1757905673.057156,-20.0,0.0,0.0,0.0,0.0,0.0,-19.73,-2.829999999999999,-11.87,0.305,0.751,-0.0020000000000000018,-0.001349999999999998,0.0,0.0,0.0,0.0,0.0
1757905673.11668,-20.0,0.0,0.0,0.0,0.0,0.0,-19.609999999999996,-2.6099999999999994,-11.65,0.32,0.73,-0.033,-0.0019500000000000207,0.0,0.0,0.0,0.0,0.0
1757905673.176688,-20.0,0.0,0.0,0.0,0.0,0.0,-20.51,-3.8899999999999997,-13.33,0.32,0.7130000000000001,-0.0020000000000000018,0.002550000000000008,0.0,0.0,0.0,0.0,0.0
1757905673.2366369,-20.0,0.0,0.0,0.0,0.0,0.0,-19.789999999999996,-3.4899999999999993,-13.43,0.32,0.681,-0.008000000000000007,-0.001050000000000022,0.0,24.078538678079163,0.0,0.0,0.0
1757905673.28669,-20.0,0.0,0.0,0.0,0.0,0.0,-19.830000000000002,-3.369999999999999,-13.67,0.318,0.658,-0.024999999999999994,-0.0008499999999999907,0.0,0.0,0.0,0.0,0.0
1757905673.3368042,-20.0,0.0,0.0,0.0,0.0,0.0,-18.95,-3.7699999999999996,-16.990000000000002,0.338,0.542,-0.09,-0.005250000000000004,0.0,0.0,0.0,0.0,0.0
1757905673.3966515,-20.0,0.0,0.0,0.0,0.0,0.0,-16.63,-2.3499999999999996,-15.09,0.311,0.673,-0.103,-0.016850000000000004,0.0,0.0,0.0,0.0,0.0
1757905673.4466648,-20.0,0.0,0.0,0.0,0.0,0.0,-17.19,-2.75,-13.85,0.303,0.6779999999999999,-0.057,-0.014049999999999993,0.0,0.0,0.0,0.0,0.0
1757905673.4967132,-20.0,0.0,0.0,0.0,0.0,0.0,-18.41,-3.6499999999999995,-12.61,0.333,0.694,-0.073,-0.007949999999999999,0.0,0.0,0.0,0.0,0.0
1757905673.5467374,-20.0,0.0,0.0,0.0,0.0,0.0,-20.77,-3.75,-13.209999999999999,0.32,0.706,-0.096,0.003849999999999998,0.0,0.0,0.0,0.0,0.0
1757905673.6066127,-20.0,0.0,0.0,0.0,0.0,0.0,-19.49,-3.21,-10.83,0.29800000000000004,0.742,-0.08,-0.002550000000000008,0.0,0.0,0.0,0.0,0.0
1757905673.6571987,-20.0,0.0,0.0,0.0,0.0,0.0,-20.970000000000002,-2.7299999999999995,-8.33,0.29000000000000004,0.8009999999999999,-0.088,0.004850000000000012,0.0,0.0,0.0,0.0,0.0
1757905673.7166746,-12.102737293686912,0.0,0.0,0.0,0.0,0.0,-19.889999999999997,-1.8099999999999996,-4.49,0.252,0.867,-0.056,0.038936313531565424,0.0,0.0,0.0,0.0,0.0
1757905673.7675483,-11.257719573696972,0.0,0.0,0.0,0.0,0.0,-18.77,-1.4299999999999997,-4.27,0.242,0.9079999999999999,-0.074,0.03756140213151514,0.0,0.0,0.0,0.0,0.0
1757905673.8266568,-8.051164512044204,0.0,0.0,0.0,0.0,0.0,-13.389999999999997,-0.6699999999999999,-3.15,0.244,0.9239999999999999,-0.073,0.026694177439778963,0.0,0.0,0.0,0.0,0.0
1757905673.8770564,-6.679165367020043,0.0,0.0,0.0,0.0,0.0,-11.91,-0.46999999999999886,-2.63,0.257,0.843,-0.077,0.026154173164899788,0.0,0.0,0.0,0.0,0.0
1757905673.9366465,-9.727602479542426,0.0,0.0,0.0,0.0,0.0,-8.41,-0.7899999999999991,-3.81,0.262,0.831,-0.094,-0.006588012397712131,0.0,0.0,0.0,0.0,0.0
1757905673.986753,-6.383278937975372,0.0,0.0,0.0,0.0,0.0,-6.489999999999998,-0.129999999999999,-2.55,0.251,0.8300000000000001,-0.044,0.000533605310123133,0.0,0.0,0.0,0.0,0.0
1757905674.046785,-5.780246534534663,0.0,0.0,0.0,0.0,0.0,-5.469999999999999,-1.0299999999999994,-2.07,0.248,0.857,-0.073,-0.0015512326726733194,0.0,0.0,0.0,0.0,0.0
1757905674.1067002,-7.731833547096057,0.0,0.0,0.0,0.0,0.0,-6.109999999999999,0.13000000000000078,-3.09,0.27,0.8660000000000001,-0.078,-0.00810916773548029,0.0,0.0,0.0,0.0,0.0
1757905674.1567538,-7.109236949209105,0.0,0.0,0.0,0.0,0.0,-6.07,-0.5499999999999989,-2.79,0.248,0.819,-0.054,-0.005196184746045524,0.0,0.0,0.0,0.0,0.0
1757905674.2167313,-6.077520053442851,0.0,0.0,0.0,0.0,0.0,-6.57,-0.8699999999999992,-2.27,0.231,0.8200000000000001,-0.058,0.002462399732785747,0.0,0.0,0.0,0.0,0.0
1757905674.2676902,-5.541322044422251,0.0,0.0,0.0,0.0,0.0,-6.689999999999998,0.16999999999999993,-2.21,0.26,0.8360000000000001,-0.065,0.005743389777888734,0.0,0.0,0.0,0.0,0.0
1757905674.3266308,-6.266677748217152,0.0,0.0,0.0,0.0,0.0,-7.41,-0.5299999999999994,-2.45,0.261,0.8049999999999999,-0.054,0.0057166112589142415,0.0,0.0,0.0,0.0,0.0
1757905674.3768818,-12.08433903860695,0.0,0.0,0.0,0.0,0.0,-5.849999999999998,-1.17,-4.6899999999999995,0.23600000000000002,0.788,-0.053,-0.031171695193034765,0.0,0.0,0.0,0.0,0.0
1757905674.4366415,-14.604322990128642,0.0,0.0,0.0,0.0,0.0,-6.93,-0.3699999999999992,-5.83,0.266,0.726,-0.052,-0.038371614950643215,0.0,0.0,0.0,0.0,0.0
1757905674.4869633,-20.0,0.0,0.0,0.0,0.0,0.0,-8.469999999999999,-1.9499999999999993,-8.13,0.28500000000000003,0.706,-0.083,-0.05765000000000001,0.0,0.0,0.0,0.0,0.0
1757905674.5466945,-20.0,0.0,0.0,0.0,0.0,0.0,-15.650000000000002,-2.4699999999999998,-12.09,0.303,0.71,-0.092,-0.021749999999999988,0.0,0.0,0.0,0.0,0.0
1757905674.6066532,-20.0,0.0,0.0,0.0,0.0,0.0,-16.529999999999998,-2.6899999999999995,-12.45,0.28500000000000003,0.739,-0.105,-0.01735000000000001,0.0,0.0,0.0,0.0,0.0
1757905674.6567993,-20.0,0.0,0.0,0.0,0.0,0.0,-20.05,-2.369999999999999,-11.709999999999999,0.29100000000000004,0.672,-0.049,0.0002500000000000036,0.0,0.0,0.0,0.0,0.0
1757905674.7167382,-20.0,0.0,0.0,0.0,0.0,0.0,-19.849999999999998,-2.6099999999999994,-13.33,0.29500000000000004,0.6859999999999999,-0.04,-0.0007500000000000106,0.0,0.0,0.0,0.0,0.0
1757905674.7776597,-20.0,0.0,0.0,0.0,0.0,0.0,-19.330000000000002,-2.829999999999999,-13.65,0.304,0.663,-0.016,-0.003349999999999991,0.0,0.0,0.0,0.0,0.0
1757905674.8366222,-20.0,0.0,0.0,0.0,0.0,0.0,-19.709999999999997,-3.1099999999999994,-13.15,0.322,0.642,-0.023000000000000007,-0.0014500000000000136,0.0,0.0,0.0,0.0,0.0
1757905674.8867385,-20.0,0.0,0.0,0.0,0.0,0.0,-19.01,-4.31,-13.79,0.29800000000000004,0.668,-0.009999999999999995,-0.004949999999999993,0.0,0.0,0.0,0.0,0.0
1757905674.9367886,-20.0,0.0,0.0,0.0,0.0,0.0,-18.789999999999996,-3.7699999999999996,-14.61,0.313,0.65,-0.022000000000000006,-0.006050000000000022,0.0,0.0,0.0,0.0,0.0
1757905674.986844,-20.0,0.0,0.0,0.0,0.0,0.0,-19.529999999999998,-4.97,-15.41,0.322,0.605,-0.020000000000000004,-0.0023500000000000122,0.0,-11.78202572185458,0.0,0.0,0.0
1757905675.0466623,-20.0,0.0,0.0,0.0,0.0,0.0,-14.650000000000002,-5.09,-10.33,0.332,0.659,-0.024999999999999994,-0.02674999999999999,0.0,0.0,0.0,0.0,0.0
1757905675.106635,-20.0,0.0,0.0,0.0,0.0,0.0,-16.349999999999998,-4.069999999999999,-14.209999999999999,0.331,0.655,-0.047,-0.018250000000000013,0.0,24.12045406456909,0.0,0.0,0.0
1757905675.1566777,-20.0,0.0,0.0,0.0,0.0,0.0,-20.81,-5.97,-17.07,0.322,0.7010000000000001,-0.056,0.004049999999999994,0.0,24.454427261800028,0.0,0.0,0.0
1757905675.20669,-20.0,0.0,0.0,0.0,0.0,0.0,-16.789999999999996,-3.4699999999999998,-7.51,0.303,0.8560000000000001,-0.095,-0.016050000000000023,0.0,35.314343868959845,0.0,0.0,0.0
1757905675.2571003,-8.40185991313828,0.0,0.0,0.0,0.0,0.0,-11.61,-1.6099999999999994,-2.95,0.259,0.958,-0.054,0.0160407004343086,0.0,0.0,0.0,0.0,0.0
1757905675.316701,-6.712395250579332,0.0,0.0,0.0,0.0,0.0,-19.529999999999998,-0.629999999999999,-2.61,0.23600000000000002,0.895,-0.0040000000000000036,0.06408802374710333,0.0,0.0,0.0,0.0,0.0
1757905675.376635,-5.269843451185244,0.0,0.0,0.0,0.0,0.0,-9.39,-0.75,1.9700000000000002,0.234,0.99,-0.09,0.020600782744073783,0.0,0.0,0.0,0.0,0.0
1757905675.4266424,-9.225304873010971,0.0,0.0,0.0,0.0,0.0,-6.669999999999998,-2.9699999999999998,2.19,0.242,1.008,-0.087,-0.012776524365054867,0.0,0.0,0.0,0.0,0.0
1757905675.4767687,-8.101928782703535,0.0,0.0,0.0,0.0,0.0,-6.289999999999999,-1.25,2.9899999999999998,0.244,1.025,-0.068,-0.009059643913517679,0.0,0.0,0.0,0.0,0.0
1757905675.5366423,-4.0,0.0,0.0,0.0,0.0,0.0,-8.59,-0.3899999999999988,0.1100000000000001,0.273,0.9630000000000001,-0.083,0.022949999999999998,0.0,0.0,0.0,0.0,0.0
1757905675.5867324,-4.696940493555352,0.0,0.0,0.0,0.0,0.0,-7.809999999999999,-0.629999999999999,-1.77,0.262,0.8940000000000001,-0.086,0.015565297532223235,0.0,0.0,0.0,0.0,0.0
1757905675.6466417,-4.0,0.0,0.0,0.0,0.0,0.0,-4.57,-0.009999999999999787,-0.8499999999999999,0.239,0.887,-0.057,0.0028500000000000014,0.0,0.0,0.0,0.0,0.0
1757905675.696694,-4.0,0.0,0.0,0.0,0.0,0.0,-5.309999999999999,-0.28999999999999915,-0.08999999999999986,0.239,0.8760000000000001,-0.051000000000000004,0.006549999999999993,0.0,0.0,0.0,0.0,0.0
1757905675.7567601,-4.0,0.0,0.0,0.0,0.0,0.0,-4.41,-0.1899999999999995,-0.57,0.223,0.839,-0.061,0.0020500000000000006,0.0,0.0,0.0,0.0,0.0
1757905675.8167388,-4.364773762751055,0.0,0.0,0.0,0.0,0.0,-4.41,-0.9100000000000001,-1.49,0.24,0.855,-0.048,0.00022613118624472683,0.0,0.0,0.0,0.0,0.0
1757905675.8766954,-6.02754095796951,0.0,0.0,0.0,0.0,0.0,-4.57,0.07000000000000028,-2.41,0.23600000000000002,0.8640000000000001,-0.055,-0.007287704789847549,0.0,0.0,0.0,0.0,0.0
1757905675.9267814,-6.025051866996664,0.0,0.0,0.0,0.0,0.0,-5.550000000000001,0.3100000000000005,-2.3899999999999997,0.25,0.8420000000000001,-0.065,-0.0023752593349833174,0.0,0.0,0.0,0.0,0.0
1757905675.9868715,-4.0,0.0,0.0,0.0,0.0,0.0,-4.93,0.11000000000000121,-1.5499999999999998,0.244,0.8640000000000001,-0.048,0.004649999999999999,0.0,0.0,0.0,0.0,0.0
1757905676.0369315,-8.491245491681418,0.0,0.0,0.0,0.0,0.0,-4.369999999999997,1.1100000000000012,-3.21,0.248,0.913,-0.068,-0.020606227458407105,0.0,0.0,0.0,0.0,0.0
1757905676.096681,-6.980060887986579,0.0,0.0,0.0,0.0,0.0,-5.349999999999998,-0.34999999999999964,-2.77,0.248,0.871,-0.067,-0.008150304439932907,0.0,0.0,0.0,0.0,0.0
1757905676.1567688,-9.182388033621756,0.0,0.0,0.0,0.0,0.0,-7.390000000000001,-0.41000000000000014,-3.65,0.262,0.865,-0.051000000000000004,-0.008961940168108775,0.0,0.0,0.0,0.0,0.0
1757905676.2166674,-6.735447275422769,0.0,0.0,0.0,0.0,0.0,-6.809999999999999,0.15000000000000036,-2.69,0.278,0.843,-0.074,0.00037276362288614975,0.0,0.0,0.0,0.0,0.0
1757905676.2766466,-7.76731935741025,0.0,0.0,0.0,0.0,0.0,-6.25,-1.1899999999999995,-2.87,0.227,0.8700000000000001,-0.05,-0.0075865967870512524,0.0,0.0,0.0,0.0,0.0
1757905676.326764,-7.2801957391268,0.0,0.0,0.0,0.0,0.0,-7.489999999999998,-0.10999999999999943,-2.91,0.268,0.855,-0.068,0.0010490213043659936,0.0,0.0,0.0,0.0,0.0
1757905676.386974,-6.885219676960205,0.0,0.0,0.0,0.0,0.0,-6.209999999999997,-0.15000000000000036,-2.75,0.248,0.889,-0.068,-0.0033760983848010405,0.0,0.0,0.0,0.0,0.0
1757905676.4467034,-7.401773436143529,0.0,0.0,0.0,0.0,0.0,-7.07,-0.8699999999999992,-2.83,0.222,0.851,-0.069,-0.0016588671807176425,0.0,0.0,0.0,0.0,0.0
1757905676.506641,-7.0753975153343855,0.0,0.0,0.0,0.0,0.0,-6.57,0.030000000000001137,-2.83,0.256,0.859,-0.069,-0.0025269875766719264,0.0,0.0,0.0,0.0,0.0
1757905676.5567908,-7.627007932341488,0.0,0.0,0.0,0.0,0.0,-6.73,-0.07000000000000028,-3.05,0.273,0.853,-0.051000000000000004,-0.004485039661707439,0.0,0.0,0.0,0.0,0.0
1757905676.6166966,-6.494709385338192,0.0,0.0,0.0,0.0,0.0,-6.609999999999999,-0.5899999999999999,-2.5300000000000002,0.239,0.8420000000000001,-0.076,0.0005764530733090379,0.0,0.0,0.0,0.0,0.0
1757905676.6766396,-7.929769857946698,0.0,0.0,0.0,0.0,0.0,-6.969999999999999,0.11000000000000121,-3.17,0.265,0.869,-0.061,-0.004798849289733496,0.0,0.0,0.0,0.0,0.0
1757905676.7266474,-6.20171347290408,0.0,0.0,0.0,0.0,0.0,-6.75,-0.23000000000000043,-2.4699999999999998,0.234,0.8880000000000001,-0.058,0.0027414326354795993,0.0,0.0,0.0,0.0,0.0
1757905676.7766526,-7.027179377246606,0.0,0.0,0.0,0.0,0.0,-6.73,-0.07000000000000028,-2.81,0.251,0.873,-0.077,-0.0014858968862330269,0.0,0.0,0.0,0.0,0.0
1757905676.826775,-4.0,0.0,0.0,0.0,0.0,0.0,-7.09,-0.16999999999999993,-1.45,0.252,0.833,-0.045,0.01545,0.0,0.0,0.0,0.0,0.0
1757905676.8867807,-5.820330746615692,0.0,0.0,0.0,0.0,0.0,-7.289999999999999,-0.7899999999999991,-2.19,0.267,0.8500000000000001,-0.066,0.007348346266921535,0.0,0.0,0.0,0.0,0.0
1757905676.9466543,-7.376059245965965,0.0,0.0,0.0,0.0,0.0,-6.09,-0.049999999999998934,-2.95,0.262,0.907,-0.076,-0.006430296229829824,0.0,0.0,0.0,0.0,0.0
1757905676.9966595,-7.526038134370567,0.0,0.0,0.0,0.0,0.0,-6.149999999999999,-0.34999999999999964,-2.99,0.241,0.8520000000000001,-0.067,-0.006880190671852842,0.0,0.0,0.0,0.0,0.0
1757905677.0566754,-7.476713850348961,0.0,0.0,0.0,0.0,0.0,-5.789999999999999,-0.6899999999999995,-2.91,0.249,0.873,-0.059,-0.008433569251744811,0.0,0.0,0.0,0.0,0.0
1757905677.1066766,-5.8070000861029785,0.0,0.0,0.0,0.0,0.0,-7.309999999999999,-0.6500000000000004,-2.23,0.23600000000000002,0.831,-0.058,0.007514999569485101,0.0,0.0,0.0,0.0,0.0
1757905677.1566813,-7.259218277473134,0.0,0.0,0.0,0.0,0.0,-6.77,-0.6500000000000004,-2.83,0.249,0.855,-0.08,-0.002446091387365672,0.0,0.0,0.0,0.0,0.0
1757905677.2166855,-7.290490381311807,0.0,0.0,0.0,0.0,0.0,-6.75,-0.3899999999999988,-2.8899999999999997,0.249,0.863,-0.068,-0.002702451906559036,0.0,0.0,0.0,0.0,0.0
1757905677.27664,-7.525373744871413,0.0,0.0,0.0,0.0,0.0,-6.329999999999998,-0.4900000000000002,-2.9699999999999998,0.219,0.871,-0.067,-0.0059768687243570715,0.0,0.0,0.0,0.0,0.0
1757905677.3270085,-7.68708332204094,0.0,0.0,0.0,0.0,0.0,-6.709999999999997,-0.3899999999999988,-3.05,0.252,0.8640000000000001,-0.055,-0.004885416610204714,0.0,0.0,0.0,0.0,0.0
1757905677.3866782,-6.844797294295864,0.0,0.0,0.0,0.0,0.0,-6.789999999999999,-0.5099999999999998,-2.69,0.232,0.8400000000000001,-0.06,-0.0002739864714793239,0.0,0.0,0.0,0.0,0.0
1757905677.44666,-6.968231482951753,0.0,0.0,0.0,0.0,0.0,-6.209999999999997,-1.0299999999999994,-2.59,0.232,0.8260000000000001,-0.069,-0.0037911574147587767,0.0,0.0,0.0,0.0,0.0
1757905677.4967074,-6.076285872142619,0.0,0.0,0.0,0.0,0.0,-6.27,-0.049999999999998934,-2.4299999999999997,0.244,0.8720000000000001,-0.06,0.0009685706392869031,0.0,0.0,0.0,0.0,0.0
1757905677.5566747,-6.957819342293964,0.0,0.0,0.0,0.0,0.0,-6.75,-0.2699999999999996,-2.77,0.245,0.8680000000000001,-0.078,-0.001039096711469818,0.0,0.0,0.0,0.0,0.0
1757905677.6166787,-8.007886737460764,0.0,0.0,0.0,0.0,0.0,-6.209999999999997,-0.28999999999999915,-3.19,0.241,0.847,-0.07100000000000001,-0.008989433687303832,0.0,0.0,0.0,0.0,0.0
1757905677.6766322,-6.763967031262053,0.0,0.0,0.0,0.0,0.0,-6.969999999999999,1.0099999999999998,-2.51,0.254,0.873,-0.046,0.0010301648436897314,0.0,0.0,0.0,0.0,0.0
1757905677.7267096,-6.483151239944969,0.0,0.0,0.0,0.0,0.0,-6.809999999999999,-0.129999999999999,-2.59,0.267,0.8660000000000001,-0.073,0.001634243800275148,0.0,0.0,0.0,0.0,0.0
1757905677.7867365,-6.79531088324883,0.0,0.0,0.0,0.0,0.0,-7.369999999999997,-0.20999999999999908,-2.71,0.252,0.867,-0.079,0.002873445583755836,0.0,0.0,0.0,0.0,0.0
1757905677.846701,-9.532379031490512,0.0,0.0,0.0,0.0,0.0,-8.09,0.15000000000000036,-3.81,0.269,0.871,-0.067,-0.007211895157452562,0.0,0.0,0.0,0.0,0.0
1757905677.9066484,-8.101311622200443,0.0,0.0,0.0,0.0,0.0,-6.669999999999998,-0.5700000000000003,-3.19,0.23500000000000001,0.8880000000000001,-0.07200000000000001,-0.007156558111002225,0.0,0.0,0.0,0.0,0.0
1757905677.9566789,-7.175391975355772,0.0,0.0,0.0,0.0,0.0,-7.969999999999999,-0.02999999999999936,-2.87,0.241,0.869,-0.064,0.003973040123221137,0.0,0.0,0.0,0.0,0.0
1757905678.0166848,-8.529434330598953,0.0,0.0,0.0,0.0,0.0,-7.43,0.11000000000000121,-3.41,0.256,0.8840000000000001,-0.082,-0.005497171652994765,0.0,0.0,0.0,0.0,0.0
1757905678.066713,-5.561587003724746,0.0,0.0,0.0,0.0,0.0,-6.189999999999998,-0.4900000000000002,-2.17,0.243,0.833,-0.082,0.003142064981376258,0.0,0.0,0.0,0.0,0.0
1757905678.1267402,-7.225389262870201,0.0,0.0,0.0,0.0,0.0,-6.029999999999998,-0.02999999999999936,-2.8899999999999997,0.24,0.8760000000000001,-0.068,-0.005976946314351017,0.0,0.0,0.0,0.0,0.0
1757905678.1870124,-7.99413847765974,0.0,0.0,0.0,0.0,0.0,-6.07,-0.5499999999999989,-3.15,0.229,0.877,-0.055,-0.009620692388298697,0.0,0.0,0.0,0.0,0.0
1757905678.2466843,-6.167758912279241,0.0,0.0,0.0,0.0,0.0,-6.509999999999998,0.2900000000000009,-2.45,0.248,0.843,-0.07,0.0017112054386037867,0.0,0.0,0.0,0.0,0.0
1757905678.3071852,-7.6397807560164965,0.0,0.0,0.0,0.0,0.0,-6.91,0.19000000000000128,-3.05,0.26,0.8780000000000001,-0.07100000000000001,-0.003648903780082482,0.0,0.0,0.0,0.0,0.0
1757905678.3666477,-5.9792349008882395,0.0,0.0,0.0,0.0,0.0,-7.25,-0.08999999999999986,-2.3899999999999997,0.254,0.8480000000000001,-0.067,0.006353825495558803,0.0,0.0,0.0,0.0,0.0
1757905678.416958,-5.177958091757793,0.0,0.0,0.0,0.0,0.0,-7.449999999999999,-0.07000000000000028,-2.07,0.253,0.843,-0.07100000000000001,0.011360209541211032,0.0,0.0,0.0,0.0,0.0
1757905678.4766388,-6.880497801758241,0.0,0.0,0.0,0.0,0.0,-7.629999999999999,0.11000000000000121,-2.75,0.273,0.8800000000000001,-0.065,0.003747510991208789,0.0,0.0,0.0,0.0,0.0
1757905678.5268376,-6.025051866996665,0.0,0.0,0.0,0.0,0.0,-6.869999999999997,0.009999999999999787,-2.41,0.26,0.8500000000000001,-0.08,0.004224740665016662,0.0,0.0,0.0,0.0,0.0
1757905678.5866773,-6.0976429872533515,0.0,0.0,0.0,0.0,0.0,-6.669999999999998,-0.20999999999999908,-2.4299999999999997,0.276,0.8500000000000001,-0.09,0.002861785063733233,0.0,0.0,0.0,0.0,0.0
1757905678.64664,-6.632966907802269,0.0,0.0,0.0,0.0,0.0,-8.09,-0.34999999999999964,-2.63,0.248,0.8240000000000001,-0.067,0.007285165460988657,0.0,0.0,0.0,0.0,0.0
1757905678.6966841,-7.786286020947342,0.0,0.0,0.0,0.0,0.0,-7.050000000000001,0.39000000000000057,-3.09,0.267,0.879,-0.07,-0.003681430104736707,0.0,0.0,0.0,0.0,0.0
