time,lam_star_Fx,lam_star_Fy,lam_star_Fz,lam_star_Tx,lam_star_Ty,lam_star_Tz,meas_Fx,meas_Fy,meas_Fz,meas_Tx,meas_Ty,meas_Tz,v_final_Fx,v_final_Fy,v_final_Fz,v_final_Tx,v_final_Ty,v_final_Tz
1757903861.0788038,-5.487827438978014,0.0,0.0,0.0,0.0,0.0,-7.91,0.15000000000000036,2.19,0.222,0.821,-0.04,0.01211086280510993,0.0,0.0,0.0,0.0,0.0
1757903861.1391912,-4.626688880830437,0.0,0.0,0.0,0.0,0.0,-7.91,0.05000000000000071,1.85,0.225,0.8420000000000001,-0.054,0.01641655559584782,0.0,0.0,0.0,0.0,0.0
1757903861.1988173,-4.0,0.0,0.0,0.0,0.0,0.0,-8.189999999999998,0.2900000000000009,1.4500000000000002,0.223,0.863,-0.048,0.02094999999999999,0.0,0.0,0.0,0.0,0.0
1757903861.2590847,-4.0,0.0,0.0,0.0,0.0,0.0,-7.829999999999998,-0.10999999999999943,1.4100000000000001,0.229,0.861,-0.036,0.019149999999999993,0.0,0.0,0.0,0.0,0.0
1757903861.3091643,-5.659615711335886,0.0,0.0,0.0,0.0,0.0,-8.009999999999998,-0.25,2.25,0.228,0.813,-0.057,0.011751921443320561,0.0,0.0,0.0,0.0,0.0
1757903861.3688138,-4.0,0.0,0.0,0.0,0.0,0.0,-7.789999999999999,-0.15000000000000036,1.5500000000000003,0.196,0.8520000000000001,-0.037,0.018949999999999995,0.0,0.0,0.0,0.0,0.0
1757903861.418814,-6.987936032906998,0.0,0.0,0.0,0.0,0.0,-7.07,0.16999999999999993,2.79,0.194,0.823,-0.046,0.0004103198354650095,0.0,0.0,0.0,0.0,0.0
1757903861.4688354,-5.575056053529865,0.0,0.0,0.0,0.0,0.0,-4.809999999999999,-0.009999999999999787,2.23,0.242,0.8340000000000001,-0.042,-0.0038252802676493314,0.0,0.0,0.0,0.0,0.0
1757903861.5288122,-6.358164043181019,0.0,0.0,0.0,0.0,0.0,-5.07,0.41000000000000014,2.5100000000000002,0.221,0.8440000000000001,-0.045,-0.006440820215905094,0.0,0.0,0.0,0.0,0.0
1757903861.5791042,-4.775065444577697,0.0,0.0,0.0,0.0,0.0,-5.189999999999998,-0.009999999999999787,1.9100000000000001,0.208,0.873,-0.046,0.0020746727771115037,0.0,0.0,0.0,0.0,0.0
1757903861.6387925,-4.851932604643226,0.0,0.0,0.0,0.0,0.0,-5.709999999999997,0.75,1.79,0.208,0.877,-0.033,0.004290336976783857,0.0,0.0,0.0,0.0,0.0
1757903861.6988657,-4.0,0.0,0.0,0.0,0.0,0.0,-5.050000000000001,-0.6500000000000004,1.29,0.22,0.8520000000000001,-0.035,0.005250000000000004,0.0,0.0,0.0,0.0,0.0
1757903861.7587576,-6.691879407162086,0.0,0.0,0.0,0.0,0.0,-4.289999999999999,-0.1899999999999995,2.67,0.206,0.833,-0.049,-0.012009397035810436,0.0,0.0,0.0,0.0,0.0
1757903861.8095343,-6.082454274386285,0.0,0.0,0.0,0.0,0.0,-4.09,-0.629999999999999,2.35,0.209,0.797,-0.054,-0.009962271371931423,0.0,0.0,0.0,0.0,0.0
1757903861.8692284,-5.534550568926081,0.0,0.0,0.0,0.0,0.0,-4.73,-1.0099999999999998,1.9700000000000002,0.188,0.843,-0.023000000000000007,-0.004022752844630402,0.0,0.0,0.0,0.0,0.0
1757903861.9289367,-4.0,0.0,0.0,0.0,0.0,0.0,-5.969999999999999,-0.02999999999999936,0.6300000000000001,0.245,0.869,-0.054,0.009849999999999994,0.0,0.0,0.0,0.0,0.0
1757903861.9887743,-7.676017847816665,0.0,0.0,0.0,0.0,0.0,-5.789999999999999,-0.049999999999998934,3.07,0.20400000000000001,0.8600000000000001,-0.064,-0.009430089239083329,0.0,0.0,0.0,0.0,0.0
1757903862.0388083,-5.889503374648832,0.0,0.0,0.0,0.0,0.0,-5.009999999999998,-0.629999999999999,2.27,0.209,0.8029999999999999,-0.048,-0.004397516873244172,0.0,0.0,0.0,0.0,0.0
1757903862.0888464,-5.1133403954753485,0.0,0.0,0.0,0.0,0.0,-3.6099999999999994,-0.5499999999999989,1.9700000000000002,0.212,0.8180000000000001,-0.043000000000000003,-0.007516701977376745,0.0,0.0,0.0,0.0,0.0
1757903862.1487956,-5.704055574764327,0.0,0.0,0.0,0.0,0.0,-4.41,0.23000000000000043,2.27,0.232,0.825,-0.044,-0.006470277873821635,0.0,0.0,0.0,0.0,0.0
1757903862.1988113,-4.396163099795093,0.0,0.0,0.0,0.0,0.0,-4.390000000000001,-0.41000000000000014,1.71,0.219,0.851,-0.049,-3.081549897546054e-05,0.0,0.0,0.0,0.0,0.0
1757903862.2587767,-4.128710452429426,0.0,0.0,0.0,0.0,0.0,-5.649999999999999,-0.07000000000000028,1.65,0.238,0.829,-0.039,0.007606447737852862,0.0,0.0,0.0,0.0,0.0
1757903862.3089688,-4.0,0.0,0.0,0.0,0.0,0.0,-4.489999999999998,-0.5299999999999994,1.4500000000000002,0.207,0.843,-0.038,0.002449999999999992,0.0,0.0,0.0,0.0,0.0
1757903862.3691726,-5.591176083794893,0.0,0.0,0.0,0.0,0.0,-4.809999999999999,-0.16999999999999993,2.23,0.201,0.845,-0.034,-0.00390588041897447,0.0,0.0,0.0,0.0,0.0
1757903862.428818,-4.47842048048193,0.0,0.0,0.0,0.0,0.0,-5.23,-0.07000000000000028,1.79,0.23,0.865,-0.05,0.003757897597590354,0.0,0.0,0.0,0.0,0.0
1757903862.47913,-7.399408760164557,0.0,0.0,0.0,0.0,0.0,-4.669999999999998,-1.1899999999999995,2.71,0.187,0.8049999999999999,-0.039,-0.013647043800822796,0.0,0.0,0.0,0.0,0.0
1757903862.538823,-5.510558047965741,0.0,0.0,0.0,0.0,0.0,-5.449999999999999,-0.25,2.19,0.223,0.815,-0.041,-0.0003027902398287097,0.0,0.0,0.0,0.0,0.0
1757903862.5889616,-4.276242509493585,0.0,0.0,0.0,0.0,0.0,-6.029999999999998,-0.3699999999999992,1.67,0.241,0.8320000000000001,-0.044,0.008768787452532064,0.0,0.0,0.0,0.0,0.0
1757903862.638982,-6.229867574836564,0.0,0.0,0.0,0.0,0.0,-6.550000000000001,-0.33000000000000007,2.47,0.203,0.8520000000000001,-0.048,0.0016006621258171849,0.0,0.0,0.0,0.0,0.0
1757903862.6988099,-6.233478162310349,0.0,0.0,0.0,0.0,0.0,-5.91,0.13000000000000078,2.49,0.214,0.853,-0.059,-0.0016173908115517444,0.0,0.0,0.0,0.0,0.0
1757903862.748869,-4.0,0.0,0.0,0.0,0.0,0.0,-5.07,-0.28999999999999915,1.31,0.228,0.8460000000000001,-0.053,0.0053500000000000015,0.0,0.0,0.0,0.0,0.0
1757903862.8088706,-6.4090755963711326,0.0,0.0,0.0,0.0,0.0,-5.91,-0.6099999999999994,2.49,0.198,0.795,-0.035,-0.0024953779818556623,0.0,0.0,0.0,0.0,0.0
1757903862.868905,-6.500480751452156,0.0,0.0,0.0,0.0,0.0,-5.709999999999997,-0.23000000000000043,2.59,0.206,0.821,-0.047,-0.003952403757260794,0.0,0.0,0.0,0.0,0.0
1757903862.9289503,-5.146965125197568,0.0,0.0,0.0,0.0,0.0,-6.349999999999998,-0.1899999999999995,2.0500000000000003,0.228,0.815,-0.036,0.006015174374012151,0.0,0.0,0.0,0.0,0.0
1757903862.9790332,-6.505094157658287,0.0,0.0,0.0,0.0,0.0,-6.309999999999999,-0.25,2.59,0.213,0.8420000000000001,-0.046,-0.0009754707882914415,0.0,0.0,0.0,0.0,0.0
1757903863.0335212,-5.257970140653139,0.0,0.0,0.0,0.0,0.0,-6.189999999999998,-0.5499999999999989,2.0300000000000002,0.217,0.8089999999999999,-0.048,0.004660149296734293,0.0,0.0,0.0,0.0,0.0
1757903863.0889602,-7.962176210057149,0.0,0.0,0.0,0.0,0.0,-6.849999999999998,1.1500000000000004,2.97,0.251,0.815,-0.052,-0.005560881050285756,0.0,0.0,0.0,0.0,0.0
1757903863.1489408,-4.461642074393685,0.0,0.0,0.0,0.0,0.0,-5.169999999999998,-0.7699999999999996,1.6099999999999999,0.202,0.865,-0.054,0.0035417896280315643,0.0,0.0,0.0,0.0,0.0
1757903863.2089322,-4.395594385290799,0.0,0.0,0.0,0.0,0.0,-6.09,-0.16999999999999993,1.75,0.228,0.8420000000000001,-0.046,0.008472028073546004,0.0,0.0,0.0,0.0,0.0
1757903863.2688203,-4.9765701039973305,0.0,0.0,0.0,0.0,0.0,-5.649999999999999,0.05000000000000071,1.9900000000000002,0.216,0.861,-0.046,0.0033671494800133405,0.0,0.0,0.0,0.0,0.0
1757903863.3290458,-4.0,0.0,0.0,0.0,0.0,0.0,-4.109999999999999,0.009999999999999787,1.35,0.206,0.835,-0.043000000000000003,0.0005499999999999972,0.0,0.0,0.0,0.0,0.0
1757903863.3887374,-4.0,0.0,0.0,0.0,0.0,0.0,-3.8699999999999974,-0.07000000000000028,1.4100000000000001,0.20400000000000001,0.8540000000000001,-0.06,-0.0006500000000000128,0.0,0.0,0.0,0.0,0.0
1757903863.439068,-4.0,0.0,0.0,0.0,0.0,0.0,-4.25,-0.5099999999999998,0.9700000000000002,0.208,0.8660000000000001,-0.055,0.00125,0.0,0.0,0.0,0.0,0.0
1757903863.4988298,-4.422810192626403,0.0,0.0,0.0,0.0,0.0,-5.27,0.370000000000001,1.73,0.20400000000000001,0.815,-0.035,0.004235949036867983,0.0,0.0,0.0,0.0,0.0
1757903863.5587416,-4.0,0.0,0.0,0.0,0.0,0.0,-4.369999999999997,-0.4900000000000002,0.9700000000000002,0.207,0.8740000000000001,-0.047,0.0018499999999999873,0.0,0.0,0.0,0.0,0.0
1757903863.6090183,-4.0,0.0,0.0,0.0,0.0,0.0,-4.669999999999998,0.41000000000000014,1.4700000000000002,0.234,0.8200000000000001,-0.055,0.003349999999999991,0.0,0.0,0.0,0.0,0.0
1757903863.6688244,-4.0,0.0,0.0,0.0,0.0,0.0,-4.529999999999998,0.05000000000000071,1.5500000000000003,0.185,0.8049999999999999,-0.042,0.002649999999999988,0.0,0.0,0.0,0.0,0.0
1757903863.7300768,-5.7646552368723665,0.0,0.0,0.0,0.0,0.0,-4.23,-0.2699999999999996,2.29,0.213,0.837,-0.042,-0.00767327618436183,0.0,0.0,0.0,0.0,0.0
1757903863.7887583,-4.490684803011674,0.0,0.0,0.0,0.0,0.0,-3.8099999999999987,-0.15000000000000036,1.79,0.232,0.8280000000000001,-0.047,-0.0034034240150583764,0.0,0.0,0.0,0.0,0.0
1757903863.8391085,-4.0,0.0,0.0,0.0,0.0,0.0,-4.629999999999999,-0.4499999999999993,1.5300000000000002,0.222,0.8560000000000001,-0.031,0.0031499999999999953,0.0,0.0,0.0,0.0,0.0
1757903863.8990512,-4.1522584216303295,0.0,0.0,0.0,0.0,0.0,-4.849999999999998,-0.1899999999999995,1.65,0.239,0.8320000000000001,-0.054,0.003488707891848342,0.0,0.0,0.0,0.0,0.0
1757903863.958739,-4.215002965598008,0.0,0.0,0.0,0.0,0.0,-5.029999999999998,-0.75,1.5100000000000002,0.203,0.843,-0.024999999999999994,0.0040749851720099485,0.0,0.0,0.0,0.0,0.0
1757903864.0087879,-4.468920451294697,0.0,0.0,0.0,0.0,0.0,-4.349999999999998,-0.25,1.77,0.214,0.8220000000000001,-0.039,-0.0005946022564734977,0.0,0.0,0.0,0.0,0.0
1757903864.0588307,-4.445362752352163,0.0,0.0,0.0,0.0,0.0,-4.77,0.16999999999999993,1.77,0.22,0.8560000000000001,-0.048,0.0016231862382391827,0.0,0.0,0.0,0.0,0.0
1757903864.1089642,-5.383423631853617,0.0,0.0,0.0,0.0,0.0,-5.209999999999997,-0.4299999999999997,2.11,0.227,0.798,-0.035,-0.0008671181592680988,0.0,0.0,0.0,0.0,0.0
1757903864.1688702,-4.89502298258139,0.0,0.0,0.0,0.0,0.0,-4.550000000000001,0.33000000000000007,1.9300000000000002,0.222,0.835,-0.034,-0.0017251149129069443,0.0,0.0,0.0,0.0,0.0
1757903864.228831,-4.0,0.0,0.0,0.0,0.0,0.0,-5.009999999999998,0.08999999999999986,0.9100000000000001,0.232,0.861,-0.068,0.00504999999999999,0.0,0.0,0.0,0.0,0.0
1757903864.2789302,-4.304793839430641,0.0,0.0,0.0,0.0,0.0,-4.809999999999999,0.33000000000000007,1.69,0.219,0.819,-0.041,0.0025260308028467906,0.0,0.0,0.0,0.0,0.0
1757903864.3388307,-4.378498601118881,0.0,0.0,0.0,0.0,0.0,-4.09,0.07000000000000028,1.75,0.23,0.825,-0.042,-0.0014424930055944075,0.0,0.0,0.0,0.0,0.0
1757903864.3987966,-4.0,0.0,0.0,0.0,0.0,0.0,-2.669999999999998,-0.33000000000000007,1.0100000000000002,0.198,0.8300000000000001,-0.03,-0.006650000000000009,0.0,0.0,0.0,0.0,0.0
1757903864.4587598,-4.754077197522144,0.0,0.0,0.0,0.0,0.0,-3.2300000000000004,0.21000000000000085,1.8900000000000001,0.223,0.8340000000000001,-0.064,-0.007620385987610718,0.0,0.0,0.0,0.0,0.0
1757903864.508863,-5.4873718663855815,0.0,0.0,0.0,0.0,0.0,-4.369999999999997,-0.5299999999999994,2.13,0.208,0.841,-0.039,-0.0055868593319279205,0.0,0.0,0.0,0.0,0.0
1757903864.5688782,-4.0,0.0,0.0,0.0,0.0,0.0,-4.449999999999999,-0.7899999999999991,1.3900000000000001,0.175,0.855,-0.027999999999999997,0.0022499999999999964,0.0,0.0,0.0,0.0,0.0
1757903864.62878,-6.339262575410487,0.0,0.0,0.0,0.0,0.0,-3.8900000000000006,0.16999999999999993,2.5300000000000002,0.223,0.8049999999999999,-0.045,-0.012246312877052433,0.0,0.0,0.0,0.0,0.0
1757903864.6790082,-4.894512233103519,0.0,0.0,0.0,0.0,0.0,-3.91,0.4299999999999997,1.9100000000000001,0.224,0.849,-0.056,-0.004922561165517596,0.0,0.0,0.0,0.0,0.0
1757903864.7389371,-6.10215126000659,0.0,0.0,0.0,0.0,0.0,-4.129999999999999,0.23000000000000043,2.43,0.217,0.8560000000000001,-0.053,-0.009860756300032953,0.0,0.0,0.0,0.0,0.0
1757903864.798864,-9.741983884199357,0.0,0.0,0.0,0.0,0.0,-5.489999999999998,-0.23000000000000043,3.89,0.20500000000000002,0.829,-0.053,-0.02125991942099679,0.0,0.0,0.0,0.0,0.0
1757903864.8587487,-7.962804154316494,0.0,0.0,0.0,0.0,0.0,-7.41,-0.3099999999999987,3.1700000000000004,0.217,0.8109999999999999,-0.041,-0.0027640207715824696,0.0,0.0,0.0,0.0,0.0
1757903864.90885,-9.925787122440214,0.0,0.0,0.0,0.0,0.0,-7.669999999999998,-0.049999999999998934,3.97,0.208,0.855,-0.051000000000000004,-0.01127893561220108,0.0,0.0,0.0,0.0,0.0
1757903864.9687731,-11.437056002311085,0.0,0.0,0.0,0.0,0.0,-9.529999999999998,0.21000000000000085,4.57,0.21,0.863,-0.057,-0.009535280011555436,0.0,0.0,0.0,0.0,0.0
1757903865.0287962,-9.132702228803915,0.0,0.0,0.0,0.0,0.0,-8.39,-0.15000000000000036,3.65,0.212,0.8820000000000001,-0.055,-0.00371351114401957,0.0,0.0,0.0,0.0,0.0
1757903865.0894525,-12.615119896378314,0.0,0.0,0.0,0.0,0.0,-9.41,-0.75,4.99,0.211,0.8400000000000001,-0.04,-0.01602559948189157,0.0,0.0,0.0,0.0,0.0
1757903865.148768,-11.775663463261848,0.0,0.0,0.0,0.0,0.0,-10.57,-0.049999999999998934,4.710000000000001,0.2,0.8700000000000001,-0.049,-0.00602831731630924,0.0,0.0,0.0,0.0,0.0
1757903865.19886,-11.727158649903222,0.0,0.0,0.0,0.0,0.0,-10.649999999999999,-0.08999999999999986,4.6899999999999995,0.21,0.8920000000000001,-0.052,-0.005385793249516118,0.0,0.0,0.0,0.0,0.0
1757903865.2588136,-13.23012660559225,0.0,0.0,0.0,0.0,0.0,-11.169999999999998,-1.129999999999999,5.17,0.187,0.8920000000000001,-0.047,-0.010300633027961262,0.0,0.0,0.0,0.0,0.0
1757903865.30921,-13.23012660559225,0.0,0.0,0.0,0.0,0.0,-11.169999999999998,-1.129999999999999,5.17,0.187,0.8920000000000001,-0.047,-0.010300633027961262,0.0,0.0,0.0,0.0,0.0
1757903865.368807,-13.925561029990856,0.0,0.0,0.0,0.0,0.0,-12.57,-0.049999999999998934,5.57,0.208,0.877,-0.047,-0.0067778051499542795,0.0,0.0,0.0,0.0,0.0
1757903865.4287794,-13.012542026829346,0.0,0.0,0.0,0.0,0.0,-12.89,-0.9900000000000002,5.109999999999999,0.22,0.8999999999999999,-0.043000000000000003,-0.0006127101341467256,0.0,0.0,0.0,0.0,0.0
1757903865.4789033,-16.31812642431722,0.0,0.0,0.0,0.0,0.0,-12.969999999999999,-2.4499999999999993,6.050000000000001,0.16899999999999998,0.9059999999999999,-0.044,-0.01674063212158611,0.0,0.0,0.0,0.0,0.0
1757903865.5391226,-10.380089113297633,0.0,0.0,0.0,0.0,0.0,-13.470000000000002,0.13000000000000078,4.15,0.237,0.9059999999999999,-0.054,0.01544955443351185,0.0,0.0,0.0,0.0,0.0
1757903865.5895243,-6.862306463573307,0.0,0.0,0.0,0.0,0.0,-11.669999999999998,-1.3499999999999996,2.39,0.21,0.853,-0.027999999999999997,0.024038467682133455,0.0,0.0,0.0,0.0,0.0
1757903865.6487958,-6.366415789123421,0.0,0.0,0.0,0.0,0.0,-11.75,-2.51,0.43000000000000016,0.188,0.8300000000000001,-0.039,0.0269179210543829,0.0,0.0,0.0,0.0,0.0
1757903865.7091417,-5.259871671438382,0.0,0.0,0.0,0.0,0.0,-6.949999999999999,-0.7899999999999991,-1.95,0.225,0.789,-0.03,0.008450641642808088,0.0,0.0,0.0,0.0,0.0
1757903865.7689412,-5.3180118465456605,0.0,0.0,0.0,0.0,0.0,-6.390000000000001,-1.049999999999999,-1.85,0.233,0.779,-0.027999999999999997,0.005359940767271701,0.0,0.0,0.0,0.0,0.0
1757903865.8289616,-4.68308125062976,0.0,0.0,0.0,0.0,0.0,-5.43,-0.10999999999999943,-1.87,0.24,0.765,-0.039,0.003734593746851198,0.0,0.0,0.0,0.0,0.0
1757903865.8887646,-6.425048637948197,0.0,0.0,0.0,0.0,0.0,-5.329999999999998,-0.7099999999999991,-2.4699999999999998,0.21,0.75,-0.013999999999999999,-0.005475243189740992,0.0,0.0,0.0,0.0,0.0
1757903865.9390187,-5.53455056892608,0.0,0.0,0.0,0.0,0.0,-5.209999999999997,-0.129999999999999,-2.21,0.244,0.784,-0.013999999999999999,-0.001622752844630413,0.0,0.0,0.0,0.0,0.0
1757903865.998839,-5.09276447521383,0.0,0.0,0.0,0.0,0.0,-5.989999999999998,-0.16999999999999993,-2.03,0.221,0.785,-0.026999999999999996,0.004486177623930843,0.0,0.0,0.0,0.0,0.0
1757903866.0587633,-5.445755227697989,0.0,0.0,0.0,0.0,0.0,-5.129999999999999,-0.7899999999999991,-2.03,0.22,0.76,0.033,-0.0015787761384899479,0.0,0.0,0.0,0.0,0.0
1757903866.1088614,-4.6627513337084565,0.0,0.0,0.0,0.0,0.0,-4.949999999999999,-0.4499999999999993,-1.81,0.23500000000000001,0.741,-0.044,0.001436243331457714,0.0,0.0,0.0,0.0,0.0
1757903866.1688666,-5.914494906583316,0.0,0.0,0.0,0.0,0.0,-5.57,-0.7899999999999991,-2.23,0.208,0.7230000000000001,-0.022000000000000006,-0.0017224745329165803,0.0,0.0,0.0,0.0,0.0
1757903866.2288375,-4.0,0.0,0.0,0.0,0.0,0.0,-5.59,-0.16999999999999993,-1.49,0.24,0.726,-0.020000000000000004,0.007949999999999999,0.0,0.0,0.0,0.0,0.0
1757903866.2790256,-6.060631155251076,0.0,0.0,0.0,0.0,0.0,-5.309999999999999,-0.5099999999999998,-2.37,0.227,0.767,-0.035,-0.0037531557762553857,0.0,0.0,0.0,0.0,0.0
1757903866.3388612,-6.426215838267494,0.0,0.0,0.0,0.0,0.0,-5.469999999999999,0.05000000000000071,-2.57,0.24,0.77,-0.007000000000000006,-0.004781079191337474,0.0,0.0,0.0,0.0,0.0
1757903866.398808,-5.512825954081989,0.0,0.0,0.0,0.0,0.0,-5.949999999999999,-0.9499999999999993,-1.99,0.214,0.7290000000000001,-0.033,0.002185870229590052,0.0,0.0,0.0,0.0,0.0
1757903866.458782,-5.548085255293037,0.0,0.0,0.0,0.0,0.0,-5.169999999999998,0.5500000000000007,-2.15,0.226,0.747,-0.0030000000000000027,-0.0018904262764651936,0.0,0.0,0.0,0.0,0.0
1757903866.5087976,-7.526038134370567,0.0,0.0,0.0,0.0,0.0,-4.550000000000001,-0.34999999999999964,-2.99,0.226,0.775,-0.015,-0.014880190671852832,0.0,0.0,0.0,0.0,0.0
1757903866.569047,-5.645462779967644,0.0,0.0,0.0,0.0,0.0,-5.989999999999998,-0.75,-2.13,0.233,0.769,-0.0050000000000000044,0.0017226861001617745,0.0,0.0,0.0,0.0,0.0
1757903866.6287823,-5.374127836216774,0.0,0.0,0.0,0.0,0.0,-6.629999999999999,-0.28999999999999915,-2.13,0.241,0.771,-0.023999999999999994,0.006279360818916127,0.0,0.0,0.0,0.0,0.0
1757903866.6788948,-6.41336495141201,0.0,0.0,0.0,0.0,0.0,-6.869999999999997,-0.5299999999999994,-2.51,0.233,0.774,-0.017,0.0022831752429399365,0.0,0.0,0.0,0.0,0.0
1757903866.7388542,-4.744075252354245,0.0,0.0,0.0,0.0,0.0,-5.489999999999998,-0.629999999999999,-1.79,0.208,0.765,-0.019000000000000003,0.003729623738228769,0.0,0.0,0.0,0.0,0.0
1757903866.8004205,-7.113104104397743,0.0,0.0,0.0,0.0,0.0,-5.029999999999998,0.6500000000000004,-2.77,0.228,0.782,-0.022000000000000006,-0.010415520521988726,0.0,0.0,0.0,0.0,0.0
1757903866.8587506,-4.378498601118881,0.0,0.0,0.0,0.0,0.0,-6.009999999999998,0.07000000000000028,-1.75,0.24,0.768,-0.012999999999999998,0.008157506994405584,0.0,0.0,0.0,0.0,0.0
1757903866.908808,-6.325049406921655,0.0,0.0,0.0,0.0,0.0,-5.41,-0.8300000000000001,-2.3899999999999997,0.216,0.766,-0.025999999999999995,-0.0045752470346082765,0.0,0.0,0.0,0.0,0.0
1757903866.9687803,-4.814691059663121,0.0,0.0,0.0,0.0,0.0,-4.129999999999999,-0.3699999999999992,-1.89,0.234,0.747,-0.010999999999999996,-0.003423455298315612,0.0,0.0,0.0,0.0,0.0
1757903867.018995,-5.030531781034685,0.0,0.0,0.0,0.0,0.0,-5.27,0.41000000000000014,-1.97,0.256,0.744,-0.012999999999999998,0.0011973410948265739,0.0,0.0,0.0,0.0,0.0
1757903867.0788374,-5.124085284223905,0.0,0.0,0.0,0.0,0.0,-5.489999999999998,-1.129999999999999,-1.71,0.239,0.741,-0.006000000000000005,0.001829573578880468,0.0,0.0,0.0,0.0,0.0
1757903867.1290736,-5.731600997976045,0.0,0.0,0.0,0.0,0.0,-5.309999999999999,-0.6099999999999994,-2.21,0.207,0.761,-0.008999999999999994,-0.002108004989880232,0.0,0.0,0.0,0.0,0.0
1757903867.188781,-7.130305042563045,0.0,0.0,0.0,0.0,0.0,-6.669999999999998,0.11000000000000121,-2.8499999999999996,0.242,0.773,-0.023999999999999994,-0.0023015252128152364,0.0,0.0,0.0,0.0,0.0
1757903867.2389278,-6.853557470394481,0.0,0.0,0.0,0.0,0.0,-5.789999999999999,-0.25,-2.73,0.242,0.773,-0.031,-0.00531778735197241,0.0,0.0,0.0,0.0,0.0
1757903867.29876,-4.406387409204959,0.0,0.0,0.0,0.0,0.0,-6.07,-0.20999999999999908,-1.75,0.23,0.755,-0.010999999999999996,0.008318062953975205,0.0,0.0,0.0,0.0,0.0
1757903867.3487773,-4.158274882688733,0.0,0.0,0.0,0.0,0.0,-6.890000000000001,-0.20999999999999908,-1.65,0.237,0.742,-0.024999999999999994,0.013658625586556337,0.0,0.0,0.0,0.0,0.0
1757903867.3987908,-5.20348440950869,0.0,0.0,0.0,0.0,0.0,-5.77,-0.6099999999999994,-1.99,0.253,0.739,-0.024999999999999994,0.00283257795245655,0.0,0.0,0.0,0.0,0.0
1757903867.4587443,-6.514311168496635,0.0,0.0,0.0,0.0,0.0,-6.41,-0.8300000000000001,-2.4699999999999998,0.216,0.771,-0.011999999999999997,-0.0005215558424831724,0.0,0.0,0.0,0.0,0.0
1757903867.5087948,-4.0,0.0,0.0,0.0,0.0,0.0,-6.59,-0.34999999999999964,-1.41,0.241,0.734,-0.018000000000000002,0.01295,0.0,0.0,0.0,0.0,0.0
1757903867.55891,-5.482814058492226,0.0,0.0,0.0,0.0,0.0,-5.949999999999999,-0.8300000000000001,-2.03,0.224,0.778,-0.0040000000000000036,0.0023359297075388687,0.0,0.0,0.0,0.0,0.0
1757903867.6187735,-5.876329636771579,0.0,0.0,0.0,0.0,0.0,-5.369999999999997,-0.9499999999999993,-2.15,0.23600000000000002,0.768,-0.008000000000000007,-0.0025316481838579064,0.0,0.0,0.0,0.0,0.0
1757903867.6688375,-4.420548608487412,0.0,0.0,0.0,0.0,0.0,-5.949999999999999,-0.4499999999999993,-1.71,0.229,0.7210000000000001,-0.03,0.007647256957562938,0.0,0.0,0.0,0.0,0.0
1757903867.7287304,-6.081221094484231,0.0,0.0,0.0,0.0,0.0,-4.849999999999998,-0.10999999999999943,-2.4299999999999997,0.225,0.78,-0.010999999999999996,-0.0061561054724211675,0.0,0.0,0.0,0.0,0.0
1757903867.778775,-4.0,0.0,0.0,0.0,0.0,0.0,-5.649999999999999,0.13000000000000078,-1.15,0.203,0.745,-0.0020000000000000018,0.008249999999999993,0.0,0.0,0.0,0.0,0.0
1757903867.828777,-4.667038675648618,0.0,0.0,0.0,0.0,0.0,-6.91,-0.9100000000000001,-1.63,0.232,0.73,-0.008000000000000007,0.011214806621756912,0.0,0.0,0.0,0.0,0.0
1757903867.8787827,-5.737268513848728,0.0,0.0,0.0,0.0,0.0,-5.77,0.15000000000000036,-2.29,0.243,0.76,-0.015,0.00016365743075635652,0.0,0.0,0.0,0.0,0.0
1757903867.9388433,-4.77558896891263,0.0,0.0,0.0,0.0,0.0,-5.449999999999999,0.030000000000001137,-1.91,0.214,0.744,-0.033,0.0033720551554368462,0.0,0.0,0.0,0.0,0.0
1757903867.999004,-5.932642750073529,0.0,0.0,0.0,0.0,0.0,-6.449999999999999,-0.4499999999999993,-2.33,0.242,0.761,-0.010999999999999996,0.0025867862496323515,0.0,0.0,0.0,0.0,0.0
1757903868.0588224,-5.798814534023312,0.0,0.0,0.0,0.0,0.0,-5.550000000000001,-0.20999999999999908,-2.31,0.23500000000000001,0.736,-0.012999999999999998,-0.0012440726701165561,0.0,0.0,0.0,0.0,0.0
1757903868.1088867,-6.0795764655113915,0.0,0.0,0.0,0.0,0.0,-4.550000000000001,-0.9699999999999989,-2.23,0.214,0.79,-0.011999999999999997,-0.007647882327556955,0.0,0.0,0.0,0.0,0.0
1757903868.1687849,-7.410549912118533,0.0,0.0,0.0,0.0,0.0,-5.57,-0.28999999999999915,-2.95,0.26,0.773,-0.018000000000000002,-0.009202749560592664,0.0,0.0,0.0,0.0,0.0
1757903868.228769,-4.179862437927831,0.0,0.0,0.0,0.0,0.0,-5.75,-0.2699999999999996,-1.65,0.226,0.741,-0.015,0.007850687810360846,0.0,0.0,0.0,0.0,0.0
1757903868.278861,-6.639747736171909,0.0,0.0,0.0,0.0,0.0,-6.09,-0.3699999999999992,-2.63,0.227,0.757,-0.020000000000000004,-0.002748738680859546,0.0,0.0,0.0,0.0,0.0
1757903868.3387947,-6.786475521211284,0.0,0.0,0.0,0.0,0.0,-6.75,-1.209999999999999,-2.4299999999999997,0.219,0.781,-0.010999999999999996,-0.00018237760605642085,0.0,0.0,0.0,0.0,0.0
1757903868.3988461,-4.776635845446039,0.0,0.0,0.0,0.0,0.0,-6.169999999999998,0.05000000000000071,-1.91,0.218,0.76,-0.017,0.0069668207727697955,0.0,0.0,0.0,0.0,0.0
1757903868.4587603,-4.2072853480599575,0.0,0.0,0.0,0.0,0.0,-5.07,-0.4900000000000002,-1.6099999999999999,0.221,0.741,-0.0030000000000000027,0.004313573259700214,0.0,0.0,0.0,0.0,0.0
1757903868.5095406,-5.844334863780479,0.0,0.0,0.0,0.0,0.0,-5.009999999999998,-0.46999999999999886,-2.29,0.232,0.749,0.007000000000000006,-0.0041716743189024056,0.0,0.0,0.0,0.0,0.0
1757903868.5688298,-6.42388122555204,0.0,0.0,0.0,0.0,0.0,-5.129999999999999,-0.5499999999999989,-2.51,0.239,0.746,-0.019000000000000003,-0.006469406127760205,0.0,0.0,0.0,0.0,0.0
1757903868.6287606,-6.688890042450987,0.0,0.0,0.0,0.0,0.0,-4.989999999999998,-0.8099999999999987,-2.55,0.23,0.763,-0.009999999999999995,-0.008494450212254945,0.0,0.0,0.0,0.0,0.0
1757903868.6789875,-6.570483239458113,0.0,0.0,0.0,0.0,0.0,-6.329999999999998,-0.5499999999999989,-2.57,0.241,0.77,-0.008000000000000007,-0.0012024161972905745,0.0,0.0,0.0,0.0,0.0
1757903868.7390044,-5.318011846545661,0.0,0.0,0.0,0.0,0.0,-6.349999999999998,-0.4900000000000002,-2.07,0.246,0.758,-0.007000000000000006,0.005159940767271683,0.0,0.0,0.0,0.0,0.0
1757903868.7988186,-4.049845676072113,0.0,0.0,0.0,0.0,0.0,-6.91,-0.3099999999999987,-1.5899999999999999,0.24,0.71,-0.038,0.014300771619639434,0.0,0.0,0.0,0.0,0.0
1757903868.8587716,-4.0,0.0,0.0,0.0,0.0,0.0,-6.349999999999998,-0.3899999999999988,-1.47,0.23,0.736,-0.008000000000000007,0.01174999999999999,0.0,0.0,0.0,0.0,0.0
1757903868.9088378,-5.675495573075535,0.0,0.0,0.0,0.0,0.0,-6.77,0.030000000000001137,-2.27,0.265,0.759,-0.032,0.005472522134622322,0.0,0.0,0.0,0.0,0.0
1757903868.968866,-5.8597141568509965,0.0,0.0,0.0,0.0,0.0,-5.869999999999997,-1.2699999999999996,-1.97,0.24,0.765,-0.0030000000000000027,5.14292157450047e-05,0.0,0.0,0.0,0.0,0.0
1757903869.0288136,-5.863552677345024,0.0,0.0,0.0,0.0,0.0,-6.41,-0.5899999999999999,-2.27,0.258,0.769,0.007999999999999993,0.002732236613274881,0.0,0.0,0.0,0.0,0.0
1757903869.0790074,-5.726364466221129,0.0,0.0,0.0,0.0,0.0,-6.329999999999998,-0.7899999999999991,-2.15,0.239,0.75,-0.013999999999999999,0.0030181776688943487,0.0,0.0,0.0,0.0,0.0
1757903869.138805,-4.490684803011673,0.0,0.0,0.0,0.0,0.0,-7.689999999999998,-0.7099999999999991,-1.65,0.252,0.788,-0.021000000000000005,0.015996575984941624,0.0,0.0,0.0,0.0,0.0
1757903869.1987782,-4.601222663597144,0.0,0.0,0.0,0.0,0.0,-7.329999999999998,-0.5700000000000003,-1.75,0.24,0.76,-0.0030000000000000027,0.01364388668201427,0.0,0.0,0.0,0.0,0.0
1757903869.2488263,-4.452106243116846,0.0,0.0,0.0,0.0,0.0,-8.629999999999999,-0.6699999999999999,-1.65,0.246,0.745,-0.0050000000000000044,0.020889468784415763,0.0,0.0,0.0,0.0,0.0
1757903869.29883,-4.694278432304586,0.0,0.0,0.0,0.0,0.0,-7.289999999999999,-0.7300000000000004,-1.73,0.251,0.764,-0.020000000000000004,0.012978607838477069,0.0,0.0,0.0,0.0,0.0
1757903869.358807,-7.132408429135279,0.0,0.0,0.0,0.0,0.0,-7.869999999999997,-0.129999999999999,-2.8499999999999996,0.28200000000000003,0.776,-0.008000000000000007,0.0036879578543235914,0.0,0.0,0.0,0.0,0.0
1757903869.4187799,-4.0,0.0,0.0,0.0,0.0,0.0,-8.689999999999998,-0.2699999999999996,-1.5499999999999998,0.275,0.783,-0.011999999999999997,0.023449999999999988,0.0,0.0,0.0,0.0,0.0
1757903869.4690945,-7.426052114010512,0.0,0.0,0.0,0.0,0.0,-8.75,-1.6500000000000004,-2.4699999999999998,0.252,0.771,-0.023000000000000007,0.006619739429947443,0.0,0.0,0.0,0.0,0.0
1757903869.528751,-5.581778390441526,0.0,0.0,0.0,0.0,0.0,-8.849999999999998,-0.7300000000000004,-2.11,0.242,0.776,-0.015,0.01634110804779236,0.0,0.0,0.0,0.0,0.0
1757903869.5789495,-4.667038675648618,0.0,0.0,0.0,0.0,0.0,-9.989999999999998,-0.9100000000000001,-1.63,0.25,0.77,-0.008000000000000007,0.026614806621756904,0.0,0.0,0.0,0.0,0.0
1757903869.638865,-6.1835467168931455,0.0,0.0,0.0,0.0,0.0,-9.25,-0.8300000000000001,-2.33,0.246,0.797,-0.026999999999999996,0.015332266415534273,0.0,0.0,0.0,0.0,0.0
1757903869.6988733,-4.0,0.0,0.0,0.0,0.0,0.0,-8.169999999999998,-0.629999999999999,-1.23,0.244,0.7350000000000001,0.0010000000000000009,0.02084999999999999,0.0,0.0,0.0,0.0,0.0
1757903869.7588224,-6.825045787392199,0.0,0.0,0.0,0.0,0.0,-8.39,-0.33000000000000007,-2.71,0.242,0.8009999999999999,-0.013999999999999999,0.00782477106303901,0.0,0.0,0.0,0.0,0.0
1757903869.8187768,-5.573710613227063,0.0,0.0,0.0,0.0,0.0,-8.129999999999999,-1.1500000000000004,-1.91,0.252,0.752,-0.023999999999999994,0.01278144693386468,0.0,0.0,0.0,0.0,0.0
1757903869.8789594,-5.721123141481923,0.0,0.0,0.0,0.0,0.0,-10.649999999999999,-1.129999999999999,-1.99,0.252,0.769,-0.008000000000000007,0.02464438429259038,0.0,0.0,0.0,0.0,0.0
1757903869.938823,-5.5983256425470636,0.0,0.0,0.0,0.0,0.0,-10.77,-0.75,-2.11,0.258,0.752,-0.021000000000000005,0.025858371787264682,0.0,0.0,0.0,0.0,0.0
1757903869.9987707,-6.19727762812027,0.0,0.0,0.0,0.0,0.0,-10.43,-1.6500000000000004,-1.85,0.221,0.7290000000000001,-0.016,0.02116361185939865,0.0,0.0,0.0,0.0,0.0
1757903870.0487902,-5.895019083938575,0.0,0.0,0.0,0.0,0.0,-9.469999999999999,-1.4100000000000001,-1.89,0.229,0.734,0.006000000000000005,0.017874904580307122,0.0,0.0,0.0,0.0,0.0
1757903870.098859,-7.346853067810735,0.0,0.0,0.0,0.0,0.0,-8.75,-0.41000000000000014,-2.91,0.265,0.784,-0.023000000000000007,0.007015734660946325,0.0,0.0,0.0,0.0,0.0
1757903870.1596198,-5.3292823156593965,0.0,0.0,0.0,0.0,0.0,-9.09,-0.7099999999999991,-2.01,0.241,0.767,-0.020000000000000004,0.018803588421703016,0.0,0.0,0.0,0.0,0.0
1757903870.2187715,-5.226495001432603,0.0,0.0,0.0,0.0,0.0,-10.869999999999997,-0.8499999999999996,-1.91,0.249,0.7210000000000001,-0.006000000000000005,0.028217524992836973,0.0,0.0,0.0,0.0,0.0
1757903870.268845,-6.823580438450183,0.0,0.0,0.0,0.0,0.0,-9.75,-0.7300000000000004,-2.63,0.244,0.764,-0.023999999999999994,0.014632097807749087,0.0,0.0,0.0,0.0,0.0
1757903870.3287663,-6.025466786897094,0.0,0.0,0.0,0.0,0.0,-8.77,-1.33,-2.01,0.229,0.779,-0.025999999999999995,0.01372266606551453,0.0,0.0,0.0,0.0,0.0
1757903870.3788157,-4.576707331696008,0.0,0.0,0.0,0.0,0.0,-9.09,-0.75,-1.67,0.23,0.741,-0.028999999999999998,0.022566463341519957,0.0,0.0,0.0,0.0,0.0
1757903870.438802,-5.3461434698294426,0.0,0.0,0.0,0.0,0.0,-9.45,-1.4299999999999997,-1.5899999999999999,0.226,0.768,-0.009999999999999995,0.020519282650852785,0.0,0.0,0.0,0.0,0.0
1757903870.4987607,-5.404280710695919,0.0,0.0,0.0,0.0,0.0,-10.369999999999997,-0.46999999999999886,-2.11,0.26,0.79,-0.021000000000000005,0.02482859644652039,0.0,0.0,0.0,0.0,0.0
1757903870.5488157,-5.925896556640183,0.0,0.0,0.0,0.0,0.0,-9.57,-0.3099999999999987,-2.3499999999999996,0.231,0.761,-0.009999999999999995,0.018220517216799088,0.0,0.0,0.0,0.0,0.0
1757903870.5989382,-6.682159082212873,0.0,0.0,0.0,0.0,0.0,-10.55,-1.8899999999999997,-1.89,0.218,0.7310000000000001,-0.008999999999999994,0.01933920458893564,0.0,0.0,0.0,0.0,0.0
1757903870.6492755,-7.93733267540173,0.0,0.0,0.0,0.0,0.0,-11.11,-1.0099999999999998,-3.01,0.24,0.789,-0.024999999999999994,0.015863336622991348,0.0,0.0,0.0,0.0,0.0
1757903870.7091055,-4.0,0.0,0.0,0.0,0.0,0.0,-10.73,-0.41000000000000014,-1.19,0.227,0.75,-0.0050000000000000044,0.033650000000000006,0.0,0.0,0.0,0.0,0.0
1757903870.7687826,-4.86376911458593,0.0,0.0,0.0,0.0,0.0,-10.349999999999998,-0.8499999999999996,-1.75,0.234,0.759,-0.019000000000000003,0.02743115442707034,0.0,0.0,0.0,0.0,0.0
1757903870.8287673,-4.8188432221851745,0.0,0.0,0.0,0.0,0.0,-8.27,-0.8499999999999996,-1.73,0.233,0.749,-0.008999999999999994,0.017255783889074127,0.0,0.0,0.0,0.0,0.0
1757903870.878775,-5.132372745621658,0.0,0.0,0.0,0.0,0.0,-8.489999999999998,-0.10999999999999943,-2.05,0.251,0.734,-0.019000000000000003,0.016788136271891702,0.0,0.0,0.0,0.0,0.0
1757903870.9288611,-5.681659088681755,0.0,0.0,0.0,0.0,0.0,-9.73,-0.5299999999999994,-2.21,0.249,0.7250000000000001,-0.008999999999999994,0.020241704556591227,0.0,0.0,0.0,0.0,0.0
1757903870.9887793,-6.368771467088452,0.0,0.0,0.0,0.0,0.0,-9.45,-1.0299999999999994,-2.33,0.241,0.769,-0.008000000000000007,0.015406142664557736,0.0,0.0,0.0,0.0,0.0
1757903871.0387824,-4.965002517622724,0.0,0.0,0.0,0.0,0.0,-10.11,-1.5099999999999998,-1.29,0.227,0.736,-0.0030000000000000027,0.025724987411886377,0.0,0.0,0.0,0.0,0.0
1757903871.0987685,-4.2374815633817215,0.0,0.0,0.0,0.0,0.0,-9.45,-0.7699999999999996,-1.51,0.237,0.743,-0.023999999999999994,0.02606259218309139,0.0,0.0,0.0,0.0,0.0
1757903871.1488755,-4.43860901634735,0.0,0.0,0.0,0.0,0.0,-9.09,-0.7899999999999991,-1.5899999999999999,0.223,0.739,-0.006000000000000005,0.02325695491826325,0.0,0.0,0.0,0.0,0.0
1757903871.2094789,-6.435934275612204,0.0,0.0,0.0,0.0,0.0,-9.169999999999998,-0.8499999999999996,-2.4299999999999997,0.237,0.741,-0.022000000000000006,0.013670328621938971,0.0,0.0,0.0,0.0,0.0
1757903871.2690318,-6.9437921915909895,0.0,0.0,0.0,0.0,0.0,-9.189999999999998,-0.3899999999999988,-2.75,0.225,0.767,-0.022000000000000006,0.011231039042045041,0.0,0.0,0.0,0.0,0.0
1757903871.3287618,-5.292565540453891,0.0,0.0,0.0,0.0,0.0,-9.91,-0.8699999999999992,-1.93,0.22,0.7310000000000001,-0.007000000000000006,0.023087172297730545,0.0,0.0,0.0,0.0,0.0
1757903871.3788688,-4.0,0.0,0.0,0.0,0.0,0.0,-9.349999999999998,0.47000000000000064,-1.3699999999999999,0.233,0.745,-0.023000000000000007,0.02674999999999999,0.0,0.0,0.0,0.0,0.0
1757903871.4389274,-6.44253443917842,0.0,0.0,0.0,0.0,0.0,-10.129999999999999,-0.4900000000000002,-2.5300000000000002,0.233,0.7370000000000001,-0.028999999999999998,0.018437327804107895,0.0,0.0,0.0,0.0,0.0
1757903871.4990094,-6.277838003644248,0.0,0.0,0.0,0.0,0.0,-9.27,-1.33,-2.13,0.207,0.7250000000000001,-0.019000000000000003,0.014960809981778761,0.0,0.0,0.0,0.0,0.0
1757903871.549068,-7.567777084454852,0.0,0.0,0.0,0.0,0.0,-8.369999999999997,-1.75,-2.4699999999999998,0.195,0.7370000000000001,-0.010999999999999996,0.004011114577725725,0.0,0.0,0.0,0.0,0.0
1757903871.6089268,-5.790617410950234,0.0,0.0,0.0,0.0,0.0,-8.39,-0.5499999999999989,-2.25,0.216,0.744,-0.027999999999999997,0.012996912945248833,0.0,0.0,0.0,0.0,0.0
1757903871.6688066,-5.308130556043246,0.0,0.0,0.0,0.0,0.0,-9.969999999999999,-1.1099999999999994,-1.81,0.23,0.702,-0.0050000000000000044,0.02330934721978376,0.0,0.0,0.0,0.0,0.0
1757903871.71884,-5.02804634027969,0.0,0.0,0.0,0.0,0.0,-9.709999999999997,-0.629999999999999,-1.91,0.218,0.7310000000000001,-0.011999999999999997,0.023409768298601533,0.0,0.0,0.0,0.0,0.0
1757903871.7787912,-5.925896556640183,0.0,0.0,0.0,0.0,0.0,-8.709999999999997,-0.3099999999999987,-2.3499999999999996,0.23,0.759,-0.007000000000000006,0.013920517216799074,0.0,0.0,0.0,0.0,0.0
1757903871.8388813,-5.042940610397865,0.0,0.0,0.0,0.0,0.0,-8.45,-0.16999999999999993,-2.01,0.216,0.764,-0.023000000000000007,0.017035296948010672,0.0,0.0,0.0,0.0,0.0
1757903871.8987756,-4.422810192626402,0.0,0.0,0.0,0.0,0.0,-7.77,-0.3699999999999992,-1.73,0.194,0.753,0.0010000000000000009,0.016735949036867988,0.0,0.0,0.0,0.0,0.0
1757903871.949009,-5.060261850932221,0.0,0.0,0.0,0.0,0.0,-8.41,-0.3699999999999992,-1.99,0.22,0.7270000000000001,-0.010999999999999996,0.016748690745338895,0.0,0.0,0.0,0.0,0.0
1757903872.008989,-5.376453291901641,0.0,0.0,0.0,0.0,0.0,-8.189999999999998,-0.6500000000000004,-2.05,0.211,0.7110000000000001,-0.024999999999999994,0.014067733540491782,0.0,0.0,0.0,0.0,0.0
1757903872.0687826,-4.0,0.0,0.0,0.0,0.0,0.0,-8.369999999999997,-0.08999999999999986,-1.17,0.203,0.702,-0.010999999999999996,0.021849999999999987,0.0,0.0,0.0,0.0,0.0
1757903872.1287565,-6.068463561726312,0.0,0.0,0.0,0.0,0.0,-7.43,0.2900000000000009,-2.41,0.224,0.746,-0.0040000000000000036,0.006807682191368438,0.0,0.0,0.0,0.0,0.0
1757903872.1800365,-5.804416422001439,0.0,0.0,0.0,0.0,0.0,-7.349999999999998,-1.0899999999999999,-2.05,0.218,0.7230000000000001,-0.018000000000000002,0.007727917889992795,0.0,0.0,0.0,0.0,0.0
1757903872.2388062,-5.422752990870965,0.0,0.0,0.0,0.0,0.0,-9.209999999999997,-0.41000000000000014,-2.13,0.20500000000000002,0.745,-0.024999999999999994,0.018936235045645164,0.0,0.0,0.0,0.0,0.0
1757903872.298778,-4.832830433607205,0.0,0.0,0.0,0.0,0.0,-8.59,0.11000000000000121,-1.93,0.196,0.752,-0.027999999999999997,0.018785847831963975,0.0,0.0,0.0,0.0,0.0
1757903872.3488696,-6.566677241954258,0.0,0.0,0.0,0.0,0.0,-8.11,-0.629999999999999,-2.55,0.202,0.756,-0.018000000000000002,0.007716613790228708,0.0,0.0,0.0,0.0,0.0
1757903872.4087484,-6.136468854316789,0.0,0.0,0.0,0.0,0.0,-7.09,-0.8300000000000001,-2.31,0.195,0.734,-0.015,0.004767655728416056,0.0,0.0,0.0,0.0,0.0
1757903872.4587576,-5.318011846545661,0.0,0.0,0.0,0.0,0.0,-7.849999999999998,-0.4900000000000002,-2.07,0.187,0.743,-0.031,0.012659940767271683,0.0,0.0,0.0,0.0,0.0
1757903872.5101511,-4.336040820841058,0.0,0.0,0.0,0.0,0.0,-7.789999999999999,-0.28999999999999915,-1.71,0.208,0.7090000000000001,-0.018000000000000002,0.017269795895794707,0.0,0.0,0.0,0.0,0.0
1757903872.5687973,-5.477796089669639,0.0,0.0,0.0,0.0,0.0,-6.109999999999999,0.07000000000000028,-2.19,0.184,0.765,-0.036,0.0031610195516518004,0.0,0.0,0.0,0.0,0.0
1757903872.6187994,-7.779861823965769,0.0,0.0,0.0,0.0,0.0,-5.57,-0.7899999999999991,-3.01,0.178,0.78,-0.009999999999999995,-0.011049309119828843,0.0,0.0,0.0,0.0,0.0
1757903872.678874,-6.346751137393052,0.0,0.0,0.0,0.0,0.0,-5.849999999999998,-0.20999999999999908,-2.5300000000000002,0.176,0.772,-0.022000000000000006,-0.00248375568696527,0.0,0.0,0.0,0.0,0.0
1757903872.7387877,-5.207806640035707,0.0,0.0,0.0,0.0,0.0,-6.509999999999998,-0.3699999999999992,-2.05,0.173,0.716,-0.007000000000000006,0.0065109667998214564,0.0,0.0,0.0,0.0,0.0
1757903872.7987647,-4.415455808860506,0.0,0.0,0.0,0.0,0.0,-5.669999999999998,-0.629999999999999,-1.65,0.172,0.724,-0.013999999999999999,0.006272720955697459,0.0,0.0,0.0,0.0,0.0
1757903872.8494005,-4.103199970754533,0.0,0.0,0.0,0.0,0.0,-6.209999999999997,-0.7300000000000004,-1.47,0.19,0.738,-0.010999999999999996,0.010534000146227322,0.0,0.0,0.0,0.0,0.0
1757903872.9087858,-6.227459353540575,0.0,0.0,0.0,0.0,0.0,-5.41,0.07000000000000028,-2.49,0.17099999999999999,0.768,-0.018000000000000002,-0.004087296767702875,0.0,0.0,0.0,0.0,0.0
1757903872.9687812,-4.229213874941771,0.0,0.0,0.0,0.0,0.0,-6.669999999999998,-0.2699999999999996,-1.67,0.202,0.7090000000000001,-0.011999999999999997,0.012203930625291135,0.0,0.0,0.0,0.0,0.0
1757903873.018807,-5.487371866385584,0.0,0.0,0.0,0.0,0.0,-5.509999999999998,1.4700000000000006,-1.63,0.196,0.755,-0.019000000000000003,0.00011314066807206924,0.0,0.0,0.0,0.0,0.0
1757903873.0789485,-6.226254893593741,0.0,0.0,0.0,0.0,0.0,-5.649999999999999,0.05000000000000071,-2.49,0.176,0.776,-0.008000000000000007,-0.002881274467968713,0.0,0.0,0.0,0.0,0.0
1757903873.1387787,-7.271949532278121,0.0,0.0,0.0,0.0,0.0,-5.289999999999999,-0.33000000000000007,-2.8899999999999997,0.174,0.796,-0.009999999999999995,-0.00990974766139061,0.0,0.0,0.0,0.0,0.0
1757903873.1893535,-5.3255281428230195,0.0,0.0,0.0,0.0,0.0,-6.689999999999998,-0.02999999999999936,-2.13,0.207,0.754,-0.020000000000000004,0.006822359285884891,0.0,0.0,0.0,0.0,0.0
1757903873.2489107,-5.232709623130256,0.0,0.0,0.0,0.0,0.0,-5.629999999999999,0.5099999999999998,-2.03,0.193,0.762,-0.019000000000000003,0.001986451884348717,0.0,0.0,0.0,0.0,0.0
1757903873.3087914,-4.630469738590244,0.0,0.0,0.0,0.0,0.0,-4.949999999999999,0.08999999999999986,-1.85,0.19,0.732,-0.012999999999999998,0.0015976513070487775,0.0,0.0,0.0,0.0,0.0
1757903873.3588,-4.710228232262212,0.0,0.0,0.0,0.0,0.0,-4.25,-0.23000000000000043,-1.87,0.195,0.741,-0.006000000000000005,-0.00230114116131106,0.0,0.0,0.0,0.0,0.0
1757903873.408918,-4.320445578872623,0.0,0.0,0.0,0.0,0.0,-5.029999999999998,0.25,-1.71,0.183,0.71,-0.008000000000000007,0.0035477721056368728,0.0,0.0,0.0,0.0,0.0
1757903873.4689944,-4.9352051629086295,0.0,0.0,0.0,0.0,0.0,-3.8299999999999983,0.5700000000000003,-1.89,0.209,0.778,-0.023999999999999994,-0.005526025814543156,0.0,0.0,0.0,0.0,0.0
1757903873.5289736,-5.609924241912719,0.0,0.0,0.0,0.0,0.0,-3.129999999999999,-0.25,-2.23,0.184,0.7370000000000001,0.0030000000000000027,-0.012399621209563599,0.0,0.0,0.0,0.0,0.0
1757903873.5887895,-6.136468854316789,0.0,0.0,0.0,0.0,0.0,-2.9499999999999993,-0.15000000000000036,-2.45,0.184,0.7330000000000001,-0.008000000000000007,-0.015932344271583947,0.0,0.0,0.0,0.0,0.0
1757903873.638799,-5.57640116921299,0.0,0.0,0.0,0.0,0.0,-3.3299999999999983,0.05000000000000071,-2.23,0.18,0.751,-0.017,-0.01123200584606496,0.0,0.0,0.0,0.0,0.0
1757903873.6994417,-4.0,0.0,0.0,0.0,0.0,0.0,-5.23,0.21000000000000085,-1.3499999999999999,0.193,0.708,-0.012999999999999998,0.006150000000000003,0.0,0.0,0.0,0.0,0.0
1757903873.7587798,-6.725789916433607,0.0,0.0,0.0,0.0,0.0,-4.369999999999997,0.33000000000000007,-2.67,0.183,0.776,-0.018000000000000002,-0.011778949582168049,0.0,0.0,0.0,0.0,0.0
1757903873.8087854,-5.2494047281572795,0.0,0.0,0.0,0.0,0.0,-4.009999999999998,0.6699999999999999,-1.99,0.188,0.764,-0.006000000000000005,-0.006197023640786408,0.0,0.0,0.0,0.0,0.0
1757903873.8588347,-4.788136380680901,0.0,0.0,0.0,0.0,0.0,-3.789999999999999,-0.3099999999999987,-1.89,0.189,0.748,-0.009999999999999995,-0.004990681903404508,0.0,0.0,0.0,0.0,0.0
1757903873.9088497,-6.169380033682477,0.0,0.0,0.0,0.0,0.0,-3.6099999999999994,0.4299999999999997,-2.4299999999999997,0.17099999999999999,0.746,-0.019000000000000003,-0.012796900168412386,0.0,0.0,0.0,0.0,0.0
1757903873.9687746,-5.927583824797418,0.0,0.0,0.0,0.0,0.0,-4.509999999999998,0.07000000000000028,-2.37,0.18,0.753,-0.008999999999999994,-0.007087919123987101,0.0,0.0,0.0,0.0,0.0
1757903874.0188317,-4.814691059663122,0.0,0.0,0.0,0.0,0.0,-4.91,0.370000000000001,-1.89,0.16799999999999998,0.765,-0.007000000000000006,0.00047654470168438933,0.0,0.0,0.0,0.0,0.0
1757903874.07891,-4.0,0.0,0.0,0.0,0.0,0.0,-4.609999999999999,0.11000000000000121,-1.31,0.159,0.741,-0.011999999999999997,0.003049999999999997,0.0,0.0,0.0,0.0,0.0
1757903874.1387827,-4.0,0.0,0.0,0.0,0.0,0.0,-3.9499999999999993,0.07000000000000028,-1.13,0.174,0.769,-0.008000000000000007,-0.0002500000000000036,0.0,0.0,0.0,0.0,0.0
1757903874.1888013,-5.948214017669505,0.0,0.0,0.0,0.0,0.0,-3.59,0.21000000000000085,-2.37,0.2,0.726,-0.010999999999999996,-0.011791070088347526,0.0,0.0,0.0,0.0,0.0
1757903874.238813,-4.683081250629761,0.0,0.0,0.0,0.0,0.0,-3.1899999999999977,0.11000000000000121,-1.87,0.184,0.76,-0.019000000000000003,-0.007465406253148816,0.0,0.0,0.0,0.0,0.0
1757903874.2987714,-6.668301882788451,0.0,0.0,0.0,0.0,0.0,-2.9899999999999984,0.5500000000000007,-2.61,0.198,0.784,-0.0040000000000000036,-0.018391509413942263,0.0,0.0,0.0,0.0,0.0
1757903874.349383,-4.0,0.0,0.0,0.0,0.0,0.0,-4.209999999999997,0.8100000000000005,-0.95,0.194,0.746,-0.009999999999999995,0.0010499999999999865,0.0,0.0,0.0,0.0,0.0
1757903874.4087958,-5.157155223570451,0.0,0.0,0.0,0.0,0.0,-2.7699999999999996,-0.23000000000000043,-2.05,0.153,0.762,-0.0050000000000000044,-0.01193577611785226,0.0,0.0,0.0,0.0,0.0
1757903874.4723537,-5.295871033172919,0.0,0.0,0.0,0.0,0.0,-3.2099999999999973,0.45000000000000107,-2.07,0.183,0.745,-0.0040000000000000036,-0.010429355165864606,0.0,0.0,0.0,0.0,0.0
1757903874.5287585,-4.0,0.0,0.0,0.0,0.0,0.0,-3.6099999999999994,-0.25,-1.53,0.158,0.736,-0.008999999999999994,-0.001950000000000003,0.0,0.0,0.0,0.0,0.0
1757903874.5788295,-7.58790155444837,0.0,0.0,0.0,0.0,0.0,-3.1099999999999994,0.39000000000000057,-3.01,0.184,0.808,-0.013999999999999999,-0.022389507772241853,0.0,0.0,0.0,0.0,0.0
1757903874.6388266,-5.479621337282349,0.0,0.0,0.0,0.0,0.0,-3.629999999999999,0.08999999999999986,-2.19,0.196,0.772,0.0050000000000000044,-0.009248106686411748,0.0,0.0,0.0,0.0,0.0
1757903874.6888323,-4.069551572347989,0.0,0.0,0.0,0.0,0.0,-2.75,0.4299999999999997,-1.5699999999999998,0.191,0.7290000000000001,-0.016,-0.006597757861739946,0.0,0.0,0.0,0.0,0.0
1757903874.7487936,-6.027126180859333,0.0,0.0,0.0,0.0,0.0,-3.3699999999999974,0.6900000000000013,-2.31,0.182,0.776,-0.021000000000000005,-0.013285630904296677,0.0,0.0,0.0,0.0,0.0
1757903874.8088567,-4.178666055094616,0.0,0.0,0.0,0.0,0.0,-2.9899999999999984,0.07000000000000028,-1.67,0.182,0.754,-0.018000000000000002,-0.005943330275473086,0.0,0.0,0.0,0.0,0.0
1757903874.868779,-5.175543449725835,0.0,0.0,0.0,0.0,0.0,-2.789999999999999,0.030000000000001137,-2.07,0.178,0.764,-0.018000000000000002,-0.011927717248629177,0.0,0.0,0.0,0.0,0.0
1757903874.9190912,-6.197277628120268,0.0,0.0,0.0,0.0,0.0,-2.669999999999998,-0.20999999999999908,-2.4699999999999998,0.15000000000000002,0.784,0.0030000000000000027,-0.017636388140601353,0.0,0.0,0.0,0.0,0.0
1757903874.9788651,-6.275049800599193,0.0,0.0,0.0,0.0,0.0,-3.9299999999999997,-0.009999999999999787,-2.51,0.175,0.761,-0.0050000000000000044,-0.011725249002995968,0.0,0.0,0.0,0.0,0.0
1757903875.0388443,-4.569600639005557,0.0,0.0,0.0,0.0,0.0,-3.4899999999999984,0.5899999999999999,-1.73,0.19,0.7290000000000001,-0.011999999999999997,-0.0053980031950277944,0.0,0.0,0.0,0.0,0.0
1757903875.0988085,-4.898086361018963,0.0,0.0,0.0,0.0,0.0,-3.4899999999999984,-0.1899999999999995,-1.95,0.185,0.738,-0.012999999999999998,-0.007040431805094825,0.0,0.0,0.0,0.0,0.0
1757903875.1488972,-4.0,0.0,0.0,0.0,0.0,0.0,-3.629999999999999,-0.15000000000000036,-1.45,0.19,0.722,-0.020000000000000004,-0.001850000000000005,0.0,0.0,0.0,0.0,0.0
1757903875.1998262,-4.7440752523542455,0.0,0.0,0.0,0.0,0.0,-2.8099999999999987,0.6300000000000008,-1.79,0.198,0.7330000000000001,-0.0050000000000000044,-0.009670376261771235,0.0,0.0,0.0,0.0,0.0
1757903875.2587807,-7.373008205610516,0.0,0.0,0.0,0.0,0.0,-2.6099999999999994,0.8300000000000001,-2.83,0.208,0.79,-0.024999999999999994,-0.023815041028052583,0.0,0.0,0.0,0.0,0.0
1757903875.308792,-4.0,0.0,0.0,0.0,0.0,0.0,-2.5299999999999976,-0.2699999999999996,-1.3699999999999999,0.178,0.742,-0.008000000000000007,-0.007350000000000012,0.0,0.0,0.0,0.0,0.0
1757903875.3590207,-7.791742423874137,0.0,0.0,0.0,0.0,0.0,-3.669999999999998,2.0700000000000003,-2.33,0.186,0.772,-0.020000000000000004,-0.020608712119370695,0.0,0.0,0.0,0.0,0.0
1757903875.4191797,-4.526726190084839,0.0,0.0,0.0,0.0,0.0,-3.75,0.05000000000000071,-1.81,0.192,0.764,-0.007000000000000006,-0.003883630950424193,0.0,0.0,0.0,0.0,0.0
1757903875.4788675,-6.749537021159303,0.0,0.0,0.0,0.0,0.0,-3.8299999999999983,-0.6099999999999994,-2.63,0.184,0.787,0.0040000000000000036,-0.014597685105796523,0.0,0.0,0.0,0.0,0.0
1757903875.5388844,-4.925571032885426,0.0,0.0,0.0,0.0,0.0,-2.0500000000000007,0.030000000000001137,-1.97,0.16899999999999998,0.783,-0.021000000000000005,-0.014377855164427125,0.0,0.0,0.0,0.0,0.0
1757903875.5889177,-6.376225372428424,0.0,0.0,0.0,0.0,0.0,-3.009999999999998,0.05000000000000071,-2.55,0.202,0.76,-0.0050000000000000044,-0.01683112686214213,0.0,0.0,0.0,0.0,0.0
1757903875.6489992,-5.434726304056166,0.0,0.0,0.0,0.0,0.0,-3.469999999999999,0.13000000000000078,-2.17,0.16,0.763,-0.012999999999999998,-0.009823631520280839,0.0,0.0,0.0,0.0,0.0
1757903875.7098737,-5.439324406578449,0.0,0.0,0.0,0.0,0.0,-3.5700000000000003,0.6699999999999999,-2.07,0.211,0.771,-0.008000000000000007,-0.009346622032892245,0.0,0.0,0.0,0.0,0.0
1757903875.7687843,-6.629950980210939,0.0,0.0,0.0,0.0,0.0,-3.09,0.5700000000000003,-2.59,0.206,0.778,-0.012999999999999998,-0.017699754901054698,0.0,0.0,0.0,0.0,0.0
1757903875.8193552,-6.652537110005475,0.0,0.0,0.0,0.0,0.0,-2.2300000000000004,0.6900000000000013,-2.57,0.187,0.8180000000000001,-0.03,-0.02211268555002737,0.0,0.0,0.0,0.0,0.0
1757903875.8788488,-5.91956501780325,0.0,0.0,0.0,0.0,0.0,-3.5500000000000007,0.2900000000000009,-2.3499999999999996,0.19,0.764,-0.0020000000000000018,-0.011847825089016247,0.0,0.0,0.0,0.0,0.0
1757903875.938812,-6.455327257389821,0.0,0.0,0.0,0.0,0.0,-3.0500000000000007,0.25,-2.57,0.202,0.781,-0.019000000000000003,-0.0170266362869491,0.0,0.0,0.0,0.0,0.0
1757903875.9888952,-6.131170361358425,0.0,0.0,0.0,0.0,0.0,-3.6099999999999994,0.11000000000000121,-2.45,0.20500000000000002,0.766,-0.008999999999999994,-0.012605851806792127,0.0,0.0,0.0,0.0,0.0
1757903876.0488203,-5.565631141209414,0.0,0.0,0.0,0.0,0.0,-3.2699999999999996,0.7100000000000009,-2.11,0.179,0.779,-0.028999999999999998,-0.01147815570604707,0.0,0.0,0.0,0.0,0.0
1757903876.1089115,-5.914494906583317,0.0,0.0,0.0,0.0,0.0,-2.669999999999998,0.41000000000000014,-2.33,0.19,0.798,-0.021000000000000005,-0.016222474532916597,0.0,0.0,0.0,0.0,0.0
1757903876.1687546,-4.989113147644579,0.0,0.0,0.0,0.0,0.0,-3.3299999999999983,-0.15000000000000036,-1.99,0.16999999999999998,0.765,-0.010999999999999996,-0.008295565738222902,0.0,0.0,0.0,0.0,0.0
1757903876.2195635,-5.826770117311992,0.0,0.0,0.0,0.0,0.0,-3.8900000000000006,0.3100000000000005,-2.31,0.186,0.79,-0.0020000000000000018,-0.009683850586559958,0.0,0.0,0.0,0.0,0.0
1757903876.2789118,-4.754077197522143,0.0,0.0,0.0,0.0,0.0,-3.3900000000000006,0.21000000000000085,-1.89,0.201,0.765,-0.024999999999999994,-0.006820385987610714,0.0,0.0,0.0,0.0,0.0
1757903876.3387706,-5.529579550020054,0.0,0.0,0.0,0.0,0.0,-3.849999999999998,-0.3099999999999987,-2.19,0.175,0.745,-0.006000000000000005,-0.008397897750100284,0.0,0.0,0.0,0.0,0.0
1757903876.3888,-5.525509026325086,0.0,0.0,0.0,0.0,0.0,-2.849999999999998,0.030000000000001137,-2.21,0.184,0.77,-0.016,-0.013377545131625439,0.0,0.0,0.0,0.0,0.0
1757903876.4489508,-5.715002187226178,0.0,0.0,0.0,0.0,0.0,-3.169999999999998,-0.2699999999999996,-2.27,0.177,0.755,0.007000000000000006,-0.012725010936130899,0.0,0.0,0.0,0.0,0.0
1757903876.5087924,-5.341933170678943,0.0,0.0,0.0,0.0,0.0,-3.849999999999998,-0.5299999999999994,-2.07,0.196,0.726,-0.021000000000000005,-0.007459665853394726,0.0,0.0,0.0,0.0,0.0
1757903876.5590277,-5.575056053529865,0.0,0.0,0.0,0.0,0.0,-2.7699999999999996,-0.009999999999999787,-2.23,0.196,0.773,-0.0020000000000000018,-0.014025280267649327,0.0,0.0,0.0,0.0,0.0
1757903876.6192768,-4.461081707388915,0.0,0.0,0.0,0.0,0.0,-2.129999999999999,0.5099999999999998,-1.71,0.209,0.787,-0.0040000000000000036,-0.011655408536944578,0.0,0.0,0.0,0.0,0.0
1757903876.6788943,-7.12925311656137,0.0,0.0,0.0,0.0,0.0,-2.7099999999999973,-0.5899999999999999,-2.79,0.192,0.781,-0.028999999999999998,-0.022096265582806862,0.0,0.0,0.0,0.0,0.0
1757903876.7388158,-4.0,0.0,0.0,0.0,0.0,0.0,-3.1099999999999994,-0.25,-1.0699999999999998,0.222,0.753,-0.024999999999999994,-0.0044500000000000026,0.0,0.0,0.0,0.0,0.0
1757903876.7987545,-6.990082259887933,0.0,0.0,0.0,0.0,0.0,-3.5299999999999976,0.8300000000000001,-2.67,0.201,0.79,-0.011999999999999997,-0.017300411299439676,0.0,0.0,0.0,0.0,0.0
1757903876.8488445,-4.698004895697747,0.0,0.0,0.0,0.0,0.0,-3.1099999999999994,0.33000000000000007,-1.85,0.16699999999999998,0.785,-0.008000000000000007,-0.007940024478488739,0.0,0.0,0.0,0.0,0.0
1757903876.9087195,-5.078016344991417,0.0,0.0,0.0,0.0,0.0,-3.9499999999999993,0.07000000000000028,-2.03,0.201,0.736,0.0010000000000000009,-0.0056400817249570865,0.0,0.0,0.0,0.0,0.0
1757903876.9588454,-6.0337591930735845,0.0,0.0,0.0,0.0,0.0,-1.5700000000000003,0.5500000000000007,-2.3499999999999996,0.207,0.8009999999999999,-0.016,-0.022318795965367923,0.0,0.0,0.0,0.0,0.0
1757903877.0088882,-6.197277628120268,0.0,0.0,0.0,0.0,0.0,-3.009999999999998,0.21000000000000085,-2.4699999999999998,0.201,0.751,-0.0010000000000000009,-0.015936388140601353,0.0,0.0,0.0,0.0,0.0
1757903877.0687728,-5.075554156936955,0.0,0.0,0.0,0.0,0.0,-2.629999999999999,0.6300000000000008,-1.93,0.217,0.763,-0.026999999999999996,-0.012227770784684781,0.0,0.0,0.0,0.0,0.0
1757903877.1187773,-4.134156504052549,0.0,0.0,0.0,0.0,0.0,-2.2699999999999996,0.11000000000000121,-1.65,0.196,0.759,-0.006000000000000005,-0.009320782520262747,0.0,0.0,0.0,0.0,0.0
1757903877.1818788,-4.636404857214262,0.0,0.0,0.0,0.0,0.0,-2.9899999999999984,0.13000000000000078,-1.85,0.194,0.744,-0.010999999999999996,-0.008232024286071319,0.0,0.0,0.0,0.0,0.0
1757903877.2388031,-4.0,0.0,0.0,0.0,0.0,0.0,-2.09,0.19000000000000128,-1.5699999999999998,0.216,0.74,0.0020000000000000018,-0.009550000000000001,0.0,0.0,0.0,0.0,0.0
1757903877.2888174,-5.729419691382366,0.0,0.0,0.0,0.0,0.0,-2.2099999999999973,0.08999999999999986,-2.29,0.211,0.788,-0.0050000000000000044,-0.017597098456911844,0.0,0.0,0.0,0.0,0.0
1757903877.3388295,-6.081221094484231,0.0,0.0,0.0,0.0,0.0,-2.789999999999999,-0.10999999999999943,-2.4299999999999997,0.199,0.758,0.0010000000000000009,-0.01645610547242116,0.0,0.0,0.0,0.0,0.0
1757903877.3987699,-6.392280500728985,0.0,0.0,0.0,0.0,0.0,-2.509999999999998,0.370000000000001,-2.5300000000000002,0.219,0.767,-0.019000000000000003,-0.019411402503644936,0.0,0.0,0.0,0.0,0.0
1757903877.4487867,-5.560687907084878,0.0,0.0,0.0,0.0,0.0,-2.4899999999999984,0.5700000000000003,-2.15,0.19,0.761,-0.0050000000000000044,-0.015353439535424398,0.0,0.0,0.0,0.0,0.0
1757903877.5087764,-4.582712079107742,0.0,0.0,0.0,0.0,0.0,-3.59,0.2900000000000009,-1.81,0.194,0.7210000000000001,-0.015,-0.004963560395538709,0.0,0.0,0.0,0.0,0.0
1757903877.5588453,-4.278580372039305,0.0,0.0,0.0,0.0,0.0,-3.09,-0.07000000000000028,-1.71,0.197,0.759,-0.008000000000000007,-0.0059429018601965256,0.0,0.0,0.0,0.0,0.0
1757903877.6189387,-4.0,0.0,0.0,0.0,0.0,0.0,-1.5700000000000003,0.009999999999999787,-1.5699999999999998,0.174,0.784,0.0010000000000000009,-0.01215,0.0,0.0,0.0,0.0,0.0
1757903877.6788416,-7.064789451922825,0.0,0.0,0.0,0.0,0.0,-2.3900000000000006,-0.7300000000000004,-2.73,0.178,0.769,-0.018000000000000002,-0.02337394725961412,0.0,0.0,0.0,0.0,0.0
1757903877.7298412,-7.135211980032548,0.0,0.0,0.0,0.0,0.0,-2.3099999999999987,-0.3699999999999992,-2.83,0.179,0.794,-0.0050000000000000044,-0.024126059900162748,0.0,0.0,0.0,0.0,0.0
1757903877.7887785,-4.698004895697747,0.0,0.0,0.0,0.0,0.0,-3.129999999999999,0.33000000000000007,-1.85,0.199,0.786,-0.011999999999999997,-0.007840024478488741,0.0,0.0,0.0,0.0,0.0
1757903877.838797,-6.3112003612625065,0.0,0.0,0.0,0.0,0.0,-2.0299999999999976,0.2699999999999996,-2.51,0.192,0.783,-0.021000000000000005,-0.021406001806312545,0.0,0.0,0.0,0.0,0.0
1757903877.8987541,-4.736164059658406,0.0,0.0,0.0,0.0,0.0,-2.8299999999999983,-0.129999999999999,-1.89,0.208,0.755,-0.019000000000000003,-0.009530820298292038,0.0,0.0,0.0,0.0,0.0
1757903877.9488938,-4.0,0.0,0.0,0.0,0.0,0.0,-2.7300000000000004,-0.25,-1.49,0.209,0.75,-0.019000000000000003,-0.006349999999999998,0.0,0.0,0.0,0.0,0.0
1757903878.0088513,-4.939256016851121,0.0,0.0,0.0,0.0,0.0,-2.8900000000000006,0.15000000000000036,-1.97,0.194,0.787,-0.0050000000000000044,-0.0102462800842556,0.0,0.0,0.0,0.0,0.0
1757903878.0687656,-5.292093158666049,0.0,0.0,0.0,0.0,0.0,-2.6499999999999986,-0.16999999999999993,-2.11,0.189,0.768,-0.018000000000000002,-0.013210465793330252,0.0,0.0,0.0,0.0,0.0
1757903878.1191945,-6.679165367020043,0.0,0.0,0.0,0.0,0.0,-2.1499999999999986,0.7300000000000004,-2.57,0.207,0.794,-0.008999999999999994,-0.022645826835100222,0.0,0.0,0.0,0.0,0.0
1757903878.1788511,-4.0,0.0,0.0,0.0,0.0,0.0,-3.6899999999999977,0.19000000000000128,-1.43,0.20500000000000002,0.7370000000000001,-0.010999999999999996,-0.0015500000000000114,0.0,0.0,0.0,0.0,0.0
1757903878.2398117,-5.927583824797418,0.0,0.0,0.0,0.0,0.0,-1.3699999999999974,-0.07000000000000028,-2.37,0.207,0.786,-0.008999999999999994,-0.022787919123987106,0.0,0.0,0.0,0.0,0.0
1757903878.2989957,-6.993300365349683,0.0,0.0,0.0,0.0,0.0,-2.9499999999999993,0.39000000000000057,-2.77,0.22,0.775,-0.020000000000000004,-0.020216501826748418,0.0,0.0,0.0,0.0,0.0
1757903878.358828,-5.051361202685865,0.0,0.0,0.0,0.0,0.0,-3.3900000000000006,-1.0099999999999998,-1.75,0.207,0.756,-0.0010000000000000009,-0.008306806013429324,0.0,0.0,0.0,0.0,0.0
1757903878.4188526,-4.196575985252739,0.0,0.0,0.0,0.0,0.0,-3.3299999999999983,-0.16999999999999993,-1.67,0.21,0.774,-0.010999999999999996,-0.004332879926263704,0.0,0.0,0.0,0.0,0.0
1757903878.4789865,-4.997624435669412,0.0,0.0,0.0,0.0,0.0,-2.6499999999999986,0.19000000000000128,-1.99,0.21,0.742,-0.0030000000000000027,-0.011738122178347066,0.0,0.0,0.0,0.0,0.0
1757903878.5419688,-6.033759193073585,0.0,0.0,0.0,0.0,0.0,-3.0299999999999976,-0.129999999999999,-2.41,0.187,0.791,0.008999999999999994,-0.01501879596536794,0.0,0.0,0.0,0.0,0.0
1757903878.598927,-5.0205826355115395,0.0,0.0,0.0,0.0,0.0,-3.0299999999999976,0.2699999999999996,-1.99,0.224,0.773,-0.026999999999999996,-0.00995291317755771,0.0,0.0,0.0,0.0,0.0
1757903878.6587799,-4.09954265741924,0.0,0.0,0.0,0.0,0.0,-3.5299999999999976,0.870000000000001,-1.39,0.229,0.751,-0.012999999999999998,-0.002847713287096214,0.0,0.0,0.0,0.0,0.0
1757903878.708829,-5.375523230346976,0.0,0.0,0.0,0.0,0.0,-3.009999999999998,-0.02999999999999936,-2.15,0.195,0.779,-0.025999999999999995,-0.011827616151734893,0.0,0.0,0.0,0.0,0.0
1757903878.7687714,-5.052350937929786,0.0,0.0,0.0,0.0,0.0,-2.6099999999999994,-0.20999999999999908,-2.01,0.187,0.754,0.013999999999999999,-0.012211754689648933,0.0,0.0,0.0,0.0,0.0
1757903878.8188953,-4.314655258534567,0.0,0.0,0.0,0.0,0.0,-2.289999999999999,-0.34999999999999964,-1.69,0.194,0.794,-0.010999999999999996,-0.010123276292672841,0.0,0.0,0.0,0.0,0.0
1757903878.8788764,-5.740753434872465,0.0,0.0,0.0,0.0,0.0,-2.75,-0.16999999999999993,-2.29,0.207,0.753,-0.039,-0.014953767174362325,0.0,0.0,0.0,0.0,0.0
1757903878.938857,-4.0,0.0,0.0,0.0,0.0,0.0,-2.9499999999999993,0.13000000000000078,-1.51,0.212,0.749,-0.0010000000000000009,-0.005250000000000004,0.0,0.0,0.0,0.0,0.0
1757903878.9987638,-4.939256016851121,0.0,0.0,0.0,0.0,0.0,-2.4899999999999984,-0.15000000000000036,-1.97,0.206,0.741,-0.008999999999999994,-0.012246280084255613,0.0,0.0,0.0,0.0,0.0
1757903879.048904,-4.307116204608368,0.0,0.0,0.0,0.0,0.0,-1.5500000000000007,-0.20999999999999908,-1.71,0.2,0.755,-0.011999999999999997,-0.013785581023041837,0.0,0.0,0.0,0.0,0.0
1757903879.1088083,-6.229867574836563,0.0,0.0,0.0,0.0,0.0,-1.9499999999999993,-0.33000000000000007,-2.4699999999999998,0.176,0.791,-0.020000000000000004,-0.021399337874182817,0.0,0.0,0.0,0.0,0.0
1757903879.1589386,-5.8151741160518995,0.0,0.0,0.0,0.0,0.0,-2.09,0.5899999999999999,-2.25,0.22,0.788,-0.019000000000000003,-0.0186258705802595,0.0,0.0,0.0,0.0,0.0
1757903879.2190108,-5.61571455827306,0.0,0.0,0.0,0.0,0.0,-3.41,0.2699999999999996,-2.23,0.212,0.771,-0.021000000000000005,-0.011028572791365302,0.0,0.0,0.0,0.0,0.0
1757903879.269013,-4.759858191164943,0.0,0.0,0.0,0.0,0.0,-3.669999999999998,0.45000000000000107,-1.85,0.225,0.753,-0.019000000000000003,-0.005449290955824724,0.0,0.0,0.0,0.0,0.0
1757903879.3287835,-4.440861402926239,0.0,0.0,0.0,0.0,0.0,-2.9899999999999984,0.15000000000000036,-1.77,0.222,0.738,-0.015,-0.007254307014631203,0.0,0.0,0.0,0.0,0.0
1757903879.3787894,-6.257095971774765,0.0,0.0,0.0,0.0,0.0,-2.7300000000000004,-1.0099999999999998,-2.29,0.188,0.771,0.012999999999999998,-0.017635479858873825,0.0,0.0,0.0,0.0,0.0
1757903879.4388447,-4.885821322971195,0.0,0.0,0.0,0.0,0.0,-2.3099999999999987,0.13000000000000078,-1.95,0.21,0.747,-0.011999999999999997,-0.01287910661485598,0.0,0.0,0.0,0.0,0.0
1757903879.4890375,-5.238439653179179,0.0,0.0,0.0,0.0,0.0,-2.75,-0.15000000000000036,-2.09,0.197,0.762,-0.018000000000000002,-0.012442198265895894,0.0,0.0,0.0,0.0,0.0
1757903879.5487828,-7.230231669870612,0.0,0.0,0.0,0.0,0.0,-2.009999999999998,0.11000000000000121,-2.8899999999999997,0.23,0.779,-0.008000000000000007,-0.02610115834935307,0.0,0.0,0.0,0.0,0.0
1757903879.6088474,-5.597432447113586,0.0,0.0,0.0,0.0,0.0,-3.0500000000000007,-0.6899999999999995,-2.13,0.22,0.75,-0.013999999999999999,-0.012737162235567924,0.0,0.0,0.0,0.0,0.0
1757903879.6687517,-4.8457455566713366,0.0,0.0,0.0,0.0,0.0,-2.7099999999999973,0.4299999999999997,-1.89,0.196,0.795,-0.015,-0.010678727783356696,0.0,0.0,0.0,0.0,0.0
1757903879.7187777,-6.19122362703852,0.0,0.0,0.0,0.0,0.0,-3.3099999999999987,-0.5700000000000003,-2.41,0.21,0.783,-0.006000000000000005,-0.014406118135192604,0.0,0.0,0.0,0.0,0.0
1757903879.7788863,-4.500138886745608,0.0,0.0,0.0,0.0,0.0,-4.129999999999999,0.19000000000000128,-1.79,0.201,0.764,-0.0040000000000000036,-0.0018506944337280463,0.0,0.0,0.0,0.0,0.0
1757903879.8289144,-4.025077639002755,0.0,0.0,0.0,0.0,0.0,-3.349999999999998,-0.009999999999999787,-1.6099999999999999,0.202,0.761,-0.006000000000000005,-0.0033753881950137864,0.0,0.0,0.0,0.0,0.0
1757903879.888772,-4.0,0.0,0.0,0.0,0.0,0.0,-2.669999999999998,-0.5299999999999994,-1.47,0.20500000000000002,0.752,-0.019000000000000003,-0.006650000000000009,0.0,0.0,0.0,0.0,0.0
1757903879.9390717,-6.251499820043185,0.0,0.0,0.0,0.0,0.0,-2.4499999999999993,-0.3899999999999988,-2.4699999999999998,0.207,0.8200000000000001,-0.023999999999999994,-0.01900749910021593,0.0,0.0,0.0,0.0,0.0
1757903879.998749,-5.07653917546196,0.0,0.0,0.0,0.0,0.0,-3.1499999999999986,0.05000000000000071,-2.03,0.238,0.754,-0.018000000000000002,-0.009632695877309807,0.0,0.0,0.0,0.0,0.0
1757903880.04888,-4.179264289321745,0.0,0.0,0.0,0.0,0.0,-3.7099999999999973,-0.4499999999999993,-1.6099999999999999,0.208,0.738,-0.019000000000000003,-0.002346321446608739,0.0,0.0,0.0,0.0,0.0
1757903880.108946,-6.102151260006588,0.0,0.0,0.0,0.0,0.0,-2.509999999999998,0.23000000000000043,-2.4299999999999997,0.224,0.772,-0.018000000000000002,-0.01796075630003295,0.0,0.0,0.0,0.0,0.0
1757903880.1687298,-5.142591759025793,0.0,0.0,0.0,0.0,0.0,-3.59,0.16999999999999993,-2.05,0.217,0.739,-0.0020000000000000018,-0.007762958795128965,0.0,0.0,0.0,0.0,0.0
1757903880.2188313,-6.795310883248829,0.0,0.0,0.0,0.0,0.0,-2.7300000000000004,-0.3899999999999988,-2.69,0.197,0.8069999999999999,-0.028999999999999998,-0.020326554416244143,0.0,0.0,0.0,0.0,0.0
1757903880.2696106,-4.0,0.0,0.0,0.0,0.0,0.0,-3.2300000000000004,-0.23000000000000043,-1.39,0.246,0.769,-0.009999999999999995,-0.003849999999999998,0.0,0.0,0.0,0.0,0.0
1757903880.3287897,-4.196575985252739,0.0,0.0,0.0,0.0,0.0,-2.7099999999999973,0.16999999999999993,-1.67,0.222,0.75,-0.010999999999999996,-0.007432879926263709,0.0,0.0,0.0,0.0,0.0
1757903880.378805,-5.375058139220449,0.0,0.0,0.0,0.0,0.0,-2.25,0.009999999999999787,-2.15,0.23,0.769,-0.009999999999999995,-0.015625290696102242,0.0,0.0,0.0,0.0,0.0
1757903880.428809,-5.875478703901494,0.0,0.0,0.0,0.0,0.0,-2.6499999999999986,-0.02999999999999936,-2.3499999999999996,0.223,0.767,-0.007000000000000006,-0.016127393519507476,0.0,0.0,0.0,0.0,0.0
1757903880.4788115,-4.097102634789614,0.0,0.0,0.0,0.0,0.0,-3.25,0.16999999999999993,-1.63,0.206,0.742,-0.0020000000000000018,-0.004235513173948071,0.0,0.0,0.0,0.0,0.0
1757903880.5387537,-5.189050972962204,0.0,0.0,0.0,0.0,0.0,-2.4899999999999984,0.5899999999999999,-1.99,0.22,0.768,-0.009999999999999995,-0.013495254864811028,0.0,0.0,0.0,0.0,0.0
1757903880.58881,-4.419417382415922,0.0,0.0,0.0,0.0,0.0,-2.4899999999999984,0.25,-1.75,0.211,0.748,-0.009999999999999995,-0.00964708691207962,0.0,0.0,0.0,0.0,0.0
1757903880.6489544,-5.129936646782297,0.0,0.0,0.0,0.0,0.0,-3.2099999999999973,-0.08999999999999986,-2.05,0.216,0.772,0.0010000000000000009,-0.009599683233911497,0.0,0.0,0.0,0.0,0.0
1757903880.7095745,-5.7646552368723665,0.0,0.0,0.0,0.0,0.0,-3.1499999999999986,-0.2699999999999996,-2.29,0.221,0.766,-0.0050000000000000044,-0.01307327618436184,0.0,0.0,0.0,0.0,0.0
1757903880.7694666,-4.536656257641744,0.0,0.0,0.0,0.0,0.0,-2.849999999999998,0.13000000000000078,-1.81,0.209,0.779,-0.016,-0.008433281288208732,0.0,0.0,0.0,0.0,0.0
1757903880.828775,-4.549862635289113,0.0,0.0,0.0,0.0,0.0,-3.25,-0.1899999999999995,-1.81,0.241,0.75,-0.017,-0.006499313176445565,0.0,0.0,0.0,0.0,0.0
1757903880.8788576,-4.130526600810119,0.0,0.0,0.0,0.0,0.0,-2.4899999999999984,0.2699999999999996,-1.63,0.222,0.762,-0.009999999999999995,-0.008202633004050601,0.0,0.0,0.0,0.0,0.0
1757903880.9388206,-4.885821322971195,0.0,0.0,0.0,0.0,0.0,-2.09,-0.129999999999999,-1.95,0.214,0.766,-0.016,-0.013979106614855975,0.0,0.0,0.0,0.0,0.0
1757903880.9891589,-6.1754554487908,0.0,0.0,0.0,0.0,0.0,-2.4499999999999993,-0.02999999999999936,-2.4699999999999998,0.23600000000000002,0.768,-0.008999999999999994,-0.018627277243954007,0.0,0.0,0.0,0.0,0.0
1757903881.0493488,-5.927583824797418,0.0,0.0,0.0,0.0,0.0,-3.1099999999999994,0.07000000000000028,-2.37,0.214,0.762,-0.009999999999999995,-0.014087919123987094,0.0,0.0,0.0,0.0,0.0
1757903881.1088295,-5.570121183600945,0.0,0.0,0.0,0.0,0.0,-2.3900000000000006,0.41000000000000014,-2.19,0.222,0.788,-0.023000000000000007,-0.015900605918004726,0.0,0.0,0.0,0.0,0.0
1757903881.1687455,-5.834487980962854,0.0,0.0,0.0,0.0,0.0,-3.009999999999998,0.45000000000000107,-2.29,0.248,0.778,-0.011999999999999997,-0.014122439904814281,0.0,0.0,0.0,0.0,0.0
1757903881.2188625,-5.020582635511539,0.0,0.0,0.0,0.0,0.0,-2.1899999999999977,-0.3899999999999988,-1.97,0.209,0.775,-0.016,-0.014152913177557704,0.0,0.0,0.0,0.0,0.0
1757903881.2695837,-5.57953851138246,0.0,0.0,0.0,0.0,0.0,-1.8299999999999983,-0.08999999999999986,-2.23,0.228,0.789,-0.015,-0.01874769255691231,0.0,0.0,0.0,0.0,0.0
1757903881.3287733,-5.659615711335886,0.0,0.0,0.0,0.0,0.0,-2.5299999999999976,0.25,-2.25,0.23,0.795,-0.023999999999999994,-0.01564807855667944,0.0,0.0,0.0,0.0,0.0
1757903881.3787775,-5.27648083479889,0.0,0.0,0.0,0.0,0.0,-3.09,-0.049999999999998934,-2.11,0.224,0.757,-0.010999999999999996,-0.01093240417399445,0.0,0.0,0.0,0.0,0.0
1757903881.428796,-5.223145603944045,0.0,0.0,0.0,0.0,0.0,-4.009999999999998,-0.75,-1.95,0.229,0.76,-0.015,-0.0060657280197202335,0.0,0.0,0.0,0.0,0.0
1757903881.478845,-4.227440123762842,0.0,0.0,0.0,0.0,0.0,-2.7300000000000004,-0.3699999999999992,-1.65,0.212,0.751,0.0010000000000000009,-0.007487200618814209,0.0,0.0,0.0,0.0,0.0
1757903881.5388203,-6.878680832834156,0.0,0.0,0.0,0.0,0.0,-2.789999999999999,-0.08999999999999986,-2.75,0.23600000000000002,0.764,-0.025999999999999995,-0.020443404164170786,0.0,0.0,0.0,0.0,0.0
1757903881.588942,-5.471859830076059,0.0,0.0,0.0,0.0,0.0,-2.59,0.41000000000000014,-2.15,0.214,0.784,-0.006000000000000005,-0.014409299150380295,0.0,0.0,0.0,0.0,0.0
1757903881.6488147,-5.58446505943049,0.0,0.0,0.0,0.0,0.0,-3.59,-0.5299999999999994,-2.17,0.228,0.7290000000000001,-0.0020000000000000018,-0.009972325297152449,0.0,0.0,0.0,0.0,0.0
1757903881.6988347,-5.275533148412584,0.0,0.0,0.0,0.0,0.0,-3.41,-0.41000000000000014,-2.07,0.23,0.752,0.0020000000000000018,-0.009327665742062919,0.0,0.0,0.0,0.0,0.0
1757903881.7587674,-6.591376942642562,0.0,0.0,0.0,0.0,0.0,-3.0700000000000003,-0.6699999999999999,-2.55,0.23600000000000002,0.744,-0.021000000000000005,-0.017606884713212808,0.0,0.0,0.0,0.0,0.0
1757903881.808903,-6.156805178012377,0.0,0.0,0.0,0.0,0.0,-3.7099999999999973,-0.25,-2.45,0.244,0.778,-0.012999999999999998,-0.012234025890061897,0.0,0.0,0.0,0.0,0.0
1757903881.8687928,-6.364844852783136,0.0,0.0,0.0,0.0,0.0,-4.369999999999997,-0.9299999999999997,-2.37,0.231,0.755,-0.011999999999999997,-0.009974224263915695,0.0,0.0,0.0,0.0,0.0
1757903881.918842,-6.627310917710139,0.0,0.0,0.0,0.0,0.0,-5.609999999999999,-0.6500000000000004,-2.57,0.253,0.76,-0.020000000000000004,-0.005086554588550696,0.0,0.0,0.0,0.0,0.0
1757903881.9787736,-6.3770094872126375,0.0,0.0,0.0,0.0,0.0,-7.43,-0.7099999999999991,-2.45,0.28900000000000003,0.732,-0.0050000000000000044,0.005264952563936811,0.0,0.0,0.0,0.0,0.0
1757903882.0287783,-6.486620846018362,0.0,0.0,0.0,0.0,0.0,-5.809999999999999,-1.0099999999999998,-2.3899999999999997,0.241,0.784,-0.012999999999999998,-0.003383104230091818,0.0,0.0,0.0,0.0,0.0
1757903882.078842,-5.042940610397866,0.0,0.0,0.0,0.0,0.0,-7.449999999999999,-1.0700000000000003,-1.71,0.26,0.718,-0.0010000000000000009,0.012035296948010666,0.0,0.0,0.0,0.0,0.0
1757903882.1387713,-6.166948191772003,0.0,0.0,0.0,0.0,0.0,-7.09,-0.8099999999999987,-2.33,0.29200000000000004,0.73,0.0020000000000000018,0.004615259041139983,0.0,0.0,0.0,0.0,0.0
1757903882.1887956,-4.890424316968824,0.0,0.0,0.0,0.0,0.0,-6.829999999999998,-0.9499999999999993,-1.71,0.271,0.7130000000000001,-0.013999999999999999,0.009697878415155872,0.0,0.0,0.0,0.0,0.0
1757903882.238817,-5.527770798432222,0.0,0.0,0.0,0.0,0.0,-5.449999999999999,-0.07000000000000028,-2.21,0.28200000000000003,0.775,-0.016,-0.0003888539921611134,0.0,0.0,0.0,0.0,0.0
1757903882.290262,-6.453390581701993,0.0,0.0,0.0,0.0,0.0,-5.43,-0.75,-2.4699999999999998,0.258,0.74,-0.011999999999999997,-0.005116952908509966,0.0,0.0,0.0,0.0,0.0
1757903882.348818,-6.095592670118305,0.0,0.0,0.0,0.0,0.0,-6.109999999999999,-1.1500000000000004,-2.15,0.275,0.753,0.0,7.203664940847343e-05,0.0,0.0,0.0,0.0,0.0
1757903882.408913,-6.513543582413493,0.0,0.0,0.0,0.0,0.0,-6.209999999999997,-0.9900000000000002,-2.41,0.267,0.7250000000000001,0.006000000000000005,-0.0015177179120674778,0.0,0.0,0.0,0.0,0.0
1757903882.4687674,-5.8447626128013095,0.0,0.0,0.0,0.0,0.0,-5.489999999999998,-0.8699999999999992,-2.17,0.259,0.761,-0.016,-0.0017738130640065552,0.0,0.0,0.0,0.0,0.0
1757903882.5188985,-5.390384958423656,0.0,0.0,0.0,0.0,0.0,-5.169999999999998,-0.8300000000000001,-1.99,0.264,0.752,-0.018000000000000002,-0.0011019247921182896,0.0,0.0,0.0,0.0,0.0
1757903882.5788124,-5.677697596737607,0.0,0.0,0.0,0.0,0.0,-6.509999999999998,-0.4299999999999997,-2.23,0.281,0.748,-0.006000000000000005,0.004161512016311954,0.0,0.0,0.0,0.0,0.0
1757903882.638759,-4.579983624424873,0.0,0.0,0.0,0.0,0.0,-7.59,-0.9100000000000001,-1.5899999999999999,0.26,0.732,0.017,0.015050081877875635,0.0,0.0,0.0,0.0,0.0
1757903882.6888764,-4.69161486057839,0.0,0.0,0.0,0.0,0.0,-6.989999999999998,-0.9299999999999997,-1.63,0.276,0.726,-0.015,0.011491925697108041,0.0,0.0,0.0,0.0,0.0
1757903882.7487924,-4.587619208260423,0.0,0.0,0.0,0.0,0.0,-7.07,-1.4299999999999997,-1.15,0.29200000000000004,0.69,-0.0050000000000000044,0.012411903958697885,0.0,0.0,0.0,0.0,0.0
1757903882.7995164,-5.491015388796502,0.0,0.0,0.0,0.0,0.0,-6.509999999999998,-0.6099999999999994,-2.11,0.306,0.785,-0.024999999999999994,0.005094923056017482,0.0,0.0,0.0,0.0,0.0
1757903882.8588028,-6.205340441909693,0.0,0.0,0.0,0.0,0.0,-7.73,-0.6699999999999999,-2.3899999999999997,0.29100000000000004,0.767,-0.006000000000000005,0.007623297790451535,0.0,0.0,0.0,0.0,0.0
1757903882.9194076,-5.169260101794065,0.0,0.0,0.0,0.0,0.0,-8.369999999999997,-0.2699999999999996,-2.05,0.29400000000000004,0.777,-0.017,0.01600369949102966,0.0,0.0,0.0,0.0,0.0
1757903882.9787686,-5.557989744502951,0.0,0.0,0.0,0.0,0.0,-8.829999999999998,-0.9499999999999993,-2.01,0.29100000000000004,0.724,-0.0040000000000000036,0.016360051277485237,0.0,0.0,0.0,0.0,0.0
1757903883.0288305,-6.071758394402727,0.0,0.0,0.0,0.0,0.0,-8.09,-1.049999999999999,-2.19,0.268,0.738,-0.016,0.010091208027986362,0.0,0.0,0.0,0.0,0.0
1757903883.0888667,-6.217817141087376,0.0,0.0,0.0,0.0,0.0,-9.23,-0.5299999999999994,-2.4299999999999997,0.29700000000000004,0.755,-0.019000000000000003,0.015060914294563124,0.0,0.0,0.0,0.0,0.0
1757903883.1488416,-5.575504461481489,0.0,0.0,0.0,0.0,0.0,-8.27,-0.8300000000000001,-2.07,0.272,0.767,-0.0050000000000000044,0.013472477692592553,0.0,0.0,0.0,0.0,0.0
1757903883.2087831,-6.6250471696433975,0.0,0.0,0.0,0.0,0.0,-8.649999999999999,-0.009999999999999787,-2.65,0.307,0.77,-0.018000000000000002,0.010124764151783006,0.0,0.0,0.0,0.0,0.0
1757903883.2687693,-5.441622000837618,0.0,0.0,0.0,0.0,0.0,-8.73,-0.16999999999999993,-2.17,0.32,0.739,-0.021000000000000005,0.016441889995811913,0.0,0.0,0.0,0.0,0.0
1757903883.319041,-6.511624221344472,0.0,0.0,0.0,0.0,0.0,-9.05,-1.4100000000000001,-2.19,0.28800000000000003,0.766,-0.0040000000000000036,0.012691878893277645,0.0,0.0,0.0,0.0,0.0
1757903883.378777,-4.385344912318756,0.0,0.0,0.0,0.0,0.0,-9.61,-0.46999999999999886,-1.69,0.281,0.754,-0.008000000000000007,0.02612327543840622,0.0,0.0,0.0,0.0,0.0
1757903883.4287877,-4.955426318693478,0.0,0.0,0.0,0.0,0.0,-9.629999999999999,-0.5299999999999994,-1.91,0.28900000000000003,0.748,-0.009999999999999995,0.023372868406532604,0.0,0.0,0.0,0.0,0.0
1757903883.4787908,-6.070934853875471,0.0,0.0,0.0,0.0,0.0,-8.329999999999998,-1.0899999999999999,-2.17,0.275,0.767,-0.017,0.011295325730622637,0.0,0.0,0.0,0.0,0.0
1757903883.538816,-4.476186993413031,0.0,0.0,0.0,0.0,0.0,-9.27,-0.9299999999999997,-1.53,0.3,0.757,-0.024999999999999994,0.023969065032934844,0.0,0.0,0.0,0.0,0.0
1757903883.589116,-4.682547383636389,0.0,0.0,0.0,0.0,0.0,-9.11,-0.9900000000000002,-1.5899999999999999,0.267,0.7250000000000001,0.007999999999999993,0.022137263081818053,0.0,0.0,0.0,0.0,0.0
1757903883.648869,-6.191223627038519,0.0,0.0,0.0,0.0,0.0,-7.57,-0.9900000000000002,-2.27,0.28200000000000003,0.741,-0.011999999999999997,0.006893881864807407,0.0,0.0,0.0,0.0,0.0
1757903883.7087553,-7.054874201571564,0.0,0.0,0.0,0.0,0.0,-7.57,-1.25,-2.5300000000000002,0.272,0.769,-0.018000000000000002,0.0025756289921421826,0.0,0.0,0.0,0.0,0.0
1757903883.758787,-4.86376911458593,0.0,0.0,0.0,0.0,0.0,-10.129999999999999,-0.8499999999999996,-1.75,0.26,0.748,-0.006000000000000005,0.026331154427070347,0.0,0.0,0.0,0.0,0.0
1757903883.8095047,-4.065863991822647,0.0,0.0,0.0,0.0,0.0,-10.489999999999998,-0.23000000000000043,-1.6099999999999999,0.28,0.739,-0.012999999999999998,0.03212068004088676,0.0,0.0,0.0,0.0,0.0
1757903883.86877,-6.166542791548599,0.0,0.0,0.0,0.0,0.0,-10.329999999999998,-0.6099999999999994,-2.3899999999999997,0.279,0.755,-0.006000000000000005,0.020817286042256997,0.0,0.0,0.0,0.0,0.0
1757903883.918841,-4.885821322971194,0.0,0.0,0.0,0.0,0.0,-9.169999999999998,-0.629999999999999,-1.85,0.28900000000000003,0.741,0.007999999999999993,0.02142089338514402,0.0,0.0,0.0,0.0,0.0
1757903883.9787822,-6.298114797302443,0.0,0.0,0.0,0.0,0.0,-9.169999999999998,-1.049999999999999,-2.29,0.28,0.734,-0.0010000000000000009,0.014359426013487777,0.0,0.0,0.0,0.0,0.0
1757903884.028784,-4.9210009144481965,0.0,0.0,0.0,0.0,0.0,-9.05,-0.5499999999999989,-1.89,0.29200000000000004,0.745,-0.013999999999999999,0.020644995427759022,0.0,0.0,0.0,0.0,0.0
1757903884.0787952,-6.745461437144236,0.0,0.0,0.0,0.0,0.0,-9.27,-0.9900000000000002,-2.51,0.272,0.7330000000000001,-0.012999999999999998,0.012622692814278818,0.0,0.0,0.0,0.0,0.0
1757903884.1395426,-4.587619208260424,0.0,0.0,0.0,0.0,0.0,-9.509999999999998,-1.1500000000000004,-1.43,0.262,0.734,-0.0020000000000000018,0.02461190395869787,0.0,0.0,0.0,0.0,0.0
1757903884.1987717,-6.253499020548416,0.0,0.0,0.0,0.0,0.0,-9.39,-0.9100000000000001,-2.33,0.281,0.752,-0.032,0.015682504897257924,0.0,0.0,0.0,0.0,0.0
1757903884.2489314,-6.64689777264552,0.0,0.0,0.0,0.0,0.0,-10.649999999999999,-1.8699999999999992,-1.89,0.275,0.7310000000000001,-0.021000000000000005,0.020015511136772392,0.0,0.0,0.0,0.0,0.0
1757903884.2989779,-5.298230836798261,0.0,0.0,0.0,0.0,0.0,-8.169999999999998,-0.8300000000000001,-1.95,0.268,0.777,-0.008999999999999994,0.014358845816008686,0.0,0.0,0.0,0.0,0.0
1757903884.3588886,-7.502416277440221,0.0,0.0,0.0,0.0,0.0,-8.009999999999998,-1.3699999999999992,-2.67,0.245,0.765,-0.020000000000000004,0.0025379186127988842,0.0,0.0,0.0,0.0,0.0
1757903884.4188504,-7.520388952707166,0.0,0.0,0.0,0.0,0.0,-10.009999999999998,-1.5299999999999994,-2.59,0.266,0.764,0.0020000000000000018,0.01244805523646416,0.0,0.0,0.0,0.0,0.0
1757903884.4787965,-5.7237444037972205,0.0,0.0,0.0,0.0,0.0,-10.95,-0.7300000000000004,-2.17,0.274,0.747,-0.007000000000000006,0.026131277981013893,0.0,0.0,0.0,0.0,0.0
1757903884.5387654,-4.633168462294457,0.0,0.0,0.0,0.0,0.0,-11.189999999999998,-0.6099999999999994,-1.75,0.248,0.7210000000000001,-0.008000000000000007,0.0327841576885277,0.0,0.0,0.0,0.0,0.0
1757903884.588862,-5.299174464008521,0.0,0.0,0.0,0.0,0.0,-8.91,-0.7300000000000004,-1.99,0.254,0.734,-0.016,0.018054127679957396,0.0,0.0,0.0,0.0,0.0
1757903884.6487224,-5.405668321308661,0.0,0.0,0.0,0.0,0.0,-7.77,-1.2699999999999996,-1.75,0.276,0.754,0.009999999999999995,0.011821658393456693,0.0,0.0,0.0,0.0,0.0
1757903884.6987534,-5.077031613058953,0.0,0.0,0.0,0.0,0.0,-8.57,-0.6899999999999995,-1.91,0.28700000000000003,0.728,0.0020000000000000018,0.01746484193470524,0.0,0.0,0.0,0.0,0.0
1757903884.7487824,-4.0,0.0,0.0,0.0,0.0,0.0,-8.29,0.13000000000000078,-1.49,0.273,0.7350000000000001,-0.0040000000000000036,0.021449999999999997,0.0,0.0,0.0,0.0,0.0
1757903884.7988236,-4.873525418011072,0.0,0.0,0.0,0.0,0.0,-7.489999999999998,-0.3899999999999988,-1.91,0.256,0.7250000000000001,-0.017,0.013082372909944634,0.0,0.0,0.0,0.0,0.0
1757903884.8588896,-6.350295268725699,0.0,0.0,0.0,0.0,0.0,-8.989999999999998,-0.3899999999999988,-2.51,0.274,0.7270000000000001,-0.008999999999999994,0.013198523656371499,0.0,0.0,0.0,0.0,0.0
1757903884.9189143,-7.3835120369645235,0.0,0.0,0.0,0.0,0.0,-9.11,-1.4900000000000002,-2.55,0.258,0.739,0.0030000000000000027,0.00863243981517738,0.0,0.0,0.0,0.0,0.0
1757903884.978913,-5.44254076695802,0.0,0.0,0.0,0.0,0.0,-9.79,-0.4499999999999993,-2.13,0.274,0.714,0.0030000000000000027,0.021737296165209898,0.0,0.0,0.0,0.0,0.0
1757903885.0292306,-4.837483850102239,0.0,0.0,0.0,0.0,0.0,-9.57,-1.209999999999999,-1.51,0.268,0.7330000000000001,-0.023000000000000007,0.023662580749488807,0.0,0.0,0.0,0.0,0.0
1757903885.088853,-6.414534277716502,0.0,0.0,0.0,0.0,0.0,-9.55,-1.0299999999999994,-2.3499999999999996,0.269,0.747,-0.013999999999999999,0.015677328611417494,0.0,0.0,0.0,0.0,0.0
1757903885.148754,-4.307116204608368,0.0,0.0,0.0,0.0,0.0,-9.829999999999998,-0.9900000000000002,-1.41,0.276,0.716,-0.011999999999999997,0.02761441897695815,0.0,0.0,0.0,0.0,0.0
1757903885.198759,-5.119692373570895,0.0,0.0,0.0,0.0,0.0,-8.969999999999999,-1.0299999999999994,-1.77,0.253,0.746,-0.020000000000000004,0.019251538132145522,0.0,0.0,0.0,0.0,0.0
1757903885.2492,-5.848610946199105,0.0,0.0,0.0,0.0,0.0,-7.93,-1.0899999999999999,-2.07,0.244,0.742,0.007999999999999993,0.010406945269004476,0.0,0.0,0.0,0.0,0.0
1757903885.3089743,-6.769508844812893,0.0,0.0,0.0,0.0,0.0,-7.489999999999998,-0.7899999999999991,-2.59,0.277,0.751,-0.032,0.003602455775935529,0.0,0.0,0.0,0.0,0.0
1757903885.3687706,-7.887093888118741,0.0,0.0,0.0,0.0,0.0,-8.77,-1.5099999999999998,-2.77,0.261,0.718,-0.017,0.004414530559406291,0.0,0.0,0.0,0.0,0.0
1757903885.4189699,-4.0,0.0,0.0,0.0,0.0,0.0,-9.209999999999997,-0.3899999999999988,-1.49,0.261,0.7030000000000001,-0.018000000000000002,0.026049999999999986,0.0,0.0,0.0,0.0,0.0
1757903885.4788053,-7.087753522802553,0.0,0.0,0.0,0.0,0.0,-8.43,-0.16999999999999993,-2.83,0.275,0.742,-0.008999999999999994,0.006711232385987232,0.0,0.0,0.0,0.0,0.0
1757903885.5387435,-5.807430585035004,0.0,0.0,0.0,0.0,0.0,-6.969999999999999,0.39000000000000057,-2.29,0.29200000000000004,0.77,-0.017,0.005812847074824976,0.0,0.0,0.0,0.0,0.0
1757903885.588795,-6.197277628120268,0.0,0.0,0.0,0.0,0.0,-8.59,0.21000000000000085,-2.4699999999999998,0.269,0.748,-0.013999999999999999,0.011963611859398657,0.0,0.0,0.0,0.0,0.0
1757903885.648876,-7.10994022478389,0.0,0.0,0.0,0.0,0.0,-10.25,-1.5099999999999998,-2.41,0.24,0.7330000000000001,-0.008999999999999994,0.01570029887608055,0.0,0.0,0.0,0.0,0.0
1757903885.708751,-5.23509789784298,0.0,0.0,0.0,0.0,0.0,-9.79,-0.7099999999999991,-1.97,0.268,0.706,-0.008000000000000007,0.022774510510785096,0.0,0.0,0.0,0.0,0.0
1757903885.7587914,-4.68841657705456,0.0,0.0,0.0,0.0,0.0,-9.529999999999998,-0.7699999999999996,-1.71,0.267,0.7130000000000001,0.0040000000000000036,0.02420791711472719,0.0,0.0,0.0,0.0,0.0
1757903885.8207128,-4.348706704297267,0.0,0.0,0.0,0.0,0.0,-8.849999999999998,-0.9299999999999997,-1.47,0.259,0.698,0.0,0.022506466478513655,0.0,0.0,0.0,0.0,0.0
1757903885.878789,-4.109896592373097,0.0,0.0,0.0,0.0,0.0,-8.369999999999997,-0.6500000000000004,-1.51,0.263,0.6930000000000001,-0.023000000000000007,0.0213005170381345,0.0,0.0,0.0,0.0,0.0
1757903885.928803,-5.707998773650883,0.0,0.0,0.0,0.0,0.0,-8.45,-0.7099999999999991,-2.17,0.239,0.744,0.0020000000000000018,0.013710006131745583,0.0,0.0,0.0,0.0,0.0
1757903885.9888215,-5.434726304056166,0.0,0.0,0.0,0.0,0.0,-7.050000000000001,0.13000000000000078,-2.17,0.265,0.724,-0.009999999999999995,0.008076368479719171,0.0,0.0,0.0,0.0,0.0
1757903886.0487854,-4.0,0.0,0.0,0.0,0.0,0.0,-9.029999999999998,-0.3699999999999992,-1.17,0.257,0.6950000000000001,0.0030000000000000027,0.02514999999999999,0.0,0.0,0.0,0.0,0.0
1757903886.1087613,-4.108679836638527,0.0,0.0,0.0,0.0,0.0,-8.209999999999997,-0.33000000000000007,-1.6099999999999999,0.252,0.706,-0.019000000000000003,0.020506600816807354,0.0,0.0,0.0,0.0,0.0
1757903886.1592414,-5.9313784232672235,0.0,0.0,0.0,0.0,0.0,-8.529999999999998,-0.8099999999999987,-2.23,0.242,0.722,-0.0040000000000000036,0.01299310788366387,0.0,0.0,0.0,0.0,0.0
1757903886.2189114,-5.409829017630779,0.0,0.0,0.0,0.0,0.0,-8.75,-0.8499999999999996,-1.99,0.253,0.74,-0.007000000000000006,0.016700854911846107,0.0,0.0,0.0,0.0,0.0
1757903886.2788484,-5.526413846247854,0.0,0.0,0.0,0.0,0.0,-9.009999999999998,0.05000000000000071,-2.21,0.269,0.7370000000000001,-0.008999999999999994,0.01741793076876072,0.0,0.0,0.0,0.0,0.0
1757903886.3294713,-5.413524729785576,0.0,0.0,0.0,0.0,0.0,-8.07,-0.3899999999999988,-2.13,0.248,0.75,-0.012999999999999998,0.013282376351072123,0.0,0.0,0.0,0.0,0.0
1757903886.3888237,-5.57640116921299,0.0,0.0,0.0,0.0,0.0,-9.189999999999998,-0.049999999999998934,-2.23,0.251,0.724,-0.020000000000000004,0.01806799415393504,0.0,0.0,0.0,0.0,0.0
1757903886.448786,-4.9765701039973305,0.0,0.0,0.0,0.0,0.0,-7.829999999999998,-0.049999999999998934,-1.99,0.23,0.718,-0.017,0.01426714948001334,0.0,0.0,0.0,0.0,0.0
1757903886.508762,-6.856839651034579,0.0,0.0,0.0,0.0,0.0,-8.689999999999998,-1.1500000000000004,-2.49,0.243,0.7190000000000001,-0.017,0.009165801744827094,0.0,0.0,0.0,0.0,0.0
1757903886.5589101,-4.868906448064081,0.0,0.0,0.0,0.0,0.0,-8.23,-0.46999999999999886,-1.89,0.237,0.722,-0.018000000000000002,0.016805467759679598,0.0,0.0,0.0,0.0,0.0
1757903886.6188006,-4.214409804468474,0.0,0.0,0.0,0.0,0.0,-8.57,-0.23000000000000043,-1.67,0.21,0.726,-0.012999999999999998,0.021777950977657633,0.0,0.0,0.0,0.0,0.0
1757903886.678777,-5.355487839590339,0.0,0.0,0.0,0.0,0.0,-7.209999999999997,-0.3699999999999992,-2.11,0.222,0.7130000000000001,-0.017,0.009272560802048293,0.0,0.0,0.0,0.0,0.0
1757903886.7288287,-6.24709932688764,0.0,0.0,0.0,0.0,0.0,-6.649999999999999,0.21000000000000085,-2.49,0.243,0.745,-0.017,0.0020145033655617926,0.0,0.0,0.0,0.0,0.0
1757903886.7889,-6.275448191165312,0.0,0.0,0.0,0.0,0.0,-5.91,0.030000000000001137,-2.51,0.246,0.753,-0.017,-0.0018272409558265591,0.0,0.0,0.0,0.0,0.0
1757903886.8393657,-6.333344298236123,0.0,0.0,0.0,0.0,0.0,-5.969999999999999,0.13000000000000078,-2.5300000000000002,0.232,0.74,-0.007000000000000006,-0.0018167214911806219,0.0,0.0,0.0,0.0,0.0
1757903886.8987854,-4.855023171932344,0.0,0.0,0.0,0.0,0.0,-6.529999999999998,-0.6500000000000004,-1.83,0.219,0.7150000000000001,0.010999999999999996,0.008374884140338268,0.0,0.0,0.0,0.0,0.0
1757903886.948812,-6.469640639169998,0.0,0.0,0.0,0.0,0.0,-5.689999999999998,-0.8899999999999988,-2.4299999999999997,0.206,0.763,-0.011999999999999997,-0.003898203195850001,0.0,0.0,0.0,0.0,0.0
1757903886.9988337,-6.123009880769423,0.0,0.0,0.0,0.0,0.0,-6.73,-0.6899999999999995,-2.3499999999999996,0.209,0.741,-0.022000000000000006,0.0030349505961528855,0.0,0.0,0.0,0.0,0.0
1757903887.058841,-6.585685233899354,0.0,0.0,0.0,0.0,0.0,-5.07,-0.15000000000000036,-2.63,0.23500000000000001,0.758,-0.0050000000000000044,-0.007578426169496768,0.0,0.0,0.0,0.0,0.0
1757903887.1188345,-5.925474664531103,0.0,0.0,0.0,0.0,0.0,-5.949999999999999,-0.02999999999999936,-2.37,0.251,0.7190000000000001,-0.011999999999999997,0.00012262667734447952,0.0,0.0,0.0,0.0,0.0
1757903887.178773,-4.0,0.0,0.0,0.0,0.0,0.0,-5.91,-0.33000000000000007,-1.41,0.233,0.704,-0.017,0.009550000000000001,0.0,0.0,0.0,0.0,0.0
1757903887.228819,-6.484307981581379,0.0,0.0,0.0,0.0,0.0,-5.349999999999998,-0.34999999999999964,-2.57,0.211,0.772,-0.013999999999999999,-0.0056715399079069065,0.0,0.0,0.0,0.0,0.0
1757903887.2890334,-4.914900812834374,0.0,0.0,0.0,0.0,0.0,-3.7699999999999996,0.25,-1.95,0.22,0.7150000000000001,-0.010999999999999996,-0.005724504064171874,0.0,0.0,0.0,0.0,0.0
1757903887.3394923,-4.536656257641744,0.0,0.0,0.0,0.0,0.0,-3.349999999999998,0.13000000000000078,-1.81,0.199,0.7130000000000001,-0.007000000000000006,-0.0059332812882087315,0.0,0.0,0.0,0.0,0.0
1757903887.3987923,-6.416093047953715,0.0,0.0,0.0,0.0,0.0,-0.5899999999999999,-0.28999999999999915,-2.55,0.183,0.761,-0.016,-0.029130465239768574,0.0,0.0,0.0,0.0,0.0
1757903887.448797,-4.676670824422005,0.0,0.0,0.0,0.0,0.0,-2.1899999999999977,-0.049999999999998934,-1.87,0.176,0.732,-0.008000000000000007,-0.012433354122110036,0.0,0.0,0.0,0.0,0.0
1757903887.5087652,-4.0,0.0,0.0,0.0,0.0,0.0,-2.25,-0.3099999999999987,-1.5499999999999998,0.153,0.762,-0.011999999999999997,-0.00875,0.0,0.0,0.0,0.0,0.0
1757903887.5593057,-6.649906014373436,0.0,0.0,0.0,0.0,0.0,-2.2699999999999996,-0.23000000000000043,-2.65,0.177,0.774,-0.031,-0.021899530071867183,0.0,0.0,0.0,0.0,0.0
1757903887.6188107,-5.100612708292995,0.0,0.0,0.0,0.0,0.0,-3.0299999999999976,0.45000000000000107,-1.99,0.173,0.77,-0.03,-0.010353063541464987,0.0,0.0,0.0,0.0,0.0
1757903887.6788268,-6.621272536302972,0.0,0.0,0.0,0.0,0.0,-3.3099999999999987,0.45000000000000107,-2.61,0.174,0.783,-0.049,-0.016556362681514867,0.0,0.0,0.0,0.0,0.0
1757903887.7387874,-5.199158585771355,0.0,0.0,0.0,0.0,0.0,-1.629999999999999,0.34999999999999964,-2.05,0.185,0.769,-0.010999999999999996,-0.01784579292885678,0.0,0.0,0.0,0.0,0.0
1757903887.7888076,-4.206691098714048,0.0,0.0,0.0,0.0,0.0,-1.8900000000000006,0.33000000000000007,-1.65,0.176,0.765,-0.007000000000000006,-0.011583455493570236,0.0,0.0,0.0,0.0,0.0
1757903887.8396313,-4.930136914934513,0.0,0.0,0.0,0.0,0.0,-2.789999999999999,0.08999999999999986,-1.97,0.176,0.722,-0.0040000000000000036,-0.01070068457467257,0.0,0.0,0.0,0.0,0.0
1757903887.8987849,-4.0,0.0,0.0,0.0,0.0,0.0,-2.1899999999999977,0.39000000000000057,-1.39,0.19,0.734,0.0,-0.009050000000000011,0.0,0.0,0.0,0.0,0.0
1757903887.9488027,-6.215002011262749,0.0,0.0,0.0,0.0,0.0,-1.7099999999999973,0.6100000000000012,-2.41,0.202,0.744,-0.0030000000000000027,-0.02252501005631376,0.0,0.0,0.0,0.0,0.0
1757903888.008763,-5.53455056892608,0.0,0.0,0.0,0.0,0.0,-1.9100000000000001,0.7300000000000004,-2.09,0.207,0.792,-0.0030000000000000027,-0.0181227528446304,0.0,0.0,0.0,0.0,0.0
1757903888.059489,-5.475513674533193,0.0,0.0,0.0,0.0,0.0,-2.669999999999998,0.5099999999999998,-2.13,0.192,0.759,-0.015,-0.014027568372665975,0.0,0.0,0.0,0.0,0.0
1757903888.118801,-4.76300850303671,0.0,0.0,0.0,0.0,0.0,-1.129999999999999,0.5300000000000011,-1.83,0.21,0.77,-0.021000000000000005,-0.018165042515183555,0.0,0.0,0.0,0.0,0.0
1757903888.1787837,-6.685525409419966,0.0,0.0,0.0,0.0,0.0,-2.0700000000000003,0.15000000000000036,-2.67,0.194,0.763,-0.018000000000000002,-0.023077627047099827,0.0,0.0,0.0,0.0,0.0
1757903888.2288196,-6.364844852783136,0.0,0.0,0.0,0.0,0.0,-2.4499999999999993,0.9299999999999997,-2.37,0.20500000000000002,0.766,-0.0030000000000000027,-0.019574224263915686,0.0,0.0,0.0,0.0,0.0
1757903888.288793,-5.047400320957315,0.0,0.0,0.0,0.0,0.0,-1.9100000000000001,0.7100000000000009,-1.89,0.183,0.773,-0.010999999999999996,-0.015687001604786574,0.0,0.0,0.0,0.0,0.0
1757903888.3498106,-6.786475521211286,0.0,0.0,0.0,0.0,0.0,-1.6499999999999986,0.4900000000000002,-2.67,0.184,0.789,-0.020000000000000004,-0.025682377606056437,0.0,0.0,0.0,0.0,0.0
1757903888.4088783,-5.649446875579944,0.0,0.0,0.0,0.0,0.0,-1.9299999999999997,-0.20999999999999908,-2.25,0.2,0.761,-0.011999999999999997,-0.018597234377899723,0.0,0.0,0.0,0.0,0.0
1757903888.458978,-7.273668262988078,0.0,0.0,0.0,0.0,0.0,-2.4499999999999993,0.9500000000000011,-2.75,0.216,0.746,-0.021000000000000005,-0.024118341314940395,0.0,0.0,0.0,0.0,0.0
1757903888.5188746,-6.389150960808486,0.0,0.0,0.0,0.0,0.0,-2.3699999999999974,0.16999999999999993,-2.55,0.218,0.761,-0.008000000000000007,-0.020095754804042444,0.0,0.0,0.0,0.0,0.0
1757903888.5787756,-4.525621504279826,0.0,0.0,0.0,0.0,0.0,-1.5500000000000007,0.2699999999999996,-1.79,0.198,0.761,-0.018000000000000002,-0.014878107521399127,0.0,0.0,0.0,0.0,0.0
1757903888.6288397,-5.539065805711285,0.0,0.0,0.0,0.0,0.0,-2.0299999999999976,0.7900000000000009,-2.07,0.196,0.745,-0.013999999999999999,-0.017545329028556437,0.0,0.0,0.0,0.0,0.0
1757903888.6788838,-5.529579550020054,0.0,0.0,0.0,0.0,0.0,-2.969999999999999,-0.3099999999999987,-2.19,0.206,0.7290000000000001,-0.008999999999999994,-0.012797897750100278,0.0,0.0,0.0,0.0,0.0
1757903888.738808,-5.520982702381887,0.0,0.0,0.0,0.0,0.0,-3.5700000000000003,0.41000000000000014,-2.17,0.212,0.749,-0.016,-0.009754913511909434,0.0,0.0,0.0,0.0,0.0
1757903888.7889464,-6.507783800957126,0.0,0.0,0.0,0.0,0.0,-2.0299999999999976,-0.6899999999999995,-2.51,0.19,0.757,-0.007000000000000006,-0.022388919004785644,0.0,0.0,0.0,0.0,0.0
1757903888.8496413,-6.246298904151161,0.0,0.0,0.0,0.0,0.0,-2.4899999999999984,-0.4900000000000002,-2.45,0.20400000000000001,0.769,-0.009999999999999995,-0.018781494520755816,0.0,0.0,0.0,0.0,0.0
1757903888.9089465,-4.493467480687937,0.0,0.0,0.0,0.0,0.0,-4.509999999999998,-0.41000000000000014,-1.75,0.18,0.746,-0.009999999999999995,8.26625965603034e-05,0.0,0.0,0.0,0.0,0.0
1757903888.968779,-4.989113147644579,0.0,0.0,0.0,0.0,0.0,-3.289999999999999,0.15000000000000036,-1.99,0.219,0.768,-0.022000000000000006,-0.0084955657382229,0.0,0.0,0.0,0.0,0.0
1757903889.018904,-4.0,0.0,0.0,0.0,0.0,0.0,-2.5299999999999976,-0.41000000000000014,-1.31,0.187,0.7070000000000001,-0.017,-0.007350000000000012,0.0,0.0,0.0,0.0,0.0
1757903889.078766,-6.093541663105291,0.0,0.0,0.0,0.0,0.0,-2.0299999999999976,-0.1899999999999995,-2.4299999999999997,0.198,0.758,-0.009999999999999995,-0.020317708315526466,0.0,0.0,0.0,0.0,0.0
1757903889.1288192,-4.0,0.0,0.0,0.0,0.0,0.0,-2.2099999999999973,0.15000000000000036,-1.51,0.187,0.747,-0.011999999999999997,-0.008950000000000014,0.0,0.0,0.0,0.0,0.0
1757903889.1891239,-8.030955733908636,0.0,0.0,0.0,0.0,0.0,-0.9699999999999989,-0.629999999999999,-3.15,0.184,0.779,-0.011999999999999997,-0.03530477866954319,0.0,0.0,0.0,0.0,0.0
1757903889.2487879,-4.95845237952327,0.0,0.0,0.0,0.0,0.0,-1.4499999999999993,-1.129999999999999,-1.63,0.18,0.7150000000000001,-0.0010000000000000009,-0.017542261897616353,0.0,0.0,0.0,0.0,0.0
1757903889.3087919,-6.060631155251076,0.0,0.0,0.0,0.0,0.0,-2.59,-0.5099999999999998,-2.37,0.188,0.744,-0.009999999999999995,-0.01735315577625538,0.0,0.0,0.0,0.0,0.0
1757903889.3600783,-6.595926773395835,0.0,0.0,0.0,0.0,0.0,-1.509999999999998,0.21000000000000085,-2.63,0.202,0.762,-0.010999999999999996,-0.025429633866979186,0.0,0.0,0.0,0.0,0.0
1757903889.4224696,-5.739882402976562,0.0,0.0,0.0,0.0,0.0,-1.1499999999999986,-0.75,-2.17,0.194,0.766,-0.028999999999999998,-0.022949412014882816,0.0,0.0,0.0,0.0,0.0
1757903889.478953,-5.526413846247854,0.0,0.0,0.0,0.0,0.0,-1.7899999999999991,0.05000000000000071,-2.21,0.2,0.754,-0.020000000000000004,-0.018682069231239273,0.0,0.0,0.0,0.0,0.0
1757903889.5290334,-6.276244896432897,0.0,0.0,0.0,0.0,0.0,-1.7899999999999991,-0.049999999999998934,-2.51,0.202,0.743,-0.006000000000000005,-0.02243122448216449,0.0,0.0,0.0,0.0,0.0
1757903889.5790482,-4.0,0.0,0.0,0.0,0.0,0.0,-1.5299999999999976,0.16999999999999993,-1.5699999999999998,0.189,0.761,-0.009999999999999995,-0.012350000000000012,0.0,0.0,0.0,0.0,0.0
1757903889.6387756,-5.593858239176248,0.0,0.0,0.0,0.0,0.0,-1.7699999999999996,-0.34999999999999964,-2.21,0.199,0.782,0.0,-0.019119291195881242,0.0,0.0,0.0,0.0,0.0
1757903889.688958,-5.510558047965741,0.0,0.0,0.0,0.0,0.0,-2.0299999999999976,-0.25,-2.19,0.20500000000000002,0.734,-0.0010000000000000009,-0.017402790239828717,0.0,0.0,0.0,0.0,0.0
1757903889.748875,-6.478908087015897,0.0,0.0,0.0,0.0,0.0,-2.5700000000000003,-0.08999999999999986,-2.59,0.213,0.74,-0.022000000000000006,-0.019544540435079485,0.0,0.0,0.0,0.0,0.0
1757903889.808816,-8.365180810956808,0.0,0.0,0.0,0.0,0.0,-1.9699999999999989,0.4900000000000002,-3.31,0.219,0.792,-0.013999999999999999,-0.031975904054784045,0.0,0.0,0.0,0.0,0.0
1757903889.8594565,-7.027179377246606,0.0,0.0,0.0,0.0,0.0,-1.9899999999999984,0.07000000000000028,-2.81,0.199,0.75,-0.012999999999999998,-0.025185896886233038,0.0,0.0,0.0,0.0,0.0
1757903889.918788,-5.894170849237404,0.0,0.0,0.0,0.0,0.0,-2.969999999999999,-0.1899999999999995,-2.3499999999999996,0.193,0.763,-0.012999999999999998,-0.014620854246187025,0.0,0.0,0.0,0.0,0.0
1757903889.9688003,-7.4706927389633675,0.0,0.0,0.0,0.0,0.0,-2.5700000000000003,0.33000000000000007,-2.9699999999999998,0.221,0.769,-0.018000000000000002,-0.024503463694816836,0.0,0.0,0.0,0.0,0.0
1757903890.0188372,-4.728239630137203,0.0,0.0,0.0,0.0,0.0,-3.2300000000000004,0.07000000000000028,-1.89,0.209,0.757,-0.016,-0.007491198150686014,0.0,0.0,0.0,0.0,0.0
1757903890.0787733,-6.532323476375002,0.0,0.0,0.0,0.0,0.0,-3.349999999999998,0.5700000000000003,-2.55,0.209,0.757,0.009999999999999995,-0.015911617381875024,0.0,0.0,0.0,0.0,0.0
1757903890.1387515,-4.0,0.0,0.0,0.0,0.0,0.0,-2.75,0.33000000000000007,-1.23,0.212,0.702,0.0040000000000000036,-0.00625,0.0,0.0,0.0,0.0,0.0
1757903890.1889017,-5.659615711335886,0.0,0.0,0.0,0.0,0.0,-2.669999999999998,0.25,-2.25,0.191,0.758,-0.0030000000000000027,-0.014948078556679439,0.0,0.0,0.0,0.0,0.0
1757903890.2505338,-5.285002365183954,0.0,0.0,0.0,0.0,0.0,-2.4299999999999997,-0.5899999999999999,-2.03,0.174,0.75,0.0020000000000000018,-0.01427501182591977,0.0,0.0,0.0,0.0,0.0
1757903890.3087752,-6.243897020291094,0.0,0.0,0.0,0.0,0.0,-2.5299999999999976,0.370000000000001,-2.4699999999999998,0.213,0.751,-0.026999999999999996,-0.01856948510145548,0.0,0.0,0.0,0.0,0.0
1757903890.3587918,-5.2570191173325584,0.0,0.0,0.0,0.0,0.0,-2.969999999999999,-0.3699999999999992,-2.07,0.221,0.75,-0.0030000000000000027,-0.011435095586662797,0.0,0.0,0.0,0.0,0.0
1757903890.4087982,-6.277439764744859,0.0,0.0,0.0,0.0,0.0,-4.609999999999999,0.07000000000000028,-2.51,0.224,0.757,-0.0010000000000000009,-0.008337198823724298,0.0,0.0,0.0,0.0,0.0
1757903890.462178,-4.7782057301878496,0.0,0.0,0.0,0.0,0.0,-5.349999999999998,-0.6699999999999999,-1.79,0.21,0.752,-0.011999999999999997,0.0028589713490607418,0.0,0.0,0.0,0.0,0.0
1757903890.5188198,-4.2639477013678295,0.0,0.0,0.0,0.0,0.0,-5.550000000000001,-0.8300000000000001,-1.49,0.21,0.722,-0.008000000000000007,0.006430261493160856,0.0,0.0,0.0,0.0,0.0
1757903890.5787687,-5.063718989043526,0.0,0.0,0.0,0.0,0.0,-5.43,-0.25,-2.01,0.233,0.756,-0.012999999999999998,0.001831405054782369,0.0,0.0,0.0,0.0,0.0
1757903890.6288974,-6.105837370909906,0.0,0.0,0.0,0.0,0.0,-6.449999999999999,-0.9499999999999993,-2.25,0.231,0.73,-0.0020000000000000018,0.0017208131454504684,0.0,0.0,0.0,0.0,0.0
1757903890.6891797,-5.882707709890063,0.0,0.0,0.0,0.0,0.0,-5.489999999999998,-0.9100000000000001,-2.17,0.227,0.742,-0.012999999999999998,-0.0019635385494503233,0.0,0.0,0.0,0.0,0.0
1757903890.7487488,-6.9437921915909895,0.0,0.0,0.0,0.0,0.0,-6.73,-0.3899999999999988,-2.75,0.248,0.76,-0.009999999999999995,-0.0010689609579549453,0.0,0.0,0.0,0.0,0.0
1757903890.7987883,-6.9437921915909895,0.0,0.0,0.0,0.0,0.0,-6.73,-0.3899999999999988,-2.75,0.248,0.76,-0.009999999999999995,-0.0010689609579549453,0.0,0.0,0.0,0.0,0.0
1757903890.848796,-5.292093158666049,0.0,0.0,0.0,0.0,0.0,-6.609999999999999,0.16999999999999993,-2.11,0.259,0.74,-0.018000000000000002,0.0065895342066697535,0.0,0.0,0.0,0.0,0.0
1757903890.8991487,-5.30624631919778,0.0,0.0,0.0,0.0,0.0,-6.23,-0.3699999999999992,-2.09,0.244,0.7350000000000001,-0.0050000000000000044,0.004618768404011102,0.0,0.0,0.0,0.0,0.0
1757903890.958851,-7.122587310802163,0.0,0.0,0.0,0.0,0.0,-6.849999999999998,-0.46999999999999886,-2.81,0.259,0.769,0.0050000000000000044,-0.0013629365540108252,0.0,0.0,0.0,0.0,0.0
1757903891.0187705,-5.457219988235768,0.0,0.0,0.0,0.0,0.0,-7.23,-0.75,-2.05,0.278,0.702,0.0030000000000000027,0.008863900058821162,0.0,0.0,0.0,0.0,0.0
1757903891.0688033,-4.0,0.0,0.0,0.0,0.0,0.0,-6.209999999999997,-0.8699999999999992,-1.0699999999999998,0.22,0.7010000000000001,-0.0010000000000000009,0.011049999999999987,0.0,0.0,0.0,0.0,0.0
1757903891.1189353,-4.145027141045037,0.0,0.0,0.0,0.0,0.0,-5.629999999999999,-0.46999999999999886,-1.5899999999999999,0.276,0.7250000000000001,0.0020000000000000018,0.007424864294774811,0.0,0.0,0.0,0.0,0.0
1757903891.1788037,-4.824546610822616,0.0,0.0,0.0,0.0,0.0,-5.669999999999998,-0.3899999999999988,-1.89,0.25,0.7330000000000001,-0.0050000000000000044,0.00422726694588691,0.0,0.0,0.0,0.0,0.0
1757903891.229125,-5.60100437421718,0.0,0.0,0.0,0.0,0.0,-5.669999999999998,-0.629999999999999,-2.15,0.266,0.734,-0.015,0.00034497812891409296,0.0,0.0,0.0,0.0,0.0
1757903891.2888544,-5.413524729785576,0.0,0.0,0.0,0.0,0.0,-6.050000000000001,-0.3899999999999988,-2.13,0.257,0.7250000000000001,0.0040000000000000036,0.0031823763510721247,0.0,0.0,0.0,0.0,0.0
1757903891.348875,-4.0163727416662915,0.0,0.0,0.0,0.0,0.0,-6.25,-0.4900000000000002,-1.53,0.277,0.7250000000000001,-0.0020000000000000018,0.011168136291668542,0.0,0.0,0.0,0.0,0.0
1757903891.4087849,-6.223443580526779,0.0,0.0,0.0,0.0,0.0,-5.489999999999998,-0.3099999999999987,-2.4699999999999998,0.254,0.747,0.0020000000000000018,-0.0036672179026339038,0.0,0.0,0.0,0.0,0.0
1757903891.4594631,-6.079165238747832,0.0,0.0,0.0,0.0,0.0,-4.629999999999999,0.08999999999999986,-2.4299999999999997,0.262,0.765,0.0020000000000000018,-0.007245826193739165,0.0,0.0,0.0,0.0,0.0
1757903891.5187833,-6.535001912777072,0.0,0.0,0.0,0.0,0.0,-5.25,-0.7300000000000004,-2.51,0.258,0.743,-0.0030000000000000027,-0.00642500956388536,0.0,0.0,0.0,0.0,0.0
1757903891.5687857,-5.621943614089347,0.0,0.0,0.0,0.0,0.0,-5.77,-0.28999999999999915,-2.23,0.256,0.7270000000000001,-0.0010000000000000009,0.0007402819295532615,0.0,0.0,0.0,0.0,0.0
1757903891.6287706,-6.2857974832156325,0.0,0.0,0.0,0.0,0.0,-5.93,-0.46999999999999886,-2.4699999999999998,0.256,0.747,-0.018000000000000002,-0.0017789874160781638,0.0,0.0,0.0,0.0,0.0
1757903891.678815,-5.060261850932221,0.0,0.0,0.0,0.0,0.0,-5.649999999999999,-0.3699999999999992,-1.99,0.268,0.756,-0.0010000000000000009,0.002948690745338887,0.0,0.0,0.0,0.0,0.0
1757903891.728973,-7.502416277440221,0.0,0.0,0.0,0.0,0.0,-5.609999999999999,-0.4299999999999997,-2.9699999999999998,0.248,0.7370000000000001,0.0030000000000000027,-0.009462081387201109,0.0,0.0,0.0,0.0,0.0
1757903891.7890944,-5.492381086559816,0.0,0.0,0.0,0.0,0.0,-7.209999999999997,-0.7899999999999991,-2.05,0.242,0.7370000000000001,-0.0030000000000000027,0.008588094567200905,0.0,0.0,0.0,0.0,0.0
1757903891.848791,-4.889401803901986,0.0,0.0,0.0,0.0,0.0,-6.23,-0.15000000000000036,-1.95,0.254,0.7250000000000001,-0.012999999999999998,0.006702990980490071,0.0,0.0,0.0,0.0,0.0
1757903891.9087718,-4.427894533522676,0.0,0.0,0.0,0.0,0.0,-6.689999999999998,-0.5299999999999994,-1.69,0.25,0.748,0.0030000000000000027,0.011310527332386609,0.0,0.0,0.0,0.0,0.0
1757903891.958837,-6.61069209689878,0.0,0.0,0.0,0.0,0.0,-5.77,-0.8899999999999988,-2.49,0.247,0.714,-0.0030000000000000027,-0.004203460484493902,0.0,0.0,0.0,0.0,0.0
1757903892.0187721,-5.47323030759715,0.0,0.0,0.0,0.0,0.0,-5.27,-0.28999999999999915,-2.17,0.259,0.7230000000000001,0.0010000000000000009,-0.00101615153798575,0.0,0.0,0.0,0.0,0.0
1757903892.0688393,-5.927583824797418,0.0,0.0,0.0,0.0,0.0,-4.550000000000001,-0.07000000000000028,-2.37,0.253,0.775,-0.011999999999999997,-0.006887919123987087,0.0,0.0,0.0,0.0,0.0
1757903892.12879,-4.943303551270142,0.0,0.0,0.0,0.0,0.0,-5.149999999999999,-0.16999999999999993,-1.97,0.26,0.741,-0.0020000000000000018,0.0010334822436492842,0.0,0.0,0.0,0.0,0.0
1757903892.1788166,-8.301581174691963,0.0,0.0,0.0,0.0,0.0,-5.550000000000001,-0.8499999999999996,-3.21,0.248,0.783,-0.019000000000000003,-0.01375790587345981,0.0,0.0,0.0,0.0,0.0
1757903892.22886,-5.525509026325086,0.0,0.0,0.0,0.0,0.0,-5.329999999999998,-0.02999999999999936,-2.21,0.247,0.734,-0.008000000000000007,-0.000977545131625437,0.0,0.0,0.0,0.0,0.0
1757903892.2788758,-5.155700728320059,0.0,0.0,0.0,0.0,0.0,-5.849999999999998,-0.6099999999999994,-1.97,0.247,0.7210000000000001,0.0,0.003471496358399695,0.0,0.0,0.0,0.0,0.0
1757903892.3388417,-6.140948623787695,0.0,0.0,0.0,0.0,0.0,-5.75,-1.0299999999999994,-2.23,0.249,0.7330000000000001,-0.010999999999999996,-0.0019547431189384755,0.0,0.0,0.0,0.0,0.0
1757903892.390376,-5.9174529993908696,0.0,0.0,0.0,0.0,0.0,-5.829999999999998,-0.9900000000000002,-2.15,0.23500000000000001,0.7270000000000001,-0.011999999999999997,-0.0004372649969543563,0.0,0.0,0.0,0.0,0.0
1757903892.4489186,-7.237489205518719,0.0,0.0,0.0,0.0,0.0,-6.73,-1.0700000000000003,-2.69,0.268,0.754,0.007000000000000006,-0.002537446027593595,0.0,0.0,0.0,0.0,0.0
1757903892.5087664,-5.565631141209413,0.0,0.0,0.0,0.0,0.0,-5.43,-0.7099999999999991,-2.11,0.256,0.75,-0.008999999999999994,-0.0006781557060470656,0.0,0.0,0.0,0.0,0.0
1757903892.5588439,-6.384062186413912,0.0,0.0,0.0,0.0,0.0,-6.57,-0.46999999999999886,-2.51,0.27,0.7350000000000001,-0.013999999999999999,0.0009296890679304415,0.0,0.0,0.0,0.0,0.0
1757903892.6188686,-6.233077089207223,0.0,0.0,0.0,0.0,0.0,-6.669999999999998,-0.7099999999999991,-2.3899999999999997,0.277,0.754,-0.009999999999999995,0.0021846145539638775,0.0,0.0,0.0,0.0,0.0
1757903892.6689856,-4.653090370925542,0.0,0.0,0.0,0.0,0.0,-6.329999999999998,-0.5099999999999998,-1.79,0.263,0.708,-0.0030000000000000027,0.008384548145372284,0.0,0.0,0.0,0.0,0.0
1757903892.7289748,-5.481902042174777,0.0,0.0,0.0,0.0,0.0,-6.489999999999998,-0.10999999999999943,-2.19,0.275,0.732,-0.015,0.005040489789126106,0.0,0.0,0.0,0.0,0.0
1757903892.788796,-5.312838224527449,0.0,0.0,0.0,0.0,0.0,-5.849999999999998,-0.6899999999999995,-2.01,0.249,0.7230000000000001,-0.020000000000000004,0.0026858088773627433,0.0,0.0,0.0,0.0,0.0
