time,lam_star_Fx,lam_star_Fy,lam_star_Fz,lam_star_Tx,lam_star_Ty,lam_star_Tz,meas_Fx,meas_Fy,meas_Fz,meas_Tx,meas_Ty,meas_Tz,v_final_Fx,v_final_Fy,v_final_Fz,v_final_Tx,v_final_Ty,v_final_Tz
1757904944.8826756,-4.0,0.0,0.0,0.0,0.0,0.0,0.0,0.0,0.0,0.0,0.0,0.0,-0.02,0.0,15.189885925890321,0.0,0.0,0.0
1757904944.9329476,-4.0,0.0,0.0,0.0,0.0,0.0,-5.949999999999999,-0.4299999999999997,-0.1499999999999999,0.186,0.784,-0.063,0.009749999999999997,0.0,7.790535317867718,0.0,0.0,0.0
1757904944.9926581,-4.0,0.0,0.0,0.0,0.0,0.0,-6.469999999999999,-0.23000000000000043,-0.32999999999999996,0.198,0.8089999999999999,-0.037,0.012349999999999995,0.0,52.754897182645145,0.0,0.0,0.0
1757904945.0427182,-4.0,0.0,0.0,0.0,0.0,0.0,-5.489999999999998,0.21000000000000085,0.53,0.206,0.781,-0.041,0.007449999999999992,0.0,9.147332197740417,0.0,0.0,0.0
1757904945.1027713,-4.0,0.0,0.0,0.0,0.0,0.0,-6.169999999999998,0.5899999999999999,0.8300000000000001,0.155,0.8049999999999999,-0.048,0.010849999999999992,0.0,10.839381280505489,0.0,0.0,0.0
1757904945.1528838,-14.205148714462652,0.0,0.0,0.0,0.0,0.0,-5.329999999999998,-0.3699999999999992,-5.67,0.228,0.688,-0.017,-0.04437574357231327,0.0,7.783078623919138,0.0,0.0,0.0
1757904945.2126899,-7.932921908099184,0.0,0.0,0.0,0.0,0.0,-5.609999999999999,0.6300000000000008,-3.11,0.189,0.7110000000000001,-0.023999999999999994,-0.011614609540495922,0.0,21.435325883603863,0.0,0.0,0.0
1757904945.2729733,-7.764422064777261,0.0,0.0,0.0,0.0,0.0,-6.609999999999999,-0.46999999999999886,-3.07,0.232,0.749,-0.019000000000000003,-0.005772110323886306,0.0,22.724223812182583,0.0,0.0,0.0
1757904945.3327043,-8.674459637349175,0.0,0.0,0.0,0.0,0.0,-6.369999999999997,-0.3699999999999992,-3.4499999999999997,0.216,0.785,-0.053,-0.011522298186745888,0.0,5.097226396030311,0.0,0.0,0.0
1757904945.3928661,-4.985604276313955,0.0,0.0,0.0,0.0,0.0,-6.149999999999999,-0.129999999999999,-1.99,0.247,0.783,-0.041,0.005821978618430217,0.0,15.420259198341132,0.0,0.0,0.0
1757904945.453071,-4.6028523765161085,0.0,0.0,0.0,0.0,0.0,-6.949999999999999,-0.629999999999999,-1.73,0.241,0.81,-0.033,0.011735738117419455,0.0,-20.378370127836806,0.0,0.0,0.0
1757904945.5126631,-4.0,0.0,0.0,0.0,0.0,0.0,-6.73,0.23000000000000043,-1.23,0.25,0.81,-0.041,0.013650000000000002,0.0,38.22792858859966,0.0,0.0,0.0
1757904945.5627599,-4.0,0.0,0.0,0.0,0.0,0.0,-5.109999999999999,0.41000000000000014,-1.27,0.304,0.8160000000000001,-0.044,0.005549999999999998,0.0,11.205152596010944,0.0,0.0,0.0
1757904945.6226614,-4.926586039033521,0.0,0.0,0.0,0.0,0.0,-5.23,-0.049999999999998934,-1.97,0.267,0.8300000000000001,-0.056,0.0015170698048323982,0.0,10.413150546333341,0.0,0.0,0.0
1757904945.6727562,-6.8761362697375334,0.0,0.0,0.0,0.0,0.0,-4.689999999999998,1.2100000000000009,-2.4699999999999998,0.29100000000000004,0.8029999999999999,-0.07200000000000001,-0.010930681348687679,0.0,0.0,0.0,0.0,0.0
1757904945.732718,-4.0,0.0,0.0,0.0,0.0,0.0,-3.5700000000000003,-0.9699999999999989,0.51,0.272,0.8340000000000001,-0.067,-0.0021499999999999987,0.0,0.0,0.0,0.0,0.0
1757904945.7927425,-5.484637636161573,0.0,0.0,0.0,0.0,0.0,-6.309999999999999,1.2100000000000009,-1.83,0.247,0.806,-0.04,0.004126811819192127,0.0,0.0,0.0,0.0,0.0
1757904945.8526783,-6.197277628120268,0.0,0.0,0.0,0.0,0.0,-5.369999999999997,-0.4900000000000002,-2.4299999999999997,0.271,0.831,-0.056,-0.004136388140601355,0.0,0.0,0.0,0.0,0.0
1757904945.9035883,-4.487343312027729,0.0,0.0,0.0,0.0,0.0,-4.93,-0.8699999999999992,-1.5699999999999998,0.304,0.825,-0.067,0.0022132834398613534,0.0,0.0,0.0,0.0,0.0
1757904945.962866,-4.504025976834503,0.0,0.0,0.0,0.0,0.0,-5.709999999999997,-1.17,-1.3699999999999999,0.272,0.8360000000000001,-0.045,0.006029870115827474,0.0,0.0,0.0,0.0,0.0
1757904946.0232835,-5.214522988730607,0.0,0.0,0.0,0.0,0.0,-6.73,-1.5899999999999999,-1.3499999999999999,0.259,0.81,-0.032,0.007577385056346966,0.0,0.0,0.0,0.0,0.0
1757904946.0826802,-4.0,0.0,0.0,0.0,0.0,0.0,-6.93,0.05000000000000071,-1.53,0.29100000000000004,0.831,-0.056,0.014649999999999998,0.0,0.0,0.0,0.0,0.0
1757904946.1334157,-5.126524163602469,0.0,0.0,0.0,0.0,0.0,-6.709999999999997,-1.67,-1.19,0.281,0.8500000000000001,-0.055,0.00791737918198764,0.0,0.0,0.0,0.0,0.0
1757904946.1930864,-4.0,0.0,0.0,0.0,0.0,0.0,-6.309999999999999,-0.8300000000000001,-0.99,0.28700000000000003,0.796,-0.042,0.011549999999999994,0.0,0.0,0.0,0.0,0.0
1757904946.252774,-5.402892743706836,0.0,0.0,0.0,0.0,0.0,-5.43,-0.5499999999999989,-2.09,0.264,0.873,-0.067,0.00013553628146581787,0.0,0.0,0.0,0.0,0.0
1757904946.3028083,-4.0,0.0,0.0,0.0,0.0,0.0,-5.029999999999998,-0.9499999999999993,-1.15,0.249,0.808,-0.056,0.005149999999999988,0.0,0.0,0.0,0.0,0.0
1757904946.353084,-5.715002187226178,0.0,0.0,0.0,0.0,0.0,-5.07,-0.8300000000000001,-2.13,0.27,0.857,-0.065,-0.0032250109361308876,0.0,0.0,0.0,0.0,0.0
1757904946.404877,-4.0,0.0,0.0,0.0,0.0,0.0,-5.829999999999998,-0.20999999999999908,-1.19,0.301,0.8089999999999999,-0.057,0.009149999999999991,0.0,0.0,0.0,0.0,0.0
1757904946.4629416,-4.0,0.0,0.0,0.0,0.0,0.0,-5.489999999999998,0.25,-1.19,0.265,0.8089999999999999,-0.061,0.007449999999999992,0.0,0.0,0.0,0.0,0.0
1757904946.523802,-4.536656257641744,0.0,0.0,0.0,0.0,0.0,-5.349999999999998,-0.129999999999999,-1.81,0.257,0.853,-0.053,0.004066718711791269,0.0,0.0,0.0,0.0,0.0
1757904946.5827446,-4.517327749898162,0.0,0.0,0.0,0.0,0.0,-6.029999999999998,-0.4499999999999993,-1.75,0.26,0.827,-0.044,0.007563361250509178,0.0,0.0,0.0,0.0,0.0
1757904946.6328783,-4.939256016851121,0.0,0.0,0.0,0.0,0.0,-7.029999999999998,0.15000000000000036,-1.97,0.29700000000000004,0.819,-0.073,0.010453719915744383,0.0,0.0,0.0,0.0,0.0
1757904946.692784,-4.0,0.0,0.0,0.0,0.0,0.0,-7.149999999999999,0.2699999999999996,-1.3699999999999999,0.29100000000000004,0.825,-0.05,0.015749999999999993,0.0,0.0,0.0,0.0,0.0
1757904946.7526817,-6.7875805704241925,0.0,0.0,0.0,0.0,0.0,-5.009999999999998,-1.17,-2.45,0.252,0.8680000000000001,-0.031,-0.008887902852120972,0.0,0.0,0.0,0.0,0.0
1757904946.8027508,-4.0,0.0,0.0,0.0,0.0,0.0,-4.849999999999998,-0.3699999999999992,-1.23,0.266,0.813,-0.068,0.004249999999999989,0.0,0.0,0.0,0.0,0.0
1757904946.8627074,-6.134839036193207,0.0,0.0,0.0,0.0,0.0,-4.93,-0.7699999999999996,-2.33,0.26,0.8420000000000001,-0.052,-0.006024195180966037,0.0,0.0,0.0,0.0,0.0
1757904946.9227638,-4.617493909037671,0.0,0.0,0.0,0.0,0.0,-4.649999999999999,0.25,-1.83,0.271,0.8620000000000001,-0.062,0.00016253045481163576,0.0,0.0,0.0,0.0,0.0
1757904946.9827013,-4.0,0.0,0.0,0.0,0.0,0.0,-5.949999999999999,-0.15000000000000036,-1.39,0.258,0.808,-0.066,0.009749999999999997,0.0,0.0,0.0,0.0,0.0
1757904947.0327756,-5.96500209555705,0.0,0.0,0.0,0.0,0.0,-5.550000000000001,-0.6699999999999999,-2.29,0.28,0.847,-0.066,-0.0020750104777852484,0.0,0.0,0.0,0.0,0.0
1757904947.0930524,-5.599665168561419,0.0,0.0,0.0,0.0,0.0,-5.689999999999998,-0.46999999999999886,-2.19,0.277,0.843,-0.06,0.00045167415719289395,0.0,0.0,0.0,0.0,0.0
1757904947.1526792,-4.076916727135838,0.0,0.0,0.0,0.0,0.0,-5.449999999999999,-0.049999999999998934,-1.63,0.28700000000000003,0.8109999999999999,-0.053,0.0068654163643208045,0.0,0.0,0.0,0.0,0.0
1757904947.2027886,-4.0,0.0,0.0,0.0,0.0,0.0,-5.689999999999998,-0.129999999999999,-1.0699999999999998,0.277,0.819,-0.021000000000000005,0.008449999999999989,0.0,0.0,0.0,0.0,0.0
1757904947.2627635,-6.3428108910797585,0.0,0.0,0.0,0.0,0.0,-4.469999999999999,-0.1899999999999995,-2.5300000000000002,0.276,0.8440000000000001,-0.053,-0.009364054455398799,0.0,0.0,0.0,0.0,0.0
1757904947.3226917,-6.396581118066118,0.0,0.0,0.0,0.0,0.0,-5.25,-0.20999999999999908,-2.55,0.29600000000000004,0.8400000000000001,-0.054,-0.005732905590330591,0.0,0.0,0.0,0.0,0.0
1757904947.3826337,-5.119692373570895,0.0,0.0,0.0,0.0,0.0,-5.689999999999998,-0.2699999999999996,-2.03,0.276,0.841,-0.037,0.002851538132145515,0.0,0.0,0.0,0.0,0.0
1757904947.4328148,-4.505135957992833,0.0,0.0,0.0,0.0,0.0,-6.289999999999999,-0.4299999999999997,-1.75,0.239,0.849,-0.047,0.008924320210035832,0.0,0.0,0.0,0.0,0.0
1757904947.4927187,-5.014603673272694,0.0,0.0,0.0,0.0,0.0,-5.629999999999999,-0.46999999999999886,-1.95,0.266,0.8500000000000001,-0.044,0.0030769816336365264,0.0,0.0,0.0,0.0,0.0
1757904947.5527084,-4.594698031427093,0.0,0.0,0.0,0.0,0.0,-5.529999999999998,-0.16999999999999993,-1.83,0.267,0.8140000000000001,-0.055,0.004676509842864523,0.0,0.0,0.0,0.0,0.0
1757904947.6029644,-4.193000119246362,0.0,0.0,0.0,0.0,0.0,-5.169999999999998,-0.7300000000000004,-1.51,0.259,0.8280000000000001,-0.052,0.004884999403768182,0.0,0.0,0.0,0.0,0.0
1757904947.6627982,-4.0,0.0,0.0,0.0,0.0,0.0,-5.189999999999998,-0.25,-1.49,0.273,0.813,-0.07100000000000001,0.005949999999999989,0.0,0.0,0.0,0.0,0.0
1757904947.7227008,-4.278580372039305,0.0,0.0,0.0,0.0,0.0,-6.309999999999999,-0.07000000000000028,-1.71,0.29000000000000004,0.8,-0.055,0.010157098139803469,0.0,0.0,0.0,0.0,0.0
1757904947.7826529,-4.359615808761134,0.0,0.0,0.0,0.0,0.0,-6.25,-0.4299999999999997,-1.69,0.279,0.841,-0.065,0.00945192095619433,0.0,0.0,0.0,0.0,0.0
1757904947.832718,-4.0,0.0,0.0,0.0,0.0,0.0,-6.41,-0.9699999999999989,-1.23,0.239,0.831,-0.057,0.012050000000000002,0.0,0.0,0.0,0.0,0.0
1757904947.8827584,-5.379707241105225,0.0,0.0,0.0,0.0,0.0,-5.009999999999998,-0.9100000000000001,-1.95,0.247,0.813,-0.054,-0.0018485362055261367,0.0,0.0,0.0,0.0,0.0
1757904947.9345336,-6.109112046770789,0.0,0.0,0.0,0.0,0.0,-4.989999999999998,-0.6699999999999999,-2.3499999999999996,0.276,0.8380000000000001,-0.061,-0.005595560233853951,0.0,0.0,0.0,0.0,0.0
1757904947.9926262,-6.1058373709099065,0.0,0.0,0.0,0.0,0.0,-5.59,-0.5899999999999999,-2.37,0.268,0.8180000000000001,-0.062,-0.0025791868545495334,0.0,0.0,0.0,0.0,0.0
1757904948.0426643,-7.267822920242348,0.0,0.0,0.0,0.0,0.0,-5.289999999999999,-1.1500000000000004,-2.67,0.238,0.8380000000000001,-0.074,-0.009889114601211745,0.0,0.0,0.0,0.0,0.0
1757904948.0926695,-5.464087297984905,0.0,0.0,0.0,0.0,0.0,-5.489999999999998,-0.8099999999999987,-2.03,0.266,0.839,-0.062,0.00012956351007546553,0.0,0.0,0.0,0.0,0.0
1757904948.142748,-4.0,0.0,0.0,0.0,0.0,0.0,-6.509999999999998,0.8300000000000001,-1.19,0.315,0.8049999999999999,-0.061,0.01254999999999999,0.0,0.0,0.0,0.0,0.0
1757904948.2032118,-4.796483086595844,0.0,0.0,0.0,0.0,0.0,-6.369999999999997,-0.8699999999999992,-1.71,0.271,0.8540000000000001,-0.061,0.00786758456702077,0.0,0.0,0.0,0.0,0.0
1757904948.2628832,-5.082445277619818,0.0,0.0,0.0,0.0,0.0,-5.609999999999999,-0.10999999999999943,-2.03,0.26,0.867,-0.068,0.002637773611900909,0.0,0.0,0.0,0.0,0.0
1757904948.3226514,-4.0,0.0,0.0,0.0,0.0,0.0,-5.509999999999998,0.370000000000001,-1.39,0.262,0.8440000000000001,-0.063,0.00754999999999999,0.0,0.0,0.0,0.0,0.0
1757904948.372718,-4.952903189039736,0.0,0.0,0.0,0.0,0.0,-4.75,-0.8899999999999988,-1.77,0.274,0.8260000000000001,-0.064,-0.0010145159451986796,0.0,0.0,0.0,0.0,0.0
1757904948.4227958,-5.151820066733697,0.0,0.0,0.0,0.0,0.0,-5.23,-0.20999999999999908,-2.05,0.259,0.8240000000000001,-0.052,0.000390899666331519,0.0,0.0,0.0,0.0,0.0
1757904948.4728558,-4.590887713721606,0.0,0.0,0.0,0.0,0.0,-5.489999999999998,-0.41000000000000014,-1.79,0.263,0.8089999999999999,-0.059,0.004495561431391963,0.0,0.0,0.0,0.0,0.0
1757904948.5326893,-4.0,0.0,0.0,0.0,0.0,0.0,-4.989999999999998,0.07000000000000028,-1.23,0.28600000000000003,0.8160000000000001,-0.05,0.004949999999999993,0.0,0.0,0.0,0.0,0.0
1757904948.5941045,-4.7440752523542455,0.0,0.0,0.0,0.0,0.0,-4.43,-0.16999999999999993,-1.89,0.266,0.8260000000000001,-0.061,-0.001570376261771229,0.0,0.0,0.0,0.0,0.0
1757904948.6526427,-5.069146871022776,0.0,0.0,0.0,0.0,0.0,-3.9299999999999997,-0.8300000000000001,-1.85,0.246,0.8300000000000001,-0.033,-0.005695734355113879,0.0,0.0,0.0,0.0,0.0
1757904948.702685,-4.830243265095454,0.0,0.0,0.0,0.0,0.0,-4.949999999999999,-0.08999999999999986,-1.93,0.272,0.808,-0.062,0.0005987836745227249,0.0,0.0,0.0,0.0,0.0
1757904948.7527795,-4.229213874941771,0.0,0.0,0.0,0.0,0.0,-5.969999999999999,-0.2699999999999996,-1.67,0.276,0.835,-0.051000000000000004,0.008703930625291139,0.0,0.0,0.0,0.0,0.0
1757904948.803095,-6.343599136137149,0.0,0.0,0.0,0.0,0.0,-5.93,-1.049999999999999,-2.31,0.279,0.8380000000000001,-0.051000000000000004,-0.002067995680685746,0.0,0.0,0.0,0.0,0.0
1757904948.8627307,-5.869944633469722,0.0,0.0,0.0,0.0,0.0,-6.509999999999998,-1.0700000000000003,-2.09,0.265,0.857,-0.041,0.0032002768326513786,0.0,0.0,0.0,0.0,0.0
1757904948.9136682,-4.633708018423257,0.0,0.0,0.0,0.0,0.0,-6.43,-0.5499999999999989,-1.77,0.26,0.8380000000000001,-0.07100000000000001,0.008981459907883713,0.0,0.0,0.0,0.0,0.0
1757904948.9726639,-4.917443441464274,0.0,0.0,0.0,0.0,0.0,-6.23,-0.6099999999999994,-1.87,0.256,0.835,-0.043000000000000003,0.006562782792678634,0.0,0.0,0.0,0.0,0.0
1757904949.0327482,-5.279796397589589,0.0,0.0,0.0,0.0,0.0,-6.23,-0.08999999999999986,-2.11,0.28600000000000003,0.8300000000000001,-0.047,0.004751018012052057,0.0,0.0,0.0,0.0,0.0
1757904949.0926535,-4.68521611027709,0.0,0.0,0.0,0.0,0.0,-5.25,-1.1099999999999994,-1.51,0.268,0.813,-0.059,0.002823919448614549,0.0,0.0,0.0,0.0,0.0
1757904949.14266,-6.342810891079758,0.0,0.0,0.0,0.0,0.0,-5.329999999999998,-0.3699999999999992,-2.51,0.262,0.845,-0.048,-0.005064054455398797,0.0,0.0,0.0,0.0,0.0
1757904949.192686,-4.0,0.0,0.0,0.0,0.0,0.0,-4.629999999999999,-0.02999999999999936,-1.5899999999999999,0.269,0.812,-0.046,0.0031499999999999953,0.0,0.0,0.0,0.0,0.0
1757904949.2526197,-4.0,0.0,0.0,0.0,0.0,0.0,-4.77,-0.6699999999999999,-0.95,0.249,0.795,-0.047,0.003849999999999998,0.0,0.0,0.0,0.0,0.0
1757904949.3029845,-5.5822262584026445,0.0,0.0,0.0,0.0,0.0,-4.23,-0.6699999999999999,-2.13,0.251,0.8160000000000001,-0.06,-0.006761131292013221,0.0,0.0,0.0,0.0,0.0
1757904949.36297,-4.307116204608368,0.0,0.0,0.0,0.0,0.0,-4.989999999999998,0.21000000000000085,-1.71,0.276,0.8340000000000001,-0.058,0.0034144189769581513,0.0,0.0,0.0,0.0,0.0
1757904949.4237337,-4.5405120856573,0.0,0.0,0.0,0.0,0.0,-6.449999999999999,0.15000000000000036,-1.81,0.263,0.845,-0.057,0.009547439571713499,0.0,0.0,0.0,0.0,0.0
1757904949.48272,-5.035002482621036,0.0,0.0,0.0,0.0,0.0,-5.349999999999998,-0.3099999999999987,-1.99,0.249,0.8560000000000001,-0.048,0.0015749875868948094,0.0,0.0,0.0,0.0,0.0
1757904949.5327399,-5.223145603944044,0.0,0.0,0.0,0.0,0.0,-5.649999999999999,-0.5700000000000003,-2.01,0.269,0.829,-0.06,0.0021342719802797737,0.0,0.0,0.0,0.0,0.0
1757904949.5927713,-4.319866896097608,0.0,0.0,0.0,0.0,0.0,-5.050000000000001,-0.9699999999999989,-1.43,0.234,0.8580000000000001,-0.049,0.0036506655195119642,0.0,0.0,0.0,0.0,0.0
1757904949.6434324,-4.50624566573994,0.0,0.0,0.0,0.0,0.0,-5.969999999999999,-0.5700000000000003,-1.71,0.281,0.8280000000000001,-0.041,0.007318771671300293,0.0,0.0,0.0,0.0,0.0
1757904949.702814,-5.427821846744788,0.0,0.0,0.0,0.0,0.0,-5.27,0.07000000000000028,-2.17,0.267,0.853,-0.053,-0.0007891092337239414,0.0,0.0,0.0,0.0,0.0
1757904949.753196,-4.0,0.0,0.0,0.0,0.0,0.0,-5.009999999999998,0.030000000000001137,-1.25,0.274,0.8,-0.051000000000000004,0.00504999999999999,0.0,0.0,0.0,0.0,0.0
1757904949.8033383,-5.491470659122198,0.0,0.0,0.0,0.0,0.0,-4.829999999999998,-0.4499999999999993,-2.15,0.273,0.8260000000000001,-0.063,-0.003307353295611,0.0,0.0,0.0,0.0,0.0
1757904949.8638375,-4.0,0.0,0.0,0.0,0.0,0.0,-6.27,-0.9900000000000002,-0.9299999999999999,0.26,0.8009999999999999,-0.035,0.011349999999999997,0.0,0.0,0.0,0.0,0.0
1757904949.923483,-5.110406050403432,0.0,0.0,0.0,0.0,0.0,-5.689999999999998,-1.1500000000000004,-1.69,0.243,0.831,-0.047,0.002897969747982829,0.0,0.0,0.0,0.0,0.0
1757904949.982731,-5.34707864165097,0.0,0.0,0.0,0.0,0.0,-6.329999999999998,-0.34999999999999964,-2.11,0.275,0.8500000000000001,-0.054,0.00491460679174514,0.0,0.0,0.0,0.0,0.0
1757904950.0426636,-4.480094865067033,0.0,0.0,0.0,0.0,0.0,-6.209999999999997,-0.6500000000000004,-1.67,0.254,0.8260000000000001,-0.041,0.00864952567466482,0.0,0.0,0.0,0.0,0.0
1757904950.092947,-4.0,0.0,0.0,0.0,0.0,0.0,-6.390000000000001,-0.16999999999999993,-1.23,0.28300000000000003,0.804,-0.049,0.011950000000000002,0.0,0.0,0.0,0.0,0.0
1757904950.1528265,-4.0,0.0,0.0,0.0,0.0,0.0,-6.43,0.05000000000000071,-1.27,0.27,0.8069999999999999,-0.063,0.01215,0.0,0.0,0.0,0.0,0.0
1757904950.2126958,-5.0031240240473736,0.0,0.0,0.0,0.0,0.0,-5.369999999999997,-0.4499999999999993,-1.95,0.261,0.8140000000000001,-0.053,0.0018343798797631195,0.0,0.0,0.0,0.0,0.0
1757904950.262827,-4.465002799551194,0.0,0.0,0.0,0.0,0.0,-5.869999999999997,-0.7300000000000004,-1.63,0.29200000000000004,0.781,-0.06,0.007024986002244016,0.0,0.0,0.0,0.0,0.0
1757904950.3226643,-5.32975140133196,0.0,0.0,0.0,0.0,0.0,-5.309999999999999,0.08999999999999986,-2.13,0.266,0.8340000000000001,-0.062,-9.875700665980425e-05,0.0,0.0,0.0,0.0,0.0
1757904950.3726683,-4.0,0.0,0.0,0.0,0.0,0.0,-4.829999999999998,-0.3899999999999988,-1.0499999999999998,0.248,0.812,-0.041,0.004149999999999991,0.0,0.0,0.0,0.0,0.0
1757904950.434078,-5.410291119708808,0.0,0.0,0.0,0.0,0.0,-5.689999999999998,-0.75,-2.03,0.263,0.802,-0.06,0.001398544401455948,0.0,0.0,0.0,0.0,0.0
1757904950.4926832,-5.23509789784298,0.0,0.0,0.0,0.0,0.0,-5.449999999999999,-0.129999999999999,-2.09,0.28400000000000003,0.819,-0.048,0.0010745105107850962,0.0,0.0,0.0,0.0,0.0
1757904950.5526874,-4.0,0.0,0.0,0.0,0.0,0.0,-5.27,-0.02999999999999936,-1.19,0.272,0.799,-0.058,0.006349999999999998,0.0,0.0,0.0,0.0,0.0
1757904950.612665,-4.0,0.0,0.0,0.0,0.0,0.0,-6.07,0.030000000000001137,-1.5699999999999998,0.28200000000000003,0.8109999999999999,-0.061,0.010350000000000002,0.0,0.0,0.0,0.0,0.0
1757904950.6627204,-4.0,0.0,0.0,0.0,0.0,0.0,-6.07,0.030000000000001137,-1.5699999999999998,0.28200000000000003,0.8109999999999999,-0.061,0.010350000000000002,0.0,0.0,0.0,0.0,0.0
1757904950.7260728,-4.8457455566713366,0.0,0.0,0.0,0.0,0.0,-4.009999999999998,-0.33000000000000007,-1.91,0.258,0.8460000000000001,-0.04,-0.004178727783356693,0.0,0.0,0.0,0.0,0.0
1757904950.7826376,-5.009615753728023,0.0,0.0,0.0,0.0,0.0,-4.869999999999997,-0.7699999999999996,-1.85,0.26,0.8160000000000001,-0.051000000000000004,-0.0006980787686401291,0.0,0.0,0.0,0.0,0.0
1757904950.8326967,-4.873525418011073,0.0,0.0,0.0,0.0,0.0,-4.029999999999998,0.39000000000000057,-1.91,0.261,0.8300000000000001,-0.053,-0.004217627090055376,0.0,0.0,0.0,0.0,0.0
1757904950.8926795,-5.0265544859277105,0.0,0.0,0.0,0.0,0.0,-4.77,-0.4900000000000002,-1.95,0.247,0.833,-0.044,-0.0012827724296385545,0.0,0.0,0.0,0.0,0.0
1757904950.9526556,-6.832733713529307,0.0,0.0,0.0,0.0,0.0,-5.489999999999998,0.13000000000000078,-2.73,0.27,0.8680000000000001,-0.07,-0.0067136685676465425,0.0,0.0,0.0,0.0,0.0
1757904951.0027244,-6.225050200600795,0.0,0.0,0.0,0.0,0.0,-5.369999999999997,-0.009999999999999787,-2.49,0.247,0.829,-0.068,-0.004275251003003988,0.0,0.0,0.0,0.0,0.0
1757904951.0626955,-7.515068196630021,0.0,0.0,0.0,0.0,0.0,-6.489999999999998,-0.3099999999999987,-2.99,0.261,0.8220000000000001,-0.017,-0.005125340983150113,0.0,0.0,0.0,0.0,0.0
1757904951.122669,-6.392671585495378,0.0,0.0,0.0,0.0,0.0,-6.07,0.19000000000000128,-2.55,0.281,0.8180000000000001,-0.037,-0.0016133579274768906,0.0,0.0,0.0,0.0,0.0
1757904951.1728268,-5.9528354588380825,0.0,0.0,0.0,0.0,0.0,-6.57,0.23000000000000043,-2.37,0.263,0.798,-0.043000000000000003,0.003085822705809589,0.0,0.0,0.0,0.0,0.0
1757904951.2326987,-7.983811746277589,0.0,0.0,0.0,0.0,0.0,-7.59,-0.15000000000000036,-3.19,0.248,0.81,-0.064,-0.0019690587313879473,0.0,0.0,0.0,0.0,0.0
1757904951.2927077,-7.000446414336731,0.0,0.0,0.0,0.0,0.0,-7.689999999999998,-0.41000000000000014,-2.77,0.266,0.8069999999999999,-0.046,0.0034477679283163322,0.0,0.0,0.0,0.0,0.0
1757904951.352657,-6.876136269737533,0.0,0.0,0.0,0.0,0.0,-7.93,-0.46999999999999886,-2.71,0.27,0.8109999999999999,-0.024999999999999994,0.005269318651312336,0.0,0.0,0.0,0.0,0.0
1757904951.4031377,-7.578340847441477,0.0,0.0,0.0,0.0,0.0,-8.23,-0.08999999999999986,-3.0300000000000002,0.275,0.8180000000000001,-0.056,0.003258295762792618,0.0,0.0,0.0,0.0,0.0
1757904951.4626641,-8.125038461447428,0.0,0.0,0.0,0.0,0.0,-8.189999999999998,-0.009999999999999787,-3.25,0.3,0.8240000000000001,-0.037,0.0003248076927628496,0.0,0.0,0.0,0.0,0.0
1757904951.5126846,-6.151930591285959,0.0,0.0,0.0,0.0,0.0,-8.57,-0.23000000000000043,-2.45,0.265,0.794,-0.03,0.012090347043570206,0.0,0.0,0.0,0.0,0.0
1757904951.5627718,-6.993300365349683,0.0,0.0,0.0,0.0,0.0,-8.29,0.39000000000000057,-2.77,0.29600000000000004,0.792,-0.06,0.006483498173251583,0.0,0.0,0.0,0.0,0.0
1757904951.6226575,-6.632966907802269,0.0,0.0,0.0,0.0,0.0,-7.849999999999998,-0.34999999999999964,-2.63,0.28800000000000003,0.8069999999999999,-0.031,0.006085165460988647,0.0,0.0,0.0,0.0,0.0
1757904951.6731493,-9.649157994353704,0.0,0.0,0.0,0.0,0.0,-7.73,-0.7300000000000004,-3.79,0.244,0.815,-0.044,-0.009595789971768518,0.0,0.0,0.0,0.0,0.0
1757904951.7326808,-6.139727192636495,0.0,0.0,0.0,0.0,0.0,-8.029999999999998,-0.16999999999999993,-2.45,0.274,0.8049999999999999,-0.038,0.009451364036817513,0.0,0.0,0.0,0.0,0.0
1757904951.7827382,-6.717235294375207,0.0,0.0,0.0,0.0,0.0,-8.27,-0.5499999999999989,-2.63,0.234,0.806,-0.011999999999999997,0.007763823528123961,0.0,0.0,0.0,0.0,0.0
1757904951.8426573,-11.316415068386275,0.0,0.0,0.0,0.0,0.0,-8.209999999999997,-0.9299999999999997,-4.43,0.248,0.849,-0.05,-0.01553207534193139,0.0,0.0,0.0,0.0,0.0
1757904951.892821,-7.278478549806959,0.0,0.0,0.0,0.0,0.0,-8.209999999999997,-0.08999999999999986,-2.91,0.28,0.817,-0.045,0.0046576072509651924,0.0,0.0,0.0,0.0,0.0
1757904951.9432435,-9.465529567858313,0.0,0.0,0.0,0.0,0.0,-8.29,-0.6500000000000004,-3.73,0.263,0.839,-0.039,-0.005877647839291571,0.0,0.0,0.0,0.0,0.0
1757904952.0030842,-6.867404895591927,0.0,0.0,0.0,0.0,0.0,-9.209999999999997,-0.9699999999999989,-2.57,0.27,0.8009999999999999,-0.032,0.01171297552204035,0.0,0.0,0.0,0.0,0.0
1757904952.0626855,-8.675900529628032,0.0,0.0,0.0,0.0,0.0,-7.869999999999997,-0.049999999999998934,-3.4699999999999998,0.28500000000000003,0.843,-0.03,-0.004029502648140175,0.0,0.0,0.0,0.0,0.0
1757904952.1127288,-9.889704242291577,0.0,0.0,0.0,0.0,0.0,-7.989999999999998,-0.9900000000000002,-3.83,0.276,0.81,-0.039,-0.009498521211457894,0.0,0.0,0.0,0.0,0.0
1757904952.163052,-8.682525554238236,0.0,0.0,0.0,0.0,0.0,-7.469999999999999,-1.17,-3.27,0.259,0.819,-0.037,-0.006062627771191185,0.0,0.0,0.0,0.0,0.0
1757904952.2229488,-6.775415116433826,0.0,0.0,0.0,0.0,0.0,-9.489999999999998,-0.33000000000000007,-2.69,0.274,0.798,-0.031,0.013572924417830864,0.0,0.0,0.0,0.0,0.0
1757904952.273344,-7.180268100844145,0.0,0.0,0.0,0.0,0.0,-9.55,-0.10999999999999943,-2.87,0.246,0.8240000000000001,-0.025999999999999995,0.011848659495779276,0.0,0.0,0.0,0.0,0.0
1757904952.3327096,-5.883557597236556,0.0,0.0,0.0,0.0,0.0,-7.789999999999999,-0.6899999999999995,-2.25,0.263,0.782,-0.016,0.009532212013817216,0.0,0.0,0.0,0.0,0.0
1757904952.3926501,-7.776969204002288,0.0,0.0,0.0,0.0,0.0,-8.61,0.07000000000000028,-3.11,0.257,0.8200000000000001,-0.034,0.004165153979988556,0.0,0.0,0.0,0.0,0.0
1757904952.4426582,-7.532015002640395,0.0,0.0,0.0,0.0,0.0,-7.949999999999999,-0.3699999999999992,-2.99,0.263,0.8380000000000001,-0.044,0.0020899249867980217,0.0,0.0,0.0,0.0,0.0
1757904952.4928918,-8.980882473343028,0.0,0.0,0.0,0.0,0.0,-6.550000000000001,-0.129999999999999,-3.59,0.269,0.835,-0.045,-0.012154412366715137,0.0,0.0,0.0,0.0,0.0
1757904952.5429282,-9.915202973212399,0.0,0.0,0.0,0.0,0.0,-7.73,-1.0299999999999994,-3.83,0.259,0.8220000000000001,-0.044,-0.01092601486606199,0.0,0.0,0.0,0.0,0.0
1757904952.6030989,-5.996769963905569,0.0,0.0,0.0,0.0,0.0,-8.43,0.370000000000001,-2.37,0.274,0.815,-0.044,0.012166150180472153,0.0,0.0,0.0,0.0,0.0
1757904952.662693,-6.909142493826567,0.0,0.0,0.0,0.0,0.0,-8.349999999999998,0.4299999999999997,-2.73,0.28200000000000003,0.819,-0.048,0.0072042875308671525,0.0,0.0,0.0,0.0,0.0
1757904952.7226493,-7.457295086021472,0.0,0.0,0.0,0.0,0.0,-8.93,-1.33,-2.67,0.24,0.778,-0.059,0.007363524569892639,0.0,0.0,0.0,0.0,0.0
1757904952.7729168,-6.7890536895800135,0.0,0.0,0.0,0.0,0.0,-7.25,-0.75,-2.61,0.248,0.804,-0.031,0.002304731552099932,0.0,0.0,0.0,0.0,0.0
1757904952.8327913,-7.570089167242351,0.0,0.0,0.0,0.0,0.0,-6.809999999999999,-0.33000000000000007,-3.01,0.252,0.784,-0.035,-0.0038004458362117612,0.0,0.0,0.0,0.0,0.0
1757904952.8827915,-6.627310917710139,0.0,0.0,0.0,0.0,0.0,-7.329999999999998,0.07000000000000028,-2.65,0.28600000000000003,0.764,-0.053,0.0035134454114492987,0.0,0.0,0.0,0.0,0.0
1757904952.9328687,-8.975870431328651,0.0,0.0,0.0,0.0,0.0,-7.869999999999997,0.05000000000000071,-3.59,0.28500000000000003,0.817,-0.044,-0.00552935215664327,0.0,0.0,0.0,0.0,0.0
1757904952.9926639,-7.128551746322671,0.0,0.0,0.0,0.0,0.0,-8.09,-0.08999999999999986,-2.8499999999999996,0.27,0.795,-0.043000000000000003,0.004807241268386644,0.0,0.0,0.0,0.0,0.0
1757904953.0426784,-8.882919002219934,0.0,0.0,0.0,0.0,0.0,-7.989999999999998,0.15000000000000036,-3.55,0.27,0.849,-0.038,-0.004464595011099677,0.0,0.0,0.0,0.0,0.0
1757904953.1028335,-6.697480869700188,0.0,0.0,0.0,0.0,0.0,-8.169999999999998,-0.5099999999999998,-2.63,0.242,0.813,-0.039,0.007362595651499051,0.0,0.0,0.0,0.0,0.0
1757904953.1626813,-7.432109391014101,0.0,0.0,0.0,0.0,0.0,-8.41,0.13000000000000078,-2.9699999999999998,0.28200000000000003,0.798,-0.044,0.004889453044929497,0.0,0.0,0.0,0.0,0.0
1757904953.2226522,-9.235596894624623,0.0,0.0,0.0,0.0,0.0,-7.129999999999999,-0.5700000000000003,-3.65,0.259,0.8420000000000001,-0.03,-0.010527984473123118,0.0,0.0,0.0,0.0,0.0
1757904953.2728174,-8.975870431328651,0.0,0.0,0.0,0.0,0.0,-7.309999999999999,0.05000000000000071,-3.59,0.272,0.837,-0.037,-0.008329352156643264,0.0,0.0,0.0,0.0,0.0
1757904953.3328261,-10.042223359396065,0.0,0.0,0.0,0.0,0.0,-8.11,-0.7300000000000004,-3.9499999999999997,0.238,0.847,-0.04,-0.009661116796980326,0.0,0.0,0.0,0.0,0.0
1757904953.3926597,-8.22534193818105,0.0,0.0,0.0,0.0,0.0,-8.77,0.030000000000001137,-3.29,0.268,0.808,-0.052,0.0027232903090947504,0.0,0.0,0.0,0.0,0.0
1757904953.4427335,-7.297345407749313,0.0,0.0,0.0,0.0,0.0,-9.509999999999998,-1.4900000000000002,-2.51,0.25,0.792,-0.034,0.011063272961253423,0.0,0.0,0.0,0.0,0.0
1757904953.4928133,-6.378969352489475,0.0,0.0,0.0,0.0,0.0,-7.73,0.08999999999999986,-2.55,0.266,0.817,-0.063,0.006755153237552629,0.0,0.0,0.0,0.0,0.0
1757904953.5527756,-9.032787498884272,0.0,0.0,0.0,0.0,0.0,-8.25,-0.15000000000000036,-3.61,0.281,0.847,-0.059,-0.003913937494421358,0.0,0.0,0.0,0.0,0.0
1757904953.6029162,-7.975039184856711,0.0,0.0,0.0,0.0,0.0,-8.849999999999998,-0.009999999999999787,-3.19,0.249,0.783,-0.037,0.004374804075716434,0.0,0.0,0.0,0.0,0.0
1757904953.66267,-6.189608226697388,0.0,0.0,0.0,0.0,0.0,-8.349999999999998,0.16999999999999993,-2.4699999999999998,0.274,0.8069999999999999,-0.055,0.010801958866513051,0.0,0.0,0.0,0.0,0.0
1757904953.7126722,-8.499779408902327,0.0,0.0,0.0,0.0,0.0,-8.489999999999998,-0.4499999999999993,-3.37,0.244,0.799,-0.034,-4.889704451164434e-05,0.0,0.0,0.0,0.0,0.0
1757904953.772984,-8.756783085128921,0.0,0.0,0.0,0.0,0.0,-7.349999999999998,-0.7099999999999991,-3.43,0.267,0.8360000000000001,-0.051000000000000004,-0.007033915425644617,0.0,0.0,0.0,0.0,0.0
1757904953.8326674,-9.339767127717908,0.0,0.0,0.0,0.0,0.0,-9.169999999999998,-0.20999999999999908,-3.73,0.252,0.788,-0.035,-0.0008488356385895468,0.0,0.0,0.0,0.0,0.0
1757904953.8926685,-10.226497445362218,0.0,0.0,0.0,0.0,0.0,-8.23,-0.41000000000000014,-4.07,0.252,0.8089999999999999,-0.010999999999999996,-0.00998248722681109,0.0,0.0,0.0,0.0,0.0
1757904953.9426804,-10.171836117437204,0.0,0.0,0.0,0.0,0.0,-9.669999999999998,-0.3899999999999988,-4.05,0.28200000000000003,0.802,0.0040000000000000036,-0.0025091805871860283,0.0,0.0,0.0,0.0,0.0
1757904953.992752,-8.556065100266594,0.0,0.0,0.0,0.0,0.0,-10.469999999999999,-0.46999999999999886,-3.39,0.253,0.783,-0.028999999999999998,0.009569674498667026,0.0,0.0,0.0,0.0,0.0
1757904954.0428445,-5.773755277113846,0.0,0.0,0.0,0.0,0.0,-11.169999999999998,-1.5299999999999994,-1.73,0.255,0.837,-0.058,0.026981223614430762,0.0,0.0,0.0,0.0,0.0
1757904954.102819,-4.0,0.0,0.0,0.0,0.0,0.0,-10.41,-0.5899999999999999,-1.15,0.255,0.823,-0.082,0.03205,0.0,0.0,0.0,0.0,0.0
1757904954.1627162,-4.069551572347989,0.0,0.0,0.0,0.0,0.0,-5.829999999999998,-0.4299999999999997,-1.5699999999999998,0.273,0.794,-0.035,0.008802242138260046,0.0,0.0,0.0,0.0,0.0
1757904954.2226214,-5.834059478613498,0.0,0.0,0.0,0.0,0.0,-4.27,-0.129999999999999,-2.33,0.256,0.796,-0.062,-0.007820297393067492,0.0,0.0,0.0,0.0,0.0
1757904954.2730765,-5.079985236199018,0.0,0.0,0.0,0.0,0.0,-4.77,0.08999999999999986,-2.03,0.269,0.794,-0.049,-0.0015499261809950938,0.0,0.0,0.0,0.0,0.0
1757904954.3331645,-4.0,0.0,0.0,0.0,0.0,0.0,-4.789999999999999,0.07000000000000028,-1.19,0.241,0.793,-0.061,0.003949999999999996,0.0,0.0,0.0,0.0,0.0
1757904954.3926773,-5.045418714041482,0.0,0.0,0.0,0.0,0.0,-5.43,-0.5899999999999999,-1.93,0.266,0.829,-0.045,0.0019229064297925902,0.0,0.0,0.0,0.0,0.0
1757904954.4427178,-4.288502069487666,0.0,0.0,0.0,0.0,0.0,-6.07,-0.8499999999999996,-1.49,0.267,0.789,-0.043000000000000003,0.008907489652561674,0.0,0.0,0.0,0.0,0.0
1757904954.5031862,-4.372213398268662,0.0,0.0,0.0,0.0,0.0,-5.609999999999999,0.45000000000000107,-1.69,0.264,0.806,-0.051000000000000004,0.006188933008656687,0.0,0.0,0.0,0.0,0.0
1757904954.562703,-5.141133143578369,0.0,0.0,0.0,0.0,0.0,-5.489999999999998,-0.5899999999999999,-1.97,0.271,0.788,-0.051000000000000004,0.0017443342821081486,0.0,0.0,0.0,0.0,0.0
1757904954.6227221,-4.2374815633817215,0.0,0.0,0.0,0.0,0.0,-5.57,-0.28999999999999915,-1.67,0.28700000000000003,0.793,-0.054,0.006662592183091394,0.0,0.0,0.0,0.0,0.0
1757904954.672831,-4.008272695314029,0.0,0.0,0.0,0.0,0.0,-5.329999999999998,-0.41000000000000014,-1.5499999999999998,0.269,0.8320000000000001,-0.06,0.006608636523429845,0.0,0.0,0.0,0.0,0.0
1757904954.732738,-4.399005569444076,0.0,0.0,0.0,0.0,0.0,-5.43,-0.4900000000000002,-1.69,0.254,0.8420000000000001,-0.068,0.00515497215277962,0.0,0.0,0.0,0.0,0.0
1757904954.7928472,-5.020084660640694,0.0,0.0,0.0,0.0,0.0,-5.329999999999998,-0.9100000000000001,-1.79,0.255,0.78,-0.049,0.001549576696796522,0.0,0.0,0.0,0.0,0.0
1757904954.8526397,-5.154730836813886,0.0,0.0,0.0,0.0,0.0,-4.449999999999999,-0.6699999999999999,-1.95,0.276,0.823,-0.046,-0.0035236541840694357,0.0,0.0,0.0,0.0,0.0
1757904954.9027815,-4.780298107858965,0.0,0.0,0.0,0.0,0.0,-5.869999999999997,-0.28999999999999915,-1.89,0.273,0.8009999999999999,-0.039,0.005448509460705165,0.0,0.0,0.0,0.0,0.0
1757904954.9626777,-5.127986934460734,0.0,0.0,0.0,0.0,0.0,-5.209999999999997,0.07000000000000028,-2.05,0.281,0.8240000000000001,-0.061,0.0004100653276963184,0.0,0.0,0.0,0.0,0.0
1757904955.0127835,-6.177479259374327,0.0,0.0,0.0,0.0,0.0,-4.189999999999998,-0.07000000000000028,-2.4699999999999998,0.271,0.857,-0.054,-0.009937396296871648,0.0,0.0,0.0,0.0,0.0
1757904955.0727534,-4.0,0.0,0.0,0.0,0.0,0.0,-4.09,-0.5099999999999998,-1.31,0.232,0.799,-0.045,0.0004499999999999993,0.0,0.0,0.0,0.0,0.0
1757904955.1327045,-5.572364848069444,0.0,0.0,0.0,0.0,0.0,-3.9899999999999984,-0.28999999999999915,-2.21,0.262,0.821,-0.058,-0.00791182424034723,0.0,0.0,0.0,0.0,0.0
1757904955.192671,-5.31377925774114,0.0,0.0,0.0,0.0,0.0,-4.689999999999998,-0.629999999999999,-2.03,0.269,0.808,-0.058,-0.0031188962887057103,0.0,0.0,0.0,0.0,0.0
1757904955.2526402,-5.549887386244877,0.0,0.0,0.0,0.0,0.0,-5.029999999999998,-0.6899999999999995,-2.11,0.254,0.798,-0.046,-0.002599436931224397,0.0,0.0,0.0,0.0,0.0
1757904955.3032382,-4.0,0.0,0.0,0.0,0.0,0.0,-5.489999999999998,-0.34999999999999964,-1.39,0.274,0.772,-0.056,0.007449999999999992,0.0,0.0,0.0,0.0,0.0
1757904955.3633342,-5.491470659122199,0.0,0.0,0.0,0.0,0.0,-4.349999999999998,-0.16999999999999993,-2.19,0.268,0.817,-0.05,-0.005707353295611006,0.0,0.0,0.0,0.0,0.0
1757904955.422682,-5.7420597349731555,0.0,0.0,0.0,0.0,0.0,-3.669999999999998,0.34999999999999964,-2.27,0.267,0.855,-0.051000000000000004,-0.010360298674865787,0.0,0.0,0.0,0.0,0.0
1757904955.472766,-4.0,0.0,0.0,0.0,0.0,0.0,-5.550000000000001,-0.5299999999999994,-1.17,0.254,0.777,-0.042,0.007750000000000003,0.0,0.0,0.0,0.0,0.0
1757904955.5228858,-5.8839824948753865,0.0,0.0,0.0,0.0,0.0,-5.23,-0.129999999999999,-2.3499999999999996,0.28700000000000003,0.8029999999999999,-0.053,-0.0032699124743769304,0.0,0.0,0.0,0.0,0.0
1757904955.5826423,-4.0,0.0,0.0,0.0,0.0,0.0,-4.969999999999999,0.07000000000000028,-1.43,0.265,0.788,-0.042,0.004849999999999994,0.0,0.0,0.0,0.0,0.0
1757904955.6326885,-5.784137792272933,0.0,0.0,0.0,0.0,0.0,-3.969999999999999,-0.33000000000000007,-2.29,0.27,0.8140000000000001,-0.035,-0.00907068896136467,0.0,0.0,0.0,0.0,0.0
1757904955.692691,-5.544479236141117,0.0,0.0,0.0,0.0,0.0,-5.169999999999998,-0.34999999999999964,-2.19,0.272,0.8180000000000001,-0.06,-0.0018723961807055956,0.0,0.0,0.0,0.0,0.0
1757904955.7526648,-5.160547451579142,0.0,0.0,0.0,0.0,0.0,-6.050000000000001,-0.46999999999999886,-2.01,0.263,0.808,-0.057,0.0044472627421042925,0.0,0.0,0.0,0.0,0.0
1757904955.802895,-6.518147743032525,0.0,0.0,0.0,0.0,0.0,-5.609999999999999,-0.629999999999999,-2.5300000000000002,0.268,0.8280000000000001,-0.038,-0.004540738715162629,0.0,0.0,0.0,0.0,0.0
1757904955.8627322,-4.917443441464274,0.0,0.0,0.0,0.0,0.0,-5.309999999999999,-0.6099999999999994,-1.87,0.263,0.823,-0.046,0.0019627827926786256,0.0,0.0,0.0,0.0,0.0
1757904955.922638,-5.2092465865996385,0.0,0.0,0.0,0.0,0.0,-6.73,-0.46999999999999886,-2.03,0.256,0.796,-0.045,0.00760376706700181,0.0,0.0,0.0,0.0,0.0
1757904955.9730585,-5.151820066733697,0.0,0.0,0.0,0.0,0.0,-5.669999999999998,-0.20999999999999908,-2.05,0.27,0.815,-0.035,0.0025908996663315076,0.0,0.0,0.0,0.0,0.0
1757904956.0328298,-5.684298549513387,0.0,0.0,0.0,0.0,0.0,-5.289999999999999,-0.129999999999999,-2.27,0.26,0.8300000000000001,-0.037,-0.0019714927475669385,0.0,0.0,0.0,0.0,0.0
1757904956.0926886,-4.0,0.0,0.0,0.0,0.0,0.0,-4.709999999999997,-0.41000000000000014,-1.1099999999999999,0.277,0.799,-0.061,0.0035499999999999868,0.0,0.0,0.0,0.0,0.0
1757904956.142722,-4.0,0.0,0.0,0.0,0.0,0.0,-5.75,0.15000000000000036,-1.49,0.273,0.8320000000000001,-0.048,0.00875,0.0,0.0,0.0,0.0,0.0
1757904956.1942077,-6.022561747296575,0.0,0.0,0.0,0.0,0.0,-5.669999999999998,-0.5299999999999994,-2.3499999999999996,0.268,0.806,-0.053,-0.001762808736482886,0.0,0.0,0.0,0.0,0.0
1757904956.2526493,-4.0,0.0,0.0,0.0,0.0,0.0,-5.57,-0.08999999999999986,-1.33,0.28,0.813,-0.052,0.007850000000000001,0.0,0.0,0.0,0.0,0.0
1757904956.303026,-5.172161057043756,0.0,0.0,0.0,0.0,0.0,-5.41,-0.4900000000000002,-2.01,0.265,0.8009999999999999,-0.05,0.0011891947147812188,0.0,0.0,0.0,0.0,0.0
1757904956.3629274,-6.231071336455714,0.0,0.0,0.0,0.0,0.0,-5.050000000000001,0.11000000000000121,-2.49,0.28500000000000003,0.8200000000000001,-0.074,-0.005905356682278567,0.0,0.0,0.0,0.0,0.0
1757904956.4226365,-5.7420597349731555,0.0,0.0,0.0,0.0,0.0,-5.649999999999999,-0.34999999999999964,-2.27,0.273,0.8260000000000001,-0.039,-0.00046029867486578445,0.0,0.0,0.0,0.0,0.0
1757904956.4731123,-4.0,0.0,0.0,0.0,0.0,0.0,-5.649999999999999,0.41000000000000014,-1.43,0.28,0.79,-0.038,0.008249999999999993,0.0,0.0,0.0,0.0,0.0
1757904956.533132,-5.499659080343069,0.0,0.0,0.0,0.0,0.0,-4.890000000000001,-0.5499999999999989,-2.13,0.265,0.841,-0.036,-0.003048295401715344,0.0,0.0,0.0,0.0,0.0
1757904956.5926695,-4.0,0.0,0.0,0.0,0.0,0.0,-5.529999999999998,-0.23000000000000043,-1.31,0.278,0.783,-0.047,0.007649999999999988,0.0,0.0,0.0,0.0,0.0
1757904956.6428285,-4.4397353524731615,0.0,0.0,0.0,0.0,0.0,-5.23,-1.129999999999999,-1.3699999999999999,0.222,0.831,-0.023999999999999994,0.003951323237634195,0.0,0.0,0.0,0.0,0.0
1757904956.7028644,-5.226495001432603,0.0,0.0,0.0,0.0,0.0,-4.969999999999999,-0.8499999999999996,-1.91,0.26,0.81,-0.033,-0.001282475007163022,0.0,0.0,0.0,0.0,0.0
1757904956.7627003,-4.492354616456719,0.0,0.0,0.0,0.0,0.0,-5.25,-0.3099999999999987,-1.77,0.253,0.806,-0.054,0.003788226917716404,0.0,0.0,0.0,0.0,0.0
1757904956.822597,-4.0,0.0,0.0,0.0,0.0,0.0,-4.949999999999999,-0.02999999999999936,-1.5499999999999998,0.256,0.785,-0.052,0.004749999999999996,0.0,0.0,0.0,0.0,0.0
1757904956.8726788,-5.182301612218262,0.0,0.0,0.0,0.0,0.0,-4.41,0.11000000000000121,-2.07,0.267,0.835,-0.04,-0.003861508061091308,0.0,0.0,0.0,0.0,0.0
1757904956.9327803,-4.275657844121767,0.0,0.0,0.0,0.0,0.0,-5.43,-0.4499999999999993,-1.65,0.275,0.799,-0.053,0.005771710779391164,0.0,0.0,0.0,0.0,0.0
1757904956.9926567,-4.400710169961208,0.0,0.0,0.0,0.0,0.0,-5.969999999999999,0.19000000000000128,-1.75,0.273,0.8240000000000001,-0.057,0.007846449150193955,0.0,0.0,0.0,0.0,0.0
1757904957.042919,-4.730354109366441,0.0,0.0,0.0,0.0,0.0,-4.709999999999997,-0.8099999999999987,-1.71,0.246,0.8140000000000001,-0.047,-0.00010177054683222053,0.0,0.0,0.0,0.0,0.0
1757904957.1028426,-4.0,0.0,0.0,0.0,0.0,0.0,-4.489999999999998,-0.129999999999999,-1.39,0.273,0.817,-0.058,0.002449999999999992,0.0,0.0,0.0,0.0,0.0
1757904957.162674,-5.232709623130256,0.0,0.0,0.0,0.0,0.0,-5.43,-0.5099999999999998,-2.03,0.27,0.8200000000000001,-0.05,0.0009864518843487203,0.0,0.0,0.0,0.0,0.0
1757904957.2126882,-5.876329636771579,0.0,0.0,0.0,0.0,0.0,-4.949999999999999,-0.6099999999999994,-2.27,0.248,0.8480000000000001,-0.046,-0.004631648183857897,0.0,0.0,0.0,0.0,0.0
1757904957.2626953,-5.157155223570451,0.0,0.0,0.0,0.0,0.0,-4.609999999999999,0.23000000000000043,-2.05,0.263,0.8220000000000001,-0.053,-0.00273577611785226,0.0,0.0,0.0,0.0,0.0
1757904957.3226526,-4.166083292494282,0.0,0.0,0.0,0.0,0.0,-5.189999999999998,-0.4299999999999997,-1.6099999999999999,0.264,0.79,-0.058,0.00511958353752858,0.0,0.0,0.0,0.0,0.0
1757904957.37273,-5.816463702285091,0.0,0.0,0.0,0.0,0.0,-5.43,0.5099999999999998,-2.27,0.274,0.823,-0.044,-0.001932318511425457,0.0,0.0,0.0,0.0,0.0
1757904957.4326851,-5.597432447113587,0.0,0.0,0.0,0.0,0.0,-5.129999999999999,0.6900000000000013,-2.13,0.303,0.819,-0.074,-0.002337162235567938,0.0,0.0,0.0,0.0,0.0
1757904957.492648,-6.721699933796508,0.0,0.0,0.0,0.0,0.0,-5.890000000000001,-0.7899999999999991,-2.57,0.274,0.843,-0.045,-0.004158499668982536,0.0,0.0,0.0,0.0,0.0
1757904957.54284,-6.076285872142619,0.0,0.0,0.0,0.0,0.0,-5.709999999999997,-0.049999999999998934,-2.4299999999999997,0.281,0.813,-0.034,-0.0018314293607131083,0.0,0.0,0.0,0.0,0.0
1757904957.6030152,-6.07134663810262,0.0,0.0,0.0,0.0,0.0,-5.609999999999999,-0.5299999999999994,-2.37,0.303,0.788,-0.08,-0.002306733190513102,0.0,0.0,0.0,0.0,0.0
1757904957.6626298,-6.120151141924519,0.0,0.0,0.0,0.0,0.0,-5.829999999999998,-0.4299999999999997,-2.41,0.261,0.8360000000000001,-0.046,-0.0014507557096226044,0.0,0.0,0.0,0.0,0.0
1757904957.7133272,-5.375058139220449,0.0,0.0,0.0,0.0,0.0,-5.369999999999997,0.009999999999999787,-2.15,0.264,0.8220000000000001,-0.037,-2.529069610225587e-05,0.0,0.0,0.0,0.0,0.0
1757904957.7726305,-4.857082457607652,0.0,0.0,0.0,0.0,0.0,-5.09,-0.4499999999999993,-1.89,0.258,0.8160000000000001,-0.057,0.0011645877119617375,0.0,0.0,0.0,0.0,0.0
1757904957.8226895,-4.365346492547871,0.0,0.0,0.0,0.0,0.0,-6.550000000000001,-0.5099999999999998,-1.67,0.258,0.804,-0.051000000000000004,0.010923267537260651,0.0,0.0,0.0,0.0,0.0
1757904957.8826597,-7.405825409770339,0.0,0.0,0.0,0.0,0.0,-6.25,-0.2699999999999996,-2.95,0.268,0.843,-0.045,-0.005779127048851694,0.0,0.0,0.0,0.0,0.0
1757904957.932668,-7.033935598226641,0.0,0.0,0.0,0.0,0.0,-5.550000000000001,-1.3099999999999987,-2.49,0.276,0.8069999999999999,-0.033,-0.007419677991133203,0.0,0.0,0.0,0.0,0.0
1757904957.9827302,-5.175060386121113,0.0,0.0,0.0,0.0,0.0,-5.809999999999999,-0.5700000000000003,-1.99,0.26,0.833,-0.056,0.0031746980693944282,0.0,0.0,0.0,0.0,0.0
1757904958.0427873,-5.88780519378826,0.0,0.0,0.0,0.0,0.0,-6.149999999999999,0.5500000000000007,-2.29,0.249,0.8140000000000001,-0.036,0.0013109740310586915,0.0,0.0,0.0,0.0,0.0
1757904958.102977,-9.660292438637663,0.0,0.0,0.0,0.0,0.0,-5.09,-0.33000000000000007,-3.85,0.275,0.8320000000000001,-0.04,-0.022851462193188316,0.0,0.0,0.0,0.0,0.0
1757904958.162668,-8.479460478120055,0.0,0.0,0.0,0.0,0.0,-7.149999999999999,-0.10999999999999943,-3.39,0.28500000000000003,0.77,-0.056,-0.006647302390600283,0.0,0.0,0.0,0.0,0.0
1757904958.2127037,-6.821381824821127,0.0,0.0,0.0,0.0,0.0,-6.989999999999998,-1.0700000000000003,-2.51,0.279,0.777,-0.023999999999999994,0.000843090875894359,0.0,0.0,0.0,0.0,0.0
1757904958.272707,-11.308901361317112,0.0,0.0,0.0,0.0,0.0,-6.629999999999999,-0.5499999999999989,-4.49,0.268,0.768,-0.069,-0.023394506806585565,0.0,0.0,0.0,0.0,0.0
1757904958.3326402,-9.619576393999893,0.0,0.0,0.0,0.0,0.0,-7.77,0.7699999999999996,-3.77,0.28500000000000003,0.746,-0.04,-0.009247881969999466,0.0,0.0,0.0,0.0,0.0
1757904958.382652,-12.459384013666163,0.0,0.0,0.0,0.0,0.0,-11.45,0.370000000000001,-4.97,0.244,0.778,-0.032,-0.00504692006833082,0.0,0.0,0.0,0.0,0.0
1757904958.4327047,-12.594889836755222,0.0,0.0,0.0,0.0,0.0,-11.829999999999998,0.5300000000000011,-5.01,0.28700000000000003,0.761,-0.055,-0.0038244491837761173,0.0,0.0,0.0,0.0,0.0
1757904958.4925895,-12.53220850448954,0.0,0.0,0.0,0.0,0.0,-12.43,0.16999999999999993,-5.01,0.258,0.782,-0.033,-0.0005110425224477044,0.0,0.0,0.0,0.0,0.0
1757904958.5433393,-9.210659585502006,0.0,0.0,0.0,0.0,0.0,-13.489999999999998,-0.629999999999999,-3.63,0.254,0.776,-0.037,0.021396702072489966,0.0,0.0,0.0,0.0,0.0
1757904958.602948,-11.109736720552833,0.0,0.0,0.0,0.0,0.0,-12.55,-0.6899999999999995,-4.390000000000001,0.264,0.796,-0.048,0.007201316397235837,0.0,0.0,0.0,0.0,0.0
1757904958.662662,-11.291645141430898,0.0,0.0,0.0,0.0,0.0,-12.149999999999999,-0.4900000000000002,-4.49,0.27,0.782,-0.013999999999999999,0.004291774292845503,0.0,0.0,0.0,0.0,0.0
1757904958.7226596,-9.775799200065434,0.0,0.0,0.0,0.0,0.0,-11.07,-1.549999999999999,-3.59,0.239,0.797,-0.011999999999999997,0.006471003999672834,0.0,0.0,0.0,0.0,0.0
1757904958.7729626,-9.525032808342445,0.0,0.0,0.0,0.0,0.0,-11.169999999999998,0.009999999999999787,-3.81,0.273,0.804,-0.023999999999999994,0.008224835958287767,0.0,0.0,0.0,0.0,0.0
1757904958.8326528,-10.959984032835083,0.0,0.0,0.0,0.0,0.0,-12.149999999999999,-0.34999999999999964,-4.37,0.275,0.771,-0.018000000000000002,0.00595007983582458,0.0,0.0,0.0,0.0,0.0
1757904958.882689,-10.88146359641018,0.0,0.0,0.0,0.0,0.0,-11.43,-0.15000000000000036,-4.35,0.263,0.815,-0.037,0.0027426820179490986,0.0,0.0,0.0,0.0,0.0
1757904958.942935,-12.384112806333764,0.0,0.0,0.0,0.0,0.0,-11.189999999999998,0.19000000000000128,-4.949999999999999,0.257,0.8360000000000001,-0.03,-0.005970564031668833,0.0,0.0,0.0,0.0,0.0
1757904959.0028112,-10.69164393346505,0.0,0.0,0.0,0.0,0.0,-10.829999999999998,-0.629999999999999,-4.23,0.242,0.797,-0.04,0.0006917803326747407,0.0,0.0,0.0,0.0,0.0
1757904959.0626876,-8.729332735094934,0.0,0.0,0.0,0.0,0.0,-9.73,-0.10999999999999943,-3.4899999999999998,0.259,0.8140000000000001,-0.042,0.005003336324525333,0.0,0.0,0.0,0.0,0.0
1757904959.1127288,-14.043726357345474,0.0,0.0,0.0,0.0,0.0,-10.27,-0.28999999999999915,-5.609999999999999,0.265,0.8049999999999999,-0.037,-0.01886863178672737,0.0,0.0,0.0,0.0,0.0
1757904959.1627972,-7.739589782410952,0.0,0.0,0.0,0.0,0.0,-10.59,-0.1899999999999995,-3.09,0.28,0.777,-0.026999999999999996,0.014252051087945241,0.0,0.0,0.0,0.0,0.0
1757904959.2226403,-12.24157873805499,0.0,0.0,0.0,0.0,0.0,-11.029999999999998,-0.5099999999999998,-4.87,0.271,0.8069999999999999,-0.032,-0.006057893690274963,0.0,0.0,0.0,0.0,0.0
1757904959.2727032,-10.481710261212145,0.0,0.0,0.0,0.0,0.0,-9.93,0.15000000000000036,-4.1899999999999995,0.257,0.833,-0.047,-0.002758551306060726,0.0,0.0,0.0,0.0,0.0
1757904959.3326561,-8.541150390901684,0.0,0.0,0.0,0.0,0.0,-10.989999999999998,0.21000000000000085,-3.41,0.268,0.746,-0.013999999999999999,0.01224424804549157,0.0,0.0,0.0,0.0,0.0
1757904959.382657,-10.292290804286477,0.0,0.0,0.0,0.0,0.0,-10.89,-0.46999999999999886,-4.09,0.25,0.769,-0.012999999999999998,0.0029885459785676184,0.0,0.0,0.0,0.0,0.0
1757904959.4326725,-11.470887062472546,0.0,0.0,0.0,0.0,0.0,-11.09,-0.41000000000000014,-4.57,0.28,0.8240000000000001,-0.031,-0.001904435312362729,0.0,0.0,0.0,0.0,0.0
1757904959.4826748,-11.316856895799292,0.0,0.0,0.0,0.0,0.0,-11.309999999999999,-0.8300000000000001,-4.449999999999999,0.261,0.8029999999999999,-0.022000000000000006,-3.428447899646692e-05,0.0,0.0,0.0,0.0,0.0
1757904959.533526,-10.366592979373694,0.0,0.0,0.0,0.0,0.0,-12.849999999999998,-0.5499999999999989,-4.109999999999999,0.273,0.773,-0.034,0.01241703510313152,0.0,0.0,0.0,0.0,0.0
1757904959.5926304,-8.465296805192361,0.0,0.0,0.0,0.0,0.0,-10.149999999999999,-0.33000000000000007,-3.37,0.255,0.779,-0.023999999999999994,0.008423515974038188,0.0,0.0,0.0,0.0,0.0
1757904959.6427412,-10.024781793136448,0.0,0.0,0.0,0.0,0.0,-10.689999999999998,-1.049999999999999,-3.87,0.246,0.786,-0.035,0.0033260910343177485,0.0,0.0,0.0,0.0,0.0
1757904959.704016,-11.878394251749688,0.0,0.0,0.0,0.0,0.0,-10.689999999999998,-0.4499999999999993,-4.73,0.239,0.779,-0.028999999999999998,-0.0059419712587484505,0.0,0.0,0.0,0.0,0.0
1757904959.7626545,-12.630568079069127,0.0,0.0,0.0,0.0,0.0,-10.95,-0.15000000000000036,-5.05,0.274,0.788,-0.054,-0.008402840395345636,0.0,0.0,0.0,0.0,0.0
1757904959.8127172,-9.702641392940379,0.0,0.0,0.0,0.0,0.0,-10.79,-0.4900000000000002,-3.85,0.258,0.8069999999999999,-0.047,0.005436793035298102,0.0,0.0,0.0,0.0,0.0
1757904959.8728156,-11.575026997808685,0.0,0.0,0.0,0.0,0.0,-12.329999999999998,-0.4299999999999997,-4.609999999999999,0.23500000000000001,0.845,-0.007000000000000006,0.0037748650109565673,0.0,0.0,0.0,0.0,0.0
1757904959.9326577,-12.611552243875451,0.0,0.0,0.0,0.0,0.0,-12.649999999999999,-0.5899999999999999,-5.01,0.243,0.821,-0.039,0.00019223878062273769,0.0,0.0,0.0,0.0,0.0
1757904959.9826727,-10.943776770384162,0.0,0.0,0.0,0.0,0.0,-10.93,0.4900000000000002,-4.35,0.272,0.8109999999999999,-0.033,-6.888385192080904e-05,0.0,0.0,0.0,0.0,0.0
1757904960.0335453,-11.591861369081325,0.0,0.0,0.0,0.0,0.0,-12.489999999999998,0.25,-4.63,0.269,0.835,-0.03,0.004490693154593366,0.0,0.0,0.0,0.0,0.0
1757904960.0926468,-9.43060178355549,0.0,0.0,0.0,0.0,0.0,-10.189999999999998,-1.33,-3.53,0.234,0.8200000000000001,-0.033,0.0037969910822225382,0.0,0.0,0.0,0.0,0.0
1757904960.142722,-12.792820252000727,0.0,0.0,0.0,0.0,0.0,-10.629999999999999,-0.2699999999999996,-5.109999999999999,0.27,0.829,-0.032,-0.01081410126000364,0.0,0.0,0.0,0.0,0.0
1757904960.1928577,-11.391060091141647,0.0,0.0,0.0,0.0,0.0,-10.629999999999999,-0.4900000000000002,-4.529999999999999,0.276,0.798,-0.023000000000000007,-0.0038053004557082382,0.0,0.0,0.0,0.0,0.0
1757904960.252663,-11.910971832726329,0.0,0.0,0.0,0.0,0.0,-12.009999999999998,-0.3699999999999992,-4.75,0.241,0.788,-0.045,0.0004951408363683462,0.0,0.0,0.0,0.0,0.0
1757904960.3126507,-12.084339038606952,0.0,0.0,0.0,0.0,0.0,-10.89,-0.1899999999999995,-4.83,0.245,0.797,-0.023000000000000007,-0.005971695193034758,0.0,0.0,0.0,0.0,0.0
1757904960.3626552,-9.246147846535875,0.0,0.0,0.0,0.0,0.0,-11.369999999999997,-0.25,-3.69,0.25,0.764,-0.035,0.010619260767320613,0.0,0.0,0.0,0.0,0.0
1757904960.4126713,-11.629542123402793,0.0,0.0,0.0,0.0,0.0,-10.709999999999997,-0.4499999999999993,-4.63,0.261,0.784,-0.033,-0.004597710617013977,0.0,0.0,0.0,0.0,0.0
1757904960.4726918,-11.243053410884427,0.0,0.0,0.0,0.0,0.0,-11.309999999999999,0.6500000000000004,-4.449999999999999,0.266,0.794,-0.054,0.0003347329455778603,0.0,0.0,0.0,0.0,0.0
1757904960.5326614,-9.999812498242152,0.0,0.0,0.0,0.0,0.0,-11.869999999999997,-0.629999999999999,-3.9499999999999997,0.249,0.789,-0.022000000000000006,0.009350937508789228,0.0,0.0,0.0,0.0,0.0
1757904960.5828822,-11.97627863737313,0.0,0.0,0.0,0.0,0.0,-10.89,0.07000000000000028,-4.79,0.258,0.747,-0.031,-0.005431393186865643,0.0,0.0,0.0,0.0,0.0
1757904960.63295,-8.882074645036484,0.0,0.0,0.0,0.0,0.0,-11.129999999999999,-0.5499999999999989,-3.51,0.262,0.776,-0.026999999999999996,0.011239626774817576,0.0,0.0,0.0,0.0,0.0
1757904960.6926699,-10.072301127349201,0.0,0.0,0.0,0.0,0.0,-9.309999999999999,-0.3899999999999988,-4.01,0.261,0.812,-0.024999999999999994,-0.003811505636746011,0.0,0.0,0.0,0.0,0.0
1757904960.742967,-9.060698096725218,0.0,0.0,0.0,0.0,0.0,-9.95,0.7300000000000004,-3.55,0.261,0.787,-0.008999999999999994,0.004446509516373904,0.0,0.0,0.0,0.0,0.0
1757904960.8028233,-12.456775264890988,0.0,0.0,0.0,0.0,0.0,-9.77,-0.5700000000000003,-4.949999999999999,0.262,0.813,-0.011999999999999997,-0.013433876324454941,0.0,0.0,0.0,0.0,0.0
1757904960.8627355,-11.200502220882777,0.0,0.0,0.0,0.0,0.0,-11.25,0.7900000000000009,-4.41,0.26,0.8,-0.012999999999999998,0.0002474888955861143,0.0,0.0,0.0,0.0,0.0
1757904960.9226573,-11.160253133329906,0.0,0.0,0.0,0.0,0.0,-11.509999999999998,-0.8099999999999987,-4.390000000000001,0.24,0.787,-0.017,0.001748734333350459,0.0,0.0,0.0,0.0,0.0
1757904960.9727488,-9.176668785567013,0.0,0.0,0.0,0.0,0.0,-12.05,-0.07000000000000028,-3.67,0.269,0.812,-0.038,0.014366656072164936,0.0,0.0,0.0,0.0,0.0
1757904961.0335696,-10.600294807221164,0.0,0.0,0.0,0.0,0.0,-11.45,-0.6500000000000004,-4.1899999999999995,0.258,0.794,-0.028999999999999998,0.004248525963894174,0.0,0.0,0.0,0.0,0.0
1757904961.0926228,-10.601945576166669,0.0,0.0,0.0,0.0,0.0,-12.649999999999999,-0.5099999999999998,-4.21,0.26,0.8,-0.028999999999999998,0.010240272119166649,0.0,0.0,0.0,0.0,0.0
1757904961.1426806,-13.161164462159114,0.0,0.0,0.0,0.0,0.0,-11.39,-0.3899999999999988,-5.25,0.257,0.782,-0.037,-0.008855822310795567,0.0,0.0,0.0,0.0,0.0
1757904961.2029757,-10.790563006627595,0.0,0.0,0.0,0.0,0.0,-12.689999999999998,-0.629999999999999,-4.27,0.267,0.813,-0.022000000000000006,0.009497184966862013,0.0,0.0,0.0,0.0,0.0
1757904961.2628,-13.500231479496936,0.0,0.0,0.0,0.0,0.0,-12.369999999999997,-0.33000000000000007,-5.390000000000001,0.276,0.8140000000000001,-0.047,-0.005651157397484692,0.0,0.0,0.0,0.0,0.0
1757904961.3226318,-10.557284215175795,0.0,0.0,0.0,0.0,0.0,-10.45,-0.33000000000000007,-4.21,0.261,0.781,-0.032,-0.0005364210758789767,0.0,0.0,0.0,0.0,0.0
1757904961.3751276,-11.940110971008604,0.0,0.0,0.0,0.0,0.0,-11.75,-1.0899999999999999,-4.65,0.238,0.768,-0.024999999999999994,-0.0009505548550430198,0.0,0.0,0.0,0.0,0.0
1757904961.4331229,-12.269321497132594,0.0,0.0,0.0,0.0,0.0,-11.969999999999999,-0.8699999999999992,-4.83,0.223,0.8049999999999999,-0.057,-0.0014966074856629773,0.0,0.0,0.0,0.0,0.0
1757904961.4926236,-9.836475486677125,0.0,0.0,0.0,0.0,0.0,-13.169999999999998,-0.7099999999999991,-3.87,0.258,0.789,-0.051000000000000004,0.016667622566614363,0.0,0.0,0.0,0.0,0.0
1757904961.5426946,-10.64970656872761,0.0,0.0,0.0,0.0,0.0,-13.249999999999996,0.2900000000000009,-4.25,0.28300000000000003,0.795,-0.031,0.013001467156361936,0.0,0.0,0.0,0.0,0.0
1757904961.6027815,-14.365279322031993,0.0,0.0,0.0,0.0,0.0,-11.55,0.4299999999999997,-5.73,0.257,0.796,-0.011999999999999997,-0.014076396610159962,0.0,0.0,0.0,0.0,0.0
1757904961.662765,-9.360355228301968,0.0,0.0,0.0,0.0,0.0,-12.349999999999998,-1.1899999999999995,-3.55,0.261,0.76,-0.045,0.01494822385849015,0.0,0.0,0.0,0.0,0.0
1757904961.722647,-5.311897024604298,0.0,0.0,0.0,0.0,0.0,-13.789999999999996,-0.25,-2.11,0.232,0.812,-0.06,0.04239051487697848,0.0,0.0,0.0,0.0,0.0
1757904961.772849,-5.5368086475875256,0.0,0.0,0.0,0.0,0.0,-10.709999999999997,0.33000000000000007,-2.19,0.273,0.8280000000000001,-0.045,0.02586595676206236,0.0,0.0,0.0,0.0,0.0
1757904961.832649,-4.0,0.0,0.0,0.0,0.0,0.0,-7.369999999999997,-0.4299999999999997,-1.3499999999999999,0.249,0.8220000000000001,-0.053,0.016849999999999987,0.0,0.0,0.0,0.0,0.0
1757904961.8826642,-4.138991423040157,0.0,0.0,0.0,0.0,0.0,-5.849999999999998,-1.129999999999999,-1.21,0.26,0.777,-0.059,0.008555042884799203,0.0,0.0,0.0,0.0,0.0
1757904961.9426656,-6.22545179083414,0.0,0.0,0.0,0.0,0.0,-5.869999999999997,-0.02999999999999936,-2.49,0.26,0.8160000000000001,-0.045,-0.001777258954170713,0.0,0.0,0.0,0.0,0.0
1757904961.9926746,-4.50624566573994,0.0,0.0,0.0,0.0,0.0,-5.09,-0.5700000000000003,-1.71,0.255,0.779,-0.057,0.0029187716713002976,0.0,0.0,0.0,0.0,0.0
1757904962.0536067,-5.996769963905569,0.0,0.0,0.0,0.0,0.0,-5.329999999999998,-0.3699999999999992,-2.37,0.268,0.827,-0.05,-0.0033338498195278543,0.0,0.0,0.0,0.0,0.0
1757904962.1127045,-4.064018946806227,0.0,0.0,0.0,0.0,0.0,-6.509999999999998,-0.4900000000000002,-1.5499999999999998,0.28400000000000003,0.8009999999999999,-0.061,0.012229905265968856,0.0,0.0,0.0,0.0,0.0
1757904962.172752,-4.77558896891263,0.0,0.0,0.0,0.0,0.0,-5.390000000000001,-0.02999999999999936,-1.91,0.256,0.8280000000000001,-0.051000000000000004,0.0030720551554368524,0.0,0.0,0.0,0.0,0.0
1757904962.232679,-6.394626650555916,0.0,0.0,0.0,0.0,0.0,-4.91,-1.0099999999999998,-2.3499999999999996,0.251,0.825,-0.057,-0.007423133252779581,0.0,0.0,0.0,0.0,0.0
1757904962.2926347,-4.793876302117108,0.0,0.0,0.0,0.0,0.0,-5.09,-0.16999999999999993,-1.91,0.266,0.8160000000000001,-0.06,0.0014806184894144581,0.0,0.0,0.0,0.0,0.0
1757904962.342667,-4.0,0.0,0.0,0.0,0.0,0.0,-5.669999999999998,-0.15000000000000036,-1.5899999999999999,0.26,0.8160000000000001,-0.067,0.008349999999999991,0.0,0.0,0.0,0.0,0.0
1757904962.402782,-4.246321937865757,0.0,0.0,0.0,0.0,0.0,-6.07,-0.16999999999999993,-1.69,0.246,0.8049999999999999,-0.059,0.009118390310671218,0.0,0.0,0.0,0.0,0.0
1757904962.4626348,-4.630469738590244,0.0,0.0,0.0,0.0,0.0,-6.050000000000001,-0.08999999999999986,-1.85,0.268,0.798,-0.054,0.007097651307048785,0.0,0.0,0.0,0.0,0.0
1757904962.512786,-4.6627513337084565,0.0,0.0,0.0,0.0,0.0,-5.050000000000001,-0.4499999999999993,-1.81,0.266,0.789,-0.043000000000000003,0.0019362433314577211,0.0,0.0,0.0,0.0,0.0
1757904962.5631924,-5.63748614188984,0.0,0.0,0.0,0.0,0.0,-4.709999999999997,-0.15000000000000036,-2.25,0.267,0.8300000000000001,-0.058,-0.004637430709449215,0.0,0.0,0.0,0.0,0.0
1757904962.6227233,-6.597442686374773,0.0,0.0,0.0,0.0,0.0,-4.23,-0.3899999999999988,-2.61,0.244,0.8420000000000001,-0.053,-0.011837213431873864,0.0,0.0,0.0,0.0,0.0
1757904962.674091,-4.835933208802619,0.0,0.0,0.0,0.0,0.0,-4.649999999999999,-0.129999999999999,-1.93,0.245,0.798,-0.048,-0.0009296660440130999,0.0,0.0,0.0,0.0,0.0
1757904962.7252107,-6.039971026420574,0.0,0.0,0.0,0.0,0.0,-4.669999999999998,0.16999999999999993,-2.41,0.281,0.827,-0.069,-0.006849855132102878,0.0,0.0,0.0,0.0,0.0
1757904962.782668,-5.484637636161572,0.0,0.0,0.0,0.0,0.0,-4.829999999999998,0.13000000000000078,-2.19,0.28,0.8280000000000001,-0.07200000000000001,-0.0032731881808078667,0.0,0.0,0.0,0.0,0.0
1757904962.8326776,-4.0,0.0,0.0,0.0,0.0,0.0,-4.550000000000001,-0.4499999999999993,-1.3499999999999999,0.242,0.8140000000000001,-0.048,0.0027500000000000037,0.0,0.0,0.0,0.0,0.0
1757904962.8926516,-4.541613149531782,0.0,0.0,0.0,0.0,0.0,-5.109999999999999,-0.3099999999999987,-1.79,0.246,0.806,-0.055,0.002841934252341085,0.0,0.0,0.0,0.0,0.0
1757904962.9429739,-6.047830189415044,0.0,0.0,0.0,0.0,0.0,-4.27,0.21000000000000085,-2.41,0.262,0.8560000000000001,-0.061,-0.008889150947075222,0.0,0.0,0.0,0.0,0.0
1757904963.0028017,-4.225073963849627,0.0,0.0,0.0,0.0,0.0,-4.629999999999999,-0.009999999999999787,-1.69,0.266,0.781,-0.053,0.002024630180751861,0.0,0.0,0.0,0.0,0.0
1757904963.0634227,-4.780298107858965,0.0,0.0,0.0,0.0,0.0,-4.59,-0.28999999999999915,-1.89,0.252,0.8220000000000001,-0.045,-0.0009514905392948237,0.0,0.0,0.0,0.0,0.0
1757904963.1227803,-4.0,0.0,0.0,0.0,0.0,0.0,-5.27,-0.4900000000000002,-1.33,0.254,0.77,-0.054,0.006349999999999998,0.0,0.0,0.0,0.0,0.0
1757904963.1826637,-7.375381346072893,0.0,0.0,0.0,0.0,0.0,-4.07,-0.02999999999999936,-2.95,0.264,0.8700000000000001,-0.058,-0.016526906730364464,0.0,0.0,0.0,0.0,0.0
1757904963.2326813,-4.0,0.0,0.0,0.0,0.0,0.0,-4.709999999999997,-0.33000000000000007,-1.25,0.256,0.787,-0.063,0.0035499999999999868,0.0,0.0,0.0,0.0,0.0
1757904963.2827306,-6.608044340044941,0.0,0.0,0.0,0.0,0.0,-5.869999999999997,-1.4499999999999993,-2.21,0.247,0.825,-0.06,-0.0036902217002247185,0.0,0.0,0.0,0.0,0.0
1757904963.3427126,-5.279796397589589,0.0,0.0,0.0,0.0,0.0,-4.169999999999998,-0.08999999999999986,-2.11,0.258,0.843,-0.046,-0.005548981987947954,0.0,0.0,0.0,0.0,0.0
1757904963.4027386,-4.759858191164942,0.0,0.0,0.0,0.0,0.0,-4.75,-0.4499999999999993,-1.85,0.246,0.8029999999999999,-0.052,-4.92909558247101e-05,0.0,0.0,0.0,0.0,0.0
1757904963.462661,-5.344272635261041,0.0,0.0,0.0,0.0,0.0,-4.469999999999999,0.8300000000000001,-1.97,0.281,0.797,-0.047,-0.004371363176305212,0.0,0.0,0.0,0.0,0.0
1757904963.5128725,-5.925474664531103,0.0,0.0,0.0,0.0,0.0,-4.869999999999997,-0.02999999999999936,-2.37,0.249,0.833,-0.043000000000000003,-0.00527737332265553,0.0,0.0,0.0,0.0,0.0
1757904963.5737386,-4.871986247928046,0.0,0.0,0.0,0.0,0.0,-5.77,-0.2699999999999996,-1.93,0.259,0.799,-0.055,0.004490068760359769,0.0,0.0,0.0,0.0,0.0
1757904963.6326542,-4.129921306756339,0.0,0.0,0.0,0.0,0.0,-4.529999999999998,-0.3699999999999992,-1.6099999999999999,0.247,0.815,-0.048,0.002000393466218293,0.0,0.0,0.0,0.0,0.0
1757904963.682656,-4.628849749127745,0.0,0.0,0.0,0.0,0.0,-4.949999999999999,-0.3899999999999988,-1.81,0.229,0.8300000000000001,-0.049,0.0016057512543612696,0.0,0.0,0.0,0.0,0.0
1757904963.742723,-5.288312585314904,0.0,0.0,0.0,0.0,0.0,-5.009999999999998,0.15000000000000036,-2.11,0.244,0.8069999999999999,-0.056,-0.0013915629265745277,0.0,0.0,0.0,0.0,0.0
1757904963.802834,-4.492354616456719,0.0,0.0,0.0,0.0,0.0,-4.390000000000001,-0.3099999999999987,-1.77,0.26,0.792,-0.047,-0.0005117730822835931,0.0,0.0,0.0,0.0,0.0
1757904963.8626537,-7.190705806803669,0.0,0.0,0.0,0.0,0.0,-4.849999999999998,-0.1899999999999995,-2.87,0.256,0.8260000000000001,-0.063,-0.011703529034018355,0.0,0.0,0.0,0.0,0.0
1757904963.9127686,-5.7815439114478755,0.0,0.0,0.0,0.0,0.0,-5.050000000000001,0.11000000000000121,-2.31,0.268,0.802,-0.067,-0.003657719557239374,0.0,0.0,0.0,0.0,0.0
1757904963.9726822,-4.935711701467175,0.0,0.0,0.0,0.0,0.0,-5.43,-0.129999999999999,-1.97,0.261,0.8260000000000001,-0.06,0.0024714414926641217,0.0,0.0,0.0,0.0,0.0
1757904964.0326602,-4.707042595940682,0.0,0.0,0.0,0.0,0.0,-5.91,-0.8300000000000001,-1.69,0.259,0.777,-0.049,0.0060147870202965905,0.0,0.0,0.0,0.0,0.0
1757904964.0834534,-5.816033871978395,0.0,0.0,0.0,0.0,0.0,-5.550000000000001,-0.41000000000000014,-2.29,0.247,0.841,-0.043000000000000003,-0.0013301693598919727,0.0,0.0,0.0,0.0,0.0
1757904964.142639,-4.978076937934968,0.0,0.0,0.0,0.0,0.0,-5.349999999999998,-0.9499999999999993,-1.75,0.23600000000000002,0.8089999999999999,-0.05,0.0018596153103251512,0.0,0.0,0.0,0.0,0.0
1757904964.1926668,-5.266046904462588,0.0,0.0,0.0,0.0,0.0,-5.349999999999998,0.39000000000000057,-2.07,0.262,0.8160000000000001,-0.058,0.0004197654776870508,0.0,0.0,0.0,0.0,0.0
1757904964.2427342,-4.933178488560898,0.0,0.0,0.0,0.0,0.0,-5.23,-0.629999999999999,-1.87,0.234,0.788,-0.045,0.001484107557195511,0.0,0.0,0.0,0.0,0.0
1757904964.302675,-4.327961413876052,0.0,0.0,0.0,0.0,0.0,-4.529999999999998,-0.2699999999999996,-1.71,0.243,0.813,-0.035,0.0010101929306197289,0.0,0.0,0.0,0.0,0.0
1757904964.3526964,-4.649327908418592,0.0,0.0,0.0,0.0,0.0,-4.489999999999998,-0.1899999999999995,-1.85,0.251,0.81,-0.066,-0.0007966395420929695,0.0,0.0,0.0,0.0,0.0
1757904964.4132285,-4.0,0.0,0.0,0.0,0.0,0.0,-4.829999999999998,-0.15000000000000036,-1.0899999999999999,0.262,0.8069999999999999,-0.047,0.004149999999999991,0.0,0.0,0.0,0.0,0.0
1757904964.4727123,-4.328539014494382,0.0,0.0,0.0,0.0,0.0,-5.709999999999997,-0.07000000000000028,-1.73,0.267,0.823,-0.044,0.006907304927528077,0.0,0.0,0.0,0.0,0.0
1757904964.522735,-4.433536962742049,0.0,0.0,0.0,0.0,0.0,-5.689999999999998,-0.3899999999999988,-1.73,0.256,0.799,-0.06,0.006282315186289744,0.0,0.0,0.0,0.0,0.0
1757904964.5727363,-5.8151741160518995,0.0,0.0,0.0,0.0,0.0,-4.469999999999999,-0.5899999999999999,-2.25,0.252,0.8400000000000001,-0.036,-0.006725870580259503,0.0,0.0,0.0,0.0,0.0
1757904964.632632,-6.749537021159303,0.0,0.0,0.0,0.0,0.0,-4.550000000000001,-0.6099999999999994,-2.63,0.241,0.8320000000000001,-0.049,-0.01099768510579651,0.0,0.0,0.0,0.0,0.0
1757904964.6826646,-4.363055122273841,0.0,0.0,0.0,0.0,0.0,-5.57,-0.23000000000000043,-1.73,0.28200000000000003,0.812,-0.039,0.006034724388630797,0.0,0.0,0.0,0.0,0.0
1757904964.7426639,-5.093255344080051,0.0,0.0,0.0,0.0,0.0,-5.390000000000001,-0.5899999999999999,-1.95,0.249,0.81,-0.051000000000000004,0.0014837232795997491,0.0,0.0,0.0,0.0,0.0
1757904964.8027709,-5.53455056892608,0.0,0.0,0.0,0.0,0.0,-4.91,-0.7300000000000004,-2.09,0.253,0.823,-0.051000000000000004,-0.003122752844630399,0.0,0.0,0.0,0.0,0.0
1757904964.8528097,-5.560238304245601,0.0,0.0,0.0,0.0,0.0,-5.109999999999999,-0.25,-2.21,0.267,0.8220000000000001,-0.05,-0.0022511915212280087,0.0,0.0,0.0,0.0,0.0
1757904964.9129717,-5.872925165537186,0.0,0.0,0.0,0.0,0.0,-5.23,-1.3099999999999987,-1.95,0.23500000000000001,0.812,-0.059,-0.0032146258276859285,0.0,0.0,0.0,0.0,0.0
1757904964.9727554,-4.233940245208947,0.0,0.0,0.0,0.0,0.0,-5.09,0.11000000000000121,-1.69,0.267,0.798,-0.06,0.0042802987739552645,0.0,0.0,0.0,0.0,0.0
1757904965.0327983,-4.14683614337485,0.0,0.0,0.0,0.0,0.0,-5.509999999999998,0.16999999999999993,-1.65,0.29800000000000004,0.8180000000000001,-0.064,0.006815819283125739,0.0,0.0,0.0,0.0,0.0
1757904965.083544,-5.749891303320438,0.0,0.0,0.0,0.0,0.0,-6.029999999999998,0.370000000000001,-2.27,0.278,0.812,-0.041,0.001400543483397798,0.0,0.0,0.0,0.0,0.0
1757904965.142868,-4.0,0.0,0.0,0.0,0.0,0.0,-4.949999999999999,-0.9699999999999989,-1.1099999999999999,0.28400000000000003,0.8109999999999999,-0.036,0.004749999999999996,0.0,0.0,0.0,0.0,0.0
1757904965.2027297,-4.0,0.0,0.0,0.0,0.0,0.0,-4.809999999999999,0.07000000000000028,-1.51,0.272,0.788,-0.063,0.004049999999999994,0.0,0.0,0.0,0.0,0.0
1757904965.262681,-6.103380210997836,0.0,0.0,0.0,0.0,0.0,-5.129999999999999,-0.7899999999999991,-2.31,0.249,0.8260000000000001,-0.056,-0.004866901054989183,0.0,0.0,0.0,0.0,0.0
1757904965.3127146,-4.251617339319238,0.0,0.0,0.0,0.0,0.0,-5.77,-0.1899999999999995,-1.69,0.257,0.813,-0.045,0.007591913303403808,0.0,0.0,0.0,0.0,0.0
1757904965.37265,-5.599665168561421,0.0,0.0,0.0,0.0,0.0,-4.869999999999997,0.47000000000000064,-2.19,0.257,0.825,-0.048,-0.0036483258428071166,0.0,0.0,0.0,0.0,0.0
1757904965.4326553,-4.395594385290798,0.0,0.0,0.0,0.0,0.0,-5.57,-0.5499999999999989,-1.67,0.277,0.775,-0.05,0.00587202807354601,0.0,0.0,0.0,0.0,0.0
1757904965.4826658,-5.539065805711283,0.0,0.0,0.0,0.0,0.0,-5.050000000000001,-0.6099999999999994,-2.13,0.257,0.791,-0.057,-0.0024453290285564133,0.0,0.0,0.0,0.0,0.0
1757904965.5327165,-7.953379784720454,0.0,0.0,0.0,0.0,0.0,-4.469999999999999,0.6699999999999999,-3.11,0.279,0.8440000000000001,-0.075,-0.017416898923602275,0.0,0.0,0.0,0.0,0.0
1757904965.5933049,-6.879771071772664,0.0,0.0,0.0,0.0,0.0,-5.189999999999998,-0.9299999999999997,-2.59,0.238,0.8240000000000001,-0.05,-0.008448855358863331,0.0,0.0,0.0,0.0,0.0
1757904965.6526859,-4.707042595940682,0.0,0.0,0.0,0.0,0.0,-5.689999999999998,-0.34999999999999964,-1.85,0.25,0.793,-0.059,0.004914787020296578,0.0,0.0,0.0,0.0,0.0
1757904965.7027042,-6.074639907023296,0.0,0.0,0.0,0.0,0.0,-4.43,-0.3099999999999987,-2.41,0.247,0.835,-0.03,-0.008223199535116481,0.0,0.0,0.0,0.0,0.0
1757904965.762656,-4.0,0.0,0.0,0.0,0.0,0.0,-5.829999999999998,-0.28999999999999915,-1.41,0.267,0.775,-0.058,0.009149999999999991,0.0,0.0,0.0,0.0,0.0
1757904965.8126612,-4.0,0.0,0.0,0.0,0.0,0.0,-5.07,0.21000000000000085,-1.5699999999999998,0.252,0.813,-0.067,0.0053500000000000015,0.0,0.0,0.0,0.0,0.0
1757904965.872683,-6.246298904151161,0.0,0.0,0.0,0.0,0.0,-4.59,-0.4900000000000002,-2.45,0.256,0.841,-0.073,-0.008281494520755809,0.0,0.0,0.0,0.0,0.0
1757904965.9326746,-4.131131806176122,0.0,0.0,0.0,0.0,0.0,-4.969999999999999,-0.4499999999999993,-1.5899999999999999,0.247,0.815,-0.047,0.004194340969119383,0.0,0.0,0.0,0.0,0.0
1757904965.982845,-4.713942087043497,0.0,0.0,0.0,0.0,0.0,-5.329999999999998,-0.6500000000000004,-1.77,0.273,0.81,-0.057,0.003080289564782506,0.0,0.0,0.0,0.0,0.0
1757904966.0429344,-4.364200957792846,0.0,0.0,0.0,0.0,0.0,-4.529999999999998,-0.5700000000000003,-1.65,0.233,0.8069999999999999,-0.052,0.0008289952110357568,0.0,0.0,0.0,0.0,0.0
1757904966.0933568,-4.903697584476432,0.0,0.0,0.0,0.0,0.0,-5.149999999999999,-0.34999999999999964,-1.93,0.261,0.8280000000000001,-0.052,0.0012315120776178335,0.0,0.0,0.0,0.0,0.0
1757904966.1526587,-9.465529567858313,0.0,0.0,0.0,0.0,0.0,-4.609999999999999,0.6500000000000004,-3.73,0.258,0.8,-0.055,-0.02427764783929157,0.0,0.0,0.0,0.0,0.0
1757904966.202971,-7.283972130644101,0.0,0.0,0.0,0.0,0.0,-4.890000000000001,-0.3699999999999992,-2.8899999999999997,0.249,0.78,-0.055,-0.011969860653220504,0.0,0.0,0.0,0.0,0.0
1757904966.2626398,-4.567959062863851,0.0,0.0,0.0,0.0,0.0,-4.93,0.25,-1.81,0.269,0.778,-0.066,0.001810204685680743,0.0,0.0,0.0,0.0,0.0
1757904966.312658,-8.245377492874416,0.0,0.0,0.0,0.0,0.0,-6.649999999999999,-0.4299999999999997,-3.27,0.245,0.787,-0.063,-0.00797688746437209,0.0,0.0,0.0,0.0,0.0
1757904966.3726962,-9.828847847026628,0.0,0.0,0.0,0.0,0.0,-7.43,-0.5700000000000003,-3.89,0.256,0.786,-0.097,-0.011994239235133142,0.0,0.0,0.0,0.0,0.0
1757904966.432647,-8.648482525853884,0.0,0.0,0.0,0.0,0.0,-6.809999999999999,0.45000000000000107,-3.43,0.225,0.778,-0.097,-0.009192412629269429,0.0,0.0,0.0,0.0,0.0
1757904966.483003,-10.425029975976088,0.0,0.0,0.0,0.0,0.0,-7.369999999999997,-0.009999999999999787,-4.17,0.247,0.74,-0.101,-0.015275149879880452,0.0,0.0,0.0,0.0,0.0
1757904966.5428424,-13.609968772925233,0.0,0.0,0.0,0.0,0.0,-9.91,-0.3899999999999988,-5.43,0.259,0.752,-0.011999999999999997,-0.018499843864626168,0.0,0.0,0.0,0.0,0.0
1757904966.6036758,-10.726893772197057,0.0,0.0,0.0,0.0,0.0,-11.469999999999999,-0.5899999999999999,-4.25,0.254,0.776,-0.022000000000000006,0.0037155311390147097,0.0,0.0,0.0,0.0,0.0
1757904966.6626964,-13.718828302737812,0.0,0.0,0.0,0.0,0.0,-11.709999999999997,1.0300000000000011,-5.390000000000001,0.29700000000000004,0.756,-0.03,-0.010044141513689073,0.0,0.0,0.0,0.0,0.0
1757904966.7127244,-13.426885342476115,0.0,0.0,0.0,0.0,0.0,-12.05,-0.08999999999999986,-5.369999999999999,0.251,0.738,-0.027999999999999997,-0.006884426712380574,0.0,0.0,0.0,0.0,0.0
1757904966.7726498,-14.956812828941867,0.0,0.0,0.0,0.0,0.0,-13.190000000000001,-0.3899999999999988,-5.970000000000001,0.28200000000000003,0.78,-0.0010000000000000009,-0.00883406414470933,0.0,0.0,0.0,0.0,0.0
1757904966.8226585,-14.500215515639757,0.0,0.0,0.0,0.0,0.0,-13.05,-0.5899999999999999,-5.77,0.267,0.761,-0.016,-0.007251077578198784,0.0,0.0,0.0,0.0,0.0
1757904966.8730726,-15.037993549672773,0.0,0.0,0.0,0.0,0.0,-14.989999999999998,-0.25,-6.01,0.279,0.77,-0.0040000000000000036,-0.00023996774836387402,0.0,0.0,0.0,0.0,0.0
1757904966.9326088,-15.632378257961902,0.0,0.0,0.0,0.0,0.0,-14.789999999999996,-1.129999999999999,-6.15,0.281,0.783,-0.006000000000000005,-0.004211891289809531,0.0,0.0,0.0,0.0,0.0
1757904966.982657,-13.829361879710863,0.0,0.0,0.0,0.0,0.0,-14.77,0.4900000000000002,-5.51,0.28500000000000003,0.777,-0.006000000000000005,0.0047031906014456835,0.0,0.0,0.0,0.0,0.0
1757904967.0326576,-14.484517596385457,0.0,0.0,0.0,0.0,0.0,-15.27,-0.20999999999999908,-5.789999999999999,0.29600000000000004,0.757,-0.017,0.003927412018072713,0.0,14.409532617506613,0.0,0.0,0.0
1757904967.0832088,-15.251434358774258,0.0,0.0,0.0,0.0,0.0,-14.45,-0.6099999999999994,-6.07,0.28500000000000003,0.759,-0.008999999999999994,-0.004007171793871294,0.0,0.0,0.0,0.0,0.0
1757904967.1434672,-10.370932937783367,0.0,0.0,0.0,0.0,0.0,-15.59,-3.0699999999999994,-2.79,0.262,0.788,-0.026999999999999996,0.026095335311083163,0.0,0.0,0.0,0.0,0.0
1757904967.2028813,-17.57971131731121,0.0,0.0,0.0,0.0,0.0,-16.650000000000002,1.0700000000000003,-6.949999999999999,0.263,0.754,-0.067,-0.0046485565865560475,0.0,0.0,0.0,0.0,0.0
1757904967.2626455,-8.157282022830888,0.0,0.0,0.0,0.0,0.0,-14.429999999999996,-0.28999999999999915,-3.25,0.278,0.829,-0.0040000000000000036,0.03136358988584554,0.0,0.0,0.0,0.0,0.0
1757904967.3131623,-20.0,0.0,0.0,0.0,0.0,0.0,-16.849999999999998,-1.2699999999999996,-9.33,0.28,0.71,-0.062,-0.01575000000000001,0.0,0.0,0.0,0.0,0.0
1757904967.3726668,-19.47013739037298,0.0,0.0,0.0,0.0,0.0,-15.349999999999998,0.5300000000000011,-7.77,0.269,0.732,-0.03,-0.02060068695186491,0.0,0.0,0.0,0.0,0.0
1757904967.4326267,-15.101862467920967,0.0,0.0,0.0,0.0,0.0,-16.789999999999996,-1.25,-5.91,0.28900000000000003,0.759,-0.028999999999999998,0.008440687660395145,0.0,0.0,0.0,0.0,0.0
1757904967.4828022,-12.208449942560275,0.0,0.0,0.0,0.0,0.0,-16.889999999999997,-0.5700000000000003,-4.85,0.27,0.783,-0.026999999999999996,0.02340775028719861,0.0,0.0,0.0,0.0,0.0
1757904967.5427108,-13.04286203254485,0.0,0.0,0.0,0.0,0.0,-14.73,-1.3099999999999987,-5.05,0.28600000000000003,0.745,-0.046,0.008435689837275754,0.0,0.0,0.0,0.0,0.0
1757904967.6026917,-13.331400901630706,0.0,0.0,0.0,0.0,0.0,-12.25,0.4900000000000002,-5.3100000000000005,0.269,0.808,-0.010999999999999996,-0.005407004508153532,0.0,0.0,0.0,0.0,0.0
1757904967.6626532,-12.726989039046114,0.0,0.0,0.0,0.0,0.0,-12.209999999999997,-0.08999999999999986,-5.09,0.28900000000000003,0.785,-0.023999999999999994,-0.0025849451952305812,0.0,0.0,0.0,0.0,0.0
1757904967.7127056,-15.735509206886187,0.0,0.0,0.0,0.0,0.0,-13.330000000000002,-0.23000000000000043,-6.289999999999999,0.279,0.776,-0.045,-0.012027546034430925,0.0,0.0,0.0,0.0,0.0
1757904967.762732,-17.102814095931695,0.0,0.0,0.0,0.0,0.0,-12.59,-0.3899999999999988,-6.83,0.269,0.769,-0.024999999999999994,-0.022564070479658475,0.0,0.0,0.0,0.0,0.0
1757904967.822672,-12.78382767405756,0.0,0.0,0.0,0.0,0.0,-14.889999999999997,0.4900000000000002,-5.09,0.276,0.77,-0.023999999999999994,0.010530861629712182,0.0,0.0,0.0,0.0,0.0
1757904967.87269,-14.776036342673226,0.0,0.0,0.0,0.0,0.0,-15.429999999999996,-0.6899999999999995,-5.869999999999999,0.268,0.813,-0.017,0.0032698182866338498,0.0,0.0,0.0,0.0,0.0
1757904967.9326525,-14.323276510631215,0.0,0.0,0.0,0.0,0.0,-14.889999999999997,-0.46999999999999886,-5.709999999999999,0.28200000000000003,0.742,-0.044,0.002833617446843908,0.0,0.0,0.0,0.0,0.0
1757904967.9831758,-14.361624211766578,0.0,0.0,0.0,0.0,0.0,-14.809999999999999,0.41000000000000014,-5.73,0.29100000000000004,0.798,-0.036,0.0022418789411671014,0.0,0.0,0.0,0.0,0.0
1757904968.0432243,-14.361624211766578,0.0,0.0,0.0,0.0,0.0,-13.749999999999996,-0.41000000000000014,-5.73,0.269,0.769,-0.022000000000000006,-0.00305812105883291,0.0,0.0,0.0,0.0,0.0
1757904968.1027935,-13.318455240755213,0.0,0.0,0.0,0.0,0.0,-15.95,-0.4299999999999997,-5.3100000000000005,0.275,0.761,-0.021000000000000005,0.01315772379622393,0.0,0.0,0.0,0.0,0.0
1757904968.1538796,-15.359728187699154,0.0,0.0,0.0,0.0,0.0,-15.629999999999999,-0.9499999999999993,-6.07,0.252,0.758,-0.034,0.0013513590615042226,0.0,0.0,0.0,0.0,0.0
1757904968.2127044,-13.129975247501422,0.0,0.0,0.0,0.0,0.0,-15.010000000000002,-1.0299999999999994,-5.15,0.275,0.767,-0.031,0.009400123762492898,0.0,0.0,0.0,0.0,0.0
1757904968.2727087,-14.498491300821609,0.0,0.0,0.0,0.0,0.0,-15.27,-0.33000000000000007,-5.789999999999999,0.278,0.775,-0.023000000000000007,0.003857543495891953,0.0,0.0,0.0,0.0,0.0
1757904968.3227115,-11.830944594579082,0.0,0.0,0.0,0.0,0.0,-15.09,0.15000000000000036,-4.73,0.29300000000000004,0.748,-0.043000000000000003,0.01629527702710459,0.0,0.0,0.0,0.0,0.0
1757904968.3827739,-16.306172144313944,0.0,0.0,0.0,0.0,0.0,-13.249999999999996,-0.6500000000000004,-6.49,0.29600000000000004,0.791,-0.023000000000000007,-0.015280860721569738,0.0,0.0,0.0,0.0,0.0
1757904968.4428105,-12.908960066558421,0.0,0.0,0.0,0.0,0.0,-14.23,-1.25,-5.01,0.28300000000000003,0.75,-0.026999999999999996,0.006605199667207895,0.0,0.0,0.0,0.0,0.0
1757904968.5028253,-12.440910336466539,0.0,0.0,0.0,0.0,0.0,-13.470000000000002,-0.8099999999999987,-4.91,0.28300000000000003,0.744,-0.04,0.005145448317667318,0.0,0.0,0.0,0.0,0.0
1757904968.5626452,-14.457913058252908,0.0,0.0,0.0,0.0,0.0,-15.109999999999996,0.39000000000000057,-5.77,0.29600000000000004,0.773,-0.03,0.00326043470873544,0.0,0.0,0.0,0.0,0.0
1757904968.6128006,-12.94300003863092,0.0,0.0,0.0,0.0,0.0,-14.59,-0.5299999999999994,-5.15,0.28500000000000003,0.758,-0.033,0.008234999806845398,0.0,0.0,0.0,0.0,0.0
1757904968.6734009,-15.758370791423836,0.0,0.0,0.0,0.0,0.0,-14.09,-0.41000000000000014,-6.289999999999999,0.278,0.767,-0.033,-0.00834185395711918,0.0,0.0,0.0,0.0,0.0
1757904968.7326534,-14.821648019029462,0.0,0.0,0.0,0.0,0.0,-14.010000000000002,-0.46999999999999886,-5.91,0.28900000000000003,0.743,-0.032,-0.004058240095147303,0.0,0.0,0.0,0.0,0.0
1757904968.783001,-15.761702002004728,0.0,0.0,0.0,0.0,0.0,-13.23,-0.4299999999999997,-6.289999999999999,0.272,0.797,-0.019000000000000003,-0.012658510010023641,0.0,0.0,0.0,0.0,0.0
1757904968.8427978,-13.661304842510468,0.0,0.0,0.0,0.0,0.0,-15.23,-0.7699999999999996,-5.41,0.28400000000000003,0.763,-0.044,0.007843475787447662,0.0,0.0,0.0,0.0,0.0
1757904968.9027655,-15.352890607309103,0.0,0.0,0.0,0.0,0.0,-16.05,0.370000000000001,-6.130000000000001,0.29300000000000004,0.792,-0.034,0.003485546963454489,0.0,0.0,0.0,0.0,0.0
1757904968.9626396,-13.5501383756772,0.0,0.0,0.0,0.0,0.0,-15.510000000000002,-0.33000000000000007,-5.41,0.28200000000000003,0.772,-0.053,0.009799308121614008,0.0,0.0,0.0,0.0,0.0
1757904969.0128624,-11.60673295979536,0.0,0.0,0.0,0.0,0.0,-13.690000000000001,-0.5499999999999989,-4.609999999999999,0.25,0.7270000000000001,-0.007000000000000006,0.010416335201023204,0.0,0.0,0.0,0.0,0.0
1757904969.07266,-12.959407779678822,0.0,0.0,0.0,0.0,0.0,-15.389999999999997,1.17,-5.05,0.29500000000000004,0.752,-0.031,0.012152961101605877,0.0,0.0,0.0,0.0,0.0
1757904969.133445,-14.561121179359784,0.0,0.0,0.0,0.0,0.0,-14.309999999999999,0.41000000000000014,-5.8100000000000005,0.276,0.75,-0.018000000000000002,-0.0012556058967989258,0.0,0.0,0.0,0.0,0.0
1757904969.1926315,-16.65656777370416,0.0,0.0,0.0,0.0,0.0,-13.889999999999997,-0.41000000000000014,-6.65,0.307,0.74,-0.03,-0.013832838868520821,0.0,0.0,0.0,0.0,0.0
1757904969.2426932,-15.203165788742815,0.0,0.0,0.0,0.0,0.0,-13.95,-0.3699999999999992,-6.07,0.273,0.74,-0.041,-0.00626582894371408,0.0,0.0,0.0,0.0,0.0
1757904969.3027976,-14.279574573494829,0.0,0.0,0.0,0.0,0.0,-15.41,-0.6899999999999995,-5.67,0.28600000000000003,0.8029999999999999,-0.034,0.005652127132525857,0.0,0.0,0.0,0.0,0.0
1757904969.362648,-12.562891784935504,0.0,0.0,0.0,0.0,0.0,-16.569999999999997,-0.3899999999999988,-5.01,0.28300000000000003,0.773,-0.033,0.020035541075322464,0.0,0.0,0.0,0.0,0.0
1757904969.4126935,-16.773230159990053,0.0,0.0,0.0,0.0,0.0,-16.709999999999997,-1.1500000000000004,-6.609999999999999,0.275,0.716,-0.047,-0.00031615079995027883,0.0,0.0,0.0,0.0,0.0
1757904969.4726748,-15.480834925804224,0.0,0.0,0.0,0.0,0.0,-14.41,-0.16999999999999993,-6.1899999999999995,0.231,0.739,-0.013999999999999999,-0.0053541746290211205,0.0,0.0,0.0,0.0,0.0
1757904969.5326385,-16.13524868107089,0.0,0.0,0.0,0.0,0.0,-16.830000000000002,0.23000000000000043,-6.449999999999999,0.274,0.744,-0.07,0.003473756594645554,0.0,0.0,0.0,0.0,0.0
1757904969.583426,-14.38493135193908,0.0,0.0,0.0,0.0,0.0,-14.349999999999998,-0.7099999999999991,-5.709999999999999,0.271,0.745,-0.035,-0.00017465675969541294,0.0,0.0,0.0,0.0,0.0
1757904969.6435697,-12.636504659121522,0.0,0.0,0.0,0.0,0.0,-15.809999999999999,-0.6699999999999999,-5.01,0.29000000000000004,0.775,-0.099,0.015867476704392383,0.0,0.0,0.0,0.0,0.0
1757904969.702708,-8.679357695129287,0.0,0.0,0.0,0.0,0.0,-12.07,0.11000000000000121,-3.4699999999999998,0.274,0.744,-0.088,0.016953211524353567,0.0,0.0,0.0,0.0,0.0
1757904969.753038,-6.923239848510232,0.0,0.0,0.0,0.0,0.0,-10.91,-0.5700000000000003,-2.71,0.261,0.76,-0.073,0.019933800757448838,0.0,0.0,0.0,0.0,0.0
1757904969.8060856,-4.978076937934969,0.0,0.0,0.0,0.0,0.0,-8.809999999999999,-0.07000000000000028,-1.99,0.258,0.8560000000000001,-0.043000000000000003,0.019159615310325145,0.0,0.0,0.0,0.0,0.0
1757904969.8626509,-6.037487060027538,0.0,0.0,0.0,0.0,0.0,-6.73,-1.209999999999999,-2.09,0.248,0.8049999999999999,-0.075,0.0034625646998623118,0.0,0.0,0.0,0.0,0.0
1757904969.9128196,-4.2019340784929025,0.0,0.0,0.0,0.0,0.0,-5.469999999999999,-0.1899999999999995,-1.67,0.261,0.8260000000000001,-0.047,0.0063403296075354824,0.0,0.0,0.0,0.0,0.0
1757904969.9726522,-4.0,0.0,0.0,0.0,0.0,0.0,-4.869999999999997,-0.3699999999999992,-1.33,0.263,0.775,-0.058,0.0043499999999999876,0.0,0.0,0.0,0.0,0.0
1757904970.0226684,-6.068463561726312,0.0,0.0,0.0,0.0,0.0,-4.09,-0.28999999999999915,-2.41,0.258,0.8240000000000001,-0.049,-0.00989231780863156,0.0,0.0,0.0,0.0,0.0
1757904970.072767,-5.557090065852811,0.0,0.0,0.0,0.0,0.0,-5.449999999999999,0.8100000000000005,-2.07,0.277,0.785,-0.059,-0.0005354503292640578,0.0,0.0,0.0,0.0,0.0
1757904970.1326413,-4.0,0.0,0.0,0.0,0.0,0.0,-5.789999999999999,0.2900000000000009,-1.5699999999999998,0.273,0.813,-0.073,0.008949999999999996,0.0,0.0,0.0,0.0,0.0
1757904970.1827054,-5.229842253835195,0.0,0.0,0.0,0.0,0.0,-4.77,-0.08999999999999986,-2.09,0.248,0.8360000000000001,-0.055,-0.002299211269175978,0.0,0.0,0.0,0.0,0.0
1757904970.242697,-4.0,0.0,0.0,0.0,0.0,0.0,-4.829999999999998,0.47000000000000064,-1.15,0.276,0.773,-0.059,0.004149999999999991,0.0,0.0,0.0,0.0,0.0
1757904970.2929595,-5.6036818253715985,0.0,0.0,0.0,0.0,0.0,-4.509999999999998,-0.8099999999999987,-2.09,0.256,0.8240000000000001,-0.065,-0.005468409126858003,0.0,0.0,0.0,0.0,0.0
1757904970.3526375,-5.61526936130405,0.0,0.0,0.0,0.0,0.0,-4.009999999999998,-0.7699999999999996,-2.11,0.246,0.8140000000000001,-0.057,-0.008026346806520262,0.0,0.0,0.0,0.0,0.0
1757904970.4026513,-4.710228232262212,0.0,0.0,0.0,0.0,0.0,-4.629999999999999,0.23000000000000043,-1.87,0.259,0.808,-0.051000000000000004,-0.0004011411613110649,0.0,0.0,0.0,0.0,0.0
1757904970.4528837,-5.08883581971358,0.0,0.0,0.0,0.0,0.0,-4.369999999999997,-0.15000000000000036,-2.03,0.26,0.829,-0.039,-0.0035941790985679137,0.0,0.0,0.0,0.0,0.0
1757904970.5128467,-8.321132735391258,0.0,0.0,0.0,0.0,0.0,-4.149999999999999,-0.34999999999999964,-3.31,0.259,0.8460000000000001,-0.05,-0.020855663676956297,0.0,0.0,0.0,0.0,0.0
1757904970.5628498,-4.444800332973349,0.0,0.0,0.0,0.0,0.0,-4.75,-0.6099999999999994,-1.67,0.249,0.779,-0.053,0.001525998335133254,0.0,0.0,0.0,0.0,0.0
1757904970.6226602,-5.579090427659333,0.0,0.0,0.0,0.0,0.0,-4.369999999999997,0.3100000000000005,-2.21,0.26,0.8240000000000001,-0.044,-0.006045452138296677,0.0,0.0,0.0,0.0,0.0
1757904970.6727676,-5.154730836813886,0.0,0.0,0.0,0.0,0.0,-3.9899999999999984,-0.9499999999999993,-1.83,0.244,0.8160000000000001,-0.048,-0.00582365418406944,0.0,0.0,0.0,0.0,0.0
1757904970.7327006,-5.075061575981123,0.0,0.0,0.0,0.0,0.0,-5.41,-0.4900000000000002,-1.97,0.252,0.792,-0.05,0.0016746921200943854,0.0,0.0,0.0,0.0,0.0
1757904970.7827117,-5.075061575981123,0.0,0.0,0.0,0.0,0.0,-5.41,-0.4900000000000002,-1.97,0.252,0.792,-0.05,0.0016746921200943854,0.0,0.0,0.0,0.0,0.0
1757904970.8426569,-4.0,0.0,0.0,0.0,0.0,0.0,-6.289999999999999,0.009999999999999787,-1.5699999999999998,0.271,0.774,-0.058,0.011449999999999997,0.0,0.0,0.0,0.0,0.0
1757904970.8926706,-4.1414067658224525,0.0,0.0,0.0,0.0,0.0,-5.369999999999997,-0.3899999999999988,-1.6099999999999999,0.274,0.8029999999999999,-0.045,0.006142966170887725,0.0,0.0,0.0,0.0,0.0
1757904970.9428082,-7.306247326774532,0.0,0.0,0.0,0.0,0.0,-4.989999999999998,-0.8699999999999992,-2.79,0.247,0.8200000000000001,-0.039,-0.011581236633872668,0.0,0.0,0.0,0.0,0.0
1757904971.0026681,-4.8188432221851745,0.0,0.0,0.0,0.0,0.0,-3.669999999999998,-0.8499999999999996,-1.73,0.244,0.788,-0.043000000000000003,-0.005744216110925882,0.0,0.0,0.0,0.0,0.0
1757904971.0527086,-5.132372745621658,0.0,0.0,0.0,0.0,0.0,-5.029999999999998,-0.10999999999999943,-2.05,0.274,0.796,-0.051000000000000004,-0.0005118637281083016,0.0,0.0,0.0,0.0,0.0
1757904971.102749,-4.8858213229711955,0.0,0.0,0.0,0.0,0.0,-5.23,0.6300000000000008,-1.85,0.249,0.857,-0.063,0.0017208933851440246,0.0,0.0,0.0,0.0,0.0
1757904971.1636627,-4.0,0.0,0.0,0.0,0.0,0.0,-5.23,-0.2699999999999996,-1.45,0.25,0.817,-0.056,0.006150000000000003,0.0,0.0,0.0,0.0,0.0
1757904971.22269,-5.510558047965741,0.0,0.0,0.0,0.0,0.0,-4.109999999999999,-0.25,-2.19,0.243,0.8500000000000001,-0.06,-0.007002790239828709,0.0,0.0,0.0,0.0,0.0
1757904971.2727125,-4.325650240137313,0.0,0.0,0.0,0.0,0.0,-5.25,0.030000000000001137,-1.73,0.261,0.812,-0.058,0.004621748799313434,0.0,0.0,0.0,0.0,0.0
1757904971.3227322,-4.0,0.0,0.0,0.0,0.0,0.0,-5.289999999999999,-0.4900000000000002,-1.3699999999999999,0.26,0.793,-0.055,0.006449999999999996,0.0,0.0,0.0,0.0,0.0
1757904971.38271,-5.91956501780325,0.0,0.0,0.0,0.0,0.0,-5.77,-0.28999999999999915,-2.3499999999999996,0.27,0.8089999999999999,-0.066,-0.0007478250890162519,0.0,0.0,0.0,0.0,0.0
1757904971.4427357,-5.903071234535459,0.0,0.0,0.0,0.0,0.0,-4.689999999999998,-0.6500000000000004,-2.27,0.25,0.8360000000000001,-0.053,-0.006065356172677307,0.0,0.0,0.0,0.0,0.0
1757904971.5026338,-4.0,0.0,0.0,0.0,0.0,0.0,-6.129999999999999,0.05000000000000071,-1.3499999999999999,0.273,0.821,-0.056,0.010649999999999995,0.0,0.0,0.0,0.0,0.0
1757904971.5526772,-4.128710452429426,0.0,0.0,0.0,0.0,0.0,-4.77,-0.07000000000000028,-1.65,0.274,0.769,-0.035,0.0032064477378528668,0.0,0.0,0.0,0.0,0.0
1757904971.6027126,-5.453095451209339,0.0,0.0,0.0,0.0,0.0,-4.57,-0.46999999999999886,-2.13,0.258,0.772,-0.046,-0.004415477256046692,0.0,0.0,0.0,0.0,0.0
1757904971.662666,-5.866110295587699,0.0,0.0,0.0,0.0,0.0,-5.189999999999998,0.7300000000000004,-2.23,0.28500000000000003,0.8140000000000001,-0.042,-0.003380551477938507,0.0,0.0,0.0,0.0,0.0
1757904971.713069,-5.311897024604298,0.0,0.0,0.0,0.0,0.0,-4.849999999999998,-0.25,-2.11,0.243,0.802,-0.049,-0.002309485123021502,0.0,0.0,0.0,0.0,0.0
1757904971.7727222,-4.419417382415922,0.0,0.0,0.0,0.0,0.0,-5.25,-0.25,-1.75,0.26,0.782,-0.055,0.004152913087920389,0.0,0.0,0.0,0.0,0.0
1757904971.832643,-4.0,0.0,0.0,0.0,0.0,0.0,-5.469999999999999,-0.7899999999999991,-0.77,0.258,0.771,-0.048,0.0073499999999999946,0.0,0.0,0.0,0.0,0.0
1757904971.8826888,-5.338187894782272,0.0,0.0,0.0,0.0,0.0,-5.029999999999998,-0.8699999999999992,-1.95,0.241,0.8069999999999999,-0.046,-0.0015409394739113714,0.0,0.0,0.0,0.0,0.0
1757904971.9426832,-4.557000109721306,0.0,0.0,0.0,0.0,0.0,-4.169999999999998,0.5099999999999998,-1.75,0.259,0.793,-0.064,-0.0019350005486065403,0.0,0.0,0.0,0.0,0.0
1757904972.002664,-4.538859989028081,0.0,0.0,0.0,0.0,0.0,-4.169999999999998,-0.6099999999999994,-1.71,0.271,0.8009999999999999,-0.057,-0.0018442999451404151,0.0,0.0,0.0,0.0,0.0
1757904972.0526643,-4.839550598970941,0.0,0.0,0.0,0.0,0.0,-3.4299999999999997,-0.15000000000000036,-1.93,0.252,0.808,-0.056,-0.007047752994854708,0.0,0.0,0.0,0.0,0.0
1757904972.1027577,-6.029199781065477,0.0,0.0,0.0,0.0,0.0,-3.8900000000000006,-0.08999999999999986,-2.41,0.245,0.843,-0.051000000000000004,-0.010695998905327384,0.0,0.0,0.0,0.0,0.0
1757904972.1528628,-4.097102634789614,0.0,0.0,0.0,0.0,0.0,-5.629999999999999,0.16999999999999993,-1.63,0.266,0.8049999999999999,-0.063,0.007664486826051924,0.0,0.0,0.0,0.0,0.0
1757904972.2130904,-4.330848646628048,0.0,0.0,0.0,0.0,0.0,-5.489999999999998,0.08999999999999986,-1.73,0.242,0.823,-0.063,0.0057957567668597545,0.0,0.0,0.0,0.0,0.0
1757904972.2726836,-6.1782885979856905,0.0,0.0,0.0,0.0,0.0,-4.709999999999997,-0.4499999999999993,-2.4299999999999997,0.257,0.847,-0.039,-0.0073414429899284666,0.0,0.0,0.0,0.0,0.0
1757904972.322717,-4.7165930500733255,0.0,0.0,0.0,0.0,0.0,-5.43,0.25,-1.87,0.272,0.8049999999999999,-0.048,0.003567034749633371,0.0,0.0,0.0,0.0,0.0
1757904972.3827608,-5.657406649693833,0.0,0.0,0.0,0.0,0.0,-5.43,-0.5700000000000003,-2.19,0.26,0.8140000000000001,-0.047,-0.001137033248469166,0.0,0.0,0.0,0.0,0.0
1757904972.4328077,-4.60230920299799,0.0,0.0,0.0,0.0,0.0,-5.43,-0.4299999999999997,-1.79,0.254,0.8280000000000001,-0.038,0.004138453985010049,0.0,0.0,0.0,0.0,0.0
1757904972.4926636,-4.0,0.0,0.0,0.0,0.0,0.0,-5.189999999999998,0.009999999999999787,-1.3699999999999999,0.262,0.808,-0.036,0.005949999999999989,0.0,0.0,0.0,0.0,0.0
1757904972.5426648,-4.732995879989755,0.0,0.0,0.0,0.0,0.0,-6.25,0.11000000000000121,-1.89,0.281,0.79,-0.054,0.007585020600051227,0.0,0.0,0.0,0.0,0.0
1757904972.6026294,-4.298982437740354,0.0,0.0,0.0,0.0,0.0,-5.009999999999998,-0.41000000000000014,-1.67,0.253,0.785,-0.042,0.003555087811298221,0.0,0.0,0.0,0.0,0.0
1757904972.652693,-5.544479236141117,0.0,0.0,0.0,0.0,0.0,-5.669999999999998,-0.34999999999999964,-2.19,0.258,0.782,-0.05,0.0006276038192944045,0.0,0.0,0.0,0.0,0.0
1757904972.7027335,-6.127499490004059,0.0,0.0,0.0,0.0,0.0,-5.09,-0.07000000000000028,-2.45,0.26,0.843,-0.044,-0.0051874974500202954,0.0,0.0,0.0,0.0,0.0
1757904972.7530951,-5.5611374735749886,0.0,0.0,0.0,0.0,0.0,-4.669999999999998,0.39000000000000057,-2.19,0.257,0.8260000000000001,-0.062,-0.004455687367874952,0.0,0.0,0.0,0.0,0.0
1757904972.8127263,-4.775065444577697,0.0,0.0,0.0,0.0,0.0,-4.41,0.009999999999999787,-1.91,0.263,0.8240000000000001,-0.048,-0.0018253272228884842,0.0,0.0,0.0,0.0,0.0
1757904972.8726673,-4.83748385010224,0.0,0.0,0.0,0.0,0.0,-5.009999999999998,-0.3099999999999987,-1.91,0.256,0.837,-0.05,0.0008625807494887905,0.0,0.0,0.0,0.0,0.0
1757904972.922701,-4.55370728088664,0.0,0.0,0.0,0.0,0.0,-5.169999999999998,-0.4299999999999997,-1.77,0.242,0.8069999999999999,-0.055,0.003081463595566789,0.0,0.0,0.0,0.0,0.0
1757904972.972738,-4.328539014494382,0.0,0.0,0.0,0.0,0.0,-5.709999999999997,-0.07000000000000028,-1.73,0.271,0.799,-0.06,0.006907304927528077,0.0,0.0,0.0,0.0,0.0
1757904973.0326474,-4.997624435669411,0.0,0.0,0.0,0.0,0.0,-5.469999999999999,-0.5899999999999999,-1.91,0.239,0.825,-0.052,0.00236187782165294,0.0,0.0,0.0,0.0,0.0
1757904973.0827162,-4.591432238419729,0.0,0.0,0.0,0.0,0.0,-5.609999999999999,-0.4900000000000002,-1.77,0.27,0.797,-0.064,0.005092838807901354,0.0,0.0,0.0,0.0,0.0
1757904973.1426604,-5.251309360530952,0.0,0.0,0.0,0.0,0.0,-5.59,0.21000000000000085,-2.09,0.264,0.81,-0.044,0.0016934531973452406,0.0,0.0,0.0,0.0,0.0
1757904973.1927671,-4.337193793226214,0.0,0.0,0.0,0.0,0.0,-4.390000000000001,-0.46999999999999886,-1.67,0.248,0.798,-0.049,0.0002640310338689345,0.0,0.0,0.0,0.0,0.0
1757904973.2529364,-5.111873433487962,0.0,0.0,0.0,0.0,0.0,-4.550000000000001,-0.7300000000000004,-1.91,0.257,0.798,-0.056,-0.002809367167439807,0.0,0.0,0.0,0.0,0.0
1757904973.312699,-4.786047429769161,0.0,0.0,0.0,0.0,0.0,-5.25,-0.129999999999999,-1.91,0.267,0.821,-0.063,0.002319762851154197,0.0,0.0,0.0,0.0,0.0
1757904973.372678,-6.42427038658866,0.0,0.0,0.0,0.0,0.0,-5.27,-0.4499999999999993,-2.5300000000000002,0.247,0.851,-0.047,-0.005771351932943301,0.0,0.0,0.0,0.0,0.0
1757904973.432639,-4.707042595940682,0.0,0.0,0.0,0.0,0.0,-5.309999999999999,-0.34999999999999964,-1.85,0.256,0.8089999999999999,-0.036,0.003014787020296583,0.0,0.0,0.0,0.0,0.0
1757904973.482707,-5.863552677345024,0.0,0.0,0.0,0.0,0.0,-5.309999999999999,-0.5899999999999999,-2.27,0.254,0.8420000000000001,-0.049,-0.0027677633867251262,0.0,0.0,0.0,0.0,0.0
1757904973.5427456,-4.55041206925263,0.0,0.0,0.0,0.0,0.0,-5.369999999999997,-0.33000000000000007,-1.79,0.251,0.81,-0.026999999999999996,0.004097939653736837,0.0,0.0,0.0,0.0,0.0
1757904973.6026852,-4.642870879100558,0.0,0.0,0.0,0.0,0.0,-4.469999999999999,-0.7699999999999996,-1.69,0.228,0.81,-0.047,-0.0008643543955027955,0.0,0.0,0.0,0.0,0.0
1757904973.6531484,-5.5182651259249935,0.0,0.0,0.0,0.0,0.0,-4.509999999999998,-0.7099999999999991,-2.09,0.272,0.806,-0.056,-0.005041325629624977,0.0,0.0,0.0,0.0,0.0
1757904973.7141662,-6.565154225149626,0.0,0.0,0.0,0.0,0.0,-4.390000000000001,-0.28999999999999915,-2.61,0.27,0.8109999999999999,-0.06,-0.010875771125748127,0.0,0.0,0.0,0.0,0.0
1757904973.7726834,-7.548923764352107,0.0,0.0,0.0,0.0,0.0,-4.869999999999997,-0.7300000000000004,-2.9299999999999997,0.264,0.823,-0.037,-0.013394618821760549,0.0,0.0,0.0,0.0,0.0
1757904973.8326619,-4.307696600272586,0.0,0.0,0.0,0.0,0.0,-5.849999999999998,-0.8300000000000001,-1.51,0.251,0.796,-0.06,0.007711516998637058,0.0,0.0,0.0,0.0,0.0
1757904973.8826683,-4.257493394005444,0.0,0.0,0.0,0.0,0.0,-6.09,-0.6099999999999994,-1.5899999999999999,0.252,0.782,-0.049,0.009162533029972782,0.0,0.0,0.0,0.0,0.0
1757904973.9426587,-4.137783222934715,0.0,0.0,0.0,0.0,0.0,-4.869999999999997,-0.129999999999999,-1.65,0.231,0.8180000000000001,-0.069,0.0036610838853264127,0.0,0.0,0.0,0.0,0.0
1757904973.9927118,-4.2574933940054445,0.0,0.0,0.0,0.0,0.0,-5.09,-0.20999999999999908,-1.69,0.261,0.813,-0.076,0.004162533029972777,0.0,0.0,0.0,0.0,0.0
1757904974.0427303,-4.883774155302434,0.0,0.0,0.0,0.0,0.0,-5.109999999999999,0.41000000000000014,-1.91,0.27,0.812,-0.053,0.0011311292234878279,0.0,0.0,0.0,0.0,0.0
1757904974.1026928,-5.175543449725835,0.0,0.0,0.0,0.0,0.0,-5.209999999999997,0.030000000000001137,-2.07,0.263,0.8029999999999999,-0.047,0.0001722827513708136,0.0,0.0,0.0,0.0,0.0
1757904974.1527512,-4.026940526007305,0.0,0.0,0.0,0.0,0.0,-4.669999999999998,-0.049999999999998934,-1.6099999999999999,0.268,0.774,-0.049,0.003215297369963466,0.0,0.0,0.0,0.0,0.0
1757904974.2127097,-5.09129158465708,0.0,0.0,0.0,0.0,0.0,-5.109999999999999,0.6500000000000004,-1.93,0.257,0.8180000000000001,-0.043000000000000003,9.354207671459669e-05,0.0,0.0,0.0,0.0,0.0
1757904974.2726858,-4.0,0.0,0.0,0.0,0.0,0.0,-6.09,-0.16999999999999993,-1.5899999999999999,0.259,0.777,-0.056,0.01045,0.0,0.0,0.0,0.0,0.0
1757904974.332639,-4.251617339319238,0.0,0.0,0.0,0.0,0.0,-4.849999999999998,-0.1899999999999995,-1.69,0.266,0.8480000000000001,-0.055,0.002991913303403799,0.0,0.0,0.0,0.0,0.0
1757904974.3831038,-4.359615808761134,0.0,0.0,0.0,0.0,0.0,-4.890000000000001,-0.6699999999999999,-1.6099999999999999,0.258,0.788,-0.06,0.0026519209561943315,0.0,0.0,0.0,0.0,0.0
1757904974.442689,-6.061043639506318,0.0,0.0,0.0,0.0,0.0,-5.009999999999998,-0.6699999999999999,-2.33,0.256,0.813,-0.051000000000000004,-0.0052552181975315995,0.0,0.0,0.0,0.0,0.0
1757904974.502803,-5.242256193663182,0.0,0.0,0.0,0.0,0.0,-3.4899999999999984,-0.16999999999999993,-2.09,0.243,0.8220000000000001,-0.053,-0.008761280968315917,0.0,0.0,0.0,0.0,0.0
1757904974.552893,-4.803774557574491,0.0,0.0,0.0,0.0,0.0,-5.369999999999997,-0.20999999999999908,-1.91,0.26,0.812,-0.03,0.002831127212127531,0.0,0.0,0.0,0.0,0.0
1757904974.6028996,-4.937231005330821,0.0,0.0,0.0,0.0,0.0,-4.550000000000001,-0.7899999999999991,-1.81,0.248,0.802,-0.038,-0.0019361550266541005,0.0,0.0,0.0,0.0,0.0
1757904974.6535218,-5.707998773650884,0.0,0.0,0.0,0.0,0.0,-5.91,-0.4900000000000002,-2.23,0.271,0.8049999999999999,-0.045,0.0010100061317455823,0.0,0.0,0.0,0.0,0.0
1757904974.712731,-4.0,0.0,0.0,0.0,0.0,0.0,-6.169999999999998,-0.5099999999999998,-1.47,0.266,0.767,-0.045,0.010849999999999992,0.0,0.0,0.0,0.0,0.0
1757904974.7740483,-4.246321937865757,0.0,0.0,0.0,0.0,0.0,-4.629999999999999,0.16999999999999993,-1.69,0.259,0.808,-0.062,0.001918390310671212,0.0,0.0,0.0,0.0,0.0
1757904974.83263,-5.707998773650884,0.0,0.0,0.0,0.0,0.0,-4.349999999999998,-0.4900000000000002,-2.23,0.263,0.79,-0.068,-0.0067899938682544295,0.0,0.0,0.0,0.0,0.0
1757904974.882719,-4.336040820841057,0.0,0.0,0.0,0.0,0.0,-4.77,-0.3899999999999988,-1.69,0.246,0.8,-0.048,0.0021697958957947127,0.0,0.0,0.0,0.0,0.0
1757904974.9426625,-4.433536962742049,0.0,0.0,0.0,0.0,0.0,-3.7699999999999996,-0.3899999999999988,-1.73,0.253,0.835,-0.069,-0.0033176848137102468,0.0,0.0,0.0,0.0,0.0
1757904974.9926672,-6.074639907023296,0.0,0.0,0.0,0.0,0.0,-3.9299999999999997,-1.0099999999999998,-2.21,0.256,0.796,-0.06,-0.010723199535116482,0.0,0.0,0.0,0.0,0.0
1757904975.0426939,-4.035003097892243,0.0,0.0,0.0,0.0,0.0,-4.25,0.45000000000000107,-1.5499999999999998,0.276,0.785,-0.048,0.0010749845105387835,0.0,0.0,0.0,0.0,0.0
1757904975.102707,-5.589387265166012,0.0,0.0,0.0,0.0,0.0,-3.9499999999999993,-0.4499999999999993,-2.19,0.251,0.8500000000000001,-0.053,-0.008196936325830064,0.0,0.0,0.0,0.0,0.0
1757904975.1528807,-5.694844159412968,0.0,0.0,0.0,0.0,0.0,-4.149999999999999,0.19000000000000128,-2.27,0.269,0.823,-0.054,-0.007724220797064847,0.0,0.0,0.0,0.0,0.0
1757904975.2035847,-4.45042132836881,0.0,0.0,0.0,0.0,0.0,-4.609999999999999,-0.1899999999999995,-1.77,0.258,0.8140000000000001,-0.036,0.0007978933581559478,0.0,0.0,0.0,0.0,0.0
1757904975.2626846,-5.00262431129902,0.0,0.0,0.0,0.0,0.0,-5.57,0.21000000000000085,-1.99,0.274,0.833,-0.057,0.0028368784435049,0.0,0.0,0.0,0.0,0.0
1757904975.3127427,-4.997624435669412,0.0,0.0,0.0,0.0,0.0,-5.649999999999999,0.19000000000000128,-1.99,0.248,0.835,-0.052,0.0032618778216529343,0.0,0.0,0.0,0.0,0.0
1757904975.3726912,-5.73944683745742,0.0,0.0,0.0,0.0,0.0,-5.309999999999999,-0.9499999999999993,-2.09,0.252,0.8340000000000001,-0.045,-0.002147234187287106,0.0,0.0,0.0,0.0,0.0
1757904975.4326537,-5.572364848069444,0.0,0.0,0.0,0.0,0.0,-5.57,0.2900000000000009,-2.21,0.272,0.837,-0.044,-1.1824240347220183e-05,0.0,0.0,0.0,0.0,0.0
1757904975.4829311,-4.443112647682927,0.0,0.0,0.0,0.0,0.0,-5.77,-0.3099999999999987,-1.75,0.271,0.802,-0.077,0.006634436761585363,0.0,0.0,0.0,0.0,0.0
1757904975.5427356,-4.0,0.0,0.0,0.0,0.0,0.0,-4.309999999999999,0.15000000000000036,-1.53,0.273,0.788,-0.048,0.0015499999999999937,0.0,0.0,0.0,0.0,0.0
1757904975.6026604,-7.995701970433863,0.0,0.0,0.0,0.0,0.0,-3.8099999999999987,-1.3699999999999992,-2.8899999999999997,0.223,0.8240000000000001,-0.048,-0.020928509852169323,0.0,0.0,0.0,0.0,0.0
1757904975.6526978,-5.963325414565266,0.0,0.0,0.0,0.0,0.0,-5.25,-0.2699999999999996,-2.37,0.248,0.8320000000000001,-0.049,-0.0035666270728263293,0.0,0.0,0.0,0.0,0.0
1757904975.7034552,-4.694278432304586,0.0,0.0,0.0,0.0,0.0,-6.23,-0.16999999999999993,-1.87,0.266,0.8029999999999999,-0.04,0.007678607838477074,0.0,0.0,0.0,0.0,0.0
1757904975.7626593,-4.0,0.0,0.0,0.0,0.0,0.0,-5.709999999999997,-1.0700000000000003,-1.03,0.23,0.78,-0.049,0.008549999999999986,0.0,0.0,0.0,0.0,0.0
1757904975.8126621,-4.0,0.0,0.0,0.0,0.0,0.0,-5.649999999999999,-0.7099999999999991,-0.9299999999999999,0.255,0.792,-0.046,0.008249999999999993,0.0,0.0,0.0,0.0,0.0
1757904975.8627024,-6.131170361358424,0.0,0.0,0.0,0.0,0.0,-4.609999999999999,0.5500000000000007,-2.3899999999999997,0.27,0.8380000000000001,-0.061,-0.007605851806792124,0.0,0.0,0.0,0.0,0.0
1757904975.9127326,-4.0,0.0,0.0,0.0,0.0,0.0,-5.050000000000001,-0.20999999999999908,-1.27,0.252,0.792,-0.042,0.005250000000000004,0.0,0.0,0.0,0.0,0.0
1757904975.9726534,-5.196753794437446,0.0,0.0,0.0,0.0,0.0,-5.209999999999997,-0.1899999999999995,-2.07,0.256,0.831,-0.07,6.623102781275759e-05,0.0,0.0,0.0,0.0,0.0
1757904976.0228865,-4.825064766404696,0.0,0.0,0.0,0.0,0.0,-5.649999999999999,0.5500000000000007,-1.85,0.273,0.8,-0.058,0.004124676167976511,0.0,0.0,0.0,0.0,0.0
1757904976.082917,-4.444800332973349,0.0,0.0,0.0,0.0,0.0,-4.890000000000001,-0.6099999999999994,-1.67,0.239,0.81,-0.057,0.002225998335133257,0.0,0.0,0.0,0.0,0.0
1757904976.142654,-5.740753434872465,0.0,0.0,0.0,0.0,0.0,-5.129999999999999,-0.16999999999999993,-2.29,0.27,0.8420000000000001,-0.059,-0.0030537671743623295,0.0,0.0,0.0,0.0,0.0
1757904976.2027338,-4.0,0.0,0.0,0.0,0.0,0.0,-4.849999999999998,-0.08999999999999986,-1.53,0.256,0.8240000000000001,-0.046,0.004249999999999989,0.0,0.0,0.0,0.0,0.0
1757904976.2626572,-5.177958091757793,0.0,0.0,0.0,0.0,0.0,-5.550000000000001,0.07000000000000028,-2.07,0.261,0.8280000000000001,-0.042,0.0018602095412110398,0.0,0.0,0.0,0.0,0.0
1757904976.3128595,-5.654312513471465,0.0,0.0,0.0,0.0,0.0,-4.669999999999998,-0.23000000000000043,-2.25,0.254,0.835,-0.063,-0.0049215625673573364,0.0,0.0,0.0,0.0,0.0
1757904976.3726473,-4.0,0.0,0.0,0.0,0.0,0.0,-5.289999999999999,0.2699999999999996,-1.19,0.268,0.767,-0.063,0.006449999999999996,0.0,0.0,0.0,0.0,0.0
1757904976.4227967,-4.6498655894552465,0.0,0.0,0.0,0.0,0.0,-4.41,-0.629999999999999,-1.75,0.258,0.8160000000000001,-0.05,-0.0011993279472762319,0.0,0.0,0.0,0.0,0.0
1757904976.482788,-6.3368959278182855,0.0,0.0,0.0,0.0,0.0,-4.43,-1.3099999999999987,-2.17,0.214,0.833,-0.039,-0.00953447963909143,0.0,0.0,0.0,0.0,0.0
1757904976.5460908,-5.572364848069444,0.0,0.0,0.0,0.0,0.0,-5.41,-0.28999999999999915,-2.21,0.267,0.8049999999999999,-0.051000000000000004,-0.0008118242403472209,0.0,0.0,0.0,0.0,0.0
1757904976.602764,-4.699069056738792,0.0,0.0,0.0,0.0,0.0,-4.27,-0.1899999999999995,-1.87,0.267,0.8340000000000001,-0.051000000000000004,-0.0021453452836939623,0.0,0.0,0.0,0.0,0.0
1757904976.652949,-4.890424316968824,0.0,0.0,0.0,0.0,0.0,-4.609999999999999,-0.9499999999999993,-1.71,0.251,0.798,-0.045,-0.0014021215848441227,0.0,0.0,0.0,0.0,0.0
1757904976.7144063,-6.688142492501187,0.0,0.0,0.0,0.0,0.0,-4.649999999999999,-0.4900000000000002,-2.63,0.259,0.829,-0.056,-0.010190712462505944,0.0,0.0,0.0,0.0,0.0
1757904976.7727058,-5.5844650594304905,0.0,0.0,0.0,0.0,0.0,-6.309999999999999,-0.129999999999999,-2.23,0.261,0.793,-0.046,0.003627674702847541,0.0,0.0,0.0,0.0,0.0
1757904976.8228214,-4.887356135990092,0.0,0.0,0.0,0.0,0.0,-4.890000000000001,-0.8300000000000001,-1.77,0.257,0.8180000000000001,-0.041,1.3219320049544514e-05,0.0,0.0,0.0,0.0,0.0
