time,lam_star_Fx,lam_star_Fy,lam_star_Fz,lam_star_Tx,lam_star_Ty,lam_star_Tz,meas_Fx,meas_Fy,meas_Fz,meas_Tx,meas_Ty,men_tas_Tz,v_final_Fx,v_final_Fy,v_final_Fz,v_final_Tx,v_final_Ty,v_final_Tz,v_object_x
1757905664.2373598,0.0,-4.263390987965787,0.0,0.0,0.0,0.0,1.2730804371818292,-8.09498982343754,1.1346834955474523,1.7779704670580536,0.03853279369856162,-2.426818196361386,0.0,0.0038315988354717537,2.9427342406174106,0.0,0.0,0.0,-3.618036922793096
1757905664.296819,0.0,-4.232243635453128,0.0,0.0,0.0,0.0,1.2746729961656866,-8.095230070401977,1.1140514095944378,1.7867553597483505,0.046144704187813135,-2.4238773973618772,0.0,0.0038629864349488487,2.895739500017778,0.0,0.0,0.0,-3.5195140242019245
1757905664.3470132,0.0,-4.285445009142333,0.0,0.0,0.0,0.0,1.283997173759865,-8.137299761435267,1.1356749033054967,1.7959633896718876,0.04280845128326405,-2.4338962434960747,0.0,0.003851854752292934,2.7388114448333902,0.0,0.0,0.0,-3.6688647517321504
1757905664.4078448,0.0,-4.271613979403297,0.0,0.0,0.0,0.0,1.2932349997474732,-8.114879335063254,1.1166973599295107,1.7983785707173734,0.05247199111851384,-2.4195708184509814,0.0,0.0038432653556599574,2.8769661829666813,0.0,0.0,0.0,-3.9758823728641763
1757905664.4668663,0.0,-7.202415510969039,0.0,0.0,0.0,0.0,2.869438494681326,-9.9172549371829,-0.2574664950329483,3.4625471161759718,1.2897505094074697,-2.2871795613251424,0.0,0.0027148394262138612,3.165441303390611,0.0,0.0,0.0,-1.6217185179017173
1757905664.5171592,0.0,-12.115491406763143,0.0,0.0,0.0,0.0,-0.5553240935209457,-5.688777674155751,4.81427422105673,-0.6497139488648764,-2.153890173862068,-2.8966597156771448,0.0,-0.006426713732607392,2.3117458507851807,0.0,0.0,0.0,-7.493459233991397
1757905664.5770738,0.0,-9.760742794038197,0.0,0.0,0.0,0.0,0.9559409982753211,-7.909535790759028,3.785460710459872,1.3864117423667432,-0.9972912347511518,-3.1298051614239824,0.0,-0.0018512070032791694,2.6760291078069187,0.0,0.0,0.0,-6.136259892662968
1757905664.6368735,0.0,-11.401508424119362,0.0,0.0,0.0,0.0,0.591010151241937,-7.792019260637709,4.5221466248200475,1.0110643563386819,-1.4216629181926415,-3.336232518086443,0.0,-0.0036094891634816523,2.91427609741966,0.0,0.0,0.0,-7.145727879427311
1757905664.6874137,0.0,-11.03327191363895,0.0,0.0,0.0,0.0,1.201998280593969,-8.080641022403128,4.246468461285942,1.3282722916402792,-1.031338899646073,-3.111933161477742,0.0,-0.002952630891235822,2.8847620757202965,0.0,0.0,0.0,-6.8399830878773225
1757905664.7470384,0.0,-10.714231648061558,0.0,0.0,0.0,0.0,1.5277876695004373,-8.611634414244465,4.0041261726192205,1.7561912767189751,-0.7613771061376212,-3.1555849281264754,0.0,-0.002102597233817093,2.8211439174437034,0.0,0.0,0.0,-6.733992455504792
1757905664.806875,0.0,-12.193610201323999,0.0,0.0,0.0,0.0,0.9934080856570744,-8.367877321442716,4.775206920547462,1.2558267669057517,-1.3247399065611325,-3.32221901005663,0.0,-0.003825732879881283,2.8744310096939985,0.0,0.0,0.0,-7.333517474099855
1757905664.857072,0.0,-11.938594684330003,0.0,0.0,0.0,0.0,0.8815437858115237,-7.95199844562384,4.6933663227550335,1.1568576665266863,-1.330447803109043,-3.2003778792308566,0.0,-0.003986596238706163,2.764210535352661,0.0,0.0,0.0,-7.178841938362602
1757905664.9170265,0.0,-11.834344200973971,0.0,0.0,0.0,0.0,0.9509318268406606,-7.832805245460422,4.637240676031565,1.1573591197569704,-1.2658804561387238,-3.1184204731697984,0.0,-0.004001538955513549,2.6728586386786755,0.0,0.0,0.0,-5.785383785913977
1757905664.9769688,0.0,-11.781195548836108,0.0,0.0,0.0,0.0,0.7451170840389015,-7.3823200861596625,4.653197986402457,0.9761397033382457,-1.3718136277917297,-3.0006892632100444,0.0,-0.004398875462676445,2.850147627082624,0.0,0.0,0.0,-7.669775724722642
1757905665.0269783,0.0,-13.56650084773472,0.0,0.0,0.0,0.0,-0.19149984345056006,-4.5326559789391885,5.423220357888135,-0.8005129817544676,-2.102707188945147,-2.509689162673372,0.0,-0.00903384486879553,0.0,0.0,0.0,0.0,0.0
1757905665.0769813,0.0,-11.49186206311247,0.0,0.0,0.0,0.0,2.5907730267670543,-9.481920832164601,3.7970986439902843,2.5836309647929374,-0.07428964404732036,-2.79901574512044,0.0,-0.0020099412309478684,0.0,0.0,0.0,0.0,0.0
1757905665.1271145,0.0,-13.061246683645003,0.0,0.0,0.0,0.0,0.28186895139988344,-8.788311342926377,5.216889521851229,1.4065899629194838,-1.7894354309599618,-3.837250934019866,0.0,-0.0042729353407186255,0.0,0.0,0.0,0.0,0.0
1757905665.177517,0.0,-11.547921987008625,0.0,0.0,0.0,0.0,1.1694230446833302,-11.960984358559644,4.468687737742426,3.344864305481393,-1.0368435116010268,-4.594227359650133,0.0,0.00041306237155101935,0.0,0.0,0.0,0.0,0.0
1757905665.2275827,0.0,-12.577645085360517,0.0,0.0,0.0,0.0,2.9982533019392457,-12.888977682663274,4.040052237327803,3.989683795358546,0.0647050606687456,-4.031995152857164,0.0,0.0003113325973027568,0.0,0.0,0.0,0.0,0.0
1757905665.2879763,0.0,-10.743898840431228,0.0,0.0,0.0,0.0,1.604198439283942,-11.900852810949447,3.986924295035722,3.4562611763323225,-0.6270603507367625,-4.3654324751591265,0.0,0.0011569539705182184,0.0,0.0,0.0,0.0,0.0
1757905665.3472261,0.0,-9.54248486033046,0.0,0.0,0.0,0.0,1.2473511598225215,-9.125837375677968,3.607430921532826,2.1809061418737397,-0.6751761162735286,-3.5071236680731706,0.0,-0.00041664748465249167,0.0,0.0,0.0,0.0,0.0
1757905665.4069276,0.0,-9.448216763833324,0.0,0.0,0.0,0.0,1.6542769495121925,-9.395366760707072,3.397995847103643,2.353598823269201,-0.416810795404075,-3.338777531727158,0.0,-5.2850003126252435e-05,0.0,0.0,0.0,0.0,0.0
1757905665.466851,0.0,-9.34005781415631,0.0,0.0,0.0,0.0,1.6797571657517765,-7.7540627364862384,3.337107229261705,1.5450744625648807,-0.37959511979736815,-2.717572578780653,0.0,-0.0015859950776700717,0.0,0.0,0.0,0.0,0.0
1757905665.518281,0.0,-9.81810657053486,0.0,0.0,0.0,0.0,1.569175874195624,-7.553489963251264,3.6001280167104013,1.4150313320039238,-0.5224629729332316,-2.673623992153539,0.0,-0.002264616607283596,0.0,0.0,0.0,0.0,0.0
1757905665.5770774,0.0,-10.739431222589374,0.0,0.0,0.0,0.0,1.7920278342989024,-8.09084774692499,3.9041385117147662,1.7282800340697781,-0.4876866665813391,-2.7430886908161676,0.0,-0.0026485834756643845,0.0,0.0,0.0,0.0,0.0
1757905665.637078,0.0,-11.566082973622493,0.0,0.0,0.0,0.0,2.124369483075274,-8.194633031548225,4.109858678326265,1.7316815690886436,-0.3911833520833444,-2.6140876662596098,0.0,-0.003371449942074268,0.0,0.0,0.0,0.0,0.0
1757905665.6876092,0.0,-11.665864110583254,0.0,0.0,0.0,0.0,2.2302055966360044,-8.412579703141835,4.098897982164054,1.900067974037425,-0.32577672496150495,-2.641669856719009,0.0,-0.0032532844074414182,0.0,0.0,0.0,0.0,0.0
1757905665.7378447,0.0,-11.765748953919104,0.0,0.0,0.0,0.0,2.1666571829838595,-8.709883215331473,4.177900477858252,2.044126589891371,-0.39427451670010316,-2.7679928489039662,0.0,-0.0030558657385876308,0.0,0.0,0.0,0.0,0.0
1757905665.7970026,0.0,-11.917394089208184,0.0,0.0,0.0,0.0,2.294160286129866,-8.910000706331749,4.178601881244921,2.1576590790969354,-0.3328840209676109,-2.762142417331181,0.0,-0.003007393382876435,0.0,0.0,0.0,0.0,0.0
1757905665.8482287,0.0,-11.945967783573455,0.0,0.0,0.0,0.0,2.272006546952544,-8.801853955943576,4.203685247065098,2.1079024533686597,-0.34601792997339753,-2.742097999492649,0.0,-0.0031441138276298783,0.0,0.0,0.0,0.0,0.0
1757905665.9072957,0.0,-11.921731725462376,0.0,0.0,0.0,0.0,2.359247002072994,-9.188690504007036,4.144198783436066,2.336935682161686,-0.283372750066132,-2.833497426852763,0.0,-0.0027330412214553396,0.0,0.0,0.0,0.0,0.0
1757905665.9670208,0.0,-11.972319261355679,0.0,0.0,0.0,0.0,2.2882997704503123,-9.310028524232683,4.206841180730449,2.373384956717149,-0.33796931695319826,-2.9162839730784627,0.0,-0.002662290737122996,0.0,0.0,0.0,0.0,0.0
1757905666.0175421,0.0,-11.939891912906603,0.0,0.0,0.0,0.0,2.32645170178231,-9.243257503318214,4.171017322186159,2.3577952580465062,-0.3089371286600594,-2.8699437753772785,0.0,-0.0026966344095883895,0.0,0.0,0.0,0.0,0.0
1757905666.0770447,0.0,-12.03417685897539,0.0,0.0,0.0,0.0,2.323427770977799,-9.324587548840867,4.215816578166672,2.3713323874194567,-0.3331246083588282,-2.903428375074962,0.0,-0.0027095893101345236,0.0,0.0,0.0,0.0,0.0
1757905666.1271908,0.0,-12.181484801029729,0.0,0.0,0.0,0.0,2.3994900407759867,-9.788746762337277,4.240827638262581,2.5957969902138753,-0.30318188339272867,-3.0359442000178403,0.0,-0.0023927380386924517,0.0,0.0,0.0,0.0,0.0
1757905666.178878,0.0,-12.067622369170218,0.0,0.0,0.0,0.0,2.225755560349069,-9.649228424679382,4.283271381637964,2.5129334784542565,-0.4075445138441659,-3.0872596558910828,0.0,-0.002418393944490836,0.0,0.0,0.0,0.0,0.0
1757905666.2376544,0.0,-12.095913251928833,0.0,0.0,0.0,0.0,2.257790253229791,-9.817777624119786,4.279271194506205,2.5971410161381185,-0.3924675300057786,-3.128784046695004,0.0,-0.002278135627809046,0.0,0.0,0.0,0.0,0.0
1757905666.2970505,0.0,-12.064806385227582,0.0,0.0,0.0,0.0,2.297389878317975,-9.100718270240854,4.243999086367318,2.259462417993526,-0.35678055072962883,-2.829529220770126,0.0,-0.002964088114986728,0.0,0.0,0.0,0.0,0.0
1757905666.347935,0.0,-12.138699446615574,0.0,0.0,0.0,0.0,2.3416256355911287,-9.29346835561009,4.253524804627908,2.3649373744860314,-0.3416956132175212,-2.864878141973831,0.0,-0.002845231091005484,0.0,0.0,0.0,0.0,0.0
1757905666.4070284,0.0,-12.039632396922864,0.0,0.0,0.0,0.0,2.21385263343107,-9.093487928079782,4.276832500570468,2.268120809871194,-0.41511535958370305,-2.857799185362152,0.0,-0.002946144468843082,0.0,0.0,0.0,0.0,0.0
1757905666.4571302,0.0,-12.135219062270153,0.0,0.0,0.0,0.0,2.3623184593503757,-9.26494493504243,4.2404738139620735,2.3831516188589856,-0.32738847659492093,-2.84994873573803,0.0,-0.0028702741272277218,0.0,0.0,0.0,0.0,0.0
1757905666.5170813,0.0,-12.323474427271655,0.0,0.0,0.0,0.0,2.3400475661455014,-9.711498394393123,4.338555162921808,2.548232578764112,-0.3763993816587069,-3.0483083516996716,0.0,-0.002611976032878532,0.0,0.0,0.0,0.0,0.0
1757905666.5770488,0.0,-12.292231729558633,0.0,0.0,0.0,0.0,2.3495080287278856,-9.527750178013132,4.319218189192355,2.4681632867857406,-0.3614972410837191,-2.978263935405786,0.0,-0.0027644815515455007,0.0,0.0,0.0,0.0,0.0
1757905666.637047,0.0,-12.144283785678832,0.0,0.0,0.0,0.0,2.377509571439989,-9.676135968829914,4.2361337118234985,2.582180353494451,-0.3208710869809798,-3.008143032738918,0.0,-0.0024681478168489175,0.0,0.0,0.0,0.0,0.0
1757905666.6968427,0.0,-12.352271046951905,0.0,0.0,0.0,0.0,2.3697826490846587,-9.127849344412837,4.33551683180632,2.24556874630428,-0.36477265794602587,-2.8038909340347047,0.0,-0.0032244217025390685,0.0,0.0,0.0,0.0,0.0
1757905666.747909,0.0,-12.262464527326602,0.0,0.0,0.0,0.0,2.2038632063552304,-9.436412685863196,4.381994154846006,2.398984038906629,-0.4631587040446232,-3.010403786658677,0.0,-0.0028260518414634055,0.0,0.0,0.0,0.0,0.0
1757905666.807485,0.0,-12.308513511524644,0.0,0.0,0.0,0.0,2.3961091794086475,-9.654119733953213,4.300997742209961,2.5565376311782755,-0.3365890459227971,-2.9941469952344377,0.0,-0.002654393777571432,0.0,0.0,0.0,0.0,0.0
1757905666.8668985,0.0,-12.321357908375816,0.0,0.0,0.0,0.0,2.2556472482613956,-9.627375170551318,4.38207635766631,2.497491035554067,-0.4419961650227045,-3.0460920421296693,0.0,-0.0026939827378244987,0.0,0.0,0.0,0.0,0.0
1757905666.9173985,0.0,-12.373409783719932,0.0,0.0,0.0,0.0,2.3333060389527795,-9.805133096904383,4.364846626941602,2.5888109941418387,-0.3915157392804886,-3.0793572522072767,0.0,-0.0025682766868155493,0.0,0.0,0.0,0.0,0.0
1757905666.9772708,0.0,-12.387853366654369,0.0,0.0,0.0,0.0,2.4020692971669417,-9.695276185783678,4.333992253916095,2.5451997966463695,-0.3483035288922113,-3.0002627460267237,0.0,-0.002692577180870691,0.0,0.0,0.0,0.0,0.0
1757905667.0369081,0.0,-12.27060809581037,0.0,0.0,0.0,0.0,2.327625195250129,-9.505162758093372,4.321228139891659,2.472312695478177,-0.3774086815526932,-2.9601712268792886,0.0,-0.002765445337716999,0.0,0.0,0.0,0.0,0.0
1757905667.087009,0.0,-12.34393025700212,0.0,0.0,0.0,0.0,2.4031959027424477,-9.249217171930855,4.313266479525593,2.3530806318783495,-0.33615794168623697,-2.8219771801789526,0.0,-0.0030947130850712645,0.0,0.0,0.0,0.0,0.0
1757905667.1476066,0.0,-12.326672829286434,0.0,0.0,0.0,0.0,2.3037400888329693,-9.453951349462166,4.359389829958639,2.445983955143214,-0.4059871978077709,-2.950359159607798,0.0,-0.002872721479824268,0.0,0.0,0.0,0.0,0.0
1757905667.206922,0.0,-12.352081731123025,0.0,0.0,0.0,0.0,2.4571507092246447,-9.528688027200598,4.286518177604259,2.515298109694591,-0.30856133634609934,-2.890007518364351,0.0,-0.0028233937039224273,0.0,0.0,0.0,0.0,0.0
1757905667.256958,0.0,-12.348092681777946,0.0,0.0,0.0,0.0,2.2818480148872142,-9.269968352604915,4.380551620218597,2.335999277889072,-0.4323359221049122,-2.8836979149357846,0.0,-0.003078124329173031,0.0,0.0,0.0,0.0,0.0
1757905667.316937,0.0,-12.390164385704605,0.0,0.0,0.0,0.0,2.354468083664024,-9.187900730358677,4.361085622155646,2.301719808853607,-0.38495440351462723,-2.8155188337617654,0.0,-0.003202263655345927,0.0,0.0,0.0,0.0,0.0
1757905667.3774924,0.0,-12.355823573034392,0.0,0.0,0.0,0.0,2.384621075881291,-9.242992935033733,4.32899555455248,2.354920022580781,-0.3604537684279479,-2.8241008422346603,0.0,-0.0031128306380006593,0.0,0.0,0.0,0.0,0.0
1757905667.4368637,0.0,-12.392568924041608,0.0,0.0,0.0,0.0,2.4125435576973078,-9.08230482370651,4.330329768984425,2.2769825237292243,-0.339707552288591,-2.745514307087813,0.0,-0.0033102641003350986,0.0,0.0,0.0,0.0,0.0
1757905667.4869385,0.0,-12.53556249314126,0.0,0.0,0.0,0.0,2.4868120734015733,-9.500417674743312,4.354103585664466,2.4752944711157934,-0.3102844574165725,-2.8617537263892476,0.0,-0.0030351448183979475,0.0,0.0,0.0,0.0,0.0
1757905667.547359,0.0,-12.314025992916422,0.0,0.0,0.0,0.0,2.3310135087170214,-9.21897408559323,4.339125926595605,2.3408098704546547,-0.3886886026697328,-2.83768076542823,0.0,-0.0030950519073231924,0.0,0.0,0.0,0.0,0.0
1757905667.6069067,0.0,-12.332957924089195,0.0,0.0,0.0,0.0,2.489362559420208,-9.477000810122348,4.259033955362835,2.5015655466164937,-0.28355598835547147,-2.8430359982418083,0.0,-0.002855957113966847,0.0,0.0,0.0,0.0,0.0
1757905667.6569366,0.0,-12.240240103681423,0.0,0.0,0.0,0.0,2.3810831215056947,-9.327572917589626,4.278107013131399,2.417359414375388,-0.3429591509132614,-2.8475323266430452,0.0,-0.002912667186091797,0.0,0.0,0.0,0.0,0.0
1757905667.707061,0.0,-12.322903584503662,0.0,0.0,0.0,0.0,2.451758938516537,-9.512518996529526,4.276156048120786,2.506478720023275,-0.30664203032865245,-2.8743460396484335,0.0,-0.002810384587974136,0.0,0.0,0.0,0.0,0.0
1757905667.7571917,0.0,-12.284453542387466,0.0,0.0,0.0,0.0,2.329403133894213,-9.458282096975296,4.326560857472823,2.452144268058584,-0.38768594474453894,-2.918547372428267,0.0,-0.00282617144541217,0.0,0.0,0.0,0.0,0.0
1757905667.8173466,0.0,-12.4121528268691,0.0,0.0,0.0,0.0,2.4269641973963734,-9.36281121193135,4.331245875284028,2.4041368137005925,-0.33585472158412993,-2.8326018349709767,0.0,-0.0030493416149377506,0.0,0.0,0.0,0.0,0.0
1757905667.8773782,0.0,-12.309650837514223,0.0,0.0,0.0,0.0,2.403834549460069,-9.631577713196757,4.297206075750201,2.557693405791228,-0.33614493625806785,-2.9450777348147064,0.0,-0.002678073124317466,0.0,0.0,0.0,0.0,0.0
1757905667.9368343,0.0,-12.336637838403067,0.0,0.0,0.0,0.0,2.4795740740684744,-9.48449010146484,4.266442747319411,2.500129044525094,-0.28432651342970733,-2.8518468178761927,0.0,-0.002852147736938228,0.0,0.0,0.0,0.0,0.0
1757905667.9869766,0.0,-12.384483407395402,0.0,0.0,0.0,0.0,2.456417219175795,-9.560091604247633,4.3018697246923905,2.516842739257809,-0.3073412548870086,-2.8879491908070882,0.0,-0.002824391803147769,0.0,0.0,0.0,0.0,0.0
1757905668.047186,0.0,-12.465578685264662,0.0,0.0,0.0,0.0,2.5056400739951052,-9.718174623072867,4.310947939021504,2.5842551474715614,-0.28176820897020527,-2.934131283951152,0.0,-0.0027474040621917944,0.0,0.0,0.0,0.0,0.0
1757905668.1072621,0.0,-12.293188825165934,0.0,0.0,0.0,0.0,2.3156779407674266,-9.707761410871743,4.3378836214486745,2.565125810160141,-0.3921316557027581,-3.031248629922285,0.0,-0.0025854274142941914,0.0,0.0,0.0,0.0,0.0
1757905668.1670492,0.0,-12.210953605856108,0.0,0.0,0.0,0.0,2.2989173355159327,-10.363478776033908,4.3095430336363485,2.890136968282115,-0.3983638091943813,-3.286387518550006,0.0,-0.0018474748298222003,0.0,0.0,0.0,0.0,0.0
1757905668.217245,0.0,-12.39380754368037,0.0,0.0,0.0,0.0,2.5014910709068316,-10.515998060093201,4.280137485051099,2.9729292997498664,-0.28210707515170613,-3.241608123601463,0.0,-0.0018778094835871695,0.0,0.0,0.0,0.0,0.0
1757905668.2771757,0.0,-12.30759611638564,0.0,0.0,0.0,0.0,2.356952249498659,-10.537803891008702,4.322161917355082,2.9529038489424546,-0.3728725985702499,-3.330393661050838,0.0,-0.0017697922253769392,0.0,0.0,0.0,0.0,0.0
1757905668.3368382,0.0,-12.19369408158193,0.0,0.0,0.0,0.0,2.429291062790669,-10.008668031042056,4.229460129742137,2.730710776601498,-0.3038867606150248,-3.0693953148949347,0.0,-0.0021850260505398736,0.0,0.0,0.0,0.0,0.0
1757905668.387032,0.0,-12.19800773478878,0.0,0.0,0.0,0.0,2.443328501723804,-9.943245817189982,4.223359878620198,2.7090168872478233,-0.2899398685075063,-3.0402112169512234,0.0,-0.0022547619175987974,0.0,0.0,0.0,0.0,0.0
1757905668.4370532,0.0,-12.478375326823338,0.0,0.0,0.0,0.0,2.5405578525587846,-10.188898813174733,4.296410353461789,2.7991653839604105,-0.26068093536447867,-3.0868960401955445,0.0,-0.002289476513648605,0.0,0.0,0.0,0.0,0.0
1757905668.4874675,0.0,-12.344736295634785,0.0,0.0,0.0,0.0,2.5531543761479583,-10.619030943238425,4.226606795640989,3.0614045227954794,-0.23273214301943052,-3.2365139447103886,0.0,-0.0017257053523963607,0.0,0.0,0.0,0.0,0.0
1757905668.5493984,0.0,-12.39281594419021,0.0,0.0,0.0,0.0,2.4236675868740813,-10.192119574016267,4.324226792455269,2.7963585342988857,-0.3372057927591669,-3.151355928659694,0.0,-0.002200696370173942,0.0,0.0,0.0,0.0,0.0
1757905668.6072342,0.0,-12.236079644879169,0.0,0.0,0.0,0.0,2.505839405086413,-10.437854030652478,4.204311131213815,2.9584439380356122,-0.2580062401066548,-3.1865804293724254,0.0,-0.0017982256142266913,0.0,0.0,0.0,0.0,0.0
1757905668.6668506,0.0,-12.307457290284837,0.0,0.0,0.0,0.0,2.5336964452322057,-10.333552746521539,4.2209173310747685,2.908569877186262,-0.23664506894101706,-3.129365204222746,0.0,-0.0019739045437632986,0.0,0.0,0.0,0.0,0.0
1757905668.7170188,0.0,-12.16748874949194,0.0,0.0,0.0,0.0,2.438628088786792,-10.070182208807918,4.211975574433231,2.788668795125849,-0.28037799707969724,-3.0805323754574707,0.0,-0.0020973065406840216,0.0,0.0,0.0,0.0,0.0
1757905668.7670345,0.0,-12.33785954283545,0.0,0.0,0.0,0.0,2.507411076852554,-9.984063778430015,4.250709845128792,2.7281913574919714,-0.25633989589270106,-3.0073489241340914,0.0,-0.002353795764405435,0.0,0.0,0.0,0.0,0.0
1757905668.817146,0.0,-12.600192148107618,0.0,0.0,0.0,0.0,2.570647574146159,-9.91692012552963,4.335221539507955,2.646795726220132,-0.25998527307091435,-2.9474737830763376,0.0,-0.002683272022577988,0.0,0.0,0.0,0.0,0.0
1757905668.8770485,0.0,-16.553405266141706,0.0,0.0,0.0,0.0,2.5195113504677336,-9.66573712409451,6.123275161193128,1.3930399362170607,-0.9974934423383431,-2.884500302289893,0.0,-0.006887668142047195,0.0,0.0,0.0,0.0,0.0
1757905668.9368892,0.0,-18.813516955251142,0.0,0.0,0.0,0.0,2.5680644663312893,-10.350080082990456,7.073668930113293,1.1410511078344636,-1.3634397648738599,-3.122369532133696,0.0,-0.008463436872260687,0.0,0.0,0.0,0.0,0.0
1757905668.9874253,0.0,-20.0,0.0,0.0,0.0,0.0,2.4907488178735964,-10.746948232636063,8.141891599756924,0.6773467890015539,-1.8397992639029885,-3.3486181933994112,0.0,-0.009253051767363938,0.0,0.0,0.0,0.0,0.0
1757905669.0469906,0.0,-20.0,0.0,0.0,0.0,0.0,2.2337866668039155,-11.530957584328114,9.043848338454598,0.5142955596408747,-2.3615376531517596,-3.793072268862475,0.0,-0.008469042415671887,0.0,0.0,0.0,0.0,0.0
1757905669.1070447,0.0,-20.0,0.0,0.0,0.0,0.0,0.46679208248777093,-12.561383587386223,10.429553225447716,0.20482816692052047,-3.7939811954458826,-5.174956771060083,0.0,-0.007438616412613778,3.349882645361345,0.0,0.0,0.0,-10.252982868006468
1757905669.1669133,0.0,-20.0,0.0,0.0,0.0,0.0,1.4806259237222965,-14.134147305708996,10.999098247479115,0.47575777675918,-3.52138059000441,-5.2033147815549325,0.0,-0.0058658526942910036,0.0,0.0,0.0,0.0,0.0
1757905669.2170322,0.0,-20.0,0.0,0.0,0.0,0.0,1.681729738022905,-12.87319427752521,9.845269395911824,0.49950853826697483,-2.9727972325768226,-4.63506563200466,0.0,-0.00712680572247479,0.0,0.0,0.0,0.0,0.0
1757905669.2673643,0.0,-20.0,0.0,0.0,0.0,0.0,1.2914966136232806,-12.149978067757141,9.063355504321528,0.6457044033555772,-2.859112605101915,-4.580434563173917,0.0,-0.00785002193224286,0.0,0.0,0.0,0.0,0.0
1757905669.3268855,0.0,-20.0,0.0,0.0,0.0,0.0,1.8271545436816423,-16.9662084592374,9.127261465670015,3.0434534503981836,-2.5411998613413878,-6.154568329179322,0.0,-0.0030337915407626,0.0,0.0,0.0,0.0,0.0
1757905669.3769476,0.0,-20.0,0.0,0.0,0.0,0.0,1.18540441897901,-17.20713204164894,8.513354216120627,3.596440571195446,-2.6034538988467246,-6.613855753694555,0.0,-0.00279286795835106,0.0,0.0,0.0,0.0,0.0
1757905669.4271598,0.0,-20.0,0.0,0.0,0.0,0.0,1.391952890590221,-16.912267257492566,8.1749178780437,3.6627715513100654,-2.3736625132352507,-6.368708642384095,0.0,-0.003087732742507434,0.0,0.0,0.0,0.0,0.0
1757905669.48761,0.0,-20.0,0.0,0.0,0.0,0.0,1.453045600707939,-15.35182122155191,8.313038080862443,2.7750807915843865,-2.4065708505912298,-5.751810168838192,0.0,-0.00464817877844809,0.0,0.0,0.0,0.0,0.0
1757905669.5472662,0.0,-19.909658509762238,0.0,0.0,0.0,0.0,1.547374524236984,-15.464219950984408,7.812090142708162,3.2104435158447067,-2.169058966704634,-5.701812419753234,0.0,-0.004445438558777831,0.0,0.0,0.0,0.0,0.0
1757905669.6069753,0.0,-16.542909000193397,0.0,0.0,0.0,0.0,2.170395430152623,-16.118890555112543,6.251098926345781,4.56413511987149,-1.23716147969182,-5.593862077065822,0.0,-0.0004240184450808542,0.0,0.0,0.0,0.0,0.0
1757905669.657032,0.0,-14.253340237859703,0.0,0.0,0.0,0.0,2.1393778540090107,-15.981374665656489,5.284722856268461,5.107934654392904,-0.8726457600595794,-5.528563689733849,0.0,0.0017280344277967857,0.0,0.0,0.0,0.0,0.0
1757905669.7170837,0.0,-10.41704011555948,0.0,0.0,0.0,0.0,2.0585314333779112,-13.572912998675493,3.6228171773998152,4.735265663716585,-0.2512100984700309,-4.694965012928926,0.0,0.0031558728831160127,0.0,0.0,0.0,0.0,0.0
1757905669.77717,0.0,-7.114014189934716,0.0,0.0,0.0,0.0,1.07793751814045,-9.991459135748547,2.633537994812303,3.1206171913106555,-0.44656610591166745,-3.817410662209564,0.0,0.0028774449458138316,0.0,0.0,0.0,0.0,0.0
1757905669.8368704,0.0,-4.767818874990189,0.0,0.0,0.0,0.0,0.34222617421612844,-7.194756236806723,1.876170764518898,1.7624355469052653,-0.5479603092141777,-3.0931732436853547,0.0,0.002426937361816534,0.0,0.0,0.0,0.0,0.0
1757905669.8877501,0.0,-4.164175179024247,0.0,0.0,0.0,0.0,-0.005104084045416173,-6.511671525564477,1.665662251413028,1.4044875033862891,-0.6442016963999521,-2.970421729999306,0.0,0.00234749634654023,0.0,0.0,0.0,0.0,0.0
1757905669.939648,0.0,-4.0,0.0,0.0,0.0,0.0,-0.29969303790536905,-5.928715260888694,1.450745079433396,1.1146529165406465,-0.7113988291979426,-2.884413208703636,0.0,0.0019287152608886942,0.0,0.0,0.0,0.0,0.0
1757905669.9972484,0.0,-4.0,0.0,0.0,0.0,0.0,-0.5484142920209532,-5.386211703847481,1.0996185772089793,0.8302082252853723,-0.698552449025331,-2.8068141534341153,0.0,0.001386211703847481,0.0,0.0,0.0,0.0,0.0
1757905670.0570414,0.0,-4.0,0.0,0.0,0.0,0.0,-0.6513659171666953,-4.911685568599765,1.0462102045384465,0.5828934410381061,-0.728490977179923,-2.6846432762968857,0.0,0.0009116855685997649,0.0,0.0,0.0,0.0,0.0
1757905670.1170073,0.0,-4.0,0.0,0.0,0.0,0.0,-0.442307947419773,-5.368771158063151,1.0254681444195712,0.8034915946812464,-0.6091515693553158,-2.731215167949533,0.0,0.0013687711580631509,0.0,0.0,0.0,0.0,0.0
1757905670.1769216,0.0,-4.216043583790434,0.0,0.0,0.0,0.0,-0.7317497328102585,-4.811691266296812,1.5193900383375536,0.20464905904947692,-0.9514083603578105,-2.680454077273467,0.0,0.0005956476825063782,0.0,0.0,0.0,0.0,0.0
1757905670.226932,0.0,-9.02159595718532,0.0,0.0,0.0,0.0,-0.690430986644744,-4.906774199205439,3.5419734656026396,-1.0782378602560307,-1.7313961282432073,-2.709361525055824,0.0,-0.004114821757979881,0.0,0.0,0.0,0.0,0.0
1757905670.2772913,0.0,-11.36105300530101,0.0,0.0,0.0,0.0,-0.47044594727160205,-6.144359293337348,4.520004941698314,-1.0029167374244665,-1.9966617978540047,-3.074358520005105,0.0,-0.005216693711963661,0.0,0.0,0.0,0.0,0.0
1757905670.3370492,0.0,-14.164391932711823,0.0,0.0,0.0,0.0,-0.4425964360497595,-7.492188743190594,5.648442989581424,-0.8151920151874231,-2.4191315667392113,-3.613249464998356,0.0,-0.006672203189521228,0.0,0.0,0.0,0.0,0.0
1757905670.387812,0.0,-18.98711864505656,0.0,0.0,0.0,0.0,0.7664532511918595,-11.867710874079226,7.556074200560113,0.7593693337370216,-2.542136147987123,-4.757294446931786,0.0,-0.007119407770977336,0.0,0.0,0.0,0.0,0.0
1757905670.4470015,0.0,-20.0,0.0,0.0,0.0,0.0,1.740906331406908,-16.779402616333293,9.288403739677092,2.5221957737876317,-2.720222245118303,-6.1764235463201915,0.0,-0.003220597383666707,0.0,0.0,0.0,0.0,0.0
1757905670.5098803,0.0,-20.0,0.0,0.0,0.0,0.0,2.229856040608883,-19.828853014842966,10.163110397870955,3.64023173035231,-2.776198836180854,-7.118114600082143,0.0,-0.00017114698515703354,0.0,0.0,0.0,0.0,0.0
1757905670.566854,0.0,-20.0,0.0,0.0,0.0,0.0,2.1941616176964676,-21.28036443720518,10.34121635758066,4.244457087034222,-2.866547875585002,-7.705306890127417,0.0,0.0012803644372051792,0.0,0.0,0.0,0.0,0.0
1757905670.6172352,0.0,-20.0,0.0,0.0,0.0,0.0,1.9180518057748934,-21.78230191081836,10.610953882543898,4.2831263500150545,-3.130107402734828,-8.04662157729657,0.0,0.0017823019108183615,0.0,0.0,0.0,0.0,0.0
1757905670.6769855,0.0,-20.0,0.0,0.0,0.0,0.0,0.9877390875067147,-21.429372531828548,10.421410270598376,3.774433730765545,-3.627663244455187,-8.446010026419831,0.0,0.0014293725318285481,0.0,0.0,0.0,0.0,0.0
1757905670.7270892,0.0,-20.0,0.0,0.0,0.0,0.0,0.8106704372121663,-21.126987946008292,10.624022349287106,3.335362079387328,-3.8232338929997245,-8.432596968547152,0.0,0.001126987946008292,0.0,0.0,0.0,0.0,0.0
1757905670.7876031,0.0,-20.0,0.0,0.0,0.0,0.0,0.35774264837192016,-20.84853920899468,11.258978321151357,2.574304958811312,-4.3108869309125195,-8.569264784405183,0.0,0.00084853920899468,0.0,0.0,0.0,0.0,0.0
1757905670.8470953,0.0,-20.0,0.0,0.0,0.0,0.0,0.18012941905652202,-20.724351832882174,11.336310590960837,2.3920523338628614,-4.428351853022099,-8.616169046003565,0.0,0.0007243518328821743,0.0,0.0,0.0,0.0,0.0
1757905670.9069903,0.0,-20.0,0.0,0.0,0.0,0.0,-0.24762210221751338,-20.56446055848845,11.854951941520248,1.825475023387457,-4.858143520496546,-8.77433874733199,0.0,0.0005644605584884488,0.0,0.0,0.0,0.0,0.0
1757905670.9575586,0.0,-20.0,0.0,0.0,0.0,0.0,-0.2865866932253124,-20.433463701206474,12.057638016080201,1.5847142679420325,-4.959398846615406,-8.746253193529558,0.0,0.00043346370120647394,0.0,0.0,0.0,0.0,0.0
1757905671.0077362,0.0,-20.0,0.0,0.0,0.0,0.0,-0.28534314629501045,-20.509823165359798,12.308402761120572,1.428881346366456,-5.055944749271316,-8.774075041027553,0.0,0.0005098231653597978,0.0,0.0,0.0,0.0,0.0
1757905671.0669522,0.0,-20.0,0.0,0.0,0.0,0.0,-0.5411054423449951,-20.34958836879314,12.855563237775364,0.9596759978846551,-5.381315761349554,-8.859865689498031,0.0,0.00034958836879313895,0.0,0.0,0.0,0.0,0.0
1757905671.1173296,0.0,-20.0,0.0,0.0,0.0,0.0,-0.5886179822573786,-20.251884284048103,12.951078644071902,0.8268787423551925,-5.446675092967089,-8.846016993320973,0.0,0.0002518842840481028,0.0,0.0,0.0,0.0,0.0
1757905671.17697,0.0,-20.0,0.0,0.0,0.0,0.0,-0.7330719868795778,-20.386928972476877,13.19040059651772,0.6911994004613113,-5.619764722554772,-8.97079889151371,0.0,0.000386928972476877,0.0,0.0,0.0,0.0,0.0
1757905671.227079,0.0,-20.0,0.0,0.0,0.0,0.0,-0.7507264530392563,-20.57988550557978,13.785965255374128,0.3695388330279486,-5.874088385095343,-9.04266154500696,0.0,0.0005798855055797816,0.0,0.0,0.0,0.0,0.0
1757905671.2878377,0.0,-20.0,0.0,0.0,0.0,0.0,-0.7938920703587389,-20.540174086014886,14.152945220221378,0.08759009506834478,-6.050475114961198,-9.04855386512024,0.0,0.0005401740860148862,0.0,0.0,0.0,0.0,0.0
1757905671.3469136,0.0,-20.0,0.0,0.0,0.0,0.0,-0.8893517448849375,-20.553665895983315,14.87796900114646,-0.42294631297391977,-6.404413906188539,-9.098141899866038,0.0,0.0005536658959833147,0.0,0.0,0.0,0.0,0.0
1757905671.396952,0.0,-20.0,0.0,0.0,0.0,0.0,3.0915201500421894,-25.33240436840523,14.94249915021716,2.933774480185833,-4.3219484514833315,-8.750021282001894,0.0,0.005332404368405229,0.0,0.0,0.0,0.0,0.0
1757905671.4478104,0.0,-20.0,0.0,0.0,0.0,0.0,3.3445221322986227,-25.66485132947598,15.802741672684,3.08977006290954,-4.522385701116838,-8.59336042096616,0.0,0.00566485132947598,4.467097455618663,0.0,0.0,0.0,-22.767082031874043
1757905671.506891,0.0,-20.0,0.0,0.0,0.0,0.0,-4.4765460458160415,-18.07152428381125,21.829405160229467,-4.229704886884233,-10.922225387107195,-10.222460696826817,0.0,-0.0019284757161887498,0.0,0.0,0.0,0.0,0.0
1757905671.5574312,0.0,-20.0,0.0,0.0,0.0,0.0,3.314037161288298,-25.424028287219627,16.677007306783135,2.5482581972009277,-4.852909311848828,-8.603450473127438,0.0,0.005424028287219627,0.0,0.0,0.0,0.0,0.0
1757905671.6176596,0.0,-20.0,0.0,0.0,0.0,0.0,-0.9486593912953061,-22.057709614841812,15.884698017769189,1.3842682367824015,-6.775037175872557,-9.78304244028997,0.0,0.002057709614841812,0.0,0.0,0.0,0.0,0.0
1757905671.6773899,0.0,-12.113221418801926,0.0,0.0,0.0,0.0,0.19652055536105426,-19.862742518585847,4.841301578487759,6.478199248430889,-1.9122098533848102,-8.190177042474325,0.0,0.007749521099783921,0.0,0.0,0.0,0.0,0.0
1757905671.7368703,0.0,-5.368502268143003,0.0,0.0,0.0,0.0,0.2493929908147572,-14.738523732013375,2.1328698489644236,5.20263100537067,-0.7336803339124426,-6.109096282779292,0.0,0.009370021463870374,0.0,0.0,0.0,0.0,0.0
1757905671.786938,0.0,-4.14740382496837,0.0,0.0,0.0,0.0,-0.7986952910260015,-12.243052266672388,1.454042361855683,4.218183577714081,-0.9880566184799531,-5.6769279012402105,0.0,0.008095648441704018,0.0,0.0,0.0,0.0,0.0
1757905671.8371067,0.0,-4.0,0.0,0.0,0.0,0.0,-1.0494501750667597,-8.061554942638034,0.6787658850234761,2.342495102751076,-0.8074845741494472,-4.166968722550022,0.0,0.004061554942638035,0.0,0.0,0.0,0.0,0.0
1757905671.896931,0.0,-4.0,0.0,0.0,0.0,0.0,-1.2951474311943525,-5.660242996689352,0.47948485356476045,1.1070859119354717,-0.8693957905264604,-3.3419100310683953,0.0,0.0016602429966893519,0.0,0.0,0.0,0.0,0.0
1757905671.9472218,0.0,-4.0,0.0,0.0,0.0,0.0,-1.197378418460421,-5.111667272615936,0.5079233018993808,0.7849261225904132,-0.8263766717736329,-3.0681509986419924,0.0,0.001111667272615936,0.0,0.0,0.0,0.0,0.0
1757905672.0068493,0.0,-4.0,0.0,0.0,0.0,0.0,-1.2847744141239967,-4.76925917299228,0.6028054588541787,0.5440953854010653,-0.8998140381259689,-2.993979605070374,0.0,0.00076925917299228,0.0,0.0,0.0,0.0,0.0
1757905672.0569253,0.0,-4.0,0.0,0.0,0.0,0.0,-1.0405453126577813,-4.6848783391742534,0.5019573541506714,0.5504692519612266,-0.7321822771472433,-2.826625768687889,0.0,0.0006848783391742534,0.0,0.0,0.0,0.0,0.0
1757905672.117258,0.0,-4.0,0.0,0.0,0.0,0.0,-1.0601401245560875,-4.026021811706488,0.4923783046083801,0.20326948688649193,-0.7454090824080928,-2.5740767421311617,0.0,2.6021811706487876e-05,0.0,0.0,0.0,0.0,0.0
1757905672.1772227,0.0,-4.0,0.0,0.0,0.0,0.0,-1.2412493696142493,-4.484348444102006,0.569391754291797,0.41045042237640905,-0.8736640971768357,-2.8401536245593824,0.0,0.0004843484441020056,0.0,0.0,0.0,0.0,0.0
1757905672.2368827,0.0,-4.0,0.0,0.0,0.0,0.0,-0.8965373979856008,-4.842504587478521,0.4502738630847744,0.6674799975609034,-0.6403219916133184,-2.7930427031561615,0.0,0.0008425045874785209,0.0,0.0,0.0,0.0,0.0
1757905672.287181,0.0,-4.0,0.0,0.0,0.0,0.0,-1.00356510328164,-5.048020422375412,0.5404113748259167,0.7263618374611321,-0.7290495748241483,-2.9231163060529997,0.0,0.0010480204223754122,0.0,0.0,0.0,0.0,0.0
1757905672.3469713,0.0,-4.466650532406669,0.0,0.0,0.0,0.0,-0.9060185173652022,-4.860874346307847,1.5398977767290811,-0.05910433502039923,-1.084943281896695,-2.8058399175839717,0.0,0.00039422381390117776,0.0,0.0,0.0,0.0,0.0
1757905672.4069571,0.0,-9.231662338059884,0.0,0.0,0.0,0.0,-0.6949890676086817,-5.242731332764959,3.626674029980767,-1.144641294308754,-1.8144057548698134,-2.840003389957885,0.0,-0.003988931005294925,0.0,0.0,0.0,0.0,0.0
1757905672.457498,0.0,-12.473875968385753,0.0,0.0,0.0,0.0,-0.16508417374311313,-6.219573598230969,4.986818653563313,-1.3632948012854222,-2.060026844681402,-2.9438087433556004,0.0,-0.006254302370154784,0.0,0.0,0.0,0.0,0.0
1757905672.5172637,0.0,-16.231385222848804,0.0,0.0,0.0,0.0,-0.11538898847325568,-7.4297139102187515,6.491528632128295,-1.4889489740326223,-2.623202559364398,-3.3960020664993444,0.0,-0.008801671312630053,0.0,0.0,0.0,0.0,0.0
1757905672.578618,0.0,-20.0,0.0,0.0,0.0,0.0,0.9855880795010853,-10.979374328700922,8.961378849698278,-0.8036122298055115,-3.034617340283489,-4.211254548771397,0.0,-0.009020625671299078,0.0,0.0,0.0,0.0,0.0
1757905672.6367807,0.0,-20.0,0.0,0.0,0.0,0.0,1.6514602761256965,-15.292388469868634,11.286847356921434,0.22773388858266874,-3.624202472709488,-5.505687841745815,0.0,-0.004707611530131366,0.0,0.0,0.0,0.0,0.0
1757905672.6874843,0.0,-20.0,0.0,0.0,0.0,0.0,1.5983496019405206,-16.54673423488416,12.209307822024554,0.3875019686803405,-3.9974119929942225,-6.055929743395406,0.0,-0.003453265765115841,0.0,0.0,0.0,0.0,0.0
1757905672.7471147,0.0,-20.0,0.0,0.0,0.0,0.0,1.917970811445641,-20.606067572879294,12.977793581420219,2.047850614457582,-4.135534501102419,-7.46390474150544,0.0,0.0006060675728792937,0.0,0.0,0.0,0.0,0.0
1757905672.8069277,0.0,-20.0,0.0,0.0,0.0,0.0,1.9097469732696342,-22.065287065678504,13.78906112859201,2.250972096732802,-4.480149355443035,-8.052169871276199,0.0,0.002065287065678504,0.0,0.0,0.0,0.0,0.0
1757905672.866868,0.0,-20.0,0.0,0.0,0.0,0.0,1.5737773450536576,-21.955344758464395,13.986009941795189,1.9033619782892839,-4.758454679614662,-8.227351497502799,0.0,0.0019553447584643954,0.0,0.0,0.0,0.0,0.0
1757905672.9176192,0.0,-20.0,0.0,0.0,0.0,0.0,1.0465870223989646,-21.620060113164637,13.861574664213894,1.655001272247681,-5.004300201992177,-8.383060253074177,0.0,0.0016200601131646374,0.0,0.0,0.0,0.0,0.0
1757905672.976922,0.0,-20.0,0.0,0.0,0.0,0.0,0.48352763911559254,-20.738005515338205,13.934149742914954,0.8865625031492592,-5.336096722293262,-8.361375098303135,0.0,0.0007380055153382053,0.0,0.0,0.0,0.0,0.0
1757905673.0269754,0.0,-20.0,0.0,0.0,0.0,0.0,0.16930059235495679,-20.416317193481312,14.097754289007039,0.4756636057603799,-5.562997755464445,-8.403956636638638,0.0,0.0004163171934813121,0.0,0.0,0.0,0.0,0.0
1757905673.0871475,0.0,-20.0,0.0,0.0,0.0,0.0,0.126393009612977,-20.357192941568947,14.774403490990345,-0.07329951722171098,-5.865054841216373,-8.386221447283392,0.0,0.00035719294156894677,0.0,0.0,0.0,0.0,0.0
1757905673.1472752,0.0,-20.0,0.0,0.0,0.0,0.0,0.16713330993562026,-20.41277838546877,15.107065287522463,-0.2886317043086214,-5.972867181346544,-8.375917984330716,0.0,0.00041277838546876925,0.0,0.0,0.0,0.0,0.0
1757905673.2068667,0.0,-20.0,0.0,0.0,0.0,0.0,0.13054077805155517,-20.410046490309316,15.358888888875155,-0.47819202741858935,-6.095021828801005,-8.388058813139025,0.0,0.00041004649030931616,0.0,0.0,0.0,0.0,0.0
1757905673.2573836,0.0,-20.0,0.0,0.0,0.0,0.0,0.15822544925868862,-20.41543990616683,15.789203949213219,-0.7745806406528525,-6.251477849346086,-8.375832949156026,0.0,0.0004154399061668315,5.127470018096933,0.0,0.0,0.0,-16.193955652360835
1757905673.3170097,0.0,-20.0,0.0,0.0,0.0,0.0,3.418658992295043,-23.85373951741962,16.227390279888937,1.7311076339013445,-4.642471383747893,-7.836210063355151,0.0,0.0038537395174196194,0.0,0.0,0.0,0.0,0.0
1757905673.3768764,0.0,-20.0,0.0,0.0,0.0,0.0,0.13236859704581277,-18.93512056570208,18.021183976742037,-1.832883786960464,-7.062047088594619,-7.903437771524964,0.0,-0.0010648794342979215,0.0,0.0,0.0,0.0,0.0
1757905673.4269695,0.0,-20.0,0.0,0.0,0.0,0.0,0.8032149172700933,-18.963146631786355,17.09040399558617,-1.4869764331740556,-6.347243148527351,-7.523981697877016,0.0,-0.0010368533682136452,0.0,0.0,0.0,0.0,0.0
1757905673.4873912,0.0,-20.0,0.0,0.0,0.0,0.0,-0.7864193321151145,-19.402968624219085,17.684186394443607,-1.659668439835131,-7.412781751742803,-8.540986048669597,0.0,-0.0005970313757809151,0.0,0.0,0.0,0.0,0.0
1757905673.5470734,0.0,-20.0,0.0,0.0,0.0,0.0,0.31031855757965177,-20.94001990179219,14.737280277974513,1.1172790292072299,-5.618201992200882,-8.556137191073022,0.0,0.0009400199017921907,0.0,0.0,0.0,0.0,0.0
1757905673.6068647,0.0,-20.0,0.0,0.0,0.0,0.0,0.46197381812999005,-21.930518477534672,13.613610145895308,2.4048453224177186,-5.082882191068311,-8.877073663669217,0.0,0.0019305184775346724,0.0,0.0,0.0,0.0,0.0
1757905673.6576574,0.0,-20.0,0.0,0.0,0.0,0.0,0.4122037996893514,-22.044433024641688,12.521096098467472,3.093870722493036,-4.701652473759721,-8.931567364485906,0.0,0.0020444330246416876,0.0,0.0,0.0,0.0,0.0
1757905673.7171063,0.0,-20.0,0.0,0.0,0.0,0.0,0.21837493925482182,-21.1313068450775,10.385404072130019,3.8314291463238312,-3.9849316839338447,-8.709502877695375,0.0,0.0011313068450774998,0.0,0.0,0.0,0.0,0.0
1757905673.767931,0.0,-15.082377494039926,0.0,0.0,0.0,0.0,0.5689253430813487,-21.48235711267158,6.006065408704379,6.550062554351711,-2.1131849520722823,-8.554778535448463,0.0,0.006399979618631653,0.0,0.0,0.0,0.0,0.0
1757905673.82698,0.0,-6.3231232619852795,0.0,0.0,0.0,0.0,0.23507384341281076,-19.412476819848653,2.51830147796975,7.422486845708614,-0.8962635190860029,-7.853472945073113,0.0,0.013089353557863373,0.0,0.0,0.0,0.0,0.0
1757905673.8776467,0.0,-4.088577386350197,0.0,0.0,0.0,0.0,-0.454258410867443,-15.709080613986758,1.5710772429209388,5.972225944578334,-0.8666958968960881,-6.82011801212535,0.0,0.011620503227636561,0.0,0.0,0.0,0.0,0.0
1757905673.9369342,0.0,-4.0,0.0,0.0,0.0,0.0,-0.8245796070336453,-9.047394681093294,-0.23212428167358953,3.3232426429823265,-0.33086960038035773,-4.405261728748195,0.0,0.005047394681093295,0.0,0.0,0.0,0.0,0.0
1757905673.987146,0.0,-4.0,0.0,0.0,0.0,0.0,-0.9649012035422246,-6.879201784838716,-0.16494987896329388,2.0803905466394497,-0.4267795760092951,-3.657730485373048,0.0,0.002879201784838716,0.0,0.0,0.0,0.0,0.0
1757905674.0471168,0.0,-4.0,0.0,0.0,0.0,0.0,-0.7846929284260762,-5.078615608499445,-0.07699087534254691,1.0496278352598378,-0.376517022144011,-2.8254002953109003,0.0,0.0010786156084994448,0.0,0.0,0.0,0.0,0.0
1757905674.1070192,0.0,-4.0,0.0,0.0,0.0,0.0,-0.9711207838048761,-4.634660546237836,0.0342335230687736,0.7563548152859567,-0.5160645144472997,-2.7623491039007106,0.0,0.0006346605462378357,0.0,0.0,0.0,0.0,0.0
1757905674.1574621,0.0,-4.0,0.0,0.0,0.0,0.0,-0.9283765234876162,-4.621243692519091,0.023110750087154512,0.7620158697464148,-0.49752351768600117,-2.7181066354955314,0.0,0.0006212436925190907,0.0,0.0,0.0,0.0,0.0
1757905674.217209,0.0,-4.0,0.0,0.0,0.0,0.0,-0.8615483482672827,-4.704275917607534,0.018568480959506736,0.8081192333655022,-0.4555076095124577,-2.715874265349944,0.0,0.000704275917607534,0.0,0.0,0.0,0.0,0.0
1757905674.2680063,0.0,-4.0,0.0,0.0,0.0,0.0,-0.7859354995705808,-4.965357161030609,0.02263333102313341,0.9345360810011081,-0.41634507346549104,-2.7747191596030176,0.0,0.0009653571610306093,0.0,0.0,0.0,0.0,0.0
1757905674.3269663,0.0,-4.0,0.0,0.0,0.0,0.0,-0.8617517212071116,-4.8183902598347,0.013422063535664608,0.8569631348289857,-0.455516942842673,-2.767952741289943,0.0,0.0008183902598347004,0.0,0.0,0.0,0.0,0.0
1757905674.377297,0.0,-4.0,0.0,0.0,0.0,0.0,-0.7348790589785783,-4.845252482890149,0.003027053374639198,0.859609130622182,-0.3877140220669917,-2.7033847621124876,0.0,0.0008452524828901487,0.0,0.0,0.0,0.0,0.0
1757905674.4369237,0.0,-7.996585792622564,0.0,0.0,0.0,0.0,-0.7679784867043886,-5.107899473859689,3.1050717444469655,-0.9956236390643347,-1.6525306709366472,-2.792995609433916,0.0,-0.0028886863187628747,0.0,0.0,0.0,0.0,0.0
1757905674.4875026,0.0,-15.128698437927573,0.0,0.0,0.0,0.0,-0.02535778315164864,-8.0447395090345,6.05142624601457,-1.2426426401915776,-2.4253389080640706,-3.507414329058414,0.0,-0.007083958928893074,0.0,0.0,0.0,0.0,0.0
1757905674.5471268,0.0,-19.91088168353439,0.0,0.0,0.0,0.0,0.009643330803627198,-9.566077582858382,7.964346835283097,-1.3925991983716024,-3.13091558901883,-4.1359700432118185,0.0,-0.01034480410067601,0.0,0.0,0.0,0.0,0.0
1757905674.6069775,0.0,-20.0,0.0,0.0,0.0,0.0,0.704796722694601,-12.331234173613012,9.371322867233882,-0.5858852652564379,-3.304139631184345,-4.883086490325772,0.0,-0.007668765826386988,0.0,0.0,0.0,0.0,0.0
1757905674.6574178,0.0,-20.0,0.0,0.0,0.0,0.0,2.119778804297438,-21.25465818548912,12.180944260539562,2.687782235376578,-3.6805101385233137,-7.576586786284455,0.0,0.0012546581854891202,0.0,0.0,0.0,0.0,0.0
1757905674.7172883,0.0,-20.0,0.0,0.0,0.0,0.0,2.36358831824552,-22.53149228586148,13.019168847870313,2.8206700192900303,-3.89624012050575,-7.947838006739102,0.0,0.002531492285861479,0.0,0.0,0.0,0.0,0.0
1757905674.7781086,0.0,-20.0,0.0,0.0,0.0,0.0,1.2611171235166605,-22.25121028496599,14.180011145856511,1.722380724591504,-5.000182902509304,-8.444130596337033,0.0,0.002251210284965989,0.0,0.0,0.0,0.0,0.0
1757905674.8368616,0.0,-20.0,0.0,0.0,0.0,0.0,0.6937664254481837,-21.56967584942743,14.42038675787759,1.056019388311958,-5.413382898909381,-8.517641580605044,0.0,0.0015696758494274298,0.0,0.0,0.0,0.0,0.0
1757905674.8873928,0.0,-20.0,0.0,0.0,0.0,0.0,-0.1734551290996453,-20.915529863092118,14.43120044412392,0.46756490492033126,-5.889409997334091,-8.741812875339503,0.0,0.0009155298630921181,0.0,0.0,0.0,0.0,0.0
1757905674.9470727,0.0,-20.0,0.0,0.0,0.0,0.0,-0.6093545810300416,-19.85487922136798,14.66309936387007,-0.38235653588920526,-6.208751892550632,-8.589747696151827,0.0,-0.00014512077863201967,0.0,0.0,0.0,0.0,0.0
1757905675.0071316,0.0,-20.0,0.0,0.0,0.0,0.0,-0.40990552906236744,-20.238877398369688,14.742781603559477,-0.2766235162155005,-6.137769756288273,-8.60516978750434,0.0,0.00023887739836968793,0.0,0.0,0.0,0.0,0.0
1757905675.057835,0.0,-20.0,0.0,0.0,0.0,0.0,-4.2373910792232286,-15.709515210181612,19.730526661880933,-5.068948059029324,-10.09043040555501,-9.175305381760827,0.0,-0.0042904847898183876,0.0,0.0,0.0,0.0,0.0
1757905675.1174352,0.0,-20.0,0.0,0.0,0.0,0.0,1.3661607710170949,-20.287556066780148,18.558461235472123,-1.535673909662719,-6.650080270446077,-7.802010262864009,0.0,0.000287556066780148,5.304850250073649,0.0,0.0,0.0,-19.92323203710366
1757905675.1770468,0.0,-20.0,0.0,0.0,0.0,0.0,-2.0382478992705497,-17.134018832574952,19.452961470703876,-3.32513758548361,-8.843669220304399,-8.390071544390413,0.0,-0.002865981167425048,4.484535507917389,0.0,0.0,0.0,-20.69241988621866
1757905675.237068,0.0,-20.0,0.0,0.0,0.0,0.0,2.3967170643550895,-21.787212678493916,16.072924807546432,1.336933027584116,-5.085387203050021,-7.602907220578793,0.0,0.0017872126784939156,0.0,0.0,0.0,0.0,0.0
1757905675.2877736,0.0,-20.0,0.0,0.0,0.0,0.0,-0.07995089605339874,-17.9041970220698,12.29591578612203,2.0791788411810477,-4.819803469789469,-7.534872948314134,0.0,-0.0020958029779302016,0.0,0.0,0.0,0.0,0.0
1757905675.346875,0.0,-15.19385543692799,0.0,0.0,0.0,0.0,0.6657167294506348,-18.48711296334276,6.040971786248646,6.263337837745162,-1.9705586047000052,-7.343814415375016,0.0,0.0032932575264147702,0.0,0.0,0.0,0.0,0.0
1757905675.3968942,0.0,-11.214048655369997,0.0,0.0,0.0,0.0,0.07497365133376638,-17.89667183064594,4.484992855156693,6.722339530195508,-1.6334455819891902,-7.384407651298666,0.0,0.006682623175275943,0.0,0.0,0.0,0.0,0.0
1757905675.4470294,0.0,-9.208683679845604,0.0,0.0,0.0,0.0,0.5932512896099603,-13.96005923658183,3.6353857740065068,4.737572642446334,-1.0176221927510083,-5.652642915348692,0.0,0.004751375556736226,0.0,0.0,0.0,0.0,0.0
1757905675.5068383,0.0,-8.203582310825356,0.0,0.0,0.0,0.0,-1.1411783368996893,-11.011146986416177,3.0766075538275484,3.1564960179771866,-1.7708085843138375,-5.429432962136758,0.0,0.002807564675590822,0.0,0.0,0.0,0.0,0.0
1757905675.5570614,0.0,-4.0,0.0,0.0,0.0,0.0,-0.7613478581474526,-9.78121248458882,1.3421186412984363,3.2491592584182025,-0.9128166821753878,-4.676352822835667,0.0,0.0057812124845888204,0.0,0.0,0.0,0.0,0.0
1757905675.6171227,0.0,-4.0,0.0,0.0,0.0,0.0,-0.7998033132476264,-9.133756985292079,0.9896506655722532,2.968206944136658,-0.7910064068888198,-4.3953929512992405,0.0,0.005133756985292079,0.0,0.0,0.0,0.0,0.0
1757905675.6672027,0.0,-4.536130460466784,0.0,0.0,0.0,0.0,-1.3482150288332353,-6.742639188481078,1.214311724693513,1.4725786868752333,-1.1842157802280262,-3.819155934592623,0.0,0.0022065087280142945,0.0,0.0,0.0,0.0,0.0
1757905675.7172186,0.0,-4.0,0.0,0.0,0.0,0.0,-0.9861506939265585,-6.0637033747509275,1.126459237945033,1.0812834748618085,-0.9616477194593839,-3.3616051485004945,0.0,0.0020637033747509274,0.0,0.0,0.0,0.0,0.0
1757905675.7769039,0.0,-4.0,0.0,0.0,0.0,0.0,-1.19867682270315,-5.318749882701079,1.009800491849658,0.7242219692436885,-1.0407826986952353,-3.151764612430819,0.0,0.0013187498827010788,0.0,0.0,0.0,0.0,0.0
1757905675.8275642,0.0,-4.288687780437206,0.0,0.0,0.0,0.0,-1.3667403514853649,-4.6602892684097625,1.036762109701684,0.32107162714488563,-1.1431671981750242,-2.979312459666576,0.0,0.00037160148797255667,0.0,0.0,0.0,0.0,0.0
1757905675.8871815,0.0,-4.0,0.0,0.0,0.0,0.0,-1.225032003596368,-4.115644262862072,0.8645825403972147,0.1352971978699628,-0.9948074497006083,-2.7019494029232733,0.0,0.00011564426286207219,0.0,0.0,0.0,0.0,0.0
1757905675.9468806,0.0,-4.0,0.0,0.0,0.0,0.0,-1.1211755525726728,-4.25225229714088,0.7807811948189559,0.2583491378346515,-0.9114140187450451,-2.6786129558396268,0.0,0.00025225229714088027,0.0,0.0,0.0,0.0,0.0
1757905675.997107,0.0,-4.0,0.0,0.0,0.0,0.0,-1.0461643147244686,-4.300386630471616,0.7624421720744512,0.31753708008527604,-0.8495026237176693,-2.661102750003868,0.0,0.00030038663047161587,0.0,0.0,0.0,0.0,0.0
1757905676.0472245,0.0,-4.0,0.0,0.0,0.0,0.0,-1.0742134990397672,-4.3747507289550365,0.6769398015965763,0.4159458055898818,-0.8286123381369429,-2.691739060114371,0.0,0.0003747507289550365,0.0,0.0,0.0,0.0,0.0
1757905676.1067867,0.0,-4.0,0.0,0.0,0.0,0.0,-0.9303215210723981,-4.3220042508920065,0.5183242813230913,0.46628792237606176,-0.6866242637831941,-2.599746476064557,0.0,0.00032200425089200647,0.0,0.0,0.0,0.0,0.0
1757905676.1572025,0.0,-4.0,0.0,0.0,0.0,0.0,-0.9890575887426439,-4.505709127570569,0.45424196611219836,0.6111221507599928,-0.6875716625520163,-2.696710400877799,0.0,0.0005057091275705687,0.0,0.0,0.0,0.0,0.0
1757905676.2169657,0.0,-4.0,0.0,0.0,0.0,0.0,-1.0475229644971273,-5.20242631383059,0.17217665782852465,1.1376231434242106,-0.6163597785579604,-2.979288401275517,0.0,0.00120242631383059,0.0,0.0,0.0,0.0,0.0
1757905676.2769353,0.0,-4.0,0.0,0.0,0.0,0.0,-0.89232292155893,-4.530595568966735,0.10043730103805881,0.7614376365781446,-0.5044031182610553,-2.6530421695369557,0.0,0.000530595568966735,0.0,0.0,0.0,0.0,0.0
1757905676.3274393,0.0,-4.0,0.0,0.0,0.0,0.0,-1.214465879093519,-4.686662275989329,0.16053775818022337,0.8196028607170156,-0.7103825690254969,-2.8680194237964662,0.0,0.0006866622759893293,0.0,0.0,0.0,0.0,0.0
1757905676.387674,0.0,-4.0,0.0,0.0,0.0,0.0,-0.9091544735407691,-4.784176794622608,0.09350270721274306,0.9157921482295266,-0.5085990942271368,-2.7556334771188795,0.0,0.0007841767946226082,0.0,0.0,0.0,0.0,0.0
1757905676.4472392,0.0,-4.0,0.0,0.0,0.0,0.0,-0.9766403698942675,-4.817280276635959,-0.017226799940108888,0.9855861033371648,-0.5064142952089166,-2.80500401996284,0.0,0.0008172802766359588,0.0,0.0,0.0,0.0,0.0
1757905676.506918,0.0,-4.0,0.0,0.0,0.0,0.0,-0.8735917080125827,-4.765704409089513,0.15797145266507456,0.8184355400386852,-0.5192027252298739,-2.7444465806502745,0.0,0.0007657044090895129,0.0,0.0,0.0,0.0,0.0
1757905676.5574338,0.0,-4.0,0.0,0.0,0.0,0.0,-0.9159437317198655,-4.8364289138667065,-0.0184424690683969,0.9494894775629282,-0.47853125769667565,-2.785742774630976,0.0,0.0008364289138667065,0.0,0.0,0.0,0.0,0.0
1757905676.6171746,0.0,-4.0,0.0,0.0,0.0,0.0,-0.8409610334510867,-4.785319117779813,-0.03482437230639217,0.9256928511292846,-0.4207033944679359,-2.730530303824484,0.0,0.000785319117779813,0.0,0.0,0.0,0.0,0.0
1757905676.6769078,0.0,-4.0,0.0,0.0,0.0,0.0,-0.828364722057447,-4.867714398037128,-0.09226996430984394,1.0000261404774968,-0.3900439888076657,-2.752934139895225,0.0,0.000867714398037128,0.0,0.0,0.0,0.0,0.0
1757905676.7269619,0.0,-4.0,0.0,0.0,0.0,0.0,-0.7842733067492969,-4.871099067430907,-0.13550235199707567,1.0150412519586653,-0.3579682512186476,-2.7335103743523925,0.0,0.0008710990674309072,0.0,0.0,0.0,0.0,0.0
1757905676.7770445,0.0,-4.0,0.0,0.0,0.0,0.0,-0.8794031404201176,-5.051832856468059,-0.15815570515844446,1.1141980283578945,-0.3990179925259461,-2.8491901890639264,0.0,0.0010518328564680592,0.0,0.0,0.0,0.0,0.0
1757905676.827285,0.0,-4.0,0.0,0.0,0.0,0.0,-0.7551423161006523,-5.118299854068861,-0.21422814677908308,1.1746065607110645,-0.3104641444612242,-2.812710561748738,0.0,0.0011182998540688613,0.0,0.0,0.0,0.0,0.0
1757905676.8875275,0.0,-4.0,0.0,0.0,0.0,0.0,-0.8502939655315479,-5.137691582446024,-0.17690129743899505,1.1495007150478442,-0.38037862445471143,-2.8664783625621157,0.0,0.001137691582446024,0.0,0.0,0.0,0.0,0.0
1757905676.9469514,0.0,-4.0,0.0,0.0,0.0,0.0,-0.8649274607872519,-4.901348824383878,-0.2216461571808637,1.0292025470269763,-0.37428024030907975,-2.775721472618802,0.0,0.0009013488243838781,0.0,0.0,0.0,0.0,0.0
1757905676.9969552,0.0,-4.0,0.0,0.0,0.0,0.0,-0.868518709732661,-4.372297855553045,-0.17127439637340763,0.7080487345377746,-0.39635549808742654,-2.5756035730393854,0.0,0.00037229785555304497,0.0,0.0,0.0,0.0,0.0
1757905677.0570703,0.0,-4.0,0.0,0.0,0.0,0.0,-0.7653967977708585,-4.52476514604839,-0.20313064226424085,0.8100109029347629,-0.3289956464032035,-2.573588991333322,0.0,0.0005247651460483898,0.0,0.0,0.0,0.0,0.0
1757905677.1170712,0.0,-4.0,0.0,0.0,0.0,0.0,-0.879783811736697,-4.5206811164865925,-0.093976159298992,0.7572578113367101,-0.433066163475954,-2.6336735798905915,0.0,0.0005206811164865926,0.0,0.0,0.0,0.0,0.0
1757905677.1768258,0.0,-4.0,0.0,0.0,0.0,0.0,-0.8246105076260045,-4.852007905902322,-0.19146171279397012,0.9861320205818118,-0.36742044086624936,-2.7246336730953837,0.0,0.0008520079059023216,0.0,0.0,0.0,0.0,0.0
1757905677.22749,0.0,-4.0,0.0,0.0,0.0,0.0,-0.7318007075834576,-4.723837141346609,-0.2407112399451536,0.9281374168173279,-0.2947241866101665,-2.6387628222683834,0.0,0.0007238371413466087,0.0,0.0,0.0,0.0,0.0
1757905677.2870111,0.0,-4.0,0.0,0.0,0.0,0.0,-0.8620753677806219,-4.7110788405056585,-0.17407319698908025,0.8841343257700034,-0.3932450700651157,-2.7011728050904145,0.0,0.0007110788405056585,0.0,0.0,0.0,0.0,0.0
1757905677.3496354,0.0,-4.0,0.0,0.0,0.0,0.0,-0.8380212227582067,-4.808522628822015,-0.24171458793924006,0.9698697528027123,-0.35437230269659764,-2.7276876785598363,0.0,0.0008085226288220149,0.0,0.0,0.0,0.0,0.0
1757905677.406867,0.0,-4.0,0.0,0.0,0.0,0.0,-0.7900091852044322,-4.762599818217221,-0.2628645498152865,0.9328554904215058,-0.3287780901144549,-2.6711008862915304,0.0,0.000762599818217221,0.0,0.0,0.0,0.0,0.0
1757905677.4571085,0.0,-4.0,0.0,0.0,0.0,0.0,-0.90816907166217,-4.384133254404919,-0.22920592970926726,0.7077926076346807,-0.40471717487043857,-2.59914526571103,0.0,0.0003841332544049188,0.0,0.0,0.0,0.0,0.0
1757905677.517512,0.0,-4.0,0.0,0.0,0.0,0.0,-0.9693676966254594,-4.476099527777739,-0.22760504036602422,0.7537019422565527,-0.43697020705317413,-2.66190257872228,0.0,0.00047609952777773933,0.0,0.0,0.0,0.0,0.0
1757905677.5768945,0.0,-4.0,0.0,0.0,0.0,0.0,-0.7449624972746295,-4.6287809255512355,-0.2741579911559108,0.8632540187546018,-0.28984654355398176,-2.6033346326659004,0.0,0.0006287809255512356,0.0,0.0,0.0,0.0,0.0
1757905677.6272068,0.0,-4.0,0.0,0.0,0.0,0.0,-0.7519329074002533,-4.57898651610801,-0.2732778181656467,0.8413702729690606,-0.2929863853576971,-2.58998831840777,0.0,0.0005789865161080101,0.0,0.0,0.0,0.0,0.0
1757905677.6872265,0.0,-4.0,0.0,0.0,0.0,0.0,-0.8212062285118565,-4.517327369415004,-0.2991946712809375,0.8096616983427247,-0.3275630962085321,-2.6067283640847316,0.0,0.0005173273694150043,0.0,0.0,0.0,0.0,0.0
1757905677.7469459,0.0,-4.0,0.0,0.0,0.0,0.0,-0.7524480049733091,-5.12751449909082,-0.3433079232949553,1.1668114450868101,-0.27141656476437925,-2.8014599570974994,0.0,0.00112751449909082,0.0,0.0,0.0,0.0,0.0
1757905677.7975817,0.0,-4.0,0.0,0.0,0.0,0.0,-0.795530072239057,-5.129674740241644,-0.30217547543183687,1.13523899800572,-0.3185014345501461,-2.8252899800747273,0.0,0.0011296747402416436,0.0,0.0,0.0,0.0,0.0
1757905677.8569615,0.0,-4.0,0.0,0.0,0.0,0.0,-0.7775531199409885,-5.267451951578945,-0.3910209667394571,1.2463184720525131,-0.2796735046013163,-2.8660526753935027,0.0,0.001267451951578945,0.0,0.0,0.0,0.0,0.0
1757905677.9070837,0.0,-4.0,0.0,0.0,0.0,0.0,-0.7116710000966993,-5.228208954896862,-0.49451451925238593,1.2700888368874472,-0.2024689382451851,-2.819781905587174,0.0,0.0012282089548968625,0.0,0.0,0.0,0.0,0.0
1757905677.9669116,0.0,-4.0,0.0,0.0,0.0,0.0,-0.9003007709851263,-5.1839487796705805,-0.3849829413226653,1.1781982568452918,-0.3465906160166837,-2.9044557506552273,0.0,0.0011839487796705805,0.0,0.0,0.0,0.0,0.0
1757905678.017107,0.0,-4.0,0.0,0.0,0.0,0.0,-0.6583188983079167,-5.372403597527804,-0.47603930614056933,1.3280429090532657,-0.17783780924501308,-2.8519202764854352,0.0,0.0013724035975278045,0.0,0.0,0.0,0.0,0.0
1757905678.0769157,0.0,-4.0,0.0,0.0,0.0,0.0,-0.8644374484631655,-4.77025313912978,-0.37017171876485117,0.9370370621440709,-0.3375751149447984,-2.7149144621803427,0.0,0.00077025313912978,0.0,0.0,0.0,0.0,0.0
1757905678.1273026,0.0,-4.0,0.0,0.0,0.0,0.0,-1.0286792518073524,-4.58047717191893,-0.2981245593927726,0.78261885945791,-0.4570529455000365,-2.7166607608831166,0.0,0.0005804771719189299,0.0,0.0,0.0,0.0,0.0
1757905678.1879914,0.0,-4.0,0.0,0.0,0.0,0.0,-0.831933949732131,-4.052998231652582,-0.2908056587682743,0.50120666512281,-0.34913830410093427,-2.4284375655163575,0.0,5.299823165258211e-05,0.0,0.0,0.0,0.0,0.0
1757905678.2471168,0.0,-4.0,0.0,0.0,0.0,0.0,-0.6918997817795082,-4.4289410781075285,-0.38231425397063956,0.7688038206855163,-0.23727912293238806,-2.4833793906299357,0.0,0.0004289410781075285,0.0,0.0,0.0,0.0,0.0
1757905678.3074737,0.0,-4.0,0.0,0.0,0.0,0.0,-0.6889221876846566,-4.611575354894697,-0.33487901653586094,0.8557014550837911,-0.2520566780611305,-2.5484318535157495,0.0,0.0006115753548946969,0.0,0.0,0.0,0.0,0.0
1757905678.366959,0.0,-4.0,0.0,0.0,0.0,0.0,-0.6244745154703454,-5.007420401718722,-0.3436019741312868,1.0699422337817879,-0.20616935115132481,-2.6743949310411557,0.0,0.001007420401718722,0.0,0.0,0.0,0.0,0.0
1757905678.4174361,0.0,-4.0,0.0,0.0,0.0,0.0,-0.6353392120619337,-5.200422435086671,-0.5226736879771636,1.2384746418621215,-0.14926122970493233,-2.762644976362462,0.0,0.0012004224350866712,0.0,0.0,0.0,0.0,0.0
1757905678.4769173,0.0,-4.0,0.0,0.0,0.0,0.0,-0.7461850005926609,-5.591367003314185,-0.5437772526182978,1.458165687003555,-0.208851618044611,-2.961549005781391,0.0,0.0015913670033141853,0.0,0.0,0.0,0.0,0.0
1757905678.5276837,0.0,-4.0,0.0,0.0,0.0,0.0,-0.6933275484598707,-4.921878471476633,-0.5337439199226311,1.0788546558507317,-0.18103919220397457,-2.692368597344159,0.0,0.0009218784714766332,0.0,0.0,0.0,0.0,0.0
1757905678.5870697,0.0,-4.0,0.0,0.0,0.0,0.0,-0.6495662734901197,-4.744133446707075,-0.48630673406450686,0.9437205710041481,-0.17434262522895455,-2.5941301009915163,0.0,0.0007441334467070747,0.0,0.0,0.0,0.0,0.0
1757905678.6470537,0.0,-4.0,0.0,0.0,0.0,0.0,-0.7716913580490077,-4.756348148940379,-0.48740771997729915,0.9584782639950823,-0.2464729055758715,-2.6583654282978575,0.0,0.0007563481489403791,0.0,0.0,0.0,0.0,0.0
1757905678.7107499,0.0,-4.0,0.0,0.0,0.0,0.0,-0.7973372938173056,-4.6368049726920795,-0.4303427427445654,0.8568456584991921,-0.2780691093481087,-2.627039226541803,0.0,0.0006368049726920795,0.0,0.0,0.0,0.0,0.0
