time,lam_star_Fx,lam_star_Fy,lam_star_Fz,lam_star_Tx,lam_star_Ty,lam_star_Tz,meas_Fx,meas_Fy,meas_Fz,meas_Tx,meas_Ty,meas_Tz,v_final_Fx,v_final_Fy,v_final_Fz,v_final_Tx,v_final_Ty,v_final_Tz
1757903548.7109125,-4.0,0.0,0.0,0.0,0.0,0.0,-2.5700000000000003,0.5899999999999999,-0.1299999999999999,0.213,0.785,-0.033,-0.007149999999999998,0.0,0.0,0.0,0.0,0.0
1757903548.7708604,-4.0,0.0,0.0,0.0,0.0,0.0,-1.9100000000000001,0.6699999999999999,-0.1299999999999999,0.207,0.798,-0.032,-0.01045,0.0,0.0,0.0,0.0,0.0
1757903548.8308222,-4.0,0.0,0.0,0.0,0.0,0.0,-2.0500000000000007,0.6900000000000013,-0.6299999999999999,0.23600000000000002,0.785,-0.041,-0.009749999999999997,0.0,0.0,0.0,0.0,0.0
1757903548.880969,-4.0,0.0,0.0,0.0,0.0,0.0,-2.7099999999999973,-0.049999999999998934,-0.75,0.188,0.8069999999999999,-0.043000000000000003,-0.006450000000000014,0.0,0.0,0.0,0.0,0.0
1757903548.9411802,-4.0,0.0,0.0,0.0,0.0,0.0,-1.9699999999999989,0.11000000000000121,-0.59,0.213,0.8089999999999999,-0.045,-0.010150000000000006,0.0,0.0,0.0,0.0,0.0
1757903549.000904,-4.0,0.0,0.0,0.0,0.0,0.0,-3.009999999999998,-0.3099999999999987,0.13000000000000012,0.203,0.81,-0.036,-0.00495000000000001,0.0,0.0,0.0,0.0,0.0
1757903549.060815,-4.0,0.0,0.0,0.0,0.0,0.0,-4.029999999999998,-0.07000000000000028,0.18999999999999995,0.213,0.787,-0.024999999999999994,0.00014999999999998793,0.0,0.0,0.0,0.0,0.0
1757903549.110841,-4.0,0.0,0.0,0.0,0.0,0.0,-4.029999999999998,0.08999999999999986,0.07000000000000006,0.206,0.793,-0.033,0.00014999999999998793,0.0,0.0,0.0,0.0,0.0
1757903549.1609607,-4.0,0.0,0.0,0.0,0.0,0.0,-4.09,-0.5499999999999989,0.1100000000000001,0.217,0.8049999999999999,-0.041,0.0004499999999999993,0.0,0.0,0.0,0.0,0.0
1757903549.2112992,-4.0,0.0,0.0,0.0,0.0,0.0,-3.91,-0.049999999999998934,0.18999999999999995,0.212,0.779,-0.026999999999999996,-0.0004499999999999993,0.0,0.0,0.0,0.0,0.0
1757903549.2745104,-4.0,0.0,0.0,0.0,0.0,0.0,-4.469999999999999,0.7699999999999996,0.31000000000000005,0.237,0.788,-0.017,0.0023499999999999945,0.0,0.0,0.0,0.0,0.0
1757903549.3315012,-4.0,0.0,0.0,0.0,0.0,0.0,-4.469999999999999,-0.1899999999999995,0.09000000000000008,0.23500000000000001,0.802,-0.042,0.0023499999999999945,0.0,0.0,0.0,0.0,0.0
1757903549.390847,-4.0,0.0,0.0,0.0,0.0,0.0,-3.5500000000000007,-0.3899999999999988,0.1100000000000001,0.214,0.81,-0.052,-0.0022499999999999964,0.0,0.0,0.0,0.0,0.0
1757903549.4409187,-4.0,0.0,0.0,0.0,0.0,0.0,-3.9499999999999993,-0.009999999999999787,0.09000000000000008,0.225,0.8160000000000001,-0.039,-0.0002500000000000036,0.0,0.0,0.0,0.0,0.0
1757903549.501308,-4.0,0.0,0.0,0.0,0.0,0.0,-4.609999999999999,0.5700000000000003,0.3900000000000001,0.217,0.8049999999999999,-0.036,0.003049999999999997,0.0,0.0,0.0,0.0,0.0
1757903549.560811,-4.0,0.0,0.0,0.0,0.0,0.0,-4.59,0.3100000000000005,0.050000000000000044,0.219,0.81,-0.05,0.0029499999999999995,0.0,0.0,0.0,0.0,0.0
1757903549.6108565,-4.0,0.0,0.0,0.0,0.0,0.0,-4.209999999999997,-0.15000000000000036,0.31000000000000005,0.179,0.784,-0.038,0.0010499999999999865,0.0,0.0,0.0,0.0,0.0
1757903549.663663,-4.0,0.0,0.0,0.0,0.0,0.0,-3.669999999999998,0.5099999999999998,0.43000000000000016,0.2,0.812,-0.047,-0.0016500000000000093,0.0,0.0,0.0,0.0,0.0
1757903549.7209244,-4.0,0.0,0.0,0.0,0.0,0.0,-4.050000000000001,-0.5499999999999989,0.20999999999999996,0.202,0.802,-0.025999999999999995,0.0002500000000000036,0.0,0.0,0.0,0.0,0.0
1757903549.7725327,-4.03066371705703,0.0,0.0,0.0,0.0,0.0,-3.969999999999999,-0.8499999999999996,1.37,0.16999999999999998,0.782,-0.011999999999999997,-0.0003033185852851572,0.0,0.0,0.0,0.0,0.0
1757903549.830837,-4.0,0.0,0.0,0.0,0.0,0.0,-3.6099999999999994,-0.15000000000000036,0.030000000000000027,0.231,0.8280000000000001,-0.039,-0.001950000000000003,0.0,0.0,0.0,0.0,0.0
1757903549.8808463,-4.0,0.0,0.0,0.0,0.0,0.0,-3.629999999999999,0.4900000000000002,-0.08999999999999986,0.214,0.812,-0.03,-0.001850000000000005,0.0,0.0,0.0,0.0,0.0
1757903549.9409082,-4.0,0.0,0.0,0.0,0.0,0.0,-4.529999999999998,-0.3899999999999988,-0.22999999999999998,0.206,0.81,-0.037,0.002649999999999988,0.0,0.0,0.0,0.0,0.0
1757903550.0010161,-4.0,0.0,0.0,0.0,0.0,0.0,-4.050000000000001,0.47000000000000064,0.3500000000000001,0.25,0.8109999999999999,-0.05,0.0002500000000000036,0.0,0.0,0.0,0.0,0.0
1757903550.0608788,-4.0,0.0,0.0,0.0,0.0,0.0,-4.189999999999998,0.23000000000000043,0.81,0.223,0.781,-0.032,0.0009499999999999886,0.0,0.0,0.0,0.0,0.0
1757903550.1111772,-4.0,0.0,0.0,0.0,0.0,0.0,-3.5500000000000007,-0.15000000000000036,0.3900000000000001,0.213,0.777,-0.046,-0.0022499999999999964,0.0,0.0,0.0,0.0,0.0
1757903550.170863,-4.0,0.0,0.0,0.0,0.0,0.0,-3.1499999999999986,-0.049999999999998934,-0.44999999999999996,0.178,0.8200000000000001,-0.024999999999999994,-0.004250000000000007,0.0,0.0,0.0,0.0,0.0
1757903550.2209234,-4.0,0.0,0.0,0.0,0.0,0.0,-3.789999999999999,-0.049999999999998934,0.43000000000000016,0.239,0.78,-0.033,-0.0010500000000000043,0.0,0.0,0.0,0.0,0.0
1757903550.2709932,-4.0,0.0,0.0,0.0,0.0,0.0,-3.7300000000000004,-0.4499999999999993,0.25,0.212,0.823,-0.038,-0.001349999999999998,0.0,0.0,0.0,0.0,0.0
1757903550.3308918,-4.0,0.0,0.0,0.0,0.0,0.0,-3.7099999999999973,-0.7699999999999996,-0.20999999999999996,0.191,0.8109999999999999,-0.0040000000000000036,-0.0014500000000000136,0.0,0.0,0.0,0.0,0.0
1757903550.3811584,-4.0,0.0,0.0,0.0,0.0,0.0,-3.8900000000000006,-0.3099999999999987,0.29000000000000004,0.208,0.791,-0.031,-0.0005499999999999972,0.0,0.0,0.0,0.0,0.0
1757903550.44083,-4.0,0.0,0.0,0.0,0.0,0.0,-3.969999999999999,-0.28999999999999915,0.25,0.223,0.823,-0.032,-0.00015000000000000568,0.0,0.0,0.0,0.0,0.0
1757903550.500818,-4.0,0.0,0.0,0.0,0.0,0.0,-4.689999999999998,0.05000000000000071,0.49,0.226,0.781,-0.033,0.0034499999999999887,0.0,0.0,0.0,0.0,0.0
1757903550.5508363,-4.081206929328625,0.0,0.0,0.0,0.0,0.0,-5.050000000000001,-1.049999999999999,1.25,0.198,0.766,-0.025999999999999995,0.004843965353356881,0.0,0.0,0.0,0.0,0.0
1757903550.6009738,-4.0,0.0,0.0,0.0,0.0,0.0,-4.050000000000001,-0.4299999999999997,0.1100000000000001,0.216,0.8,-0.023000000000000007,0.0002500000000000036,0.0,0.0,0.0,0.0,0.0
1757903550.6609018,-4.0,0.0,0.0,0.0,0.0,0.0,-3.289999999999999,-0.23000000000000043,0.33000000000000007,0.20500000000000002,0.776,-0.027999999999999997,-0.0035500000000000045,0.0,0.0,0.0,0.0,0.0
1757903550.7126555,-4.0,0.0,0.0,0.0,0.0,0.0,-4.009999999999998,-0.1899999999999995,-0.06999999999999984,0.216,0.8029999999999999,-0.03,4.9999999999990055e-05,0.0,0.0,0.0,0.0,0.0
1757903550.770918,-4.0,0.0,0.0,0.0,0.0,0.0,-3.6099999999999994,-0.6699999999999999,0.1100000000000001,0.187,0.796,-0.031,-0.001950000000000003,0.0,0.0,0.0,0.0,0.0
1757903550.8308299,-4.0,0.0,0.0,0.0,0.0,0.0,-4.309999999999999,0.33000000000000007,0.22999999999999998,0.233,0.8009999999999999,-0.049,0.0015499999999999937,0.0,0.0,0.0,0.0,0.0
1757903550.8907976,-5.315190495175128,0.0,0.0,0.0,0.0,0.0,-4.109999999999999,1.6900000000000013,1.29,0.254,0.789,-0.037,-0.006025952475875642,0.0,0.0,0.0,0.0,0.0
1757903550.9409845,-4.0,0.0,0.0,0.0,0.0,0.0,-4.649999999999999,0.34999999999999964,0.29000000000000004,0.223,0.798,-0.027999999999999997,0.003249999999999993,0.0,0.0,0.0,0.0,0.0
1757903551.0008461,-4.0,0.0,0.0,0.0,0.0,0.0,-3.7300000000000004,0.16999999999999993,0.53,0.21,0.774,-0.036,-0.001349999999999998,0.0,0.0,0.0,0.0,0.0
1757903551.0508537,-4.0,0.0,0.0,0.0,0.0,0.0,-3.8900000000000006,0.19000000000000128,-0.16999999999999993,0.215,0.8440000000000001,-0.046,-0.0005499999999999972,0.0,0.0,0.0,0.0,0.0
1757903551.10092,-4.0,0.0,0.0,0.0,0.0,0.0,-4.09,-0.25,0.53,0.223,0.808,-0.048,0.0004499999999999993,0.0,0.0,0.0,0.0,0.0
1757903551.160839,-4.0,0.0,0.0,0.0,0.0,0.0,-3.7699999999999996,0.2699999999999996,0.55,0.198,0.796,-0.024999999999999994,-0.0011500000000000021,0.0,0.0,0.0,0.0,0.0
1757903551.221738,-4.0,0.0,0.0,0.0,0.0,0.0,-3.349999999999998,-0.129999999999999,0.3700000000000001,0.2,0.819,-0.039,-0.0032500000000000107,0.0,0.0,0.0,0.0,0.0
1757903551.280829,-4.0,0.0,0.0,0.0,0.0,0.0,-4.189999999999998,-0.10999999999999943,-0.30999999999999994,0.191,0.797,-0.042,0.0009499999999999886,0.0,0.0,0.0,0.0,0.0
1757903551.3308406,-4.0,0.0,0.0,0.0,0.0,0.0,-3.6099999999999994,-0.4900000000000002,0.010000000000000009,0.20400000000000001,0.825,-0.026999999999999996,-0.001950000000000003,0.0,0.0,0.0,0.0,0.0
1757903551.3908253,-4.0,0.0,0.0,0.0,0.0,0.0,-3.789999999999999,-0.5700000000000003,0.6300000000000001,0.184,0.796,-0.020000000000000004,-0.0010500000000000043,0.0,0.0,0.0,0.0,0.0
1757903551.4408817,-4.0,0.0,0.0,0.0,0.0,0.0,-3.8099999999999987,-0.4499999999999993,0.44999999999999996,0.2,0.798,-0.023999999999999994,-0.0009500000000000064,0.0,0.0,0.0,0.0,0.0
1757903551.5013366,-4.0,0.0,0.0,0.0,0.0,0.0,-4.149999999999999,0.07000000000000028,-0.06999999999999984,0.227,0.819,-0.019000000000000003,0.0007499999999999929,0.0,0.0,0.0,0.0,0.0
1757903551.560837,-4.0,0.0,0.0,0.0,0.0,0.0,-4.050000000000001,-0.15000000000000036,-0.030000000000000027,0.23,0.8240000000000001,-0.043000000000000003,0.0002500000000000036,0.0,0.0,0.0,0.0,0.0
1757903551.6109233,-4.0,0.0,0.0,0.0,0.0,0.0,-3.969999999999999,-0.20999999999999908,-0.20999999999999996,0.219,0.8180000000000001,-0.045,-0.00015000000000000568,0.0,0.0,0.0,0.0,0.0
1757903551.6709278,-4.0,0.0,0.0,0.0,0.0,0.0,-4.129999999999999,0.08999999999999986,-0.050000000000000044,0.197,0.798,-0.035,0.0006499999999999951,0.0,0.0,0.0,0.0,0.0
1757903551.7217014,-4.0,0.0,0.0,0.0,0.0,0.0,-3.469999999999999,-0.9299999999999997,0.27,0.183,0.8200000000000001,-0.038,-0.0026500000000000056,0.0,0.0,0.0,0.0,0.0
1757903551.780806,-4.0,0.0,0.0,0.0,0.0,0.0,-4.449999999999999,0.2699999999999996,0.1100000000000001,0.22,0.8240000000000001,-0.049,0.0022499999999999964,0.0,0.0,0.0,0.0,0.0
1757903551.8308208,-4.0,0.0,0.0,0.0,0.0,0.0,-3.9899999999999984,-0.2699999999999996,-0.030000000000000027,0.212,0.8140000000000001,-0.033,-5.0000000000007815e-05,0.0,0.0,0.0,0.0,0.0
1757903551.880829,-4.0,0.0,0.0,0.0,0.0,0.0,-4.649999999999999,0.13000000000000078,0.53,0.221,0.796,-0.034,0.003249999999999993,0.0,0.0,0.0,0.0,0.0
1757903551.9308643,-4.0,0.0,0.0,0.0,0.0,0.0,-4.329999999999998,-0.7099999999999991,0.41000000000000014,0.20400000000000001,0.813,-0.038,0.0016499999999999915,0.0,0.0,0.0,0.0,0.0
1757903551.9908001,-4.0,0.0,0.0,0.0,0.0,0.0,-4.369999999999997,0.08999999999999986,0.79,0.214,0.792,-0.046,0.0018499999999999873,0.0,0.0,0.0,0.0,0.0
1757903552.0409715,-4.0,0.0,0.0,0.0,0.0,0.0,-3.9899999999999984,0.11000000000000121,0.8700000000000001,0.199,0.786,-0.023000000000000007,-5.0000000000007815e-05,0.0,0.0,0.0,0.0,0.0
1757903552.1008654,-4.0,0.0,0.0,0.0,0.0,0.0,-3.4899999999999984,0.4299999999999997,0.050000000000000044,0.225,0.812,-0.047,-0.002550000000000008,0.0,0.0,0.0,0.0,0.0
1757903552.160962,-4.0,0.0,0.0,0.0,0.0,0.0,-4.109999999999999,-0.049999999999998934,-0.16999999999999993,0.218,0.808,-0.057,0.0005499999999999972,0.0,0.0,0.0,0.0,0.0
1757903552.2207966,-4.0,0.0,0.0,0.0,0.0,0.0,-4.109999999999999,-0.7300000000000004,0.3700000000000001,0.207,0.772,-0.031,0.0005499999999999972,0.0,0.0,0.0,0.0,0.0
1757903552.2709997,-4.0,0.0,0.0,0.0,0.0,0.0,-3.3299999999999983,-0.129999999999999,0.15000000000000013,0.195,0.8400000000000001,-0.028999999999999998,-0.003350000000000009,0.0,0.0,0.0,0.0,0.0
1757903552.3210135,-4.0,0.0,0.0,0.0,0.0,0.0,-3.9899999999999984,0.5099999999999998,0.15000000000000013,0.217,0.795,-0.044,-5.0000000000007815e-05,0.0,0.0,0.0,0.0,0.0
1757903552.3808248,-4.0,0.0,0.0,0.0,0.0,0.0,-3.3699999999999974,-0.4299999999999997,0.09000000000000008,0.212,0.8,-0.028999999999999998,-0.003150000000000013,0.0,0.0,0.0,0.0,0.0
1757903552.430829,-4.0,0.0,0.0,0.0,0.0,0.0,-3.25,0.7300000000000004,-0.20999999999999996,0.213,0.8460000000000001,-0.026999999999999996,-0.00375,0.0,0.0,0.0,0.0,0.0
1757903552.4908116,-4.0,0.0,0.0,0.0,0.0,0.0,-3.7699999999999996,-0.4499999999999993,0.1100000000000001,0.202,0.802,-0.032,-0.0011500000000000021,0.0,0.0,0.0,0.0,0.0
1757903552.5410812,-4.0,0.0,0.0,0.0,0.0,0.0,-3.2300000000000004,0.45000000000000107,-0.08999999999999986,0.231,0.8340000000000001,-0.039,-0.003849999999999998,0.0,0.0,0.0,0.0,0.0
1757903552.6010473,-4.0,0.0,0.0,0.0,0.0,0.0,-3.2099999999999973,-0.23000000000000043,0.33000000000000007,0.222,0.819,-0.046,-0.003950000000000013,0.0,0.0,0.0,0.0,0.0
1757903552.6608036,-4.0,0.0,0.0,0.0,0.0,0.0,-3.5700000000000003,-0.4499999999999993,0.47,0.223,0.796,-0.042,-0.0021499999999999987,0.0,0.0,0.0,0.0,0.0
1757903552.710861,-4.0,0.0,0.0,0.0,0.0,0.0,-3.7699999999999996,-0.009999999999999787,-0.2699999999999999,0.219,0.8220000000000001,-0.054,-0.0011500000000000021,0.0,0.0,0.0,0.0,0.0
1757903552.7611256,-4.0,0.0,0.0,0.0,0.0,0.0,-4.509999999999998,-0.46999999999999886,0.43000000000000016,0.19,0.784,-0.023000000000000007,0.00254999999999999,0.0,0.0,0.0,0.0,0.0
1757903552.820851,-4.0,0.0,0.0,0.0,0.0,0.0,-4.869999999999997,0.8300000000000001,-0.44999999999999996,0.249,0.808,-0.059,0.0043499999999999876,0.0,0.0,0.0,0.0,0.0
1757903552.8709824,-4.0,0.0,0.0,0.0,0.0,0.0,-4.07,0.19000000000000128,-0.010000000000000009,0.218,0.815,-0.039,0.0003500000000000014,0.0,0.0,0.0,0.0,0.0
1757903552.9310057,-4.0,0.0,0.0,0.0,0.0,0.0,-4.149999999999999,0.08999999999999986,-0.1499999999999999,0.215,0.8069999999999999,-0.044,0.0007499999999999929,0.0,0.0,0.0,0.0,0.0
1757903552.9810274,-4.0,0.0,0.0,0.0,0.0,0.0,-3.289999999999999,0.009999999999999787,0.44999999999999996,0.211,0.798,-0.043000000000000003,-0.0035500000000000045,0.0,0.0,0.0,0.0,0.0
1757903553.0409355,-4.0,0.0,0.0,0.0,0.0,0.0,-3.5299999999999976,-0.4499999999999993,0.3900000000000001,0.194,0.798,-0.036,-0.0023500000000000122,0.0,0.0,0.0,0.0,0.0
1757903553.1010475,-4.0,0.0,0.0,0.0,0.0,0.0,-4.209999999999997,-0.3699999999999992,-0.050000000000000044,0.209,0.788,-0.042,0.0010499999999999865,0.0,0.0,0.0,0.0,0.0
1757903553.1608179,-4.0,0.0,0.0,0.0,0.0,0.0,-4.050000000000001,0.13000000000000078,-0.18999999999999995,0.232,0.821,-0.037,0.0002500000000000036,0.0,0.0,0.0,0.0,0.0
1757903553.2108586,-4.0,0.0,0.0,0.0,0.0,0.0,-4.73,-0.2699999999999996,0.29000000000000004,0.198,0.802,-0.038,0.003650000000000002,0.0,0.0,0.0,0.0,0.0
1757903553.2709866,-4.0,0.0,0.0,0.0,0.0,0.0,-4.890000000000001,-0.25,0.22999999999999998,0.217,0.779,-0.031,0.0044500000000000026,0.0,0.0,0.0,0.0,0.0
1757903553.3308284,-4.0,0.0,0.0,0.0,0.0,0.0,-4.289999999999999,-0.8499999999999996,0.030000000000000027,0.188,0.795,-0.038,0.0014499999999999958,0.0,0.0,0.0,0.0,0.0
1757903553.3907936,-4.0,0.0,0.0,0.0,0.0,0.0,-4.390000000000001,-0.25,-0.10999999999999988,0.215,0.821,-0.032,0.001950000000000003,0.0,0.0,0.0,0.0,0.0
1757903553.440895,-4.0,0.0,0.0,0.0,0.0,0.0,-4.57,-0.46999999999999886,-0.42999999999999994,0.217,0.804,-0.04,0.0028500000000000014,0.0,0.0,0.0,0.0,0.0
1757903553.501015,-4.0,0.0,0.0,0.0,0.0,0.0,-3.9499999999999993,-0.009999999999999787,-0.37,0.197,0.825,-0.038,-0.0002500000000000036,0.0,0.0,0.0,0.0,0.0
1757903553.5608177,-4.0,0.0,0.0,0.0,0.0,0.0,-4.469999999999999,-0.2699999999999996,-0.10999999999999988,0.213,0.8220000000000001,-0.052,0.0023499999999999945,0.0,0.0,0.0,0.0,0.0
1757903553.610834,-4.0,0.0,0.0,0.0,0.0,0.0,-3.509999999999998,0.2900000000000009,-1.01,0.192,0.8600000000000001,-0.05,-0.00245000000000001,0.0,0.0,0.0,0.0,0.0
1757903553.6709936,-4.0,0.0,0.0,0.0,0.0,0.0,-4.149999999999999,0.5099999999999998,0.41000000000000014,0.221,0.8029999999999999,-0.043000000000000003,0.0007499999999999929,0.0,0.0,0.0,0.0,0.0
1757903553.7312078,-4.0,0.0,0.0,0.0,0.0,0.0,-4.129999999999999,0.8900000000000006,0.07000000000000006,0.231,0.8200000000000001,-0.024999999999999994,0.0006499999999999951,0.0,0.0,0.0,0.0,0.0
1757903553.7908413,-4.0,0.0,0.0,0.0,0.0,0.0,-3.41,-0.1899999999999995,0.13000000000000012,0.218,0.8069999999999999,-0.038,-0.0029499999999999995,0.0,0.0,0.0,0.0,0.0
1757903553.8409212,-4.0,0.0,0.0,0.0,0.0,0.0,-3.849999999999998,-0.25,0.55,0.191,0.78,-0.035,-0.0007500000000000106,0.0,0.0,0.0,0.0,0.0
1757903553.9008584,-4.0,0.0,0.0,0.0,0.0,0.0,-3.3699999999999974,-0.10999999999999943,-0.1299999999999999,0.20500000000000002,0.806,-0.036,-0.003150000000000013,0.0,0.0,0.0,0.0,0.0
1757903553.9608178,-4.0,0.0,0.0,0.0,0.0,0.0,-3.349999999999998,0.15000000000000036,0.31000000000000005,0.19,0.819,-0.041,-0.0032500000000000107,0.0,0.0,0.0,0.0,0.0
1757903554.0208116,-4.0,0.0,0.0,0.0,0.0,0.0,-3.1899999999999977,-0.25,-0.71,0.201,0.827,-0.047,-0.004050000000000011,0.0,0.0,0.0,0.0,0.0
1757903554.0808187,-4.0,0.0,0.0,0.0,0.0,0.0,-4.309999999999999,0.16999999999999993,-0.18999999999999995,0.212,0.79,-0.039,0.0015499999999999937,0.0,0.0,0.0,0.0,0.0
1757903554.1308334,-4.0,0.0,0.0,0.0,0.0,0.0,-3.1499999999999986,-0.5299999999999994,0.030000000000000027,0.199,0.819,-0.028999999999999998,-0.004250000000000007,0.0,0.0,0.0,0.0,0.0
1757903554.180838,-4.0,0.0,0.0,0.0,0.0,0.0,-2.7099999999999973,0.15000000000000036,0.20999999999999996,0.186,0.783,-0.035,-0.006450000000000014,0.0,0.0,0.0,0.0,0.0
1757903554.2408862,-4.0,0.0,0.0,0.0,0.0,0.0,-3.3699999999999974,-0.02999999999999936,0.5900000000000001,0.213,0.791,-0.038,-0.003150000000000013,0.0,0.0,0.0,0.0,0.0
1757903554.3008294,-4.0,0.0,0.0,0.0,0.0,0.0,-4.09,-0.009999999999999787,0.41000000000000014,0.211,0.8220000000000001,-0.048,0.0004499999999999993,0.0,0.0,0.0,0.0,0.0
1757903554.3508673,-4.0,0.0,0.0,0.0,0.0,0.0,-3.0500000000000007,-0.1899999999999995,0.77,0.194,0.827,-0.044,-0.004749999999999996,0.0,0.0,0.0,0.0,0.0
1757903554.4109783,-4.0,0.0,0.0,0.0,0.0,0.0,-4.029999999999998,-0.15000000000000036,0.81,0.21,0.797,-0.032,0.00014999999999998793,0.0,0.0,0.0,0.0,0.0
1757903554.4708238,-4.295491822830069,0.0,0.0,0.0,0.0,0.0,-3.8299999999999983,-0.3099999999999987,1.69,0.219,0.8340000000000001,-0.044,-0.002327459114150354,0.0,0.0,0.0,0.0,0.0
1757903554.520843,-6.008847643267384,0.0,0.0,0.0,0.0,0.0,-3.59,0.5899999999999999,2.33,0.219,0.779,-0.034,-0.012094238216336919,0.0,0.0,0.0,0.0,0.0
1757903554.5808926,-4.649865589455248,0.0,0.0,0.0,0.0,0.0,-3.8900000000000006,0.6300000000000008,1.75,0.186,0.831,-0.04,-0.0037993279472762387,0.0,0.0,0.0,0.0,0.0
1757903554.6332645,-6.821381824821127,0.0,0.0,0.0,0.0,0.0,-3.669999999999998,0.6500000000000004,2.65,0.20500000000000002,0.825,-0.055,-0.015756909124105642,0.0,0.0,0.0,0.0,0.0
1757903554.691144,-6.446413731680583,0.0,0.0,0.0,0.0,0.0,-5.149999999999999,-0.20999999999999908,2.57,0.184,0.875,-0.055,-0.006482068658402924,0.0,0.0,0.0,0.0,0.0
1757903554.7508254,-8.159427063219574,0.0,0.0,0.0,0.0,0.0,-6.209999999999997,0.5899999999999999,3.2100000000000004,0.195,0.8300000000000001,-0.033,-0.009747135316097886,0.0,0.0,0.0,0.0,0.0
1757903554.800909,-6.577328485030985,0.0,0.0,0.0,0.0,0.0,-6.189999999999998,-0.07000000000000028,2.63,0.192,0.8840000000000001,-0.031,-0.0019366424251549353,0.0,0.0,0.0,0.0,0.0
1757903554.8608103,-12.025025987497907,0.0,0.0,0.0,0.0,0.0,-6.629999999999999,-0.009999999999999787,4.8100000000000005,0.19,0.8420000000000001,-0.046,-0.02697512993748954,0.0,0.0,0.0,0.0,0.0
1757903554.9111187,-10.60194557616667,0.0,0.0,0.0,0.0,0.0,-6.09,-0.5099999999999998,4.210000000000001,0.197,0.8660000000000001,-0.037,-0.022559727880833352,0.0,0.0,0.0,0.0,0.0
1757903554.970933,-7.327090145480673,0.0,0.0,0.0,0.0,0.0,-9.189999999999998,-0.07000000000000028,2.93,0.218,0.857,-0.033,0.009314549272596624,0.0,0.0,0.0,0.0,0.0
1757903555.030811,-5.31283822452745,0.0,0.0,0.0,0.0,0.0,-10.89,-0.6899999999999995,2.0100000000000002,0.195,0.823,-0.006000000000000005,0.027885808877362753,0.0,0.0,0.0,0.0,0.0
1757903555.0808334,-4.0,0.0,0.0,0.0,0.0,0.0,-8.469999999999999,-0.8300000000000001,-0.4099999999999999,0.187,0.732,0.013999999999999999,0.022349999999999995,0.0,0.0,0.0,0.0,0.0
1757903555.1308336,-4.0,0.0,0.0,0.0,0.0,0.0,-6.869999999999997,-0.8099999999999987,-0.6299999999999999,0.22,0.783,-0.033,0.014349999999999988,0.0,0.0,0.0,0.0,0.0
1757903555.1808414,-4.9755652945167945,0.0,0.0,0.0,0.0,0.0,-4.949999999999999,-0.02999999999999936,-1.99,0.212,0.774,-0.011999999999999997,-0.00012782647258397618,0.0,0.0,0.0,0.0,0.0
1757903555.2309031,-4.1876305949785015,0.0,0.0,0.0,0.0,0.0,-4.309999999999999,0.13000000000000078,-1.67,0.21,0.774,-0.027999999999999997,0.0006118470251074859,0.0,0.0,0.0,0.0,0.0
1757903555.290842,-6.775415116433826,0.0,0.0,0.0,0.0,0.0,-4.789999999999999,0.7300000000000004,-2.61,0.221,0.782,-0.019000000000000003,-0.009927075582169135,0.0,0.0,0.0,0.0,0.0
1757903555.340859,-4.625608068135475,0.0,0.0,0.0,0.0,0.0,-7.109999999999999,-0.02999999999999936,-1.85,0.239,0.755,-0.006000000000000005,0.012421959659322624,0.0,0.0,0.0,0.0,0.0
1757903555.3909128,-4.725066137103268,0.0,0.0,0.0,0.0,0.0,-7.27,-0.009999999999999787,-1.89,0.232,0.753,-0.007000000000000006,0.012724669314483657,0.0,0.0,0.0,0.0,0.0
1757903555.4409802,-4.676670824422005,0.0,0.0,0.0,0.0,0.0,-5.989999999999998,-0.049999999999998934,-1.87,0.228,0.777,-0.0040000000000000036,0.006566645877889968,0.0,0.0,0.0,0.0,0.0
1757903555.5008976,-6.593652250460284,0.0,0.0,0.0,0.0,0.0,-4.789999999999999,-0.8099999999999987,-2.51,0.23500000000000001,0.775,0.0,-0.009018261252301426,0.0,0.0,0.0,0.0,0.0
1757903555.560822,-4.311177333397455,0.0,0.0,0.0,0.0,0.0,-5.629999999999999,0.4299999999999997,-1.67,0.233,0.742,-0.0010000000000000009,0.006594113333012719,0.0,0.0,0.0,0.0,0.0
1757903555.6108916,-4.0,0.0,0.0,0.0,0.0,0.0,-5.349999999999998,-0.1899999999999995,-1.33,0.212,0.77,0.0010000000000000009,0.0067499999999999895,0.0,0.0,0.0,0.0,0.0
1757903555.670859,-6.392671585495378,0.0,0.0,0.0,0.0,0.0,-5.649999999999999,0.19000000000000128,-2.55,0.216,0.792,0.038000000000000006,-0.003713357927476899,0.0,0.0,0.0,0.0,0.0
1757903555.720868,-8.183596397672602,0.0,0.0,0.0,0.0,0.0,-5.329999999999998,-0.15000000000000036,-3.27,0.195,0.775,-0.009999999999999995,-0.014267981988363019,0.0,0.0,0.0,0.0,0.0
1757903555.7720408,-6.1665427915486,0.0,0.0,0.0,0.0,0.0,-6.050000000000001,0.6100000000000012,-2.3899999999999997,0.23500000000000001,0.756,-0.076,-0.0005827139577429952,0.0,0.0,0.0,0.0,0.0
1757903555.830821,-6.455327257389821,0.0,0.0,0.0,0.0,0.0,-5.77,-0.25,-2.57,0.218,0.774,-0.0010000000000000009,-0.0034266362869491075,0.0,0.0,0.0,0.0,0.0
1757903555.880852,-4.936218188046392,0.0,0.0,0.0,0.0,0.0,-5.789999999999999,0.6900000000000013,-1.85,0.215,0.769,-0.023999999999999994,0.0042689090597680356,0.0,0.0,0.0,0.0,0.0
1757903555.9408362,-5.853311028810959,0.0,0.0,0.0,0.0,0.0,-7.149999999999999,0.23000000000000043,-2.33,0.215,0.785,-0.026999999999999996,0.0064834448559452,0.0,0.0,0.0,0.0,0.0
1757903556.000857,-4.830243265095454,0.0,0.0,0.0,0.0,0.0,-6.489999999999998,0.08999999999999986,-1.93,0.254,0.779,-0.035,0.008298783674522721,0.0,0.0,0.0,0.0,0.0
1757903556.0608,-5.894170849237404,0.0,0.0,0.0,0.0,0.0,-5.57,-0.1899999999999995,-2.3499999999999996,0.202,0.765,-0.03,-0.001620854246187018,0.0,0.0,0.0,0.0,0.0
1757903556.110857,-7.175043553874778,0.0,0.0,0.0,0.0,0.0,-4.93,-0.009999999999999787,-2.87,0.218,0.784,-0.043000000000000003,-0.01122521776937389,0.0,0.0,0.0,0.0,0.0
1757903556.1609633,-4.83748385010224,0.0,0.0,0.0,0.0,0.0,-5.189999999999998,-0.3099999999999987,-1.91,0.2,0.756,-0.013999999999999999,0.001762580749488789,0.0,0.0,0.0,0.0,0.0
1757903556.2109857,-6.140948623787695,0.0,0.0,0.0,0.0,0.0,-5.329999999999998,-1.0299999999999994,-2.23,0.21,0.7310000000000001,-0.020000000000000004,-0.0040547431189384845,0.0,0.0,0.0,0.0,0.0
1757903556.2708704,-5.549887386244877,0.0,0.0,0.0,0.0,0.0,-5.09,-0.6899999999999995,-2.11,0.225,0.763,-0.024999999999999994,-0.0022994369312243856,0.0,0.0,0.0,0.0,0.0
1757903556.3210416,-4.983096426921718,0.0,0.0,0.0,0.0,0.0,-6.629999999999999,-0.5700000000000003,-1.91,0.21,0.746,-0.033,0.008234517865391405,0.0,0.0,0.0,0.0,0.0
1757903556.3808532,-6.107065580129297,0.0,0.0,0.0,0.0,0.0,-6.07,-0.25,-2.4299999999999997,0.203,0.755,-0.028999999999999998,-0.00018532790064648363,0.0,0.0,0.0,0.0,0.0
1757903556.4408734,-4.894001430322635,0.0,0.0,0.0,0.0,0.0,-5.289999999999999,-0.5099999999999998,-1.89,0.202,0.742,-0.022000000000000006,0.0019799928483868225,0.0,0.0,0.0,0.0,0.0
1757903556.5015244,-7.430090847358462,0.0,0.0,0.0,0.0,0.0,-5.509999999999998,-0.10999999999999943,-2.9699999999999998,0.213,0.804,-0.023000000000000007,-0.009600454236792321,0.0,0.0,0.0,0.0,0.0
1757903556.5608199,-5.589387265166012,0.0,0.0,0.0,0.0,0.0,-6.07,-0.4499999999999993,-2.19,0.20400000000000001,0.781,-0.034,0.0024030636741699408,0.0,0.0,0.0,0.0,0.0
1757903556.6108427,-6.275049800599193,0.0,0.0,0.0,0.0,0.0,-6.23,-0.009999999999999787,-2.51,0.238,0.766,-0.011999999999999997,-0.0002252490029959642,0.0,0.0,0.0,0.0,0.0
1757903556.6709137,-5.187605420615565,0.0,0.0,0.0,0.0,0.0,-6.789999999999999,-0.4299999999999997,-2.03,0.222,0.764,-0.015,0.008011972896922171,0.0,0.0,0.0,0.0,0.0
1757903556.7209458,-5.227929800599851,0.0,0.0,0.0,0.0,0.0,-6.169999999999998,-0.07000000000000028,-2.09,0.213,0.757,-0.025999999999999995,0.004710350997000737,0.0,0.0,0.0,0.0,0.0
1757903556.7819912,-5.092273559030385,0.0,0.0,0.0,0.0,0.0,-6.07,-0.33000000000000007,-2.01,0.21,0.74,-0.03,0.0048886322048480755,0.0,0.0,0.0,0.0,0.0
1757903556.8408265,-5.8486109461991065,0.0,0.0,0.0,0.0,0.0,-5.469999999999999,0.370000000000001,-2.31,0.225,0.776,-0.031,-0.001893054730995538,0.0,0.0,0.0,0.0,0.0
1757903556.8908722,-4.15586934347075,0.0,0.0,0.0,0.0,0.0,-5.449999999999999,-0.6500000000000004,-1.53,0.208,0.77,-0.04,0.006470653282646248,0.0,0.0,0.0,0.0,0.0
1757903556.9508195,-7.627007932341488,0.0,0.0,0.0,0.0,0.0,-4.709999999999997,-0.07000000000000028,-3.05,0.227,0.794,-0.022000000000000006,-0.014585039661707455,0.0,0.0,0.0,0.0,0.0
1757903557.0011861,-5.8750531912485675,0.0,0.0,0.0,0.0,0.0,-5.189999999999998,-0.009999999999999787,-2.3499999999999996,0.211,0.757,-0.008000000000000007,-0.003425265956242849,0.0,0.0,0.0,0.0,0.0
1757903557.0608644,-4.304793839430641,0.0,0.0,0.0,0.0,0.0,-5.09,-0.33000000000000007,-1.69,0.20400000000000001,0.768,-0.0050000000000000044,0.0039260308028467965,0.0,0.0,0.0,0.0,0.0
1757903557.1109736,-5.457219988235767,0.0,0.0,0.0,0.0,0.0,-5.189999999999998,-1.1899999999999995,-1.83,0.212,0.7270000000000001,-0.022000000000000006,-0.0013360999411788476,0.0,0.0,0.0,0.0,0.0
1757903557.1709435,-6.142576820846442,0.0,0.0,0.0,0.0,0.0,-5.09,-0.5700000000000003,-2.3899999999999997,0.208,0.775,-0.025999999999999995,-0.005262884104232213,0.0,0.0,0.0,0.0,0.0
1757903557.2308643,-5.3559546301289735,0.0,0.0,0.0,0.0,0.0,-6.050000000000001,-0.23000000000000043,-2.13,0.203,0.759,-0.019000000000000003,0.003470226849355136,0.0,0.0,0.0,0.0,0.0
1757903557.291356,-4.0,0.0,0.0,0.0,0.0,0.0,-5.43,-0.4499999999999993,-1.29,0.222,0.746,-0.045,0.007149999999999998,0.0,0.0,0.0,0.0,0.0
1757903557.3508255,-4.730354109366443,0.0,0.0,0.0,0.0,0.0,-5.550000000000001,-0.08999999999999986,-1.89,0.207,0.751,-0.039,0.004098229453167788,0.0,0.0,0.0,0.0,0.0
1757903557.4009116,-4.978076937934969,0.0,0.0,0.0,0.0,0.0,-5.029999999999998,-0.4900000000000002,-1.93,0.20400000000000001,0.766,-0.017,0.00025961531032514084,0.0,0.0,0.0,0.0,0.0
1757903557.4608023,-5.107470019491058,0.0,0.0,0.0,0.0,0.0,-5.209999999999997,-0.23000000000000043,-2.03,0.202,0.77,-0.012999999999999998,0.0005126499025446973,0.0,0.0,0.0,0.0,0.0
1757903557.5110917,-4.582712079107742,0.0,0.0,0.0,0.0,0.0,-5.390000000000001,0.7100000000000009,-1.69,0.252,0.726,-0.015,0.0040364396044612946,0.0,0.0,0.0,0.0,0.0
1757903557.5708582,-7.600740095543328,0.0,0.0,0.0,0.0,0.0,-5.07,-0.6500000000000004,-2.9699999999999998,0.214,0.762,-0.023999999999999994,-0.01265370047771664,0.0,0.0,0.0,0.0,0.0
1757903557.6307905,-4.0,0.0,0.0,0.0,0.0,0.0,-6.029999999999998,0.07000000000000028,-1.41,0.216,0.716,-0.0010000000000000009,0.010149999999999989,0.0,0.0,0.0,0.0,0.0
1757903557.6808455,-6.826144592667225,0.0,0.0,0.0,0.0,0.0,-4.309999999999999,0.05000000000000071,-2.73,0.226,0.786,-0.032,-0.01258072296333613,0.0,0.0,0.0,0.0,0.0
1757903557.7308683,-6.835294434038667,0.0,0.0,0.0,0.0,0.0,-4.209999999999997,-0.15000000000000036,-2.73,0.216,0.775,-0.023000000000000007,-0.013126472170193351,0.0,0.0,0.0,0.0,0.0
1757903557.7908158,-5.625499977779753,0.0,0.0,0.0,0.0,0.0,-5.649999999999999,-0.02999999999999936,-2.25,0.216,0.756,-0.011999999999999997,0.00012250011110122915,0.0,0.0,0.0,0.0,0.0
1757903557.8411467,-7.02966926675786,0.0,0.0,0.0,0.0,0.0,-4.949999999999999,-0.34999999999999964,-2.79,0.207,0.796,-0.047,-0.010398346333789306,0.0,0.0,0.0,0.0,0.0
1757903557.9008298,-5.259871671438382,0.0,0.0,0.0,0.0,0.0,-5.91,-0.7899999999999991,-1.95,0.216,0.75,-0.013999999999999999,0.003250641642808092,0.0,0.0,0.0,0.0,0.0
1757903557.9508386,-5.913649465431647,0.0,0.0,0.0,0.0,0.0,-5.91,-0.7300000000000004,-2.25,0.199,0.749,-0.021000000000000005,-1.824732715823618e-05,0.0,0.0,0.0,0.0,0.0
1757903558.0010228,-4.49513626044862,0.0,0.0,0.0,0.0,0.0,-5.489999999999998,-0.4900000000000002,-1.73,0.216,0.73,-0.020000000000000004,0.004974318697756894,0.0,0.0,0.0,0.0,0.0
1757903558.0609457,-4.0,0.0,0.0,0.0,0.0,0.0,-5.23,-0.7300000000000004,-1.19,0.217,0.722,-0.026999999999999996,0.006150000000000003,0.0,0.0,0.0,0.0,0.0
1757903558.1208224,-5.464087297984906,0.0,0.0,0.0,0.0,0.0,-5.75,-0.4900000000000002,-2.13,0.223,0.771,-0.017,0.0014295635100754689,0.0,0.0,0.0,0.0,0.0
1757903558.170833,-4.009519921387097,0.0,0.0,0.0,0.0,0.0,-4.73,0.21000000000000085,-1.5899999999999999,0.21,0.72,-0.023000000000000007,0.0036024003930645154,0.0,0.0,0.0,0.0,0.0
1757903558.221215,-4.009519921387097,0.0,0.0,0.0,0.0,0.0,-4.73,0.21000000000000085,-1.5899999999999999,0.21,0.72,-0.023000000000000007,0.0036024003930645154,0.0,0.0,0.0,0.0,0.0
1757903558.2808406,-5.3255281428230195,0.0,0.0,0.0,0.0,0.0,-4.57,-0.02999999999999936,-2.13,0.227,0.762,-0.021000000000000005,-0.003777640714115096,0.0,0.0,0.0,0.0,0.0
1757903558.3411863,-6.087384495824129,0.0,0.0,0.0,0.0,0.0,-4.41,-0.7699999999999996,-2.31,0.218,0.763,-0.044,-0.008386922479120647,0.0,0.0,0.0,0.0,0.0
1757903558.4008358,-5.297758960164193,0.0,0.0,0.0,0.0,0.0,-4.77,-0.34999999999999964,-2.09,0.202,0.754,-0.037,-0.002638794800820965,0.0,0.0,0.0,0.0,0.0
1757903558.450848,-5.31377925774114,0.0,0.0,0.0,0.0,0.0,-6.09,-0.629999999999999,-2.03,0.23500000000000001,0.728,-0.031,0.0038811037112943003,0.0,0.0,0.0,0.0,0.0
1757903558.5010204,-7.156203602469678,0.0,0.0,0.0,0.0,0.0,-5.809999999999999,-0.4299999999999997,-2.83,0.22,0.749,-0.039,-0.0067310180123483975,0.0,0.0,0.0,0.0,0.0
1757903558.5608387,-4.0,0.0,0.0,0.0,0.0,0.0,-5.41,-0.10999999999999943,-1.43,0.228,0.7290000000000001,-0.011999999999999997,0.007050000000000001,0.0,0.0,0.0,0.0,0.0
1757903558.6112127,-4.1876305949785015,0.0,0.0,0.0,0.0,0.0,-5.709999999999997,-0.129999999999999,-1.67,0.217,0.724,-0.015,0.007611847025107479,0.0,0.0,0.0,0.0,0.0
1757903558.670885,-6.348720343502303,0.0,0.0,0.0,0.0,0.0,-4.809999999999999,-1.0099999999999998,-2.33,0.203,0.761,-0.035,-0.007693601717511523,0.0,0.0,0.0,0.0,0.0
1757903558.7211056,-7.319238348352921,0.0,0.0,0.0,0.0,0.0,-6.029999999999998,0.6699999999999999,-2.8499999999999996,0.23500000000000001,0.764,-0.048,-0.006446191741764618,0.0,0.0,0.0,0.0,0.0
1757903558.7808285,-5.232709623130256,0.0,0.0,0.0,0.0,0.0,-6.43,-0.5099999999999998,-2.03,0.203,0.784,-0.027999999999999997,0.00598645188434872,0.0,0.0,0.0,0.0,0.0
1757903558.8411996,-5.422752990870965,0.0,0.0,0.0,0.0,0.0,-6.029999999999998,0.41000000000000014,-2.13,0.247,0.748,-0.04,0.003036235045645164,0.0,0.0,0.0,0.0,0.0
1757903558.9008124,-4.536656257641743,0.0,0.0,0.0,0.0,0.0,-5.93,-0.7099999999999991,-1.67,0.197,0.75,-0.034,0.006966718711791282,0.0,0.0,0.0,0.0,0.0
1757903558.9508395,-6.105837370909906,0.0,0.0,0.0,0.0,0.0,-5.390000000000001,-0.9499999999999993,-2.25,0.183,0.758,-0.010999999999999996,-0.0035791868545495256,0.0,0.0,0.0,0.0,0.0
1757903559.0013351,-4.640177798317646,0.0,0.0,0.0,0.0,0.0,-5.57,-0.3099999999999987,-1.83,0.19,0.776,-0.023999999999999994,0.0046491110084117705,0.0,0.0,0.0,0.0,0.0
1757903559.0608232,-5.677697596737607,0.0,0.0,0.0,0.0,0.0,-5.469999999999999,0.07000000000000028,-2.27,0.228,0.764,-0.03,-0.0010384879836880412,0.0,0.0,0.0,0.0,0.0
1757903559.110909,-5.017095773453002,0.0,0.0,0.0,0.0,0.0,-5.649999999999999,-0.5499999999999989,-1.93,0.22,0.755,-0.023999999999999994,0.003164521132734981,0.0,0.0,0.0,0.0,0.0
1757903559.1708066,-6.02173147856993,0.0,0.0,0.0,0.0,0.0,-4.669999999999998,-0.4299999999999997,-2.37,0.216,0.769,-0.018000000000000002,-0.006758657392849661,0.0,0.0,0.0,0.0,0.0
1757903559.2208703,-6.554864605771807,0.0,0.0,0.0,0.0,0.0,-5.349999999999998,-0.25,-2.61,0.219,0.773,-0.032,-0.006024323028859047,0.0,0.0,0.0,0.0,0.0
1757903559.28124,-6.6885162779199385,0.0,0.0,0.0,0.0,0.0,-5.469999999999999,-0.8699999999999992,-2.5300000000000002,0.20400000000000001,0.777,-0.016,-0.0060925813895996985,0.0,0.0,0.0,0.0,0.0
1757903559.3408124,-6.635604719993498,0.0,0.0,0.0,0.0,0.0,-5.489999999999998,-0.15000000000000036,-2.65,0.222,0.777,-0.039,-0.0057280235999675,0.0,0.0,0.0,0.0,0.0
1757903559.4008799,-5.375058139220449,0.0,0.0,0.0,0.0,0.0,-4.789999999999999,0.009999999999999787,-2.15,0.218,0.791,-0.027999999999999997,-0.0029252906961022476,0.0,0.0,0.0,0.0,0.0
1757903559.4608054,-4.225665628040154,0.0,0.0,0.0,0.0,0.0,-5.75,-0.02999999999999936,-1.69,0.192,0.7290000000000001,-0.020000000000000004,0.007621671859799228,0.0,0.0,0.0,0.0,0.0
1757903559.5110137,-5.232709623130256,0.0,0.0,0.0,0.0,0.0,-6.390000000000001,-0.5099999999999998,-2.03,0.227,0.746,-0.026999999999999996,0.005786451884348724,0.0,0.0,0.0,0.0,0.0
1757903559.5708318,-5.425057603380814,0.0,0.0,0.0,0.0,0.0,-6.050000000000001,0.009999999999999787,-2.17,0.243,0.747,-0.038,0.0031247119830959316,0.0,0.0,0.0,0.0,0.0
1757903559.6208766,-6.330975438271736,0.0,0.0,0.0,0.0,0.0,-4.949999999999999,-0.10999999999999943,-2.5300000000000002,0.215,0.806,-0.019000000000000003,-0.006904877191358683,0.0,0.0,0.0,0.0,0.0
1757903559.680761,-7.622417595487669,0.0,0.0,0.0,0.0,0.0,-5.209999999999997,-0.9100000000000001,-2.91,0.21,0.797,-0.011999999999999997,-0.01206208797743836,0.0,0.0,0.0,0.0,0.0
1757903559.7310116,-5.407517914903287,0.0,0.0,0.0,0.0,0.0,-5.23,-0.6899999999999995,-2.05,0.22,0.744,-0.041,-0.000887589574516432,0.0,0.0,0.0,0.0,0.0
1757903559.7810683,-5.475513674533193,0.0,0.0,0.0,0.0,0.0,-4.989999999999998,-0.02999999999999936,-2.19,0.201,0.746,-0.009999999999999995,-0.0024275683726659738,0.0,0.0,0.0,0.0,0.0
1757903559.8411553,-7.895014249512156,0.0,0.0,0.0,0.0,0.0,-5.27,-0.8899999999999988,-3.0300000000000002,0.20400000000000001,0.785,-0.023999999999999994,-0.01312507124756078,0.0,0.0,0.0,0.0,0.0
1757903559.9039958,-6.533854145908063,0.0,0.0,0.0,0.0,0.0,-4.709999999999997,-0.34999999999999964,-2.59,0.201,0.765,-0.021000000000000005,-0.00911927072954033,0.0,0.0,0.0,0.0,0.0
1757903559.9608014,-6.002603601771483,0.0,0.0,0.0,0.0,0.0,-6.529999999999998,0.23000000000000043,-2.3899999999999997,0.228,0.749,-0.035,0.002636981991142573,0.0,0.0,0.0,0.0,0.0
1757903560.010864,-7.495415265347211,0.0,0.0,0.0,0.0,0.0,-6.050000000000001,-0.9900000000000002,-2.83,0.221,0.7350000000000001,-0.021000000000000005,-0.007227076326736053,0.0,0.0,0.0,0.0,0.0
1757903560.0708642,-7.08246073056533,0.0,0.0,0.0,0.0,0.0,-5.91,-0.129999999999999,-2.83,0.229,0.752,-0.052,-0.0058623036528266505,0.0,0.0,0.0,0.0,0.0
1757903560.1307921,-7.346853067810735,0.0,0.0,0.0,0.0,0.0,-6.23,-0.41000000000000014,-2.91,0.23600000000000002,0.75,-0.048,-0.005584265339053674,0.0,0.0,0.0,0.0,0.0
1757903560.1809654,-5.334908621522958,0.0,0.0,0.0,0.0,0.0,-7.41,-0.129999999999999,-2.13,0.231,0.7210000000000001,-0.062,0.01037545689238521,0.0,0.0,0.0,0.0,0.0
1757903560.2408438,-5.2451167765837186,0.0,0.0,0.0,0.0,0.0,-7.629999999999999,-0.5299999999999994,-2.03,0.212,0.7190000000000001,-0.045,0.011924416117081402,0.0,0.0,0.0,0.0,0.0
1757903560.3008215,-9.21527264924918,0.0,0.0,0.0,0.0,0.0,-6.209999999999997,-1.3499999999999996,-3.43,0.185,0.744,-0.028999999999999998,-0.015026363246245912,0.0,0.0,0.0,0.0,0.0
1757903560.3512125,-7.22123604378087,0.0,0.0,0.0,0.0,0.0,-6.73,0.47000000000000064,-2.8499999999999996,0.247,0.765,-0.034,-0.002456180218904347,0.0,0.0,0.0,0.0,0.0
1757903560.410788,-9.355813700582114,0.0,0.0,0.0,0.0,0.0,-7.689999999999998,-0.9100000000000001,-3.63,0.218,0.738,-0.020000000000000004,-0.008329068502910583,0.0,0.0,0.0,0.0,0.0
1757903560.4608247,-7.415945657837575,0.0,0.0,0.0,0.0,0.0,-8.969999999999999,-0.75,-2.87,0.222,0.751,-0.03,0.007770271710812118,0.0,0.0,0.0,0.0,0.0
1757903560.5109117,-8.053027381053662,0.0,0.0,0.0,0.0,0.0,-9.329999999999998,-0.9100000000000001,-3.09,0.23600000000000002,0.708,-0.022000000000000006,0.006384863094731684,0.0,0.0,0.0,0.0,0.0
1757903560.570818,-7.730863470531606,0.0,0.0,0.0,0.0,0.0,-8.489999999999998,-0.5099999999999998,-3.05,0.234,0.7130000000000001,-0.011999999999999997,0.0037956826473419625,0.0,0.0,0.0,0.0,0.0
1757903560.6308022,-8.394119965785572,0.0,0.0,0.0,0.0,0.0,-8.169999999999998,-0.4299999999999997,-3.33,0.195,0.6950000000000001,-0.021000000000000005,-0.0011205998289278707,0.0,0.0,0.0,0.0,0.0
1757903560.6809506,-7.7269819464005485,0.0,0.0,0.0,0.0,0.0,-7.93,-0.6099999999999994,-3.0300000000000002,0.207,0.7070000000000001,-0.023000000000000007,0.0010150902679972563,0.0,0.0,0.0,0.0,0.0
1757903560.7408934,-8.602397921510024,0.0,0.0,0.0,0.0,0.0,-8.59,-1.2899999999999991,-3.19,0.195,0.708,-0.024999999999999994,-6.198960755011917e-05,0.0,0.0,0.0,0.0,0.0
1757903560.8008158,-7.743142127069604,0.0,0.0,0.0,0.0,0.0,-9.209999999999997,-0.41000000000000014,-3.07,0.23500000000000001,0.706,0.0030000000000000027,0.007334289364651965,0.0,0.0,0.0,0.0,0.0
1757903560.8513591,-9.63852945215192,0.0,0.0,0.0,0.0,0.0,-9.009999999999998,-0.5899999999999999,-3.81,0.237,0.7290000000000001,-0.041,-0.003142647260759608,0.0,0.0,0.0,0.0,0.0
1757903560.910905,-8.829000509683981,0.0,0.0,0.0,0.0,0.0,-8.79,-0.3899999999999988,-3.51,0.214,0.7030000000000001,-0.015,-0.00019500254841990918,0.0,0.0,0.0,0.0,0.0
1757903560.9708285,-9.995061280452461,0.0,0.0,0.0,0.0,0.0,-8.91,-1.4900000000000002,-3.71,0.206,0.712,-0.008000000000000007,-0.005425306402262305,0.0,0.0,0.0,0.0,0.0
1757903561.0308044,-8.132419689120821,0.0,0.0,0.0,0.0,0.0,-8.529999999999998,-0.7300000000000004,-3.17,0.209,0.739,-0.034,0.001987901554395881,0.0,0.0,0.0,0.0,0.0
1757903561.0809813,-8.810859776434986,0.0,0.0,0.0,0.0,0.0,-9.209999999999997,-0.8099999999999987,-3.43,0.198,0.7230000000000001,-0.025999999999999995,0.001995701117825055,0.0,0.0,0.0,0.0,0.0
1757903561.1410115,-10.654635141571015,0.0,0.0,0.0,0.0,0.0,-7.93,-0.9699999999999989,-4.15,0.199,0.763,-0.04,-0.013623175707855078,0.0,0.0,0.0,0.0,0.0
1757903561.200819,-8.898103730570911,0.0,0.0,0.0,0.0,0.0,-9.23,-0.5899999999999999,-3.51,0.238,0.732,-0.019000000000000003,0.0016594813471454463,0.0,0.0,0.0,0.0,0.0
1757903561.2508268,-9.777589171160752,0.0,0.0,0.0,0.0,0.0,-8.57,-0.08999999999999986,-3.91,0.208,0.7270000000000001,-0.017,-0.006037945855803759,0.0,0.0,0.0,0.0,0.0
1757903561.300889,-8.631121016414959,0.0,0.0,0.0,0.0,0.0,-8.41,-0.75,-3.37,0.241,0.747,-0.028999999999999998,-0.001105605082074792,0.0,0.0,0.0,0.0,0.0
1757903561.3612938,-7.719213042791344,0.0,0.0,0.0,0.0,0.0,-9.45,-0.33000000000000007,-3.07,0.215,0.7130000000000001,-0.03,0.008653934786043278,0.0,0.0,0.0,0.0,0.0
1757903561.420806,-9.152936687205916,0.0,0.0,0.0,0.0,0.0,-10.829999999999998,-0.6099999999999994,-3.61,0.223,0.7150000000000001,-0.020000000000000004,0.008385316563970414,0.0,0.0,0.0,0.0,0.0
1757903561.4708185,-6.876136269737533,0.0,0.0,0.0,0.0,0.0,-10.25,-0.46999999999999886,-2.71,0.191,0.677,-0.021000000000000005,0.01686931865131234,0.0,0.0,0.0,0.0,0.0
1757903561.5210166,-8.609950638650608,0.0,0.0,0.0,0.0,0.0,-7.689999999999998,-0.7099999999999991,-3.37,0.221,0.755,-0.019000000000000003,-0.004599753193253049,0.0,0.0,0.0,0.0,0.0
1757903561.5808537,-8.435712773678345,0.0,0.0,0.0,0.0,0.0,-7.869999999999997,-0.16999999999999993,-3.37,0.23,0.739,-0.013999999999999999,-0.002828563868391738,0.0,0.0,0.0,0.0,0.0
1757903561.6408408,-8.475626820477645,0.0,0.0,0.0,0.0,0.0,-9.149999999999999,-0.3699999999999992,-3.37,0.199,0.7370000000000001,-0.010999999999999996,0.003371865897611768,0.0,0.0,0.0,0.0,0.0
1757903561.700791,-10.13613585149686,0.0,0.0,0.0,0.0,0.0,-9.829999999999998,-0.1899999999999995,-4.05,0.221,0.7350000000000001,-0.039,-0.0015306792574843087,0.0,0.0,0.0,0.0,0.0
1757903561.7508218,-9.905617093346581,0.0,0.0,0.0,0.0,0.0,-9.43,-0.8499999999999996,-3.87,0.209,0.751,-0.027999999999999997,-0.0023780854667329087,0.0,0.0,0.0,0.0,0.0
1757903561.800874,-8.375037313349715,0.0,0.0,0.0,0.0,0.0,-9.07,0.009999999999999787,-3.35,0.219,0.7150000000000001,-0.018000000000000002,0.003474813433251427,0.0,0.0,0.0,0.0,0.0
1757903561.8608382,-11.02978920922789,0.0,0.0,0.0,0.0,0.0,-9.009999999999998,-1.0299999999999994,-4.29,0.20500000000000002,0.762,-0.036,-0.010098946046139456,0.0,0.0,0.0,0.0,0.0
1757903561.9109402,-8.777884141409022,0.0,0.0,0.0,0.0,0.0,-8.95,-0.08999999999999986,-3.51,0.222,0.7090000000000001,-0.037,0.0008605792929548883,0.0,0.0,0.0,0.0,0.0
1757903561.9707818,-7.025044483844923,0.0,0.0,0.0,0.0,0.0,-8.91,-1.0899999999999999,-2.59,0.209,0.702,-0.033,0.009424777580775388,0.0,0.0,0.0,0.0,0.0
1757903562.0208178,-7.985690327078805,0.0,0.0,0.0,0.0,0.0,-8.829999999999998,-0.5299999999999994,-3.15,0.195,0.702,-0.027999999999999997,0.004221548364605967,0.0,0.0,0.0,0.0,0.0
1757903562.0808313,-8.344833731117715,0.0,0.0,0.0,0.0,0.0,-8.489999999999998,0.23000000000000043,-3.33,0.221,0.7270000000000001,-0.034,0.0007258313444114162,0.0,0.0,0.0,0.0,0.0
1757903562.1308846,-9.719117758315308,0.0,0.0,0.0,0.0,0.0,-8.59,-0.3699999999999992,-3.87,0.206,0.7110000000000001,-0.033,-0.005645588791576541,0.0,0.0,0.0,0.0,0.0
1757903562.190849,-11.437056002311085,0.0,0.0,0.0,0.0,0.0,-9.309999999999999,-0.20999999999999908,-4.57,0.239,0.728,-0.025999999999999995,-0.01063528001155543,0.0,0.0,0.0,0.0,0.0
1757903562.2409606,-6.867768924476128,0.0,0.0,0.0,0.0,0.0,-8.669999999999998,-0.4499999999999993,-2.71,0.225,0.708,-0.022000000000000006,0.009011155377619349,0.0,0.0,0.0,0.0,0.0
1757903562.300816,-7.826956624384729,0.0,0.0,0.0,0.0,0.0,-8.689999999999998,0.07000000000000028,-3.13,0.207,0.7010000000000001,-0.032,0.0043152168780763445,0.0,0.0,0.0,0.0,0.0
1757903562.350839,-8.918029490868484,0.0,0.0,0.0,0.0,0.0,-8.849999999999998,-0.34999999999999964,-3.55,0.232,0.7350000000000001,-0.037,-0.0003401474543424321,0.0,0.0,0.0,0.0,0.0
1757903562.400862,-9.575032637020096,0.0,0.0,0.0,0.0,0.0,-7.93,-0.009999999999999787,-3.83,0.223,0.739,-0.038,-0.008225163185100479,0.0,0.0,0.0,0.0,0.0
1757903562.451288,-8.103471478323348,0.0,0.0,0.0,0.0,0.0,-8.809999999999999,0.45000000000000107,-3.21,0.229,0.71,-0.017,0.0035326426083832543,0.0,0.0,0.0,0.0,0.0
1757903562.5110855,-8.714140806757714,0.0,0.0,0.0,0.0,0.0,-8.39,-0.33000000000000007,-3.4699999999999998,0.203,0.722,-0.028999999999999998,-0.0016207040337885648,0.0,0.0,0.0,0.0,0.0
1757903562.570828,-9.525820174662126,0.0,0.0,0.0,0.0,0.0,-8.57,-0.9499999999999993,-3.69,0.20500000000000002,0.726,-0.018000000000000002,-0.004779100873310629,0.0,0.0,0.0,0.0,0.0
1757903562.631101,-7.5173964908071715,0.0,0.0,0.0,0.0,0.0,-9.29,-0.46999999999999886,-2.9699999999999998,0.223,0.724,-0.033,0.008863017545964138,0.0,0.0,0.0,0.0,0.0
1757903562.6908188,-8.415536227715974,0.0,0.0,0.0,0.0,0.0,-8.43,-0.33000000000000007,-3.35,0.215,0.756,-0.0040000000000000036,7.231886142013089e-05,0.0,0.0,0.0,0.0,0.0
1757903562.740846,-9.27692028638815,0.0,0.0,0.0,0.0,0.0,-8.59,-0.7699999999999996,-3.63,0.206,0.762,-0.020000000000000004,-0.003434601431940747,0.0,0.0,0.0,0.0,0.0
1757903562.7910147,-9.96349587243353,0.0,0.0,0.0,0.0,0.0,-8.149999999999999,-0.34999999999999964,-3.9699999999999998,0.224,0.756,-0.010999999999999996,-0.009067479362167657,0.0,0.0,0.0,0.0,0.0
1757903562.8515399,-11.331206908357114,0.0,0.0,0.0,0.0,0.0,-8.43,-0.75,-4.47,0.221,0.754,-0.024999999999999994,-0.01450603454178557,0.0,0.0,0.0,0.0,0.0
1757903562.910983,-7.275386587666666,0.0,0.0,0.0,0.0,0.0,-8.95,0.030000000000001137,-2.91,0.227,0.696,-0.020000000000000004,0.008373067061666668,0.0,0.0,0.0,0.0,0.0
1757903562.9708054,-8.179624074491443,0.0,0.0,0.0,0.0,0.0,-8.669999999999998,-0.8099999999999987,-3.17,0.20400000000000001,0.677,-0.037,0.002451879627542777,0.0,0.0,0.0,0.0,0.0
1757903563.020874,-8.026907872898503,0.0,0.0,0.0,0.0,0.0,-8.809999999999999,0.07000000000000028,-3.21,0.227,0.671,-0.04,0.003915460635507477,0.0,0.0,0.0,0.0,0.0
1757903563.0808313,-8.9028787479107,0.0,0.0,0.0,0.0,0.0,-8.05,-0.46999999999999886,-3.53,0.221,0.7,-0.044,-0.004264393739553496,0.0,0.0,0.0,0.0,0.0
1757903563.130839,-9.913690029449175,0.0,0.0,0.0,0.0,0.0,-8.169999999999998,-0.9499999999999993,-3.85,0.229,0.7270000000000001,-0.036,-0.008718450147245883,0.0,0.0,0.0,0.0,0.0
1757903563.1808453,-8.626775179636942,0.0,0.0,0.0,0.0,0.0,-7.93,0.07000000000000028,-3.4499999999999997,0.228,0.728,-0.021000000000000005,-0.003483875898184712,0.0,0.0,0.0,0.0,0.0
1757903563.2408476,-9.266674160668432,0.0,0.0,0.0,0.0,0.0,-9.489999999999998,-0.75,-3.63,0.217,0.777,-0.04,0.0011166291966578346,0.0,0.0,0.0,0.0,0.0
1757903563.2909753,-4.848324452839352,0.0,0.0,0.0,0.0,0.0,-9.73,0.19000000000000128,-1.93,0.216,0.736,-0.027999999999999997,0.024408377735803243,0.0,0.0,0.0,0.0,0.0
1757903563.3525188,-5.306246319197781,0.0,0.0,0.0,0.0,0.0,-6.989999999999998,-0.23000000000000043,-2.11,0.206,0.745,-0.031,0.008418768404011089,0.0,0.0,0.0,0.0,0.0
1757903563.4108615,-4.0,0.0,0.0,0.0,0.0,0.0,-8.969999999999999,-0.009999999999999787,-0.9099999999999999,0.23,0.774,-0.028999999999999998,0.024849999999999994,0.0,0.0,0.0,0.0,0.0
1757903563.47106,-7.248189429091929,0.0,0.0,0.0,0.0,0.0,-6.689999999999998,-1.129999999999999,-2.67,0.233,0.777,-0.044,-0.0027909471454596567,0.0,0.0,0.0,0.0,0.0
1757903563.5308368,-5.929270612815711,0.0,0.0,0.0,0.0,0.0,-5.709999999999997,-0.75,-2.25,0.219,0.8009999999999999,-0.027999999999999997,-0.001096353064078568,0.0,0.0,0.0,0.0,0.0
1757903563.5808825,-5.581778390441526,0.0,0.0,0.0,0.0,0.0,-7.09,0.7300000000000004,-2.11,0.23500000000000001,0.738,-0.008000000000000007,0.0075411080477923685,0.0,0.0,0.0,0.0,0.0
1757903563.6309848,-5.100612708292994,0.0,0.0,0.0,0.0,0.0,-5.75,0.34999999999999964,-2.01,0.245,0.746,-0.03,0.0032469364585350304,0.0,0.0,0.0,0.0,0.0
1757903563.6908019,-5.43794538405821,0.0,0.0,0.0,0.0,0.0,-6.27,-0.15000000000000036,-2.17,0.216,0.776,-0.021000000000000005,0.004160273079708947,0.0,0.0,0.0,0.0,0.0
1757903563.7408624,-5.913649465431645,0.0,0.0,0.0,0.0,0.0,-6.289999999999999,-0.2699999999999996,-2.3499999999999996,0.211,0.779,-0.039,0.0018817526728417723,0.0,0.0,0.0,0.0,0.0
1757903563.8008776,-5.2854753807013415,0.0,0.0,0.0,0.0,0.0,-5.550000000000001,-0.4299999999999997,-2.07,0.22,0.758,-0.008000000000000007,0.0013226230964932962,0.0,0.0,0.0,0.0,0.0
1757903563.8509548,-6.3770094872126375,0.0,0.0,0.0,0.0,0.0,-5.189999999999998,-0.7099999999999991,-2.45,0.215,0.779,-0.033,-0.005935047436063199,0.0,0.0,0.0,0.0,0.0
1757903563.9108791,-4.67560156557421,0.0,0.0,0.0,0.0,0.0,-5.209999999999997,-0.02999999999999936,-1.87,0.211,0.762,-0.009999999999999995,0.0026719921721289363,0.0,0.0,0.0,0.0,0.0
1757903563.9708714,-5.08883581971358,0.0,0.0,0.0,0.0,0.0,-5.390000000000001,-0.15000000000000036,-2.03,0.225,0.755,-0.042,0.0015058209014321023,0.0,0.0,0.0,0.0,0.0
1757903564.0307992,-7.266102806869717,0.0,0.0,0.0,0.0,0.0,-5.050000000000001,-0.5700000000000003,-2.8499999999999996,0.212,0.782,-0.027999999999999997,-0.011080514034348581,0.0,0.0,0.0,0.0,0.0
1757903564.0809507,-5.581778390441526,0.0,0.0,0.0,0.0,0.0,-5.689999999999998,-0.7300000000000004,-2.11,0.217,0.766,-0.024999999999999994,0.000541108047792358,0.0,0.0,0.0,0.0,0.0
1757903564.1408222,-6.251499820043187,0.0,0.0,0.0,0.0,0.0,-5.629999999999999,-0.23000000000000043,-2.49,0.189,0.782,-0.03,-0.0031074991002159403,0.0,0.0,0.0,0.0,0.0
1757903564.1908267,-6.826877031264001,0.0,0.0,0.0,0.0,0.0,-6.109999999999999,-0.46999999999999886,-2.69,0.20500000000000002,0.761,-0.037,-0.003584385156320007,0.0,0.0,0.0,0.0,0.0
1757903564.2408667,-5.505111261364297,0.0,0.0,0.0,0.0,0.0,-7.09,0.23000000000000043,-2.19,0.244,0.742,-0.017,0.007924443693178516,0.0,0.0,0.0,0.0,0.0
1757903564.3008356,-5.57953851138246,0.0,0.0,0.0,0.0,0.0,-5.989999999999998,0.08999999999999986,-2.23,0.217,0.764,-0.018000000000000002,0.002052307443087691,0.0,0.0,0.0,0.0,0.0
1757903564.3509583,-5.206846454429013,0.0,0.0,0.0,0.0,0.0,-5.93,-0.23000000000000043,-2.07,0.226,0.781,-0.010999999999999996,0.0036157677278549328,0.0,0.0,0.0,0.0,0.0
1757903564.4109948,-5.744671444042731,0.0,0.0,0.0,0.0,0.0,-4.789999999999999,-0.1899999999999995,-2.29,0.216,0.786,-0.026999999999999996,-0.004773357220213659,0.0,0.0,0.0,0.0,0.0
1757903564.470823,-5.391776145204843,0.0,0.0,0.0,0.0,0.0,-5.41,-0.6699999999999999,-2.05,0.209,0.7370000000000001,-0.023999999999999994,9.111927397578601e-05,0.0,0.0,0.0,0.0,0.0
1757903564.5308044,-6.41063569390743,0.0,0.0,0.0,0.0,0.0,-5.109999999999999,-1.2300000000000004,-2.25,0.188,0.775,-0.023000000000000007,-0.006503178469537154,0.0,0.0,0.0,0.0,0.0
1757903564.580893,-5.144049960877129,0.0,0.0,0.0,0.0,0.0,-6.129999999999999,-1.33,-1.5699999999999998,0.207,0.7350000000000001,-0.008999999999999994,0.004929750195614351,0.0,0.0,0.0,0.0,0.0
1757903564.6408355,-4.0,0.0,0.0,0.0,0.0,0.0,-6.550000000000001,-0.7300000000000004,-1.21,0.218,0.708,-0.028999999999999998,0.012750000000000004,0.0,0.0,0.0,0.0,0.0
1757903564.6908534,-4.0,0.0,0.0,0.0,0.0,0.0,-6.349999999999998,-0.049999999999998934,-1.51,0.216,0.7130000000000001,-0.027999999999999997,0.01174999999999999,0.0,0.0,0.0,0.0,0.0
1757903564.7420657,-4.0,0.0,0.0,0.0,0.0,0.0,-4.73,-0.5099999999999998,-1.47,0.197,0.742,-0.025999999999999995,0.003650000000000002,0.0,0.0,0.0,0.0,0.0
1757903564.8008144,-7.542297395356404,0.0,0.0,0.0,0.0,0.0,-5.27,-0.9299999999999997,-2.87,0.226,0.786,-0.018000000000000002,-0.011361486976782022,0.0,0.0,0.0,0.0,0.0
1757903564.8508682,-6.975403214151853,0.0,0.0,0.0,0.0,0.0,-4.890000000000001,-0.02999999999999936,-2.79,0.2,0.792,-0.023999999999999994,-0.01042701607075926,0.0,0.0,0.0,0.0,0.0
1757903564.9008772,-4.7440752523542455,0.0,0.0,0.0,0.0,0.0,-6.669999999999998,-0.16999999999999993,-1.89,0.212,0.745,-0.023000000000000007,0.009629623738228763,0.0,0.0,0.0,0.0,0.0
1757903564.9511282,-4.443112647682928,0.0,0.0,0.0,0.0,0.0,-5.989999999999998,0.3100000000000005,-1.75,0.203,0.76,-0.028999999999999998,0.007734436761585353,0.0,0.0,0.0,0.0,0.0
1757903565.0108879,-4.860684108230033,0.0,0.0,0.0,0.0,0.0,-5.529999999999998,-0.7099999999999991,-1.81,0.202,0.7230000000000001,-0.024999999999999994,0.0033465794588498233,0.0,0.0,0.0,0.0,0.0
1757903565.0610785,-4.947853069766724,0.0,0.0,0.0,0.0,0.0,-5.609999999999999,-0.1899999999999995,-1.97,0.22,0.749,-0.023000000000000007,0.003310734651166376,0.0,0.0,0.0,0.0,0.0
1757903565.120847,-4.978076937934969,0.0,0.0,0.0,0.0,0.0,-5.029999999999998,-0.4900000000000002,-1.93,0.20400000000000001,0.765,-0.017,0.00025961531032514084,0.0,0.0,0.0,0.0,0.0
1757903565.1808815,-7.297345407749313,0.0,0.0,0.0,0.0,0.0,-5.309999999999999,-0.41000000000000014,-2.8899999999999997,0.215,0.761,-0.027999999999999997,-0.009936727038746573,0.0,0.0,0.0,0.0,0.0
1757903565.2409897,-6.629950980210939,0.0,0.0,0.0,0.0,0.0,-4.449999999999999,-0.46999999999999886,-2.61,0.20400000000000001,0.76,-0.032,-0.010899754901054699,0.0,0.0,0.0,0.0,0.0
1757903565.3008218,-6.738786982833038,0.0,0.0,0.0,0.0,0.0,-5.27,-0.3699999999999992,-2.67,0.216,0.777,-0.033,-0.007343934914165193,0.0,0.0,0.0,0.0,0.0
1757903565.3508441,-5.1133403954753485,0.0,0.0,0.0,0.0,0.0,-5.469999999999999,0.25,-2.03,0.233,0.736,-0.039,0.001783298022623252,0.0,0.0,0.0,0.0,0.0
1757903565.4008517,-5.404280710695919,0.0,0.0,0.0,0.0,0.0,-6.109999999999999,-0.46999999999999886,-2.11,0.221,0.749,-0.022000000000000006,0.0035285964465204024,0.0,0.0,0.0,0.0,0.0
1757903565.4510095,-4.4397353524731615,0.0,0.0,0.0,0.0,0.0,-6.149999999999999,-1.129999999999999,-1.3699999999999999,0.2,0.7230000000000001,-0.012999999999999998,0.008551323237634186,0.0,0.0,0.0,0.0,0.0
1757903565.5108306,-6.183546716893145,0.0,0.0,0.0,0.0,0.0,-4.949999999999999,0.13000000000000078,-2.4699999999999998,0.21,0.752,-0.023999999999999994,-0.006167733584465727,0.0,0.0,0.0,0.0,0.0
1757903565.5708344,-5.312838224527449,0.0,0.0,0.0,0.0,0.0,-4.59,-0.6899999999999995,-2.01,0.199,0.753,-0.021000000000000005,-0.003614191122637247,0.0,0.0,0.0,0.0,0.0
1757903565.6308074,-4.7165930500733255,0.0,0.0,0.0,0.0,0.0,-5.390000000000001,-0.3699999999999992,-1.85,0.239,0.743,-0.013999999999999999,0.0033670347496333754,0.0,0.0,0.0,0.0,0.0
1757903565.6808593,-4.425635547579579,0.0,0.0,0.0,0.0,0.0,-5.57,0.030000000000001137,-1.77,0.223,0.738,-0.022000000000000006,0.005721822262102108,0.0,0.0,0.0,0.0,0.0
1757903565.740825,-6.576948380518126,0.0,0.0,0.0,0.0,0.0,-4.489999999999998,-0.33000000000000007,-2.61,0.2,0.786,-0.016,-0.010434741902590638,0.0,0.0,0.0,0.0,0.0
1757903565.7908347,-7.939222254100208,0.0,0.0,0.0,0.0,0.0,-4.529999999999998,-1.0700000000000003,-2.99,0.206,0.789,-0.021000000000000005,-0.017046111270501055,0.0,0.0,0.0,0.0,0.0
1757903565.85117,-4.699069056738792,0.0,0.0,0.0,0.0,0.0,-5.27,-0.1899999999999995,-1.87,0.222,0.74,-0.035,0.002854654716306038,0.0,0.0,0.0,0.0,0.0
1757903565.9109716,-6.485849982847275,0.0,0.0,0.0,0.0,0.0,-5.149999999999999,0.15000000000000036,-2.59,0.215,0.773,-0.032,-0.00667924991423638,0.0,0.0,0.0,0.0,0.0
1757903565.970931,-4.687883317660541,0.0,0.0,0.0,0.0,0.0,-5.149999999999999,-0.4900000000000002,-1.81,0.216,0.772,-0.020000000000000004,0.002310583411697289,0.0,0.0,0.0,0.0,0.0
1757903566.021018,-5.684298549513388,0.0,0.0,0.0,0.0,0.0,-5.09,0.13000000000000078,-2.27,0.224,0.77,-0.017,-0.0029714927475669394,0.0,0.0,0.0,0.0,0.0
1757903566.0809445,-4.025698697120786,0.0,0.0,0.0,0.0,0.0,-4.829999999999998,-0.02999999999999936,-1.6099999999999999,0.201,0.77,-0.018000000000000002,0.004021506514396061,0.0,0.0,0.0,0.0,0.0
1757903566.1408277,-6.753980307936942,0.0,0.0,0.0,0.0,0.0,-4.869999999999997,-0.25,-2.69,0.209,0.764,-0.037,-0.009419901539684724,0.0,0.0,0.0,0.0,0.0
1757903566.2008138,-5.481902042174777,0.0,0.0,0.0,0.0,0.0,-4.809999999999999,0.11000000000000121,-2.19,0.196,0.767,-0.027999999999999997,-0.003359510210873893,0.0,0.0,0.0,0.0,0.0
1757903566.2510045,-4.0,0.0,0.0,0.0,0.0,0.0,-5.75,-0.2699999999999996,-1.5699999999999998,0.218,0.741,-0.023000000000000007,0.00875,0.0,0.0,0.0,0.0,0.0
1757903566.3109255,-5.939802185258359,0.0,0.0,0.0,0.0,0.0,-5.629999999999999,-0.34999999999999964,-2.3499999999999996,0.23600000000000002,0.77,-0.033,-0.0015490109262918006,0.0,0.0,0.0,0.0,0.0
1757903566.3708644,-6.875409078738515,0.0,0.0,0.0,0.0,0.0,-5.09,-1.0299999999999994,-2.55,0.194,0.762,-0.027999999999999997,-0.008927045393692575,0.0,0.0,0.0,0.0,0.0
1757903566.421337,-5.525509026325086,0.0,0.0,0.0,0.0,0.0,-5.449999999999999,-0.02999999999999936,-2.21,0.223,0.755,-0.019000000000000003,-0.0003775451316254319,0.0,0.0,0.0,0.0,0.0
1757903566.48103,-4.0,0.0,0.0,0.0,0.0,0.0,-4.669999999999998,-0.8099999999999987,-1.1099999999999999,0.214,0.726,-0.032,0.003349999999999991,0.0,0.0,0.0,0.0,0.0
1757903566.5408351,-5.229842253835195,0.0,0.0,0.0,0.0,0.0,-4.469999999999999,-0.08999999999999986,-2.09,0.227,0.743,-0.041,-0.0037992112691759817,0.0,0.0,0.0,0.0,0.0
1757903566.6008122,-4.0,0.0,0.0,0.0,0.0,0.0,-5.849999999999998,0.23000000000000043,-1.53,0.24,0.73,-0.022000000000000006,0.00924999999999999,0.0,0.0,0.0,0.0,0.0
1757903566.650839,-5.84048371284434,0.0,0.0,0.0,0.0,0.0,-5.949999999999999,-0.16999999999999993,-2.33,0.217,0.767,-0.032,0.0005475814357782971,0.0,0.0,0.0,0.0,0.0
1757903566.710846,-4.238661345283436,0.0,0.0,0.0,0.0,0.0,-5.869999999999997,-0.3899999999999988,-1.65,0.20400000000000001,0.747,-0.024999999999999994,0.008156693273582807,0.0,0.0,0.0,0.0,0.0
1757903566.7608507,-5.810443184473969,0.0,0.0,0.0,0.0,0.0,-5.289999999999999,-0.9299999999999997,-2.13,0.187,0.7370000000000001,-0.031,-0.002602215922369848,0.0,0.0,0.0,0.0,0.0
1757903566.8208873,-6.32267743918666,0.0,0.0,0.0,0.0,0.0,-4.989999999999998,-0.3099999999999987,-2.51,0.218,0.754,-0.032,-0.006663387195933308,0.0,0.0,0.0,0.0,0.0
1757903566.8808472,-6.095592670118302,0.0,0.0,0.0,0.0,0.0,-5.969999999999999,-0.8899999999999988,-2.27,0.229,0.761,-0.022000000000000006,-0.0006279633505915162,0.0,0.0,0.0,0.0,0.0
1757903566.940878,-4.397868802044917,0.0,0.0,0.0,0.0,0.0,-6.109999999999999,-0.6099999999999994,-1.65,0.208,0.724,-0.0050000000000000044,0.008560655989775415,0.0,0.0,0.0,0.0,0.0
1757903567.000779,-6.504709832113957,0.0,0.0,0.0,0.0,0.0,-6.969999999999999,-0.9299999999999997,-2.4299999999999997,0.207,0.755,-0.021000000000000005,0.0023264508394302075,0.0,0.0,0.0,0.0,0.0
1757903567.050849,-6.570863717959761,0.0,0.0,0.0,0.0,0.0,-5.73,-0.3099999999999987,-2.61,0.209,0.728,-0.054,-0.004204318589798804,0.0,0.0,0.0,0.0,0.0
1757903567.1108756,-6.785370292032705,0.0,0.0,0.0,0.0,0.0,-6.349999999999998,-0.15000000000000036,-2.71,0.20500000000000002,0.74,-0.041,-0.002176851460163536,0.0,0.0,0.0,0.0,0.0
1757903567.1708198,-10.381774896423059,0.0,0.0,0.0,0.0,0.0,-6.209999999999997,0.15000000000000036,-4.15,0.206,0.6990000000000001,-0.038,-0.020858874482115305,0.0,0.0,0.0,0.0,0.0
1757903567.221286,-11.377664523090845,0.0,0.0,0.0,0.0,0.0,-7.689999999999998,-0.6099999999999994,-4.51,0.228,0.7230000000000001,-0.03,-0.018438322615454236,0.0,0.0,0.0,0.0,0.0
1757903567.2809858,-12.421000362289666,0.0,0.0,0.0,0.0,0.0,-9.41,-1.75,-4.65,0.22,0.7290000000000001,0.013999999999999999,-0.01505500181144833,0.0,0.0,0.0,0.0,0.0
1757903567.3410056,-11.724600206403627,0.0,0.0,0.0,0.0,0.0,-11.529999999999998,-0.6099999999999994,-4.65,0.232,0.677,-0.045,-0.0009730010320181481,0.0,0.0,0.0,0.0,0.0
1757903567.4014287,-13.276153433882874,0.0,0.0,0.0,0.0,0.0,-12.189999999999998,0.07000000000000028,-5.3100000000000005,0.225,0.702,-0.053,-0.005430767169414379,0.0,0.0,0.0,0.0,0.0
1757903567.460837,-11.808736172851013,0.0,0.0,0.0,0.0,0.0,-12.469999999999999,-0.8300000000000001,-4.65,0.23500000000000001,0.687,-0.031,0.0033063191357449286,0.0,0.0,0.0,0.0,0.0
1757903567.5108604,-11.35919231283633,0.0,0.0,0.0,0.0,0.0,-13.23,-1.0099999999999998,-4.43,0.217,0.657,-0.011999999999999997,0.009354038435818356,0.0,0.0,0.0,0.0,0.0
1757903567.5708144,-12.69158185570262,0.0,0.0,0.0,0.0,0.0,-12.41,-1.2899999999999991,-4.91,0.223,0.722,-0.032,-0.0014079092785130953,0.0,0.0,0.0,0.0,0.0
1757903567.6211114,-11.505053237599553,0.0,0.0,0.0,0.0,0.0,-11.91,-0.6899999999999995,-4.55,0.223,0.718,-0.038,0.0020247338120022375,0.0,0.0,0.0,0.0,0.0
1757903567.6809306,-12.911864698795448,0.0,0.0,0.0,0.0,0.0,-11.11,-0.3899999999999988,-5.15,0.211,0.6990000000000001,-0.062,-0.009009323493977242,0.0,0.0,0.0,0.0,0.0
1757903567.7408302,-14.649445381993136,0.0,0.0,0.0,0.0,0.0,-12.29,-0.5899999999999999,-5.83,0.23,0.726,-0.037,-0.011797226909965684,0.0,0.0,0.0,0.0,0.0
1757903567.8008082,-11.745052149735224,0.0,0.0,0.0,0.0,0.0,-12.89,-0.6699999999999999,-4.65,0.211,0.702,-0.025999999999999995,0.0057247392513238805,0.0,0.0,0.0,0.0,0.0
1757903567.8508341,-12.134300556686403,0.0,0.0,0.0,0.0,0.0,-12.23,-0.1899999999999995,-4.85,0.20500000000000002,0.6970000000000001,-0.024999999999999994,0.00047849721656798575,0.0,0.0,0.0,0.0,0.0
1757903567.9116194,-13.133592425532322,0.0,0.0,0.0,0.0,0.0,-11.169999999999998,-0.1899999999999995,-5.25,0.245,0.7150000000000001,-0.043000000000000003,-0.009817962127661622,0.0,0.0,0.0,0.0,0.0
1757903567.9708028,-11.967716991974699,0.0,0.0,0.0,0.0,0.0,-11.469999999999999,-1.2899999999999991,-4.609999999999999,0.218,0.677,-0.037,-0.0024885849598735013,0.0,0.0,0.0,0.0,0.0
1757903568.0208287,-13.087255250815579,0.0,0.0,0.0,0.0,0.0,-11.189999999999998,-0.5099999999999998,-5.209999999999999,0.211,0.706,-0.069,-0.009486276254077906,0.0,0.0,0.0,0.0,0.0
1757903568.0808306,-11.322819878457839,0.0,0.0,0.0,0.0,0.0,-12.95,-1.1899999999999995,-4.37,0.232,0.692,-0.047,0.008135900607710802,0.0,0.0,0.0,0.0,0.0
1757903568.1309023,-12.87910128852165,0.0,0.0,0.0,0.0,0.0,-13.169999999999998,-0.129999999999999,-5.15,0.232,0.704,-0.024999999999999994,0.0014544935573917428,0.0,0.0,0.0,0.0,0.0
1757903568.1908977,-12.38976392026902,0.0,0.0,0.0,0.0,0.0,-12.669999999999998,-1.1099999999999994,-4.83,0.202,0.661,-0.022000000000000006,0.0014011803986548887,0.0,0.0,0.0,0.0,0.0
1757903568.2509196,-13.945653444711722,0.0,0.0,0.0,0.0,0.0,-12.39,-1.7699999999999996,-5.289999999999999,0.207,0.7150000000000001,-0.044,-0.007778267223558606,0.0,0.0,0.0,0.0,0.0
1757903568.3108058,-13.526871404726224,0.0,0.0,0.0,0.0,0.0,-13.249999999999996,-0.08999999999999986,-5.41,0.238,0.7070000000000001,-0.05,-0.0013843570236311375,0.0,0.0,0.0,0.0,0.0
1757903568.360827,-9.831899612994427,0.0,0.0,0.0,0.0,0.0,-14.23,-1.049999999999999,-3.79,0.23600000000000002,0.692,-0.043000000000000003,0.02199050193502787,0.0,0.0,0.0,0.0,0.0
1757903568.4116516,-16.25703693789246,0.0,0.0,0.0,0.0,0.0,-12.309999999999999,-1.6500000000000004,-6.289999999999999,0.2,0.738,-0.034,-0.019735184689462316,0.0,0.0,0.0,0.0,0.0
1757903568.4708123,-12.724828093141378,0.0,0.0,0.0,0.0,0.0,-12.129999999999999,0.45000000000000107,-5.07,0.202,0.71,-0.036,-0.0029741404657068937,0.0,0.0,0.0,0.0,0.0
1757903568.5211694,-15.09308616552625,0.0,0.0,0.0,0.0,0.0,-12.09,-1.709999999999999,-5.789999999999999,0.21,0.749,-0.05,-0.015015430827631251,0.0,0.0,0.0,0.0,0.0
1757903568.5808249,-10.627382085913725,0.0,0.0,0.0,0.0,0.0,-13.569999999999997,-0.08999999999999986,-4.25,0.221,0.6970000000000001,-0.033,0.014713089570431359,0.0,0.0,0.0,0.0,0.0
1757903568.6408303,-10.63490714580997,0.0,0.0,0.0,0.0,0.0,-14.470000000000002,-0.6099999999999994,-4.21,0.228,0.6950000000000001,-0.04,0.01917546427095016,0.0,0.0,0.0,0.0,0.0
1757903568.6908448,-12.689217863997763,0.0,0.0,0.0,0.0,0.0,-12.709999999999997,-0.5099999999999998,-5.05,0.206,0.7110000000000001,-0.035,0.00010391068001116999,0.0,0.0,0.0,0.0,0.0
1757903568.7512019,-13.485038005137397,0.0,0.0,0.0,0.0,0.0,-11.93,-1.1500000000000004,-5.27,0.228,0.6990000000000001,-0.046,-0.007775190025686989,0.0,0.0,0.0,0.0,0.0
1757903568.810981,-10.78685542686097,0.0,0.0,0.0,0.0,0.0,-11.95,-1.0299999999999994,-4.1899999999999995,0.223,0.6799999999999999,-0.05,0.005815722865695143,0.0,0.0,0.0,0.0,0.0
1757903568.8708127,-9.357951164651373,0.0,0.0,0.0,0.0,0.0,-12.849999999999998,-0.8300000000000001,-3.65,0.23,0.666,-0.042,0.017460244176743123,0.0,0.0,0.0,0.0,0.0
1757903568.921119,-11.710305290640374,0.0,0.0,0.0,0.0,0.0,-12.61,-0.7099999999999991,-4.63,0.226,0.706,-0.025999999999999995,0.004498473546798128,0.0,0.0,0.0,0.0,0.0
1757903568.9808288,-12.105835369771057,0.0,0.0,0.0,0.0,0.0,-10.969999999999999,-0.7099999999999991,-4.79,0.22,0.677,-0.04,-0.005679176848855292,0.0,0.0,0.0,0.0,0.0
1757903569.0420473,-14.708713403965689,0.0,0.0,0.0,0.0,0.0,-10.029999999999998,-1.1500000000000004,-5.77,0.201,0.7310000000000001,-0.042,-0.023393567019828455,0.0,0.0,0.0,0.0,0.0
1757903569.1008153,-12.725810386769087,0.0,0.0,0.0,0.0,0.0,-8.969999999999999,-1.8299999999999992,-4.75,0.194,0.6970000000000001,-0.046,-0.01877905193384544,0.0,0.0,0.0,0.0,0.0
1757903569.150881,-15.639573203895303,0.0,0.0,0.0,0.0,0.0,-10.149999999999999,-0.2699999999999996,-6.25,0.224,0.706,-0.023000000000000007,-0.027447866019476522,0.0,0.0,0.0,0.0,0.0
1757903569.210856,-13.477991319184028,0.0,0.0,0.0,0.0,0.0,-12.629999999999999,-2.2699999999999996,-4.890000000000001,0.207,0.7110000000000001,-0.047,-0.004239956595920144,0.0,0.0,0.0,0.0,0.0
1757903569.2708204,-13.526132115279667,0.0,0.0,0.0,0.0,0.0,-11.73,-0.46999999999999886,-5.390000000000001,0.216,0.716,-0.049,-0.008980660576398333,0.0,0.0,0.0,0.0,0.0
1757903569.3210878,-11.043153987878647,0.0,0.0,0.0,0.0,0.0,-11.61,-0.4900000000000002,-4.390000000000001,0.227,0.6859999999999999,-0.021000000000000005,0.002834230060606764,0.0,0.0,0.0,0.0,0.0
1757903569.380869,-14.677576434820562,0.0,0.0,0.0,0.0,0.0,-11.73,-0.10999999999999943,-5.869999999999999,0.243,0.6930000000000001,-0.053,-0.014737882174102808,0.0,0.0,0.0,0.0,0.0
1757903569.440837,-11.986294256357967,0.0,0.0,0.0,0.0,0.0,-11.07,-1.4499999999999993,-4.57,0.213,0.757,-0.041,-0.004581471281789833,0.0,0.0,0.0,0.0,0.0
1757903569.4908378,-15.060419980863747,0.0,0.0,0.0,0.0,0.0,-11.11,-2.09,-5.65,0.233,0.71,-0.016,-0.01975209990431874,0.0,0.0,0.0,0.0,0.0
1757903569.5408995,-10.740868214441512,0.0,0.0,0.0,0.0,0.0,-12.509999999999998,-0.9499999999999993,-4.1899999999999995,0.232,0.736,-0.032,0.008845658927792429,0.0,0.0,0.0,0.0,0.0
1757903569.6008146,-10.127005974126803,0.0,0.0,0.0,0.0,0.0,-12.969999999999999,-0.41000000000000014,-4.029999999999999,0.225,0.738,-0.039,0.01421497012936598,0.0,0.0,0.0,0.0,0.0
1757903569.650997,-13.129404023031661,0.0,0.0,0.0,0.0,0.0,-12.469999999999999,-1.5099999999999998,-5.029999999999999,0.227,0.718,-0.037,-0.003297020115158311,0.0,0.0,0.0,0.0,0.0
1757903569.7107909,-15.61109381177373,0.0,0.0,0.0,0.0,0.0,-11.369999999999997,-1.1899999999999995,-6.130000000000001,0.213,0.7210000000000001,-0.028999999999999998,-0.02120546905886866,0.0,0.0,0.0,0.0,0.0
1757903569.7607949,-11.81614361794913,0.0,0.0,0.0,0.0,0.0,-12.809999999999999,-0.9499999999999993,-4.63,0.229,0.7150000000000001,-0.043000000000000003,0.004969281910254342,0.0,0.0,0.0,0.0,0.0
1757903569.810893,-12.140479809299135,0.0,0.0,0.0,0.0,0.0,-13.209999999999997,-1.0099999999999998,-4.75,0.23,0.716,-0.027999999999999997,0.00534760095350431,0.0,0.0,0.0,0.0,0.0
1757903569.8708231,-8.613724513820952,0.0,0.0,0.0,0.0,0.0,-13.470000000000002,-1.3499999999999996,-3.17,0.217,0.674,-0.047,0.024281377430895257,0.0,0.0,0.0,0.0,0.0
1757903569.922317,-11.125252806116361,0.0,0.0,0.0,0.0,0.0,-13.629999999999999,-0.02999999999999936,-4.449999999999999,0.23600000000000002,0.6779999999999999,-0.024999999999999994,0.012523735969418191,0.0,0.0,0.0,0.0,0.0
1757903569.980902,-11.923558613098692,0.0,0.0,0.0,0.0,0.0,-11.829999999999998,0.4299999999999997,-4.75,0.218,0.698,-0.023000000000000007,-0.000467793065493467,0.0,0.0,0.0,0.0,0.0
1757903570.0310295,-13.777200368725135,0.0,0.0,0.0,0.0,0.0,-12.05,-0.6699999999999999,-5.470000000000001,0.248,0.6819999999999999,-0.035,-0.00863600184362567,0.0,0.0,0.0,0.0,0.0
1757903570.0908363,-10.4671509972867,0.0,0.0,0.0,0.0,0.0,-12.129999999999999,-1.33,-3.9699999999999998,0.211,0.681,-0.028999999999999998,0.008314245013566497,0.0,0.0,0.0,0.0,0.0
1757903570.140916,-11.614053986442459,0.0,0.0,0.0,0.0,0.0,-10.849999999999998,-1.0299999999999994,-4.529999999999999,0.226,0.6759999999999999,-0.03,-0.0038202699322123037,0.0,0.0,0.0,0.0,0.0
1757903570.1911843,-13.46332982586403,0.0,0.0,0.0,0.0,0.0,-9.529999999999998,-0.7699999999999996,-5.33,0.229,0.6759999999999999,-0.031,-0.01966664912932016,0.0,0.0,0.0,0.0,0.0
1757903570.2509146,-15.832127147038705,0.0,0.0,0.0,0.0,0.0,-9.89,0.19000000000000128,-6.33,0.248,0.7070000000000001,-0.025999999999999995,-0.02971063573519352,0.0,0.0,0.0,0.0,0.0
1757903570.300963,-12.35359259486891,0.0,0.0,0.0,0.0,0.0,-14.529999999999998,-1.4299999999999997,-4.73,0.211,0.69,-0.044,0.010882037025655435,0.0,0.0,0.0,0.0,0.0
1757903570.3509657,-13.18754146912911,0.0,0.0,0.0,0.0,0.0,-13.870000000000001,0.23000000000000043,-5.27,0.206,0.6950000000000001,-0.046,0.0034122926543544542,0.0,0.0,0.0,0.0,0.0
1757903570.410832,-12.622648295821284,0.0,0.0,0.0,0.0,0.0,-12.829999999999998,-0.8899999999999988,-4.97,0.20400000000000001,0.7,-0.026999999999999996,0.0010367585208935727,0.0,0.0,0.0,0.0,0.0
1757903570.460876,-15.61109381177373,0.0,0.0,0.0,0.0,0.0,-11.75,-1.1899999999999995,-6.130000000000001,0.189,0.6799999999999999,-0.053,-0.019305469058868648,0.0,0.0,0.0,0.0,0.0
1757903570.5210912,-17.74954224761867,0.0,0.0,0.0,0.0,0.0,-12.43,-0.6500000000000004,-7.07,0.218,0.724,-0.0040000000000000036,-0.026597711238093354,0.0,0.0,0.0,0.0,0.0
1757903570.580954,-14.706503663345684,0.0,0.0,0.0,0.0,0.0,-14.45,-1.9499999999999993,-5.550000000000001,0.202,0.679,-0.03,-0.0012825183167284226,0.0,0.0,0.0,0.0,0.0
1757903570.6408439,-12.053267191927674,0.0,0.0,0.0,0.0,0.0,-15.330000000000002,-0.33000000000000007,-4.8100000000000005,0.226,0.644,-0.051000000000000004,0.01638366404036164,0.0,0.0,0.0,0.0,0.0
1757903570.7008038,-12.424019075967324,0.0,0.0,0.0,0.0,0.0,-14.629999999999999,-0.9900000000000002,-4.87,0.20400000000000001,0.6950000000000001,-0.038,0.011029904620163374,0.0,0.0,0.0,0.0,0.0
1757903570.7510536,-10.923884382398047,0.0,0.0,0.0,0.0,0.0,-14.629999999999999,-1.17,-4.21,0.186,0.653,-0.054,0.01853057808800976,0.0,0.0,0.0,0.0,0.0
1757903570.8108504,-7.333570071936314,0.0,0.0,0.0,0.0,0.0,-12.489999999999998,-1.17,-2.69,0.2,0.765,-0.027999999999999997,0.025782149640318424,0.0,0.0,0.0,0.0,0.0
1757903570.870806,-5.869944633469722,0.0,0.0,0.0,0.0,0.0,-10.93,-1.0700000000000003,-2.09,0.2,0.7310000000000001,-0.026999999999999996,0.02530027683265139,0.0,0.0,0.0,0.0,0.0
1757903570.9208448,-7.487072191451075,0.0,0.0,0.0,0.0,0.0,-7.489999999999998,-0.16999999999999993,-2.99,0.221,0.759,-0.021000000000000005,1.463904274461747e-05,0.0,0.0,0.0,0.0,0.0
1757903570.970867,-5.427821846744787,0.0,0.0,0.0,0.0,0.0,-5.709999999999997,0.7699999999999996,-2.03,0.249,0.795,-0.047,0.0014108907662760517,0.0,0.0,0.0,0.0,0.0
1757903571.0209363,-5.61571455827306,0.0,0.0,0.0,0.0,0.0,-6.25,-0.2699999999999996,-2.23,0.237,0.749,-0.023999999999999994,0.0031714272086346986,0.0,0.0,0.0,0.0,0.0
1757903571.0808876,-7.090574729879094,0.0,0.0,0.0,0.0,0.0,-6.109999999999999,-1.1099999999999994,-2.61,0.221,0.775,-0.019000000000000003,-0.004902873649395474,0.0,0.0,0.0,0.0,0.0
1757903571.1409848,-4.803774557574491,0.0,0.0,0.0,0.0,0.0,-6.669999999999998,-0.20999999999999908,-1.91,0.224,0.779,-0.012999999999999998,0.009331127212127534,0.0,0.0,0.0,0.0,0.0
1757903571.200823,-5.5119189036124245,0.0,0.0,0.0,0.0,0.0,-6.169999999999998,-0.3899999999999988,-2.17,0.222,0.755,-0.034,0.0032904054819378682,0.0,0.0,0.0,0.0,0.0
1757903571.2508924,-4.980587314765196,0.0,0.0,0.0,0.0,0.0,-6.829999999999998,-0.629999999999999,-1.89,0.213,0.756,-0.012999999999999998,0.00924706342617401,0.0,0.0,0.0,0.0,0.0
1757903571.3009398,-7.276073803913756,0.0,0.0,0.0,0.0,0.0,-5.449999999999999,-0.5899999999999999,-2.8499999999999996,0.238,0.8089999999999999,-0.037,-0.009130369019568785,0.0,0.0,0.0,0.0,0.0
1757903571.3608286,-6.169380033682477,0.0,0.0,0.0,0.0,0.0,-5.75,0.4299999999999997,-2.4299999999999997,0.233,0.781,-0.016,-0.0020969001684123835,0.0,0.0,0.0,0.0,0.0
1757903571.4109702,-6.1336163883960015,0.0,0.0,0.0,0.0,0.0,-6.669999999999998,0.13000000000000078,-2.45,0.226,0.751,-0.015,0.002681918058019983,0.0,0.0,0.0,0.0,0.0
1757903571.4611177,-5.8409117438975215,0.0,0.0,0.0,0.0,0.0,-6.809999999999999,0.34999999999999964,-2.31,0.238,0.786,-0.012999999999999998,0.004845441280512386,0.0,0.0,0.0,0.0,0.0
1757903571.5123184,-4.930136914934513,0.0,0.0,0.0,0.0,0.0,-6.129999999999999,0.08999999999999986,-1.97,0.20500000000000002,0.75,-0.024999999999999994,0.005999315425327429,0.0,0.0,0.0,0.0,0.0
1757903571.5708082,-6.45687617970176,0.0,0.0,0.0,0.0,0.0,-5.989999999999998,-0.41000000000000014,-2.55,0.184,0.744,-0.0040000000000000036,-0.00233438089850881,0.0,0.0,0.0,0.0,0.0
1757903571.620842,-6.09928274471679,0.0,0.0,0.0,0.0,0.0,-5.23,-0.4900000000000002,-2.3899999999999997,0.20400000000000001,0.78,-0.026999999999999996,-0.004346413723583948,0.0,0.0,0.0,0.0,0.0
1757903571.6808798,-5.821189740937844,0.0,0.0,0.0,0.0,0.0,-6.009999999999998,-0.6699999999999999,-2.23,0.201,0.747,-0.023000000000000007,0.0009440512953107705,0.0,0.0,0.0,0.0,0.0
1757903571.7408144,-6.179097830589835,0.0,0.0,0.0,0.0,0.0,-6.649999999999999,-0.9299999999999997,-2.29,0.225,0.777,-0.010999999999999996,0.002354510847050819,0.0,0.0,0.0,0.0,0.0
1757903571.7908964,-6.525047892544544,0.0,0.0,0.0,0.0,0.0,-5.129999999999999,0.009999999999999787,-2.61,0.233,0.772,-0.038,-0.006975239462722724,0.0,0.0,0.0,0.0,0.0
1757903571.8409317,-6.612960758994415,0.0,0.0,0.0,0.0,0.0,-5.809999999999999,-0.4299999999999997,-2.61,0.247,0.754,-0.021000000000000005,-0.004014803794972082,0.0,0.0,0.0,0.0,0.0
1757903571.900814,-4.0,0.0,0.0,0.0,0.0,0.0,-6.009999999999998,-0.28999999999999915,-1.47,0.221,0.743,-0.0010000000000000009,0.01004999999999999,0.0,0.0,0.0,0.0,0.0
1757903571.9510715,-4.608823060174907,0.0,0.0,0.0,0.0,0.0,-6.669999999999998,0.34999999999999964,-1.81,0.238,0.718,-0.020000000000000004,0.010305884699125457,0.0,0.0,0.0,0.0,0.0
1757903572.010832,-6.4075151189833335,0.0,0.0,0.0,0.0,0.0,-5.529999999999998,0.41000000000000014,-2.5300000000000002,0.227,0.766,-0.026999999999999996,-0.00438757559491668,0.0,0.0,0.0,0.0,0.0
1757903572.0608382,-4.0,0.0,0.0,0.0,0.0,0.0,-5.289999999999999,-0.129999999999999,-1.41,0.215,0.7210000000000001,-0.028999999999999998,0.006449999999999996,0.0,0.0,0.0,0.0,0.0
1757903572.1209426,-7.503082699797463,0.0,0.0,0.0,0.0,0.0,-4.209999999999997,-0.6500000000000004,-2.9299999999999997,0.202,0.796,-0.032,-0.01646541349898733,0.0,0.0,0.0,0.0,0.0
1757903572.180893,-5.198196802738426,0.0,0.0,0.0,0.0,0.0,-4.869999999999997,-0.4499999999999993,-2.03,0.23,0.746,-0.024999999999999994,-0.0016409840136921438,0.0,0.0,0.0,0.0,0.0
1757903572.2408235,-4.832830433607205,0.0,0.0,0.0,0.0,0.0,-6.129999999999999,-0.4900000000000002,-1.87,0.191,0.754,-0.020000000000000004,0.006485847831963971,0.0,0.0,0.0,0.0,0.0
1757903572.2908468,-5.495111463837652,0.0,0.0,0.0,0.0,0.0,-5.609999999999999,-0.34999999999999964,-2.17,0.215,0.774,-0.015,0.0005744426808117353,0.0,0.0,0.0,0.0,0.0
1757903572.3509831,-5.429663893833576,0.0,0.0,0.0,0.0,0.0,-5.890000000000001,0.08999999999999986,-2.17,0.221,0.755,-0.034,0.0023016805308321243,0.0,0.0,0.0,0.0,0.0
1757903572.4108367,-5.87632963677158,0.0,0.0,0.0,0.0,0.0,-6.529999999999998,0.3100000000000005,-2.33,0.233,0.766,-0.028999999999999998,0.00326835181614209,0.0,0.0,0.0,0.0,0.0
1757903572.4608722,-5.883982494875388,0.0,0.0,0.0,0.0,0.0,-6.07,0.13000000000000078,-2.3499999999999996,0.243,0.762,-0.023999999999999994,0.0009300875256230601,0.0,0.0,0.0,0.0,0.0
1757903572.5208328,-6.033759193073585,0.0,0.0,0.0,0.0,0.0,-5.789999999999999,0.13000000000000078,-2.41,0.23,0.75,-0.031,-0.0012187959653679314,0.0,0.0,0.0,0.0,0.0
1757903572.580861,-6.325444648402197,0.0,0.0,0.0,0.0,0.0,-5.43,0.030000000000001137,-2.5300000000000002,0.227,0.783,-0.016,-0.004477223242010986,0.0,0.0,0.0,0.0,0.0
1757903572.6407695,-5.816033871978395,0.0,0.0,0.0,0.0,0.0,-5.469999999999999,-0.41000000000000014,-2.29,0.225,0.754,-0.03,-0.001730169359891982,0.0,0.0,0.0,0.0,0.0
1757903572.690827,-6.987936032906998,0.0,0.0,0.0,0.0,0.0,-5.129999999999999,-0.16999999999999993,-2.79,0.22,0.784,-0.026999999999999996,-0.009289680164534997,0.0,0.0,0.0,0.0,0.0
1757903572.754158,-5.218357021132226,0.0,0.0,0.0,0.0,0.0,-5.489999999999998,-0.6899999999999995,-1.97,0.202,0.783,-0.04,0.001358214894338863,0.0,0.0,0.0,0.0,0.0
1757903572.8108404,-7.775040192822155,0.0,0.0,0.0,0.0,0.0,-5.329999999999998,0.009999999999999787,-3.11,0.228,0.788,-0.023000000000000007,-0.012225200964110785,0.0,0.0,0.0,0.0,0.0
1757903572.870778,-4.639638994577056,0.0,0.0,0.0,0.0,0.0,-6.25,-0.4900000000000002,-1.79,0.225,0.745,-0.042,0.00805180502711472,0.0,0.0,0.0,0.0,0.0
1757903572.9208312,-4.028802551627468,0.0,0.0,0.0,0.0,0.0,-6.189999999999998,0.07000000000000028,-1.6099999999999999,0.207,0.726,-0.021000000000000005,0.01080598724186265,0.0,0.0,0.0,0.0,0.0
1757903572.970833,-4.179862437927831,0.0,0.0,0.0,0.0,0.0,-6.829999999999998,-0.2699999999999996,-1.65,0.197,0.753,-0.023000000000000007,0.013250687810360838,0.0,0.0,0.0,0.0,0.0
1757903573.020937,-5.107470019491058,0.0,0.0,0.0,0.0,0.0,-5.77,-0.23000000000000043,-2.03,0.216,0.757,-0.016,0.0033126499025447087,0.0,0.0,0.0,0.0,0.0
1757903573.080849,-5.6405895081985875,0.0,0.0,0.0,0.0,0.0,-6.169999999999998,-0.8499999999999996,-2.09,0.215,0.728,-0.019000000000000003,0.0026470524590070533,0.0,0.0,0.0,0.0,0.0
1757903573.131038,-5.933906807492009,0.0,0.0,0.0,0.0,0.0,-6.009999999999998,0.13000000000000078,-2.37,0.225,0.766,-0.025999999999999995,0.0003804659625399465,0.0,0.0,0.0,0.0,0.0
1757903573.1908453,-7.311036178271861,0.0,0.0,0.0,0.0,0.0,-4.649999999999999,0.2900000000000009,-2.91,0.233,0.785,-0.03,-0.013305180891359313,0.0,0.0,0.0,0.0,0.0
1757903573.2508762,-5.610369863030422,0.0,0.0,0.0,0.0,0.0,-5.849999999999998,-0.3899999999999988,-2.21,0.231,0.751,-0.008999999999999994,0.0011981506848478807,0.0,0.0,0.0,0.0,0.0
1757903573.3107915,-8.777884141409022,0.0,0.0,0.0,0.0,0.0,-6.709999999999997,0.08999999999999986,-3.51,0.222,0.79,-0.022000000000000006,-0.010339420707045122,0.0,0.0,0.0,0.0,0.0
1757903573.360835,-5.826341047346953,0.0,0.0,0.0,0.0,0.0,-6.209999999999997,0.8499999999999996,-2.17,0.243,0.766,-0.023999999999999994,0.0019182947632652204,0.0,0.0,0.0,0.0,0.0
1757903573.4210196,-5.206846454429013,0.0,0.0,0.0,0.0,0.0,-6.93,-0.23000000000000043,-2.07,0.226,0.75,-0.022000000000000006,0.008615767727854932,0.0,0.0,0.0,0.0,0.0
1757903573.4809253,-5.727674047988415,0.0,0.0,0.0,0.0,0.0,-6.669999999999998,0.3100000000000005,-2.27,0.244,0.785,-0.026999999999999996,0.0047116297600579135,0.0,0.0,0.0,0.0,0.0
1757903573.5408468,-4.0,0.0,0.0,0.0,0.0,0.0,-5.07,-0.33000000000000007,-1.33,0.219,0.745,-0.03,0.0053500000000000015,0.0,0.0,0.0,0.0,0.0
1757903573.5909445,-6.118108367788199,0.0,0.0,0.0,0.0,0.0,-5.57,-0.28999999999999915,-2.4299999999999997,0.203,0.751,-0.009999999999999995,-0.002740541838940995,0.0,0.0,0.0,0.0,0.0
1757903573.650857,-5.043931997955564,0.0,0.0,0.0,0.0,0.0,-5.43,-0.6500000000000004,-1.91,0.219,0.734,-0.023999999999999994,0.001930340010222178,0.0,0.0,0.0,0.0,0.0
1757903573.7026236,-5.285002365183955,0.0,0.0,0.0,0.0,0.0,-4.890000000000001,-0.129999999999999,-2.11,0.22,0.769,-0.024999999999999994,-0.00197501182591977,0.0,0.0,0.0,0.0,0.0
1757903573.7608395,-4.859140870565495,0.0,0.0,0.0,0.0,0.0,-5.93,-0.23000000000000043,-1.93,0.23,0.752,-0.038,0.005354295647172522,0.0,0.0,0.0,0.0,0.0
1757903573.810871,-4.859140870565495,0.0,0.0,0.0,0.0,0.0,-5.93,-0.23000000000000043,-1.93,0.23,0.752,-0.038,0.005354295647172522,0.0,0.0,0.0,0.0,0.0
1757903573.8708186,-6.6806623923081165,0.0,0.0,0.0,0.0,0.0,-4.869999999999997,-0.10999999999999943,-2.67,0.21,0.783,-0.022000000000000006,-0.009053311961540595,0.0,0.0,0.0,0.0,0.0
1757903573.9209163,-5.908151149048235,0.0,0.0,0.0,0.0,0.0,-5.689999999999998,-0.25,-2.3499999999999996,0.238,0.771,-0.021000000000000005,-0.0010907557452411877,0.0,0.0,0.0,0.0,0.0
1757903573.9808798,-5.585807909335943,0.0,0.0,0.0,0.0,0.0,-6.75,-0.7899999999999991,-2.09,0.218,0.7330000000000001,-0.010999999999999996,0.005820960453320283,0.0,0.0,0.0,0.0,0.0
1757903574.0309992,-5.7420597349731555,0.0,0.0,0.0,0.0,0.0,-5.59,-0.34999999999999964,-2.27,0.216,0.738,-0.023000000000000007,-0.0007602986748657781,0.0,0.0,0.0,0.0,0.0
1757903574.0908844,-5.415833269220905,0.0,0.0,0.0,0.0,0.0,-6.869999999999997,-0.5700000000000003,-2.09,0.24,0.751,-0.018000000000000002,0.007270833653895461,0.0,0.0,0.0,0.0,0.0
1757903574.1421392,-6.993300365349682,0.0,0.0,0.0,0.0,0.0,-6.149999999999999,-0.6099999999999994,-2.73,0.224,0.778,-0.018000000000000002,-0.0042165018267484155,0.0,0.0,0.0,0.0,0.0
1757903574.2007918,-6.081221094484231,0.0,0.0,0.0,0.0,0.0,-5.43,-0.10999999999999943,-2.4299999999999997,0.193,0.758,-0.023000000000000007,-0.003256105472421158,0.0,0.0,0.0,0.0,0.0
1757903574.2509167,-6.343205025852467,0.0,0.0,0.0,0.0,0.0,-5.59,-0.7300000000000004,-2.4299999999999997,0.209,0.757,-0.033,-0.003766025129262336,0.0,0.0,0.0,0.0,0.0
1757903574.3107855,-6.211783157838012,0.0,0.0,0.0,0.0,0.0,-5.41,-0.2699999999999996,-2.4699999999999998,0.202,0.756,-0.04,-0.004008915789190057,0.0,0.0,0.0,0.0,0.0
1757903574.36085,-5.455845489014511,0.0,0.0,0.0,0.0,0.0,-5.349999999999998,-0.8499999999999996,-2.01,0.218,0.746,-0.023000000000000007,-0.0005292274450725643,0.0,0.0,0.0,0.0,0.0
1757903574.4209378,-7.383173436944304,0.0,0.0,0.0,0.0,0.0,-5.969999999999999,-0.3699999999999992,-2.9299999999999997,0.199,0.767,-0.03,-0.007065867184721526,0.0,0.0,0.0,0.0,0.0
1757903574.4809322,-7.323335988468643,0.0,0.0,0.0,0.0,0.0,-4.57,-1.33,-2.61,0.21,0.786,-0.0040000000000000036,-0.013766679942343214,0.0,0.0,0.0,0.0,0.0
1757903574.5408025,-6.803032412093889,0.0,0.0,0.0,0.0,0.0,-5.789999999999999,-0.7699999999999996,-2.61,0.219,0.741,0.0020000000000000018,-0.005065162060469448,0.0,0.0,0.0,0.0,0.0
1757903574.5910084,-6.854286979693803,0.0,0.0,0.0,0.0,0.0,-4.989999999999998,0.5300000000000011,-2.69,0.222,0.746,-0.015,-0.009321434898469021,0.0,0.0,0.0,0.0,0.0
1757903574.6509266,-9.026696516444982,0.0,0.0,0.0,0.0,0.0,-5.969999999999999,0.07000000000000028,-3.61,0.237,0.7330000000000001,-0.035,-0.015283482582224917,0.0,0.0,0.0,0.0,0.0
1757903574.710774,-8.683101404452213,0.0,0.0,0.0,0.0,0.0,-5.009999999999998,-0.15000000000000036,-3.4699999999999998,0.201,0.7170000000000001,-0.051000000000000004,-0.018365507022261075,0.0,0.0,0.0,0.0,0.0
1757903574.7660544,-12.951303023248277,0.0,0.0,0.0,0.0,0.0,-7.77,-0.33000000000000007,-5.17,0.239,0.7130000000000001,0.006000000000000005,-0.02590651511624139,0.0,0.0,0.0,0.0,0.0
1757903574.8209527,-15.646764841333814,0.0,0.0,0.0,0.0,0.0,-9.129999999999999,-1.049999999999999,-6.17,0.239,0.7050000000000001,-0.0030000000000000027,-0.032583824206669075,0.0,0.0,0.0,0.0,0.0
1757903574.8808093,-15.761702002004728,0.0,0.0,0.0,0.0,0.0,-13.989999999999998,-0.4299999999999997,-6.289999999999999,0.216,0.6759999999999999,-0.042,-0.00885851001002365,0.0,0.0,0.0,0.0,0.0
1757903574.930816,-17.138297756778528,0.0,0.0,0.0,0.0,0.0,-13.970000000000002,-0.2699999999999996,-6.85,0.20500000000000002,0.671,-0.04,-0.015841488783892625,0.0,0.0,0.0,0.0,0.0
1757903574.991463,-12.591117901123791,0.0,0.0,0.0,0.0,0.0,-16.01,-1.0299999999999994,-4.93,0.199,0.636,-0.012999999999999998,0.01709441049438105,0.0,0.0,0.0,0.0,0.0
1757903575.0509472,-15.25192610787241,0.0,0.0,0.0,0.0,0.0,-17.59,-2.3499999999999996,-5.630000000000001,0.177,0.669,-0.031,0.011690369460637947,0.0,0.0,0.0,0.0,0.0
1757903575.110862,-15.122871751092779,0.0,0.0,0.0,0.0,0.0,-15.489999999999998,-1.2899999999999991,-5.91,0.226,0.665,-0.026999999999999996,0.001835641244536097,0.0,0.0,0.0,0.0,0.0
1757903575.170837,-14.15207581946903,0.0,0.0,0.0,0.0,0.0,-15.629999999999999,-1.0099999999999998,-5.57,0.211,0.67,-0.028999999999999998,0.007389620902654848,0.0,0.0,0.0,0.0,0.0
1757903575.2210917,-16.65941925758518,0.0,0.0,0.0,0.0,0.0,-14.209999999999997,-0.6699999999999999,-6.630000000000001,0.218,0.683,-0.026999999999999996,-0.01224709628792592,0.0,0.0,0.0,0.0,0.0
1757903575.2813234,-17.60316022764094,0.0,0.0,0.0,0.0,0.0,-14.989999999999998,-1.129999999999999,-6.949999999999999,0.22,0.706,-0.04,-0.013065801138204715,0.0,0.0,0.0,0.0,0.0
1757903575.340795,-12.754852017957715,0.0,0.0,0.0,0.0,0.0,-14.91,-0.5700000000000003,-5.07,0.229,0.659,-0.023999999999999994,0.010775739910211427,0.0,0.0,0.0,0.0,0.0
1757903575.39098,-12.221344034106886,0.0,0.0,0.0,0.0,0.0,-17.37,-1.0700000000000003,-4.77,0.189,0.642,-0.022000000000000006,0.025743279829465573,0.0,0.0,0.0,0.0,0.0
1757903575.4508708,-13.528904242398937,0.0,0.0,0.0,0.0,0.0,-17.87,-0.129999999999999,-5.41,0.215,0.649,-0.023999999999999994,0.02170547878800532,0.0,0.0,0.0,0.0,0.0
1757903575.5009167,-12.856370016454877,0.0,0.0,0.0,0.0,0.0,-14.849999999999998,-1.0700000000000003,-5.029999999999999,0.245,0.6819999999999999,-0.04,0.009968149917725606,0.0,0.0,0.0,0.0,0.0
1757903575.5567875,-15.220914887088751,0.0,0.0,0.0,0.0,0.0,-12.07,-1.0899999999999999,-5.99,0.202,0.641,-0.0040000000000000036,-0.015754574435443754,0.0,0.0,0.0,0.0,0.0
1757903575.6108174,-14.386147851318643,0.0,0.0,0.0,0.0,0.0,-13.029999999999998,-0.5299999999999994,-5.73,0.237,0.641,-0.020000000000000004,-0.006780739256593229,0.0,0.0,0.0,0.0,0.0
1757903575.6610525,-13.671914642799667,0.0,0.0,0.0,0.0,0.0,-13.289999999999996,-0.6500000000000004,-5.43,0.198,0.6859999999999999,-0.022000000000000006,-0.001909573213998357,0.0,0.0,0.0,0.0,0.0
1757903575.7209315,-15.361681223095342,0.0,0.0,0.0,0.0,0.0,-16.09,-1.3699999999999992,-5.99,0.213,0.665,-0.039,0.0036415938845232886,0.0,0.0,0.0,0.0,0.0
1757903575.7808447,-10.840260605723461,0.0,0.0,0.0,0.0,0.0,-17.59,-0.23000000000000043,-4.33,0.214,0.685,-0.03,0.03374869697138269,0.0,0.0,0.0,0.0,0.0
1757903575.8308809,-17.47802191324865,0.0,0.0,0.0,0.0,0.0,-15.510000000000002,-0.129999999999999,-6.99,0.201,0.668,-0.03,-0.009840109566243243,0.0,0.0,0.0,0.0,0.0
1757903575.8908606,-18.084143607038737,0.0,0.0,0.0,0.0,0.0,-13.91,-1.5299999999999994,-7.07,0.243,0.6779999999999999,-0.034,-0.020870718035193685,0.0,0.0,0.0,0.0,0.0
1757903575.9509609,-15.785159169295696,0.0,0.0,0.0,0.0,0.0,-14.73,-1.4299999999999997,-6.15,0.225,0.632,-0.04,-0.005275795846478477,0.0,0.0,0.0,0.0,0.0
1757903576.0010128,-14.953135122776093,0.0,0.0,0.0,0.0,0.0,-16.73,-2.2299999999999995,-5.550000000000001,0.208,0.672,-0.026999999999999996,0.008884324386119538,0.0,0.0,0.0,0.0,0.0
1757903576.0608082,-12.893263745072462,0.0,0.0,0.0,0.0,0.0,-16.19,-0.5299999999999994,-5.13,0.20500000000000002,0.6930000000000001,-0.010999999999999996,0.016483681274637698,0.0,0.0,0.0,0.0,0.0
1757903576.1108165,-15.38964749433852,0.0,0.0,0.0,0.0,0.0,-14.55,-0.75,-6.109999999999999,0.225,0.66,-0.012999999999999998,-0.004198237471692599,0.0,0.0,0.0,0.0,0.0
1757903576.1608498,-12.363504762000131,0.0,0.0,0.0,0.0,0.0,-14.489999999999998,-0.3899999999999988,-4.93,0.194,0.7,-0.027999999999999997,0.010632476189999336,0.0,0.0,0.0,0.0,0.0
1757903576.220981,-16.15878244175594,0.0,0.0,0.0,0.0,0.0,-13.029999999999998,-0.8300000000000001,-6.41,0.20400000000000001,0.635,-0.03,-0.015643912208779708,0.0,0.0,0.0,0.0,0.0
1757903576.280851,-13.599862131654127,0.0,0.0,0.0,0.0,0.0,-13.749999999999996,-1.629999999999999,-5.1899999999999995,0.203,0.671,-0.010999999999999996,0.0007506893417293448,0.0,0.0,0.0,0.0,0.0
1757903576.340797,-15.139393977303055,0.0,0.0,0.0,0.0,0.0,-13.190000000000001,-0.8899999999999988,-5.99,0.23500000000000001,0.694,-0.035,-0.009746969886515267,0.0,0.0,0.0,0.0,0.0
1757903576.3908298,-14.901384163895646,0.0,0.0,0.0,0.0,0.0,-14.77,-1.709999999999999,-5.709999999999999,0.218,0.661,-0.033,-0.0006569208194782306,0.0,0.0,0.0,0.0,0.0
1757903576.4508348,-17.16220411252587,0.0,0.0,0.0,0.0,0.0,-14.830000000000002,-1.4499999999999993,-6.709999999999999,0.20500000000000002,0.683,-0.051000000000000004,-0.011661020562629344,0.0,0.0,0.0,0.0,0.0
1757903576.5011215,-15.646764841333814,0.0,0.0,0.0,0.0,0.0,-14.749999999999996,-1.049999999999999,-6.17,0.213,0.698,-0.028999999999999998,-0.004483824206669089,0.0,0.0,0.0,0.0,0.0
1757903576.5609677,-16.291907500351208,0.0,0.0,0.0,0.0,0.0,-14.989999999999998,-0.5899999999999999,-6.49,0.20500000000000002,0.668,-0.022000000000000006,-0.006509537501756047,0.0,0.0,0.0,0.0,0.0
1757903576.621028,-14.760631761547335,0.0,0.0,0.0,0.0,0.0,-15.650000000000002,-0.41000000000000014,-5.890000000000001,0.231,0.663,-0.019000000000000003,0.004446841192263334,0.0,0.0,0.0,0.0,0.0
1757903576.6808298,-15.883521335018884,0.0,0.0,0.0,0.0,0.0,-15.289999999999996,-1.67,-6.130000000000001,0.221,0.634,-0.016,-0.0029676066750944407,0.0,0.0,0.0,0.0,0.0
1757903576.7310312,-11.490485194281398,0.0,0.0,0.0,0.0,0.0,-16.55,-0.4900000000000002,-4.57,0.247,0.692,-0.037,0.025297574028593017,0.0,0.0,0.0,0.0,0.0
1757903576.7910209,-15.162329966070516,0.0,0.0,0.0,0.0,0.0,-15.09,-0.6500000000000004,-6.029999999999999,0.255,0.654,-0.037,-0.00036164983035257947,0.0,0.0,0.0,0.0,0.0
1757903576.8508537,-11.642862620507037,0.0,0.0,0.0,0.0,0.0,-15.129999999999999,-1.6099999999999994,-4.37,0.228,0.685,-0.038,0.01743568689746481,0.0,0.0,0.0,0.0,0.0
1757903576.9108186,-20.0,0.0,0.0,0.0,0.0,0.0,-13.309999999999999,-2.17,-7.93,0.225,0.692,-0.036,-0.03345000000000001,0.0,0.0,0.0,0.0,0.0
1757903576.9611287,-14.025557029936456,0.0,0.0,0.0,0.0,0.0,-15.289999999999996,0.05000000000000071,-5.609999999999999,0.206,0.653,-0.023999999999999994,0.006322214850317698,0.0,0.0,0.0,0.0,0.0
1757903577.020971,-19.219163613435416,0.0,0.0,0.0,0.0,0.0,-13.809999999999999,-1.0899999999999999,-7.609999999999999,0.199,0.668,-0.032,-0.02704581806717709,0.0,0.0,0.0,0.0,0.0
1757903577.0808353,-18.023075486719797,0.0,0.0,0.0,0.0,0.0,-14.569999999999997,-1.4100000000000001,-7.07,0.21,0.621,-0.038,-0.017265377433599002,0.0,0.0,0.0,0.0,0.0
1757903577.14078,-16.588738650060165,0.0,0.0,0.0,0.0,0.0,-14.529999999999998,-0.9299999999999997,-6.57,0.192,0.7,-0.023999999999999994,-0.010293693250300837,0.0,0.0,0.0,0.0,0.0
1757903577.191164,-10.872039827005786,0.0,0.0,0.0,0.0,0.0,-13.569999999999997,-1.0899999999999999,-4.21,0.221,0.718,-0.010999999999999996,0.013489800864971056,0.0,0.0,0.0,0.0,0.0
1757903577.250822,-11.396764891845402,0.0,0.0,0.0,0.0,0.0,-15.27,-1.9299999999999997,-4.13,0.206,0.7230000000000001,-0.028999999999999998,0.019366175540772988,0.0,0.0,0.0,0.0,0.0
1757903577.3008263,-13.98682415704151,0.0,0.0,0.0,0.0,0.0,-16.91,-0.23000000000000043,-5.59,0.215,0.6819999999999999,-0.04,0.014615879214792446,0.0,0.0,0.0,0.0,0.0
1757903577.3608494,-18.25667686080903,0.0,0.0,0.0,0.0,0.0,-13.09,-0.4299999999999997,-7.289999999999999,0.184,0.7,-0.018000000000000002,-0.02583338430404515,0.0,0.0,0.0,0.0,0.0
1757903577.4210145,-17.636928587483705,0.0,0.0,0.0,0.0,0.0,-14.970000000000002,-2.5699999999999994,-6.57,0.224,0.7030000000000001,-0.046,-0.013334642937418515,0.0,0.0,0.0,0.0,0.0
1757903577.4808495,-20.0,0.0,0.0,0.0,0.0,0.0,-12.41,-0.8099999999999987,-8.25,0.26,0.652,-0.0040000000000000036,-0.03795,0.0,0.0,0.0,0.0,0.0
1757903577.5408201,-15.220422136064427,0.0,0.0,0.0,0.0,0.0,-14.349999999999998,-0.46999999999999886,-6.07,0.212,0.6930000000000001,-0.035,-0.004352110680322143,0.0,0.0,0.0,0.0,0.0
1757903577.5908897,-14.45618379794612,0.0,0.0,0.0,0.0,0.0,-17.23,-1.0299999999999994,-5.6899999999999995,0.225,0.628,-0.013999999999999999,0.013869081010269407,0.0,0.0,0.0,0.0,0.0
1757903577.6508977,-14.939921351867955,0.0,0.0,0.0,0.0,0.0,-16.99,-1.0099999999999998,-5.890000000000001,0.225,0.694,-0.023000000000000007,0.010250393240660216,0.0,0.0,0.0,0.0,0.0
1757903577.7108028,-11.738877714671023,0.0,0.0,0.0,0.0,0.0,-16.59,-0.9900000000000002,-4.59,0.206,0.7090000000000001,-0.031,0.024255611426644882,0.0,0.0,0.0,0.0,0.0
1757903577.7708154,-6.735818435795311,0.0,0.0,0.0,0.0,0.0,-15.95,-0.8699999999999992,-2.55,0.197,0.7050000000000001,-0.045,0.046070907821023445,0.0,0.0,0.0,0.0,0.0
1757903577.820854,-4.0,0.0,0.0,0.0,0.0,0.0,-10.169999999999998,-0.6699999999999999,-1.33,0.232,0.732,0.009999999999999995,0.030849999999999992,0.0,0.0,0.0,0.0,0.0
1757903577.8808372,-4.0,0.0,0.0,0.0,0.0,0.0,-9.39,-0.629999999999999,-0.9099999999999999,0.211,0.6950000000000001,0.019000000000000003,0.02695,0.0,0.0,0.0,0.0,0.0
1757903577.9407625,-5.826770117311992,0.0,0.0,0.0,0.0,0.0,-6.289999999999999,0.3100000000000005,-2.31,0.25,0.754,-0.0050000000000000044,0.002316149413440036,0.0,0.0,0.0,0.0,0.0
1757903577.9908571,-6.197277628120268,0.0,0.0,0.0,0.0,0.0,-6.709999999999997,-0.4900000000000002,-2.4299999999999997,0.217,0.76,-0.0050000000000000044,0.0025636118593986446,0.0,0.0,0.0,0.0,0.0
1757903578.0508192,-5.784137792272933,0.0,0.0,0.0,0.0,0.0,-6.25,-0.33000000000000007,-2.29,0.213,0.768,-0.025999999999999995,0.0023293110386353355,0.0,0.0,0.0,0.0,0.0
1757903578.1108072,-6.913121581456527,0.0,0.0,0.0,0.0,0.0,-7.169999999999998,-0.28999999999999915,-2.75,0.256,0.7290000000000001,-0.026999999999999996,0.0012843920927173569,0.0,0.0,0.0,0.0,0.0
1757903578.1611679,-5.075554156936953,0.0,0.0,0.0,0.0,0.0,-5.91,0.030000000000001137,-2.03,0.251,0.754,-0.027999999999999997,0.004172229215315237,0.0,0.0,0.0,0.0,0.0
1757903578.220849,-4.285002917151865,0.0,0.0,0.0,0.0,0.0,-7.09,-0.5299999999999994,-1.63,0.228,0.736,-0.019000000000000003,0.014024985414240673,0.0,0.0,0.0,0.0,0.0
1757903578.2808185,-6.050309909417863,0.0,0.0,0.0,0.0,0.0,-5.41,0.4900000000000002,-2.37,0.231,0.765,-0.015,-0.0032015495470893154,0.0,0.0,0.0,0.0,0.0
1757903578.3308196,-5.042940610397865,0.0,0.0,0.0,0.0,0.0,-5.349999999999998,-0.16999999999999993,-2.01,0.23600000000000002,0.751,-0.017,0.0015352969480106626,0.0,0.0,0.0,0.0,0.0
1757903578.3808243,-7.448238046679228,0.0,0.0,0.0,0.0,0.0,-5.41,-0.9900000000000002,-2.81,0.213,0.779,-0.022000000000000006,-0.010191190233396142,0.0,0.0,0.0,0.0,0.0
1757903578.4308507,-6.364844852783136,0.0,0.0,0.0,0.0,0.0,-4.869999999999997,-0.9299999999999997,-2.37,0.213,0.758,-0.023999999999999994,-0.007474224263915695,0.0,0.0,0.0,0.0,0.0
1757903578.490853,-5.521435501751332,0.0,0.0,0.0,0.0,0.0,-5.829999999999998,-0.8699999999999992,-2.03,0.222,0.747,0.0010000000000000009,0.0015428224912433298,0.0,0.0,0.0,0.0,0.0
1757903578.550866,-5.536808647587524,0.0,0.0,0.0,0.0,0.0,-6.27,-0.9299999999999997,-2.01,0.219,0.753,-0.020000000000000004,0.003665956762062379,0.0,0.0,0.0,0.0,0.0
1757903578.600902,-7.2750429551996465,0.0,0.0,0.0,0.0,0.0,-5.59,-0.009999999999999787,-2.91,0.228,0.769,-0.021000000000000005,-0.008425214775998233,0.0,0.0,0.0,0.0,0.0
1757903578.651091,-5.07013313434667,0.0,0.0,0.0,0.0,0.0,-4.709999999999997,-0.2699999999999996,-2.01,0.199,0.749,-0.023999999999999994,-0.0018006656717333635,0.0,0.0,0.0,0.0,0.0
1757903578.710848,-6.8085424284497185,0.0,0.0,0.0,0.0,0.0,-5.43,-0.2699999999999996,-2.71,0.192,0.784,-0.023999999999999994,-0.006892712142248594,0.0,0.0,0.0,0.0,0.0
1757903578.7616432,-6.2318737150234345,0.0,0.0,0.0,0.0,0.0,-5.050000000000001,-1.0299999999999994,-2.27,0.22,0.722,-0.020000000000000004,-0.005909368575117169,0.0,0.0,0.0,0.0,0.0
1757903578.8208494,-5.332096210684874,0.0,0.0,0.0,0.0,0.0,-5.390000000000001,-0.10999999999999943,-2.13,0.219,0.757,-0.015,0.00028951894657563314,0.0,0.0,0.0,0.0,0.0
1757903578.8807988,-4.7292969879253715,0.0,0.0,0.0,0.0,0.0,-6.050000000000001,-0.8499999999999996,-1.69,0.218,0.724,-0.007000000000000006,0.0066035150603731465,0.0,0.0,0.0,0.0,0.0
1757903578.9308176,-4.397868802044917,0.0,0.0,0.0,0.0,0.0,-5.27,-0.6099999999999994,-1.65,0.231,0.744,-0.023999999999999994,0.004360655989775415,0.0,0.0,0.0,0.0,0.0
1757903578.9908874,-5.079985236199018,0.0,0.0,0.0,0.0,0.0,-5.509999999999998,0.08999999999999986,-2.03,0.245,0.74,-0.025999999999999995,0.0021500738190048984,0.0,0.0,0.0,0.0,0.0
1757903579.0508065,-7.5605059354516735,0.0,0.0,0.0,0.0,0.0,-5.009999999999998,-0.5700000000000003,-2.9699999999999998,0.214,0.76,-0.009999999999999995,-0.012752529677258378,0.0,0.0,0.0,0.0,0.0
1757903579.1008089,-4.5712416256417665,0.0,0.0,0.0,0.0,0.0,-4.849999999999998,-0.9699999999999989,-1.5499999999999998,0.208,0.7370000000000001,-0.015,0.0013937918717911568,0.0,0.0,0.0,0.0,0.0
1757903579.1508205,-4.115974975628495,0.0,0.0,0.0,0.0,0.0,-6.509999999999998,-0.8499999999999996,-1.41,0.195,0.742,0.0,0.011970125121857515,0.0,0.0,0.0,0.0,0.0
1757903579.2009106,-5.352686241505286,0.0,0.0,0.0,0.0,0.0,-6.129999999999999,-0.7899999999999991,-1.99,0.224,0.758,-0.008999999999999994,0.0038865687924735637,0.0,0.0,0.0,0.0,0.0
1757903579.261259,-7.128902440067476,0.0,0.0,0.0,0.0,0.0,-5.529999999999998,-0.34999999999999964,-2.83,0.213,0.783,-0.019000000000000003,-0.007994512200337391,0.0,0.0,0.0,0.0,0.0
1757903579.3211536,-5.836630020825373,0.0,0.0,0.0,0.0,0.0,-6.869999999999997,-0.9100000000000001,-2.15,0.231,0.7370000000000001,-0.022000000000000006,0.0051668498958731225,0.0,0.0,0.0,0.0,0.0
1757903579.3808317,-5.548085255293036,0.0,0.0,0.0,0.0,0.0,-6.529999999999998,-0.8499999999999996,-2.05,0.227,0.7370000000000001,-0.017,0.004909573723534808,0.0,0.0,0.0,0.0,0.0
1757903579.440859,-4.982594705572589,0.0,0.0,0.0,0.0,0.0,-5.289999999999999,-0.10999999999999943,-1.99,0.232,0.739,-0.012999999999999998,0.0015370264721370486,0.0,0.0,0.0,0.0,0.0
1757903579.4908938,-6.292952407256865,0.0,0.0,0.0,0.0,0.0,-6.289999999999999,-0.7899999999999991,-2.3899999999999997,0.229,0.751,-0.011999999999999997,-1.4762036284330372e-05,0.0,0.0,0.0,0.0,0.0
1757903579.5409324,-4.241609364380459,0.0,0.0,0.0,0.0,0.0,-5.91,0.15000000000000036,-1.69,0.238,0.718,-0.019000000000000003,0.008341953178097708,0.0,0.0,0.0,0.0,0.0
1757903579.5912921,-4.737219648696902,0.0,0.0,0.0,0.0,0.0,-4.890000000000001,-0.41000000000000014,-1.85,0.215,0.74,-0.017,0.0007639017565154926,0.0,0.0,0.0,0.0,0.0
1757903579.650839,-6.031687160322557,0.0,0.0,0.0,0.0,0.0,-5.949999999999999,-0.33000000000000007,-2.3899999999999997,0.211,0.73,-0.015,-0.0004084358016127876,0.0,0.0,0.0,0.0,0.0
1757903579.7108,-9.058214503973726,0.0,0.0,0.0,0.0,0.0,-5.289999999999999,-0.3099999999999987,-3.61,0.227,0.766,-0.020000000000000004,-0.018841072519868635,0.0,0.0,0.0,0.0,0.0
1757903579.7609153,-4.0,0.0,0.0,0.0,0.0,0.0,-5.390000000000001,-0.5299999999999994,-1.47,0.228,0.764,0.0020000000000000018,0.006950000000000003,0.0,0.0,0.0,0.0,0.0
1757903579.8208861,-6.450678258912004,0.0,0.0,0.0,0.0,0.0,-6.77,0.23000000000000043,-2.57,0.243,0.756,-0.026999999999999996,0.0015966087054399792,0.0,0.0,0.0,0.0,0.0
1757903579.8809128,-4.9210009144481965,0.0,0.0,0.0,0.0,0.0,-5.849999999999998,-0.5499999999999989,-1.89,0.218,0.748,-0.009999999999999995,0.004644995427759007,0.0,0.0,0.0,0.0,0.0
1757903579.9408038,-4.511790110366394,0.0,0.0,0.0,0.0,0.0,-6.349999999999998,-0.23000000000000043,-1.79,0.23500000000000001,0.71,-0.017,0.009191049448168022,0.0,0.0,0.0,0.0,0.0
1757903579.990843,-4.0,0.0,0.0,0.0,0.0,0.0,-5.59,0.39000000000000057,-1.5499999999999998,0.223,0.76,-0.025999999999999995,0.007949999999999999,0.0,0.0,0.0,0.0,0.0
1757903580.0508316,-4.775065444577696,0.0,0.0,0.0,0.0,0.0,-5.149999999999999,-0.6099999999999994,-1.81,0.229,0.75,-0.026999999999999996,0.0018746727771115125,0.0,0.0,0.0,0.0,0.0
1757903580.110789,-6.377401508451541,0.0,0.0,0.0,0.0,0.0,-5.989999999999998,0.07000000000000028,-2.55,0.24,0.744,-0.023000000000000007,-0.001937007542257714,0.0,0.0,0.0,0.0,0.0
1757903580.1609397,-6.033759193073583,0.0,0.0,0.0,0.0,0.0,-5.489999999999998,-0.9699999999999989,-2.21,0.214,0.752,-0.019000000000000003,-0.002718795965367922,0.0,0.0,0.0,0.0,0.0
1757903580.220821,-5.890352281485378,0.0,0.0,0.0,0.0,0.0,-4.469999999999999,-0.34999999999999964,-2.33,0.20500000000000002,0.756,-0.008999999999999994,-0.007101761407426897,0.0,0.0,0.0,0.0,0.0
1757903580.2708304,-7.282255831814754,0.0,0.0,0.0,0.0,0.0,-5.629999999999999,-0.129999999999999,-2.91,0.226,0.772,-0.025999999999999995,-0.008261279159073775,0.0,0.0,0.0,0.0,0.0
1757903580.3208418,-4.796483086595844,0.0,0.0,0.0,0.0,0.0,-6.050000000000001,-0.8699999999999992,-1.71,0.193,0.714,-0.006000000000000005,0.006267584567020785,0.0,0.0,0.0,0.0,0.0
1757903580.3808517,-5.725054584892619,0.0,0.0,0.0,0.0,0.0,-4.849999999999998,-0.009999999999999787,-2.29,0.243,0.753,-0.025999999999999995,-0.004375272924463105,0.0,0.0,0.0,0.0,0.0
1757903580.4408076,-5.367611200524865,0.0,0.0,0.0,0.0,0.0,-5.369999999999997,-0.2699999999999996,-2.13,0.225,0.752,-0.028999999999999998,1.1943997375660765e-05,0.0,0.0,0.0,0.0,0.0
1757903580.4913135,-6.082454274386285,0.0,0.0,0.0,0.0,0.0,-3.629999999999999,-0.5499999999999989,-2.37,0.219,0.754,-0.024999999999999994,-0.012262271371931428,0.0,0.0,0.0,0.0,0.0
1757903580.550823,-4.825582866348893,0.0,0.0,0.0,0.0,0.0,-5.75,-0.02999999999999936,-1.93,0.228,0.728,-0.036,0.004622085668255536,0.0,0.0,0.0,0.0,0.0
1757903580.6008377,-7.304536261803345,0.0,0.0,0.0,0.0,0.0,-5.27,-0.4299999999999997,-2.8899999999999997,0.243,0.766,-0.026999999999999996,-0.010172681309016727,0.0,0.0,0.0,0.0,0.0
1757903580.6513522,-5.8276281624688435,0.0,0.0,0.0,0.0,0.0,-5.25,-0.5299999999999994,-2.27,0.20400000000000001,0.756,-0.023999999999999994,-0.0028881408123442175,0.0,0.0,0.0,0.0,0.0
1757903580.710832,-6.300099205568115,0.0,0.0,0.0,0.0,0.0,-6.77,-0.9100000000000001,-2.3499999999999996,0.222,0.736,-0.031,0.0023495039721594235,0.0,0.0,0.0,0.0,0.0
1757903580.7610533,-7.311036178271859,0.0,0.0,0.0,0.0,0.0,-5.869999999999997,-0.8099999999999987,-2.81,0.241,0.771,-0.019000000000000003,-0.007205180891359309,0.0,0.0,0.0,0.0,0.0
1757903580.8208776,-4.542163581378372,0.0,0.0,0.0,0.0,0.0,-5.91,-0.41000000000000014,-1.77,0.2,0.7210000000000001,-0.017,0.006839182093108143,0.0,0.0,0.0,0.0,0.0
