time,lam_star_Fx,lam_star_Fy,lam_star_Fz,lam_star_Tx,lam_star_Ty,lam_star_Tz,meas_Fx,meas_Fy,meas_Fz,meas_Tx,meas_Ty,men_tas_Tz,v_final_Fx,v_final_Fy,v_final_Fz,v_final_Tx,v_final_Ty,v_final_Tz,v_object_x
1757903861.069088,0.0,-4.0,0.0,0.0,0.0,0.0,0.0,0.0,0.0,0.0,0.0,0.0,0.0,-0.004,0.0,0.0,0.0,0.0,0.0
1757903861.1289678,0.0,-4.0,0.0,0.0,0.0,0.0,-0.25341806528680766,-6.524782603840443,-1.0410835698692151,2.5243956456867944,0.3611820571915843,-3.1212533697752107,0.0,0.0025247826038404426,0.0,0.0,0.0,0.0,0.0
1757903861.1789904,0.0,-4.0,0.0,0.0,0.0,0.0,-0.31699896570468655,-6.507886110376169,-0.9875155545353287,2.490079848287051,0.3122172925709291,-3.147376240619857,0.0,0.0025078861103761687,0.0,0.0,0.0,0.0,0.0
1757903861.229269,0.0,-4.0,0.0,0.0,0.0,0.0,-0.2546362808145766,-6.504534912546623,-1.0502982716222735,2.516641858177331,0.3634997692222124,-3.1130879613063276,0.0,0.002504534912546623,0.0,0.0,0.0,0.0,0.0
1757903861.2891853,0.0,-4.0,0.0,0.0,0.0,0.0,-0.2826718536014447,-6.435405109141171,-0.9985244184041406,2.461996480136532,0.33049535326200313,-3.1037003299143784,0.0,0.0024354051091411712,0.0,0.0,0.0,0.0,0.0
1757903861.3490293,0.0,-4.0,0.0,0.0,0.0,0.0,-0.25452985809475615,-6.4899307994938145,-1.0328702723444563,2.498058149015825,0.35358957739547925,-3.1051672211869175,0.0,0.0024899307994938145,0.0,0.0,0.0,0.0,0.0
1757903861.3994179,0.0,-4.0,0.0,0.0,0.0,0.0,-0.2816523851786402,-6.517902784329747,-1.05134414455588,2.5179639167948493,0.3517766139309737,-3.1273993253026378,0.0,0.0025179027843297472,0.0,0.0,0.0,0.0,0.0
1757903861.4594128,0.0,-5.55206398590484,0.0,0.0,0.0,0.0,-1.412834102037844,-4.552302863565312,-1.7134661130853934,1.7025497273649965,0.12087966570938671,-2.8129214364794635,0.0,-0.000999761122339528,0.0,0.0,0.0,0.0,0.0
1757903861.5094137,0.0,-6.210058446877348,0.0,0.0,0.0,0.0,-1.5865856903588809,-3.7720084176762585,-1.9113131594089088,1.381144067338336,0.13677536951799865,-2.5816487608348857,0.0,-0.0024380500292010892,0.0,0.0,0.0,0.0,0.0
1757903861.5694952,0.0,-5.866940722288617,0.0,0.0,0.0,0.0,-1.4420677212490058,-3.9832636831392003,-1.851431780419537,1.534837376756772,0.17947364640422034,-2.6083064721032723,0.0,-0.0018836770391494166,0.0,0.0,0.0,0.0,0.0
1757903861.629254,0.0,-4.545070510298822,0.0,0.0,0.0,0.0,-0.8623466090646514,-4.663118219445377,-1.6004951973713561,1.8125372691339503,0.3297436109610797,-2.620442427966159,0.0,0.00011804770914655549,0.0,0.0,0.0,0.0,0.0
1757903861.6890135,0.0,-4.0,0.0,0.0,0.0,0.0,-0.2516985790512666,-5.762791848446705,-1.1233154021278535,2.2728353983059786,0.3952383302636575,-2.7937939580216757,0.0,0.001762791848446705,0.0,0.0,0.0,0.0,0.0
1757903861.7396057,0.0,-4.0,0.0,0.0,0.0,0.0,-0.14793647652223837,-5.499514464751945,-1.4655637050917771,2.3561144336061624,0.577022679230541,-2.636794938742178,0.0,0.001499514464751945,0.0,0.0,0.0,0.0,0.0
1757903861.7999816,0.0,-5.085404407334309,0.0,0.0,0.0,0.0,-0.7962615147871879,-4.442416453150231,-1.8718391164441588,1.9474022366206747,0.453954768039596,-2.4972828364650503,0.0,-0.0006429879541840781,0.0,0.0,0.0,0.0,0.0
1757903861.859243,0.0,-5.337675281808623,0.0,0.0,0.0,0.0,-1.0903308679773396,-4.1831380736937245,-1.835675075981777,1.7178544047773743,0.31452002142489843,-2.5280037726825495,0.0,-0.0011545372081148981,0.0,0.0,0.0,0.0,0.0
1757903861.9097807,0.0,-5.2820931754942775,0.0,0.0,0.0,0.0,-1.17983828391853,-4.3927449288147535,-1.7527301429874176,1.740596514218368,0.24501522178730084,-2.6472999430903603,0.0,-0.000889348246679524,0.0,0.0,0.0,0.0,0.0
1757903861.969739,0.0,-4.212587523166336,0.0,0.0,0.0,0.0,-0.852094283936492,-5.162336841047022,-1.453711908782695,2.005122260780149,0.2721902979006162,-2.815875680089504,0.0,0.000949749317880686,0.0,0.0,0.0,0.0,0.0
1757903862.0303564,0.0,-4.0,0.0,0.0,0.0,0.0,-0.5920975875830641,-5.340705444446778,-1.3628003301825666,2.0642196660590795,0.34558808572251365,-2.7545951644980966,0.0,0.001340705444446778,0.0,0.0,0.0,0.0,0.0
1757903862.0893083,0.0,-4.515372466256637,0.0,0.0,0.0,0.0,-0.7924969556478064,-4.659848939359088,-1.6229980704651275,1.8610108379951285,0.3543573535656635,-2.561107388765228,0.0,0.0001444764731024506,0.0,0.0,0.0,0.0,0.0
1757903862.1493251,0.0,-5.719185483315223,0.0,0.0,0.0,0.0,-1.2530367133854752,-4.192958291845048,-1.9139885604982858,1.7051685554921692,0.2702991291718664,-2.572252425706468,0.0,-0.0015262271914701752,0.0,0.0,0.0,0.0,0.0
1757903862.1995857,0.0,-5.573126312048886,0.0,0.0,0.0,0.0,-1.1756627906525163,-4.233122410964582,-1.8940366694136086,1.7159849604560569,0.31033073901612723,-2.565466379141401,0.0,-0.0013400039010843035,0.0,0.0,0.0,0.0,0.0
1757903862.259064,0.0,-4.877980418927847,0.0,0.0,0.0,0.0,-0.9662571778774754,-4.595942014881397,-1.6951395048759899,1.837020811751664,0.3208371236882528,-2.6240347333721674,0.0,-0.00028203840404644964,0.0,0.0,0.0,0.0,0.0
1757903862.309485,0.0,-4.0,0.0,0.0,0.0,0.0,-0.5737817837889405,-4.898680834913645,-1.4546073611247698,1.923214618041286,0.3990774314274843,-2.5766459949295384,0.0,0.0008986808349136446,0.0,0.0,0.0,0.0,0.0
1757903862.3721585,0.0,-4.0,0.0,0.0,0.0,0.0,-0.42849824679656656,-5.085116086772969,-1.475493334389177,2.082528899605776,0.4587410496022529,-2.581063721244891,0.0,0.0010851160867729685,0.0,0.0,0.0,0.0,0.0
1757903862.4291785,0.0,-4.889968853984093,0.0,0.0,0.0,0.0,-0.8392970331687128,-4.4973132104287945,-1.7667676001624317,1.8626881231657655,0.39607784529467704,-2.5191757576071274,0.0,-0.00039265564355529835,0.0,0.0,0.0,0.0,0.0
1757903862.4800482,0.0,-5.098290306654878,0.0,0.0,0.0,0.0,-1.0438449955228324,-4.369115035545648,-1.751912632944609,1.7479000175617097,0.29693362199303874,-2.554981551060033,0.0,-0.0007291752711092299,0.0,0.0,0.0,0.0,0.0
1757903862.539294,0.0,-5.3057361373309835,0.0,0.0,0.0,0.0,-1.1099899334068062,-4.225868392195019,-1.8088825559367692,1.7025847023923661,0.29574360594003807,-2.5363164171862516,0.0,-0.0010798677451359646,0.0,0.0,0.0,0.0,0.0
1757903862.5895033,0.0,-5.180493784486081,0.0,0.0,0.0,0.0,-1.0912725918458044,-4.436710952348452,-1.761569376000266,1.7876266672170753,0.2894787397271886,-2.6178554449332188,0.0,-0.0007437828321376286,0.0,0.0,0.0,0.0,0.0
1757903862.6398475,0.0,-4.0,0.0,0.0,0.0,0.0,-0.8254792811122049,-5.017877402782331,-1.2710173101316338,1.8511760163707665,0.21539912939299202,-2.768503460012741,0.0,0.0010178774027823315,0.0,0.0,0.0,0.0,0.0
1757903862.6991665,0.0,-4.0,0.0,0.0,0.0,0.0,-0.48403119945946066,-5.209736892212753,-1.4166243795605384,2.0756709455518725,0.41962048372147764,-2.680957240053114,0.0,0.001209736892212753,0.0,0.0,0.0,0.0,0.0
1757903862.749369,0.0,-4.0,0.0,0.0,0.0,0.0,-0.48079368286456037,-5.478204998164028,-1.3981008553134915,2.1387364463029654,0.40462143855419774,-2.7466942273394817,0.0,0.0014782049981640277,0.0,0.0,0.0,0.0,0.0
1757903862.8094187,0.0,-4.882404135550187,0.0,0.0,0.0,0.0,-0.998783145149699,-4.725063379287085,-1.6782405822226105,1.8121866528592985,0.29275708786931237,-2.6758830154513484,0.0,-0.00015734075626310242,0.0,0.0,0.0,0.0,0.0
1757903862.8695753,0.0,-5.915751520892747,0.0,0.0,0.0,0.0,-1.3641496112074771,-4.362096568957644,-1.9335134877609894,1.6984195834518896,0.2330337959875171,-2.676039257891074,0.0,-0.001553654951935103,0.0,0.0,0.0,0.0,0.0
1757903862.9301023,0.0,-5.542792857432279,0.0,0.0,0.0,0.0,-1.3315966641269013,-4.366205565499129,-1.7726981552848968,1.6549943822556945,0.19543490425404475,-2.6863242290928158,0.0,-0.0011765872919331502,0.0,0.0,0.0,0.0,0.0
1757903862.980156,0.0,-4.828622919383838,0.0,0.0,0.0,0.0,-1.1417391751836923,-4.648580825833052,-1.5578599242122781,1.73806488917043,0.19223388323291463,-2.732036238077037,0.0,-0.00018004209355078604,0.0,0.0,0.0,0.0,0.0
1757903863.0342298,0.0,-4.079324900321341,0.0,0.0,0.0,0.0,-0.7211033656846968,-5.0550547049778105,-1.463746084120903,1.9468354517162008,0.3367685719306163,-2.7071654122555255,0.0,0.0009757298046564698,0.0,0.0,0.0,0.0,0.0
1757903863.0901506,0.0,-4.0,0.0,0.0,0.0,0.0,-0.5069294248425786,-5.424623150854549,-1.3671689721685159,2.1157614508558287,0.38051850750256555,-2.751312553732011,0.0,0.0014246231508545488,0.0,0.0,0.0,0.0,0.0
1757903863.1492288,0.0,-4.87504172839626,0.0,0.0,0.0,0.0,-0.9065397370837575,-4.788139812343045,-1.7264851003309816,1.8917017007328312,0.3501840101035418,-2.6583866946811314,0.0,-8.690191605321473e-05,0.0,0.0,0.0,0.0,0.0
1757903863.2098656,0.0,-5.611145936490575,0.0,0.0,0.0,0.0,-1.2978111295066206,-4.4343024345368205,-1.831196239463128,1.7175540962852454,0.22603542319296294,-2.704709811579863,0.0,-0.001176843501953755,0.0,0.0,0.0,0.0,0.0
1757903863.2693374,0.0,-5.704503880408459,0.0,0.0,0.0,0.0,-1.358901577711097,-4.418801952428063,-1.8330315942584072,1.6773846505012489,0.19997398633248653,-2.7030765040721296,0.0,-0.001285701927980396,0.0,0.0,0.0,0.0,0.0
1757903863.3295293,0.0,-4.773682979636715,0.0,0.0,0.0,0.0,-0.9437076468526061,-4.4324199689147035,-1.6599710080852734,1.7404211082322338,0.31805012023614615,-2.54692903213708,0.0,-0.0003412630107220114,0.0,0.0,0.0,0.0,0.0
1757903863.3889964,0.0,-4.0,0.0,0.0,0.0,0.0,-0.4948412531467884,-4.8344234898587555,-1.4883473368642082,1.9819253164650155,0.4456558562962023,-2.5200688700959746,0.0,0.0008344234898587555,0.0,0.0,0.0,0.0,0.0
1757903863.4394526,0.0,-4.0,0.0,0.0,0.0,0.0,-0.4066866874486014,-4.900051485796704,-1.5124370997455059,2.0331076726667243,0.48955371492292277,-2.504046431129244,0.0,0.0009000514857967037,0.0,0.0,0.0,0.0,0.0
1757903863.499799,0.0,-4.0,0.0,0.0,0.0,0.0,-0.553712590423066,-4.789450997671403,-1.4561596558369159,1.933962967374077,0.3915264898109664,-2.5221187594642913,0.0,0.0007894509976714029,0.0,0.0,0.0,0.0,0.0
1757903863.559018,0.0,-4.380741629526514,0.0,0.0,0.0,0.0,-0.6109481827918363,-4.530499365286235,-1.6423415825856729,1.8780120785502834,0.4428088101507784,-2.4429698804766273,0.0,0.00014975773575972085,0.0,0.0,0.0,0.0,0.0
1757903863.609847,0.0,-5.3451559416847445,0.0,0.0,0.0,0.0,-1.1629672461117233,-4.152931009071825,-1.794106438040885,1.6608353474779296,0.26645322540003913,-2.5326878854357604,0.0,-0.0011922249326129198,0.0,0.0,0.0,0.0,0.0
1757903863.6694107,0.0,-5.001751714232559,0.0,0.0,0.0,0.0,-0.9406131573086215,-4.222809269977671,-1.7658001364906624,1.7350440872520632,0.36423088532154074,-2.4729046563552206,0.0,-0.0007789424442548878,0.0,0.0,0.0,0.0,0.0
1757903863.7306569,0.0,-4.505719498404797,0.0,0.0,0.0,0.0,-0.7061573170385722,-4.544988694680211,-1.65818670701514,1.8847084974025492,0.4223410627894575,-2.4967479033302338,0.0,3.926919627541459e-05,0.0,0.0,0.0,0.0,0.0
1757903863.7890823,0.0,-4.021370280197541,0.0,0.0,0.0,0.0,-0.5172988552113797,-4.773485921250877,-1.5230984614495429,1.9698254318818114,0.44886601159292516,-2.5080218472345686,0.0,0.0007521156410533365,0.0,0.0,0.0,0.0,0.0
1757903863.8394666,0.0,-4.0,0.0,0.0,0.0,0.0,-0.4087783091413879,-4.977312811298457,-1.5188279821941895,2.086480871716776,0.48553430727003843,-2.546674410783053,0.0,0.0009773128112984574,0.0,0.0,0.0,0.0,0.0
1757903863.8993983,0.0,-4.527093082148747,0.0,0.0,0.0,0.0,-0.6996299683451196,-4.851835123733366,-1.67022435358357,2.006988219756617,0.41542486234935294,-2.6154619888154693,0.0,0.00032474204158461893,0.0,0.0,0.0,0.0,0.0
1757903863.9590194,0.0,-4.9505037999052925,0.0,0.0,0.0,0.0,-0.8595139827445821,-4.427010533689633,-1.7839377155962666,1.8194612940665935,0.39395450971297913,-2.5187737447106158,0.0,-0.0005234932662156595,0.0,0.0,0.0,0.0,0.0
1757903864.0095062,0.0,-5.23182606797649,0.0,0.0,0.0,0.0,-1.0488197065799014,-4.434617389145572,-1.8109383932036411,1.7985560955944204,0.32068927576561945,-2.594635961897096,0.0,-0.0007972086788309181,0.0,0.0,0.0,0.0,0.0
1757903864.0694141,0.0,-5.171751853495999,0.0,0.0,0.0,0.0,-1.0892543094366314,-4.1597369591234425,-1.7587062878252346,1.6550091261896012,0.2913485125069858,-2.5068543073496743,0.0,-0.0010120148943725561,0.0,0.0,0.0,0.0,0.0
1757903864.1290395,0.0,-4.495561661366327,0.0,0.0,0.0,0.0,-0.8895495288037962,-4.4227188548934535,-1.5627903186251277,1.7579835377037105,0.303461346654493,-2.537685208850827,0.0,-7.284280647287389e-05,0.0,0.0,0.0,0.0,0.0
1757903864.179492,0.0,-4.0,0.0,0.0,0.0,0.0,-0.4124245876683582,-4.654415236077274,-1.4553918952123408,1.8789784785010584,0.46767070434441277,-2.4064846516691802,0.0,0.0006544152360772744,0.0,0.0,0.0,0.0,0.0
1757903864.239312,0.0,-4.0,0.0,0.0,0.0,0.0,-0.4002883873808367,-4.784521619001859,-1.5474836397976872,1.986105608050216,0.5063158114745838,-2.4458197769587184,0.0,0.0007845216190018594,0.0,0.0,0.0,0.0,0.0
1757903864.2894602,0.0,-4.334991401929088,0.0,0.0,0.0,0.0,-0.5110754231041598,-4.258528688911387,-1.6569689148160758,1.7701299657290845,0.4924329971753974,-2.2632925795973433,0.0,-7.646271301770113e-05,0.0,0.0,0.0,0.0,0.0
1757903864.3490386,0.0,-5.098308951710788,0.0,0.0,0.0,0.0,-0.63332204555181,-4.061282778227796,-1.938490096274203,1.7751593857551138,0.5501715159899072,-2.2108500921924557,0.0,-0.0010370261734829916,0.0,0.0,0.0,0.0,0.0
1757903864.399198,0.0,-5.096437716926423,0.0,0.0,0.0,0.0,-0.6128977067509941,-4.218079357520741,-1.9442594439685787,1.8370003202109009,0.5619119155059358,-2.2616191846506015,0.0,-0.0008783583594056816,0.0,0.0,0.0,0.0,0.0
1757903864.4590378,0.0,-5.2119768227956165,0.0,0.0,0.0,0.0,-0.6628337554487198,-4.401841825952058,-1.9766142256027446,1.973918197196839,0.561467794253342,-2.379157789272056,0.0,-0.0008101349968435586,0.0,0.0,0.0,0.0,0.0
1757903864.5093555,0.0,-4.9248484404500354,0.0,0.0,0.0,0.0,-0.6061467179619854,-4.6999689497493575,-1.8743658399918668,2.0988892940804638,0.5491503372898403,-2.4989032475142015,0.0,-0.0002248794907006779,0.0,0.0,0.0,0.0,0.0
1757903864.5694616,0.0,-4.832117851696809,0.0,0.0,0.0,0.0,0.028240593970759273,-6.761507091652454,-1.9326408197288232,3.1684750638942685,0.8478178470621092,-3.0324541479027,0.0,0.0019293892399556442,0.0,0.0,0.0,0.0,0.0
1757903864.6291242,0.0,-5.8985778619929645,0.0,0.0,0.0,0.0,-0.0036437462692564745,-6.987088913178552,-2.3594283312175612,3.4095019142843435,0.9891733943518675,-3.0948311846418677,0.0,0.0010885110511855878,0.0,0.0,0.0,0.0,0.0
1757903864.6794946,0.0,-6.990372731973618,0.0,0.0,0.0,0.0,-0.284275720740017,-6.451568881428593,-2.7816608462760146,3.3215597058229926,1.0376581317978544,-3.0038158850342196,0.0,-0.0005388038505450253,0.0,0.0,0.0,0.0,0.0
1757903864.7396133,0.0,-8.007765727469307,0.0,0.0,0.0,0.0,-0.5327527650994247,-6.37514319939558,-3.1584908425772023,3.4152722498789325,1.080006553040291,-3.053053757544557,0.0,-0.0016326225280737276,0.0,0.0,0.0,0.0,0.0
1757903864.79933,0.0,-8.30414028531914,0.0,0.0,0.0,0.0,-0.4411888860245862,-6.7148142803277,-3.2922259502303337,3.66032182612914,1.1864445017825596,-3.1406435942371376,0.0,-0.0015893260049914392,0.0,0.0,0.0,0.0,0.0
1757903864.858992,0.0,-5.849530523001737,0.0,0.0,0.0,0.0,0.01923678105460255,-8.358398966379895,-2.3397331302050866,4.023131138384324,1.012122097114189,-3.667616095497881,0.0,0.002508868443378158,0.0,0.0,0.0,0.0,0.0
1757903864.9092734,0.0,-5.418508992692493,0.0,0.0,0.0,0.0,0.10907650500306043,-9.796675460950851,-2.1646571711655924,4.56196369476204,0.971042763006199,-4.2016499529900155,0.0,0.0043781664682583585,0.0,0.0,0.0,0.0,0.0
1757903864.969215,0.0,-5.495777569694123,0.0,0.0,0.0,0.0,-0.1890006323047628,-10.412207908879301,-2.190171257294024,4.771747326075809,0.8515801746869818,-4.616017059403811,0.0,0.004916430339185178,0.0,0.0,0.0,0.0,0.0
1757903865.029143,0.0,-8.732420939406653,0.0,0.0,0.0,0.0,-1.767023701068751,-10.245189060671905,-3.013047512725171,4.651395134845717,0.4940377008850289,-5.199744110005827,0.0,0.0015127681212652516,0.0,0.0,0.0,0.0,0.0
1757903865.0898397,0.0,-9.730071434643376,0.0,0.0,0.0,0.0,-2.0138446647014674,-10.490656227926582,-3.3305128863548203,4.83883319173291,0.5053826154091828,-5.4293578583382605,0.0,0.000760584793283206,0.0,0.0,0.0,0.0,0.0
1757903865.149077,0.0,-10.017445337155637,0.0,0.0,0.0,0.0,-2.1943721500318447,-10.758141281219874,-3.3527010961952475,4.976202441828916,0.43359412515812185,-5.6448079053961395,0.0,0.0007406959440642371,0.0,0.0,0.0,0.0,0.0
1757903865.1994128,0.0,-10.03307390480838,0.0,0.0,0.0,0.0,-2.099956590910622,-11.322617683318477,-3.41996985849094,5.24176295748156,0.5001302391079618,-5.832716911949391,0.0,0.0012895437785100975,0.0,0.0,0.0,0.0,0.0
1757903865.2592223,0.0,-10.414969272384539,0.0,0.0,0.0,0.0,-2.1796677358565413,-11.600038309967239,-3.55028198209949,5.452529682491886,0.5122999196376601,-5.981029951468013,0.0,0.0011850690375827,0.0,0.0,0.0,0.0,0.0
1757903865.3099742,0.0,-11.077982586069865,0.0,0.0,0.0,0.0,-2.382352436278488,-12.327497507622066,-3.7362907512291788,5.839892378328807,0.49856704177933775,-6.3881546880917695,0.0,0.0012495149215522013,0.0,0.0,0.0,0.0,0.0
1757903865.3693156,0.0,-10.688534293284718,0.0,0.0,0.0,0.0,-2.389067088683942,-13.38856903818215,-3.5456340617670903,6.159410003758199,0.41603211483778885,-6.817814563462517,0.0,0.0027000347448974315,0.0,0.0,0.0,0.0,0.0
1757903865.4291308,0.0,-12.026590122900723,0.0,0.0,0.0,0.0,-2.507273282242822,-14.170291250234587,-4.1055815526709285,6.793226993659502,0.5812249184262569,-7.185947997749852,0.0,0.0021437011273338644,0.0,0.0,0.0,0.0,0.0
1757903865.4794626,0.0,-12.97141808661902,0.0,0.0,0.0,0.0,-2.5577943387115183,-14.217291284265198,-4.514301504032936,7.022374367558043,0.7280639405486911,-7.253613682276983,0.0,0.001245873197646178,0.0,0.0,0.0,0.0,0.0
1757903865.5395913,0.0,-14.120192701225296,0.0,0.0,0.0,0.0,-2.6130791464513075,-14.613747565498524,-5.0072539461803895,7.508095421565463,0.8989705316641167,-7.436713618685786,0.0,0.0004935548642732286,0.0,0.0,0.0,0.0,0.0
1757903865.589973,0.0,-13.505784148175058,0.0,0.0,0.0,0.0,-2.3464950550831905,-14.675346874868227,-4.866102529705432,7.4388346680611726,0.9532933959016523,-7.323149159981058,0.0,0.0011695627266931688,0.0,0.0,0.0,0.0,0.0
1757903865.649174,0.0,-14.161752879130377,0.0,0.0,0.0,0.0,-2.619175637166783,-14.023309016559306,-5.022823719702015,7.270938798012429,0.897985918893677,-7.225634023336178,0.0,-0.0001384438625710711,0.0,0.0,0.0,0.0,0.0
1757903865.709891,0.0,-11.159210265076888,0.0,0.0,0.0,0.0,-2.701426540343314,-9.786671046751223,-3.5534167283841533,4.636394139740482,0.26615934701579813,-5.579361427407964,0.0,-0.001372539218325665,0.0,0.0,0.0,0.0,0.0
1757903865.7693624,0.0,-9.097842804321528,0.0,0.0,0.0,0.0,-2.038475396631483,-7.556884409215119,-3.014620547941535,3.4822293394860115,0.35687166187611996,-4.3496800661145745,0.0,-0.0015409583951064097,0.0,0.0,0.0,0.0,0.0
1757903865.8293016,0.0,-8.097344685922431,0.0,0.0,0.0,0.0,-1.7844875505569309,-6.897110279552557,-2.703021038750739,3.1057229683527283,0.3434305710092227,-3.9724728069277817,0.0,-0.0012002344063698747,0.0,0.0,0.0,0.0,0.0
1757903865.889039,0.0,-7.272962520613305,0.0,0.0,0.0,0.0,-1.3711385104438665,-7.146522109372711,-2.5658013557906445,3.2578041604614074,0.4597390053569689,-3.847760259725212,0.0,-0.00012644041124059414,0.0,0.0,0.0,0.0,0.0
1757903865.9398553,0.0,-6.259525581455094,0.0,0.0,0.0,0.0,-0.9172283610115836,-5.993606025170478,-2.3297548829305033,2.8151048105812904,0.5596445953225205,-3.2220538092410846,0.0,-0.00026591955628461596,0.0,0.0,0.0,0.0,0.0
1757903865.9993901,0.0,-6.697084939246576,0.0,0.0,0.0,0.0,-0.7228426339442011,-6.071767744829847,-2.579466998414583,3.0663034248499574,0.7563341977605027,-3.171226203728655,0.0,-0.0006253171944167288,0.0,0.0,0.0,0.0,0.0
1757903866.0590842,0.0,-4.0,0.0,0.0,0.0,0.0,-0.5215508493422877,-6.169523745753322,-0.976218255433811,2.140423745449001,0.18295404064526677,-3.10651962191886,0.0,0.002169523745753322,0.0,0.0,0.0,0.0,0.0
1757903866.1092489,0.0,-4.0,0.0,0.0,0.0,0.0,-0.8061413948528767,-5.4681140736964,0.6109024794573168,0.8722094574963837,-0.5955287309773643,-2.982431018630301,0.0,0.0014681140736964,0.0,0.0,0.0,0.0,0.0
1757903866.1692421,0.0,-4.0,0.0,0.0,0.0,0.0,-0.9893857619595047,-4.8001799209123,1.129659013080409,0.19249441029297637,-0.8836133645132231,-2.791531973048872,0.0,0.0008001799209123002,0.0,0.0,0.0,0.0,0.0
1757903866.2293155,0.0,-4.051922176563744,0.0,0.0,0.0,0.0,-1.4106294352053121,-4.147137381860537,0.7981330268326161,-0.18327608072312945,-0.951084892461133,-2.647339158301301,0.0,9.521520529679251e-05,0.0,0.0,0.0,0.0,0.0
1757903866.2798717,0.0,-4.504943885590257,0.0,0.0,0.0,0.0,-1.6070816916634,-4.006566384466541,0.815114435089351,-0.30641245833280595,-1.0315114250586561,-2.6689372526701556,0.0,-0.0004983775011237164,0.0,0.0,0.0,0.0,0.0
1757903866.3393126,0.0,-4.375433609451889,0.0,0.0,0.0,0.0,-1.5383775701910947,-4.103214269931041,0.8345666748968193,-0.26053227091649706,-1.0063514441227666,-2.672475696615152,0.0,-0.00027221933952084767,0.0,0.0,0.0,0.0,0.0
1757903866.3991876,0.0,-4.188475935104985,0.0,0.0,0.0,0.0,-1.4246978331643334,-4.103944639591851,0.8815718856732137,-0.24743092460966748,-0.9730773240880937,-2.6169983049524417,0.0,-8.45312955131341e-05,0.0,0.0,0.0,0.0,0.0
1757903866.4591837,0.0,-4.195004528591588,0.0,0.0,0.0,0.0,-1.3580218825550128,-4.410911752269828,0.9856300754777971,-0.1114794254023096,-0.9844938970637991,-2.722109559415598,0.0,0.00021590722367824,0.0,0.0,0.0,0.0,0.0
1757903866.5091927,0.0,-4.057692406930958,0.0,0.0,0.0,0.0,-1.3132612720458354,-4.052404137671819,0.953794348078756,-0.2624055967343184,-0.9506125549135374,-2.5631572734950097,0.0,-5.288269259138723e-06,0.0,0.0,0.0,0.0,0.0
1757903866.5694077,0.0,-4.259600406268307,0.0,0.0,0.0,0.0,-1.3921931900928155,-3.941738981972077,0.9822776699244314,-0.33803307986352416,-0.9962743235718085,-2.544117414496282,0.0,-0.0003178614242962299,0.0,0.0,0.0,0.0,0.0
1757903866.6291974,0.0,-4.0,0.0,0.0,0.0,0.0,-1.221131880952076,-4.153776716724928,0.8821009869738785,-0.21501631254505604,-0.8846880351951198,-2.538193519613447,0.0,0.000153776716724928,0.0,0.0,0.0,0.0,0.0
1757903866.6794553,0.0,-4.2015080628540264,0.0,0.0,0.0,0.0,-1.387359424394683,-5.17254339656207,0.9485046272420801,0.19664486846095064,-0.9891042770548069,-3.0379886572580785,0.0,0.000971035333708044,0.0,0.0,0.0,0.0,0.0
1757903866.7394054,0.0,-4.0,0.0,0.0,0.0,0.0,-1.292384839695758,-4.875055917304006,0.8420548564781829,0.09228775535219996,-0.9064407114225029,-2.8601167713633204,0.0,0.0008750559173040058,0.0,0.0,0.0,0.0,0.0
1757903866.8008409,0.0,-4.412247799779123,0.0,0.0,0.0,0.0,-1.5858076602552371,-4.042531598902499,0.7746502230947361,-0.3287136316171661,-1.0044349404063997,-2.6647326797997573,0.0,-0.00036971620087662417,0.0,0.0,0.0,0.0,0.0
1757903866.859013,0.0,-4.403874558781671,0.0,0.0,0.0,0.0,-1.6220687843041754,-4.190760611721684,0.6869866372088237,-0.22880422033729597,-0.9877879873144906,-2.7190655612446673,0.0,-0.00021311394705998677,0.0,0.0,0.0,0.0,0.0
1757903866.9092636,0.0,-4.617916618208519,0.0,0.0,0.0,0.0,-1.605803766316336,-3.990583125134984,0.9129177876021998,-0.40124825407544934,-1.0683230753560558,-2.6456463183222305,0.0,-0.000627333493073535,0.0,0.0,0.0,0.0,0.0
1757903866.9696388,0.0,-4.1732902369800655,0.0,0.0,0.0,0.0,-1.4453554946411789,-4.042553053716715,0.8352028007868839,-0.26084072754068366,-0.9649764773378493,-2.5885392085296903,0.0,-0.00013073718326335015,0.0,0.0,0.0,0.0,0.0
1757903867.0289931,0.0,-4.410883490367417,0.0,0.0,0.0,0.0,-1.4668066996186664,-3.8363717336461316,0.9805207863422033,-0.4093464475502413,-1.026252128155372,-2.5350330942214674,0.0,-0.0005745117567212854,0.0,0.0,0.0,0.0,0.0
1757903867.0793526,0.0,-4.244021447796384,0.0,0.0,0.0,0.0,-1.3509297570663867,-4.0301446848612485,1.0280387538266582,-0.29339452154894613,-0.9912041654315258,-2.5582482585844244,0.0,-0.00021387676293513547,0.0,0.0,0.0,0.0,0.0
1757903867.129556,0.0,-4.0,0.0,0.0,0.0,0.0,-1.1934763948069391,-4.276271884285432,1.0109610386531225,-0.14709729034720964,-0.9174535088508475,-2.5863529097630753,0.0,0.0002762718842854319,0.0,0.0,0.0,0.0,0.0
1757903867.1890612,0.0,-4.073344507242291,0.0,0.0,0.0,0.0,-1.2054889151385235,-4.466036798465067,1.0961469570395646,-0.11402515090681342,-0.9599741681676889,-2.675684655521343,0.0,0.00039269229122277597,0.0,0.0,0.0,0.0,0.0
1757903867.2394698,0.0,-4.007109497992436,0.0,0.0,0.0,0.0,-1.1873645102975485,-4.524097967907257,1.0766957621863544,-0.09177221047057213,-0.9471642103971571,-2.6905964533680473,0.0,0.0005169884699148204,0.0,0.0,0.0,0.0,0.0
1757903867.299085,0.0,-4.0,0.0,0.0,0.0,0.0,-1.1244787998131156,-4.609342729533736,0.9960820812729771,-0.03665354751616051,-0.8915256372838208,-2.686602036168054,0.0,0.0006093427295337364,0.0,0.0,0.0,0.0,0.0
1757903867.3491354,0.0,-4.0,0.0,0.0,0.0,0.0,-1.2166250687732145,-4.466766330645034,0.8793780006540812,-0.06663793004782334,-0.8887070996678398,-2.67093972813788,0.0,0.00046676633064503384,0.0,0.0,0.0,0.0,0.0
1757903867.4090762,0.0,-4.447847637894214,0.0,0.0,0.0,0.0,-1.593601288087754,-4.729615398966553,0.7910567060536395,0.0431695144435969,-1.0196364652387588,-2.9383477128938473,0.0,0.0002817677610723388,0.0,0.0,0.0,0.0,0.0
1757903867.469064,0.0,-4.629305521487472,0.0,0.0,0.0,0.0,-1.694306967571939,-4.4085054689783085,0.7471271896009968,-0.18123388768648638,-1.0467903058973618,-2.8420734570708284,0.0,-0.0002208000525091638,0.0,0.0,0.0,0.0,0.0
1757903867.5191872,0.0,-4.456138817820744,0.0,0.0,0.0,0.0,-1.6533313353324544,-4.3593180992789105,0.6660654635980017,-0.1566543259026979,-0.9930630934792635,-2.7984667137329065,0.0,-9.682071854183328e-05,0.0,0.0,0.0,0.0,0.0
1757903867.579817,0.0,-4.4933308905728175,0.0,0.0,0.0,0.0,-1.63765052341733,-4.203363649142683,0.7406108032557251,-0.25347544415109824,-1.0125018982939131,-2.7292990954271836,0.0,-0.0002899672414301344,0.0,0.0,0.0,0.0,0.0
1757903867.6404305,0.0,-4.695096096764222,0.0,0.0,0.0,0.0,-1.6720501170483597,-4.00661953328786,0.8551472290399287,-0.37309037824777247,-1.0673859677242643,-2.6754276634044,0.0,-0.0006884765634763621,0.0,0.0,0.0,0.0,0.0
1757903867.6990619,0.0,-4.225846699130129,0.0,0.0,0.0,0.0,-1.4419195732799097,-4.038180359929756,0.882107020786097,-0.3277917641488977,-0.9767965886811403,-2.5534431556547355,0.0,-0.0001876663392003728,0.0,0.0,0.0,0.0,0.0
1757903867.749187,0.0,-4.669409295175099,0.0,0.0,0.0,0.0,-1.5922826049440508,-3.8608873395049748,0.9763080520672797,-0.3978095845455328,-1.0788708618337488,-2.586444542040692,0.0,-0.0008085219556701246,0.0,0.0,0.0,0.0,0.0
1757903867.8091228,0.0,-4.178507474363457,0.0,0.0,0.0,0.0,-1.2006591223290073,-4.153868484234023,1.1627577675930365,-0.2722133267903065,-0.9816575189350472,-2.5417958698605405,0.0,-2.4638990129433934e-05,0.0,0.0,0.0,0.0,0.0
1757903867.8691857,0.0,-4.208214623631628,0.0,0.0,0.0,0.0,-1.2465184511349245,-4.912987841342287,1.1312130665563065,0.09453566068637918,-0.9869507071473422,-2.8791660387558284,0.0,0.0007047732177106588,0.0,0.0,0.0,0.0,0.0
1757903867.9192152,0.0,-4.0,0.0,0.0,0.0,0.0,-0.9477077400594497,-4.858535691860386,1.0591783216655062,0.07987344990362623,-0.8277200824114965,-2.710825214302444,0.0,0.0008585356918603857,0.0,0.0,0.0,0.0,0.0
1757903867.9692988,0.0,-4.0,0.0,0.0,0.0,0.0,-1.130065261527986,-4.513715330555593,1.011354699533408,-0.07144175957285438,-0.8971618042027127,-2.6532746976959274,0.0,0.0005137153305555931,0.0,0.0,0.0,0.0,0.0
1757903868.028994,0.0,-4.0,0.0,0.0,0.0,0.0,-1.2338617795713476,-4.2295629906977465,0.9862409286369503,-0.2390494542087979,-0.9395007932447063,-2.5798521043954303,0.0,0.00022956299069774654,0.0,0.0,0.0,0.0,0.0
1757903868.0798185,0.0,-4.66507576117113,0.0,0.0,0.0,0.0,-1.6130234290479348,-3.7714139598303182,0.938202810983354,-0.4728822213255875,-1.0831866649161277,-2.562817363959021,0.0,-0.0008936618013408122,0.0,0.0,0.0,0.0,0.0
1757903868.1299896,0.0,-4.647299939876011,0.0,0.0,0.0,0.0,-1.6577010549849183,-3.6426686718006023,0.8411959874424877,-0.48704819965330937,-1.0572174771865215,-2.530657689452533,0.0,-0.0010046312680754088,0.0,0.0,0.0,0.0,0.0
1757903868.1890695,0.0,-4.065296282003647,0.0,0.0,0.0,0.0,-1.4099614653446553,-3.8218005707127896,0.8101049832699347,-0.36058637535124843,-0.9342152625851037,-2.463481108430078,0.0,-0.00024349571129085758,0.0,0.0,0.0,0.0,0.0
1757903868.2393708,0.0,-4.0,0.0,0.0,0.0,0.0,-1.0809023345659619,-4.286751896703727,0.8777343154774666,-0.12524374022815576,-0.8119997027960557,-2.509489406351661,0.0,0.000286751896703727,0.0,0.0,0.0,0.0,0.0
1757903868.2990448,0.0,-4.0,0.0,0.0,0.0,0.0,-1.1116147540508474,-4.931169455537475,1.1477393779598075,0.0583261987827861,-0.932040277728825,-2.8130813244660717,0.0,0.000931169455537475,0.0,0.0,0.0,0.0,0.0
1757903868.349149,0.0,-4.0,0.0,0.0,0.0,0.0,-1.148173610236446,-5.137072168139607,0.9823283629768427,0.2144383231718136,-0.8932011480106645,-2.906194320091361,0.0,0.001137072168139607,0.0,0.0,0.0,0.0,0.0
1757903868.3994253,0.0,-4.180029892419717,0.0,0.0,0.0,0.0,-1.3730326236643648,-4.774992508441172,0.9541516643578912,0.012482597643466965,-0.9840956222155441,-2.8682792195144313,0.0,0.000594962616021455,0.0,0.0,0.0,0.0,0.0
1757903868.459067,0.0,-4.1169890189405,0.0,0.0,0.0,0.0,-1.4014361860112883,-4.4197226337488225,0.8648192815093797,-0.1679410717860655,-0.958748803534121,-2.722877263343539,0.0,0.0003027336148083224,0.0,0.0,0.0,0.0,0.0
1757903868.5099607,0.0,-4.6623395562810686,0.0,0.0,0.0,0.0,-1.6837149215027574,-4.10058124587672,0.8019287282539941,-0.3279326452469763,-1.0628082777528907,-2.7152808044748253,0.0,-0.0005617583104043487,0.0,0.0,0.0,0.0,0.0
1757903868.5691633,0.0,-4.610750714362559,0.0,0.0,0.0,0.0,-1.7004339091997123,-3.2163976847171747,0.714120483141998,-0.6951172178954217,-1.0300269097004389,-2.3395773213562183,0.0,-0.001394353029645384,0.0,0.0,0.0,0.0,0.0
1757903868.6290507,0.0,-4.0,0.0,0.0,0.0,0.0,-1.236759468973085,-3.2193188082436,0.8182400388234109,-0.6081963689624521,-0.8598805756009327,-2.1206694893529536,0.0,-0.0007806811917564,0.0,0.0,0.0,0.0,0.0
1757903868.6798408,0.0,-4.0,0.0,0.0,0.0,0.0,-1.0794681983923424,-3.3902659839423426,0.9291998447354788,-0.4983828987101929,-0.8348371365850175,-2.1412763177055467,0.0,-0.0006097340160576574,0.0,0.0,0.0,0.0,0.0
1757903868.7401376,0.0,-4.0,0.0,0.0,0.0,0.0,-0.9004354286985448,-3.5917457063480054,1.1285350882149947,-0.44241158068043274,-0.8397134131418482,-2.156978095211833,0.0,-0.00040825429365199463,0.0,0.0,0.0,0.0,0.0
1757903868.7991765,0.0,-4.0,0.0,0.0,0.0,0.0,-0.2926973048956675,-2.585101936587615,0.5614842139894186,-0.4835303624827443,-0.3304677751541709,-1.5270761170999072,0.0,-0.001414898063412385,0.0,0.0,0.0,0.0,0.0
1757903868.8590279,0.0,-4.0,0.0,0.0,0.0,0.0,-0.10467825426625287,-1.8859002171354027,0.3354986468836182,-0.6413519619548159,-0.15345601738355652,-1.1718237639067894,0.0,-0.0021140997828645977,0.0,0.0,0.0,0.0,0.0
1757903868.9092224,0.0,-4.0,0.0,0.0,0.0,0.0,0.11457832643168057,-1.1928434656412028,0.2558162719259986,-0.8374088420349715,-0.02232928559624567,-0.7980838854169339,0.0,-0.002807156534358797,0.0,0.0,0.0,0.0,0.0
1757903868.9695947,0.0,-4.0,0.0,0.0,0.0,0.0,1.0675645026436549,0.2782581487205089,-0.08326989289437843,-1.1646609251402202,0.5289797749966205,0.21224955998993403,0.0,-0.004278258148720509,0.0,0.0,0.0,0.0,0.0
1757903869.0292058,0.0,-4.0,0.0,0.0,0.0,0.0,1.565023296726738,1.537206452423631,-0.25618232156434845,-1.4781822810991492,0.8140768183525123,0.972299645815306,0.0,-0.005537206452423632,0.0,0.0,0.0,0.0,0.0
1757903869.0795367,0.0,-5.731226185932599,0.0,0.0,0.0,0.0,2.2210583612923056,2.644165883446176,-0.5678136409286603,-1.7344757605320864,1.2281918682167388,1.7594217447935034,0.0,-0.008375392069378774,0.0,0.0,0.0,0.0,0.0
1757903869.1391387,0.0,-6.826572531116689,0.0,0.0,0.0,0.0,2.529200170899946,2.809223346148179,-1.0293110798661362,-1.539018086017868,1.5565362435862253,1.9916656024445245,0.0,-0.00963579587726487,0.0,0.0,0.0,0.0,0.0
1757903869.1991606,0.0,-8.287273691448815,0.0,0.0,0.0,0.0,2.725777963474643,3.007835072828843,-1.88646742133353,-1.1792620537611986,2.0129229094129473,2.173313805342522,0.0,-0.011295108764277658,0.0,0.0,0.0,0.0,0.0
1757903869.24942,0.0,-9.128735607136766,0.0,0.0,0.0,0.0,2.8090377424194632,4.272762714282103,-2.332963173147838,-1.4628733247063122,2.249954139838124,2.746291809318936,0.0,-0.01340149832141887,0.0,0.0,0.0,0.0,0.0
1757903869.3093596,0.0,-10.369961671389492,0.0,0.0,0.0,0.0,3.279274049787676,5.388714353064577,-2.5401060050641746,-1.7914404236476367,2.554013974379541,3.4328033167098986,0.0,-0.01575867602445407,0.0,0.0,0.0,0.0,0.0
1757903869.3691952,0.0,-11.010217261744254,0.0,0.0,0.0,0.0,3.529403068926602,5.625024013174111,-2.6342542476346646,-1.80129266806976,2.7040459655736706,3.6763971398286404,0.0,-0.016635241274918364,0.0,0.0,0.0,0.0,0.0
1757903869.428991,0.0,-12.423215469704841,0.0,0.0,0.0,0.0,3.9711655808151503,5.770297835811829,-2.9872477545097027,-1.6222937103301713,3.051642544409565,3.9752504430890427,0.0,-0.018193513305516672,0.0,0.0,0.0,0.0,0.0
1757903869.4790635,0.0,-13.211029664491214,0.0,0.0,0.0,0.0,4.360868611957011,4.890982123724519,-2.9845994231418773,-1.1802625423797235,3.230951128636744,3.8057435867516336,0.0,-0.018102011788215733,0.0,0.0,0.0,0.0,0.0
1757903869.5393476,0.0,-13.161572847113403,0.0,0.0,0.0,0.0,4.454983837807019,4.662337644044425,-2.8052520340350697,-1.084723972038983,3.20283898419401,3.7432018240039993,0.0,-0.017823910491157828,0.0,0.0,0.0,0.0,0.0
1757903869.589372,0.0,-14.043518653058522,0.0,0.0,0.0,0.0,4.82447053320314,4.525156517830942,-2.8774555877829,-0.976696004501985,3.4033757011003924,3.8308345084562605,0.0,-0.018568675170889462,0.0,0.0,0.0,0.0,0.0
1757903869.6393933,0.0,-14.35511928811181,0.0,0.0,0.0,0.0,5.007817362664804,3.7782823761775433,-2.8094264942048373,-0.6479664267907073,3.454668621831371,3.6155058561780438,0.0,-0.018133401664289353,0.0,0.0,0.0,0.0,0.0
1757903869.6992524,0.0,-14.813613839984447,0.0,0.0,0.0,0.0,5.21023813060368,3.594418518649928,-2.822113290148371,-0.5276078437605315,3.5443827109414756,3.638448027514423,0.0,-0.018408032358634377,0.0,0.0,0.0,0.0,0.0
1757903869.7592373,0.0,-15.807684230470741,0.0,0.0,0.0,0.0,5.683957595853062,4.216455700664653,-2.7701781468685396,-0.7734100158699264,3.7436975846424034,4.131273522161251,0.0,-0.020024139931135394,0.0,0.0,0.0,0.0,0.0
1757903869.8190682,0.0,-16.541338042404963,0.0,0.0,0.0,0.0,6.028934250283571,3.6934576777435906,-2.7258925296232532,-0.5156718258710301,3.86767598531722,4.128601006272335,0.0,-0.020234795720148555,0.0,0.0,0.0,0.0,0.0
1757903869.8796675,0.0,-17.154600898866025,0.0,0.0,0.0,0.0,6.355552869665299,3.1909863798560605,-2.586851530488212,-0.3749297249666167,3.961033998629977,4.084048527186417,0.0,-0.020345587278722085,0.0,0.0,0.0,0.0,0.0
1757903869.9393682,0.0,-16.933421306165116,0.0,0.0,0.0,0.0,6.328367455475092,1.6965590594294444,-2.414598618739267,0.21664299591823494,3.8752410543293516,3.4776142842194107,0.0,-0.01862998036559456,0.0,0.0,0.0,0.0,0.0
1757903869.9990869,0.0,-16.51444422282269,0.0,0.0,0.0,0.0,6.300318809607914,0.06622149975159602,-1.9855180118790656,0.8176051616577588,3.686696670653973,2.813773406477093,0.0,-0.016580665722574287,0.0,0.0,0.0,0.0,0.0
1757903870.0491996,0.0,-16.36175886660577,0.0,0.0,0.0,0.0,6.319432393085523,0.7243357730574379,-1.7023274487165478,0.39544443301269977,3.5936726826816408,3.0611545570962564,0.0,-0.017086094639663204,0.0,0.0,0.0,0.0,0.0
1757903870.0993497,0.0,-16.258824563327845,0.0,0.0,0.0,0.0,6.330695280849946,0.6557464686607551,-1.4893614235624222,0.379633328322126,3.5178609456285006,3.0442068521326826,0.0,-0.016914571031988603,0.0,0.0,0.0,0.0,0.0
1757903870.1600227,0.0,-16.825045387033747,0.0,0.0,0.0,0.0,6.531682160853291,0.37467033213522827,-1.6218114914225343,0.5910028487575398,3.660653427112954,3.0300450336693467,0.0,-0.017199715719168975,0.0,0.0,0.0,0.0,0.0
1757903870.219095,0.0,-16.619962741956414,0.0,0.0,0.0,0.0,6.533033789517006,-0.00692148944476912,-1.2309245923581837,0.6003175358362439,3.4969702422118187,2.890669415946067,0.0,-0.016613041252511646,0.0,0.0,0.0,0.0,0.0
1757903870.269313,0.0,-16.62623617643713,0.0,0.0,0.0,0.0,6.5729045861159126,-0.3232682830112113,-1.0129175706655904,0.6510593438132777,3.420742005158564,2.781571132123506,0.0,-0.016302967893425918,0.0,0.0,0.0,0.0,0.0
1757903870.3290749,0.0,-17.548086809387595,0.0,0.0,0.0,0.0,6.921316032131907,-0.5995851434060459,-1.1683494727701633,0.8579314923213448,3.630350670541235,2.8744593917950043,0.0,-0.01694850166598155,0.0,0.0,0.0,0.0,0.0
1757903870.3792305,0.0,-17.53471996436298,0.0,0.0,0.0,0.0,6.946722137557302,-0.00828110827946744,-0.9683368319712348,0.5189336659635808,3.5526140498406567,3.1255124916960684,0.0,-0.01752643885608351,0.0,0.0,0.0,0.0,0.0
1757903870.4392292,0.0,-17.75686696640089,0.0,0.0,0.0,0.0,7.057527614032213,-0.15044887645949875,-0.8001974076227911,0.5395288445225097,3.5166472603864785,3.1149890851740523,0.0,-0.01760641808994139,0.0,0.0,0.0,0.0,0.0
1757903870.4991176,0.0,-18.07811575326915,0.0,0.0,0.0,0.0,7.204445815419677,-0.3180394558351376,-0.6219996485992779,0.5386892170996702,3.500403118760567,3.116471654973128,0.0,-0.01776007629743401,0.0,0.0,0.0,0.0,0.0
1757903870.5492,0.0,-18.7911302068437,0.0,0.0,0.0,0.0,7.48301965917664,-0.661812798934458,-0.7081445420707053,0.7480515106338157,3.6468715190119454,3.1568504260905197,0.0,-0.01812931740790924,0.0,0.0,0.0,0.0,0.0
1757903870.5992742,0.0,-18.320603710837613,0.0,0.0,0.0,0.0,7.3153151423958525,-0.1642515881235799,-0.4350719712450556,0.4090343115340348,3.4624890754647604,3.2757291549352336,0.0,-0.018156352122714034,0.0,0.0,0.0,0.0,0.0
1757903870.649868,0.0,-18.661640809977964,0.0,0.0,0.0,0.0,7.458960405898953,0.2986391182648442,-0.29155393760561277,0.12112441560442164,3.4684179935582318,3.528842402634283,0.0,-0.01896027992824281,0.0,0.0,0.0,0.0,0.0
1757903870.7098851,0.0,-19.298110611798105,0.0,0.0,0.0,0.0,7.7149708908267005,0.006826187472706462,-0.2568187363254788,0.2571890319821329,3.568997990439333,3.5615632234441725,0.0,-0.019304936799270814,0.0,0.0,0.0,0.0,0.0
1757903870.7692053,0.0,-19.325788272879123,0.0,0.0,0.0,0.0,7.723893402166643,-0.14965528041737983,-0.3150325235129896,0.36906183249319835,3.5918960467263297,3.5371625986120367,0.0,-0.019176132992461743,0.0,0.0,0.0,0.0,0.0
1757903870.829327,0.0,-19.038719802305103,0.0,0.0,0.0,0.0,7.604716937713441,0.2708643519512615,-0.40489081363229945,0.2529062827324545,3.575289836028457,3.6473776653307146,0.0,-0.019309584154256362,0.0,0.0,0.0,0.0,0.0
1757903870.8890154,0.0,-19.41870246282935,0.0,0.0,0.0,0.0,7.749783778727882,0.7834597041362366,-0.5240345764826494,0.11050435911545974,3.688010193329358,3.9500190242440443,0.0,-0.02020216216696559,0.0,0.0,0.0,0.0,0.0
1757903870.9392102,0.0,-19.21582474849798,0.0,0.0,0.0,0.0,7.682295768214345,1.0034713953845333,-0.24899608847121252,-0.117159002487941,3.542839689548397,4.010288968006715,0.0,-0.020219296143882515,0.0,0.0,0.0,0.0,0.0
1757903870.999274,0.0,-19.307204041712144,0.0,0.0,0.0,0.0,7.712596098532208,0.5365138051772944,-0.39844935215745175,0.1948562491782568,3.6145951368523836,3.851801537977949,0.0,-0.019843717846889437,0.0,0.0,0.0,0.0,0.0
1757903871.0492868,0.0,-18.918543375777947,0.0,0.0,0.0,0.0,7.564422096249958,-0.46940593731603253,-0.2128936437662557,0.5366392839454001,3.4728991228694865,3.376389912103263,0.0,-0.018449137438461913,0.0,0.0,0.0,0.0,0.0
1757903871.1091232,0.0,-18.837161171605192,0.0,0.0,0.0,0.0,7.528753366258871,-0.6894030229547524,-0.3034061812992073,0.6923221187099101,3.4926533807142923,3.2674837864646036,0.0,-0.01814775814865044,0.0,0.0,0.0,0.0,0.0
1757903871.1691728,0.0,-19.038350347585435,0.0,0.0,0.0,0.0,7.610417352334436,-0.7049860819377384,-0.273775741204271,0.7176707216867227,3.5081337402668633,3.3358934605367896,0.0,-0.018333364265647696,0.0,0.0,0.0,0.0,0.0
1757903871.2289474,0.0,-18.94361437273057,0.0,0.0,0.0,0.0,7.577438789927864,-0.6715507997440245,0.010269631561788905,0.5494828855303096,3.3782172384395577,3.339911292540671,0.0,-0.018272063572986542,0.0,0.0,0.0,0.0,0.0
1757903871.2793655,0.0,-18.767895087056573,0.0,0.0,0.0,0.0,7.507151201746073,-1.213879387663828,0.010128865902079868,0.8036041300348071,3.3426244832143848,3.1029780666364104,0.0,-0.017554015699392748,0.0,0.0,0.0,0.0,0.0
1757903871.3394701,0.0,-18.270998159014905,0.0,0.0,0.0,0.0,7.305611329967575,-2.0442092660163667,0.20184868522130653,1.0714590179404293,3.1737996615588857,2.6804400766613408,0.0,-0.01622678889299854,0.0,0.0,0.0,0.0,0.0
1757903871.3992078,0.0,-17.37977544960009,0.0,0.0,0.0,0.0,6.942674380576317,-3.070641259621753,0.3582284101697925,1.464797768932963,2.9455070591834263,2.0892562461158866,0.0,-0.014309134189978336,0.0,0.0,0.0,0.0,0.0
1757903871.4495413,0.0,-17.664299326966486,0.0,0.0,0.0,0.0,7.049099600388749,-3.598832409467845,0.48434506070174427,1.6519282258901882,2.936487454335487,1.9647967514729445,0.0,-0.01406546691749864,0.0,0.0,0.0,0.0,0.0
1757903871.4996448,0.0,-17.253262197993035,0.0,0.0,0.0,0.0,6.850420985673878,-3.167190562835378,0.8365054421043527,1.281546679012572,2.7089512287964386,2.008739726349489,0.0,-0.014086071635157658,0.0,0.0,0.0,0.0,0.0
1757903871.549902,0.0,-17.369203860327424,0.0,0.0,0.0,0.0,6.888701018637314,-3.283440263009748,0.9033698658264697,1.311795253438907,2.693889849612333,1.99756798409235,0.0,-0.014085763597317677,0.0,0.0,0.0,0.0,0.0
1757903871.6093922,0.0,-17.25919046356136,0.0,0.0,0.0,0.0,6.835689900206177,-3.0272187463161897,0.9664825199750144,1.1761594975157554,2.6410873149425846,2.0632408017801533,0.0,-0.01423197171724517,0.0,0.0,0.0,0.0,0.0
1757903871.6691945,0.0,-17.670725456695248,0.0,0.0,0.0,0.0,6.9726956786222924,-3.95552503103712,1.1585512849527222,1.476303263304876,2.618056884087758,1.7840957535892792,0.0,-0.013715200425658129,0.0,0.0,0.0,0.0,0.0
1757903871.7193131,0.0,-17.875956091199036,0.0,0.0,0.0,0.0,7.053174221021379,-4.382810916320896,1.175032933936579,1.6353725571541033,2.6459050840837195,1.6621248348448625,0.0,-0.013493145174878141,0.0,0.0,0.0,0.0,0.0
1757903871.7791812,0.0,-17.536256791328995,0.0,0.0,0.0,0.0,6.916107246721346,-4.255658443008692,1.1707727841377495,1.6036527997061596,2.587224860583745,1.6611496050892605,0.0,-0.013280598348320304,0.0,0.0,0.0,0.0,0.0
1757903871.8394449,0.0,-17.320527222576573,0.0,0.0,0.0,0.0,6.839230383912075,-3.49322055730265,1.106812485770052,1.2850380211265195,2.5872045510194273,1.9168482606948394,0.0,-0.013827306665273924,0.0,0.0,0.0,0.0,0.0
1757903871.8990583,0.0,-17.64539917453651,0.0,0.0,0.0,0.0,6.972724356808258,-3.3851076125414292,1.094866644194756,1.2517685544871038,2.6495945419995266,2.0708315449645593,0.0,-0.014260291561995082,0.0,0.0,0.0,0.0,0.0
1757903871.9493601,0.0,-17.614788374418914,0.0,0.0,0.0,0.0,6.963241513617413,-3.3437785130658932,1.0761927053856528,1.268906143375249,2.6526092714798053,2.0909859461904667,0.0,-0.014271009861353023,0.0,0.0,0.0,0.0,0.0
1757903872.0097282,0.0,-17.525925203118405,0.0,0.0,0.0,0.0,6.931182539830701,-2.874116074637626,1.0507127464698311,1.1084497159552393,2.652449141392146,2.2623361896240883,0.0,-0.014651809128480778,0.0,0.0,0.0,0.0,0.0
1757903872.0691028,0.0,-18.00672171865359,0.0,0.0,0.0,0.0,7.128803819195155,-3.0781241514986184,1.0290191620730496,1.2175605750343,2.7441616231599726,2.3057726264713265,0.0,-0.014928597567154972,0.0,0.0,0.0,0.0,0.0
1757903872.1192873,0.0,-17.796849868161175,0.0,0.0,0.0,0.0,6.985621442385741,-3.2518272168241777,1.3702377532601897,1.107425132651882,2.546132003689122,2.1598139683467754,0.0,-0.014545022651336996,0.0,0.0,0.0,0.0,0.0
1757903872.180739,0.0,-17.207530748318135,0.0,0.0,0.0,0.0,6.722950546264455,-3.2425888326666734,1.4757351609190341,1.0976306387519323,2.3849655586262335,2.036844331728194,0.0,-0.013964941915651462,0.0,0.0,0.0,0.0,0.0
1757903872.23932,0.0,-17.41818133287259,0.0,0.0,0.0,0.0,6.815609532568077,-3.69337603143813,1.4458053986412334,1.2973618470540638,2.441206307542104,1.8938991634298246,0.0,-0.013724805301434459,0.0,0.0,0.0,0.0,0.0
1757903872.2990758,0.0,-16.932079773563522,0.0,0.0,0.0,0.0,6.453399303453095,-6.535132497377017,2.055453600430364,2.1733366266361513,2.0375880967336566,0.5425539706351614,0.0,-0.010396947276186506,0.0,0.0,0.0,0.0,0.0
1757903872.3496325,0.0,-16.42313108822475,0.0,0.0,0.0,0.0,6.289349257231023,-7.513096230667099,1.897146140688659,2.713193345672578,2.0244444612095625,0.08959792412423519,0.0,-0.00891003485755765,0.0,0.0,0.0,0.0,0.0
1757903872.4095073,0.0,-16.185511488306606,0.0,0.0,0.0,0.0,6.199024861098826,-8.301503673690274,1.867462426282121,3.0416259312748712,2.004671962307848,-0.27688740488741603,0.0,-0.007884007814616333,0.0,0.0,0.0,0.0,0.0
1757903872.4690025,0.0,-15.509275081240602,0.0,0.0,0.0,0.0,5.871014560284728,-8.109089456366009,2.0042969341440497,2.8779902625365485,1.809367645869476,-0.38079454951112973,0.0,-0.007400185624874593,0.0,0.0,0.0,0.0,0.0
1757903872.5190353,0.0,-15.764074794138644,0.0,0.0,0.0,0.0,5.991544231427115,-8.871354996514738,1.96529040634814,3.226395081185948,1.876401934150544,-0.5935220460709979,0.0,-0.0068927197976239064,0.0,0.0,0.0,0.0,0.0
1757903872.5691755,0.0,-15.151581454220215,0.0,0.0,0.0,0.0,5.625089276164827,-9.629437743576498,2.2560225897350086,3.3638443233831294,1.6031862531820966,-1.1106146129821837,0.0,-0.005522143710643718,0.0,0.0,0.0,0.0,0.0
1757903872.6292255,0.0,-14.100983577601182,0.0,0.0,0.0,0.0,5.095700229774154,-10.542814364635174,2.4182384549924243,3.6707466818591055,1.3078533061503288,-1.7497496144651905,0.0,-0.003558169212966009,0.0,0.0,0.0,0.0,0.0
1757903872.6792643,0.0,-13.405268001115786,0.0,0.0,0.0,0.0,4.557943332300803,-11.404057844795371,2.8244196233231476,3.770314832477526,0.907562727529575,-2.3865829978407698,0.0,-0.0020012101563204147,0.0,0.0,0.0,0.0,0.0
1757903872.7391093,0.0,-13.503130389412696,0.0,0.0,0.0,0.0,4.564214672836402,-11.88935997260665,2.8881601878049974,3.953419306542399,0.8832328816472006,-2.5842781904290084,0.0,-0.0016137704168060463,0.0,0.0,0.0,0.0,0.0
1757903872.7990227,0.0,-13.682635119271698,0.0,0.0,0.0,0.0,4.352771528663309,-12.438328184920104,3.317785500661313,3.9356071976503495,0.6147795919100583,-2.9262145584471586,0.0,-0.0012443069343515934,0.0,0.0,0.0,0.0,0.0
1757903872.8503535,0.0,-13.942569114574713,0.0,0.0,0.0,0.0,4.399750640609605,-12.765477631873333,3.4271608749526483,3.9958763501399606,0.5854312744572024,-3.0377947598945028,0.0,-0.00117709148270138,0.0,0.0,0.0,0.0,0.0
1757903872.9092252,0.0,-13.94885220736999,0.0,0.0,0.0,0.0,4.306113350052152,-12.842388987609269,3.5480507720424104,3.9652971602962768,0.4944890275100681,-3.1202462218199547,0.0,-0.0011064632197607214,0.0,0.0,0.0,0.0,0.0
1757903872.969146,0.0,-13.967547279192281,0.0,0.0,0.0,0.0,4.298870092191599,-12.634013633115138,3.568542594659068,3.8665519496117984,0.4845654378410299,-3.0473239420414706,0.0,-0.001333533646077143,0.0,0.0,0.0,0.0,0.0
1757903873.0289528,0.0,-13.831188743003477,0.0,0.0,0.0,0.0,4.25336497220665,-12.700761752025402,3.537961495033447,3.9223592347017524,0.47825520784738673,-3.1067836707117507,0.0,-0.0011304269909780747,0.0,0.0,0.0,0.0,0.0
1757903873.0795329,0.0,-13.824818385156506,0.0,0.0,0.0,0.0,4.286428367966598,-12.635254049791019,3.49379856138001,3.9117601259857007,0.5087682610549032,-3.055192056305693,0.0,-0.0011895643353654873,0.0,0.0,0.0,0.0,0.0
1757903873.1391282,0.0,-13.78577197438205,0.0,0.0,0.0,0.0,4.227656009343755,-12.290287233093734,3.5404132661886876,3.7361965017325334,0.4676849414778433,-2.9533441965647858,0.0,-0.0014954847412883155,0.0,0.0,0.0,0.0,0.0
1757903873.1896315,0.0,-13.94311130238686,0.0,0.0,0.0,0.0,4.314717719175835,-12.177746300712414,3.5339591749693144,3.6962298867141876,0.5085010470523642,-2.8720131661519472,0.0,-0.0017653650016744465,0.0,0.0,0.0,0.0,0.0
1757903873.2494373,0.0,-14.198778341577034,0.0,0.0,0.0,0.0,4.6860712407805165,-13.550156701294831,3.2089850964514746,4.447526458950644,0.8080716614888795,-3.240992943594624,0.0,-0.0006486216402822027,0.0,0.0,0.0,0.0,0.0
1757903873.309209,0.0,-13.257598365084014,0.0,0.0,0.0,0.0,4.697738155723404,-15.273985837731043,2.460382597451259,5.499622603091058,1.1407488122442442,-3.980629374037796,0.0,0.002016387472647029,0.0,0.0,0.0,0.0,0.0
1757903873.3691244,0.0,-9.233275813837839,0.0,0.0,0.0,0.0,3.390753979010978,-14.768024598448992,1.4640111387983596,5.475843665154364,0.9372048001955606,-4.550888616643601,0.0,0.005534748784611154,0.0,0.0,0.0,0.0,0.0
1757903873.4289806,0.0,-6.28130368893244,0.0,0.0,0.0,0.0,2.4958156963718574,-14.219779425774878,0.28925451588396484,5.500704446781315,0.9726634235597011,-4.776014530519548,0.0,0.007938475736842438,0.0,0.0,0.0,0.0,0.0
1757903873.4795656,0.0,-4.0,0.0,0.0,0.0,0.0,-0.06311116039213041,-12.610918566670314,-1.2247420463846024,4.823756895231205,0.48580000630415787,-5.423080034274883,0.0,0.008610918566670313,0.0,0.0,0.0,0.0,0.0
1757903873.5390608,0.0,-6.494909936016403,0.0,0.0,0.0,0.0,-1.435169155954959,-11.799445633157916,-2.165572974090198,4.622554220311799,0.29831714536832027,-5.820524299527673,0.0,0.005304535697141513,0.0,0.0,0.0,0.0,0.0
1757903873.5892537,0.0,-8.366948475726947,0.0,0.0,0.0,0.0,-2.061655615794187,-12.252209953867549,-2.6363816888188647,4.984740934941964,0.23006473080615922,-6.3576850410525925,0.0,0.0038852614781406027,0.0,0.0,0.0,0.0,0.0
1757903873.6392653,0.0,-9.782979221456245,0.0,0.0,0.0,0.0,-2.6558641009869417,-12.867040228137245,-2.87392676814841,5.287474517165491,0.07119696443559648,-6.9393039623953685,0.0,0.0030840610066810007,0.0,0.0,0.0,0.0,0.0
1757903873.6997364,0.0,-13.035238936749463,0.0,0.0,0.0,0.0,-3.4766783543678237,-16.09100758899732,-3.8858075457199543,7.108272891022805,0.1299777006217015,-8.678903735132803,0.0,0.003055768652247858,0.0,0.0,0.0,0.0,0.0
1757903873.7590766,0.0,-15.682596656802367,0.0,0.0,0.0,0.0,-4.1101359318456385,-17.78617717849261,-4.738965782292925,8.220124125099415,0.20876908870674193,-9.667065144424484,0.0,0.002103580521690244,0.0,0.0,0.0,0.0,0.0
1757903873.8093035,0.0,-16.72862934510408,0.0,0.0,0.0,0.0,-4.370286268567247,-18.003431864492853,-5.067161364443897,8.432085844976134,0.23579023388349835,-9.898506276498894,0.0,0.0012748025193887748,0.0,0.0,0.0,0.0,0.0
1757903873.8691654,0.0,-17.896897230361365,0.0,0.0,0.0,0.0,-4.659616154902967,-18.59261880780728,-5.434685470643715,8.841453180718005,0.2612172645255938,-10.279265575965635,0.0,0.0006957215774459158,0.0,0.0,0.0,0.0,0.0
1757903873.928931,0.0,-19.99096953481056,0.0,0.0,0.0,0.0,-5.225042721700704,-20.345738526191553,-6.053193093490273,9.915812866192288,0.273791235717468,-11.2720703983731,0.0,0.0003547689913809933,0.0,0.0,0.0,0.0,0.0
1757903873.9791298,0.0,-20.0,0.0,0.0,0.0,0.0,-5.9167068618624725,-22.48148847867555,-6.799475759652199,11.22559965740732,0.2798772454414462,-12.462717658460251,0.0,0.0024814884786755515,0.0,0.0,0.0,0.0,0.0
1757903874.0390937,0.0,-20.0,0.0,0.0,0.0,0.0,-6.254114326168484,-24.396407663697964,-7.796385292336556,12.466996280579599,0.5592255160948868,-13.434551810731815,0.0,0.004396407663697964,0.0,0.0,0.0,0.0,0.0
1757903874.09914,0.0,-20.0,0.0,0.0,0.0,0.0,-6.385643466564173,-25.171554027651073,-8.482323049228704,13.116953530320727,0.7904478603630692,-13.820318646335796,0.0,0.005171554027651073,0.0,0.0,0.0,0.0,0.0
1757903874.1496413,0.0,-20.0,0.0,0.0,0.0,0.0,-7.076936193210193,-25.73516289486481,-9.162775852409967,13.634350275484671,0.7736576534379742,-14.43768157878105,0.0,0.005735162894864811,0.0,0.0,0.0,0.0,0.0
1757903874.2000647,0.0,-20.0,0.0,0.0,0.0,0.0,-6.95777676121736,-26.3014661414769,-9.498161767135262,14.141126448542439,0.952057798371057,-14.655824026920163,0.0,0.006301466141476901,0.0,0.0,0.0,0.0,0.0
1757903874.2589908,0.0,-20.0,0.0,0.0,0.0,0.0,-6.640263818765372,-25.302649116075933,-8.974882465955272,13.40364901648113,0.8845032074334823,-14.145335831774963,0.0,0.005302649116075934,0.0,0.0,0.0,0.0,0.0
1757903874.3091984,0.0,-20.0,0.0,0.0,0.0,0.0,-6.19338269224907,-25.28610311944288,-9.343024154234957,13.525748642278812,1.2443386449213343,-13.964024642659869,0.0,0.005286103119442881,0.0,0.0,0.0,0.0,0.0
1757903874.3689983,0.0,-20.0,0.0,0.0,0.0,0.0,-7.0532333153820685,-27.632176207895533,-10.656553729696178,15.287480751604,1.4042301288124288,-15.368428730834308,0.0,0.007632176207895533,0.0,0.0,0.0,0.0,0.0
1757903874.4191494,0.0,-20.0,0.0,0.0,0.0,0.0,-7.469234310358338,-27.88705910512081,-10.91324664782099,15.509231206605719,1.327308203113714,-15.69546668353703,0.0,0.00788705910512081,0.0,0.0,0.0,0.0,0.0
1757903874.472771,0.0,-20.0,0.0,0.0,0.0,0.0,-7.873687569142625,-28.71579042441622,-11.708591403194358,16.231865376357348,1.4860578644869678,-16.261134408270735,0.0,0.00871579042441622,0.0,0.0,0.0,0.0,0.0
1757903874.5290093,0.0,-20.0,0.0,0.0,0.0,0.0,-7.832479209827595,-29.11669891760049,-12.296131975843643,16.666822137762995,1.754031149252432,-16.396036934711077,0.0,0.009116698917600492,0.0,0.0,0.0,0.0,0.0
1757903874.579189,0.0,-20.0,0.0,0.0,0.0,0.0,-8.250514479797792,-29.806954522091026,-12.667038601328361,17.159063061365245,1.723559108037389,-16.88976155766611,0.0,0.009806954522091026,0.0,0.0,0.0,0.0,0.0
1757903874.6393008,0.0,-20.0,0.0,0.0,0.0,0.0,-9.116518993136118,-30.64209454660689,-13.262617245713416,17.774985344569746,1.5942437492432204,-17.69166604498016,0.0,0.010642094546606891,0.0,0.0,0.0,0.0,0.0
1757903874.689312,0.0,-20.0,0.0,0.0,0.0,0.0,-9.465900860341545,-31.971818147111534,-13.975338569164588,18.669538484916476,1.7370964373348197,-18.42164941868046,0.0,0.011971818147111535,0.0,0.0,0.0,0.0,0.0
1757903874.7492142,0.0,-20.0,0.0,0.0,0.0,0.0,-9.664262296534133,-32.25803738383718,-14.094703288405242,18.841247273138514,1.7008069689913392,-18.636062307127013,0.0,0.012258037383837177,0.0,0.0,0.0,0.0,0.0
1757903874.8092225,0.0,-20.0,0.0,0.0,0.0,0.0,-9.74573375907003,-31.945662726434428,-14.53194727764937,18.88614773234351,1.8444750544302668,-18.545634378270755,0.0,0.011945662726434427,0.0,0.0,0.0,0.0,0.0
1757903874.8690662,0.0,-20.0,0.0,0.0,0.0,0.0,-10.15766550476312,-32.07043793150215,-14.783690209810487,19.051757398188286,1.7775073252953684,-18.791715504700974,0.0,0.012070437931502148,0.0,0.0,0.0,0.0,0.0
1757903874.9197438,0.0,-20.0,0.0,0.0,0.0,0.0,-10.387282389595523,-32.01513771254782,-14.869805807157361,19.019665417371407,1.7154891532747512,-18.875137946617258,0.0,0.01201513771254782,0.0,0.0,0.0,0.0,0.0
1757903874.979393,0.0,-20.0,0.0,0.0,0.0,0.0,-10.626279514303402,-31.845850458186053,-14.76523681479598,18.879897433506382,1.5693417475592046,-18.932400658060555,0.0,0.011845850458186053,0.0,0.0,0.0,0.0,0.0
1757903875.0393114,0.0,-20.0,0.0,0.0,0.0,0.0,-10.60421954830568,-32.5198344710558,-14.93009774203678,19.219627553781628,1.6479721760310864,-19.166061543421574,0.0,0.012519834471055803,0.0,0.0,0.0,0.0,0.0
1757903875.099219,0.0,-20.0,0.0,0.0,0.0,0.0,-10.407437511365348,-32.38854489576248,-14.953623796535988,19.16487094540737,1.7419067320799049,-18.99580000479433,0.0,0.01238854489576248,0.0,0.0,0.0,0.0,0.0
1757903875.1494465,0.0,-20.0,0.0,0.0,0.0,0.0,-10.382856341259249,-32.123052448642945,-14.80577390752798,18.93062374648656,1.6974612282087578,-18.877608095135557,0.0,0.012123052448642944,0.0,0.0,0.0,0.0,0.0
1757903875.2002387,0.0,-20.0,0.0,0.0,0.0,0.0,-10.354428046529085,-32.31291705305487,-14.80268255516496,19.013259043380792,1.7068965208808904,-18.921373969914306,0.0,0.012312917053054867,0.0,0.0,0.0,0.0,0.0
1757903875.2591178,0.0,-20.0,0.0,0.0,0.0,0.0,-10.721334010683945,-31.860253402040975,-14.605383601724148,18.70856425582914,1.4667752279039812,-18.946137067558038,0.0,0.011860253402040975,0.0,0.0,0.0,0.0,0.0
1757903875.3094516,0.0,-20.0,0.0,0.0,0.0,0.0,-10.609658656065157,-32.26834875573774,-14.733375034199979,18.948731580674096,1.569165846987099,-19.042639252996338,0.0,0.01226834875573774,0.0,0.0,0.0,0.0,0.0
1757903875.3594937,0.0,-20.0,0.0,0.0,0.0,0.0,-10.669606283881086,-32.61586684724225,-14.753674030959992,19.152914197237596,1.5485078575157019,-19.19456776946304,0.0,0.012615866847242252,0.0,0.0,0.0,0.0,0.0
1757903875.419921,0.0,-20.0,0.0,0.0,0.0,0.0,-10.365116826892947,-32.938039503013854,-14.568560271124962,19.220358747289136,1.595122372690417,-19.15482775010563,0.0,0.012938039503013855,0.0,0.0,0.0,0.0,0.0
1757903875.4794457,0.0,-20.0,0.0,0.0,0.0,0.0,-10.412425517049844,-33.60019279841639,-14.777929969746449,19.59825417517977,1.6583978620998052,-19.450486972064237,0.0,0.013600192798416387,0.0,0.0,0.0,0.0,0.0
1757903875.5394049,0.0,-20.0,0.0,0.0,0.0,0.0,-10.482003124050244,-33.60191351319735,-14.810036786902101,19.620900589752885,1.6415203115547536,-19.503111789185915,0.0,0.013601913513197353,0.0,0.0,0.0,0.0,0.0
1757903875.5989273,0.0,-20.0,0.0,0.0,0.0,0.0,-10.603273991497199,-33.402858546924996,-14.906986230175264,19.521688992024096,1.6325006724610636,-19.48354111374452,0.0,0.013402858546924997,0.0,0.0,0.0,0.0,0.0
1757903875.6498218,0.0,-20.0,0.0,0.0,0.0,0.0,-10.50136523411156,-33.129800286327054,-15.05384386536338,19.427087395497914,1.740846233666929,-19.30097429046576,0.0,0.013129800286327055,0.0,0.0,0.0,0.0,0.0
1757903875.7102745,0.0,-20.0,0.0,0.0,0.0,0.0,-10.551353279797212,-32.917818371221,-15.029441017841762,19.302923681582612,1.708461162204613,-19.223978372880406,0.0,0.012917818371221003,0.0,0.0,0.0,0.0,0.0
1757903875.7691708,0.0,-20.0,0.0,0.0,0.0,0.0,-10.117735145863215,-32.48280359020596,-15.01482490769723,19.098704702658566,1.8862050082752282,-18.815996047896245,0.0,0.012482803590205961,0.0,0.0,0.0,0.0,0.0
1757903875.8202145,0.0,-20.0,0.0,0.0,0.0,0.0,-9.887595886144743,-32.092000970667605,-14.948891628674408,18.87539628744926,1.9618591569011283,-18.545268894973066,0.0,0.012092000970667606,0.0,0.0,0.0,0.0,0.0
1757903875.8792272,0.0,-20.0,0.0,0.0,0.0,0.0,-10.119493751731108,-31.899339353973392,-14.846453805775683,18.7215154330802,1.8103474840713591,-18.578505492151987,0.0,0.011899339353973392,0.0,0.0,0.0,0.0,0.0
1757903875.9392788,0.0,-20.0,0.0,0.0,0.0,0.0,-10.190775970423644,-31.636390344069916,-15.061977943865683,18.68180025843518,1.8721731898569942,-18.498919863668668,0.0,0.011636390344069917,0.0,0.0,0.0,0.0,0.0
1757903875.9892945,0.0,-20.0,0.0,0.0,0.0,0.0,-10.21496780064283,-31.539161438902774,-15.373882856739563,18.76825089920204,1.989920387896122,-18.428348925277874,0.0,0.011539161438902774,0.0,0.0,0.0,0.0,0.0
1757903876.0491817,0.0,-20.0,0.0,0.0,0.0,0.0,-10.38157783982858,-30.96904171603332,-15.582920332231215,18.557892575451028,2.004481469191626,-18.2496612997474,0.0,0.01096904171603332,0.0,0.0,0.0,0.0,0.0
1757903876.1096246,0.0,-20.0,0.0,0.0,0.0,0.0,-10.547245099720506,-30.8336609863305,-15.388898878769167,18.421217708167223,1.8484521390082271,-18.262518306774446,0.0,0.0108336609863305,0.0,0.0,0.0,0.0,0.0
1757903876.169019,0.0,-20.0,0.0,0.0,0.0,0.0,-10.58025654973663,-30.87132541855961,-15.501307787819595,18.490272753679367,1.8806535949027583,-18.282470729231743,0.0,0.010871325418559612,0.0,0.0,0.0,0.0,0.0
1757903876.2198608,0.0,-20.0,0.0,0.0,0.0,0.0,-10.507498237790896,-31.17636431116651,-15.7456624280289,18.721100209599584,2.0115025287280623,-18.37245694106225,0.0,0.011176364311166509,0.0,0.0,0.0,0.0,0.0
1757903876.2797315,0.0,-20.0,0.0,0.0,0.0,0.0,-10.199936125672325,-31.73692458469018,-15.731525939388337,18.941347558661533,2.1347815116155395,-18.4776855107016,0.0,0.01173692458469018,0.0,0.0,0.0,0.0,0.0
1757903876.3390784,0.0,-20.0,0.0,0.0,0.0,0.0,-10.38867470557033,-31.830521487158812,-15.719928629975565,18.966912786887878,2.0454356874189905,-18.621898557535474,0.0,0.011830521487158812,0.0,0.0,0.0,0.0,0.0
1757903876.3890898,0.0,-20.0,0.0,0.0,0.0,0.0,-10.298053202606372,-32.02385333193229,-16.053339632790767,19.185741759871146,2.2239369752615357,-18.659824513767315,0.0,0.012023853331932286,0.0,0.0,0.0,0.0,0.0
1757903876.449304,0.0,-20.0,0.0,0.0,0.0,0.0,-10.071247160004607,-32.133276986380935,-16.158162301470373,19.30007485400113,2.362888483154904,-18.57398633772947,0.0,0.012133276986380935,0.0,0.0,0.0,0.0,0.0
1757903876.5091512,0.0,-20.0,0.0,0.0,0.0,0.0,-9.439745587041687,-31.658443788066048,-15.495393694173782,18.7849524922582,2.3539522995431237,-18.050828733001254,0.0,0.01165844378806605,0.0,0.0,0.0,0.0,0.0
1757903876.5593708,0.0,-20.0,0.0,0.0,0.0,0.0,-9.282370786982904,-31.931981939083464,-15.388548414175053,18.820881245821344,2.371044705459374,-18.074843921433025,0.0,0.011931981939083463,0.0,0.0,0.0,0.0,0.0
1757903876.619699,0.0,-20.0,0.0,0.0,0.0,0.0,-9.358156246751731,-31.88711331597431,-15.203575592422482,18.731573009994378,2.2582184800561107,-18.1184044853854,0.0,0.01188711331597431,0.0,0.0,0.0,0.0,0.0
1757903876.679446,0.0,-20.0,0.0,0.0,0.0,0.0,-9.724949726965555,-31.835468193825022,-15.637137971888027,18.918065973241532,2.272463080376201,-18.24424186737529,0.0,0.011835468193825022,0.0,0.0,0.0,0.0,0.0
1757903876.7395353,0.0,-20.0,0.0,0.0,0.0,0.0,-10.237542906139186,-31.80649173661193,-16.10713050146347,19.100692463597305,2.248340662425479,-18.467330706866484,0.0,0.011806491736611932,0.0,0.0,0.0,0.0,0.0
1757903876.7990196,0.0,-20.0,0.0,0.0,0.0,0.0,-10.272877176620304,-33.04798659504885,-16.09401663391897,19.673487042685515,2.2228055890013647,-19.015058250294494,0.0,0.013047986595048848,0.0,0.0,0.0,0.0,0.0
1757903876.8493245,0.0,-20.0,0.0,0.0,0.0,0.0,-10.39324108403826,-32.92963186445464,-15.8096137538204,19.483433505556036,2.0578970379074377,-19.080737735423966,0.0,0.012929631864454642,0.0,0.0,0.0,0.0,0.0
1757903876.9090424,0.0,-20.0,0.0,0.0,0.0,0.0,-10.486048655791278,-33.6715821134361,-16.23869398872851,19.994577700307765,2.19830255562778,-19.412183507418,0.0,0.013671582113436102,0.0,0.0,0.0,0.0,0.0
1757903876.9593976,0.0,-20.0,0.0,0.0,0.0,0.0,-10.517401419566076,-33.18268720752812,-16.581629794283614,19.904481243361783,2.3348032645644397,-19.188745194805904,0.0,0.013182687207528118,0.0,0.0,0.0,0.0,0.0
1757903877.0097764,0.0,-20.0,0.0,0.0,0.0,0.0,-10.367588170601007,-32.96719780711928,-16.53795894706291,19.747806202765446,2.3800234550382777,-18.970991282973795,0.0,0.012967197807119277,0.0,0.0,0.0,0.0,0.0
1757903877.0690866,0.0,-20.0,0.0,0.0,0.0,0.0,-9.988221456864457,-32.62973598261115,-16.69325314165927,19.62660123404826,2.6144671472228236,-18.658631789752647,0.0,0.012629735982611152,0.0,0.0,0.0,0.0,0.0
1757903877.1191206,0.0,-20.0,0.0,0.0,0.0,0.0,-10.026187853393383,-32.65600250585689,-16.766981544974076,19.663574063037505,2.6324551434637646,-18.68256471289782,0.0,0.01265600250585689,0.0,0.0,0.0,0.0,0.0
1757903877.182261,0.0,-20.0,0.0,0.0,0.0,0.0,-9.803830524479158,-32.096670137743104,-16.465418439293508,19.317647088250627,2.5993697169124785,-18.375717342967285,0.0,0.012096670137743104,0.0,0.0,0.0,0.0,0.0
1757903877.239174,0.0,-20.0,0.0,0.0,0.0,0.0,-9.366604084163598,-31.63339352910037,-16.627455571191987,19.080686648272284,2.862719858460771,-17.91817120677942,0.0,0.01163339352910037,0.0,0.0,0.0,0.0,0.0
1757903877.289292,0.0,-20.0,0.0,0.0,0.0,0.0,-8.690804168543417,-31.317912627078105,-16.470831112239512,18.85841698506207,3.0927774931323864,-17.435757018442445,0.0,0.011317912627078104,0.0,0.0,0.0,0.0,0.0
1757903877.3491933,0.0,-20.0,0.0,0.0,0.0,0.0,-8.836037634222023,-31.302545899904587,-16.590123820482376,18.863009449733415,3.0892377866814833,-17.521152593733515,0.0,0.011302545899904587,0.0,0.0,0.0,0.0,0.0
1757903877.4090612,0.0,-20.0,0.0,0.0,0.0,0.0,-9.66374811945887,-32.295360390648945,-17.12462945074897,19.544806215437973,2.9416195261363223,-18.25913647268254,0.0,0.012295360390648945,0.0,0.0,0.0,0.0,0.0
1757903877.4691696,0.0,-20.0,0.0,0.0,0.0,0.0,-10.297381059182218,-32.732522778910095,-17.611229324391346,19.939971057380177,2.856359631767637,-18.66960742009586,0.0,0.012732522778910096,0.0,0.0,0.0,0.0,0.0
1757903877.519692,0.0,-20.0,0.0,0.0,0.0,0.0,-10.63267656803805,-32.64371143935523,-17.80948798838996,19.934860534788886,2.8002476641071534,-18.821853204475893,0.0,0.01264371143935523,0.0,0.0,0.0,0.0,0.0
1757903877.5795567,0.0,-20.0,0.0,0.0,0.0,0.0,-10.14847191759476,-33.00598631426806,-17.975768910869007,20.19794401478175,3.080244822132176,-18.743664471377166,0.0,0.013005986314268057,0.0,0.0,0.0,0.0,0.0
1757903877.639232,0.0,-20.0,0.0,0.0,0.0,0.0,-10.343631149946033,-32.75579798897949,-17.92340168465171,20.031318229016875,2.98352430577083,-18.7208274733997,0.0,0.012755797988979488,0.0,0.0,0.0,0.0,0.0
1757903877.6990535,0.0,-20.0,0.0,0.0,0.0,0.0,-10.615173619850369,-33.075211263345146,-17.978565234195322,20.25275148636612,2.8865296024185594,-18.996974300355117,0.0,0.013075211263345146,0.0,0.0,0.0,0.0,0.0
1757903877.74934,0.0,-20.0,0.0,0.0,0.0,0.0,-10.596828769106763,-32.81847157146742,-17.72888690361771,20.026128242994048,2.7912657992315744,-18.893726271373218,0.0,0.01281847157146742,0.0,0.0,0.0,0.0,0.0
1757903877.8092012,0.0,-20.0,0.0,0.0,0.0,0.0,-10.096878652164092,-33.17070603220376,-17.427339658644478,20.06558851342974,2.8783215078085296,-18.79060901949173,0.0,0.013170706032203761,0.0,0.0,0.0,0.0,0.0
1757903877.868967,0.0,-20.0,0.0,0.0,0.0,0.0,-10.268965000999474,-32.865755125019064,-17.23175931854568,19.83891946275711,2.7242898647464715,-18.73612060988253,0.0,0.012865755125019064,0.0,0.0,0.0,0.0,0.0
1757903877.9197993,0.0,-20.0,0.0,0.0,0.0,0.0,-10.49236301653127,-32.63478541541495,-17.49220993350164,19.87422317660253,2.7321083412434066,-18.740362109434134,0.0,0.012634785415414953,0.0,0.0,0.0,0.0,0.0
1757903877.9795823,0.0,-20.0,0.0,0.0,0.0,0.0,-10.351018429916865,-32.27703279837064,-17.42659163705699,19.663861336488104,2.7745967635103046,-18.538459399489,0.0,0.01227703279837064,0.0,0.0,0.0,0.0,0.0
1757903878.0390315,0.0,-20.0,0.0,0.0,0.0,0.0,-10.775450957225559,-32.326474442899205,-17.47808450652779,19.666214997850584,2.602988019009199,-18.741043413057813,0.0,0.012326474442899206,0.0,0.0,0.0,0.0,0.0
1757903878.099078,0.0,-20.0,0.0,0.0,0.0,0.0,-10.711214032183092,-32.55560575287029,-17.64318003115058,19.82972494243079,2.7000671714006907,-18.812349505656844,0.0,0.012555605752870293,0.0,0.0,0.0,0.0,0.0
1757903878.1497843,0.0,-20.0,0.0,0.0,0.0,0.0,-10.306796691326504,-32.497363584199825,-17.67095544570565,19.79930712473,2.893370456877784,-18.594613009783924,0.0,0.012497363584199825,0.0,0.0,0.0,0.0,0.0
1757903878.2090302,0.0,-20.0,0.0,0.0,0.0,0.0,-10.59992685359064,-32.5633775663876,-17.639729025785137,19.7906147157843,2.75429512688806,-18.744254037097253,0.0,0.0125633775663876,0.0,0.0,0.0,0.0,0.0
1757903878.2593086,0.0,-20.0,0.0,0.0,0.0,0.0,-10.819914381361325,-32.686427806237695,-17.6917372962607,19.85565797806485,2.67715239314382,-18.88146847406871,0.0,0.012686427806237697,0.0,0.0,0.0,0.0,0.0
1757903878.3093758,0.0,-20.0,0.0,0.0,0.0,0.0,-10.804484625734304,-32.027053811686336,-17.760582146884538,19.560569196885588,2.718722507551261,-18.605809976561453,0.0,0.012027053811686337,0.0,0.0,0.0,0.0,0.0
1757903878.369132,0.0,-20.0,0.0,0.0,0.0,0.0,-10.86726924292162,-31.93606147006455,-17.908908636684554,19.541565657420907,2.756369070698165,-18.558375265789763,0.0,0.011936061470064551,0.0,0.0,0.0,0.0,0.0
1757903878.4193282,0.0,-20.0,0.0,0.0,0.0,0.0,-11.18717550255298,-32.1878176803972,-17.761930964186543,19.59190783123559,2.5537684690393667,-18.800497773519883,0.0,0.012187817680397202,0.0,0.0,0.0,0.0,0.0
1757903878.4797351,0.0,-20.0,0.0,0.0,0.0,0.0,-10.711644773303846,-32.17969908007536,-17.862528542818755,19.635517386158245,2.803892213789644,-18.54921371318118,0.0,0.01217969908007536,0.0,0.0,0.0,0.0,0.0
1757903878.5423985,0.0,-20.0,0.0,0.0,0.0,0.0,-10.950494765719322,-31.981430906032855,-17.70590551056778,19.46109987873231,2.6329217027941274,-18.572159322463378,0.0,0.011981430906032856,0.0,0.0,0.0,0.0,0.0
1757903878.5992303,0.0,-20.0,0.0,0.0,0.0,0.0,-11.234307701222203,-32.8433751678265,-17.91865497413953,19.930597915217657,2.588101583657704,-19.043666816642574,0.0,0.012843375167826502,0.0,0.0,0.0,0.0,0.0
1757903878.6492875,0.0,-20.0,0.0,0.0,0.0,0.0,-11.024212069027307,-32.833411295053736,-17.776454918700562,19.869190705971295,2.6156867686895,-18.927073951078732,0.0,0.012833411295053736,0.0,0.0,0.0,0.0,0.0
1757903878.7092686,0.0,-20.0,0.0,0.0,0.0,0.0,-11.062258928092815,-32.785830467322114,-17.800184475103574,19.84101441482317,2.6147292306201813,-18.922404844973116,0.0,0.012785830467322115,0.0,0.0,0.0,0.0,0.0
1757903878.7690995,0.0,-20.0,0.0,0.0,0.0,0.0,-11.314558045652245,-32.43215807866446,-17.86482544935278,19.747609011024643,2.525346473579666,-18.919510343430698,0.0,0.012432158078664457,0.0,0.0,0.0,0.0,0.0
1757903878.8195057,0.0,-20.0,0.0,0.0,0.0,0.0,-11.356337901918014,-32.024854336035446,-17.79956343097309,19.52651258909225,2.486176487238545,-18.777900886240875,0.0,0.012024854336035446,0.0,0.0,0.0,0.0,0.0
1757903878.8794744,0.0,-20.0,0.0,0.0,0.0,0.0,-11.341404776626103,-31.83389322893082,-17.73286459207341,19.391352178992737,2.4658294798330704,-18.688663349333847,0.0,0.011833893228930819,0.0,0.0,0.0,0.0,0.0
1757903878.9395058,0.0,-20.0,0.0,0.0,0.0,0.0,-11.316378650592032,-31.756704599010433,-17.671478754005147,19.331094918004247,2.446288268435848,-18.654242157775176,0.0,0.011756704599010433,0.0,0.0,0.0,0.0,0.0
1757903878.999053,0.0,-20.0,0.0,0.0,0.0,0.0,-11.234471753916976,-31.4466223860482,-17.51634003514368,19.091197228749955,2.4044886024050607,-18.459881016531906,0.0,0.011446622386048202,0.0,0.0,0.0,0.0,0.0
1757903879.0493305,0.0,-20.0,0.0,0.0,0.0,0.0,-11.339924558019652,-31.049690981339687,-17.303287108143355,18.82490672963094,2.2654609461842257,-18.35723010407248,0.0,0.011049690981339687,0.0,0.0,0.0,0.0,0.0
1757903879.1094055,0.0,-20.0,0.0,0.0,0.0,0.0,-11.212167774316534,-31.452258365168458,-17.392482027666112,19.020112184987568,2.352829298151354,-18.459220807923245,0.0,0.011452258365168458,0.0,0.0,0.0,0.0,0.0
1757903879.159416,0.0,-20.0,0.0,0.0,0.0,0.0,-11.137061293801006,-31.88786399446741,-17.34498070528376,19.186989999916467,2.357966689936244,-18.622778015053917,0.0,0.01188786399446741,0.0,0.0,0.0,0.0,0.0
1757903879.2197561,0.0,-20.0,0.0,0.0,0.0,0.0,-11.23297339293238,-32.60018620532514,-17.19357916395029,19.41600375026424,2.2494586772719134,-18.961483731644975,0.0,0.012600186205325138,0.0,0.0,0.0,0.0,0.0
1757903879.2795615,0.0,-20.0,0.0,0.0,0.0,0.0,-11.353588447365944,-33.64656997164906,-17.416225330096704,19.937521673275434,2.2913449400111046,-19.392852413809443,0.0,0.013646569971649057,0.0,0.0,0.0,0.0,0.0
1757903879.3390296,0.0,-20.0,0.0,0.0,0.0,0.0,-11.177915369867291,-33.86157957181269,-17.36530343305721,20.00399633007877,2.3446960612376424,-19.395687993063376,0.0,0.013861579571812692,0.0,0.0,0.0,0.0,0.0
1757903879.3991795,0.0,-20.0,0.0,0.0,0.0,0.0,-11.472707848455016,-33.43295487235639,-17.244170342475957,19.71168849960277,2.1697579351669014,-19.333875714488816,0.0,0.01343295487235639,0.0,0.0,0.0,0.0,0.0
1757903879.4493365,0.0,-20.0,0.0,0.0,0.0,0.0,-11.350170556233836,-33.57787770354237,-17.346514126211982,19.852049423944486,2.251720248141281,-19.33862621162855,0.0,0.01357787770354237,0.0,0.0,0.0,0.0,0.0
1757903879.5092454,0.0,-20.0,0.0,0.0,0.0,0.0,-11.059084702257579,-33.6306116213601,-17.455778792517496,19.907253387334077,2.422967924703541,-19.193940512830427,0.0,0.013630611621360103,0.0,0.0,0.0,0.0,0.0
1757903879.559327,0.0,-20.0,0.0,0.0,0.0,0.0,-11.223198020212699,-33.42553365233332,-17.197690812183346,19.68985292907554,2.2398941049826036,-19.16928315886049,0.0,0.013425533652333321,0.0,0.0,0.0,0.0,0.0
1757903879.6190443,0.0,-20.0,0.0,0.0,0.0,0.0,-11.094349043240886,-33.4039369313622,-17.16416551017839,19.653464993091564,2.2845723919533216,-19.083783064991845,0.0,0.013403936931362204,0.0,0.0,0.0,0.0,0.0
1757903879.679092,0.0,-20.0,0.0,0.0,0.0,0.0,-11.108271424778781,-33.499276956155086,-17.133256057504504,19.652002463461514,2.267439704926681,-19.1280459932872,0.0,0.013499276956155087,0.0,0.0,0.0,0.0,0.0
1757903879.7392051,0.0,-20.0,0.0,0.0,0.0,0.0,-10.988983519148697,-33.15231948043896,-16.896502420971533,19.36235517281923,2.218999173930714,-18.941070145769114,0.0,0.013152319480438962,0.0,0.0,0.0,0.0,0.0
1757903879.7894723,0.0,-20.0,0.0,0.0,0.0,0.0,-11.201716757481487,-32.794621289000375,-16.819701494601016,19.116509844070656,2.0968477878726555,-18.88276752393518,0.0,0.012794621289000375,0.0,0.0,0.0,0.0,0.0
1757903879.8490877,0.0,-20.0,0.0,0.0,0.0,0.0,-11.038655167078645,-33.11301438646692,-16.917153076549543,19.288765232300328,2.2034719331600727,-18.908737145008136,0.0,0.013113014386466922,0.0,0.0,0.0,0.0,0.0
1757903879.9091132,0.0,-20.0,0.0,0.0,0.0,0.0,-11.241975050539917,-32.63851585643592,-16.872967111487192,19.05351425102972,2.102764974162025,-18.812017430794786,0.0,0.012638515856435923,0.0,0.0,0.0,0.0,0.0
1757903879.9592092,0.0,-20.0,0.0,0.0,0.0,0.0,-11.396354399429086,-32.46124792809214,-16.817044770077132,18.932385856282174,2.0011430754933235,-18.77358334226835,0.0,0.012461247928092143,0.0,0.0,0.0,0.0,0.0
1757903880.0194733,0.0,-20.0,0.0,0.0,0.0,0.0,-11.64841973451889,-32.445849774513285,-16.96266232591862,18.949134454612643,1.9500520622288389,-18.814737262217946,0.0,0.012445849774513285,0.0,0.0,0.0,0.0,0.0
1757903880.0792778,0.0,-20.0,0.0,0.0,0.0,0.0,-11.777119052931798,-32.52493733632035,-16.928634939562475,18.9612876039629,1.882267574469389,-18.92807431940529,0.0,0.01252493733632035,0.0,0.0,0.0,0.0,0.0
1757903880.1392694,0.0,-20.0,0.0,0.0,0.0,0.0,-11.773000390164047,-32.671968178096826,-16.985198933024105,19.03875417146356,1.9102366440356515,-18.975294201405557,0.0,0.012671968178096826,0.0,0.0,0.0,0.0,0.0
1757903880.1989746,0.0,-20.0,0.0,0.0,0.0,0.0,-11.830677293062305,-31.618456046593963,-16.78507179778152,18.472737700493543,1.8012320075277208,-18.553159348391823,0.0,0.011618456046593962,0.0,0.0,0.0,0.0,0.0
1757903880.249304,0.0,-20.0,0.0,0.0,0.0,0.0,-11.867901888418038,-32.091380280897255,-16.6943018997938,18.671258902846503,1.7407239818116347,-18.767163013428316,0.0,0.012091380280897256,0.0,0.0,0.0,0.0,0.0
1757903880.3116813,0.0,-20.0,0.0,0.0,0.0,0.0,-11.899263250596908,-31.735506440313603,-16.391792834209415,18.377425554574575,1.5946580783397877,-18.629566158905472,0.0,0.011735506440313603,0.0,0.0,0.0,0.0,0.0
1757903880.3689065,0.0,-20.0,0.0,0.0,0.0,0.0,-12.078604595653669,-31.224802324897336,-16.325861001727922,18.112960434075575,1.4915291679056795,-18.48710844578248,0.0,0.011224802324897335,0.0,0.0,0.0,0.0,0.0
1757903880.4190726,0.0,-20.0,0.0,0.0,0.0,0.0,-11.888419340149055,-30.748665404298183,-15.970629025146025,17.734120760113107,1.4210308921819883,-18.163889104036187,0.0,0.010748665404298183,0.0,0.0,0.0,0.0,0.0
1757903880.4794827,0.0,-20.0,0.0,0.0,0.0,0.0,-11.641935691137375,-30.517519499378604,-15.688615840325848,17.507118989708143,1.413257964518146,-17.974743630608245,0.0,0.010517519499378604,0.0,0.0,0.0,0.0,0.0
1757903880.5392077,0.0,-20.0,0.0,0.0,0.0,0.0,-11.442830816009103,-30.374294857233537,-15.488112099553373,17.348676238403076,1.4150672797859571,-17.810151964070435,0.0,0.010374294857233537,0.0,0.0,0.0,0.0,0.0
1757903880.598983,0.0,-20.0,0.0,0.0,0.0,0.0,-11.445208630228798,-30.367443018544865,-15.123094271384229,17.199671450315392,1.260630192571451,-17.815796523954326,0.0,0.010367443018544866,0.0,0.0,0.0,0.0,0.0
1757903880.6494215,0.0,-20.0,0.0,0.0,0.0,0.0,-11.594175469375918,-30.364877035847407,-15.067458523623262,17.180622341462513,1.1717959606081791,-17.884845693784317,0.0,0.010364877035847406,0.0,0.0,0.0,0.0,0.0
1757903880.7105324,0.0,-20.0,0.0,0.0,0.0,0.0,-11.838378704760508,-30.723985866118134,-15.050343848757397,17.327280851495797,1.0627364497015772,-18.1510829070862,0.0,0.010723985866118134,0.0,0.0,0.0,0.0,0.0
1757903880.7697854,0.0,-20.0,0.0,0.0,0.0,0.0,-11.860265780674444,-30.686455700371507,-15.07456409298911,17.319245985932692,1.059238240122155,-18.120081541611295,0.0,0.010686455700371507,0.0,0.0,0.0,0.0,0.0
1757903880.8291023,0.0,-20.0,0.0,0.0,0.0,0.0,-11.901702193673131,-30.71216044719648,-15.001390993654304,17.298490581609496,1.006556301041473,-18.15014280327108,0.0,0.010712160447196481,0.0,0.0,0.0,0.0,0.0
1757903880.8792636,0.0,-20.0,0.0,0.0,0.0,0.0,-12.195112764008794,-31.120612553205323,-15.42625771864,17.64901952146088,1.0584292748576396,-18.44067337375547,0.0,0.011120612553205324,0.0,0.0,0.0,0.0,0.0
1757903880.9392512,0.0,-20.0,0.0,0.0,0.0,0.0,-12.539686045734523,-31.426207507809345,-15.534249515305119,17.79049213073989,0.9546066796273394,-18.710248995605564,0.0,0.011426207507809346,0.0,0.0,0.0,0.0,0.0
1757903880.989827,0.0,-20.0,0.0,0.0,0.0,0.0,-12.639393094048494,-31.420251230079852,-15.554367915842594,17.79406253894041,0.917896678076713,-18.716069645393386,0.0,0.011420251230079852,0.0,0.0,0.0,0.0,0.0
1757903881.0502222,0.0,-20.0,0.0,0.0,0.0,0.0,-12.578938432262664,-31.295557384114936,-15.377375373104943,17.672172935438013,0.8694947797032854,-18.611877894249414,0.0,0.011295557384114936,0.0,0.0,0.0,0.0,0.0
1757903881.1095827,0.0,-20.0,0.0,0.0,0.0,0.0,-11.9598373837241,-31.59849610495925,-14.86375850187284,17.57367251811954,0.9230007095181471,-18.49110455480759,0.0,0.01159849610495925,0.0,0.0,0.0,0.0,0.0
1757903881.1690445,0.0,-20.0,0.0,0.0,0.0,0.0,-11.936679422178198,-31.668093154020188,-14.77683504188791,17.586991179536643,0.890720914665267,-18.498708278820875,0.0,0.011668093154020188,0.0,0.0,0.0,0.0,0.0
1757903881.2193074,0.0,-20.0,0.0,0.0,0.0,0.0,-11.745130369857915,-31.29296908629042,-14.520613032289548,17.31678482539166,0.8669171662016009,-18.239876285764463,0.0,0.01129296908629042,0.0,0.0,0.0,0.0,0.0
1757903881.2700279,0.0,-20.0,0.0,0.0,0.0,0.0,-12.093550371903572,-31.47487877540572,-14.614505278795109,17.430862598418926,0.7585000624243425,-18.46740015636105,0.0,0.011474878775405721,0.0,0.0,0.0,0.0,0.0
1757903881.329083,0.0,-20.0,0.0,0.0,0.0,0.0,-11.835562559160987,-32.099801010731376,-14.678396999186587,17.717946502953357,0.8956463016396522,-18.609267995259778,0.0,0.012099801010731376,0.0,0.0,0.0,0.0,0.0
1757903881.3791375,0.0,-20.0,0.0,0.0,0.0,0.0,-11.33012887985199,-32.034031897030346,-14.267822468417267,17.488923803320226,0.9455934394205702,-18.352969615275548,0.0,0.012034031897030346,0.0,0.0,0.0,0.0,0.0
1757903881.4390082,0.0,-20.0,0.0,0.0,0.0,0.0,-11.471095392610247,-31.788217974103897,-14.035494918744416,17.281768647630294,0.7860844401308602,-18.333077107452855,0.0,0.011788217974103898,0.0,0.0,0.0,0.0,0.0
1757903881.4894679,0.0,-20.0,0.0,0.0,0.0,0.0,-11.098295437973144,-31.949123469118383,-13.872965850629715,17.29393811985529,0.8792515732095401,-18.255704204230582,0.0,0.011949123469118384,0.0,0.0,0.0,0.0,0.0
1757903881.5497305,0.0,-20.0,0.0,0.0,0.0,0.0,-11.275901600942642,-32.159513082444334,-13.61591426715406,17.2640623247948,0.6929846563114821,-18.398145085118816,0.0,0.012159513082444335,0.0,0.0,0.0,0.0,0.0
1757903881.609067,0.0,-20.0,0.0,0.0,0.0,0.0,-11.259905934698997,-31.980883367406406,-13.361907478137779,17.067600550744817,0.5904272404032554,-18.275806173545995,0.0,0.011980883367406407,0.0,0.0,0.0,0.0,0.0
1757903881.659132,0.0,-20.0,0.0,0.0,0.0,0.0,-11.381534798391279,-32.226204040439775,-13.410228477515123,17.174916462460843,0.5552731504576598,-18.420528073419437,0.0,0.012226204040439776,0.0,0.0,0.0,0.0,0.0
1757903881.7191124,0.0,-20.0,0.0,0.0,0.0,0.0,-11.086357416453556,-32.0804591939038,-13.445716178996676,17.127630023226445,0.6986645768535885,-18.226619395861313,0.0,0.0120804591939038,0.0,0.0,0.0,0.0,0.0
1757903881.7691693,0.0,-20.0,0.0,0.0,0.0,0.0,-11.382589218343476,-31.545928628164674,-13.266575132121188,16.789695638991198,0.4981196223697531,-18.12376901105318,0.0,0.011545928628164673,0.0,0.0,0.0,0.0,0.0
1757903881.8198225,0.0,-20.0,0.0,0.0,0.0,0.0,-10.774526482234913,-29.82140279754041,-12.892626314899553,15.865012770705253,0.6033626021733653,-17.10275941171547,0.0,0.009821402797540412,0.0,0.0,0.0,0.0,0.0
1757903881.879561,0.0,-20.0,0.0,0.0,0.0,0.0,-9.175132181185981,-27.597583658081316,-11.88007793319866,14.434576226783147,0.8844900890955009,-15.474890546333139,0.0,0.007597583658081316,0.0,0.0,0.0,0.0,0.0
1757903881.9391642,0.0,-20.0,0.0,0.0,0.0,0.0,-7.018603927312332,-21.762445232054606,-9.564948832213226,10.920918031828394,0.8467062915181777,-12.127570558082434,0.0,0.0017624452320546063,0.0,0.0,0.0,0.0,0.0
1757903881.9892023,0.0,-20.0,0.0,0.0,0.0,0.0,-5.3610354584671205,-18.50080647125056,-8.263739181161997,9.003052191811602,1.0126081008496755,-9.987247657716715,0.0,-0.0014991935287494407,0.0,0.0,0.0,0.0,0.0
1757903882.0494094,0.0,-15.532312359729858,0.0,0.0,0.0,0.0,-3.3726295110314264,-14.187552444198602,-5.217835426664455,5.990446125211702,0.5959919841885041,-7.266586787422939,0.0,-0.001344759915531256,0.0,0.0,0.0,0.0,0.0
1757903882.1092696,0.0,-9.03507604362718,0.0,0.0,0.0,0.0,-3.0653595550498656,-11.137937047358719,-1.9143632509334836,3.4910005093094854,-0.6210859390734635,-5.949133663576906,0.0,0.0021028610037315387,0.0,0.0,0.0,0.0,0.0
1757903882.1690788,0.0,-7.659380845018496,0.0,0.0,0.0,0.0,-3.0414150210103506,-6.747533854919531,-0.3692872305108996,0.9863132944889198,-1.255498224656209,-4.187989907486408,0.0,-0.0009118469900989643,0.0,0.0,0.0,0.0,-0.8079644978460981
1757903882.219299,0.0,-7.7055801991843325,0.0,0.0,0.0,0.0,-3.0790132528272247,-5.4740019615302336,-0.14082606961844274,0.3370805112944538,-1.3772883019907551,-3.694826800944858,0.0,-0.0022315782376540988,0.0,0.0,0.0,0.0,0.0
1757903882.279041,0.0,-6.915300527271375,0.0,0.0,0.0,0.0,-2.7645479207020665,-5.1650217801476614,0.09325135569331873,0.1990968304163264,-1.3486400747575917,-3.357923218014384,0.0,-0.0017502787471237139,0.0,0.0,0.0,0.0,0.0
1757903882.3293467,0.0,-5.351470583429047,0.0,0.0,0.0,0.0,-2.1128303060272793,-5.386171192572429,0.3436074544908787,0.36879290557082617,-1.1319995608788174,-3.0969233172887165,0.0,3.470060914338191e-05,0.0,0.0,0.0,0.0,0.0
1757903882.3890467,0.0,-4.530051634789889,0.0,0.0,0.0,0.0,-1.7806445862618936,-5.657198396782844,0.33574351465697316,0.5422859624401671,-0.9593121474825805,-3.0577195306696954,0.0,0.0011271467619929547,0.0,0.0,0.0,0.0,0.0
1757903882.439131,0.0,-5.1592414918512945,0.0,0.0,0.0,0.0,-1.9952403875073297,-5.507454674287617,0.5271237420739048,0.40841861342085684,-1.1148453706546793,-3.126038159602938,0.0,0.0003482131824363224,0.0,0.0,0.0,0.0,0.0
1757903882.489986,0.0,-4.963891071785197,0.0,0.0,0.0,0.0,-1.9263568451004915,-5.1605609024702055,0.4812313756835558,0.2540700026856775,-1.0606813075653285,-2.990698306078855,0.0,0.00019666983068500877,0.0,0.0,0.0,0.0,0.0
1757903882.5496573,0.0,-5.697861222226226,0.0,0.0,0.0,0.0,-2.2596041286500204,-3.5608871020337522,0.2978066201877967,-0.41696927217564395,-1.1465261772053799,-2.5525689915208294,0.0,-0.0021369741201924743,0.0,0.0,0.0,0.0,0.0
1757903882.609045,0.0,-4.0,0.0,0.0,0.0,0.0,-1.4760734964556164,-2.5508941900689583,-0.4496453252314818,-0.410343606469353,-0.47945989200775085,-1.7667421658933917,0.0,-0.0014491058099310417,0.0,0.0,0.0,0.0,0.0
1757903882.6590486,0.0,-4.0,0.0,0.0,0.0,0.0,-1.4854838282302991,-1.7862941111474857,-0.5549242424053269,-0.6004349634690195,-0.4144806717910462,-1.4459024253324708,0.0,-0.0022137058888525144,0.0,0.0,0.0,0.0,0.0
1757903882.719135,0.0,-4.0,0.0,0.0,0.0,0.0,-0.8199134342430012,1.7657841111649366,-1.1519123143649597,-1.732410507914823,0.16250290261199032,0.2893924161465816,0.0,-0.005765784111164937,0.0,0.0,0.0,0.0,0.0
1757903882.7790632,0.0,-4.644924845373988,0.0,0.0,0.0,0.0,0.6864338905767849,5.370000791495549,-1.7265169576158903,-2.8919315172503888,1.0887680810960925,2.380035557104974,0.0,-0.010014925636869539,0.0,0.0,0.0,0.0,0.0
1757903882.8294857,0.0,-5.7485136220201305,0.0,0.0,0.0,0.0,1.0686537921337045,6.189948264252568,-2.0359873502962667,-2.9838032997554462,1.380185083144491,2.8468169839386746,0.0,-0.011938461886272698,0.0,0.0,0.0,0.0,0.0
1757903882.8894296,0.0,-6.309595739880607,0.0,0.0,0.0,0.0,1.4086560520879865,7.000992202832579,-2.0941460959138,-3.2380627570210807,1.557113739588272,3.2692349777883845,0.0,-0.013310587942713187,0.0,0.0,0.0,0.0,0.0
1757903882.9491715,0.0,-8.387179843810166,0.0,0.0,0.0,0.0,1.8115531098058026,7.38116301235595,-2.8237282177184495,-2.9468721435731817,2.028664195272647,3.616915456621295,0.0,-0.01576834285616612,0.0,0.0,0.0,0.0,0.0
1757903883.0096748,0.0,-8.697508569126535,0.0,0.0,0.0,0.0,1.853210692527439,7.688076826820803,-2.9443292918263566,-2.9629093405845346,2.0970109330145266,3.7724783238780817,0.0,-0.01638558539594734,0.0,0.0,0.0,0.0,0.0
1757903883.0689688,0.0,-8.807125678519373,0.0,0.0,0.0,0.0,1.750315568092046,8.03839145589231,-3.057265027251035,-3.024709197980667,2.1005586971238124,3.8808125695697413,0.0,-0.016845517134411684,0.0,0.0,0.0,0.0,0.0
1757903883.119077,0.0,-9.019740453130686,0.0,0.0,0.0,0.0,1.7911794080300178,8.0831818934859,-3.1318670442635304,-2.984711773737576,2.155559207243767,3.9236605688322452,0.0,-0.01710292234661659,0.0,0.0,0.0,0.0,0.0
1757903883.1790507,0.0,-9.150968328894002,0.0,0.0,0.0,0.0,1.6598606877236715,7.672152709916058,-3.2624067671547143,-2.652957950324509,2.1571944787479325,3.739899886380182,0.0,-0.016823121038810063,0.0,0.0,0.0,0.0,0.0
1757903883.2389612,0.0,-9.012096173180106,0.0,0.0,0.0,0.0,1.5528814298790217,7.3914528500316035,-3.253216816365071,-2.49624598489244,2.1144949820005547,3.5727792721407456,0.0,-0.01640354902321171,0.0,0.0,0.0,0.0,0.0
1757903883.2894664,0.0,-8.609432550470975,0.0,0.0,0.0,0.0,1.288932487514419,7.43427722848139,-3.193466088313349,-2.522772744722389,1.980635266533493,3.4492282907802974,0.0,-0.016043709778952364,0.0,0.0,0.0,0.0,0.0
1757903883.3396504,0.0,-8.830948712458694,0.0,0.0,0.0,0.0,1.403133235162949,7.305968010156024,-3.241746743703662,-2.439830355282581,2.0547563230285144,3.4390083140347567,0.0,-0.01613691672261472,0.0,0.0,0.0,0.0,0.0
1757903883.3989952,0.0,-9.48960774923663,0.0,0.0,0.0,0.0,1.59328406370902,6.681132848314328,-3.445267874901802,-2.0539394547463763,2.2193134629964053,3.2948269369389283,0.0,-0.016170740597550956,0.0,0.0,0.0,0.0,0.0
1757903883.4491878,0.0,-9.384505729069291,0.0,0.0,0.0,0.0,1.827354630962293,6.343753572399491,-3.27899476933559,-1.9942659838602286,2.2568402545838504,3.2506364422817544,0.0,-0.015728259301468782,0.0,0.0,0.0,0.0,0.0
1757903883.5090117,0.0,-9.345452754154149,0.0,0.0,0.0,0.0,1.9191537371656149,6.59704653259533,-3.207934987175338,-2.123801824237532,2.2780925371072773,3.3724123228314706,0.0,-0.01594249928674948,0.0,0.0,0.0,0.0,0.0
1757903883.5597045,0.0,-9.840166558203505,0.0,0.0,0.0,0.0,2.2228949654619945,7.0689322766515295,-3.2482854608906493,-2.263753767529477,2.433791260456791,3.683770912147732,0.0,-0.016909098834855033,0.0,0.0,0.0,0.0,0.0
1757903883.6192982,0.0,-9.744758503397886,0.0,0.0,0.0,0.0,2.3035651318922885,6.544806223964174,-3.14439797249924,-2.043270563650337,2.4224118880119367,3.5255907686896153,0.0,-0.01628956472736206,0.0,0.0,0.0,0.0,0.0
1757903883.6791067,0.0,-9.287892654985036,0.0,0.0,0.0,0.0,2.368930957133605,7.135477482013304,-2.861915113279578,-2.3805674811921835,2.3374525533365342,3.7835158721254425,0.0,-0.01642337013699834,0.0,0.0,0.0,0.0,0.0
1757903883.7291958,0.0,-9.161295016209241,0.0,0.0,0.0,0.0,2.498784805611352,7.204825893269549,-2.6804415149540355,-2.4699127846908446,2.3209639393125183,3.8522190676886985,0.0,-0.01636612090947879,0.0,0.0,0.0,0.0,0.0
1757903883.7792003,0.0,-9.938675074005005,0.0,0.0,0.0,0.0,2.8365411375691463,6.113828642022481,-2.785389798778921,-1.9302535229662183,2.5045387647545487,3.586426942820262,0.0,-0.016052503716027487,0.0,0.0,0.0,0.0,0.0
1757903883.839409,0.0,-8.921058763029755,0.0,0.0,0.0,0.0,2.555610509259142,5.706893417933277,-2.4904821295309527,-1.8903091548330142,2.2605989622770664,3.265269758022454,0.0,-0.014627952180963032,0.0,0.0,0.0,0.0,0.0
1757903883.8990507,0.0,-9.308533847640385,0.0,0.0,0.0,0.0,3.048007922741768,5.219656731413159,-2.1385640242298307,-1.8322628660358695,2.3280717237245248,3.328798179660081,0.0,-0.014528190579053543,0.0,0.0,0.0,0.0,0.0
1757903883.9492996,0.0,-9.705778249133946,0.0,0.0,0.0,0.0,3.2767553311476343,6.406120214158532,-2.082118038732055,-2.3678746747294075,2.411204560921929,3.886866675351802,0.0,-0.016111898463292477,0.0,0.0,0.0,0.0,0.0
1757903884.009202,0.0,-10.385069999040894,0.0,0.0,0.0,0.0,3.6091461448021587,6.99173922510444,-2.0566994741712747,-2.5817039491420504,2.5360538854137054,4.307636124876404,0.0,-0.017376809224145334,0.0,0.0,0.0,0.0,0.0
1757903884.0691578,0.0,-10.565278840418197,0.0,0.0,0.0,0.0,3.8122413804789286,7.627498018088291,-1.8239611764207786,-2.9706342974006925,2.535841433804844,4.639910993270436,0.0,-0.01819277685850649,0.0,0.0,0.0,0.0,0.0
1757903884.119659,0.0,-11.03646636454393,0.0,0.0,0.0,0.0,4.053117329277836,7.701249709510051,-1.7495183010249473,-3.035142774726795,2.6106665601825223,4.790303978777011,0.0,-0.018737716074053983,0.0,0.0,0.0,0.0,0.0
1757903884.1790318,0.0,-11.413574259403571,0.0,0.0,0.0,0.0,4.188870317582463,7.119359805083145,-1.8156304256273537,-2.7156620547146844,2.70490285513264,4.5928917281456885,0.0,-0.01853293406448672,0.0,0.0,0.0,0.0,0.0
1757903884.229056,0.0,-11.789279846427133,0.0,0.0,0.0,0.0,4.279036726055365,6.876525649552402,-1.981863714953444,-2.5274352925825,2.8139832372557207,4.533092125684387,0.0,-0.018665805495979532,0.0,0.0,0.0,0.0,0.0
1757903884.2792218,0.0,-11.222951402587077,0.0,0.0,0.0,0.0,4.131051988775812,6.711813707830922,-1.7570291903108548,-2.567348260565268,2.6646947587263,4.376498599621775,0.0,-0.017934765110418,0.0,0.0,0.0,0.0,0.33867389660810254
1757903884.329257,0.0,-10.667100632369765,0.0,0.0,0.0,0.0,3.949691238661768,6.808892319616181,-1.61426914218634,-2.66014090664189,2.529355165941791,4.311759723401968,0.0,-0.017475992951985944,0.0,0.0,0.0,0.0,0.0
1757903884.3794312,0.0,-11.653226415495824,0.0,0.0,0.0,0.0,4.255774603317604,6.703095371301495,-1.9015815176548287,-2.462872692550877,2.782253265488353,4.425240068683814,0.0,-0.01835632178679732,0.0,0.0,0.0,0.0,0.0
1757903884.4389777,0.0,-11.851728990732184,0.0,0.0,0.0,0.0,4.300119825724852,6.63381667438468,-1.9957771157045445,-2.3676558570634763,2.8429546619925774,4.414884330866567,0.0,-0.018485545665116863,0.0,0.0,0.0,0.0,0.0
1757903884.4890375,0.0,-11.901462394566213,0.0,0.0,0.0,0.0,4.342757654984112,6.209364209034785,-1.9502884634742357,-2.2177047879281218,2.847012259036389,4.241804719743065,0.0,-0.018110826603601,0.0,0.0,0.0,0.0,0.0
1757903884.5390618,0.0,-11.675104883263653,0.0,0.0,0.0,0.0,4.272829151282144,5.454911247753186,-1.8847341694749957,-1.8979435798905377,2.786933892911901,3.9127728714881482,0.0,-0.017130016131016838,0.0,0.0,0.0,0.0,0.0
1757903884.5892477,0.0,-11.401165548141975,0.0,0.0,0.0,0.0,4.194102457958264,5.095233017155119,-1.7909094642473617,-1.7636958646806218,2.7180756990657198,3.7126404093435363,0.0,-0.016496398565297093,0.0,0.0,0.0,0.0,0.0
1757903884.6491168,0.0,-11.19261896404285,0.0,0.0,0.0,0.0,4.105371183981391,5.664160916975188,-1.7860242231323444,-1.9694046344357001,2.683024095480062,3.9283178825729235,0.0,-0.01685677988101804,0.0,0.0,0.0,0.0,0.0
1757903884.7090719,0.0,-10.717568269460626,0.0,0.0,0.0,0.0,3.8923558431654475,6.308329775231048,-1.7967106411060412,-2.2147452930372187,2.597084072556789,4.079831364842002,0.0,-0.01702589804469167,0.0,0.0,0.0,0.0,0.0
1757903884.7591832,0.0,-11.368158410085524,0.0,0.0,0.0,0.0,4.1066438388895765,6.429359452414955,-1.952711059629152,-2.1537654153890067,2.750191329636916,4.252772219155251,0.0,-0.017797517862500476,0.0,0.0,0.0,0.0,0.0
1757903884.8199239,0.0,-10.860706287238969,0.0,0.0,0.0,0.0,3.9721818349668383,5.967991925899836,-1.759136731236948,-2.037288899550377,2.614613491686962,3.988659476878217,0.0,-0.016828698213138808,0.0,0.0,0.0,0.0,0.0
1757903884.879134,0.0,-10.516067462672806,0.0,0.0,0.0,0.0,3.8389613955002417,5.449356967405156,-1.719419490577137,-1.8121886858512357,2.544828649868233,3.7111835140224,0.0,-0.01596542443007796,0.0,0.0,0.0,0.0,0.0
1757903884.9293458,0.0,-10.40763082980335,0.0,0.0,0.0,0.0,3.8067730801074218,5.547446277802407,-1.6850766851645562,-1.8796761899259014,2.5187597059005626,3.713615064482693,0.0,-0.015955077107605756,0.0,0.0,0.0,0.0,0.0
1757903884.989138,0.0,-11.096713095866821,0.0,0.0,0.0,0.0,4.023739923501369,5.050335969770298,-1.8738846477673998,-1.5637887286681775,2.6869755046968313,3.6301513079603147,0.0,-0.01614704906563712,0.0,0.0,0.0,0.0,0.0
1757903885.0491614,0.0,-10.388520615165676,0.0,0.0,0.0,0.0,3.947083440409155,4.353188099876318,-1.2992113014915594,-1.565078560305416,2.4061203383940004,3.3185516377189446,0.0,-0.014741708715041995,0.0,0.0,0.0,0.0,0.0
1757903885.0992084,0.0,-10.454843191340535,0.0,0.0,0.0,0.0,3.9658486546913325,4.15881540923839,-1.3268925476337832,-1.443207050463554,2.4161079370262355,3.2726155389359683,0.0,-0.014613658600578927,0.0,0.0,0.0,0.0,0.0
1757903885.1593618,0.0,-10.812971374032886,0.0,0.0,0.0,0.0,4.1466193437765675,4.184323083748405,-1.229960978048791,-1.5047512309541125,2.453559849497472,3.366689505707904,0.0,-0.01499729445778129,0.0,0.0,0.0,0.0,0.0
1757903885.219712,0.0,-10.514138652838701,0.0,0.0,0.0,0.0,4.033602683074727,4.159232648210911,-1.190624732176794,-1.5015882963793008,2.3867863343926143,3.292691815929457,0.0,-0.014673371301049613,0.0,0.0,0.0,0.0,0.0
1757903885.2792497,0.0,-10.775923434105652,0.0,0.0,0.0,0.0,4.146421914017946,3.9318650681901324,-1.1774843727986075,-1.4033314868093127,2.4353419752474754,3.261851077309714,0.0,-0.014707788502295784,0.0,0.0,0.0,0.0,0.0
1757903885.3390942,0.0,-11.618803691996897,0.0,0.0,0.0,0.0,4.460704346033266,4.737089187631981,-1.3044434117989376,-1.6435195702538459,2.6302886183038847,3.768920811997438,0.0,-0.01635589287962888,0.0,0.0,0.0,0.0,0.0
1757903885.3990695,0.0,-12.160960806522874,0.0,0.0,0.0,0.0,4.673575252999745,3.6557905370866353,-1.349047513097314,-1.1229510556691433,2.728836391284509,3.4669491103701624,0.0,-0.01581675134360951,0.0,0.0,0.0,0.0,0.0
1757903885.4495,0.0,-11.371464416671525,0.0,0.0,0.0,0.0,4.420430108633331,3.9949221147970233,-1.0721147939601363,-1.4175528889877484,2.510332400272179,3.4275953810953474,0.0,-0.015366386531468549,0.0,0.0,0.0,0.0,0.0
1757903885.5089602,0.0,-11.012768577452112,0.0,0.0,0.0,0.0,4.316035281045187,3.9344002342028763,-0.8813687827781574,-1.439965438961604,2.377110871570952,3.3813026562697157,0.0,-0.014947168811654988,0.0,0.0,0.0,0.0,0.0
1757903885.5596194,0.0,-12.218897940341229,0.0,0.0,0.0,0.0,4.833098266237766,4.4685387517962765,-0.7275959380903122,-1.7439529534046612,2.5462118400988554,3.8282438384417943,0.0,-0.016687436692137507,0.0,0.0,0.0,0.0,0.0
1757903885.6192575,0.0,-12.15362780058774,0.0,0.0,0.0,0.0,4.826820836641142,3.464847979960107,-0.5792301834348584,-1.3341129769354274,2.474834320440819,3.4215541027043277,0.0,-0.015618475780547847,0.0,0.0,0.0,0.0,0.0
1757903885.6790001,0.0,-12.857594775949606,0.0,0.0,0.0,0.0,5.136728790083617,2.2726090527474145,-0.2546689708825085,-0.9867276272073902,2.472306331569245,3.064533664461499,0.0,-0.01513020382869702,0.0,0.0,0.0,0.0,0.0
1757903885.7290273,0.0,-12.456069838311755,0.0,0.0,0.0,0.0,4.982284332299658,1.9812374110355404,0.037828069278351154,-0.9699210421599554,2.272560626965752,2.867983044370498,0.0,-0.014437307249347296,0.0,0.0,0.0,0.0,0.0
1757903885.7891343,0.0,-12.785534288374759,0.0,0.0,0.0,0.0,5.099803053022548,1.9715299629326992,0.3836544625766416,-1.1272764005759353,2.181082413352817,2.933776811285944,0.0,-0.014757064251307458,0.0,0.0,0.0,0.0,0.0
1757903885.8491344,0.0,-13.311115245477678,0.0,0.0,0.0,0.0,5.311375355105989,2.02901963770445,0.3728512970540071,-1.127602258095095,2.2832955219214783,3.075752972151904,0.0,-0.015340134883182128,0.0,0.0,0.0,0.0,0.0
1757903885.908948,0.0,-12.872241343296544,0.0,0.0,0.0,0.0,5.114130467703074,2.6270463331518035,0.5973316594010274,-1.5068619413542945,2.1065329780807294,3.2181633810293837,0.0,-0.015499287676448347,0.0,0.0,0.0,0.0,0.0
1757903885.959828,0.0,-13.534311808019726,0.0,0.0,0.0,0.0,5.393772258583303,2.701444587170748,0.4643664514255311,-1.4627653962069003,2.287716755250747,3.410793230307436,0.0,-0.016235756395190475,0.0,0.0,0.0,0.0,0.0
1757903886.0212107,0.0,-13.680573238954956,0.0,0.0,0.0,0.0,5.44670564423008,2.837012218089963,0.5279120083289235,-1.5284419559718176,2.287036153734791,3.4860093619331307,0.0,-0.01651758545704492,0.0,0.0,0.0,0.0,0.0
1757903886.0791006,0.0,-13.872402594774977,0.0,0.0,0.0,0.0,5.4894490823608,1.7830080675163333,0.8105043938260241,-1.2201530533543647,2.196259777082352,3.0771667101556055,0.0,-0.01565541066229131,0.0,0.0,0.0,0.0,0.0
1757903886.1389613,0.0,-13.930050999256586,0.0,0.0,0.0,0.0,5.501720110226728,1.2871672701424908,0.8823191958861079,-1.0258439680493199,2.1675027294046796,2.904775283566147,0.0,-0.015217218269399077,0.0,0.0,0.0,0.0,0.0
1757903886.1892807,0.0,-13.36551989979371,0.0,0.0,0.0,0.0,5.247058099556406,1.4347805020499125,1.0248516236824703,-1.1430181673354531,1.9961950346885302,2.823396969344551,0.0,-0.014800300401843623,0.0,0.0,0.0,0.0,0.0
1757903886.2491958,0.0,-13.758218755387219,0.0,0.0,0.0,0.0,5.423497907744464,1.1778400595009555,0.933725749921038,-0.9461068028676181,2.1144977814529513,2.8178959899146694,0.0,-0.014936058814888175,0.0,0.0,0.0,0.0,0.0
1757903886.308952,0.0,-13.964558754902265,0.0,0.0,0.0,0.0,5.379919641999333,-0.01584713142003326,1.5026273126389582,-0.7353329275944889,1.8589012580871274,2.322334019302288,0.0,-0.013948711623482232,0.0,0.0,0.0,0.0,0.0
1757903886.3595273,0.0,-13.540321356006784,0.0,0.0,0.0,0.0,5.169552363817125,-0.07598223272326614,1.615604142598711,-0.7695851601394395,1.7160987538512256,2.188472664866265,0.0,-0.013464339123283518,0.0,0.0,0.0,0.0,0.0
1757903886.4194791,0.0,-13.914964612446669,0.0,0.0,0.0,0.0,5.32823095949655,0.013021243772314992,1.6093953115270865,-0.8049297258797018,1.7889271528090234,2.309584633713871,0.0,-0.013927985856218983,0.0,0.0,0.0,0.0,0.0
1757903886.4790819,0.0,-13.67883199743759,0.0,0.0,0.0,0.0,5.191152231279649,-0.22095625933604465,1.7290487795143052,-0.7840347456425676,1.668970147593455,2.1506068625257813,0.0,-0.013457875738101545,0.0,0.0,0.0,0.0,0.0
1757903886.5390146,0.0,-14.056498813151222,0.0,0.0,0.0,0.0,5.303124235110411,-0.870906213629955,1.8682876567713276,-0.5844712522688477,1.6579602355338188,1.9502489718564369,0.0,-0.013185592599521269,0.0,0.0,0.0,0.0,0.0
1757903886.589066,0.0,-13.266823330153743,0.0,0.0,0.0,0.0,4.905305412122796,-2.588668838259118,2.02468639980632,0.08127630286178089,1.4164444462659938,1.0362541411954542,0.0,-0.010678154491894626,0.0,0.0,0.0,0.0,0.0
1757903886.6492121,0.0,-13.223558077607192,0.0,0.0,0.0,0.0,4.912870833359456,-4.00336050916104,1.9600250742840108,0.72236505305288,1.4435248124148625,0.48804688635986426,0.0,-0.009220197568446152,0.0,0.0,0.0,0.0,0.0
1757903886.7090707,0.0,-13.014027911060806,0.0,0.0,0.0,0.0,4.513461636910528,-5.663800862639064,2.593656038744552,1.115194925555281,1.0079592687626253,-0.4094308529428312,0.0,-0.007350227048421741,0.0,0.0,0.0,0.0,0.0
1757903886.7596993,0.0,-12.482659327949047,0.0,0.0,0.0,0.0,4.230703848292211,-7.238415556614987,2.6517598631223787,1.8082396667943637,0.8656578694579752,-1.2166270112965525,0.0,-0.005244243771334061,0.0,0.0,0.0,0.0,0.0
1757903886.8191924,0.0,-11.467574812987525,0.0,0.0,0.0,0.0,3.795752044882535,-8.828077774968937,2.5754824690540223,2.545095198601003,0.7037964946054638,-2.0764517799092355,0.0,-0.002639497038018588,0.0,0.0,0.0,0.0,0.0
1757903886.8693187,0.0,-10.307038342647276,0.0,0.0,0.0,0.0,3.427560975080504,-9.506125766816073,2.2911639106780126,3.023268475059985,0.6561256416236096,-2.5443482956647103,0.0,-0.0008009125758312034,0.0,0.0,0.0,0.0,0.0
1757903886.9290037,0.0,-9.98542318833393,0.0,0.0,0.0,0.0,3.009193731203956,-9.27376101090551,2.626431283719704,2.6644237123811756,0.33499211491867065,-2.6576183570340293,0.0,-0.0007116621774284209,0.0,0.0,0.0,0.0,0.0
1757903886.9823463,0.0,-9.874437152994627,0.0,0.0,0.0,0.0,2.358576042628147,-8.487530550335892,3.168255119981826,2.041721500108221,-0.17202550510781378,-2.6379215633325175,0.0,-0.0013869066026587352,0.0,0.0,0.0,0.0,0.0
1757903887.0389485,0.0,-11.063090324941781,0.0,0.0,0.0,0.0,2.0890592501480882,-8.376842950310987,3.9010955199048873,1.6507441184663993,-0.5920337405134357,-2.6987260452143,0.0,-0.002686247374630794,0.0,0.0,0.0,0.0,0.0
1757903887.0890977,0.0,-11.756452677848674,0.0,0.0,0.0,0.0,2.0224367628241513,-7.564030406257496,4.245470323888345,1.159389616275386,-0.7621320775787156,-2.413709021851488,0.0,-0.004192422271591179,0.0,0.0,0.0,0.0,0.0
1757903887.1490655,0.0,-12.336533380258873,0.0,0.0,0.0,0.0,2.53658439312798,-7.437150327876922,4.232747163639495,1.1348299192189863,-0.5296326576049066,-2.1238603827595877,0.0,-0.0048993830523819505,0.0,0.0,0.0,0.0,0.0
1757903887.2089534,0.0,-9.533610538084869,0.0,0.0,0.0,0.0,2.7337835590266835,-10.805390482713284,2.6587185325070912,3.3737168869101555,0.22866962429575075,-3.469307053986224,0.0,0.001271779944628415,0.0,0.0,0.0,0.0,0.0
1757903887.2593539,0.0,-4.0,0.0,0.0,0.0,0.0,0.9921292119968249,-14.471973357235171,0.3278212125568698,5.8727890639599964,0.4395729665040955,-5.911981329591668,0.0,0.010471973357235171,0.0,0.0,0.0,0.0,0.0
