time,lam_star_Fx,lam_star_Fy,lam_star_Fz,lam_star_Tx,lam_star_Ty,lam_star_Tz,meas_Fx,meas_Fy,meas_Fz,meas_Tx,meas_Ty,men_tas_Tz,v_final_Fx,v_final_Fy,v_final_Fz,v_final_Tx,v_final_Ty,v_final_Tz,v_object_x
1757902543.292049,0.0,-4.0,0.0,0.0,0.0,0.0,0.0,0.0,0.0,0.0,0.0,0.0,0.0,-0.004,0.0,0.0,0.0,0.0,0.0
1757902543.3423421,0.0,-4.0,0.0,0.0,0.0,0.0,1.156901958388224,-7.459250652535364,0.2779819918906055,2.2876207736941048,0.3933399104117058,-2.452029213584632,0.0,0.0034592506525353644,0.0,0.0,0.0,0.0,0.0
1757902543.392426,0.0,-4.0,0.0,0.0,0.0,0.0,1.1665897861114385,-7.464191612247108,0.2914630278251203,2.287407270583383,0.3956759627293112,-2.450644503337774,0.0,0.0034641916122471078,0.0,0.0,0.0,0.0,0.0
1757902543.451876,0.0,-4.0,0.0,0.0,0.0,0.0,1.114714168058193,-7.472468340916729,0.2901188994017869,2.2883207791077336,0.37151979244879846,-2.4800535774519314,0.0,0.0034724683409167287,0.0,0.0,0.0,0.0,0.0
1757902543.5018995,0.0,-4.0,0.0,0.0,0.0,0.0,1.1831413043639971,-7.49476676312907,0.2733068220033499,2.308373137160114,0.4066632753039385,-2.4489185143236845,0.0,0.0034947667631290706,0.0,0.0,0.0,0.0,0.0
1757902543.562116,0.0,-4.0,0.0,0.0,0.0,0.0,1.142873870683478,-7.506004466240039,0.23696361619700432,2.3294692344824277,0.4027490438834336,-2.4752947031429673,0.0,0.0035060044662400393,0.0,0.0,0.0,0.0,0.0
1757902543.6126463,0.0,-4.0,0.0,0.0,0.0,0.0,0.75157410712526,-6.68050595635615,0.2521414497506869,1.8625418101174658,0.22569243820236407,-2.3828888079472237,0.0,0.00268050595635615,0.0,0.0,0.0,0.0,0.0
1757902543.6723487,0.0,-4.0,0.0,0.0,0.0,0.0,0.008288131705428706,-4.885253262699848,-0.4212598140590619,1.1158273803988064,0.17881287055255038,-2.038957686002199,0.0,0.0008852532626998482,0.0,0.0,0.0,0.0,0.0
1757902543.732003,0.0,-4.0,0.0,0.0,0.0,0.0,-0.2970413726641314,-4.416619767207317,-0.6604145487410095,0.9582121709549555,0.15073580424945193,-1.980320572194244,0.0,0.0004166197672073171,0.0,0.0,0.0,0.0,0.0
1757902543.7918458,0.0,-4.0,0.0,0.0,0.0,0.0,-0.5768163230873845,-3.5305343203770896,-0.7039044831338885,0.5343278482846237,0.0606038979554311,-1.7772119711839562,0.0,-0.00046946567962291043,0.0,0.0,0.0,0.0,0.0
1757902543.8420856,0.0,-4.0,0.0,0.0,0.0,0.0,-0.6053108971904259,-3.821191014367518,-0.7017406049208607,0.7311345730181062,0.04407022902165744,-1.9027433905063562,0.0,-0.00017880898563248194,0.0,0.0,0.0,0.0,0.0
1757902543.8921196,0.0,-4.0,0.0,0.0,0.0,0.0,-0.4368553428666303,-3.926156197099602,-0.5506722489408802,0.7724519815880239,0.07336106063708511,-1.8766421433847102,0.0,-7.384380290039782e-05,0.0,0.0,0.0,0.0,0.0
1757902543.9425905,0.0,-4.0,0.0,0.0,0.0,0.0,-0.25714767771499464,-4.1953875249304895,-0.5850932844884024,0.9356191537366509,0.16637348380521044,-1.8807867863374996,0.0,0.0001953875249304895,0.0,0.0,0.0,0.0,0.0
1757902544.0020425,0.0,-4.0,0.0,0.0,0.0,0.0,-0.27891922402565833,-4.100884716189815,-0.4737257535734241,0.8430194374088036,0.11767141687169227,-1.8676251991155195,0.0,0.00010088471618981476,0.0,0.0,0.0,0.0,0.0
1757902544.0619688,0.0,-4.0,0.0,0.0,0.0,0.0,-0.30825810545184734,-4.121944339223401,-0.45918114018387424,0.8452998595761098,0.10049446916626337,-1.896154359977074,0.0,0.00012194433922340143,0.0,0.0,0.0,0.0,0.0
1757902544.112448,0.0,-4.0,0.0,0.0,0.0,0.0,-0.3172144279907359,-4.06128209944906,-0.4820668041034297,0.8161808441888173,0.10122464016397936,-1.8839305766639918,0.0,6.128209944905994e-05,0.0,0.0,0.0,0.0,0.0
1757902544.1718822,0.0,-4.0,0.0,0.0,0.0,0.0,-0.3993262424374306,-4.0924676729149905,-0.4768566712252652,0.8107622905704532,0.052746963780226475,-1.9333441480119893,0.0,9.246767291499047e-05,0.0,0.0,0.0,0.0,0.0
1757902544.2220986,0.0,-4.0,0.0,0.0,0.0,0.0,-0.3813444162288193,-3.9840839737629703,-0.47712111359314613,0.7553131968542358,0.06329020611525804,-1.8857749061416804,0.0,-1.59160262370297e-05,0.0,0.0,0.0,0.0,0.0
1757902544.2825923,0.0,-4.0,0.0,0.0,0.0,0.0,-0.4432370348762706,-4.042293714276194,-0.5021453323983635,0.7838008893837345,0.03958358926559542,-1.9384789116635044,0.0,4.229371427619366e-05,0.0,0.0,0.0,0.0,0.0
1757902544.3420541,0.0,-4.0,0.0,0.0,0.0,0.0,-0.3702025414522425,-4.1730384076122515,-0.4924038230261458,0.8334066398326928,0.06808776896538737,-1.951936230255427,0.0,0.00017303840761225155,0.0,0.0,0.0,0.0,0.0
1757902544.3926907,0.0,-4.0,0.0,0.0,0.0,0.0,-0.4094782643066488,-4.256337760229226,-0.38454314055128486,0.8044912380437246,0.003034505954150667,-1.997872541935949,0.0,0.00025633776022922564,0.0,0.0,0.0,0.0,0.0
1757902544.4517615,0.0,-4.0,0.0,0.0,0.0,0.0,-0.41755771493238986,-4.0528229983175175,-0.42113200355588254,0.7225575664650696,0.014544582254446102,-1.933384211407911,0.0,5.282299831751747e-05,0.0,0.0,0.0,0.0,0.0
1757902544.5021884,0.0,-4.0,0.0,0.0,0.0,0.0,-0.5114392154487919,-3.8735809848069565,-0.4921013528018081,0.6770473520344729,0.0011512694257754547,-1.91582867970953,0.0,-0.00012641901519304356,0.0,0.0,0.0,0.0,0.0
1757902544.5619862,0.0,-4.0,0.0,0.0,0.0,0.0,-0.4446681791878133,-3.7572588503765045,-0.5444071511255545,0.663080500848263,0.04966289837503138,-1.8379895611566988,0.0,-0.00024274114962349546,0.0,0.0,0.0,0.0,0.0
1757902544.61222,0.0,-4.0,0.0,0.0,0.0,0.0,-0.3795054141044541,-3.953273268212995,-0.5474418190032386,0.7820408942667665,0.0760309474809551,-1.8735322641759247,0.0,-4.672673178700482e-05,0.0,0.0,0.0,0.0,0.0
1757902544.6723003,0.0,-4.0,0.0,0.0,0.0,0.0,-0.3440151280888487,-3.897506747861099,-0.5152623385495605,0.7584984853060408,0.0812363365111165,-1.8395466559589644,0.0,-0.00010249325213890082,0.0,0.0,0.0,0.0,0.0
1757902544.7318776,0.0,-4.0,0.0,0.0,0.0,0.0,-0.3229402170098811,-3.9632311928680792,-0.5105927396856766,0.8004675969952646,0.09295432293465153,-1.852042906533618,0.0,-3.6768807131920765e-05,0.0,0.0,0.0,0.0,0.0
1757902544.782755,0.0,-4.0,0.0,0.0,0.0,0.0,-0.29657262530308703,-3.9586842612412045,-0.5287393791264632,0.8230813929334315,0.11424267181031686,-1.840119038620806,0.0,-4.1315738758795464e-05,0.0,0.0,0.0,0.0,0.0
1757902544.8421192,0.0,-4.0,0.0,0.0,0.0,0.0,-0.257066249494146,-3.9492326511395945,-0.5218984405227831,0.8386221214297923,0.13946828818665355,-1.826153968233244,0.0,-5.076734886040546e-05,0.0,0.0,0.0,0.0,0.0
1757902544.9023054,0.0,-4.0,0.0,0.0,0.0,0.0,-0.28565818170784035,-4.017156943676915,-0.4689073835547908,0.8385326019749073,0.11092731351144708,-1.868543782195741,0.0,1.7156943676915225e-05,0.0,0.0,0.0,0.0,0.0
1757902544.9621055,0.0,-4.0,0.0,0.0,0.0,0.0,-0.2947061561849378,-4.053079440907581,-0.41624040029686304,0.8228554111935462,0.08807489714126501,-1.8904882146131332,0.0,5.307944090758099e-05,0.0,0.0,0.0,0.0,0.0
1757902545.022012,0.0,-4.0,0.0,0.0,0.0,0.0,-0.3271848087399461,-4.218613337874701,-0.315998382308255,0.8264038592422263,0.03082455207739991,-1.9762770703986097,0.0,0.00021861333787470105,0.0,0.0,0.0,0.0,0.0
1757902545.0723734,0.0,-4.0,0.0,0.0,0.0,0.0,-0.36751051472568524,-4.148825273998393,-0.24639653206478274,0.7507074055059281,-0.015335353558689452,-1.9755129921845884,0.0,0.0001488252739983933,0.0,0.0,0.0,0.0,0.0
1757902545.1317914,0.0,-4.0,0.0,0.0,0.0,0.0,-0.36684777596052254,-4.09133849444458,-0.3217033316276204,0.740610537744505,0.0035955994761741744,-1.9477424730765716,0.0,9.133849444457987e-05,0.0,0.0,0.0,0.0,0.0
1757902545.1819031,0.0,-4.0,0.0,0.0,0.0,0.0,-0.442206971873495,-4.001847446244122,-0.3974471329056868,0.7364752576634763,-0.002931091616765214,-1.9502047069959703,0.0,1.8474462441222528e-06,0.0,0.0,0.0,0.0,0.0
1757902545.2319033,0.0,-4.0,0.0,0.0,0.0,0.0,-0.42537174331781,-3.816744442739473,-0.47684475173426427,0.6921878265607413,0.03339386188703584,-1.8668543162813966,0.0,-0.000183255557260527,0.0,0.0,0.0,0.0,0.0
1757902545.2930014,0.0,-4.0,0.0,0.0,0.0,0.0,-0.3928005399475977,-3.8709243019792705,-0.5508991809051085,0.7527319299553212,0.06963782264212112,-1.8561225371790921,0.0,-0.0001290756980207295,0.0,0.0,0.0,0.0,0.0
1757902545.3518696,0.0,-4.0,0.0,0.0,0.0,0.0,-0.40203738035747033,-3.873197619125208,-0.5206669255281113,0.7649619726010601,0.06101468688367089,-1.8716910244425469,0.0,-0.0001268023808747918,0.0,0.0,0.0,0.0,0.0
1757902545.4020429,0.0,-4.0,0.0,0.0,0.0,0.0,-0.37628134254867635,-3.9039385198182286,-0.4507064610306885,0.7583146392184079,0.052371605239009994,-1.8727071631846042,0.0,-9.606148018177141e-05,0.0,0.0,0.0,0.0,0.0
1757902545.452229,0.0,-4.0,0.0,0.0,0.0,0.0,-0.3294388885393368,-3.977322974236291,-0.3598012325147399,0.7612256187719477,0.04287010011075545,-1.8871736752887989,0.0,-2.267702576370878e-05,0.0,0.0,0.0,0.0,0.0
1757902545.5118473,0.0,-4.0,0.0,0.0,0.0,0.0,-0.255733950794103,-4.144241380672027,-0.3797558245153745,0.8634932534483704,0.08509849064167342,-1.912960940826938,0.0,0.0001442413806720273,0.0,0.0,0.0,0.0,0.0
1757902545.56209,0.0,-4.0,0.0,0.0,0.0,0.0,-0.20060556818712189,-4.026583869000775,-0.3906282200290427,0.8148835627572149,0.11260593531783934,-1.8421525765851376,0.0,2.658386900077492e-05,0.0,0.0,0.0,0.0,0.0
1757902545.6124065,0.0,-4.0,0.0,0.0,0.0,0.0,-0.30219951561273045,-4.022233879794626,-0.3850690691817029,0.8066986989368488,0.0646860541424023,-1.8913656433770916,0.0,2.2233879794626433e-05,0.0,0.0,0.0,0.0,0.0
1757902545.6718504,0.0,-4.0,0.0,0.0,0.0,0.0,-0.2880799376956384,-3.9808693243796687,-0.4095666536079991,0.793966129031833,0.0790238025077521,-1.8688128971550675,0.0,-1.913067562033133e-05,0.0,0.0,0.0,0.0,0.0
1757902545.7221916,0.0,-4.0,0.0,0.0,0.0,0.0,-0.34091547712927806,-3.9598747819928306,-0.3701303491613294,0.7565757152202469,0.039677978373724956,-1.8892209882026922,0.0,-4.01252180071694e-05,0.0,0.0,0.0,0.0,0.0
1757902545.773015,0.0,-4.0,0.0,0.0,0.0,0.0,-0.3352555392753867,-4.027037524861804,-0.3591954605686255,0.7792799458843515,0.037216686543358385,-1.9151932494191604,0.0,2.7037524861803774e-05,0.0,0.0,0.0,0.0,0.0
1757902545.8325288,0.0,-4.0,0.0,0.0,0.0,0.0,-0.3085832079339066,-4.190485300536364,-0.25843131939059966,0.7908686976129395,0.010714939342077184,-1.9593776893789063,0.0,0.0001904853005363636,0.0,0.0,0.0,0.0,0.0
1757902545.892504,0.0,-4.0,0.0,0.0,0.0,0.0,-0.2960139420479561,-4.100450638300291,-0.30241510445791425,0.7579714272534345,0.030951390795630754,-1.9201700694958677,0.0,0.00010045063830029122,0.0,0.0,0.0,0.0,0.0
1757902545.942732,0.0,-4.0,0.0,0.0,0.0,0.0,-0.3788651725703453,-4.068782862647484,-0.3145541231045575,0.7432790189750905,-0.003685350871504304,-1.950499394557515,0.0,6.87828626474838e-05,0.0,0.0,0.0,0.0,0.0
1757902546.0019498,0.0,-4.0,0.0,0.0,0.0,0.0,-0.49011195012723235,-3.8538305883940236,-0.3774781741543104,0.6650658651673347,-0.03721975076174337,-1.9237601789824863,0.0,-0.0001461694116059764,0.0,0.0,0.0,0.0,0.0
1757902546.0619423,0.0,-4.0,0.0,0.0,0.0,0.0,-0.48871788730380605,-3.7590105100842077,-0.4176294253969012,0.6420440444246902,-0.020132280372732292,-1.8833828627256142,0.0,-0.00024098948991579228,0.0,0.0,0.0,0.0,0.0
1757902546.1121185,0.0,-4.0,0.0,0.0,0.0,0.0,-0.42583457443282735,-3.8345883190602628,-0.4581336838655784,0.701743157325306,0.022816230460390215,-1.8734727161918987,0.0,-0.00016541168093973723,0.0,0.0,0.0,0.0,0.0
1757902546.172212,0.0,-4.0,0.0,0.0,0.0,0.0,-0.35291270376494266,-4.005158523113485,-0.3815070570992087,0.7692747799546309,0.0285674430735795,-1.8998315148708955,0.0,5.158523113484748e-06,0.0,0.0,0.0,0.0,0.0
1757902546.232046,0.0,-4.0,0.0,0.0,0.0,0.0,-0.24827488245505241,-4.088134719509144,-0.3691530259559025,0.8365265901708197,0.08157537997600854,-1.8884021877258717,0.0,8.813471950914398e-05,0.0,0.0,0.0,0.0,0.0
1757902546.2821186,0.0,-4.0,0.0,0.0,0.0,0.0,-0.22672859612199528,-4.010664017978309,-0.3873475344630737,0.8216097851501905,0.09812342632804413,-1.8512815090148327,0.0,1.0664017978308849e-05,0.0,0.0,0.0,0.0,0.0
1757902546.332178,0.0,-4.0,0.0,0.0,0.0,0.0,-0.3176309307232439,-3.930811028450414,-0.30144731965219373,0.731758507816128,0.02230909167238319,-1.865621276021099,0.0,-6.918897154958615e-05,0.0,0.0,0.0,0.0,0.0
1757902546.391938,0.0,-4.0,0.0,0.0,0.0,0.0,-0.25999837065469306,-3.937140340146975,-0.4138610281545939,0.7933526778902114,0.09339271127592755,-1.8417421959655038,0.0,-6.285965985302511e-05,0.0,0.0,0.0,0.0,0.0
1757902546.4423769,0.0,-4.0,0.0,0.0,0.0,0.0,-0.22424678258742142,-4.117208771238136,-0.4001834014133899,0.8745200322316504,0.10711910355178879,-1.8931628002382772,0.0,0.00011720877123813623,0.0,0.0,0.0,0.0,0.0
1757902546.4926453,0.0,-4.0,0.0,0.0,0.0,0.0,-0.29022040552516537,-4.129647279077437,-0.35858343040990465,0.8602152856881387,0.06324383374985615,-1.9365631644108086,0.0,0.000129647279077437,0.0,0.0,0.0,0.0,0.0
1757902546.551831,0.0,-4.0,0.0,0.0,0.0,0.0,-0.23347549069595766,-4.07232468708694,-0.3539503551188878,0.8227275134582883,0.08276380301334946,-1.8850999067810243,0.0,7.232468708694029e-05,0.0,0.0,0.0,0.0,0.0
1757902546.6023552,0.0,-4.0,0.0,0.0,0.0,0.0,-0.2861571910265392,-4.121637205094192,-0.3340603059768065,0.8192903716846205,0.04976666800624492,-1.9257456367785946,0.0,0.00012163720509419208,0.0,0.0,0.0,0.0,0.0
1757902546.6618571,0.0,-4.0,0.0,0.0,0.0,0.0,-0.3395393995050165,-3.993911778530499,-0.38166242238886855,0.7499980682575607,0.03407620362404171,-1.8962961482485716,0.0,-6.088221469501054e-06,0.0,0.0,0.0,0.0,0.0
1757902546.7127378,0.0,-4.0,0.0,0.0,0.0,0.0,-0.4139754389748247,-4.013317805870655,-0.4018562644195973,0.7691900916095189,0.005336535652465946,-1.9399740445629479,0.0,1.3317805870655341e-05,0.0,0.0,0.0,0.0,0.0
1757902546.7721407,0.0,-4.0,0.0,0.0,0.0,0.0,-0.345614723647231,-3.897028190414665,-0.40917647131179014,0.7115932487071409,0.04209367151578243,-1.8652995703885489,0.0,-0.00010297180958533492,0.0,0.0,0.0,0.0,0.0
1757902546.8324375,0.0,-4.0,0.0,0.0,0.0,0.0,-0.35268951142258825,-4.041340639167543,-0.4273827579784307,0.7891942781122812,0.044514659446963964,-1.9190354306704744,0.0,4.134063916754283e-05,0.0,0.0,0.0,0.0,0.0
1757902546.8935099,0.0,-4.0,0.0,0.0,0.0,0.0,-0.36293226873297135,-4.118098102160508,-0.3613012460945383,0.7960586048434997,0.009473326355132884,-1.9507087782596715,0.0,0.00011809810216050832,0.0,0.0,0.0,0.0,0.0
1757902546.952115,0.0,-4.0,0.0,0.0,0.0,0.0,-0.3619211689928273,-3.908107855625655,-0.4027812113028528,0.7202311798782911,0.030363945503906718,-1.8800138338491805,0.0,-9.1892144374345e-05,0.0,0.0,0.0,0.0,0.0
1757902547.0027223,0.0,-4.0,0.0,0.0,0.0,0.0,-0.4212694186731871,-3.872688691204213,-0.4586074203407378,0.7380723394190587,0.026408625720051496,-1.896674681298702,0.0,-0.0001273113087957869,0.0,0.0,0.0,0.0,0.0
1757902547.061818,0.0,-4.0,0.0,0.0,0.0,0.0,-0.35479949075273465,-3.8959050532177746,-0.4587886394995171,0.7565088915543303,0.058650372201481844,-1.8666311786233318,0.0,-0.00010409494678222542,0.0,0.0,0.0,0.0,0.0
1757902547.1126046,0.0,-4.0,0.0,0.0,0.0,0.0,-0.29776829244992314,-3.9758886304588508,-0.494992427720085,0.8249252902970242,0.09943263946256331,-1.8664631236717408,0.0,-2.411136954114923e-05,0.0,0.0,0.0,0.0,0.0
1757902547.1719043,0.0,-4.0,0.0,0.0,0.0,0.0,-0.2878282347374995,-4.013771384097593,-0.4571388671285741,0.8288779041788804,0.09000226576200171,-1.8755131289767863,0.0,1.3771384097593042e-05,0.0,0.0,0.0,0.0,0.0
1757902547.2325878,0.0,-4.0,0.0,0.0,0.0,0.0,-0.27586030348428353,-4.035662647768237,-0.4648629217070705,0.8427127225260898,0.10116386960869728,-1.8801758226908318,0.0,3.5662647768236686e-05,0.0,0.0,0.0,0.0,0.0
1757902547.2919395,0.0,-4.0,0.0,0.0,0.0,0.0,-0.27885975364410864,-3.978959424027683,-0.3856051200228914,0.7729879354466389,0.0682292828974789,-1.8625440476026407,0.0,-2.104057597231712e-05,0.0,0.0,0.0,0.0,0.0
1757902547.3420217,0.0,-4.0,0.0,0.0,0.0,0.0,-0.32057677026024173,-3.9316006480135126,-0.40957365792365774,0.7665872793642642,0.05765578880093004,-1.8672470978998938,0.0,-6.83993519864874e-05,0.0,0.0,0.0,0.0,0.0
1757902547.4023018,0.0,-4.0,0.0,0.0,0.0,0.0,-0.26728658886473655,-3.937233385082499,-0.4506221589246044,0.7956797078666868,0.09862563374358765,-1.8426581895721104,0.0,-6.276661491750079e-05,0.0,0.0,0.0,0.0,0.0
1757902547.4628901,0.0,-4.0,0.0,0.0,0.0,0.0,-0.2623570033839063,-4.096160126540274,-0.4087980884753992,0.8446797708548848,0.0853346069974743,-1.8960009156892212,0.0,9.616012654027362e-05,0.0,0.0,0.0,0.0,0.0
1757902547.521727,0.0,-4.0,0.0,0.0,0.0,0.0,-0.3435275414343345,-4.090290783171232,-0.31802073184077656,0.7863389052331524,0.013924033509490097,-1.9408478918287622,0.0,9.02907831712323e-05,0.0,0.0,0.0,0.0,0.0
1757902547.57214,0.0,-4.0,0.0,0.0,0.0,0.0,-0.3482838327390284,-4.272646738651788,-0.24798928034303605,0.8141193432583719,-0.02164664932744484,-2.0203826658714092,0.0,0.00027264673865178766,0.0,0.0,0.0,0.0,0.0
1757902547.632549,0.0,-4.0,0.0,0.0,0.0,0.0,-0.39520241952047874,-4.031243423686204,-0.2705856094606375,0.6949180903834662,-0.032790793305925756,-1.948959158296566,0.0,3.1243423686204256e-05,0.0,0.0,0.0,0.0,0.0
1757902547.6916833,0.0,-4.0,0.0,0.0,0.0,0.0,-0.3735673922292937,-4.100483317561173,-0.35233248182581633,0.7607636711642702,0.006533420602698608,-1.9513127679804936,0.0,0.00010048331756117257,0.0,0.0,0.0,0.0,0.0
1757902547.7421384,0.0,-4.0,0.0,0.0,0.0,0.0,-0.41251979294972013,-3.8552957995389368,-0.4152571422305573,0.6721831242647465,0.01169250873837133,-1.8788617349392465,0.0,-0.00014470420046106325,0.0,0.0,0.0,0.0,0.0
1757902547.8022163,0.0,-4.0,0.0,0.0,0.0,0.0,-0.47926623109024735,-3.7309537711790055,-0.5164371568611854,0.6722225188355015,0.018187267254457937,-1.861342433202911,0.0,-0.0002690462288209945,0.0,0.0,0.0,0.0,0.0
1757902547.8527424,0.0,-4.0,0.0,0.0,0.0,0.0,-0.41559800468308206,-3.7561754302165102,-0.5076709665961516,0.702547525332821,0.04499941748291689,-1.8386876536416472,0.0,-0.00024382456978348977,0.0,0.0,0.0,0.0,0.0
1757902547.912099,0.0,-4.0,0.0,0.0,0.0,0.0,-0.3438072841140933,-3.9381048637175278,-0.48729512636168854,0.7971622028388606,0.06905822165877673,-1.8684882276445904,0.0,-6.189513628247224e-05,0.0,0.0,0.0,0.0,0.0
1757902547.9724674,0.0,-4.0,0.0,0.0,0.0,0.0,-0.21158798391181433,-4.034985221366696,-0.39615321986851293,0.8231972313465574,0.10597268352410576,-1.8507336459149306,0.0,3.4985221366696354e-05,0.0,0.0,0.0,0.0,0.0
1757902548.0319867,0.0,-4.0,0.0,0.0,0.0,0.0,-0.2357130179048938,-4.114518056167873,-0.4048777749009896,0.8719432881132629,0.09818821595558494,-1.8958094314212435,0.0,0.00011451805616787336,0.0,0.0,0.0,0.0,0.0
1757902548.0918221,0.0,-4.0,0.0,0.0,0.0,0.0,-0.256870001400051,-4.107718587510139,-0.3239228245578417,0.8159473275045309,0.062386019396445044,-1.9143597059778568,0.0,0.00010771858751013942,0.0,0.0,0.0,0.0,0.0
1757902548.1419594,0.0,-4.0,0.0,0.0,0.0,0.0,-0.20509486757411677,-4.221709355720547,-0.3610432945820889,0.8818428705418165,0.09768762839582304,-1.923491302848395,0.0,0.00022170935572054696,0.0,0.0,0.0,0.0,0.0
1757902548.2027626,0.0,-4.0,0.0,0.0,0.0,0.0,-0.29016270109615677,-4.075331624864261,-0.3376069676178466,0.8005260724697885,0.05017288252104292,-1.9199817378343516,0.0,7.533162486426104e-05,0.0,0.0,0.0,0.0,0.0
1757902548.2619143,0.0,-4.0,0.0,0.0,0.0,0.0,-0.4072673557189263,-3.9596753351662732,-0.3943174863994819,0.7397769907536551,0.011534910027581266,-1.9300562631326714,0.0,-4.032466483372676e-05,0.0,0.0,0.0,0.0,0.0
1757902548.3119361,0.0,-4.0,0.0,0.0,0.0,0.0,-0.4094289230831259,-3.9311639694476432,-0.4254665997488144,0.7337017635349159,0.018807896136473337,-1.9081387713152842,0.0,-6.883603055235676e-05,0.0,0.0,0.0,0.0,0.0
1757902548.3621137,0.0,-4.0,0.0,0.0,0.0,0.0,-0.34161257469295075,-3.943198055463802,-0.42550666551886535,0.7352548267558217,0.048601901813301214,-1.8757626261408462,0.0,-5.6801944536197805e-05,0.0,0.0,0.0,0.0,0.0
1757902548.4217806,0.0,-4.0,0.0,0.0,0.0,0.0,-0.31710280938039925,-3.9252603157750205,-0.420119419746474,0.733437845115302,0.05879065051971469,-1.8590876525425437,0.0,-7.473968422497945e-05,0.0,0.0,0.0,0.0,0.0
1757902548.4726202,0.0,-4.0,0.0,0.0,0.0,0.0,-0.27474831829612645,-3.972355214028722,-0.45031862458687844,0.7827091806072275,0.09216739121590294,-1.8556118368808079,0.0,-2.7644785971277843e-05,0.0,0.0,0.0,0.0,0.0
1757902548.5318668,0.0,-4.0,0.0,0.0,0.0,0.0,-0.21238047773498336,-4.0112742269886255,-0.46989395722871014,0.8369754686861853,0.13117236767523752,-1.8475162842084702,0.0,1.1274226988625457e-05,0.0,0.0,0.0,0.0,0.0
1757902548.5918117,0.0,-4.0,0.0,0.0,0.0,0.0,-0.29610815499101245,-3.945265915911631,-0.3726596391331585,0.7613347327165367,0.05735002132295608,-1.8689080151653181,0.0,-5.4734084088368994e-05,0.0,0.0,0.0,0.0,0.0
1757902548.642069,0.0,-4.0,0.0,0.0,0.0,0.0,-0.3120618025551817,-4.039274905959346,-0.4379368308389868,0.841939338968531,0.0737927745388372,-1.9103594327742188,0.0,3.927490595934557e-05,0.0,0.0,0.0,0.0,0.0
1757902548.7022562,0.0,-4.0,0.0,0.0,0.0,0.0,-0.20033912801463521,-4.081447490428457,-0.42476567289320544,0.8494798324843111,0.12033029439629998,-1.8689136951089187,0.0,8.144749042845678e-05,0.0,0.0,0.0,0.0,0.0
1757902548.7523432,0.0,-4.0,0.0,0.0,0.0,0.0,-0.32642000217905215,-4.084152190215355,-0.3527035625933812,0.8187316813202774,0.03794126350062271,-1.9396164104136036,0.0,8.415219021535503e-05,0.0,0.0,0.0,0.0,0.0
1757902548.811763,0.0,-4.0,0.0,0.0,0.0,0.0,-0.25967879094645085,-4.13230788688093,-0.37352554472191885,0.8398783920941761,0.07485361193114837,-1.9226219335741837,0.0,0.00013230788688093042,0.0,0.0,0.0,0.0,0.0
1757902548.8618572,0.0,-4.0,0.0,0.0,0.0,0.0,-0.3419961731576263,-4.068123799269914,-0.37723546069271446,0.8077740864153479,0.03747044739343969,-1.9417824233100243,0.0,6.81237992699142e-05,0.0,0.0,0.0,0.0,0.0
1757902548.9123287,0.0,-4.0,0.0,0.0,0.0,0.0,-0.27411763624770646,-4.08648205125272,-0.4069861971857017,0.8136225302985385,0.07539976216404126,-1.9045613231425458,0.0,8.648205125271957e-05,0.0,0.0,0.0,0.0,0.0
1757902548.962524,0.0,-4.0,0.0,0.0,0.0,0.0,-0.38790978946477456,-4.02807114990083,-0.4047611493043728,0.7673119478168683,0.024214675378284943,-1.9354991740505583,0.0,2.807114990083015e-05,0.0,0.0,0.0,0.0,0.0
1757902549.0219688,0.0,-4.0,0.0,0.0,0.0,0.0,-0.4958322404974583,-4.000159221805438,-0.4066110692405024,0.7414724364571108,-0.027657036015693234,-1.9809651481788197,0.0,1.5922180543803676e-07,0.0,0.0,0.0,0.0,0.0
1757902549.0723004,0.0,-4.0,0.0,0.0,0.0,0.0,-0.37888765898592264,-3.95190784056538,-0.42732167266327137,0.7284636743184202,0.02974039754969903,-1.9021240226283236,0.0,-4.8092159434620196e-05,0.0,0.0,0.0,0.0,0.0
1757902549.131879,0.0,-4.0,0.0,0.0,0.0,0.0,-0.4461574950480227,-3.911530691820241,-0.38861228601589076,0.690698844274064,-0.01811668419603089,-1.921895353028173,0.0,-8.846930817975896e-05,0.0,0.0,0.0,0.0,0.0
1757902549.1916964,0.0,-4.0,0.0,0.0,0.0,0.0,-0.3424369483012344,-3.992809015022908,-0.4603580024251517,0.774705553044774,0.05753325677091208,-1.895828519270856,0.0,-7.190984977091919e-06,0.0,0.0,0.0,0.0,0.0
1757902549.2422357,0.0,-4.0,0.0,0.0,0.0,0.0,-0.3371980011036885,-3.9149496197127718,-0.34037759630219133,0.6871727417179719,0.016097333067657295,-1.8660281923764368,0.0,-8.505038028722823e-05,0.0,0.0,0.0,0.0,0.0
1757902549.30219,0.0,-4.0,0.0,0.0,0.0,0.0,-0.28349885141888115,-3.988419282899332,-0.4729246763983878,0.7920237471437962,0.08992104959329164,-1.86034879020277,0.0,-1.1580717100668103e-05,0.0,0.0,0.0,0.0,0.0
1757902549.3620086,0.0,-4.0,0.0,0.0,0.0,0.0,-0.37626223429583555,-4.022503364804158,-0.41667118192103486,0.7878527487115559,0.02977489639395243,-1.9241787549114586,0.0,2.2503364804157932e-05,0.0,0.0,0.0,0.0,0.0
1757902549.4219806,0.0,-4.0,0.0,0.0,0.0,0.0,-0.3783026007975725,-3.9335031783256866,-0.3429964230702177,0.7077633578895655,0.0035472443809677554,-1.8952584101677439,0.0,-6.649682167431337e-05,0.0,0.0,0.0,0.0,0.0
1757902549.4722126,0.0,-4.0,0.0,0.0,0.0,0.0,-0.32712829461239246,-4.031238793830948,-0.4164369921046176,0.7946107333489669,0.051975774332265204,-1.904018493423096,0.0,3.123879383094774e-05,0.0,0.0,0.0,0.0,0.0
1757902549.5320356,0.0,-4.0,0.0,0.0,0.0,0.0,-0.3044849116444791,-4.041552897247717,-0.4096163059436143,0.7901970526139311,0.06033698017736281,-1.8958860831690685,0.0,4.155289724771727e-05,0.0,0.0,0.0,0.0,0.0
1757902549.5824044,0.0,-4.0,0.0,0.0,0.0,0.0,-0.2876373134289698,-4.05827027633813,-0.43352179232718124,0.8088718514824924,0.07608911783480593,-1.8939680772010992,0.0,5.827027633813042e-05,0.0,0.0,0.0,0.0,0.0
1757902549.6419783,0.0,-4.0,0.0,0.0,0.0,0.0,-0.3693017899177303,-3.9372228006092724,-0.4060204677316261,0.7444836030743456,0.02848481495057325,-1.894304850215744,0.0,-6.277719939072757e-05,0.0,0.0,0.0,0.0,0.0
1757902549.6920404,0.0,-4.0,0.0,0.0,0.0,0.0,-0.3739821715642635,-3.850950256362327,-0.40514385497980215,0.7092696456544461,0.02771284139355331,-1.866583600073798,0.0,-0.00014904974363767298,0.0,0.0,0.0,0.0,0.0
1757902549.742249,0.0,-4.0,0.0,0.0,0.0,0.0,-0.31227608930079587,-3.897087367280327,-0.40334993939946245,0.7244932539581379,0.05382945913053251,-1.8481007420622935,0.0,-0.000102912632719673,0.0,0.0,0.0,0.0,0.0
1757902549.801906,0.0,-4.0,0.0,0.0,0.0,0.0,-0.361889455312197,-4.048061701368379,-0.43042430568761525,0.8199825087243517,0.04235496632204143,-1.9289648750731405,0.0,4.8061701368379064e-05,0.0,0.0,0.0,0.0,0.0
1757902549.8520262,0.0,-4.0,0.0,0.0,0.0,0.0,-0.29926700606178613,-4.007308600227508,-0.3414388507388258,0.7665542877175145,0.03950028199258822,-1.8840390211975233,0.0,7.308600227507789e-06,0.0,0.0,0.0,0.0,0.0
1757902549.9020312,0.0,-4.0,0.0,0.0,0.0,0.0,-0.2418404065970337,-3.972095618353199,-0.4176053487761973,0.7891254985309595,0.09446724754633698,-1.842084404805537,0.0,-2.7904381646801204e-05,0.0,0.0,0.0,0.0,0.0
1757902549.9618034,0.0,-4.0,0.0,0.0,0.0,0.0,-0.26283043576564025,-4.004906811514642,-0.4317406502144762,0.7981181553180077,0.08958550773590238,-1.8649361702689318,0.0,4.906811514642229e-06,0.0,0.0,0.0,0.0,0.0
1757902550.0218983,0.0,-4.0,0.0,0.0,0.0,0.0,-0.35387401472779745,-4.154114970625886,-0.38605216481577315,0.8409751847667126,0.035381195501932895,-1.9698042538115672,0.0,0.0001541149706258862,0.0,0.0,0.0,0.0,0.0
1757902550.0722096,0.0,-4.0,0.0,0.0,0.0,0.0,-0.2676374008717061,-4.15789847010542,-0.3568480546304781,0.8163358710562996,0.06133742901509401,-1.9289726374790117,0.0,0.0001578984701054198,0.0,0.0,0.0,0.0,0.0
1757902550.1318123,0.0,-4.0,0.0,0.0,0.0,0.0,-0.4119881111472341,-4.182892103856497,-0.27535643897784523,0.7613820142541061,-0.0414811859999834,-2.013417669179174,0.0,0.00018289210385649657,0.0,0.0,0.0,0.0,0.0
1757902550.1820378,0.0,-4.0,0.0,0.0,0.0,0.0,-0.3871775293643489,-4.077431891497689,-0.3376225904964094,0.7375004480275038,-0.00914998332231965,-1.9617937304660233,0.0,7.74318914976888e-05,0.0,0.0,0.0,0.0,0.0
1757902550.232076,0.0,-4.0,0.0,0.0,0.0,0.0,-0.508833674638017,-3.978125337841145,-0.38659885567010155,0.7014895259493377,-0.044932344852675464,-1.985221594420671,0.0,-2.1874662158854807e-05,0.0,0.0,0.0,0.0,0.0
1757902550.2917392,0.0,-4.0,0.0,0.0,0.0,0.0,-0.45436507261517073,-3.87161564446325,-0.4173977478129485,0.6530017215008747,-0.013922428618070488,-1.90824806322515,0.0,-0.00012838435553674988,0.0,0.0,0.0,0.0,0.0
1757902550.3417666,0.0,-4.0,0.0,0.0,0.0,0.0,-0.5187962525770753,-3.8631615824104477,-0.3664654431363902,0.6409152203298645,-0.05892637386335132,-1.9399482965316628,0.0,-0.00013683841758955229,0.0,0.0,0.0,0.0,0.0
1757902550.401775,0.0,-4.0,0.0,0.0,0.0,0.0,-0.4028780146686841,-3.8825272131651785,-0.49021955453646804,0.7538795336827186,0.044451713234155414,-1.8879866997254462,0.0,-0.00011747278683482154,0.0,0.0,0.0,0.0,0.0
1757902550.4617493,0.0,-4.0,0.0,0.0,0.0,0.0,-0.4178964391949591,-3.946789227768088,-0.454148328740443,0.77354865476753,0.0231852114497502,-1.9152444259173218,0.0,-5.321077223191217e-05,0.0,0.0,0.0,0.0,0.0
1757902550.5219052,0.0,-4.0,0.0,0.0,0.0,0.0,-0.3182399057400997,-3.886257917610057,-0.42876113184172965,0.7441946154897221,0.06628800821830429,-1.8466522320524061,0.0,-0.0001137420823899431,0.0,0.0,0.0,0.0,0.0
1757902550.572528,0.0,-4.0,0.0,0.0,0.0,0.0,-0.2603052600691118,-4.158675509911393,-0.4140899702174632,0.8811839163818505,0.08922863550213257,-1.9154299113160465,0.0,0.00015867550991139278,0.0,0.0,0.0,0.0,0.0
1757902550.6320212,0.0,-4.0,0.0,0.0,0.0,0.0,-0.19065810128327446,-4.063874863672782,-0.417598162157414,0.857974826303706,0.12670527790588926,-1.8505709789651903,0.0,6.387486367278239e-05,0.0,0.0,0.0,0.0,0.0
1757902550.6917274,0.0,-4.0,0.0,0.0,0.0,0.0,-0.2460336318885004,-4.032879140686147,-0.40054094036141735,0.8269670727670404,0.09436822511590515,-1.8665506575005346,0.0,3.287914068614661e-05,0.0,0.0,0.0,0.0,0.0
1757902550.7418277,0.0,-4.0,0.0,0.0,0.0,0.0,-0.23939981321165293,-3.972074079999293,-0.4338603072812449,0.8068584350450052,0.10662934396267526,-1.840428636240025,0.0,-2.7925920000706928e-05,0.0,0.0,0.0,0.0,0.0
1757902550.8019786,0.0,-4.0,0.0,0.0,0.0,0.0,-0.2583713519003455,-3.8827610930757026,-0.4486595386476322,0.769099455124445,0.1040456466198934,-1.8187784482570923,0.0,-0.0001172389069242974,0.0,0.0,0.0,0.0,0.0
1757902550.8521864,0.0,-4.0,0.0,0.0,0.0,0.0,-0.2642916308446237,-3.964842287927251,-0.49140535029682286,0.8271863920812518,0.11742278369455576,-1.8514736425582792,0.0,-3.5157712072749095e-05,0.0,0.0,0.0,0.0,0.0
1757902550.9127672,0.0,-4.0,0.0,0.0,0.0,0.0,-0.18752774637258884,-4.0800655442264055,-0.4309025887383637,0.864175123053945,0.1312279500294011,-1.8565505995729663,0.0,8.006554422640555e-05,0.0,0.0,0.0,0.0,0.0
1757902550.972817,0.0,-4.0,0.0,0.0,0.0,0.0,-0.2716593290508198,-4.093536024153608,-0.41028842987009584,0.8687001036681652,0.08766909049968388,-1.9088726240757303,0.0,9.353602415360829e-05,0.0,0.0,0.0,0.0,0.0
1757902551.0322394,0.0,-4.0,0.0,0.0,0.0,0.0,-0.22131126230385711,-4.032710991195212,-0.36666911439198435,0.8146040284298917,0.09545034223684126,-1.860577213723746,0.0,3.2710991195211924e-05,0.0,0.0,0.0,0.0,0.0
1757902551.0918417,0.0,-4.0,0.0,0.0,0.0,0.0,-0.28010844923188666,-4.059240122930132,-0.37781753393792705,0.792293750485613,0.06829188245235143,-1.9006487696628578,0.0,5.9240122930131815e-05,0.0,0.0,0.0,0.0,0.0
1757902551.1423218,0.0,-4.0,0.0,0.0,0.0,0.0,-0.3156076889947192,-4.245920296729914,-0.40496647146658266,0.8942895806707896,0.05913880195299509,-1.9834720272778603,0.0,0.00024592029672991435,0.0,0.0,0.0,0.0,0.0
1757902551.2022793,0.0,-4.0,0.0,0.0,0.0,0.0,-0.3613653650611467,-3.9330926561611768,-0.37686751262406104,0.7108936483164036,0.024864637705176548,-1.892926114587772,0.0,-6.690734383882325e-05,0.0,0.0,0.0,0.0,0.0
1757902551.262187,0.0,-4.0,0.0,0.0,0.0,0.0,-0.41078246376796,-4.174458346890075,-0.43521559830667544,0.8397846177870594,0.020557898108937378,-1.998780167286946,0.0,0.00017445834689007534,0.0,0.0,0.0,0.0,0.0
1757902551.3219638,0.0,-4.0,0.0,0.0,0.0,0.0,-0.4288401948422904,-4.023019315098985,-0.47441810778448584,0.7831113486749173,0.026439558584772274,-1.9520585074957357,0.0,2.3019315098984805e-05,0.0,0.0,0.0,0.0,0.0
1757902551.3720074,0.0,-4.0,0.0,0.0,0.0,0.0,-0.44639501897512074,-3.9873668289999324,-0.445729443081177,0.7408302115848582,0.007092745334789105,-1.9462503260296984,0.0,-1.2633171000067556e-05,0.0,0.0,0.0,0.0,0.0
1757902551.42223,0.0,-4.0,0.0,0.0,0.0,0.0,-0.5614243278105683,-3.795950036183921,-0.4029191936477792,0.6217466530299356,-0.05812898955737457,-1.9428943762963427,0.0,-0.00020404996381607888,0.0,0.0,0.0,0.0,0.0
1757902551.4818544,0.0,-4.0,0.0,0.0,0.0,0.0,-0.48744226265168467,-3.9099326667442997,-0.4366000415231566,0.6930411144953064,-0.01738901692191916,-1.9380244360324175,0.0,-9.006733325570027e-05,0.0,0.0,0.0,0.0,0.0
1757902551.5320022,0.0,-4.0,0.0,0.0,0.0,0.0,-0.34011210027368544,-3.9688503869338665,-0.47284166068566136,0.7677753961578904,0.0671843752739384,-1.8842274150927114,0.0,-3.1149613066133506e-05,0.0,0.0,0.0,0.0,0.0
1757902551.591819,0.0,-4.0,0.0,0.0,0.0,0.0,-0.27418568248500275,-3.899905145629959,-0.45322516890000003,0.7499304901670621,0.0931175662398868,-1.8279483558613843,0.0,-0.00010009485437004084,0.0,0.0,0.0,0.0,0.0
1757902551.642818,0.0,-4.0,0.0,0.0,0.0,0.0,-0.3164157256301364,-3.935242240407492,-0.43911228461747664,0.7720340423060894,0.0720579866661076,-1.8659668425558968,0.0,-6.475775959250819e-05,0.0,0.0,0.0,0.0,0.0
1757902551.7019372,0.0,-4.0,0.0,0.0,0.0,0.0,-0.2320980671496236,-4.039978906088567,-0.46113607664023065,0.8501633215717778,0.11992496391299673,-1.861057778887472,0.0,3.997890608856736e-05,0.0,0.0,0.0,0.0,0.0
1757902551.7519803,0.0,-4.0,0.0,0.0,0.0,0.0,-0.26271927550755236,-4.073004956084043,-0.377897562477723,0.833115081094166,0.0803311003701309,-1.899389380758338,0.0,7.300495608404312e-05,0.0,0.0,0.0,0.0,0.0
1757902551.8020573,0.0,-4.0,0.0,0.0,0.0,0.0,-0.2003374833241558,-4.091903714442896,-0.3947150800497219,0.8467653962789602,0.11501565905242948,-1.8760985652756001,0.0,9.190371444289625e-05,0.0,0.0,0.0,0.0,0.0
1757902551.861771,0.0,-4.0,0.0,0.0,0.0,0.0,-0.27421659058028125,-4.064642492501983,-0.3435630982150706,0.7981700596909116,0.06254853692950305,-1.9043753774056562,0.0,6.464249250198328e-05,0.0,0.0,0.0,0.0,0.0
1757902551.9123323,0.0,-4.0,0.0,0.0,0.0,0.0,-0.2764849347758327,-4.092209661319268,-0.3681349756761463,0.8196075211726416,0.0679788775984826,-1.9150557502684815,0.0,9.220966131926822e-05,0.0,0.0,0.0,0.0,0.0
1757902551.9731169,0.0,-4.0,0.0,0.0,0.0,0.0,-0.3512368908387238,-3.9430039424349745,-0.38261453103802906,0.7335297441358626,0.03605806262187506,-1.896022186187306,0.0,-5.699605756502546e-05,0.0,0.0,0.0,0.0,0.0
1757902552.0320032,0.0,-4.0,0.0,0.0,0.0,0.0,-0.3039206261133692,-3.9281637024875518,-0.39597609338550255,0.7223180018395592,0.06218957333320135,-1.8598716314548105,0.0,-7.183629751244825e-05,0.0,0.0,0.0,0.0,0.0
1757902552.0820901,0.0,-4.0,0.0,0.0,0.0,0.0,-0.32458845667014974,-3.9329671735637683,-0.4055450201343961,0.7392140546897867,0.05456541548486055,-1.8700130753259665,0.0,-6.703282643623166e-05,0.0,0.0,0.0,0.0,0.0
1757902552.1324115,0.0,-4.0,0.0,0.0,0.0,0.0,-0.27480542419863385,-3.8388581711215997,-0.41380448979790435,0.7101656790175306,0.08485224154687716,-1.8131667259521738,0.0,-0.00016114182887840033,0.0,0.0,0.0,0.0,0.0
1757902552.1919472,0.0,-4.0,0.0,0.0,0.0,0.0,-0.3020988859583409,-4.10630522273774,-0.31018137452436434,0.7943768659840004,0.034301888472301534,-1.9292716382766362,0.0,0.00010630522273774012,0.0,0.0,0.0,0.0,0.0
1757902552.2423666,0.0,-4.0,0.0,0.0,0.0,0.0,-0.18889481997709984,-4.253504250137012,-0.3015025575113517,0.8573296749471288,0.08371674289640779,-1.9292868325158414,0.0,0.00025350425013701195,0.0,0.0,0.0,0.0,0.0
1757902552.302201,0.0,-4.0,0.0,0.0,0.0,0.0,-0.27265957896284865,-4.1518404252576815,-0.30667421218030855,0.8190004502697416,0.049786773160696435,-1.9452018091786378,0.0,0.00015184042525768148,0.0,0.0,0.0,0.0,0.0
1757902552.3619657,0.0,-4.0,0.0,0.0,0.0,0.0,-0.3687941442401669,-4.066616061244367,-0.2811230973643083,0.7392110232604105,-0.00987071270614839,-1.9571636586093781,0.0,6.66160612443667e-05,0.0,0.0,0.0,0.0,0.0
1757902552.421843,0.0,-4.0,0.0,0.0,0.0,0.0,-0.38096797276320765,-4.012274285879763,-0.4367952814694164,0.7722856527484041,0.037767164785996336,-1.9311540823624456,0.0,1.2274285879763092e-05,0.0,0.0,0.0,0.0,0.0
1757902552.472547,0.0,-4.0,0.0,0.0,0.0,0.0,-0.38041462656912245,-3.8904687160379274,-0.44128552210626615,0.7088517508547274,0.0352585485497598,-1.8802319465975128,0.0,-0.00010953128396207257,0.0,0.0,0.0,0.0,0.0
1757902552.5320802,0.0,-4.0,0.0,0.0,0.0,0.0,-0.4102881837324114,-3.8063096466527995,-0.4568779738539838,0.678648819058167,0.026269324175692433,-1.8587518380526797,0.0,-0.00019369035334720054,0.0,0.0,0.0,0.0,0.0
1757902552.5821846,0.0,-4.0,0.0,0.0,0.0,0.0,-0.3219573691608171,-3.8004827350303483,-0.4662898377766963,0.7029670376618189,0.07428408565098775,-1.8139885181797837,0.0,-0.00019951726496965174,0.0,0.0,0.0,0.0,0.0
1757902552.6373575,0.0,-4.0,0.0,0.0,0.0,0.0,-0.31408390725212687,-4.1202585457000005,-0.3635238694606857,0.8292278902095551,0.04661739994520968,-1.9337271479702607,0.0,0.0001202585457000005,0.0,0.0,0.0,0.0,0.0
1757902552.6919556,0.0,-4.0,0.0,0.0,0.0,0.0,-0.20765718127595192,-4.205085032358751,-0.3127363867773007,0.8503846453913386,0.08033600042676575,-1.9189634466595078,0.0,0.00020508503235875075,0.0,0.0,0.0,0.0,0.0
1757902552.7428744,0.0,-4.0,0.0,0.0,0.0,0.0,-0.22862341829749366,-4.176523324317572,-0.322836973300709,0.8514938806995187,0.07867729837641758,-1.9288001777596808,0.0,0.00017652332431757235,0.0,0.0,0.0,0.0,0.0
1757902552.801864,0.0,-4.0,0.0,0.0,0.0,0.0,-0.2447722371165378,-4.190381477481062,-0.2859409984353163,0.8321799609963492,0.05144606233648153,-1.9382194818880645,0.0,0.00019038147748106217,0.0,0.0,0.0,0.0,0.0
1757902552.8527842,0.0,-4.0,0.0,0.0,0.0,0.0,-0.3958860423313938,-3.870044372180889,-0.41919561884290096,0.709673165674013,0.02292055142146843,-1.8818210880829358,0.0,-0.0001299556278191112,0.0,0.0,0.0,0.0,0.0
1757902552.912318,0.0,-4.0,0.0,0.0,0.0,0.0,-0.34808310465307335,-3.796430831322367,-0.5150417553425566,0.7270772065562535,0.08144743143337632,-1.8241152713093465,0.0,-0.00020356916867763307,0.0,0.0,0.0,0.0,0.0
1757902552.9720795,0.0,-4.0,0.0,0.0,0.0,0.0,-0.39965946610057,-3.850279229885748,-0.48390509907388074,0.7457860300344914,0.04759059975577012,-1.8719898641442434,0.0,-0.00014972077011425223,0.0,0.0,0.0,0.0,0.0
1757902553.0319462,0.0,-4.0,0.0,0.0,0.0,0.0,-0.2963435094946539,-3.993973193674251,-0.4078904361066674,0.7798479130810826,0.06482858239692627,-1.870126219059372,0.0,-6.026806325749146e-06,0.0,0.0,0.0,0.0,0.0
1757902553.082008,0.0,-4.0,0.0,0.0,0.0,0.0,-0.2131383809592241,-4.141661263471586,-0.34808009919486704,0.8344076560917084,0.08536559618473608,-1.8887173870124196,0.0,0.00014166126347158592,0.0,0.0,0.0,0.0,0.0
1757902553.1321974,0.0,-4.0,0.0,0.0,0.0,0.0,-0.3002737206650187,-4.202462895754977,-0.2999347062907412,0.8378136385474253,0.029430289052901425,-1.9619283334494135,0.0,0.00020246289575497655,0.0,0.0,0.0,0.0,0.0
1757902553.182801,0.0,-4.0,0.0,0.0,0.0,0.0,-0.2943213360362105,-4.191266990164153,-0.3196463931319599,0.8426384455447807,0.041541583447745535,-1.9576297305910535,0.0,0.00019126699016415306,0.0,0.0,0.0,0.0,0.0
1757902553.2419028,0.0,-4.0,0.0,0.0,0.0,0.0,-0.3078298406458619,-4.097659279358499,-0.3784603991188075,0.8020631912003474,0.04975776547355157,-1.9234029808964337,0.0,9.765927935849916e-05,0.0,0.0,0.0,0.0,0.0
1757902553.3017738,0.0,-4.0,0.0,0.0,0.0,0.0,-0.44055227164765,-3.853756182609803,-0.46757582303889256,0.7145598775018369,0.017032336313474866,-1.8918286664755526,0.0,-0.00014624381739019698,0.0,0.0,0.0,0.0,0.0
1757902553.3520823,0.0,-4.0,0.0,0.0,0.0,0.0,-0.45348586677599667,-3.7566060325726935,-0.4922543673077159,0.6823681258768196,0.019754668527473124,-1.8637245842998968,0.0,-0.00024339396742730646,0.0,0.0,0.0,0.0,0.0
1757902553.4123225,0.0,-4.0,0.0,0.0,0.0,0.0,-0.4129201791811526,-3.9879856578295403,-0.49887636793812673,0.8086607388876532,0.04316311389126038,-1.9224938967208316,0.0,-1.2014342170459713e-05,0.0,0.0,0.0,0.0,0.0
1757902553.4735303,0.0,-4.0,0.0,0.0,0.0,0.0,-0.27983610817333016,-4.039349742425205,-0.3835113949632188,0.7902410714263004,0.06427565141183125,-1.8769602974970236,0.0,3.934974242520539e-05,0.0,0.0,0.0,0.0,0.0
1757902553.531951,0.0,-4.0,0.0,0.0,0.0,0.0,-0.24538536912314057,-4.074747836080372,-0.37456043965679486,0.818857040359867,0.07932798284586827,-1.8758416881911881,0.0,7.474783608037238e-05,0.0,0.0,0.0,0.0,0.0
1757902553.5917313,0.0,-4.0,0.0,0.0,0.0,0.0,-0.2591023211190173,-4.039963032853673,-0.4307198377741248,0.8320669087380967,0.09681804223466395,-1.87370801091715,0.0,3.996303285367286e-05,0.0,0.0,0.0,0.0,0.0
1757902553.642156,0.0,-4.0,0.0,0.0,0.0,0.0,-0.3633918510956053,-4.0264861096265525,-0.3721117548822098,0.784227441516621,0.026866397805283514,-1.9232297051574565,0.0,2.6486109626552512e-05,0.0,0.0,0.0,0.0,0.0
1757902553.7017848,0.0,-4.0,0.0,0.0,0.0,0.0,-0.2924738083456359,-4.190129271240425,-0.42466627032549775,0.8629635186525179,0.07422977424322474,-1.943177667541966,0.0,0.00019012927124042455,0.0,0.0,0.0,0.0,0.0
1757902553.7520735,0.0,-4.0,0.0,0.0,0.0,0.0,-0.33875407982825906,-3.992522559484705,-0.3502588925133102,0.715306309539758,0.02423944025551856,-1.8999512488068182,0.0,-7.477440515295086e-06,0.0,0.0,0.0,0.0,0.0
1757902553.812017,0.0,-4.0,0.0,0.0,0.0,0.0,-0.4265297775832115,-4.0289911718903655,-0.38521637370620143,0.7447056517274719,-0.0028999094140201905,-1.9590426033664672,0.0,2.8991171890365488e-05,0.0,0.0,0.0,0.0,0.0
1757902553.8722355,0.0,-4.0,0.0,0.0,0.0,0.0,-0.3723839488689804,-4.105301408637602,-0.3718289412101301,0.7642714544403582,0.012906860131807082,-1.955613062370275,0.0,0.00010530140863760185,0.0,0.0,0.0,0.0,0.0
1757902553.9342916,0.0,-4.0,0.0,0.0,0.0,0.0,-0.42927471271369216,-4.036744064862409,-0.2818036819037901,0.6642426799923805,-0.05113801521964395,-1.9549390293795463,0.0,3.6744064862409334e-05,0.0,0.0,0.0,0.0,0.0
1757902553.9920022,0.0,-4.0,0.0,0.0,0.0,0.0,-0.49539824796302534,-3.8701213823756944,-0.39382936728894613,0.6329352667038173,-0.03485827807029831,-1.9262713274285375,0.0,-0.00012987861762430564,0.0,0.0,0.0,0.0,0.0
1757902554.042254,0.0,-4.0,0.0,0.0,0.0,0.0,-0.45258572151673565,-3.9011468737069763,-0.4575389431121645,0.6898720162206806,0.008261685575726235,-1.9153193332162466,0.0,-9.885312629302367e-05,0.0,0.0,0.0,0.0,0.0
1757902554.1017938,0.0,-4.0,0.0,0.0,0.0,0.0,-0.5213583998660702,-3.866369305062002,-0.4951089853080471,0.7048481402279684,-0.008700681789223699,-1.9366793993564886,0.0,-0.00013363069493799794,0.0,0.0,0.0,0.0,0.0
1757902554.1518419,0.0,-4.0,0.0,0.0,0.0,0.0,-0.48722750955294325,-3.778970029348097,-0.4659015512937716,0.6613418492511421,-0.0029644628553917966,-1.8873672317429544,0.0,-0.000221029970651903,0.0,0.0,0.0,0.0,0.0
1757902554.212914,0.0,-4.0,0.0,0.0,0.0,0.0,-0.34101605167558996,-3.907962038048094,-0.5100418903735479,0.7861936326563652,0.08238136359673706,-1.8570135755811659,0.0,-9.203796195190606e-05,0.0,0.0,0.0,0.0,0.0
1757902554.271881,0.0,-4.0,0.0,0.0,0.0,0.0,-0.20783478897064567,-4.107972185001665,-0.4979598648528487,0.9136501603306955,0.14128390178000086,-1.870093821489049,0.0,0.00010797218500166484,0.0,0.0,0.0,0.0,0.0
1757902554.3221195,0.0,-4.0,0.0,0.0,0.0,0.0,-0.2784610536229616,-4.076838453479018,-0.4121666598167636,0.8652981428781047,0.08046336388490745,-1.9027091466161565,0.0,7.68384534790183e-05,0.0,0.0,0.0,0.0,0.0
1757902554.3818586,0.0,-4.0,0.0,0.0,0.0,0.0,-0.18101937297956444,-4.057304450995722,-0.37870759702719664,0.8387402520953622,0.11275638292499965,-1.844507618675244,0.0,5.73044509957219e-05,0.0,0.0,0.0,0.0,0.0
1757902554.4419627,0.0,-4.0,0.0,0.0,0.0,0.0,-0.24753632798320602,-3.9923646178823122,-0.4408305362653532,0.8343295605010919,0.10221212206673991,-1.8549331789300276,0.0,-7.635382117687773e-06,0.0,0.0,0.0,0.0,0.0
1757902554.5023568,0.0,-4.0,0.0,0.0,0.0,0.0,-0.3131294909615571,-3.877519561933538,-0.3644546478151711,0.7309405095778451,0.04466381455912401,-1.848709388517581,0.0,-0.00012248043806646215,0.0,0.0,0.0,0.0,0.0
1757902554.5616467,0.0,-4.0,0.0,0.0,0.0,0.0,-0.30573260861637236,-4.034781474963528,-0.3929743486786747,0.8235843621343244,0.06057438096621459,-1.9058233271673704,0.0,3.4781474963527795e-05,0.0,0.0,0.0,0.0,0.0
1757902554.6131284,0.0,-4.0,0.0,0.0,0.0,0.0,-0.21659364748969998,-4.1180744228944945,-0.3470278055598165,0.8363229366734916,0.08600187880655116,-1.8923027234925471,0.0,0.00011807442289449455,0.0,0.0,0.0,0.0,0.0
1757902554.6720264,0.0,-4.0,0.0,0.0,0.0,0.0,-0.15773619583306128,-4.10930621565296,-0.3571012489173826,0.8304453906441956,0.12018290348306476,-1.8657016159905366,0.0,0.00010930621565295961,0.0,0.0,0.0,0.0,0.0
1757902554.7321472,0.0,-4.0,0.0,0.0,0.0,0.0,-0.25749530418257066,-4.021924290410565,-0.34097531891026067,0.7746319742708696,0.06315185077357852,-1.8820801563743306,0.0,2.1924290410565206e-05,0.0,0.0,0.0,0.0,0.0
1757902554.791878,0.0,-4.0,0.0,0.0,0.0,0.0,-0.28726280765243456,-3.933141987895821,-0.39146879436522036,0.7474682214371238,0.06827750738034107,-1.8625203617970194,0.0,-6.685801210417885e-05,0.0,0.0,0.0,0.0,0.0
1757902554.842293,0.0,-4.0,0.0,0.0,0.0,0.0,-0.3253115256472469,-3.932332306040796,-0.35477803430191557,0.7227251013990517,0.03615093768716928,-1.8808305589380248,0.0,-6.766769395920403e-05,0.0,0.0,0.0,0.0,0.0
1757902554.8927293,0.0,-4.0,0.0,0.0,0.0,0.0,-0.27689587041246155,-4.057783779782817,-0.39609343672453595,0.7984346856684321,0.07180082568132347,-1.8979373180592405,0.0,5.778377978281668e-05,0.0,0.0,0.0,0.0,0.0
1757902554.9517949,0.0,-4.0,0.0,0.0,0.0,0.0,-0.2757838978481797,-4.086969199321119,-0.349637589233099,0.7979704233910091,0.055273327507737925,-1.90730193337968,0.0,8.696919932111857e-05,0.0,0.0,0.0,0.0,0.0
1757902555.0122883,0.0,-4.0,0.0,0.0,0.0,0.0,-0.28448519552912926,-4.039564251404077,-0.3679282756641391,0.7832737608869746,0.05672514304766389,-1.8939990711191221,0.0,3.95642514040766e-05,0.0,0.0,0.0,0.0,0.0
1757902555.0719872,0.0,-4.0,0.0,0.0,0.0,0.0,-0.288685655766414,-4.0575647413637155,-0.41403557544112174,0.8080541592004757,0.07046645856545274,-1.898305102489232,0.0,5.756474136371548e-05,0.0,0.0,0.0,0.0,0.0
1757902555.1317544,0.0,-4.0,0.0,0.0,0.0,0.0,-0.3004912845237094,-3.953738801242899,-0.5105208553057792,0.7936733864164656,0.09530705448416907,-1.8526763739327643,0.0,-4.626119875710089e-05,0.0,0.0,0.0,0.0,0.0
1757902555.1821365,0.0,-4.0,0.0,0.0,0.0,0.0,-0.40416811211362497,-3.8238279953386662,-0.45664999983757376,0.713710118013571,0.03088621191399004,-1.8610796388568007,0.0,-0.00017617200466133376,0.0,0.0,0.0,0.0,0.0
1757902555.2417953,0.0,-4.0,0.0,0.0,0.0,0.0,-0.3353425017750918,-3.882743696084827,-0.5780072339546436,0.8211016482813196,0.11125498075367242,-1.84163976065358,0.0,-0.00011725630391517283,0.0,0.0,0.0,0.0,0.0
1757902555.2918625,0.0,-4.0,0.0,0.0,0.0,0.0,-0.2990157249581755,-3.8887240768869322,-0.47168689527682595,0.7741525844804024,0.09039413080900298,-1.8320138641310062,0.0,-0.00011127592311306778,0.0,0.0,0.0,0.0,0.0
1757902555.3418946,0.0,-4.0,0.0,0.0,0.0,0.0,-0.2980524830014347,-4.152282371055421,-0.3155599699599074,0.8324198843708955,0.03655554027288137,-1.9467006248150516,0.0,0.00015228237105542063,0.0,0.0,0.0,0.0,0.0
1757902555.4029171,0.0,-4.0,0.0,0.0,0.0,0.0,-0.16894673081870906,-4.06740013855366,-0.2684507113239088,0.7772423340459126,0.08267126660862048,-1.8627068502401438,0.0,6.740013855366023e-05,0.0,0.0,0.0,0.0,0.0
1757902555.4617293,0.0,-4.0,0.0,0.0,0.0,0.0,-0.2273127810156968,-4.1295702442458735,-0.30183324252698684,0.8178292899831153,0.06710957560986092,-1.912597375701991,0.0,0.0001295702442458735,0.0,0.0,0.0,0.0,0.0
1757902555.512513,0.0,-4.0,0.0,0.0,0.0,0.0,-0.23979868354834172,-3.949592355984752,-0.2784204525380768,0.711265452868129,0.05247669361653773,-1.854072099618785,0.0,-5.040764401524811e-05,0.0,0.0,0.0,0.0,0.0
1757902555.5721183,0.0,-4.0,0.0,0.0,0.0,0.0,-0.29002205605109066,-4.025748213962228,-0.39478392961958597,0.7901277215686235,0.06768768578775357,-1.8996365533110522,0.0,2.5748213962227596e-05,0.0,0.0,0.0,0.0,0.0
1757902555.632165,0.0,-4.0,0.0,0.0,0.0,0.0,-0.35140560732830933,-3.978682411910366,-0.3899239050699539,0.7589518669461243,0.035418662398205264,-1.9123819126940518,0.0,-2.1317588089634132e-05,0.0,0.0,0.0,0.0,0.0
1757902555.6826906,0.0,-4.0,0.0,0.0,0.0,0.0,-0.34575934181930956,-4.031372063167538,-0.3670483623174535,0.771252630031557,0.028892297794066407,-1.9267754219947202,0.0,3.1372063167538044e-05,0.0,0.0,0.0,0.0,0.0
1757902555.742332,0.0,-4.0,0.0,0.0,0.0,0.0,-0.2545526981523348,-4.002053960920236,-0.3618857071757885,0.7491773567678992,0.0663653168428181,-1.8692954619109123,0.0,2.0539609202359087e-06,0.0,0.0,0.0,0.0,0.0
1757902555.8018808,0.0,-4.0,0.0,0.0,0.0,0.0,-0.3511043841388636,-4.028200607518079,-0.3615699503195184,0.7604879570274359,0.025941575600238753,-1.9299625910927392,0.0,2.8200607518079403e-05,0.0,0.0,0.0,0.0,0.0
1757902555.8520653,0.0,-4.0,0.0,0.0,0.0,0.0,-0.3068202214245592,-4.003523190524754,-0.35247975504868345,0.7354719971610791,0.03976315082397479,-1.8876114300019076,0.0,3.5231905247536945e-06,0.0,0.0,0.0,0.0,0.0
1757902555.9132326,0.0,-4.0,0.0,0.0,0.0,0.0,-0.26693354719689466,-3.991376801452673,-0.4039373348013146,0.7540511487753416,0.0789299542458552,-1.8634810484005184,0.0,-8.623198547327071e-06,0.0,0.0,0.0,0.0,0.0
1757902555.9718688,0.0,-4.0,0.0,0.0,0.0,0.0,-0.322353382033714,-4.012546056374576,-0.40293305385402706,0.7667620128624445,0.055303739694977,-1.9019792270483677,0.0,1.2546056374575621e-05,0.0,0.0,0.0,0.0,0.0
1757902556.0318758,0.0,-4.0,0.0,0.0,0.0,0.0,-0.3117234796334619,-3.959597404624121,-0.4177459638786388,0.7467884396250712,0.061440683440816796,-1.8718218918033003,0.0,-4.0402595375879095e-05,0.0,0.0,0.0,0.0,0.0
1757902556.0917442,0.0,-4.0,0.0,0.0,0.0,0.0,-0.32731794292539557,-3.9134947872420005,-0.41477676699581306,0.7313771854531556,0.05436302574379419,-1.8617804722986244,0.0,-8.650521275799949e-05,0.0,0.0,0.0,0.0,0.0
1757902556.1420736,0.0,-4.0,0.0,0.0,0.0,0.0,-0.3834567686400338,-3.7773860850254746,-0.4350752431788261,0.7010029327946505,0.034438616557103424,-1.8384859073577853,0.0,-0.00022261391497452543,0.0,0.0,0.0,0.0,0.0
1757902556.2028244,0.0,-4.0,0.0,0.0,0.0,0.0,-0.34777153424195306,-3.9028682203509337,-0.4342438528343845,0.7631415352412794,0.05089799576950871,-1.8624591093030913,0.0,-9.713177964906627e-05,0.0,0.0,0.0,0.0,0.0
1757902556.2617939,0.0,-4.0,0.0,0.0,0.0,0.0,-0.21899117765003534,-3.8578330101749647,-0.46891438776984623,0.7803514064528614,0.1255249574607309,-1.7849944597314535,0.0,-0.0001421669898250353,0.0,0.0,0.0,0.0,0.0
1757902556.312636,0.0,-4.0,0.0,0.0,0.0,0.0,-0.15459093401322677,-3.9936956137200244,-0.40892005788399677,0.8410841474329038,0.13856074261000678,-1.812690498784026,0.0,-6.304386279975649e-06,0.0,0.0,0.0,0.0,0.0
1757902556.3719316,0.0,-4.0,0.0,0.0,0.0,0.0,-0.20470501799308316,-4.0981742254967095,-0.23958458195884785,0.8248245336643496,0.0596982634221621,-1.8826891864997866,0.0,9.81742254967095e-05,0.0,0.0,0.0,0.0,0.0
1757902556.432661,0.0,-4.0,0.0,0.0,0.0,0.0,-0.14146386892162238,-4.109015227664269,-0.2731087280019322,0.8320208916123362,0.10597776270914086,-1.8625861551439884,0.0,0.00010901522766426908,0.0,0.0,0.0,0.0,0.0
1757902556.4837117,0.0,-4.0,0.0,0.0,0.0,0.0,-0.21681995404698032,-3.9727984548910387,-0.2857877735617171,0.7633462443267195,0.0749310618944842,-1.858151977290043,0.0,-2.7201545108961333e-05,0.0,0.0,0.0,0.0,0.0
1757902556.5422273,0.0,-4.0,0.0,0.0,0.0,0.0,-0.26123666265349244,-3.984834434280184,-0.32689375277747906,0.7725373394876464,0.06345965469748283,-1.8792742490866967,0.0,-1.5165565719815976e-05,0.0,0.0,0.0,0.0,0.0
1757902556.601947,0.0,-4.0,0.0,0.0,0.0,0.0,-0.2955777974884788,-3.803232500898782,-0.3417612697400981,0.6993720143133372,0.05242294215438462,-1.8321236901769062,0.0,-0.00019676749910121805,0.0,0.0,0.0,0.0,0.0
1757902556.6616597,0.0,-4.0,0.0,0.0,0.0,0.0,-0.22697838196609113,-4.070332179048398,-0.27933941153472985,0.791826524221555,0.06046082304924635,-1.8899128608083775,0.0,7.033217904839795e-05,0.0,0.0,0.0,0.0,0.0
1757902556.7123952,0.0,-4.0,0.0,0.0,0.0,0.0,-0.2320962784182118,-4.132805295381177,-0.20980316300488241,0.7786914304473413,0.034614100226389596,-1.9205442867923788,0.0,0.00013280529538117668,0.0,0.0,0.0,0.0,0.0
1757902556.7719762,0.0,-4.0,0.0,0.0,0.0,0.0,-0.35415403898292236,-4.012688947268442,-0.049222320589582154,0.6282009399530737,-0.08330564229927649,-1.945726360283935,0.0,1.2688947268442164e-05,0.0,0.0,0.0,0.0,0.0
1757902556.8317091,0.0,-4.0,0.0,0.0,0.0,0.0,-0.32066200581728954,-4.184761799203633,-0.23562519956374103,0.7937244214551442,0.0002384066658612414,-1.9855448812136476,0.0,0.00018476179920363302,0.0,0.0,0.0,0.0,0.0
1757902556.881868,0.0,-4.0,0.0,0.0,0.0,0.0,-0.26648214826228733,-4.123830586732712,-0.2034708138074952,0.7410951404650192,0.00702760121209188,-1.9305706512161398,0.0,0.00012383058673271207,0.0,0.0,0.0,0.0,0.0
1757902556.9421701,0.0,-4.0,0.0,0.0,0.0,0.0,-0.4040335407416096,-4.072430479098922,-0.26246064230419286,0.7205976681677629,-0.03934785887667662,-1.9763217520078222,0.0,7.243047909892208e-05,0.0,0.0,0.0,0.0,0.0
1757902557.0017123,0.0,-4.0,0.0,0.0,0.0,0.0,-0.41695471836318876,-3.9755287669062582,-0.3057714360384478,0.6811298478906662,-0.029658622936297164,-1.9394062567126866,0.0,-2.4471233093741774e-05,0.0,0.0,0.0,0.0,0.0
1757902557.0519414,0.0,-4.0,0.0,0.0,0.0,0.0,-0.4664105084097205,-3.976504056230784,-0.3333402097267924,0.6909478749459331,-0.04072963286774226,-1.9637359227390332,0.0,-2.3495943769216157e-05,0.0,0.0,0.0,0.0,0.0
1757902557.1126885,0.0,-4.0,0.0,0.0,0.0,0.0,-0.4664105084097205,-3.976504056230784,-0.3333402097267924,0.6909478749459331,-0.04072963286774226,-1.9637359227390332,0.0,-2.3495943769216157e-05,0.0,0.0,0.0,0.0,0.0
1757902557.1718733,0.0,-4.0,0.0,0.0,0.0,0.0,-0.4664105084097205,-3.976504056230784,-0.3333402097267924,0.6909478749459331,-0.04072963286774226,-1.9637359227390332,0.0,-2.3495943769216157e-05,0.0,0.0,0.0,0.0,0.0
1757902557.2219872,0.0,-4.0,0.0,0.0,0.0,0.0,-0.4664105084097205,-3.976504056230784,-0.3333402097267924,0.6909478749459331,-0.04072963286774226,-1.9637359227390332,0.0,-2.3495943769216157e-05,0.0,0.0,0.0,0.0,0.0
1757902557.272207,0.0,-4.0,0.0,0.0,0.0,0.0,-0.4664105084097205,-3.976504056230784,-0.3333402097267924,0.6909478749459331,-0.04072963286774226,-1.9637359227390332,0.0,-2.3495943769216157e-05,0.0,0.0,0.0,0.0,0.0
1757902557.331734,0.0,-4.0,0.0,0.0,0.0,0.0,-0.4664105084097205,-3.976504056230784,-0.3333402097267924,0.6909478749459331,-0.04072963286774226,-1.9637359227390332,0.0,-2.3495943769216157e-05,0.0,0.0,0.0,0.0,0.0
1757902557.3917456,0.0,-4.0,0.0,0.0,0.0,0.0,-0.4664105084097205,-3.976504056230784,-0.3333402097267924,0.6909478749459331,-0.04072963286774226,-1.9637359227390332,0.0,-2.3495943769216157e-05,0.0,0.0,0.0,0.0,0.0
1757902557.4420478,0.0,-4.0,0.0,0.0,0.0,0.0,-0.4664105084097205,-3.976504056230784,-0.3333402097267924,0.6909478749459331,-0.04072963286774226,-1.9637359227390332,0.0,-2.3495943769216157e-05,0.0,0.0,0.0,0.0,0.0
1757902557.505131,0.0,-4.0,0.0,0.0,0.0,0.0,-0.4664105084097205,-3.976504056230784,-0.3333402097267924,0.6909478749459331,-0.04072963286774226,-1.9637359227390332,0.0,-2.3495943769216157e-05,0.0,0.0,0.0,0.0,0.0
1757902557.5618982,0.0,-4.0,0.0,0.0,0.0,0.0,-0.4664105084097205,-3.976504056230784,-0.3333402097267924,0.6909478749459331,-0.04072963286774226,-1.9637359227390332,0.0,-2.3495943769216157e-05,0.0,0.0,0.0,0.0,0.0
1757902557.6119697,0.0,-4.0,0.0,0.0,0.0,0.0,-0.4664105084097205,-3.976504056230784,-0.3333402097267924,0.6909478749459331,-0.04072963286774226,-1.9637359227390332,0.0,-2.3495943769216157e-05,0.0,0.0,0.0,0.0,0.0
1757902557.6630468,0.0,-4.0,0.0,0.0,0.0,0.0,-0.4664105084097205,-3.976504056230784,-0.3333402097267924,0.6909478749459331,-0.04072963286774226,-1.9637359227390332,0.0,-2.3495943769216157e-05,0.0,0.0,0.0,0.0,0.0
1757902557.7239044,0.0,-4.0,0.0,0.0,0.0,0.0,-0.4664105084097205,-3.976504056230784,-0.3333402097267924,0.6909478749459331,-0.04072963286774226,-1.9637359227390332,0.0,-2.3495943769216157e-05,0.0,0.0,0.0,0.0,0.0
1757902557.782256,0.0,-4.0,0.0,0.0,0.0,0.0,-0.4664105084097205,-3.976504056230784,-0.3333402097267924,0.6909478749459331,-0.04072963286774226,-1.9637359227390332,0.0,-2.3495943769216157e-05,0.0,0.0,0.0,0.0,0.0
1757902557.844001,0.0,-4.0,0.0,0.0,0.0,0.0,-0.4664105084097205,-3.976504056230784,-0.3333402097267924,0.6909478749459331,-0.04072963286774226,-1.9637359227390332,0.0,-2.3495943769216157e-05,0.0,0.0,0.0,0.0,0.0
1757902557.9020352,0.0,-4.0,0.0,0.0,0.0,0.0,-0.4664105084097205,-3.976504056230784,-0.3333402097267924,0.6909478749459331,-0.04072963286774226,-1.9637359227390332,0.0,-2.3495943769216157e-05,0.0,0.0,0.0,0.0,0.0
1757902557.954037,0.0,-4.0,0.0,0.0,0.0,0.0,-0.4664105084097205,-3.976504056230784,-0.3333402097267924,0.6909478749459331,-0.04072963286774226,-1.9637359227390332,0.0,-2.3495943769216157e-05,0.0,0.0,0.0,0.0,0.0
1757902558.0118253,0.0,-4.0,0.0,0.0,0.0,0.0,-0.4664105084097205,-3.976504056230784,-0.3333402097267924,0.6909478749459331,-0.04072963286774226,-1.9637359227390332,0.0,-2.3495943769216157e-05,0.0,0.0,0.0,0.0,0.0
1757902558.0719018,0.0,-4.0,0.0,0.0,0.0,0.0,-0.4664105084097205,-3.976504056230784,-0.3333402097267924,0.6909478749459331,-0.04072963286774226,-1.9637359227390332,0.0,-2.3495943769216157e-05,0.0,0.0,0.0,0.0,0.0
1757902558.1226609,0.0,-4.0,0.0,0.0,0.0,0.0,-0.4664105084097205,-3.976504056230784,-0.3333402097267924,0.6909478749459331,-0.04072963286774226,-1.9637359227390332,0.0,-2.3495943769216157e-05,0.0,0.0,0.0,0.0,0.0
1757902558.18189,0.0,-4.0,0.0,0.0,0.0,0.0,-0.4664105084097205,-3.976504056230784,-0.3333402097267924,0.6909478749459331,-0.04072963286774226,-1.9637359227390332,0.0,-2.3495943769216157e-05,0.0,0.0,0.0,0.0,0.0
1757902558.2425127,0.0,-4.0,0.0,0.0,0.0,0.0,-0.4664105084097205,-3.976504056230784,-0.3333402097267924,0.6909478749459331,-0.04072963286774226,-1.9637359227390332,0.0,-2.3495943769216157e-05,0.0,0.0,0.0,0.0,0.0
1757902558.301878,0.0,-4.0,0.0,0.0,0.0,0.0,-0.4664105084097205,-3.976504056230784,-0.3333402097267924,0.6909478749459331,-0.04072963286774226,-1.9637359227390332,0.0,-2.3495943769216157e-05,0.0,0.0,0.0,0.0,0.0
1757902558.351905,0.0,-4.0,0.0,0.0,0.0,0.0,-0.4664105084097205,-3.976504056230784,-0.3333402097267924,0.6909478749459331,-0.04072963286774226,-1.9637359227390332,0.0,-2.3495943769216157e-05,0.0,0.0,0.0,0.0,0.0
1757902558.4118893,0.0,-4.0,0.0,0.0,0.0,0.0,-0.4664105084097205,-3.976504056230784,-0.3333402097267924,0.6909478749459331,-0.04072963286774226,-1.9637359227390332,0.0,-2.3495943769216157e-05,0.0,0.0,0.0,0.0,0.0
1757902558.4721339,0.0,-4.0,0.0,0.0,0.0,0.0,-0.4664105084097205,-3.976504056230784,-0.3333402097267924,0.6909478749459331,-0.04072963286774226,-1.9637359227390332,0.0,-2.3495943769216157e-05,0.0,0.0,0.0,0.0,0.0
1757902558.522473,0.0,-4.0,0.0,0.0,0.0,0.0,-0.4664105084097205,-3.976504056230784,-0.3333402097267924,0.6909478749459331,-0.04072963286774226,-1.9637359227390332,0.0,-2.3495943769216157e-05,0.0,0.0,0.0,0.0,0.0
1757902558.5820901,0.0,-4.0,0.0,0.0,0.0,0.0,-0.4664105084097205,-3.976504056230784,-0.3333402097267924,0.6909478749459331,-0.04072963286774226,-1.9637359227390332,0.0,-2.3495943769216157e-05,0.0,0.0,0.0,0.0,0.0
1757902558.64183,0.0,-4.0,0.0,0.0,0.0,0.0,-0.4664105084097205,-3.976504056230784,-0.3333402097267924,0.6909478749459331,-0.04072963286774226,-1.9637359227390332,0.0,-2.3495943769216157e-05,0.0,0.0,0.0,0.0,0.0
1757902558.7017858,0.0,-4.0,0.0,0.0,0.0,0.0,-0.4664105084097205,-3.976504056230784,-0.3333402097267924,0.6909478749459331,-0.04072963286774226,-1.9637359227390332,0.0,-2.3495943769216157e-05,0.0,0.0,0.0,0.0,0.0
1757902558.7535102,0.0,-4.0,0.0,0.0,0.0,0.0,-0.4664105084097205,-3.976504056230784,-0.3333402097267924,0.6909478749459331,-0.04072963286774226,-1.9637359227390332,0.0,-2.3495943769216157e-05,0.0,0.0,0.0,0.0,0.0
1757902558.812067,0.0,-4.0,0.0,0.0,0.0,0.0,-0.4664105084097205,-3.976504056230784,-0.3333402097267924,0.6909478749459331,-0.04072963286774226,-1.9637359227390332,0.0,-2.3495943769216157e-05,0.0,0.0,0.0,0.0,0.0
1757902558.8726177,0.0,-4.0,0.0,0.0,0.0,0.0,-0.4664105084097205,-3.976504056230784,-0.3333402097267924,0.6909478749459331,-0.04072963286774226,-1.9637359227390332,0.0,-2.3495943769216157e-05,0.0,0.0,0.0,0.0,0.0
1757902558.931696,0.0,-4.0,0.0,0.0,0.0,0.0,-0.4664105084097205,-3.976504056230784,-0.3333402097267924,0.6909478749459331,-0.04072963286774226,-1.9637359227390332,0.0,-2.3495943769216157e-05,0.0,0.0,0.0,0.0,0.0
1757902558.982032,0.0,-4.0,0.0,0.0,0.0,0.0,-0.4664105084097205,-3.976504056230784,-0.3333402097267924,0.6909478749459331,-0.04072963286774226,-1.9637359227390332,0.0,-2.3495943769216157e-05,0.0,0.0,0.0,0.0,0.0
1757902559.0418699,0.0,-4.0,0.0,0.0,0.0,0.0,-0.4664105084097205,-3.976504056230784,-0.3333402097267924,0.6909478749459331,-0.04072963286774226,-1.9637359227390332,0.0,-2.3495943769216157e-05,0.0,0.0,0.0,0.0,0.0
1757902559.101911,0.0,-4.0,0.0,0.0,0.0,0.0,-0.4664105084097205,-3.976504056230784,-0.3333402097267924,0.6909478749459331,-0.04072963286774226,-1.9637359227390332,0.0,-2.3495943769216157e-05,0.0,0.0,0.0,0.0,0.0
1757902559.1618202,0.0,-4.0,0.0,0.0,0.0,0.0,-0.4664105084097205,-3.976504056230784,-0.3333402097267924,0.6909478749459331,-0.04072963286774226,-1.9637359227390332,0.0,-2.3495943769216157e-05,0.0,0.0,0.0,0.0,0.0
1757902559.2119846,0.0,-4.0,0.0,0.0,0.0,0.0,-0.4664105084097205,-3.976504056230784,-0.3333402097267924,0.6909478749459331,-0.04072963286774226,-1.9637359227390332,0.0,-2.3495943769216157e-05,0.0,0.0,0.0,0.0,0.0
1757902559.2718685,0.0,-4.0,0.0,0.0,0.0,0.0,-0.4664105084097205,-3.976504056230784,-0.3333402097267924,0.6909478749459331,-0.04072963286774226,-1.9637359227390332,0.0,-2.3495943769216157e-05,0.0,0.0,0.0,0.0,0.0
1757902559.3318608,0.0,-4.0,0.0,0.0,0.0,0.0,-0.4664105084097205,-3.976504056230784,-0.3333402097267924,0.6909478749459331,-0.04072963286774226,-1.9637359227390332,0.0,-2.3495943769216157e-05,0.0,0.0,0.0,0.0,0.0
1757902559.382438,0.0,-4.0,0.0,0.0,0.0,0.0,-0.4664105084097205,-3.976504056230784,-0.3333402097267924,0.6909478749459331,-0.04072963286774226,-1.9637359227390332,0.0,-2.3495943769216157e-05,0.0,0.0,0.0,0.0,0.0
1757902559.44233,0.0,-4.0,0.0,0.0,0.0,0.0,-0.4664105084097205,-3.976504056230784,-0.3333402097267924,0.6909478749459331,-0.04072963286774226,-1.9637359227390332,0.0,-2.3495943769216157e-05,0.0,0.0,0.0,0.0,0.0
1757902559.5017366,0.0,-4.0,0.0,0.0,0.0,0.0,-0.4664105084097205,-3.976504056230784,-0.3333402097267924,0.6909478749459331,-0.04072963286774226,-1.9637359227390332,0.0,-2.3495943769216157e-05,0.0,0.0,0.0,0.0,0.0
1757902559.5518477,0.0,-4.0,0.0,0.0,0.0,0.0,-0.4664105084097205,-3.976504056230784,-0.3333402097267924,0.6909478749459331,-0.04072963286774226,-1.9637359227390332,0.0,-2.3495943769216157e-05,0.0,0.0,0.0,0.0,0.0
1757902559.6124952,0.0,-4.0,0.0,0.0,0.0,0.0,-0.4664105084097205,-3.976504056230784,-0.3333402097267924,0.6909478749459331,-0.04072963286774226,-1.9637359227390332,0.0,-2.3495943769216157e-05,0.0,0.0,0.0,0.0,0.0
1757902559.6719332,0.0,-4.0,0.0,0.0,0.0,0.0,-0.4664105084097205,-3.976504056230784,-0.3333402097267924,0.6909478749459331,-0.04072963286774226,-1.9637359227390332,0.0,-2.3495943769216157e-05,0.0,0.0,0.0,0.0,0.0
1757902559.7317193,0.0,-4.0,0.0,0.0,0.0,0.0,-0.4664105084097205,-3.976504056230784,-0.3333402097267924,0.6909478749459331,-0.04072963286774226,-1.9637359227390332,0.0,-2.3495943769216157e-05,0.0,0.0,0.0,0.0,0.0
1757902559.7824273,0.0,-4.0,0.0,0.0,0.0,0.0,-0.4664105084097205,-3.976504056230784,-0.3333402097267924,0.6909478749459331,-0.04072963286774226,-1.9637359227390332,0.0,-2.3495943769216157e-05,0.0,0.0,0.0,0.0,0.0
1757902559.8422458,0.0,-4.0,0.0,0.0,0.0,0.0,-0.4664105084097205,-3.976504056230784,-0.3333402097267924,0.6909478749459331,-0.04072963286774226,-1.9637359227390332,0.0,-2.3495943769216157e-05,0.0,0.0,0.0,0.0,0.0
1757902559.901765,0.0,-4.0,0.0,0.0,0.0,0.0,-0.4664105084097205,-3.976504056230784,-0.3333402097267924,0.6909478749459331,-0.04072963286774226,-1.9637359227390332,0.0,-2.3495943769216157e-05,0.0,0.0,0.0,0.0,0.0
1757902559.9523828,0.0,-4.0,0.0,0.0,0.0,0.0,-0.4664105084097205,-3.976504056230784,-0.3333402097267924,0.6909478749459331,-0.04072963286774226,-1.9637359227390332,0.0,-2.3495943769216157e-05,0.0,0.0,0.0,0.0,0.0
1757902560.0119104,0.0,-4.0,0.0,0.0,0.0,0.0,-0.4664105084097205,-3.976504056230784,-0.3333402097267924,0.6909478749459331,-0.04072963286774226,-1.9637359227390332,0.0,-2.3495943769216157e-05,0.0,0.0,0.0,0.0,0.0
1757902560.0724483,0.0,-4.0,0.0,0.0,0.0,0.0,-0.4664105084097205,-3.976504056230784,-0.3333402097267924,0.6909478749459331,-0.04072963286774226,-1.9637359227390332,0.0,-2.3495943769216157e-05,0.0,0.0,0.0,0.0,0.0
1757902560.1316907,0.0,-4.0,0.0,0.0,0.0,0.0,-0.4664105084097205,-3.976504056230784,-0.3333402097267924,0.6909478749459331,-0.04072963286774226,-1.9637359227390332,0.0,-2.3495943769216157e-05,0.0,0.0,0.0,0.0,0.0
1757902560.182376,0.0,-4.0,0.0,0.0,0.0,0.0,-0.4664105084097205,-3.976504056230784,-0.3333402097267924,0.6909478749459331,-0.04072963286774226,-1.9637359227390332,0.0,-2.3495943769216157e-05,0.0,0.0,0.0,0.0,0.0
1757902560.2419775,0.0,-4.0,0.0,0.0,0.0,0.0,-0.4664105084097205,-3.976504056230784,-0.3333402097267924,0.6909478749459331,-0.04072963286774226,-1.9637359227390332,0.0,-2.3495943769216157e-05,0.0,0.0,0.0,0.0,0.0
1757902560.3022182,0.0,-4.0,0.0,0.0,0.0,0.0,-0.4664105084097205,-3.976504056230784,-0.3333402097267924,0.6909478749459331,-0.04072963286774226,-1.9637359227390332,0.0,-2.3495943769216157e-05,0.0,0.0,0.0,0.0,0.0
1757902560.361797,0.0,-4.0,0.0,0.0,0.0,0.0,-0.4664105084097205,-3.976504056230784,-0.3333402097267924,0.6909478749459331,-0.04072963286774226,-1.9637359227390332,0.0,-2.3495943769216157e-05,0.0,0.0,0.0,0.0,0.0
1757902560.41294,0.0,-4.0,0.0,0.0,0.0,0.0,-0.4664105084097205,-3.976504056230784,-0.3333402097267924,0.6909478749459331,-0.04072963286774226,-1.9637359227390332,0.0,-2.3495943769216157e-05,0.0,0.0,0.0,0.0,0.0
1757902560.4730225,0.0,-4.0,0.0,0.0,0.0,0.0,-0.4664105084097205,-3.976504056230784,-0.3333402097267924,0.6909478749459331,-0.04072963286774226,-1.9637359227390332,0.0,-2.3495943769216157e-05,0.0,0.0,0.0,0.0,0.0
1757902560.5317967,0.0,-4.0,0.0,0.0,0.0,0.0,-0.4664105084097205,-3.976504056230784,-0.3333402097267924,0.6909478749459331,-0.04072963286774226,-1.9637359227390332,0.0,-2.3495943769216157e-05,0.0,0.0,0.0,0.0,0.0
1757902560.581832,0.0,-4.0,0.0,0.0,0.0,0.0,-0.4664105084097205,-3.976504056230784,-0.3333402097267924,0.6909478749459331,-0.04072963286774226,-1.9637359227390332,0.0,-2.3495943769216157e-05,0.0,0.0,0.0,0.0,0.0
1757902560.6425724,0.0,-4.0,0.0,0.0,0.0,0.0,-0.4664105084097205,-3.976504056230784,-0.3333402097267924,0.6909478749459331,-0.04072963286774226,-1.9637359227390332,0.0,-2.3495943769216157e-05,0.0,0.0,0.0,0.0,0.0
1757902560.7018023,0.0,-4.0,0.0,0.0,0.0,0.0,-0.4664105084097205,-3.976504056230784,-0.3333402097267924,0.6909478749459331,-0.04072963286774226,-1.9637359227390332,0.0,-2.3495943769216157e-05,0.0,0.0,0.0,0.0,0.0
1757902560.7528825,0.0,-4.0,0.0,0.0,0.0,0.0,-0.4664105084097205,-3.976504056230784,-0.3333402097267924,0.6909478749459331,-0.04072963286774226,-1.9637359227390332,0.0,-2.3495943769216157e-05,0.0,0.0,0.0,0.0,0.0
1757902560.812004,0.0,-4.0,0.0,0.0,0.0,0.0,-0.4664105084097205,-3.976504056230784,-0.3333402097267924,0.6909478749459331,-0.04072963286774226,-1.9637359227390332,0.0,-2.3495943769216157e-05,0.0,0.0,0.0,0.0,0.0
1757902560.8620653,0.0,-4.0,0.0,0.0,0.0,0.0,-0.4664105084097205,-3.976504056230784,-0.3333402097267924,0.6909478749459331,-0.04072963286774226,-1.9637359227390332,0.0,-2.3495943769216157e-05,0.0,0.0,0.0,0.0,0.0
1757902560.9122043,0.0,-4.0,0.0,0.0,0.0,0.0,-0.4664105084097205,-3.976504056230784,-0.3333402097267924,0.6909478749459331,-0.04072963286774226,-1.9637359227390332,0.0,-2.3495943769216157e-05,0.0,0.0,0.0,0.0,0.0
1757902560.9724648,0.0,-4.0,0.0,0.0,0.0,0.0,-0.4664105084097205,-3.976504056230784,-0.3333402097267924,0.6909478749459331,-0.04072963286774226,-1.9637359227390332,0.0,-2.3495943769216157e-05,0.0,0.0,0.0,0.0,0.0
1757902561.0317686,0.0,-4.0,0.0,0.0,0.0,0.0,-0.4664105084097205,-3.976504056230784,-0.3333402097267924,0.6909478749459331,-0.04072963286774226,-1.9637359227390332,0.0,-2.3495943769216157e-05,0.0,0.0,0.0,0.0,0.0
1757902561.083055,0.0,-4.0,0.0,0.0,0.0,0.0,-0.4664105084097205,-3.976504056230784,-0.3333402097267924,0.6909478749459331,-0.04072963286774226,-1.9637359227390332,0.0,-2.3495943769216157e-05,0.0,0.0,0.0,0.0,0.0
1757902561.1420734,0.0,-4.0,0.0,0.0,0.0,0.0,-0.4664105084097205,-3.976504056230784,-0.3333402097267924,0.6909478749459331,-0.04072963286774226,-1.9637359227390332,0.0,-2.3495943769216157e-05,0.0,0.0,0.0,0.0,0.0
1757902561.2019002,0.0,-4.0,0.0,0.0,0.0,0.0,-0.4664105084097205,-3.976504056230784,-0.3333402097267924,0.6909478749459331,-0.04072963286774226,-1.9637359227390332,0.0,-2.3495943769216157e-05,0.0,0.0,0.0,0.0,0.0
1757902798.367531,0.0,-4.0,0.0,0.0,0.0,0.0,0.0,0.0,0.0,0.0,0.0,0.0,0.0,-0.004,0.0,0.0,0.0,0.0,0.0
1757902798.4274752,0.0,-4.0,0.0,0.0,0.0,0.0,0.5205795476930473,-4.086320946356375,-0.1522739977109601,0.9338513949139188,0.2853710002047259,-1.5185452875392254,0.0,8.632094635637522e-05,0.0,0.0,0.0,0.0,0.0
1757902798.4775949,0.0,-4.0,0.0,0.0,0.0,0.0,0.46730455866535553,-4.126823878251435,-0.11581963488121974,0.9352079811915255,0.24886960030685323,-1.558200983673533,0.0,0.00012682387825143504,0.0,0.0,0.0,0.0,0.0
1757902798.5386987,0.0,-4.0,0.0,0.0,0.0,0.0,0.486471474207845,-4.130322510687668,-0.08947269703138677,0.9238031464892571,0.2461994473670605,-1.5517668907898436,0.0,0.00013032251068766776,0.0,0.0,0.0,0.0,0.0
1757902798.5979495,0.0,-4.0,0.0,0.0,0.0,0.0,0.5067992209076659,-4.079348080175826,-0.07130955164335284,0.8883478637243182,0.24807296999104733,-1.5230112831381815,0.0,7.93480801758264e-05,0.0,0.0,0.0,0.0,0.0
1757902798.6574526,0.0,-4.0,0.0,0.0,0.0,0.0,0.42974282301197503,-4.094083408563229,-0.04473205225733971,0.8812753544264991,0.20391399983557695,-1.5667030255152121,0.0,9.408340856322894e-05,0.0,0.0,0.0,0.0,0.0
1757902798.7076116,0.0,-4.0,0.0,0.0,0.0,0.0,0.47897496892561586,-4.089655622558205,-0.1337880266300194,0.9215305448560642,0.2573889211523951,-1.5379830920502773,0.0,8.965562255820458e-05,0.0,0.0,0.0,0.0,0.0
1757902798.7676558,0.0,-4.0,0.0,0.0,0.0,0.0,0.48447601672680607,-3.988930625909032,-0.12533841280332686,0.8673057555924917,0.26225988042058707,-1.5026653567329626,0.0,-1.1069374090967976e-05,0.0,0.0,0.0,0.0,0.0
1757902798.8274837,0.0,-4.0,0.0,0.0,0.0,0.0,0.4584990854354478,-3.942222805248876,-0.14611613518790614,0.8571968228820757,0.2545592721345762,-1.4926333147438142,0.0,-5.7777194751123864e-05,0.0,0.0,0.0,0.0,0.0
1757902798.8777404,0.0,-4.0,0.0,0.0,0.0,0.0,0.39161255536445577,-3.8231525630490832,-0.16786906607873367,0.8218498911863727,0.2325312075815747,-1.481149245189957,0.0,-0.00017684743695091677,0.0,0.0,0.0,0.0,0.0
1757902798.9382443,0.0,-4.0,0.0,0.0,0.0,0.0,0.4475893757084669,-3.7738356743020143,-0.21911954005765114,0.8326702915148734,0.27853654937868305,-1.4238027216255904,0.0,-0.00022616432569798572,0.0,0.0,0.0,0.0,0.0
1757902798.9979897,0.0,-4.0,0.0,0.0,0.0,0.0,0.47136294289211783,-3.8196394221627554,-0.17332401610819345,0.8543095017260384,0.2757294373377729,-1.4346668924874824,0.0,-0.00018036057783724457,0.0,0.0,0.0,0.0,0.0
1757902799.0577385,0.0,-4.0,0.0,0.0,0.0,0.0,0.5612371084870714,-4.047844379746114,-0.18762825671731487,0.9964023471943306,0.32254048340476343,-1.4784147046390288,0.0,4.784437974611411e-05,0.0,0.0,0.0,0.0,0.0
1757902799.108307,0.0,-4.0,0.0,0.0,0.0,0.0,0.6795426797090052,-4.110689197205101,-0.16519263732910283,1.0237094319053628,0.36761645639640406,-1.4421137162450257,0.0,0.00011068919720510096,0.0,0.0,0.0,0.0,0.0
1757902799.1678576,0.0,-4.0,0.0,0.0,0.0,0.0,0.6857895204940105,-4.168919313405361,-0.10368063213038277,1.0478554285933435,0.36313342206771493,-1.4767822051403088,0.0,0.00016891931340536103,0.0,0.0,0.0,0.0,0.0
1757902799.21809,0.0,-4.0,0.0,0.0,0.0,0.0,0.6835249016346321,-4.1040608223894335,-0.10715946637820867,1.0017197965308422,0.3607382754917632,-1.454521695603281,0.0,0.00010406082238943348,0.0,0.0,0.0,0.0,0.0
1757902799.277601,0.0,-4.0,0.0,0.0,0.0,0.0,0.5959190124115172,-4.054652611430237,-0.07912637068651321,0.9467925376915083,0.310099880929922,-1.4828919011256558,0.0,5.465261143023703e-05,0.0,0.0,0.0,0.0,0.0
1757902799.3377185,0.0,-4.0,0.0,0.0,0.0,0.0,0.6295737257023504,-4.122954509175905,-0.14042087342598633,0.9849270249539314,0.3440453237256627,-1.4839981151251673,0.0,0.00012295450917590501,0.0,0.0,0.0,0.0,0.0
1757902799.397795,0.0,-4.0,0.0,0.0,0.0,0.0,0.6098975408734253,-4.051401638454638,-0.14831745599800986,0.942572762244555,0.3302277051164362,-1.4582055965074967,0.0,5.1401638454637857e-05,0.0,0.0,0.0,0.0,0.0
1757902799.457604,0.0,-4.0,0.0,0.0,0.0,0.0,0.5037903157057316,-3.8828014283976304,-0.15856191281253312,0.8569864192442266,0.28259836359242624,-1.4519940768481359,0.0,-0.00011719857160236957,0.0,0.0,0.0,0.0,0.0
1757902799.5076458,0.0,-4.0,0.0,0.0,0.0,0.0,0.5000515814698163,-3.9389879281094684,-0.18458225439961645,0.8986459518623776,0.29097203267033606,-1.4716365862833833,0.0,-6.10120718905316e-05,0.0,0.0,0.0,0.0,0.0
1757902799.568014,0.0,-4.0,0.0,0.0,0.0,0.0,0.5416554398497712,-3.947421050068329,-0.167070508533877,0.9026206927356808,0.30493160319948115,-1.4559376659643113,0.0,-5.2578949931671115e-05,0.0,0.0,0.0,0.0,0.0
1757902799.627491,0.0,-4.0,0.0,0.0,0.0,0.0,0.5073831492470102,-4.046124537247171,-0.05674640180889255,0.8982052306093686,0.2441332778659925,-1.502778809058054,0.0,4.612453724717103e-05,0.0,0.0,0.0,0.0,0.0
1757902799.6782537,0.0,-4.0,0.0,0.0,0.0,0.0,0.5277536461646158,-4.108180412902983,-0.10235414216465315,0.9463843468076788,0.2723405304175044,-1.5153933450453496,0.0,0.00010818041290298287,0.0,0.0,0.0,0.0,0.0
1757902799.7380486,0.0,-4.0,0.0,0.0,0.0,0.0,0.5389167629268214,-4.045225886966574,-0.1303202998473929,0.9311973811728466,0.28580995927591507,-1.4855984505509414,0.0,4.522588696657426e-05,0.0,0.0,0.0,0.0,0.0
1757902799.7881167,0.0,-4.0,0.0,0.0,0.0,0.0,0.49777007443485655,-4.036353874502518,-0.12441056818930615,0.9180576206675117,0.265540403385459,-1.504344462002557,0.0,3.635387450251759e-05,0.0,0.0,0.0,0.0,0.0
1757902799.8486285,0.0,-4.0,0.0,0.0,0.0,0.0,0.49377840887253155,-3.9691188858039883,-0.16635846806920795,0.9033351276302765,0.282323539571976,-1.486128939773883,0.0,-3.0881114196011694e-05,0.0,0.0,0.0,0.0,0.0
1757902799.8990617,0.0,-4.0,0.0,0.0,0.0,0.0,0.5074092995613224,-3.891456239936187,-0.17329122141059203,0.866085925084318,0.2856803320127377,-1.4469013054475288,0.0,-0.00010854376006381284,0.0,0.0,0.0,0.0,0.0
1757902799.957733,0.0,-4.0,0.0,0.0,0.0,0.0,0.5228481496427667,-3.9627387186108436,-0.22433462212905522,0.9357626422346381,0.3158875461071897,-1.464003846637292,0.0,-3.726128138915641e-05,0.0,0.0,0.0,0.0,0.0
1757902800.007934,0.0,-4.0,0.0,0.0,0.0,0.0,0.5043771242135789,-3.938024422461658,-0.12446876196000242,0.874514547624377,0.2691077478866085,-1.4666287363430932,0.0,-6.197557753834193e-05,0.0,0.0,0.0,0.0,0.0
1757902800.0677195,0.0,-4.0,0.0,0.0,0.0,0.0,0.542022753996507,-4.0335479451016,-0.17209000094732516,0.9527042203747843,0.30153651857145936,-1.4828635908872139,0.0,3.3547945101600085e-05,0.0,0.0,0.0,0.0,0.0
1757902800.1275232,0.0,-4.0,0.0,0.0,0.0,0.0,0.46364219693649994,-3.9602550582508886,-0.11395004844320046,0.8916695395398823,0.2462024223635739,-1.4948648559331312,0.0,-3.974494174911136e-05,0.0,0.0,0.0,0.0,0.0
1757902800.1777782,0.0,-4.0,0.0,0.0,0.0,0.0,0.493040710728812,-3.9861096766340776,-0.21097706315404668,0.9583938047656997,0.29696687116316456,-1.488151569720225,0.0,-1.389032336592244e-05,0.0,0.0,0.0,0.0,0.0
1757902800.227824,0.0,-4.0,0.0,0.0,0.0,0.0,0.5113011762770403,-3.9054812848890466,-0.20755782255815217,0.929657869727533,0.30699879212572156,-1.450869496890337,0.0,-9.451871511095345e-05,0.0,0.0,0.0,0.0,0.0
1757902800.2875075,0.0,-4.0,0.0,0.0,0.0,0.0,0.5044617318726549,-3.7880411534563905,-0.15671438272276447,0.8509866937605437,0.28474423482878,-1.4121978528545003,0.0,-0.00021195884654360954,0.0,0.0,0.0,0.0,0.0
1757902800.3377967,0.0,-4.0,0.0,0.0,0.0,0.0,0.5377730556435552,-3.8637035958165393,-0.17067529586572294,0.901421587956259,0.30755803280770816,-1.4241909099460135,0.0,-0.00013629640418346068,0.0,0.0,0.0,0.0,0.0
1757902800.3981557,0.0,-4.0,0.0,0.0,0.0,0.0,0.5844845032537702,-4.034389493283855,-0.10437970768290283,0.9613744695414697,0.307757228305876,-1.4714791803077496,0.0,3.438949328385465e-05,0.0,0.0,0.0,0.0,0.0
1757902800.457578,0.0,-4.0,0.0,0.0,0.0,0.0,0.6436885807214761,-4.147795141312442,0.0794074493830957,0.9160350900666753,0.2694038234295022,-1.4988396675119335,0.0,0.0001477951413124421,0.0,0.0,0.0,0.0,0.0
1757902800.5076125,0.0,-4.0,0.0,0.0,0.0,0.0,0.6578415893862232,-4.3205658532982385,0.01987053165718751,1.0265692117348872,0.30039031791993626,-1.5529293582584605,0.0,0.0003205658532982385,0.0,0.0,0.0,0.0,0.0
1757902800.567729,0.0,-4.0,0.0,0.0,0.0,0.0,0.6129954107185371,-4.089743821133576,0.015614107222944797,0.8987968888944242,0.2745385581456776,-1.4851578473075053,0.0,8.974382113357571e-05,0.0,0.0,0.0,0.0,0.0
1757902800.6275194,0.0,-4.0,0.0,0.0,0.0,0.0,0.46366585980818187,-3.8510159740974603,-0.12224205463984952,0.8393819176122502,0.25088941399679854,-1.4646369627104003,0.0,-0.00014898402590253967,0.0,0.0,0.0,0.0,0.0
1757902800.6781478,0.0,-4.0,0.0,0.0,0.0,0.0,0.4578346333548323,-3.7444081080256257,-0.15016584665486324,0.7985592097402102,0.26155817983854834,-1.4283791681232043,0.0,-0.00025559189197437424,0.0,0.0,0.0,0.0,0.0
1757902800.7423253,0.0,-4.0,0.0,0.0,0.0,0.0,0.592210592470402,-3.9835672422773722,-0.1483324449573773,0.9222062850818218,0.32008759706959006,-1.4376963555844395,0.0,-1.6432757722627757e-05,0.0,0.0,0.0,0.0,0.0
1757902800.7977269,0.0,-4.0,0.0,0.0,0.0,0.0,0.5910391256560961,-3.980201323100549,-0.1269596680706967,0.9297986039716583,0.3146875231418128,-1.44139727542567,0.0,-1.979867689945092e-05,0.0,0.0,0.0,0.0,0.0
1757902800.8478467,0.0,-4.0,0.0,0.0,0.0,0.0,0.5483532623864422,-3.924818013131748,-0.10064423398238694,0.8933790215218722,0.283691652654145,-1.443613150890624,0.0,-7.518198686825217e-05,0.0,0.0,0.0,0.0,0.0
1757902800.8981733,0.0,-4.0,0.0,0.0,0.0,0.0,0.5892019368215303,-3.9946606960253304,-0.1622877071513345,0.9670642795536726,0.3304876127161676,-1.4522303943767145,0.0,-5.339303974669641e-06,0.0,0.0,0.0,0.0,0.0
1757902800.9577472,0.0,-4.0,0.0,0.0,0.0,0.0,0.5483671970483293,-4.046131726358689,-0.1266074601571972,0.9736331103382262,0.2958171806191646,-1.4914122934201672,0.0,4.6131726358688673e-05,0.0,0.0,0.0,0.0,0.0
1757902801.0080738,0.0,-4.0,0.0,0.0,0.0,0.0,0.6554350099186238,-4.030350065194855,-0.11345106840459546,0.9648393187865931,0.34196579666870497,-1.4325431070500396,0.0,3.035006519485517e-05,0.0,0.0,0.0,0.0,0.0
1757902801.0681896,0.0,-4.0,0.0,0.0,0.0,0.0,0.5761092446574085,-4.061161585013151,-0.10682892727479049,0.9651175254365121,0.30174204683208516,-1.4801132429235393,0.0,6.116158501315106e-05,0.0,0.0,0.0,0.0,0.0
1757902801.1275864,0.0,-4.0,0.0,0.0,0.0,0.0,0.5292216693601439,-3.9812635182345053,-0.11269709115161151,0.9244367868173308,0.2843856890970071,-1.4763160103148898,0.0,-1.8736481765494693e-05,0.0,0.0,0.0,0.0,0.0
1757902801.1777985,0.0,-4.0,0.0,0.0,0.0,0.0,0.5293502573716091,-4.005914313896014,-0.12068311936485963,0.932449672983407,0.2856384994359762,-1.483446527158458,0.0,5.9143138960138234e-06,0.0,0.0,0.0,0.0,0.0
1757902801.2376287,0.0,-4.0,0.0,0.0,0.0,0.0,0.5570166041663759,-3.9710463337408086,-0.19197134252842174,0.9483322183004009,0.32671755069636277,-1.4572023221695978,0.0,-2.895366625919138e-05,0.0,0.0,0.0,0.0,0.0
1757902801.2877555,0.0,-4.0,0.0,0.0,0.0,0.0,0.5864995260588646,-3.9704990682901435,-0.15699737691597113,0.9294748308996764,0.32528208986773244,-1.4423405962763418,0.0,-2.950093170985646e-05,0.0,0.0,0.0,0.0,0.0
1757902801.3478477,0.0,-4.0,0.0,0.0,0.0,0.0,0.5651258934195122,-4.014071098603616,-0.12834229769897612,0.9393094761430418,0.30853779156229316,-1.4733643500478575,0.0,1.4071098603616328e-05,0.0,0.0,0.0,0.0,0.0
1757902801.408239,0.0,-4.0,0.0,0.0,0.0,0.0,0.5968843046324777,-4.0085944666473505,-0.1125182633458568,0.9323098889039929,0.3140457594738139,-1.4503693426904274,0.0,8.59446664735053e-06,0.0,0.0,0.0,0.0,0.0
1757902801.467873,0.0,-4.0,0.0,0.0,0.0,0.0,0.6203501334253948,-3.925697785196109,-0.09118327816212149,0.8811696440448199,0.31701216463046106,-1.410817309502284,0.0,-7.430221480389099e-05,0.0,0.0,0.0,0.0,0.0
1757902801.5275102,0.0,-4.0,0.0,0.0,0.0,0.0,0.5547735138324521,-3.972360408021198,-0.11528097290647743,0.9140148774177093,0.29888033756591315,-1.462341005955674,0.0,-2.763959197880217e-05,0.0,0.0,0.0,0.0,0.0
1757902801.5775826,0.0,-4.0,0.0,0.0,0.0,0.0,0.581421404927254,-4.013749347588949,-0.1167502904567076,0.9331952376288638,0.314229070266856,-1.4650399719474456,0.0,1.3749347588949412e-05,0.0,0.0,0.0,0.0,0.0
1757902801.6377292,0.0,-4.0,0.0,0.0,0.0,0.0,0.6128347430543318,-4.106159617086849,-0.16261221150816463,1.0011261606872965,0.34491472983578314,-1.4821524806931508,0.0,0.00010615961708684907,0.0,0.0,0.0,0.0,0.0
1757902801.6979566,0.0,-4.0,0.0,0.0,0.0,0.0,0.6304313370279498,-4.142255432653007,-0.09573828049498723,0.9692693877928299,0.3248036054496103,-1.4906009728164182,0.0,0.0001422554326530072,0.0,0.0,0.0,0.0,0.0
1757902801.7578611,0.0,-4.0,0.0,0.0,0.0,0.0,0.5352480853011373,-4.174285993651535,-0.06082062405931759,0.9513882706571455,0.26289342155481654,-1.547366479113506,0.0,0.00017428599365153463,0.0,0.0,0.0,0.0,0.0
1757902801.8175652,0.0,-4.0,0.0,0.0,0.0,0.0,0.48378273222423107,-4.081293290998764,-0.0712477878080371,0.9080817035553187,0.24013401731210637,-1.5361366510503145,0.0,8.129329099876425e-05,0.0,0.0,0.0,0.0,0.0
1757902801.869174,0.0,-4.0,0.0,0.0,0.0,0.0,0.46288308918502563,-3.9438098580699954,-0.08306986036735085,0.8451857769242248,0.2328286331241628,-1.4936463791189758,0.0,-5.61901419300046e-05,0.0,0.0,0.0,0.0,0.0
1757902801.9276972,0.0,-4.0,0.0,0.0,0.0,0.0,0.3940903026923036,-3.766424441570225,-0.12861853028534784,0.7829244848266819,0.220911769758431,-1.462055829036168,0.0,-0.00023357555842977497,0.0,0.0,0.0,0.0,0.0
1757902801.9778516,0.0,-4.0,0.0,0.0,0.0,0.0,0.4762726650213029,-3.867708821305498,-0.16487234099741255,0.8590324171820536,0.27056821799936953,-1.4516628915479801,0.0,-0.0001322911786945018,0.0,0.0,0.0,0.0,0.0
1757902802.0381887,0.0,-4.0,0.0,0.0,0.0,0.0,0.49318963322524656,-4.0481727465015105,-0.15068770338170623,0.9568376573449071,0.27530007653331423,-1.5124983726461538,0.0,4.817274650151049e-05,0.0,0.0,0.0,0.0,0.0
1757902802.0977352,0.0,-4.0,0.0,0.0,0.0,0.0,0.5821134308440453,-4.071655346089759,-0.1443115874554781,0.9694435522960536,0.31405248752498993,-1.4775599917544242,0.0,7.165534608975933e-05,0.0,0.0,0.0,0.0,0.0
1757902802.1481166,0.0,-4.0,0.0,0.0,0.0,0.0,0.540435686198311,-3.9863048085742325,-0.08991827590284203,0.9026764523807491,0.27678567163025175,-1.4718893771948187,0.0,-1.3695191425767473e-05,0.0,0.0,0.0,0.0,0.0
1757902802.2079287,0.0,-4.0,0.0,0.0,0.0,0.0,0.5251123777630974,-3.9433821975656578,-0.1159442881903927,0.893027787367466,0.27690623452120267,-1.4651049124939197,0.0,-5.661780243434222e-05,0.0,0.0,0.0,0.0,0.0
1757902802.267994,0.0,-4.0,0.0,0.0,0.0,0.0,0.503959214615766,-4.0171387613268195,-0.13453502506713105,0.936931774047955,0.2806281503812638,-1.507292563162238,0.0,1.7138761326819463e-05,0.0,0.0,0.0,0.0,0.0
1757902802.327483,0.0,-4.0,0.0,0.0,0.0,0.0,0.6014462885177217,-4.070827711651635,-0.14755046641336944,0.9645789018990929,0.3256036091884077,-1.4711814994075576,0.0,7.082771165163492e-05,0.0,0.0,0.0,0.0,0.0
1757902802.3784435,0.0,-4.0,0.0,0.0,0.0,0.0,0.45200391386415234,-3.9520258906921706,-0.0858524267035671,0.8831582803652418,0.2382058682535568,-1.5133056270836658,0.0,-4.7974109307829415e-05,0.0,0.0,0.0,0.0,0.0
1757902802.437911,0.0,-4.0,0.0,0.0,0.0,0.0,0.4899853001423749,-3.981835862707878,-0.08880477265168531,0.8922676915741681,0.2538174825061018,-1.4986754215840203,0.0,-1.8164137292122184e-05,0.0,0.0,0.0,0.0,0.0
1757902802.4975464,0.0,-4.0,0.0,0.0,0.0,0.0,0.46284756353804146,-3.989495399076375,-0.13860458979846474,0.9316920544062433,0.26171945179401396,-1.5108280037873998,0.0,-1.0504600923625152e-05,0.0,0.0,0.0,0.0,0.0
1757902802.5574675,0.0,-4.0,0.0,0.0,0.0,0.0,0.534559875216876,-3.8645550847327295,-0.15391316431951294,0.8787092928550426,0.2964653377001429,-1.4280390219776793,0.0,-0.00013544491526727053,0.0,0.0,0.0,0.0,0.0
1757902802.6076732,0.0,-4.0,0.0,0.0,0.0,0.0,0.5707184263128943,-4.0578349541746395,-0.1873559624380847,0.9922284979294479,0.3274151300681162,-1.4791018954084358,0.0,5.783495417463946e-05,0.0,0.0,0.0,0.0,0.0
1757902802.6676238,0.0,-4.0,0.0,0.0,0.0,0.0,0.543357581027516,-3.9803126457661935,-0.11374785209264957,0.9217873448386116,0.2897682408617041,-1.4702328789319128,0.0,-1.968735423380652e-05,0.0,0.0,0.0,0.0,0.0
1757902802.717707,0.0,-4.0,0.0,0.0,0.0,0.0,0.5413730592460144,-3.9705278323598234,-0.05157017256539409,0.884217387946135,0.26370228068699453,-1.4708069861543807,0.0,-2.9472167640176573e-05,0.0,0.0,0.0,0.0,0.0
1757902802.7710185,0.0,-4.0,0.0,0.0,0.0,0.0,0.5923630570270068,-4.066069675007137,-0.11060341652385888,0.9621076087583582,0.3106556201456721,-1.4789044188228468,0.0,6.606967500713701e-05,0.0,0.0,0.0,0.0,0.0
1757902802.8276634,0.0,-4.0,0.0,0.0,0.0,0.0,0.6055862876039152,-4.084139287476791,-0.14839797849467534,0.9941031344563531,0.33512579361318706,-1.478806323567574,0.0,8.413928747679122e-05,0.0,0.0,0.0,0.0,0.0
1757902802.8794432,0.0,-4.0,0.0,0.0,0.0,0.0,0.5939434073061812,-4.010089722488463,-0.1042124062667967,0.9276078548923845,0.3111408354823547,-1.4543077331796008,0.0,1.0089722488462628e-05,0.0,0.0,0.0,0.0,0.0
1757902802.9377344,0.0,-4.0,0.0,0.0,0.0,0.0,0.5680547308984104,-3.7984833965092313,-0.19861648844128388,0.8937647978729639,0.3374007033538415,-1.3907348688260457,0.0,-0.00020151660349076872,0.0,0.0,0.0,0.0,0.0
1757902802.9975722,0.0,-4.0,0.0,0.0,0.0,0.0,0.44706225154864543,-3.755307833821866,-0.18425259034468913,0.8661150407467706,0.27286258900650345,-1.4350891342188439,0.0,-0.00024469216617813405,0.0,0.0,0.0,0.0,0.0
1757902803.047813,0.0,-4.0,0.0,0.0,0.0,0.0,0.5387535022255857,-3.760753064485973,-0.18817336256088119,0.874560740298795,0.3187570631832135,-1.3920310912937746,0.0,-0.0002392469355140272,0.0,0.0,0.0,0.0,0.0
1757902803.108086,0.0,-4.0,0.0,0.0,0.0,0.0,0.7950263860814619,-4.182442665496357,-0.18564919111725647,1.1194877751135972,0.4470024066804075,-1.4337930598185615,0.0,0.0001824426654963567,0.0,0.0,0.0,0.0,0.0
1757902803.167711,0.0,-4.0,0.0,0.0,0.0,0.0,0.7671606907862614,-4.224725517312141,-0.03376693848778334,1.0640279819211893,0.3723191287476888,-1.4666086434773091,0.0,0.00022472551731214096,0.0,0.0,0.0,0.0,0.0
1757902803.227622,0.0,-4.0,0.0,0.0,0.0,0.0,0.8053975167052169,-4.2099763564056465,-0.052348202716373804,1.0573980124460138,0.39975776514397543,-1.4459050332538754,0.0,0.0002099763564056465,0.0,0.0,0.0,0.0,0.0
1757902803.2777374,0.0,-4.0,0.0,0.0,0.0,0.0,0.6886457666758224,-4.125471498472287,-0.04857180489241968,0.9907585910591676,0.33976962572824965,-1.477013322357755,0.0,0.00012547149847228666,0.0,0.0,0.0,0.0,0.0
1757902803.337806,0.0,-4.0,0.0,0.0,0.0,0.0,0.5240728925596503,-4.051343167913831,-0.0828923274087808,0.9378400950805784,0.27118521534244666,-1.5202632314635434,0.0,5.1343167913831425e-05,0.0,0.0,0.0,0.0,0.0
1757902803.3976405,0.0,-4.0,0.0,0.0,0.0,0.0,0.5169203719696175,-3.8664185527029034,-0.15902939821611628,0.8562575257958931,0.2931691145116273,-1.4484300545713744,0.0,-0.00013358144729709665,0.0,0.0,0.0,0.0,0.0
1757902803.4478161,0.0,-4.0,0.0,0.0,0.0,0.0,0.49446195317602826,-3.948194437864522,-0.14915039108544728,0.8896310698320291,0.27517103418687294,-1.482219714797937,0.0,-5.180556213547805e-05,0.0,0.0,0.0,0.0,0.0
1757902803.5078168,0.0,-4.0,0.0,0.0,0.0,0.0,0.516649822579473,-3.974542519204327,-0.188253626622487,0.9316877136066154,0.300488184484697,-1.4775877137585702,0.0,-2.5457480795672895e-05,0.0,0.0,0.0,0.0,0.0
1757902803.5676782,0.0,-4.0,0.0,0.0,0.0,0.0,0.5358675337745915,-4.067019227218393,-0.1767945296810275,0.9754730469214307,0.30106696369609476,-1.497176244860769,0.0,6.70192272183927e-05,0.0,0.0,0.0,0.0,0.0
1757902803.6274488,0.0,-4.0,0.0,0.0,0.0,0.0,0.5725570023566611,-3.9510577974585024,-0.15978049492302593,0.9224995141276301,0.3202873291541459,-1.4459880038063098,0.0,-4.894220254149762e-05,0.0,0.0,0.0,0.0,0.0
1757902803.677685,0.0,-4.0,0.0,0.0,0.0,0.0,0.5601675724818413,-3.9739041378096958,-0.15300619022814188,0.9342553895615539,0.3132210473105425,-1.4603513489038162,0.0,-2.6095862190304242e-05,0.0,0.0,0.0,0.0,0.0
1757902803.7378664,0.0,-4.0,0.0,0.0,0.0,0.0,0.671668851580054,-3.975494593929201,-0.12587389472448457,0.9191977726023344,0.34679023073205223,-1.39631660367417,0.0,-2.450540607079921e-05,0.0,0.0,0.0,0.0,0.0
1757902803.7975876,0.0,-4.0,0.0,0.0,0.0,0.0,0.5658136702483313,-3.9399177046486624,-0.05992213416051186,0.8677949073292486,0.28115852687502674,-1.444927173740796,0.0,-6.0082295351337576e-05,0.0,0.0,0.0,0.0,0.0
1757902803.8479733,0.0,-4.0,0.0,0.0,0.0,0.0,0.6282875131594843,-4.041101103994157,-0.15191527372610206,0.9632432122223734,0.3414307844691564,-1.4449427689938237,0.0,4.1101103994156675e-05,0.0,0.0,0.0,0.0,0.0
1757902803.9086173,0.0,-4.0,0.0,0.0,0.0,0.0,0.6635722393296875,-4.0167914181698325,-0.1252317855061432,0.9402307361388723,0.3430804931487688,-1.4122407475633347,0.0,1.679141816983254e-05,0.0,0.0,0.0,0.0,0.0
1757902803.9678414,0.0,-4.0,0.0,0.0,0.0,0.0,0.6353139082760859,-3.9998235979499954,-0.1278183275959162,0.941456446367234,0.335659008718066,-1.4228195295928219,0.0,-1.7640205000457598e-07,0.0,0.0,0.0,0.0,0.0
1757902804.027845,0.0,-4.0,0.0,0.0,0.0,0.0,0.6186137781615535,-3.973766028289558,-0.030349770082811228,0.8787218993027979,0.29143953432112396,-1.4275458416381719,0.0,-2.623397171044184e-05,0.0,0.0,0.0,0.0,0.0
1757902804.0875196,0.0,-4.0,0.0,0.0,0.0,0.0,0.7197563511969549,-4.154820644696784,-0.013071302096893,0.9476021053121617,0.33166577601962494,-1.4401306168862569,0.0,0.00015482064469678393,0.0,0.0,0.0,0.0,0.0
1757902804.1378636,0.0,-4.0,0.0,0.0,0.0,0.0,0.5706891068472523,-4.021227732656593,-0.044385085790722756,0.8991102498505463,0.275000239958467,-1.4784321596040093,0.0,2.1227732656592837e-05,0.0,0.0,0.0,0.0,0.0
1757902804.1975439,0.0,-4.0,0.0,0.0,0.0,0.0,0.5250804191299661,-4.0747174650587175,-0.05126604657411821,0.9216184348642027,0.26145604635908276,-1.5243623898326957,0.0,7.471746505871746e-05,0.0,0.0,0.0,0.0,0.0
1757902804.2481034,0.0,-4.0,0.0,0.0,0.0,0.0,0.31179806671429344,-4.055850452657588,-0.13159753441892666,0.9386369612569684,0.199099021165484,-1.640265623298804,0.0,5.585045265758826e-05,0.0,0.0,0.0,0.0,0.0
1757902804.307594,0.0,-4.0,0.0,0.0,0.0,0.0,0.07804621184439375,-4.217469300198178,-0.32712411361071037,1.0967143823255077,0.17037057385709997,-1.8388072754667388,0.0,0.00021746930019817779,0.0,0.0,0.0,0.0,0.0
1757902804.3677723,0.0,-4.0,0.0,0.0,0.0,0.0,-0.05288149769155987,-4.367518829580362,-0.4277268397656878,1.2084308351012245,0.1513706108912575,-1.9692116423810073,0.0,0.0003675188295803622,0.0,0.0,0.0,0.0,0.0
1757902804.4277556,0.0,-4.0,0.0,0.0,0.0,0.0,-0.057859093605722965,-4.368206999828923,-0.5662207422203611,1.2779909809298033,0.20746014260319565,-1.9758446178668077,0.0,0.0003682069998289226,0.0,0.0,0.0,0.0,0.0
1757902804.477805,0.0,-4.0,0.0,0.0,0.0,0.0,-0.17743894375356523,-4.335534415478449,-0.5880361371864362,1.2554395605509279,0.16707842406705936,-2.0238705422857675,0.0,0.00033553441547844897,0.0,0.0,0.0,0.0,0.0
1757902804.5377529,0.0,-4.0,0.0,0.0,0.0,0.0,-0.4801866998094225,-4.213606257051366,-0.9502846056668564,1.3250579527019597,0.16852300627769728,-2.1227278368615226,0.0,0.00021360625705136639,0.0,0.0,0.0,0.0,0.0
1757902804.5974936,0.0,-4.0,0.0,0.0,0.0,0.0,-0.6360520515779217,-4.214335050075934,-1.033633946504365,1.3217928985542517,0.11914622587972956,-2.1811178096313792,0.0,0.00021433505007593378,0.0,0.0,0.0,0.0,0.0
1757902804.6477084,0.0,-4.0,0.0,0.0,0.0,0.0,-0.5875162865471805,-4.20327460630695,-0.956030522495703,1.2457436543632132,0.10567318961712838,-2.1412551988882513,0.0,0.00020327460630694994,0.0,0.0,0.0,0.0,0.0
1757902804.707811,0.0,-4.0,0.0,0.0,0.0,0.0,-0.5642006731034226,-4.285407743940176,-0.9465762404456,1.2474602733012141,0.10841254989830265,-2.146810538956592,0.0,0.00028540774394017633,0.0,0.0,0.0,0.0,0.0
1757902804.7676637,0.0,-4.0,0.0,0.0,0.0,0.0,-0.7892755137255729,-4.185962913858402,-0.9252293192093676,1.1418430357221758,0.011040980210818578,-2.2252117615654905,0.0,0.00018596291385840225,0.0,0.0,0.0,0.0,0.0
1757902804.827467,0.0,-4.0,0.0,0.0,0.0,0.0,-0.8876631212845276,-4.188628386981512,-0.9625779767517817,1.138335639403044,-0.007550458453794593,-2.2788529355828993,0.0,0.0001886283869815122,0.0,0.0,0.0,0.0,0.0
1757902804.8777056,0.0,-4.0,0.0,0.0,0.0,0.0,-1.0443842836727404,-4.06445511339882,-0.863450441875451,1.0211019469049551,-0.11443712568234196,-2.313185765417684,0.0,6.445511339881983e-05,0.0,0.0,0.0,0.0,0.0
1757902804.9279902,0.0,-4.0,0.0,0.0,0.0,0.0,-0.941229038636158,-4.274757767305913,-1.2122451796709366,1.3149502204243309,0.0740774044917202,-2.332207048690406,0.0,0.0002747577673059132,0.0,0.0,0.0,0.0,0.0
1757902804.9791214,0.0,-4.4876415525373945,0.0,0.0,0.0,0.0,-0.944031204675865,-4.484547949129162,-1.5267722021466965,1.5999481163383416,0.20918925452613166,-2.4129905776097322,0.0,-3.0936034082325038e-06,0.0,0.0,0.0,0.0,0.0
1757902805.0378642,0.0,-4.931837333551235,0.0,0.0,0.0,0.0,-0.9996595189918673,-4.729226400605051,-1.7006951412956144,1.7814539622572803,0.2480134951828155,-2.532746432475697,0.0,-0.00020261093294618427,0.0,0.0,0.0,0.0,0.0
1757902805.0881305,0.0,-5.608945168397708,0.0,0.0,0.0,0.0,-0.9565185064346988,-5.443444045138866,-2.029461724493135,2.316972991299357,0.40573693686777734,-2.7818037169276417,0.0,-0.00016550112325884126,0.0,0.0,0.0,0.0,0.0
1757902805.1478376,0.0,-5.5813459386694815,0.0,0.0,0.0,0.0,-0.9609847203618871,-5.214971209489407,-2.015126786375328,2.233432663608741,0.4024765800772465,-2.713867605277295,0.0,-0.0003663747291800741,0.0,0.0,0.0,0.0,0.0
1757902805.2076435,0.0,-6.606372848944833,0.0,0.0,0.0,0.0,-0.8185135239146316,-6.116996548840013,-2.512588618587,2.9868662177542333,0.6648341697884521,-2.9872015001810674,0.0,-0.0004893763001048201,0.0,0.0,0.0,0.0,0.0
1757902805.267892,0.0,-6.412703326865041,0.0,0.0,0.0,0.0,-0.577244662383823,-7.22888526695844,-2.4992860646774995,3.510100467294248,0.7754216160420481,-3.30095411531751,0.0,0.000816181940093399,0.0,0.0,0.0,0.0,0.0
1757902805.3277152,0.0,-7.0126730012727165,0.0,0.0,0.0,0.0,-0.5830303079177858,-8.274166100554469,-2.7438091915608815,4.145421401366732,0.876403602076812,-3.7188168129243193,0.0,0.0012614930992817523,0.0,0.0,0.0,0.0,0.0
1757902805.3875086,0.0,-7.304786643901373,0.0,0.0,0.0,0.0,-0.6404116541697674,-8.778260584952909,-2.8508697233073845,4.4147085379417685,0.8920609272659832,-3.96230826564071,0.0,0.0014734739410515356,0.0,0.0,0.0,0.0,0.0
1757902805.4386942,0.0,-8.287878445885147,0.0,0.0,0.0,0.0,-1.2170455013073014,-9.22485761774327,-3.0836713361106556,4.581954585958455,0.7001710778303148,-4.387796710793541,0.0,0.0009369791718581233,0.0,0.0,0.0,0.0,0.0
1757902805.4974852,0.0,-10.00222665697506,0.0,0.0,0.0,0.0,-1.4335933325625485,-9.46611010023457,-3.7352290762994182,4.899310108709036,0.8708585456210063,-4.579571929669552,0.0,-0.00053611655674049,0.0,0.0,0.0,0.0,0.0
1757902805.5482578,0.0,-9.739434470340337,0.0,0.0,0.0,0.0,-1.302059334829428,-10.85713911976506,-3.671742760176987,5.470676281849555,0.9074785258656048,-5.037524865645999,0.0,0.0011177046494247236,0.0,0.0,0.0,0.0,0.0
1757902805.6079144,0.0,-9.986374886259538,0.0,0.0,0.0,0.0,-1.2484650785751472,-11.266760201312044,-3.7944385996619827,5.73347894017574,0.9852849538936906,-5.183257748404638,0.0,0.0012803853150525058,0.0,0.0,0.0,0.0,0.0
1757902805.6679144,0.0,-11.141696221505319,0.0,0.0,0.0,0.0,-1.404412185453598,-11.707260887870193,-4.229611041705655,6.137560486753073,1.0824524721062347,-5.416305293203834,0.0,0.0005655646663648746,0.0,0.0,0.0,0.0,0.0
1757902805.7278466,0.0,-9.522198942571734,0.0,0.0,0.0,0.0,-1.2809477185651925,-10.435013147586833,-3.5870233585256885,5.145728783740577,0.8772897724272408,-4.88128053440116,0.0,0.0009128142050150992,0.0,0.0,0.0,0.0,0.0
1757902805.7875621,0.0,-7.663690141824063,0.0,0.0,0.0,0.0,-1.2689834241657216,-8.51544654706463,-2.790488223156524,3.8792461184185614,0.5618933417009188,-4.142859566639517,0.0,0.0008517564052405682,0.0,0.0,0.0,0.0,0.0
1757902805.8376777,0.0,-4.0,0.0,0.0,0.0,0.0,-1.0576687093383454,-6.157975612736479,-1.1479171382314894,1.895602644410974,-0.010386653233282493,-3.099278612091014,0.0,0.002157975612736479,0.0,0.0,0.0,0.0,0.0
1757902805.8976364,0.0,-4.2328138368514665,0.0,0.0,0.0,0.0,-1.3710194872175832,-5.011210718882604,-0.9934684907234013,1.2952835370206066,-0.20321529791141776,-2.816534703144774,0.0,0.0007783968820311378,0.0,0.0,0.0,0.0,0.0
1757902805.9480226,0.0,-5.8410025879392595,0.0,0.0,0.0,0.0,-2.029094536909495,-4.230204747900563,-1.1582509043614624,1.054102072273026,-0.4056007307965984,-2.9494205138372265,0.0,-0.0016107978400386961,0.0,0.0,0.0,0.0,0.0
1757902806.0077698,0.0,-5.943434649619281,0.0,0.0,0.0,0.0,-2.104020289064664,-4.19079132997664,-1.1067994817000324,1.088697308461832,-0.45486465705374685,-3.009186476580537,0.0,-0.0017526433196426413,0.0,0.0,0.0,0.0,0.0
1757902806.0678217,0.0,-5.0127574013781855,0.0,0.0,0.0,0.0,-1.6822786158033454,-4.847214664391301,-1.0910437851994144,1.4717672114942977,-0.2656265155208125,-3.0721550699864975,0.0,-0.00016554273698688428,0.0,0.0,0.0,0.0,0.0
1757902806.117896,0.0,-4.288335326918235,0.0,0.0,0.0,0.0,-0.9394766469501946,-6.5147238403584,-1.435184590918676,2.688117138156789,0.21830931500203893,-3.4519984464398683,0.0,0.002226388513440165,0.0,0.0,0.0,0.0,0.0
1757902806.1777816,0.0,-5.806775270766457,0.0,0.0,0.0,0.0,-1.3641738907135403,-5.891147648932387,-1.8798967639540904,2.514227008224244,0.18327250652915927,-3.3789639993994607,0.0,8.43723781659298e-05,0.0,0.0,0.0,0.0,0.0
1757902806.2379096,0.0,-6.739775942350659,0.0,0.0,0.0,0.0,-1.8071901508857569,-5.1860512790360325,-2.000499067491837,2.170489308485344,0.022417952997720557,-3.2868735774535343,0.0,-0.0015537246633146263,0.0,0.0,0.0,0.0,0.0
1757902806.297613,0.0,-5.238594649283693,0.0,0.0,0.0,0.0,-1.6203293379487542,-4.679964852958231,-1.3286807970702184,1.4829752641264768,-0.18189653672880385,-2.9381519225017403,0.0,-0.0005586297963254613,0.0,0.0,0.0,0.0,0.0
1757902806.3478599,0.0,-4.0,0.0,0.0,0.0,0.0,-1.2963250878093853,-4.435211193183555,-0.6347926971041826,0.9677946566629202,-0.3158250785374647,-2.6515283886815375,0.0,0.00043521119318355516,0.0,0.0,0.0,0.0,0.0
1757902806.409879,0.0,-4.0,0.0,0.0,0.0,0.0,-0.6904845115709072,-4.421460485339446,1.0435254354281263,0.11333376271636911,-0.6675274485923199,-2.353540681872263,0.0,0.0004214604853394457,0.0,0.0,0.0,0.0,0.0
1757902806.467593,0.0,-4.0,0.0,0.0,0.0,0.0,-0.5510093663401257,-3.969557519463621,0.9571774849874513,-0.11065613009437712,-0.5867131971818389,-2.0877201035195125,0.0,-3.0442480536378993e-05,0.0,0.0,0.0,0.0,0.0
1757902806.5274625,0.0,-4.0,0.0,0.0,0.0,0.0,-0.7611155567762119,-3.9794333270545845,1.026434884899134,-0.174666448147148,-0.71622339591119,-2.1816537544719923,0.0,-2.0566672945415476e-05,0.0,0.0,0.0,0.0,0.0
1757902806.5777571,0.0,-4.0,0.0,0.0,0.0,0.0,-0.749868642240057,-3.925410169415195,0.9495930748989282,-0.1676897189629086,-0.6779469675942245,-2.1520628213839186,0.0,-7.458983058480495e-05,0.0,0.0,0.0,0.0,0.0
1757902806.63764,0.0,-4.0,0.0,0.0,0.0,0.0,-0.7089005502581206,-4.186165459740455,1.0073746784116508,-0.08757297575122489,-0.6746546321987806,-2.2289451888012106,0.0,0.0001861654597404554,0.0,0.0,0.0,0.0,0.0
1757902806.6877034,0.0,-4.0,0.0,0.0,0.0,0.0,-0.6769631886694235,-4.1896349843695,1.0323548735035575,-0.10683698954362973,-0.6712582170466268,-2.2125488659462977,0.0,0.00018963498436950043,0.0,0.0,0.0,0.0,0.0
1757902806.737745,0.0,-4.0,0.0,0.0,0.0,0.0,-0.6836623911149247,-4.346990909829018,0.9344774638388196,0.005791628789161975,-0.6348812674721419,-2.2739918125461327,0.0,0.00034699090982901826,0.0,0.0,0.0,0.0,0.0
1757902806.7974818,0.0,-4.0,0.0,0.0,0.0,0.0,-0.9037764055863673,-4.564704588774375,0.9374852956027369,0.01939332798576034,-0.7413300765040173,-2.4549971839187616,0.0,0.0005647045887743749,0.0,0.0,0.0,0.0,0.0
1757902806.848014,0.0,-4.0,0.0,0.0,0.0,0.0,-1.0054943313997253,-4.5493393048327055,0.82670034257672,0.0385245680797787,-0.7444195326991004,-2.4867825576178486,0.0,0.0005493393048327056,0.0,0.0,0.0,0.0,0.0
1757902806.9076183,0.0,-4.0,0.0,0.0,0.0,0.0,-1.1354416778614818,-4.249076288764561,0.7940683927646196,-0.130408867250611,-0.7823006011689012,-2.4242258085065678,0.0,0.00024907628876456124,0.0,0.0,0.0,0.0,0.0
1757902806.9577074,0.0,-4.0,0.0,0.0,0.0,0.0,-1.1018365726129757,-3.860810236761193,0.7884249535325224,-0.30844650452161915,-0.7628870346430946,-2.2500848092487598,0.0,-0.00013918976323880683,0.0,0.0,0.0,0.0,0.0
1757902807.008321,0.0,-4.0,0.0,0.0,0.0,0.0,-1.1650535666987418,-3.6793555783370975,0.8495685009604634,-0.4267691956037628,-0.8155136101359646,-2.2030968249043714,0.0,-0.00032064442166290254,0.0,0.0,0.0,0.0,0.0
